{"data": {"layers": [{"layer_type": "input", "out_depth": 3, "out_sx": 32, "out_sy": 32}, {"biases": {"depth": 16, "sx": 1, "sy": 1, "w": {"0": 0.0942647287032473, "1": -0.025764319639527654, "10": -0.047506788768231195, "11": -0.05485218625699073, "12": 0.004186989615083751, "13": 0.013486842075891747, "14": 0.06452486481578909, "15": -0.08714222373892083, "2": -0.08040483783494128, "3": 0.010271907407253944, "4": 0.0014979612130368138, "5": 0.05564472992347557, "6": -0.04082684112633028, "7": -0.02527014180431327, "8": -0.12738051633885106, "9": -0.06294676979873541}}, "filters": [{"depth": 3, "sx": 5, "sy": 5, "w": {"0": -0.18309303834276433, "1": -0.046092591341293905, "10": 0.044853816492362246, "11": -0.0005405436382911249, "12": -0.06071506222863843, "13": 0.12293512098656785, "14": 0.011378091122598097, "15": -0.08976822972016833, "16": 0.022718541868802865, "17": 0.39849982863178646, "18": -0.09099591129942329, "19": 0.0631322253856971, "2": 0.16964135501219033, "20": 0.2525925327295084, "21": -0.12263521811182133, "22": -0.3569465916940601, "23": 0.10775375249692691, "24": 0.1345713256100453, "25": -0.014892878929389773, "26": -0.09070178609998218, "27": -0.02644870156965916, "28": 0.04826471494773046, "29": 0.1932936840724315, "3": -0.005054120319668079, "30": 0.06331464417159612, "31": -0.04585759229353369, "32": 0.13435646621793976, "33": 0.07631981375506676, "34": 0.11686620117861184, "35": 0.14263058194597208, "36": 0.059487296305994745, "37": -0.09016169480307436, "38": 0.09818164771286536, "39": -0.08293233538177402, "4": -0.013293294031424742, "40": 0.029623245940405593, "41": 0.09294581953110762, "42": 0.06813434137740793, "43": 0.08841256475497795, "44": 0.1115889277910497, "45": -0.09580393615352886, "46": 0.2676474983299247, "47": -0.019907322138826962, "48": -0.0451693418364385, "49": 0.06725624871463307, "5": 0.16486305438315857, "50": 0.07639293825425594, "51": -0.0515119742634066, "52": -0.14943161178764378, "53": 0.2640253007095359, "54": -0.055897287006778616, "55": -0.18690460657868546, "56": 0.104641524132652, "57": 0.26394608153415683, "58": 0.15403187069568094, "59": 0.06790352916878696, "6": -0.21977445482719998, "60": -0.023538074364758202, "61": 0.19889023312860946, "62": 0.063989386032916, "63": -0.25235908767245097, "64": 0.11679146349519066, "65": -0.06473467338525067, "66": -0.2227047023637951, "67": 0.14570836172772467, "68": 0.05825602767995581, "69": 0.0701724404966919, "7": 0.12937852914635026, "70": -0.008376461747246305, "71": -0.00946998160133191, "72": 0.11328537337819657, "73": -0.07368507952114843, "74": -0.05620615908865435, "8": 0.21219644228421805, "9": 0.0710144377236064}}, {"depth": 3, "sx": 5, "sy": 5, "w": {"0": -0.06867356312479227, "1": -0.055325533104251874, "10": -0.018624951181366343, "11": -0.14815078657599548, "12": 0.037273729255813286, "13": -0.0713144722552365, "14": 0.007890283465606725, "15": -0.17911097501383197, "16": -0.06253488363140122, "17": -0.012994998685347375, "18": -0.18207636078335684, "19": -0.10688054800307353, "2": -0.07136166490619428, "20": -0.027554901912489303, "21": -0.07123466331403047, "22": 0.12896589316780332, "23": -0.10910601112151731, "24": 0.08273752015203775, "25": 0.2004066179751023, "26": 0.03672577243281054, "27": -0.04840009959247764, "28": -0.12345222174986266, "29": 0.1253255825975722, "3": 0.030964096837610384, "30": -0.18254140220718587, "31": 0.04925635741021528, "32": -0.019598112005455616, "33": -0.09174709455690239, "34": 0.06893080019655527, "35": -0.17308700413369388, "36": -0.1017398264945841, "37": -0.04487186254588802, "38": -0.19829152125877744, "39": -0.13742507870001222, "4": -0.19200770529192157, "40": -0.05681804458707791, "41": 0.10647978325808266, "42": -0.10799549249874185, "43": -0.008901107393423294, "44": 0.05371417111100804, "45": 0.03547005946938206, "46": -0.0743219498034056, "47": -0.09997879308929007, "48": 0.07152021431957058, "49": 0.1145565612990382, "5": 0.06913666322442891, "50": -0.10767695615546245, "51": 0.02741706154545542, "52": -0.19399433404376779, "53": 0.019911323198236918, "54": 0.07045567352030474, "55": 0.014225596446992842, "56": -0.07655169251418252, "57": -0.07948046746364981, "58": -0.021150619054725463, "59": -0.02604147143244408, "6": 0.11102976192316238, "60": 0.2216487370041152, "61": -0.11340342422009381, "62": 0.03230815556826171, "63": 0.046312961677946046, "64": 0.14766801761502873, "65": -0.10570786799700253, "66": 0.31554598499813197, "67": -0.16567370025419256, "68": -0.1624715647795228, "69": -0.08724101624037794, "7": 0.13022494816590904, "70": 0.16976269627353407, "71": -0.00735762640250193, "72": 0.105945164949446, "73": 0.261893950710011, "74": -0.023964417850036317, "8": 0.018502600979320175, "9": -0.01504499119797795}}, {"depth": 3, "sx": 5, "sy": 5, "w": {"0": -0.021528299547578445, "1": 0.07370563476036596, "10": -0.20611524398774203, "11": 0.20029525277449942, "12": -0.014062554385693867, "13": -0.09902333788535865, "14": -0.18623619942449712, "15": -0.04115659245104147, "16": -0.21294753897117036, "17": -0.0599122541537139, "18": 0.050328135436627654, "19": -0.02062928357851547, "2": -0.23125278224161172, "20": -0.07042388809177973, "21": 0.04966424602922726, "22": -0.17067074092319892, "23": -0.15229498616751408, "24": 0.12467646594343426, "25": -0.02523014516174563, "26": 0.008094680135422761, "27": 0.14112871069919658, "28": -0.12443364833898075, "29": -0.04577924840241223, "3": 0.08374117746213784, "30": 0.2435984241316898, "31": 0.07936678348903536, "32": -0.05399665105929361, "33": -0.03786712733182594, "34": 0.012518330809631852, "35": 0.05981164313528271, "36": -0.13882054386089362, "37": -0.1020200975035882, "38": 0.0251531500960074, "39": 0.15460846493252509, "4": -0.22329764254196027, "40": 0.04584401553285674, "41": -0.07797573294045566, "42": -0.012413487902640342, "43": -0.018564228608454247, "44": 0.10194367515649429, "45": -0.13234967800106753, "46": 0.11678838610782519, "47": 0.10841253251709171, "48": 0.09738111680413401, "49": -0.19691049681272274, "5": -0.11234324647298445, "50": 0.09813465984670765, "51": 0.12769010526690938, "52": -0.029459452171119612, "53": 0.01567430417214972, "54": 0.12481013297260402, "55": 0.0025773572030110756, "56": -0.00551958955478833, "57": -0.013499810923512687, "58": 0.01078850254849144, "59": 0.1270286051107527, "6": 0.025537436252837713, "60": 0.02525792296318737, "61": -0.0718023694623214, "62": 0.0918635421177388, "63": -0.2105398034344102, "64": 0.053207710931534556, "65": 0.12731565062262787, "66": 0.15227777332301115, "67": -0.12329130070636517, "68": -0.00265044288545295, "69": 0.02416325074196788, "7": -0.12693895476263137, "70": 0.11386918030422566, "71": 0.007763723753435014, "72": -0.03717986385267334, "73": 0.1525409561801756, "74": 0.08317068642381178, "8": -0.02174804934839052, "9": -0.06126658289645088}}, {"depth": 3, "sx": 5, "sy": 5, "w": {"0": 0.05156644835667889, "1": 0.1257226091086769, "10": -0.20670696204472955, "11": 0.2653540827255688, "12": -0.11983007871911099, "13": 0.2832697099390998, "14": 0.07495518223239403, "15": 0.02333775703744283, "16": -0.16620295456222584, "17": 0.2432412869877187, "18": 0.0007808573999961284, "19": 0.08325509917767394, "2": 0.4171058534948653, "20": -0.05549062174852162, "21": -0.214763207647641, "22": -0.16356453672560647, "23": 0.2985014611237218, "24": -0.16119260023705168, "25": -0.022569736648477244, "26": -0.05380863995940958, "27": -0.13516081382450826, "28": -0.014083674920465488, "29": 0.0017556307330242322, "3": 0.09830136587658814, "30": -0.17262333666747243, "31": -0.21713284280066777, "32": 0.13973958359382382, "33": -0.061825724613642344, "34": 0.04762042769539027, "35": 0.10650100495526857, "36": 0.09716287680653028, "37": -0.19573160052877508, "38": 0.18524827092417634, "39": -0.02349181917356861, "4": 0.21367257157353498, "40": 0.08818324332622558, "41": -0.12081935789969482, "42": -0.32480103871495714, "43": 0.13943655210154646, "44": 0.03018008537337488, "45": -0.1454172969409986, "46": -0.11873519363644174, "47": 0.04995975824394809, "48": -0.15752034536240886, "49": -0.26812857890609143, "5": 0.1619274130934256, "50": 0.06076745488616825, "51": -0.021996214705201324, "52": -0.058644147449282216, "53": -0.11485030718616919, "54": -0.10089795843007954, "55": -0.07819527809971262, "56": -0.0750837314403596, "57": 0.029684914495180032, "58": -0.21186427441861674, "59": -0.04045167349105283, "6": -0.02428938474715192, "60": -0.15671040141896897, "61": -0.13002585989050458, "62": 0.013763421167903361, "63": 0.017267060837130054, "64": 0.01901246353831428, "65": -0.101622126264101, "66": -0.13841839955563148, "67": 0.05910840942466851, "68": -0.14475100481229702, "69": -0.007172267193611565, "7": 0.15121750669850206, "70": -0.33921117229596703, "71": -0.10413722172354893, "72": -0.053077086862680006, "73": -0.010742240155680175, "74": 0.12313184896557487, "8": 0.003447656647079501, "9": -0.018934404000156942}}, {"depth": 3, "sx": 5, "sy": 5, "w": {"0": -0.16675132883423788, "1": 0.040822654698553076, "10": -0.1586353935574224, "11": -0.111193085809845, "12": 0.04540295177518095, "13": 0.13334593973933906, "14": -0.14816118127267147, "15": -0.0016176548012480168, "16": -0.045967504581014125, "17": -0.12400255151880613, "18": 0.04836310772426777, "19": -0.02632107631078492, "2": -0.10304917459595665, "20": -0.007533300043264874, "21": -0.2350416411298474, "22": -0.2027041624768396, "23": -0.026648375219525258, "24": 0.07239076953318352, "25": -0.02906885198238877, "26": -0.08504260684525819, "27": 0.16082563222001212, "28": 0.1417756501848028, "29": 0.02176505403875891, "3": -0.09935233839716924, "30": -0.09358117426152458, "31": -0.24653645344347258, "32": -0.13297490495103462, "33": -0.07292346776075258, "34": 0.2729622914976928, "35": -0.018046505818277984, "36": 0.08037430118522065, "37": -0.01820851217957271, "38": -0.22671965966683294, "39": 0.13339863879046418, "4": 0.07039718647841173, "40": -0.12532690143921746, "41": -0.02567442231191984, "42": -0.1630547849543104, "43": 0.21564850983691808, "44": 0.01690323914409665, "45": 0.05628107626681236, "46": 0.04322331568854748, "47": 0.06295738724932913, "48": -0.06139489865437508, "49": -0.03102774331409472, "5": -0.0025357450698016673, "50": -0.14540073907008633, "51": -0.04549638049765579, "52": -0.04233260643942117, "53": -0.05707288801736358, "54": -0.25993029552281177, "55": 0.1063817277306151, "56": 9.172666367778838e-05, "57": 0.24782784949953582, "58": 0.19194021241252746, "59": -0.10155155083782272, "6": -0.055693477194974084, "60": 0.014789860173435442, "61": 0.021616343468843394, "62": -0.1437898390620597, "63": 0.16949286945046804, "64": 0.15803113054337786, "65": -0.07918804546835809, "66": 0.031072251244554365, "67": -0.0330135056622981, "68": -0.10140220030773486, "69": -0.08614719311804474, "7": 0.059621141347092795, "70": -0.0626895721470021, "71": 0.17193040937317594, "72": -0.19382667690544222, "73": 0.11163018636786672, "74": -0.1521416225011071, "8": -0.0856299553244037, "9": 0.08531981887650884}}, {"depth": 3, "sx": 5, "sy": 5, "w": {"0": -0.05474228004154456, "1": -0.03904139079573415, "10": 0.08860939658893872, "11": -0.30274428947070076, "12": -0.059587766052760886, "13": -0.0748117002995544, "14": -0.2038066486947021, "15": 0.032673972582472455, "16": -0.0784836889291516, "17": -0.07686630391076658, "18": -0.1351827278328326, "19": -0.011545018042797492, "2": -0.08117142955155426, "20": 0.0159399314894409, "21": -0.09029404941764352, "22": 0.18638467622847935, "23": 0.05297931270445497, "24": -0.07124394837984475, "25": 0.17226381745484837, "26": -0.01730714528643734, "27": 0.04904456431532688, "28": 0.16914565026417466, "29": -0.10631622575320492, "3": -0.02724526423786446, "30": -0.09367794277113135, "31": -0.043829793267841324, "32": -0.2333082366086228, "33": 0.313747648801461, "34": 0.029262790802372426, "35": -0.3081538503893509, "36": -0.025336343273548306, "37": -0.043284365230106314, "38": -0.13671835564722665, "39": -0.0022378095326217517, "4": 0.069245790181007, "40": 0.04283121514334347, "41": -0.03555947835771024, "42": 0.08442346416277459, "43": 0.165641497078298, "44": 0.08161556448951104, "45": 0.1023275921078107, "46": -0.009011431168261872, "47": 0.08210478674440333, "48": 0.09604096048981473, "49": 0.08183207236464822, "5": -0.1728759316839871, "50": -0.08426699078043806, "51": -0.07139493906941768, "52": -0.16970270473970822, "53": -0.1391826287038865, "54": 0.15385606266843402, "55": -0.21861985973181292, "56": -0.06921023215002951, "57": -0.04048256966918081, "58": 0.17525398626721425, "59": 0.04840200871141381, "6": 0.07556049285664879, "60": 0.11155135302744387, "61": -0.10702138421757956, "62": -0.2037593104817479, "63": 0.005402628839277515, "64": 0.15341678089443123, "65": -0.18031798182303127, "66": 0.08935440102312313, "67": 0.2309508846389001, "68": 0.03974267110253182, "69": 0.20811486450870628, "7": 0.11955137879101362, "70": -0.12010144449454556, "71": -0.09912083758728941, "72": -0.009397200516978205, "73": 0.05053316735383258, "74": -0.07549354924188127, "8": -0.12018557848906371, "9": -0.15269615994767866}}, {"depth": 3, "sx": 5, "sy": 5, "w": {"0": 0.08941438190754813, "1": -0.07177368339880291, "10": 0.08032911909589721, "11": 0.036516634568921985, "12": 0.04479870641307889, "13": -0.15278800164149436, "14": 0.10350360753265327, "15": -0.050867725018240856, "16": 0.09660208912837233, "17": -0.0678591637810796, "18": 0.006005924418338529, "19": -0.18085214667689584, "2": -0.03764457300131883, "20": 0.027690953785498473, "21": 0.007989320571750757, "22": -0.00863805418939853, "23": 0.0151369506310178, "24": -0.08644255005717076, "25": -0.1241017447443107, "26": -0.013888551640598903, "27": -0.06095547609490794, "28": -0.14263147887638275, "29": -0.1768245795857904, "3": -0.019553528036536105, "30": -0.00631919268628206, "31": -0.049845180924568626, "32": -0.2195565699516748, "33": 0.029082714856899405, "34": -0.40499883333605186, "35": 0.18247464616908776, "36": 0.0202628829468153, "37": -0.10230788068139024, "38": -0.24715834206438844, "39": -0.09216488066585624, "4": 0.13154887262183365, "40": 0.03873793137882322, "41": -0.020391939830431922, "42": 0.11741511189412591, "43": -0.1012973528632092, "44": -0.27668803047970486, "45": 0.12987232598338008, "46": -0.032127878692320394, "47": 0.13939114859015536, "48": -0.024791310106930996, "49": -0.11964839794954729, "5": -0.04620317495975612, "50": 0.057319339408910944, "51": -0.08280822788543256, "52": -0.005754143854808647, "53": 0.1392177673858753, "54": -0.011910027754453496, "55": -0.03750046994272473, "56": -0.1599869653689859, "57": 0.01537806879701619, "58": -0.10564764774819803, "59": 0.01262901072573508, "6": -0.0067769715630543416, "60": 0.08190401153418475, "61": -0.0016869500643035724, "62": -0.060637738248763055, "63": 0.03934667225548442, "64": -0.1242490758868158, "65": 0.003195522835146628, "66": 0.1539817097850514, "67": 0.053149430010464, "68": 0.03866528279266803, "69": 0.19847565793980557, "7": -0.1495950886642708, "70": 0.22040754871613288, "71": -0.012635773567392011, "72": -0.025501922797809735, "73": 0.24096784161707643, "74": -0.10221234149826847, "8": -0.012989915063161248, "9": 0.11292807454999397}}, {"depth": 3, "sx": 5, "sy": 5, "w": {"0": -0.13807720230472093, "1": -0.05394367281964246, "10": 0.04975297753822806, "11": 0.049593038935913804, "12": -0.0482489481925787, "13": 0.021466290451125414, "14": -0.023646769674670116, "15": 0.1786243622281569, "16": -0.16640730653018876, "17": 0.04324349842381362, "18": 0.01376536870141625, "19": 0.028097141839914484, "2": 0.04591217224729442, "20": 0.11809677022949323, "21": -0.03515489180481076, "22": 0.07977025300572332, "23": -0.08008849748093377, "24": 0.02735953137602075, "25": -0.06698151166440333, "26": -0.004281401643037844, "27": 0.07379177046998585, "28": -0.15568342521503767, "29": 0.03841417336883019, "3": -0.09004768431734134, "30": -0.0358438167060534, "31": -0.14151999805417512, "32": -0.21574077757124496, "33": 0.11951047775376636, "34": -0.025381070975478114, "35": 0.06669464530487013, "36": 0.0416078347911305, "37": -0.10501539833169737, "38": -0.08173839187493523, "39": -0.021400866363515632, "4": -0.23848441484331337, "40": -0.17007311466190017, "41": 0.042281545444784, "42": -0.07297544427842333, "43": 0.19904013481430938, "44": -0.1801012042819406, "45": -0.03494386542794941, "46": -0.22677154779020814, "47": 0.39066046307317936, "48": -0.055220642587042464, "49": -0.21989675592723437, "5": -0.04762462712828443, "50": 0.09249180451828728, "51": 0.23517718706291735, "52": -0.03533137554387431, "53": 0.29243261684528243, "54": 0.008673630265116009, "55": -0.02680827634606024, "56": -0.043417069574552956, "57": 0.10650904490780101, "58": 0.10809250500580855, "59": 0.04762447425736054, "6": -0.09809974927938228, "60": 0.2425269355289914, "61": -0.011611511609252246, "62": -0.09563866203651127, "63": 0.2717431160512968, "64": -0.015402219084778561, "65": 0.2154248897107112, "66": -0.09393466586491125, "67": -0.01835873982684418, "68": 0.1158141026417753, "69": 0.06530618314591737, "7": 0.023468804729046715, "70": 0.055440967328708145, "71": 0.10699211130016564, "72": 0.15768859310022337, "73": 0.13805974618134081, "74": 0.15465221748442406, "8": 0.03784517915930947, "9": -0.1238682310918179}}, {"depth": 3, "sx": 5, "sy": 5, "w": {"0": -0.10636870380000997, "1": 0.22608784906316395, "10": 0.0016954791122725018, "11": -0.025617212547272634, "12": 0.030997579235562626, "13": -0.006077905882089792, "14": 0.02757535328404193, "15": 0.021767234872546844, "16": 0.03302869115013292, "17": 0.025074784146158987, "18": 0.039367311501587184, "19": 0.12103115345209804, "2": 0.14377748108651497, "20": 0.01268854418100305, "21": -0.30354212921321516, "22": -0.1362904904034439, "23": 0.16197151518514769, "24": 0.044795060372577834, "25": -0.058856685139532565, "26": 0.2095975790661619, "27": 0.03831261374550137, "28": 0.1733326719703862, "29": 0.07692633181081387, "3": 0.0065942954073118735, "30": -0.10912532572023934, "31": -0.16770839731949674, "32": -0.05785225301702926, "33": -0.005358688778313296, "34": -0.04838689534309249, "35": -0.05550770649235972, "36": -0.14831489738447715, "37": -0.007657152882995056, "38": -0.05001173927038792, "39": -0.19747336760718653, "4": -0.1413307113269414, "40": 0.3905741774917955, "41": -0.10594311826300393, "42": -0.03593102037584866, "43": -0.08613210136782253, "44": -0.029892859691856448, "45": -0.08003358098008403, "46": 0.10226720005190076, "47": 0.22322209693062672, "48": -0.17875336823950608, "49": 0.10012956670327999, "5": 0.15022305877067674, "50": -0.03063185895591004, "51": -0.060175311100404846, "52": 0.2012454295603534, "53": 0.05969246596119242, "54": 0.1952311796358025, "55": 0.11085651100631687, "56": -0.0974246048767565, "57": -0.03546627520342682, "58": 0.13160974299569936, "59": 0.08291377258353083, "6": -0.09400157776086476, "60": -0.19044662709206645, "61": -0.0653403944500504, "62": -0.09641427905429244, "63": -0.22901898051118116, "64": -0.062441820283930485, "65": 0.09816128337330468, "66": -0.17214241641711622, "67": -0.17115923766884047, "68": -0.09678886292472755, "69": -0.3570596877803491, "7": 0.10116360130702422, "70": -0.2200297362853415, "71": -0.06647405527385394, "72": 0.07196676576463715, "73": 0.10462448327990469, "74": 0.005286855744724125, "8": -0.0790674625657423, "9": 0.0891488890030388}}, {"depth": 3, "sx": 5, "sy": 5, "w": {"0": -0.01653825264642827, "1": -0.09936355835298656, "10": 0.1687563200611518, "11": 0.09456950526729291, "12": 0.07473835844082859, "13": -0.05665943212814929, "14": -0.16564503255227178, "15": -0.02194651067801157, "16": -0.14842328909120867, "17": -0.04389937866245769, "18": 0.1515244980959864, "19": -0.15327195117410677, "2": -0.11801812605926411, "20": -0.08150023215103296, "21": 0.034011838450283646, "22": -0.019495965790341973, "23": -0.07533232874890952, "24": -0.0759588570647598, "25": 0.06127395587888801, "26": 0.025648222607730437, "27": 0.1552436878593762, "28": -0.03286158614442998, "29": -0.06914767038359657, "3": -0.08134383527999235, "30": -0.03588178227995344, "31": -0.20492996267411212, "32": 0.06244313271384628, "33": 0.027508739579738765, "34": -0.20551503202267696, "35": -0.11045068867129597, "36": -0.05750518869870563, "37": -0.03974509037286471, "38": -0.06318866618185397, "39": -0.09171956758202895, "4": -0.0646050677449414, "40": 0.10988733156107558, "41": -0.01784761386757551, "42": 0.04415545898073025, "43": -0.08685048773235268, "44": 0.1004705026058302, "45": 0.024911914506322665, "46": -0.0879599424527363, "47": 0.09312910123101298, "48": -0.19266328844330596, "49": -0.12469586623921472, "5": -0.07589652748079527, "50": -0.007522183143917512, "51": -0.16012229910351308, "52": 0.2891068667290454, "53": 0.2725731676443179, "54": -0.19388373260343583, "55": -0.014486708354179353, "56": 0.011805719547107697, "57": 0.024167119429579203, "58": -0.054254927365789074, "59": 0.14531458360818245, "6": 0.031419172998172484, "60": -0.09477129440184023, "61": 0.010920304621253258, "62": 0.057078377655316974, "63": 0.2747499394808097, "64": 0.011383839653051928, "65": 0.021890944980543448, "66": 0.12681425411300848, "67": 0.05893990647371245, "68": -0.08237739159137697, "69": -0.03508106943452313, "7": -0.308333290835731, "70": 0.08982646834494716, "71": 0.05807972927880965, "72": 0.17333724498000402, "73": 0.16742086986300322, "74": -0.07864255858084546, "8": -0.01070711719839207, "9": 0.01612888859710108}}, {"depth": 3, "sx": 5, "sy": 5, "w": {"0": -0.11111947847448031, "1": -0.054962757900552904, "10": 0.050830295913028546, "11": -0.024332377453147473, "12": -0.08433790697895995, "13": 0.07423799566343603, "14": 0.022971168624868466, "15": 0.2504495696106432, "16": -0.07376612855207564, "17": 0.01875363642536916, "18": -0.02679757592641958, "19": 0.09447250777215531, "2": -0.18019751386703375, "20": 0.05351402120987363, "21": 0.009913884193353342, "22": -0.01752664837326246, "23": -0.08327164390586934, "24": 0.023668332577385248, "25": -0.025542160977273173, "26": 0.08708420306964677, "27": 0.033529415855798314, "28": 0.022406867670701724, "29": 0.14734744849472897, "3": 0.029790963302492507, "30": 0.14344941983677506, "31": -0.14964054954540226, "32": -0.04467176736241703, "33": -0.0022666445504165595, "34": 0.04217306882414043, "35": -0.07614524988738029, "36": -0.029036601924761388, "37": -0.160168618125321, "38": 0.010544104250007066, "39": -0.04251923096937639, "4": 0.01720696922328456, "40": 0.00557058807305288, "41": 0.0715470329798225, "42": -0.22525420049744974, "43": -0.20916456116084486, "44": -0.002668042838666108, "45": -0.09170684576216392, "46": -0.13519336135707746, "47": 0.19337479284565592, "48": -0.04813061367655305, "49": -0.19847033641486048, "5": 0.0978862118936499, "50": 0.17061765679182203, "51": -0.17731029602238105, "52": -0.12133908553544097, "53": 0.03967926844669647, "54": -0.048193285525457284, "55": -0.11678860756914926, "56": -0.026610665043366368, "57": -0.08236724537410499, "58": 0.03825468510730424, "59": -0.06438929376804595, "6": 0.09525798010904948, "60": -0.11029324454822223, "61": 0.15673060087207843, "62": -0.05472348063729655, "63": 0.13396807346895073, "64": -0.06883532832600339, "65": -0.08089374024074318, "66": -0.10373734875819766, "67": 0.12490827981718364, "68": 0.07579310151784163, "69": -0.15331013282629732, "7": 0.2529377538445743, "70": -0.08392047846385978, "71": 0.07174027825413776, "72": -0.1489076062477827, "73": 0.21485264298990397, "74": -0.02612647245651088, "8": 0.06191990750195589, "9": 0.054629522293188876}}, {"depth": 3, "sx": 5, "sy": 5, "w": {"0": -0.11760173922507068, "1": 0.04531532062304329, "10": -0.2524101057610796, "11": 0.03289572658662135, "12": -0.017003977092448136, "13": 0.2127972924689964, "14": -0.02834661984214381, "15": 0.21749835921099317, "16": 0.02335571978779814, "17": -0.21850853495409356, "18": 0.22377254574083463, "19": -0.10527422732295477, "2": -0.19908021373568033, "20": -0.06986893513581398, "21": -0.15329878335687663, "22": -0.01938396089614739, "23": 0.019667730253083618, "24": -0.21128256100548193, "25": -0.03260178855525625, "26": -0.07219477533902115, "27": 0.018003185561695917, "28": -0.04793737842772777, "29": 0.11998523102888711, "3": -0.04898040508450067, "30": -0.13638685498738778, "31": -0.02412759127978226, "32": -0.14943097064279615, "33": 0.033588137973181, "34": -0.021724017934621653, "35": 0.2170877757855718, "36": -0.04984132206724478, "37": -0.31798669072080965, "38": 0.11554698590621566, "39": -0.11093468864492487, "4": -0.09560449317088034, "40": -0.06028837051641277, "41": -0.024216027241214327, "42": -0.015506542124195454, "43": -0.01867746259635298, "44": -0.07763350664484964, "45": -0.0968411379642398, "46": -0.02961931147515909, "47": -0.25624365503235386, "48": -0.059192829935336526, "49": 0.052612201152024446, "5": 0.051596943690853665, "50": -0.07709318239835475, "51": 0.02804361005446701, "52": 0.04121241833832716, "53": -0.029821892286735697, "54": 0.20006005325338794, "55": -0.008269035560472314, "56": -0.049370460466829524, "57": 0.009143633115374701, "58": -0.21581984849789593, "59": -0.1272985846417429, "6": -0.11438334878344358, "60": 0.29754145462632114, "61": 0.058535357731657314, "62": -0.037196879256757624, "63": 0.04676002201222154, "64": 0.40326740140245, "65": -0.07698599741154287, "66": 0.05664395902134847, "67": -0.10940666177817795, "68": -0.11068086563235359, "69": -0.13806757257297234, "7": -0.01459582629089647, "70": 0.09886848958159922, "71": -0.005438500237762529, "72": 0.21733051873089917, "73": 0.12165665064792953, "74": 0.12791705613077686, "8": -0.15440076172772124, "9": -0.08688197954394357}}, {"depth": 3, "sx": 5, "sy": 5, "w": {"0": 0.0625453880506682, "1": 0.02814043393848423, "10": -0.19468921317226334, "11": 0.04390749387724691, "12": 0.07380172644569262, "13": -0.1196745722566783, "14": -0.19181303713593337, "15": -0.04178879997861287, "16": -0.07001580757300921, "17": 0.17577950178540427, "18": 0.1604480242750091, "19": -0.09488064475564423, "2": -0.04961972946084398, "20": 0.16432542331582825, "21": -0.08966565268212381, "22": 0.05183831665698654, "23": 0.1852026296190029, "24": 0.2074568423327844, "25": -0.03031220007144258, "26": 0.09183987812268248, "27": 0.004921214175770008, "28": 0.19867243341090274, "29": 0.17654244952391618, "3": 0.030423355085366328, "30": -0.03719869683763784, "31": -0.1316272699684727, "32": 0.24898227159930386, "33": 0.013332139942258094, "34": -0.08517022188857495, "35": 0.13127937386769414, "36": -0.1259814294213612, "37": -0.11314661866161688, "38": 0.14484407016820888, "39": 0.02684124094050281, "4": 0.15115359293658803, "40": -0.08757404972755094, "41": 0.2216024735798686, "42": -0.03255610427245689, "43": -0.14303501029514085, "44": -0.026680309308282656, "45": -0.05131824918234826, "46": -0.1529159008713815, "47": 0.078112199031802, "48": -0.008153117890016569, "49": -0.14473745361590734, "5": 0.019277970685643766, "50": 0.05777602032208297, "51": 0.12000867897935741, "52": 0.07433924994574036, "53": 0.10752719816176602, "54": -0.04067467008951834, "55": -0.08303904303848655, "56": -0.13646809649967548, "57": -0.0605881261125967, "58": -0.02718353832526178, "59": 0.01564460716636229, "6": -0.10338934210926894, "60": -0.08063571110266139, "61": 0.11008514673722297, "62": 0.2226081464657775, "63": -0.11842440601171172, "64": 0.012480024424149274, "65": 0.1440303250666405, "66": -0.026487671176590996, "67": -0.1983391750328685, "68": -0.10865687750098389, "69": 0.0642043305982217, "7": -0.26857703320263443, "70": 0.10277161094711543, "71": -0.03350747001565406, "72": -0.01670969223776346, "73": 0.020161343236174512, "74": -0.2697901202078469, "8": 0.16724378610689838, "9": -0.07583509750821972}}, {"depth": 3, "sx": 5, "sy": 5, "w": {"0": 0.005901038824301931, "1": -0.29307896027933944, "10": -0.03167354133320211, "11": 0.01805303795198244, "12": 0.033770887514255055, "13": 0.08599671598216692, "14": 0.09636044186778349, "15": -0.1343592074174115, "16": -0.060639184299778826, "17": -0.2273228335208445, "18": -0.14398062714232507, "19": 0.15307845426785133, "2": -0.17870506720270415, "20": -0.15438606082279535, "21": -0.06725989863750156, "22": 0.07427327526795661, "23": 0.10889019969906112, "24": 0.09273512793381232, "25": 0.0922821853505132, "26": 0.1291608894458935, "27": -0.05953251010505331, "28": 0.2268012324443294, "29": -0.12381148239033406, "3": -0.16200500396736323, "30": -0.04819235453091835, "31": 0.03899652448703826, "32": -0.15862197454378524, "33": -0.06602394611158484, "34": 0.04871274752862288, "35": -0.031129703342044693, "36": -0.055008782228447586, "37": -0.035320228665036014, "38": -0.13999007014001508, "39": 0.13053775778764012, "4": -0.011806319286498806, "40": 0.13970488307525128, "41": 0.024958740414542227, "42": -0.01612545422274633, "43": 0.29161072033168245, "44": -0.301876702873144, "45": -0.132678044565252, "46": 0.016880226587406146, "47": -0.09625631615103954, "48": -0.0558577784907085, "49": -0.19133476074274886, "5": -0.1264878510932366, "50": -0.09961528972127304, "51": 0.0005430797347099761, "52": 0.2416036422785858, "53": -0.09356991797969426, "54": -0.05951786999473903, "55": 0.28164223115700576, "56": -0.0014788491578625086, "57": -0.0800606305606002, "58": 0.04592960328629864, "59": 0.1505777424837654, "6": 0.03771416947195564, "60": 0.018673412888995954, "61": -0.12293016579812217, "62": -0.14393664783843177, "63": -0.199265270067789, "64": 0.010340698718068479, "65": -0.30358256427918423, "66": 0.18814212283079748, "67": 0.15244182149468902, "68": -0.16008380005673417, "69": -0.03816686503667018, "7": 0.14235101913627032, "70": 0.05577909247033127, "71": 0.04535131909194243, "72": 0.373759305276206, "73": 0.12870921216109002, "74": 0.12043382021170118, "8": -0.08960672918532564, "9": 0.06434665951708542}}, {"depth": 3, "sx": 5, "sy": 5, "w": {"0": -0.01679105442499329, "1": -0.0011669150779597699, "10": 0.017687899038588317, "11": 0.21055447872129354, "12": -0.18550149235514155, "13": 0.11743113017846794, "14": 0.051291520637372974, "15": -0.09387949238227325, "16": -0.05114740843874965, "17": 0.14595380131908814, "18": -0.04144353601838529, "19": -0.015711951611086836, "2": 0.032458311385914006, "20": -0.06475575132782306, "21": -0.24291437594737728, "22": -0.17628343146062925, "23": 0.05243894090788589, "24": -0.19413043293146115, "25": 0.15967121611754118, "26": -0.05027686638087968, "27": -0.1799290333601327, "28": -0.2074173887008045, "29": 0.1635940913625076, "3": -0.030720617679061552, "30": -0.10637520745693425, "31": 0.11368602930760315, "32": 0.11792594641763825, "33": -0.19389013403406785, "34": -0.02253844517739279, "35": 0.08547701788478562, "36": -0.32535895118012625, "37": 0.1077642389067154, "38": -0.042814302565822276, "39": -0.1109955237662572, "4": -0.044613191156311106, "40": -0.006904310021109517, "41": 0.12445600063464098, "42": -0.11870132250460065, "43": -0.1150914723818514, "44": 0.029815914181608255, "45": 0.002347057323931454, "46": 0.06294719402245663, "47": 0.12553915772249263, "48": 0.07661559054777602, "49": 0.04823562549409454, "5": -0.05972383162778041, "50": -0.048239079470626174, "51": 0.13678314282828702, "52": 0.06328232542625599, "53": 0.26677448245973623, "54": -0.04066401242292022, "55": 0.031380711406994735, "56": 0.06978935543294357, "57": -0.03661302975583762, "58": 0.16645815585916693, "59": 0.13350409293469512, "6": 0.09207149796490227, "60": -0.08262843985317483, "61": 0.1277938411504432, "62": 0.2252889501745738, "63": 0.0505245683558855, "64": 0.1303773401415208, "65": 0.09927016275045877, "66": -0.07731382564480867, "67": 0.09936132734892103, "68": 0.07966195578651003, "69": -0.08471554402894146, "7": -0.05214778002224078, "70": -0.04710947533643759, "71": 0.07992485727252809, "72": 0.2390500133153591, "73": 0.12882041566679905, "74": 0.09550305261242659, "8": 0.07062991662646552, "9": 0.11501229704520678}}, {"depth": 3, "sx": 5, "sy": 5, "w": {"0": -0.07393192215826533, "1": -0.07905132267827691, "10": 0.1492262236764793, "11": 0.042789890692454646, "12": -0.20962214597678025, "13": -0.15382183489732026, "14": -0.04562600726856697, "15": -0.0066709089243192805, "16": -0.0600076978990249, "17": 0.0733368206212667, "18": -0.0460264906435507, "19": 0.03578125377722089, "2": 0.03414579237540932, "20": -0.19966772531041319, "21": -0.01659139745005912, "22": 0.018472420753450423, "23": -0.2049612779594447, "24": -0.030777052507642674, "25": 0.29260809472193317, "26": 0.17423610069977977, "27": -0.06513831877429127, "28": -0.01567140969093943, "29": -0.0236566027540162, "3": -0.023294000008285687, "30": 0.2033162520062586, "31": -0.09795049132467044, "32": -0.05954793708133458, "33": 0.06706451024172135, "34": -0.1052339659335933, "35": 0.08145180849551804, "36": -0.1027083478448307, "37": -0.0009354747939206848, "38": 0.037275040037396054, "39": -0.047029881021647416, "4": -0.06759859970244052, "40": 0.14258608419466745, "41": -0.06307364101229844, "42": -0.25844008115445466, "43": -0.1384957076541265, "44": -0.012224424017843162, "45": 0.04744036749626164, "46": 0.1696119694587952, "47": 0.05990491120297488, "48": 0.05393086698609829, "49": -0.024509012608358572, "5": -0.047806542084860446, "50": -0.1064493633122123, "51": 0.027041554932878933, "52": -0.003198804035539841, "53": -0.07658709893227228, "54": 0.13229232697022458, "55": -0.005532324133477141, "56": 0.15036483505124532, "57": -0.1673269727366971, "58": 0.1594032836410362, "59": 0.02325415820776653, "6": 0.22574316215659157, "60": 0.028126877648293164, "61": 0.00432441925412182, "62": -0.05807356551228171, "63": 0.038127042128035846, "64": -0.09167211544872428, "65": 0.042654339864469565, "66": 0.07512867089129066, "67": 0.018969824558149502, "68": 0.0029053923939198144, "69": -0.17183579151066958, "7": 0.018406881234544214, "70": -0.13470316665948606, "71": 0.05360337952499327, "72": -0.08790201899228141, "73": -0.06286555182129873, "74": 0.040400893555037426, "8": 0.05600000499405991, "9": 0.033077231237431455}}], "in_depth": 3, "l1_decay_mul": 0, "l2_decay_mul": 1, "layer_type": "conv", "out_depth": 16, "out_sx": 32, "out_sy": 32, "pad": 2, "stride": 1, "sx": 5, "sy": 5}, {"layer_type": "relu", "out_depth": 16, "out_sx": 32, "out_sy": 32}, {"in_depth": 16, "layer_type": "pool", "out_depth": 16, "out_sx": 16, "out_sy": 16, "pad": 0, "stride": 2, "sx": 2, "sy": 2}, {"biases": {"depth": 20, "sx": 1, "sy": 1, "w": {"0": 0.019431398832151735, "1": 0.04496348835667989, "10": 0.10700959755577365, "11": 0.15337241037453583, "12": 0.10956927143999724, "13": 0.09111372421437326, "14": 0.10461045903418435, "15": 0.07569933755189921, "16": 0.16157673206308795, "17": 0.07688330841476274, "18": 0.1271077884713163, "19": 0.10619038844295602, "2": 0.013684108245956814, "3": 0.07342754741684071, "4": 0.0518109980956889, "5": 0.09210736596577399, "6": 0.07251937540879702, "7": 0.16140617345385624, "8": 0.09098711151364279, "9": 0.07377987883793781}}, "filters": [{"depth": 16, "sx": 5, "sy": 5, "w": {"0": -0.05072332664899115, "1": 0.020052913386188073, "10": -0.0642109728278518, "100": -0.04439787992950429, "101": -0.02433698341934948, "102": -0.08824624864992321, "103": -0.1593896741967337, "104": -0.032375804625185516, "105": -0.10135232379048682, "106": -0.09981266090333761, "107": -0.042182075754568574, "108": -0.05504339656196047, "109": -0.004801895798618465, "11": -0.07508863913814066, "110": -0.07078991679036681, "111": -0.02326427863084536, "112": -0.12003964514524242, "113": -0.040608861134284545, "114": -0.05189512180376362, "115": -0.07670169013119743, "116": -0.037015444288380675, "117": -0.04567620826208904, "118": -0.055406554274599194, "119": -0.03240260274915451, "12": 0.008782293741938466, "120": -0.0003880010097192437, "121": -0.073053912254858, "122": -0.06029912183253827, "123": -0.05979369502263429, "124": -0.06432410635916917, "125": 0.014470076024420658, "126": -0.036368152564159414, "127": -0.017540068374227565, "128": -0.007323442537104462, "129": 0.006013062612724364, "13": -0.11296881945201329, "130": -0.016688408768629565, "131": -0.02732796317222891, "132": -0.04062808873787417, "133": -0.032333832024807524, "134": -0.017941919344681655, "135": -0.10273361716359963, "136": -0.08000422523489328, "137": -0.02267670612647604, "138": 0.004509112230102471, "139": 0.07493786679409267, "14": -0.10417707584561235, "140": -0.0055572622488321574, "141": 0.010688323257922207, "142": -0.06176990650877885, "143": -0.05250331352738879, "144": -0.03092747799456152, "145": -0.015744565265474495, "146": -0.06786240222637052, "147": -0.07050195948234864, "148": 0.008643969637926782, "149": 0.004941170259005304, "15": -0.11689160643200384, "150": -0.05133362446231638, "151": 0.0031010345902611376, "152": -0.06954111520485859, "153": -0.07795247795963145, "154": -0.02828783657141479, "155": -0.08912669686679639, "156": 0.006428735010385766, "157": 0.1039185151903061, "158": 0.0010245024328669747, "159": -0.014215266603844015, "16": 0.029130761263786942, "160": -0.008903712286850577, "161": -0.029891432728829652, "162": -0.06190572503747479, "163": -0.025354748535496137, "164": 0.03194155336562792, "165": 0.021156047002481186, "166": 0.04791810083705208, "167": -0.04284815923536179, "168": 0.05824652692659101, "169": -0.036759612970886056, "17": -0.04314465626771874, "170": 0.01871760507501766, "171": -0.08124568391775135, "172": 0.09059082202905129, "173": 0.01207489493791547, "174": -0.09011005341909041, "175": 0.03370123131671857, "176": -0.10401540994414749, "177": 0.04302925097439719, "178": -0.030225771349382036, "179": -0.00988116383906406, "18": -0.060418391180826835, "180": 0.06021309140241834, "181": -0.028129816234750242, "182": 0.17525852202970207, "183": -0.057799222347041775, "184": -0.03083285799659355, "185": -0.10878067799851407, "186": -0.024927923273987324, "187": -0.03465945228395679, "188": 0.0320319289317715, "189": -0.004432850318465516, "19": -0.04984830578112833, "190": 0.003537675279113298, "191": -0.07982154460701674, "192": -0.03889010224616125, "193": -0.013139200391900622, "194": -0.029141752322439117, "195": -0.040605158061101196, "196": -0.012116732925221757, "197": -0.0026878469081877783, "198": 0.025260126720602523, "199": -0.04803073822483952, "2": -0.05732577489849382, "20": -0.0122343543023155, "200": -0.09033289234823358, "201": 0.001044238247894077, "202": 0.03921571125685297, "203": 0.02696467665434421, "204": -0.03609961732094694, "205": -0.00031785210970108836, "206": 0.028236677100093633, "207": 0.009718914823134812, "208": 0.011222415196388997, "209": 0.05373387151426982, "21": -0.03897198595233147, "210": 0.030578186502913447, "211": -0.024755603274056435, "212": -0.04245924195579042, "213": 0.02043886212754069, "214": 0.006054236708181134, "215": 0.0009389971028075527, "216": -0.11443125123546334, "217": -0.02212735764885996, "218": -0.022486494269828853, "219": -0.08287596655981007, "22": -0.09957781975455568, "220": 0.01365684390482182, "221": -0.09338626580331114, "222": -0.041684519703444625, "223": 0.07993560519950527, "224": -0.019075088004354483, "225": -0.04323608662451412, "226": -0.03231922827709634, "227": -0.10361086025895853, "228": 0.025995349082059038, "229": 0.020317588326149553, "23": 0.06642861449375811, "230": -0.09510908875412769, "231": -0.040777308781985794, "232": -0.011427774516697681, "233": -0.0338771666655168, "234": -0.052148392939957586, "235": -0.07067468305704036, "236": -0.014407047256230049, "237": -0.034991841614587224, "238": -0.1240982543690454, "239": -0.04678566321867322, "24": -0.03496933786697208, "240": 0.0269895125517764, "241": -0.009544251917438224, "242": 0.08236666318293055, "243": 0.03123297581434863, "244": 0.10322498631694321, "245": 0.037207711419940406, "246": 0.010304445622883284, "247": -0.0065856871021149335, "248": -0.07381750522660589, "249": 0.012075950085661565, "25": -0.02466588214891311, "250": -0.08071031472457155, "251": 0.01801813196936788, "252": -0.07793584706234045, "253": -0.037149155717807254, "254": -0.054183570297091005, "255": -0.02867755482976422, "256": -0.05021079684626997, "257": -0.01578711978907733, "258": -0.049603319369118805, "259": -0.0968964220744346, "26": -0.01287580501215841, "260": -0.07555837788419036, "261": 0.09246686157196678, "262": -0.0323094847221624, "263": -0.02193917296096613, "264": 0.007644463954491715, "265": 0.029382366594603512, "266": -0.03180634156833881, "267": 0.04331961001327609, "268": -0.03154338409728646, "269": 0.031182129030572804, "27": -0.048837343615483614, "270": -0.0643583784434277, "271": -0.10706464833258932, "272": -0.03077674607849948, "273": -0.02004847912157575, "274": 0.015986255014293734, "275": 0.016547388154700967, "276": -0.06121803032172977, "277": 0.027161075384619517, "278": 0.0028257528030033747, "279": 0.0006451034441767854, "28": -0.004069581579979606, "280": 0.03969232304288465, "281": 0.007565582192734627, "282": -0.05643343608745076, "283": 0.030129268662242362, "284": -0.1209757983828793, "285": 0.07583648976245252, "286": -0.08106348577598486, "287": -0.012520688315374102, "288": -0.10591101569104608, "289": 0.0272109656424092, "29": -0.0709333123756877, "290": -0.009773409633845011, "291": 0.038989473009154285, "292": -0.13186383689630965, "293": 0.07215094145553774, "294": -0.01271195368235875, "295": -0.04809430927688385, "296": -0.04155556502881794, "297": 0.020604979374433223, "298": -0.08072911742086669, "299": 0.011111369705842547, "3": -0.045899133903705626, "30": -0.08794698417303279, "300": -0.11944107728424609, "301": 0.0802535654834867, "302": -0.012283787499323327, "303": 0.0015320204098841674, "304": -0.08071053601692688, "305": -0.029156825026467534, "306": 0.011369364441661778, "307": -0.12810939374482574, "308": -0.023323061757388856, "309": -0.001678911470260867, "31": 0.005685992817158776, "310": -0.052383392736736145, "311": -0.11293332798150076, "312": -0.008484136700160742, "313": -0.043198729585194, "314": 0.03663267702156856, "315": -0.07075895765494311, "316": -0.006154543134671537, "317": 0.007633435620435601, "318": -0.0419444880483489, "319": -0.07355606988779573, "32": -0.040658617844171165, "320": -0.06746219918036425, "321": -0.0006595801003332767, "322": -0.022007660958355896, "323": 0.001758671879630609, "324": 0.02889166892880891, "325": 0.023162562034934855, "326": -0.046322449276739876, "327": 0.09705026292711923, "328": 0.04942243110690698, "329": 0.005672263884124859, "33": -0.07135980508714601, "330": 0.02054278215506079, "331": -0.035820855040329364, "332": -0.014840969658512062, "333": 0.07344958488297293, "334": -0.04334843094048953, "335": 0.000362827694165132, "336": 0.0036465581598579145, "337": 0.04625687035976811, "338": -0.025594969919487724, "339": -0.023596529501677673, "34": -0.13033996591968075, "340": 0.01636248033916917, "341": 0.09269763748717545, "342": -0.07996740991035328, "343": 0.05857142289149387, "344": 0.00023910140441200229, "345": -0.024862861881492122, "346": 0.06978156287185096, "347": 0.03264637493463913, "348": -0.041036357618601436, "349": 0.009129557560353028, "35": -0.011366247513367645, "350": -0.003670096318842285, "351": -0.12236464259488404, "352": 0.015634300095722836, "353": -0.09999757543070936, "354": -0.031000949797887676, "355": -0.17075593436871425, "356": 0.05606516488378413, "357": -0.04703459478438227, "358": -0.03728143362783627, "359": -0.08364107589954138, "36": -0.0991039637970885, "360": -0.011610730510039961, "361": -0.007414189603767679, "362": -0.09184817999303677, "363": 0.06680082831001327, "364": -0.08853680924246302, "365": 0.02297595682987591, "366": -0.11550583395661713, "367": -0.04271117532027779, "368": 0.01152332756711316, "369": -0.0671573129181203, "37": -0.05149612417312697, "370": -0.045001247641435066, "371": -0.008721650056544832, "372": -0.03804842713542709, "373": -0.0012356654509190124, "374": -0.037700783027758714, "375": -0.050337374768135296, "376": -0.11642244981079004, "377": -0.06412802039077148, "378": -0.030659074365630274, "379": -0.0576957710862849, "38": -0.032204854202804965, "380": -0.053036022991200936, "381": 0.019115041437459773, "382": -0.08569801898979901, "383": -0.005034897686862522, "384": 0.013985544663364515, "385": -0.0012277240134867435, "386": -0.02357844435416597, "387": -0.09850611487672016, "388": -0.031317333142850456, "389": -0.015223438645704747, "39": -0.06333157791964032, "390": -0.060288288114180306, "391": -0.12163193115492149, "392": -0.03015016554561875, "393": -0.13058450747347092, "394": -0.12699717354692716, "395": -0.0825850909139755, "396": -0.06433683798243535, "397": -0.024727952775206785, "398": -0.09916050807677344, "399": -0.049679671848645336, "4": -0.07782560124614872, "40": -0.007216019898181254, "41": -0.16477340812835325, "42": -0.06736565652827589, "43": -0.08636192892991562, "44": -0.08901564477047695, "45": -0.03725434943087837, "46": -0.06811693874251637, "47": -0.05064930768753724, "48": -0.03336798177649844, "49": -0.07958499466351393, "5": -0.052381660399243093, "50": 0.00268973347934399, "51": -0.07429926591021686, "52": -0.027434016610773302, "53": 0.11116582937578809, "54": 0.02986283051962363, "55": -0.04356216874557173, "56": -0.02376266729066727, "57": -0.05033661778351443, "58": -0.15647138860481186, "59": 0.02150863898066578, "6": 0.016757422956394038, "60": -0.03569706652850588, "61": 0.021328619356036537, "62": -0.20637186074504957, "63": -0.038762271462275774, "64": -0.0927034029645973, "65": -0.053636970098788754, "66": 0.013227713175065086, "67": -0.0843388348194337, "68": -0.10843633051310363, "69": 0.02240776931852189, "7": -0.08203230040576226, "70": -0.007574940731540417, "71": -0.07621608166809303, "72": -0.07816153362030956, "73": -0.03504125827277961, "74": -0.03815960148428852, "75": 0.011069613193864623, "76": -0.022669577156601336, "77": -0.04093916118291881, "78": -0.10106338147463569, "79": -0.10575600351160841, "8": 0.0486341583319961, "80": -0.043191780175027575, "81": -0.039310478815411144, "82": 0.018670802276967494, "83": -0.014899249740541012, "84": 0.00018070687029748627, "85": -0.018024455489218487, "86": -0.06114314907818114, "87": -0.02831780870565928, "88": -0.05129239220176488, "89": 0.038998486742818514, "9": -0.08381249934871575, "90": 0.0037412533706655668, "91": -0.004803567662023365, "92": -0.04006319049080593, "93": -0.037241478422434374, "94": -0.0790379016230773, "95": -0.0476145865164247, "96": 0.05958858287187817, "97": -0.03839271702173654, "98": 0.042505163216420214, "99": 0.038745545980779096}}, {"depth": 16, "sx": 5, "sy": 5, "w": {"0": 0.02152139898753542, "1": -0.04890619812883045, "10": 0.02738781289455149, "100": 0.044418657488631906, "101": -0.11020837978981826, "102": -0.04293171528456219, "103": -0.029662437465606838, "104": 0.015175404372667673, "105": -0.010487477828385302, "106": 0.03894553958031631, "107": -0.01985761237012061, "108": -0.011615954666845653, "109": -0.10788528367209642, "11": 0.0629585191261881, "110": -0.07696425298389407, "111": 0.013331215409638643, "112": -0.02001411234455402, "113": 0.04338248030816697, "114": -0.10819421280624707, "115": -0.003264028446271054, "116": -0.008217874746590253, "117": 0.0765686709375265, "118": 0.0008090338409289517, "119": 0.014933207141910824, "12": -0.029495172649552398, "120": -0.07244287654635724, "121": 0.04326732796879294, "122": -0.04438749068771844, "123": 0.0024315142859976566, "124": -0.010213166862939486, "125": 0.022062232586745317, "126": -0.025406630966396705, "127": -0.1792277653811761, "128": -0.02277779180407082, "129": 0.037449107631781615, "13": -0.06084863105381747, "130": -0.0497445438751014, "131": 0.04886406661374859, "132": 0.0022573404744838134, "133": -0.043726118611987386, "134": 0.045326285098026386, "135": -0.022501758639062563, "136": 0.0638211508376679, "137": -0.017665579785524726, "138": -0.043110117094937755, "139": -0.030064489833549847, "14": -0.04139732073846298, "140": 0.0011777006908471155, "141": -0.03526122373153958, "142": 0.014563104682532396, "143": -0.029967458529763846, "144": -0.11667492464119723, "145": 0.028881457637827145, "146": 0.0009121616112005176, "147": -0.058212725037776726, "148": 0.1171484271789085, "149": -0.06124410090005637, "15": -0.009624601402379505, "150": -0.0830601102192722, "151": 0.05146473997797166, "152": -0.02461515201363732, "153": 0.003095340476300148, "154": -0.05501864717863389, "155": -0.07450202618001506, "156": -0.03769529890188793, "157": -0.0008958634106927658, "158": -0.05266937748610426, "159": -0.027920473346057524, "16": -0.06537648687057354, "160": -0.06692006609270539, "161": 0.015942049161371295, "162": -0.03345469033776443, "163": -0.002328264266703316, "164": -0.10054003632066008, "165": -0.04370456997672611, "166": -0.04533826776769406, "167": -0.07643681010828343, "168": 0.042698267491944136, "169": 0.01427149236207631, "17": 0.0016706466680198033, "170": 0.028214260967579435, "171": -0.007037506666598259, "172": 0.06331855946900955, "173": 0.053029685126451134, "174": -0.08461611298750411, "175": -0.028445066609913316, "176": -0.03483994888258401, "177": -0.044645503620810455, "178": 0.022660273659226658, "179": -0.004054787619178481, "18": -0.0067160600198017135, "180": 0.010142330960025953, "181": -0.053773017242625995, "182": 0.014908214217059776, "183": 0.09155158710684143, "184": -0.004230500005440174, "185": -0.031020792269261868, "186": -0.09682017573888106, "187": -0.06962208990208117, "188": -0.03734474607913776, "189": -0.05534096013905377, "19": -0.011098735492802615, "190": -0.009440036567537684, "191": -0.022833666840147166, "192": 0.028511917464363313, "193": 0.009729747610165176, "194": -0.0237211839805591, "195": 0.038411742831154956, "196": -0.03626471131279701, "197": 0.07051249347756407, "198": -0.08509885897723458, "199": -0.09037095200899302, "2": 0.016045260033047175, "20": -0.013889865973185218, "200": 0.06439185737266204, "201": -0.011143888603938477, "202": 0.034558281937512994, "203": 0.08728137402697213, "204": -0.056122303882825596, "205": -0.07697536911901953, "206": 0.08182077847293033, "207": 0.004494933847103431, "208": 0.010650597377060048, "209": -0.009406319866919838, "21": -0.034379157616074865, "210": -0.020843552919792206, "211": -0.022941011423276984, "212": 0.04130333982402568, "213": 0.03757822184179531, "214": -0.020014174588970306, "215": 0.1021791410441096, "216": 0.027252593350708485, "217": -0.01650790235314652, "218": 0.00011995617192298285, "219": -0.08232649979210964, "22": 0.06629093423168844, "220": -0.005616658019625482, "221": -0.14496353117355948, "222": 0.03901548549231062, "223": 0.04403543944548924, "224": -0.04648127107580211, "225": -0.036054561656818175, "226": 0.012382170243831724, "227": 0.030479106849183417, "228": -0.030274845209110373, "229": -0.012533777720901236, "23": -0.04533569782015254, "230": 0.0045232984854393365, "231": -0.03734956615208577, "232": 0.04895087293367511, "233": 0.04671319202012744, "234": -0.04426081138786222, "235": 0.04932349423029619, "236": 0.012274675498268064, "237": -0.07323888667029474, "238": 0.04992848619545541, "239": 0.03486341583703812, "24": -0.07674309310197859, "240": 0.0031740436920259987, "241": -0.01492035470129866, "242": 0.005224709430302356, "243": 0.022510338088641692, "244": 0.01416398731334825, "245": 0.02259829859156048, "246": -0.003289587160105805, "247": 0.0013680320116493494, "248": 0.07252401787045884, "249": -0.04330622754139154, "25": 0.05930563462652592, "250": -0.053203495940982434, "251": 0.05170614115116378, "252": -0.028738462726018682, "253": -0.02266889540725494, "254": 0.02687871455482321, "255": 0.010522556805979903, "256": -0.0014755298154016654, "257": 0.017837890581052597, "258": 0.0490245121101638, "259": -0.047345053860771036, "26": -0.09510579545954463, "260": -0.0459222414659164, "261": 0.00024094791189686196, "262": -0.05733246833040861, "263": 0.04190551617574049, "264": -0.007923850093979584, "265": 0.04061519857099599, "266": 0.00015494379563085978, "267": -0.043601918624515276, "268": -0.06088025776448301, "269": 0.06363648346093473, "27": -0.05754177466295509, "270": 0.031097020889692614, "271": 0.014821233029742769, "272": -0.049154447790882294, "273": -0.009492706509844795, "274": -0.12153133725773411, "275": -0.038239988443476106, "276": -0.043114193922363105, "277": -0.010760628283401462, "278": -0.008987589294277159, "279": -0.09169508065198462, "28": 0.03665331499733182, "280": -0.0614544373503283, "281": 0.04173658695257067, "282": -0.005584206348560763, "283": 0.023299041369221594, "284": -0.057991695944722546, "285": -0.021086471298823576, "286": -0.009445599800302433, "287": -0.003026850006487145, "288": -0.0011295262716539303, "289": -0.023044574205283535, "29": 0.01418635075023041, "290": 0.045180661659545776, "291": -0.02783556177386113, "292": 0.07745689168943892, "293": -0.03831007097479624, "294": -0.005047953046265653, "295": 0.016403420571656818, "296": 0.007833833195466353, "297": 0.0007987365579283885, "298": -0.093104249191316, "299": -0.13888143377889028, "3": -0.08160982968047713, "30": -0.052975183495681304, "300": -0.03676753000381011, "301": -0.10883463293854564, "302": -0.05995170243863392, "303": 0.010080551925899624, "304": -0.08467135882107474, "305": 0.003258406324109468, "306": -0.0017219502153912453, "307": 0.00562680914211217, "308": 0.045196315227826155, "309": 0.01406020992129623, "31": -0.06807438518423671, "310": -0.03459287765795118, "311": -0.009207207276513479, "312": 0.012611811150435494, "313": -0.012048560513208212, "314": -0.011374918306856906, "315": -0.11024565724524468, "316": -0.03614740517802082, "317": -0.04145602159525919, "318": -0.07699487710606676, "319": 0.032748332077013956, "32": 0.03554630157659809, "320": 0.014192288041503172, "321": 0.008653716894277077, "322": -0.06537978667151804, "323": 0.02796226494385227, "324": -0.008899963423743646, "325": 0.00019947006859606572, "326": 0.020428997874156946, "327": -0.010022510287903573, "328": -0.018930196587413118, "329": -0.08050395352266303, "33": 0.0032945521158633043, "330": 0.014863703664387015, "331": -0.015000015863059133, "332": 0.00934152426592459, "333": -0.059939265447748455, "334": -0.02257168764786461, "335": 0.05706079985467124, "336": -0.021339318695727385, "337": -0.1193966034934851, "338": -0.004862551587534649, "339": -0.031105429116433336, "34": -0.022588151286805865, "340": -0.008486881049642962, "341": 0.018594604196737793, "342": 0.050568726195082, "343": -0.021793739626786775, "344": -0.030003785053770757, "345": -0.002021643568130242, "346": -0.0853052189284368, "347": -0.053707796981754846, "348": 0.030909827582670444, "349": 0.00229686240945202, "35": 0.004675656402085774, "350": 0.045502655120636344, "351": -0.027075543381589257, "352": -0.08998992763191002, "353": -0.0003430114044000577, "354": -0.1485645188918287, "355": -0.08298034916624081, "356": 0.0011292632197919912, "357": 0.0012358475463340284, "358": 0.020152519065983393, "359": -0.09703326459413894, "36": -0.048069446234595546, "360": -0.03325225123017141, "361": -0.04723966122942315, "362": -0.009355013421913154, "363": -0.08882304123935911, "364": -0.016679132983299812, "365": 0.016835350662251263, "366": -0.12498051703152241, "367": 0.03089935460811937, "368": 0.036089076015141414, "369": 0.03417546181788985, "37": -0.08627169283070932, "370": -0.0323960387523098, "371": 0.022775091071806423, "372": 0.017953602112112586, "373": -0.10002034232970015, "374": -0.01709884098013914, "375": -0.053074261537374656, "376": -0.08776381106553595, "377": -0.005276874679559258, "378": -0.02228773031318023, "379": -0.09685225094763332, "38": -0.028060464347797548, "380": -0.06368167924373798, "381": -0.0037520656354401052, "382": -0.022135659171271315, "383": 0.09876636037142594, "384": 0.06406555690917187, "385": -0.09695045484012724, "386": -0.04003633223494605, "387": 0.004080936389263485, "388": -0.0670178811411737, "389": -0.04980138083436811, "39": 0.02370681556570715, "390": -0.0679991366972748, "391": -0.025938683076908314, "392": 0.09401212364721266, "393": -0.01686578782788568, "394": 0.05116701741288715, "395": -0.03909217876933493, "396": 0.0034279133737511753, "397": -0.08759409078541999, "398": 0.03786579861407171, "399": -0.0693167659446234, "4": 0.10221007223670295, "40": 0.0003549709992736477, "41": -0.01583812633221286, "42": -0.007397558232962477, "43": 0.026778435476766387, "44": 0.04276197792963145, "45": -0.13725893841739106, "46": -0.09800201549374919, "47": 0.010870406705189246, "48": 0.039718061002847846, "49": -0.05922850168704172, "5": 0.06802776713625248, "50": 0.020280183963807926, "51": -0.13425247800312662, "52": -0.05567900991323634, "53": -0.021227868852525734, "54": -0.004779720277243611, "55": 0.023158715940767155, "56": -0.03342264500208378, "57": -0.04607640426351818, "58": 0.005472743857415486, "59": 0.029497135542736787, "6": 0.013383027597961537, "60": -0.02063022564457917, "61": 0.03940739482816545, "62": -0.027696738565786486, "63": 0.014629546503503942, "64": -0.00012446069952287892, "65": -0.01576749643190996, "66": 0.041963777733325075, "67": -0.01933166623779216, "68": -0.030016636671675995, "69": -0.09398348291677769, "7": -0.011564139243604, "70": 0.04374530202525999, "71": -0.05255354623664712, "72": -0.026411150659293847, "73": 0.01206799575434393, "74": -0.019523927309028497, "75": 0.029249901409334686, "76": 0.08068928231875881, "77": 0.025361909927303847, "78": -0.05824569764896168, "79": -0.007027976101748518, "8": -0.0200448673929039, "80": -0.01963649026439662, "81": -0.0013949818813411643, "82": 0.017185206168047508, "83": -0.009179908257253313, "84": 0.019734693015169915, "85": 0.012410538654134119, "86": 0.08314615808872299, "87": -0.011622880750838963, "88": 0.008067100133961487, "89": -0.00015457978297952178, "9": -0.052442489286258186, "90": -0.03279924802780949, "91": 0.05146959597071596, "92": 0.018469151031257607, "93": 0.0013430948283997444, "94": -0.04575069575381736, "95": -0.02634878853670974, "96": -0.022668296797074956, "97": -0.04378943276551573, "98": 0.06188023242142688, "99": 0.005087009766389849}}, {"depth": 16, "sx": 5, "sy": 5, "w": {"0": 0.018983890621486758, "1": -0.036151687215277895, "10": -0.02354182856722011, "100": -0.08193042896491053, "101": -0.021897506379573342, "102": -0.09169825836426718, "103": 0.00657472645096354, "104": 0.013670788777289186, "105": 0.003465376897279758, "106": 0.06649893023173435, "107": -0.09730149544158372, "108": -0.05777746091447274, "109": -0.07331166514387777, "11": -0.06549818917343907, "110": -0.07762610377504915, "111": -0.04844701247927525, "112": -0.002995659247850148, "113": -0.005051687682170771, "114": 0.1341941279831714, "115": 0.07371141843571456, "116": -0.05132091692568496, "117": -0.03313178485362003, "118": -0.09521548384561807, "119": -0.021719898408591298, "12": 0.05582910134428996, "120": -0.0729897803934447, "121": -0.010781027685022492, "122": -0.02045727706897002, "123": 0.011308435605243649, "124": 0.02606389875118801, "125": -0.027843708544946427, "126": -0.036394153847458366, "127": 0.022435945358732032, "128": -0.09943836924336406, "129": 0.07063827809603797, "13": -0.014213679484199595, "130": -0.03732973293106461, "131": 0.022683860539356168, "132": -0.0011242837210390213, "133": -0.04624825847881314, "134": 0.024584434066389008, "135": 0.11224907896392042, "136": -0.13425973213625894, "137": -0.034016739005185016, "138": 0.07343301849189234, "139": 0.043522188350385606, "14": 0.08340364021265935, "140": 0.012845395943545291, "141": -0.08674131567125183, "142": 0.018644863719122495, "143": 0.0002729474841220882, "144": -0.08437235837016144, "145": -0.04506377782531797, "146": 0.005742466319691204, "147": 0.028901327952380103, "148": 0.10356935045001846, "149": -0.04384171898339274, "15": 0.09421837832540626, "150": 0.10277086533902333, "151": -0.005002190361644475, "152": -0.008215613548778809, "153": -0.03556855127501584, "154": -0.04964741021711147, "155": 0.04527958470623824, "156": -0.002548097800688283, "157": 0.07454317306093354, "158": 0.07878271889204064, "159": -0.025478987140283814, "16": -0.015148971615718187, "160": -0.02421590645710935, "161": 0.051306729715060694, "162": -0.06112004754128053, "163": 0.05915464865161618, "164": 0.029305531909739304, "165": -0.05321533344149673, "166": -0.06475666204190457, "167": 0.0890728246131681, "168": -0.11021793850597726, "169": 0.05492323546391942, "17": 0.028482900591123586, "170": -0.04387957014446253, "171": -0.06379115807196035, "172": 0.062117282233166364, "173": -0.06600973121766532, "174": 0.036855184104060634, "175": -0.006673269590167138, "176": -0.026386421925507518, "177": 0.033868152786114096, "178": 0.0998314693410051, "179": 0.0005977220646931185, "18": 0.026784523040741318, "180": -0.028938519497030114, "181": -0.07384905901977427, "182": -0.024307226040384246, "183": -0.026656056732633066, "184": -0.06109061180314184, "185": 0.06582663088218366, "186": 0.03654650985555093, "187": 0.020817642948206594, "188": -0.003354906963380532, "189": -0.021879448942680773, "19": -0.07609903688108091, "190": 0.03614885727004442, "191": 0.030399379131908648, "192": 0.06226684713099305, "193": 0.030237553406214677, "194": 0.08335878890974013, "195": 0.008955408527034331, "196": 0.005807214519501808, "197": 0.10328593382425229, "198": -0.04041020236082331, "199": 0.03538638546335572, "2": 0.01760490575731618, "20": -0.06494626605237111, "200": 0.021426835634346605, "201": 0.034860311935856265, "202": -0.0565115201068318, "203": -0.006986086061729468, "204": 0.08055913273688721, "205": -0.09975169154434432, "206": 0.006055566708760703, "207": 0.03514837656124351, "208": -0.030787454549109874, "209": 0.01762816669997481, "21": -0.0315455404154836, "210": 0.10486657421141553, "211": 0.0027848173749983277, "212": -0.06183012406471422, "213": -0.013718054121360072, "214": 0.08472481222268309, "215": -0.022497604022506078, "216": -0.14925786736850358, "217": 0.028601831501907725, "218": -0.1422872420338482, "219": 0.10494123326380632, "22": -0.05203989765919729, "220": 0.000960303824874658, "221": -0.03941534715403714, "222": -0.02594859676847952, "223": 0.03391905304182819, "224": -0.13782186149843748, "225": 0.04019076112208792, "226": 0.0827168426163822, "227": -0.08360355654989528, "228": 0.015303769430108652, "229": 0.021909253824546716, "23": 0.06653931089627002, "230": -0.05686530078354407, "231": -0.027569978511113216, "232": 0.01655020212880023, "233": 0.0470572771102178, "234": -0.006877044611008656, "235": 0.0949438004735943, "236": 0.023859351951803692, "237": 0.10044180518721901, "238": 0.031678394527510534, "239": -0.08203376928474666, "24": -0.03487437120396862, "240": -0.02249657194910604, "241": -0.12731991333664258, "242": 0.0018097932345928522, "243": 0.08046109117877509, "244": -0.02038691166520482, "245": -0.11010351435476212, "246": -0.0497678475662805, "247": 0.07956867002780381, "248": 0.07584845450989756, "249": 0.01943056439955581, "25": 0.05423976576138903, "250": -0.05989280013997249, "251": -0.09795542710987076, "252": 0.08912505341957207, "253": -0.1045573391283012, "254": 0.04317156032048591, "255": 0.007255249833729565, "256": -0.0024600545332248668, "257": -0.07628510093759183, "258": -0.04846909840730736, "259": 0.11168201297511611, "26": -0.062421509916737415, "260": -0.061218857105378624, "261": -0.09481995465980649, "262": -0.015661638249475866, "263": -0.0626449324537393, "264": 0.05053789857024943, "265": -0.10557462013499334, "266": 0.01748825934151201, "267": 0.021700116011233287, "268": 0.044239178000525535, "269": -0.09840110710558883, "27": -0.023723229723712613, "270": -0.03645137156249507, "271": 0.014676497443398752, "272": -0.09164223619617212, "273": -0.02071673641345082, "274": -0.10564662516409921, "275": 0.07654949856380418, "276": -0.08204858592686391, "277": -0.1215177270246332, "278": -0.07478132964066572, "279": -0.09308187397828413, "28": 0.026516270628303425, "280": 0.05345326778414274, "281": -0.09887765110380214, "282": 0.08455172691195517, "283": -0.10184353367268119, "284": 0.11109550991865842, "285": -0.08691088674501639, "286": 0.022655424982033393, "287": 0.014034996832594985, "288": -0.13230050455032633, "289": 0.02781469125320038, "29": -0.03428087468355659, "290": -0.03500474831240541, "291": 0.09519265615646398, "292": -0.10908156838606316, "293": -0.01871284665511437, "294": -0.06495426374781328, "295": -0.04799370436147391, "296": 0.14055055520498438, "297": -0.16373606253146528, "298": -0.04892303100061912, "299": -0.09381219180490682, "3": 0.011652882808603111, "30": 0.04918885638372973, "300": 0.03782363827066698, "301": -0.013547413763766345, "302": -0.010602618897836208, "303": -0.047585072088352325, "304": 0.025741333579731695, "305": -0.07692732337956733, "306": 0.008564323047667171, "307": 0.009236168886797212, "308": 0.08774148475931023, "309": -0.12443427858786286, "31": 0.012044783733429845, "310": -0.05583287966258603, "311": -0.011580050027072167, "312": 0.15198160690733123, "313": 0.10955909075130169, "314": -0.0823029253518288, "315": -0.0988112016652924, "316": 0.0747610028463268, "317": -0.07505580441014614, "318": -0.09882919731067374, "319": -0.10336716685135061, "32": -0.059089195782146366, "320": 0.04005021237103234, "321": -0.12240774909873384, "322": -0.017578478336755098, "323": 0.24438633785015532, "324": -0.07445968965167066, "325": -0.1043514851555462, "326": 0.037871243649545645, "327": 0.055485116116393646, "328": 0.06730709336493451, "329": -0.11480409588770114, "33": -0.03174141897067149, "330": 0.040143168473607826, "331": -0.07189007691993561, "332": 0.09651469398225222, "333": -0.09036169093537627, "334": 0.052541638975661116, "335": 0.012936976136843718, "336": -0.10101213229089358, "337": 0.09863221705653707, "338": 0.014730250860918377, "339": 0.1038432175684962, "34": -0.009722786877130463, "340": -0.01305145292605227, "341": -0.0498852837108664, "342": 0.12827208988969652, "343": -0.030253372173490535, "344": -0.0029533820085692066, "345": -0.08248690930823821, "346": 0.01783576551937833, "347": 0.042794813942426194, "348": 0.12814593887543776, "349": -0.10063599865305728, "35": -0.068279613779124, "350": -0.011300388140682549, "351": -0.08214857113628789, "352": -0.14334740507296628, "353": 0.08481936184980858, "354": -0.015817169307865066, "355": 0.1806154778504335, "356": -0.008259884351404376, "357": -0.03164316531125477, "358": 0.11301753334575229, "359": -0.03236516224345401, "36": 0.023771579475789405, "360": -0.0037316836692725007, "361": -0.06219700732651447, "362": 0.026575112395500516, "363": 0.03749844617643281, "364": -0.024263456440586716, "365": -0.08256307786334863, "366": -0.04122728185604157, "367": -0.0337548420183176, "368": -0.10664964786165157, "369": -0.033952766947570295, "37": -0.07979619054417952, "370": -0.049889113855775054, "371": 0.04765328878923102, "372": 0.02681670812317644, "373": -0.1299194664023, "374": -0.012629507531254596, "375": 0.01915176257867196, "376": 0.13491875560136346, "377": 0.020423031065440356, "378": 0.030352428720955952, "379": 0.08912810216837218, "38": 0.0037289742145531963, "380": -0.07439674648305843, "381": 0.05016336346912318, "382": -0.015508971920696451, "383": -0.10579169640133497, "384": 0.0011363960047468193, "385": 0.10561820104500123, "386": 0.023789315394535382, "387": 0.0595789175824111, "388": -0.030084103895766677, "389": -0.027087003892760732, "39": 0.032652335714878356, "390": 0.0664519457948479, "391": 0.029480335144816842, "392": 0.11354061018587606, "393": 0.05619854519817857, "394": 0.0007570616095906026, "395": 0.07938238197972619, "396": -0.02415622602804434, "397": 0.011428328710464274, "398": 0.06754912423232498, "399": 0.0070209684556653655, "4": -0.048118560506467165, "40": -0.0014812399064233848, "41": -0.022054649815744194, "42": -0.025049461516352848, "43": -0.012607847509113704, "44": 0.10039563180087564, "45": -0.04242429727759191, "46": -0.021387010153743183, "47": -0.06816373882515171, "48": -0.02935117546473984, "49": -0.03925504064695247, "5": -0.10615635914289047, "50": -0.020976151820543774, "51": 0.025565800619297484, "52": -0.02076513691941147, "53": 0.04784362052880209, "54": 0.07979131092905249, "55": -0.06613728149536667, "56": 0.002681564097417584, "57": 0.01781251936122636, "58": -0.0011974936205201435, "59": 0.05292658014994516, "6": -0.018952131940249136, "60": -0.017020623586317948, "61": -0.04775310049915067, "62": -0.045614391775720284, "63": -0.07300850776754299, "64": 0.07066053434946554, "65": 0.09644944298066875, "66": 0.08348664672343457, "67": 0.004893308072566707, "68": 0.11175771915600502, "69": 0.012064512788066936, "7": -0.031879285421455114, "70": 0.042837454369249205, "71": -0.011216326481301827, "72": -0.09220025691640778, "73": 0.07592313484233125, "74": -0.011034593458854942, "75": 0.022499563383302605, "76": 0.05304574893171155, "77": 0.06370118411507092, "78": 0.06220085564712959, "79": 0.07467285010722848, "8": -0.08771209378249831, "80": 0.13828042378024008, "81": -0.14228400733537847, "82": -0.05300860170281852, "83": 0.0947102967258517, "84": -0.014381224479646487, "85": -0.15682033776549328, "86": 0.007609015496428752, "87": -0.05128352276326256, "88": 0.002742123661576751, "89": -0.01983316129428454, "9": -0.06751324695777278, "90": 0.05459404238662048, "91": -0.07026971732519631, "92": 0.10519500119746109, "93": -0.0010256292162788383, "94": -0.06913116926877562, "95": -0.039054596722544466, "96": -0.01673350631911675, "97": -0.0412845673165955, "98": -0.004558232258069328, "99": 0.06090544583101759}}, {"depth": 16, "sx": 5, "sy": 5, "w": {"0": -0.020629329143879088, "1": -0.018198616536748594, "10": -0.08034315444585577, "100": -0.031957826389271034, "101": -0.047337243384538416, "102": -0.0329915995812191, "103": -0.045668996403841894, "104": -0.04436064370157581, "105": -0.11190325762063058, "106": -0.010586292835175745, "107": -0.03494924848304884, "108": -0.022873907938659725, "109": -0.07416291599395265, "11": -0.03034258903452546, "110": 0.022687225605523133, "111": 0.03491296083060509, "112": -0.06366972978487061, "113": 0.043454492710178205, "114": -0.04290296754316701, "115": 0.036048045290999434, "116": 0.0110528349627227, "117": -0.04604085602685813, "118": -0.01805349750636034, "119": 0.019524114289364427, "12": -0.014168833419638704, "120": 0.015796645013225946, "121": -0.013586957405503369, "122": -0.015950323123561292, "123": -0.06200261311861513, "124": -0.09119934084877114, "125": 0.008428074286078854, "126": -0.08999778283269212, "127": -0.011486234800962213, "128": -0.07415468171923201, "129": -0.08578783891624638, "13": -0.06642452086457722, "130": 0.0018927004734015681, "131": -0.057208295429541374, "132": -0.019277122951149195, "133": -0.025001077252591375, "134": 0.05965292438802329, "135": -0.14621532611268084, "136": 0.062152519663257494, "137": -0.017995285396355736, "138": 0.0648049012353583, "139": -0.02933749129819766, "14": -0.20352482382488798, "140": -0.16653478173314284, "141": -0.05347063918673467, "142": -0.07666514865841802, "143": -0.11892183758646634, "144": -0.10173519644042389, "145": -0.02441264870170662, "146": -0.11848175702219595, "147": -0.1274438969969944, "148": 0.031035774474828862, "149": -0.05991267887856588, "15": 0.011657035923349865, "150": 0.009926007790653722, "151": -0.024590048977146728, "152": -0.07263659756451894, "153": 0.045091935535448394, "154": 0.006317233040654492, "155": -0.006525664398572303, "156": -0.053027551408614176, "157": -0.05000479365612468, "158": -0.07483151515326056, "159": 0.04063203877710324, "16": 0.059167239267740535, "160": 0.029958233172572745, "161": -0.1417992471130843, "162": -0.02289544933743248, "163": 0.026147219706017924, "164": -0.01063546197550877, "165": 0.016213850785006454, "166": 0.02094969789359241, "167": -0.037715290954225315, "168": -0.05274809026154997, "169": -0.055294111669692614, "17": 0.0011605619005265796, "170": -0.04884384699425137, "171": 0.03420321803648889, "172": -0.061100522940789305, "173": -0.129021117380265, "174": -0.0034804882328670073, "175": 0.03622344332361739, "176": -0.0462806557145543, "177": 0.11500206945563594, "178": -0.044918043022976153, "179": 0.019811082866929956, "18": 0.03321150810813512, "180": 0.09176174463484274, "181": -0.10526349597520132, "182": -0.006204298409974208, "183": -0.10569162991797731, "184": 0.06184936423661278, "185": -0.04936834552212553, "186": 0.02582913103616044, "187": -0.010464026443009106, "188": 0.005494339072306072, "189": -0.002918477481415608, "19": -0.03184829534525599, "190": 0.06523826043193709, "191": 0.02056700780154625, "192": -0.033415855930606655, "193": 0.04453461432051996, "194": 0.040790592683110694, "195": 0.1014086402036343, "196": 0.11429929511615113, "197": 0.10444767827584574, "198": 0.09862610739625219, "199": -0.019891782863656365, "2": -0.0697706785931011, "20": 0.09199131982017654, "200": -0.05052002514073998, "201": -0.023037106263026914, "202": 0.08022250539313311, "203": -0.08116167457335997, "204": 0.023705935754949496, "205": 0.05924744757681206, "206": -0.07104603349020422, "207": 0.0029639733046062993, "208": -0.07312334068907844, "209": -0.06539827128724174, "21": 0.13321839932483337, "210": -0.16441157991364438, "211": 0.07916773644250198, "212": -0.0007109308959504564, "213": -0.10573569126137279, "214": -0.07576082969775257, "215": 0.01913983193286226, "216": -0.02055552450040808, "217": 0.00901838536916267, "218": 0.01903272851218247, "219": -0.057854514072915544, "22": -0.03550576062873657, "220": -0.013078537339507342, "221": -0.060905345402008426, "222": -0.0034777244738115457, "223": 0.09515565371969166, "224": 0.06658307377918234, "225": 0.031793744713991816, "226": -0.07653556128836955, "227": -0.04300754855492879, "228": 0.08057288690299799, "229": -0.01339280399872594, "23": -0.028178949958812087, "230": -0.04723034950151621, "231": -0.07526746076582871, "232": 0.09532704244597771, "233": -0.01044451288323608, "234": 0.07554015222239646, "235": -0.05483085225998889, "236": -0.04572682252352724, "237": -0.06376272729448104, "238": -0.13007966735458493, "239": -0.020877541752945285, "24": -0.09205366463933991, "240": -0.07355255608062788, "241": -0.07176429816135664, "242": -0.02330448088225185, "243": 0.10538200763160321, "244": -0.09781333863110636, "245": -0.00657245962821748, "246": 0.07022678334799691, "247": -0.1264248254181561, "248": 0.009288666591900058, "249": 0.03175021174526654, "25": 0.0254381091580162, "250": 0.11013139076251785, "251": 0.01735179881009828, "252": -0.07716517013098596, "253": -0.04711650832942064, "254": -0.025377340307791506, "255": -0.04609159760584689, "256": -0.05130936237389856, "257": 0.05302739841746301, "258": 0.028110710572220435, "259": 0.11379070461576216, "26": 0.019363161075668715, "260": 0.009618381682172123, "261": -0.06500142685596395, "262": 0.02313204407473277, "263": -0.037522438703067415, "264": -0.04315279850175598, "265": 0.11966148796155564, "266": 0.023728982011660488, "267": 0.005728508640451254, "268": -0.009803529653507075, "269": 0.041949868522787995, "27": -0.013596774206434976, "270": 0.08219324161808061, "271": -0.0174718143677279, "272": -0.04090773368404205, "273": 0.06093360225608274, "274": -0.04640564295092654, "275": 0.09523418686011532, "276": 0.00957699211542197, "277": -0.018908473256012838, "278": 0.013606293499823048, "279": 0.0312871601464306, "28": -0.0342341456617506, "280": 0.01374584613851837, "281": 0.04350393965379715, "282": 0.007888880291812748, "283": 0.05556393860780212, "284": 0.058293597470549526, "285": -0.04414111706619413, "286": -0.09283920870237686, "287": -0.0946512469287142, "288": -0.08079701911376579, "289": 0.08943111439125517, "29": -0.06633264331594824, "290": -0.06126035170365369, "291": -0.014371650679120796, "292": -0.10103766002000908, "293": 0.06359344490227481, "294": 0.07815398305911922, "295": 0.08552742798340562, "296": 0.04654040730327341, "297": -0.007876099048498175, "298": 0.07056238369709743, "299": -0.034087084291488004, "3": -0.053336056719294436, "30": 0.003966518768487097, "300": 0.037449234885341055, "301": -0.003455266405791125, "302": 0.05481555316573353, "303": 0.007081312017334722, "304": -0.09710880508160885, "305": 0.064396331152289, "306": 0.0063945470423326725, "307": -0.037096242369496595, "308": -0.0296259215118875, "309": -0.07723287318958492, "31": 0.0024567976518294647, "310": 0.09954947552657954, "311": 0.07881742959537787, "312": -0.04743940231213365, "313": 0.05436717477056208, "314": 0.0020061519190791594, "315": -0.007450111662004025, "316": 0.08993102092091758, "317": -0.07228745573421119, "318": -0.06968148729623118, "319": -0.00019850283848421926, "32": 0.04286913993136284, "320": -0.058041701242667644, "321": 0.15181943063052042, "322": 0.08041189284463071, "323": 0.03665588839409224, "324": -0.004281819583022364, "325": -0.03128089475981255, "326": 0.10330232202029667, "327": 0.10610460362188176, "328": 0.08020938134385851, "329": 0.1079024695288388, "33": -0.0076846702856314085, "330": -0.046295478925623676, "331": 0.2104464046459671, "332": -0.09145671069931041, "333": 0.07267343480000656, "334": 0.14090348290981194, "335": -0.07231187104399023, "336": -0.02051477811158519, "337": 0.02355412956011295, "338": 0.19832529972917742, "339": -0.010746796433462533, "34": -0.036529789980177016, "340": -0.08316691095761122, "341": 0.02445937924406453, "342": -0.03962653608120473, "343": 0.13418445474539126, "344": -0.02433065328422126, "345": 0.08889602957222928, "346": -0.0379927554165317, "347": 0.04083330440309955, "348": -0.032766337722563064, "349": 0.015737518276474162, "35": -0.028855663642229808, "350": 0.12309423532997231, "351": 0.05931303321787621, "352": 0.032806062867255736, "353": 0.05230844441652907, "354": 0.08100995761757541, "355": -0.10138756421005134, "356": 0.018478146661149563, "357": -0.036693885671513674, "358": 0.08786003183063991, "359": 0.07050748234719843, "36": -0.03858041022840928, "360": -0.08843579531732687, "361": 0.1253231766552486, "362": -0.09741900992095841, "363": 0.14609133631311555, "364": -0.03735316569185882, "365": -0.02434734207897081, "366": 0.1344710219451959, "367": -0.05983153507502557, "368": 0.012031144638142251, "369": 0.022876477828724522, "37": 0.11413011255968766, "370": 0.050588727347571916, "371": -0.025521480287435828, "372": -0.022492311284955574, "373": 0.0021401698335721036, "374": 0.07053640716865905, "375": 0.11269782307689796, "376": -0.03587377742558421, "377": 0.059920230862931696, "378": -0.04839521299103087, "379": -0.015104712095606584, "38": -0.06687436398084186, "380": -0.02976650887164329, "381": 0.003652265259723039, "382": 0.13781352796058674, "383": -0.014306338419722934, "384": -0.06268140492021396, "385": 0.01677893816260011, "386": 0.12545711773243884, "387": -0.0480725533475791, "388": -0.06379043445657978, "389": 0.01306992477843282, "39": -0.022728521172458396, "390": 0.056277099911531035, "391": 0.13423751776658108, "392": -0.06837577978658088, "393": 0.09872468969136898, "394": -0.08220140915675261, "395": 0.13648368665133132, "396": -0.013693416164846347, "397": -0.02128313635548177, "398": 0.06869831137056999, "399": 0.04362864549035792, "4": -0.007206334633830481, "40": -0.05004932255222939, "41": 0.015854436393609696, "42": 0.03678533577498127, "43": -0.10635999708747193, "44": -0.16445372279279366, "45": 0.09653143545174471, "46": -0.05285585127293226, "47": 0.08717790065696807, "48": -0.044952311830711, "49": -0.07388499741444679, "5": 0.04575786057194756, "50": 0.045860862292236244, "51": -0.12395853396379687, "52": 0.04682980619895715, "53": 0.04874221368435891, "54": 0.019545557208290442, "55": -0.0048207487701494925, "56": -0.014281368301685568, "57": 0.02156300613237752, "58": 0.04473218210564274, "59": 0.011704041889209099, "6": -0.014010758926113663, "60": -0.09244256167728969, "61": 0.026873041212499643, "62": -0.059109085012403494, "63": -0.010871660323189009, "64": 0.008838200575489258, "65": -0.07542293382666339, "66": 0.07125057856834867, "67": -0.08629346036115684, "68": -0.024981692543156013, "69": -0.03723883293711689, "7": -0.006902601198589719, "70": -0.06227833717866464, "71": -0.04714629892747615, "72": -0.010228796035386335, "73": 0.04471572736862437, "74": -0.04144604450041425, "75": -0.06037888271821079, "76": -0.08194462743036272, "77": 0.037441021640895605, "78": -0.008055228857616309, "79": 0.0628823567886233, "8": -0.03125690720939029, "80": -0.010772920144684364, "81": -0.002748427280610458, "82": -0.09665828061021901, "83": 0.019960865031517866, "84": 0.0901010668129407, "85": -0.0003064405562932127, "86": -0.12451786732573883, "87": -0.10118977706127573, "88": -0.055249915824641414, "89": 0.02924000465940766, "9": 0.10767612739333111, "90": 0.0017466307351903434, "91": -0.06680969346464113, "92": -0.032164514017115925, "93": -0.03656003286125264, "94": -0.03293549908215112, "95": -0.013822883725451698, "96": -0.0694879538107329, "97": 0.02726369987797969, "98": -0.02114624288418714, "99": -0.002168270733285342}}, {"depth": 16, "sx": 5, "sy": 5, "w": {"0": 0.03883369683698157, "1": -0.10773891532906106, "10": -0.08237200326321321, "100": -0.20265618088904488, "101": -0.06717141732480704, "102": -0.045199370350621194, "103": -0.09084558210556083, "104": 0.04827731838487775, "105": -0.01306988978281436, "106": 0.05626036614951395, "107": -0.0039223943673623, "108": 0.06840327550102071, "109": -0.07269543867813301, "11": -0.053722517566107256, "110": 0.0499579219523884, "111": -0.06034378525753846, "112": 0.0350014170499902, "113": 0.047843917282411684, "114": -0.002359493296873608, "115": 0.024198427593015274, "116": 0.0649961838462368, "117": -0.16739948192749102, "118": -0.09047850005934047, "119": 0.010757470557521834, "12": -0.010497087613798424, "120": -0.06380252335539853, "121": 0.05754710508438654, "122": 0.07319976370075343, "123": 0.00920798273990767, "124": -0.025773414173673688, "125": -0.010133663496238883, "126": -0.07030935409401991, "127": 0.024385147148551795, "128": 0.005597703067149493, "129": -0.013088948190880034, "13": -0.06003799786208179, "130": 0.005242544359274066, "131": 0.039005721921234665, "132": -0.12388286265812415, "133": -0.09857370701482102, "134": 0.019379082454404697, "135": 0.01006551519204171, "136": -0.06254669685191054, "137": -0.12846832071663444, "138": 0.02571905077489287, "139": -0.1355793583881903, "14": 0.05844603499359364, "140": -0.05146010021184759, "141": -0.04065779473899509, "142": -0.07701098788790106, "143": 0.032302889655329396, "144": 0.04646794856681203, "145": -0.05762079229723176, "146": -0.09886179925216948, "147": 0.05042870491024095, "148": -0.1585703835392707, "149": -0.2176163186427855, "15": 0.01770646392259016, "150": 0.002185923963101752, "151": -0.0894782156346205, "152": -0.06650622021147887, "153": -0.06977808879299757, "154": 0.01826087001981762, "155": -0.02508727443626429, "156": -0.0349592808521454, "157": -0.012501757260155797, "158": -0.0843387450364494, "159": 0.0636016803461844, "16": 0.01080577780372536, "160": -0.008604405152990801, "161": -0.04542232843930379, "162": 0.09800001399565068, "163": -0.001581604880461379, "164": -0.06279325866521994, "165": -0.11009966383311773, "166": -0.1394160897685424, "167": -0.12577513501531012, "168": -0.011933124412625194, "169": -0.021658161714687412, "17": -0.02374890279440242, "170": -0.012379343698607263, "171": -0.09138749909833095, "172": 0.11555339840807508, "173": -0.12819839492077362, "174": -0.004687671316030842, "175": 0.03427671952895715, "176": -0.044387443600973096, "177": -0.04050016049002218, "178": 0.06559021110626996, "179": -0.006712125614310357, "18": 0.07002153497820393, "180": -0.07308831284784793, "181": -0.11952681806382898, "182": 0.04651121106701733, "183": 0.04582219360803284, "184": -0.0432591344156287, "185": 0.003709231227270276, "186": -0.005516206298616554, "187": 0.016576852517466358, "188": -0.003162621987799035, "189": -0.1840391601991065, "19": -0.0834200686979731, "190": 0.013378988190275668, "191": -0.009246601831873053, "192": 0.10088138213620679, "193": 0.021973756263309645, "194": 0.0011881018421235185, "195": 0.0921976832628554, "196": -0.02640518481129202, "197": -0.09479254598286535, "198": 0.016437149130825803, "199": 0.046763766765490794, "2": 0.07014618993062863, "20": -0.07745959868121319, "200": 0.0801763577955766, "201": -0.1314291915736273, "202": 0.002870423901269143, "203": -0.09502920671289448, "204": 0.029381714379039192, "205": -0.054583833838116, "206": -0.0176242018781537, "207": 0.059005023915409696, "208": -0.0033460587897669453, "209": -0.08425688983428999, "21": -0.08174161517589505, "210": 0.0381983460648769, "211": -0.0960136704914577, "212": -0.03734984279533933, "213": -0.135122806590685, "214": -0.05771288503339325, "215": -0.07917663030668873, "216": 0.0625235869317736, "217": -0.0021842959184761772, "218": 0.020342657631832982, "219": -0.060947125923357034, "22": 0.06197970351967838, "220": 0.007703201949691624, "221": -0.12583396844092234, "222": -0.0299598002066352, "223": 0.07637356380799948, "224": 0.04270931364737999, "225": -0.018164141960580867, "226": 0.0009179071735435514, "227": 0.023774136982117954, "228": -0.04938774502031915, "229": -0.05664588525746824, "23": 0.006880067975487162, "230": -0.029670594044137934, "231": -0.08104571435139678, "232": 0.13900016784200525, "233": 0.03554162891138103, "234": 0.04178005233106499, "235": -0.12592355246342588, "236": -0.011201948199357329, "237": -0.05822908733745538, "238": 0.05248816722069105, "239": -0.005455564369269339, "24": -0.0017924482812691107, "240": -0.1202299364242557, "241": -0.11623110921737731, "242": -0.051492478279500084, "243": 0.20851693408366812, "244": -0.07151409318627663, "245": -0.05531519569740143, "246": -0.08150935368214743, "247": -0.08104235485774793, "248": 0.11921189106562258, "249": -0.09274415692284003, "25": 0.04593043765138832, "250": 0.039851420774201174, "251": -0.08716462116313548, "252": 0.07593535165179986, "253": 0.0006903627148657646, "254": -0.023814264158328095, "255": -0.017745513892148592, "256": -0.14400600778029216, "257": -0.07580975798887209, "258": -0.08636004684559676, "259": 0.09773619901868587, "26": -0.012996527277611919, "260": 6.208079915160291e-05, "261": -0.1893891205570774, "262": 0.0017987152341403028, "263": -0.17954315748557098, "264": 0.07542844538067037, "265": -0.09112787114333426, "266": 0.0028918592356584464, "267": -0.16267486409346574, "268": 0.022932344823609143, "269": -0.1268908343254061, "27": -0.11265119116698136, "270": 0.0061930923188704716, "271": -0.0595399331299541, "272": -0.03466512554624874, "273": -0.07447301703414166, "274": -0.05171769662962744, "275": 0.08094130076216781, "276": -0.0036151927406130576, "277": 0.05651385388367567, "278": -0.08100293968359537, "279": -0.0816363780325393, "28": -0.02662703430384404, "280": 0.0890148039633523, "281": -0.1358592224679053, "282": 0.0853634550702386, "283": -0.15756994842758862, "284": 0.07919884122408828, "285": -0.032571913855210514, "286": -0.010421704025322874, "287": 0.07153345266915542, "288": -0.0714325378797393, "289": -0.09499270867269309, "29": -0.09530806068323995, "290": -0.005275675667405086, "291": 0.10782767927824065, "292": -0.007890787562257877, "293": 0.006022635519100243, "294": -0.11399450089094353, "295": -0.17179464484957055, "296": 0.1040414461239665, "297": -0.06015895793244698, "298": 0.04765456045350358, "299": 0.021714814889153146, "3": -0.05063014691047008, "30": 0.12062573799925164, "300": 0.053487045538752, "301": -0.04115537315313635, "302": -0.0590711264899577, "303": -0.011790383821940949, "304": 0.021992390402667705, "305": -0.07609553901999246, "306": 0.05794793960974221, "307": 0.021424811985130507, "308": -0.012270841920766792, "309": -0.15693460805400064, "31": -0.0005115628529491958, "310": -0.07510369739587591, "311": -0.19307678998032812, "312": 0.13123906833515106, "313": -0.04016113919741855, "314": 0.05783352309427488, "315": -0.08308472157548036, "316": -0.00011252290268440627, "317": 0.03778853188426002, "318": -0.014226218865744225, "319": -0.07993940379555024, "32": 0.1014809869640039, "320": -0.14020808916304223, "321": -0.016198946662474394, "322": -0.10462923744196347, "323": 0.14509571996506773, "324": -0.08114008571481716, "325": -0.080728000410153, "326": 0.035871860645462876, "327": 0.022877927045944636, "328": 0.0297051809873471, "329": 0.022458518764010046, "33": -0.07155157680068402, "330": -0.017885737537549993, "331": 0.05134950973997888, "332": 0.011205144925955155, "333": -0.01898456549808714, "334": 0.10282314708715765, "335": -0.0014909883625002336, "336": -0.12846296647508956, "337": -0.0063397802177970405, "338": -0.07039362213134084, "339": 0.06488437006513922, "34": 0.02787130200211156, "340": -0.10392035900567058, "341": -0.09753942432359773, "342": -0.054531750012470404, "343": -0.00474846504732915, "344": -0.054957074168246765, "345": 0.006491532963537911, "346": 0.024178598626994677, "347": 0.07590340291622294, "348": -0.10244836499004417, "349": -0.07622394098827819, "35": -0.13051989511475232, "350": 0.048659111280601276, "351": -0.03735748659803878, "352": -0.1076042466573468, "353": 0.06932262269417101, "354": 0.0026234002988981165, "355": 0.25444320740528575, "356": 0.0483362967710033, "357": 0.022205132524092862, "358": 0.06066218613334998, "359": 0.11901168133949394, "36": 0.007227691345016562, "360": 0.06573003145729607, "361": 0.014967405293946615, "362": 0.015497335663737552, "363": 0.04835133848951089, "364": -0.009591437792001962, "365": 0.033271153595390186, "366": 0.1637941340116172, "367": -0.05343467880022383, "368": -0.11817467368724432, "369": 0.16874423883342193, "37": -0.09756866600562772, "370": 0.05519813795160507, "371": 0.08574612323638466, "372": -0.11209526660562039, "373": -0.030524672387540884, "374": 0.014897615808011355, "375": 0.0201678018737233, "376": 0.0948223870160593, "377": 0.15161636876134804, "378": -0.022096350156344022, "379": -0.009888695528955811, "38": 0.0006510791306277159, "380": 0.048133618546881425, "381": 0.1244488947950473, "382": 0.1333914014444444, "383": -0.13721321227110173, "384": -0.011601161572378907, "385": 0.06873962827960946, "386": -0.023699649453378404, "387": 0.08760555114035158, "388": -0.034719898501745006, "389": 0.007121585714111669, "39": 0.087648985563657, "390": 0.1013597836150072, "391": 0.1267448961025519, "392": 0.028255044017059514, "393": 0.06583628875682387, "394": 0.01324461111396249, "395": 0.13995010326776952, "396": 0.006980427820512846, "397": -0.08030448006531077, "398": 0.12430403932599397, "399": -0.01452360828551905, "4": 0.01919421022426492, "40": -0.01170051790258978, "41": 0.0024079498619826592, "42": 0.0059289919465208415, "43": -0.08195228533302476, "44": -0.006526226793306629, "45": 0.025449014517599025, "46": 0.042394183617762655, "47": 0.028281703893758146, "48": 0.01909558140924984, "49": -0.02508583166747915, "5": -0.04838358192320264, "50": 0.08670091590959088, "51": -0.0947212639860024, "52": -0.08614120256297471, "53": -0.0532019496973854, "54": -0.024594456653461817, "55": 0.05690944438523267, "56": -0.09343888631570398, "57": 0.048854407495300366, "58": -0.0434946679670402, "59": -0.10797063316541947, "6": -0.0026616885541892264, "60": -0.05989422362112278, "61": -0.03379029895669204, "62": -0.02698157005151777, "63": 0.08122636584705624, "64": -0.006485516989781992, "65": -0.11359628842136947, "66": 0.06387287576886073, "67": -0.09578338469524476, "68": -0.0032503132974500953, "69": -0.10677819236769849, "7": 0.010315901349326136, "70": 0.050987455304269874, "71": 0.007072100750188757, "72": -0.07077052871891922, "73": 0.016646054659000504, "74": -0.07527322338716617, "75": -0.04650611723661088, "76": -0.09396436057670597, "77": -0.09858845811849057, "78": -0.00565573969408441, "79": -0.01964345029531176, "8": -0.030021361998015358, "80": 0.05547220380204898, "81": -0.16167066046624431, "82": 0.03559820465703941, "83": 0.02442713887976177, "84": -0.07669725864554901, "85": -0.05999231199780923, "86": -0.05369112700790678, "87": -0.040683428222497, "88": 0.059491725836538216, "89": 0.03628294665746087, "9": 0.024477875184973033, "90": -0.013201238420910404, "91": -0.16685433031962713, "92": 0.03106534489233267, "93": -0.1488241198848623, "94": 0.05562177867047912, "95": -0.0058548922316433265, "96": 0.008325923069924348, "97": -0.03762995210266187, "98": 0.00822053021180548, "99": -0.009241320033950715}}, {"depth": 16, "sx": 5, "sy": 5, "w": {"0": -0.06280674838694408, "1": -0.06233376618641824, "10": 0.043652596605707944, "100": 0.08448520377102675, "101": 0.06543023667145327, "102": -0.00418283892159918, "103": 0.026049080606725217, "104": 0.008248286992017037, "105": -0.038065393787006456, "106": -0.009882306883088237, "107": -0.035908244567021214, "108": -0.11834222131634693, "109": 0.0022950583193722777, "11": 0.08919468576922707, "110": -0.07930354524916823, "111": -0.04949247139759695, "112": 0.007016249897231599, "113": 0.06210330430825883, "114": 0.015341650758982237, "115": -0.07054386489158654, "116": -0.03689399075447801, "117": 0.015196781019264619, "118": -6.779680900489647e-05, "119": -0.03618021525640864, "12": -0.035313880541952856, "120": -0.0077165283707756795, "121": -0.08510342779318476, "122": -0.05485148189135109, "123": 0.02614842677808543, "124": -0.06849838428023755, "125": 0.10882977355574647, "126": 0.0037004447323726384, "127": 0.05925617883727834, "128": -0.08287707359216864, "129": -0.00408680860987428, "13": -0.09888587801189413, "130": -0.040215223857572195, "131": -0.010799803999089875, "132": 0.06558078236606565, "133": -0.03847465775559315, "134": -0.018421715358904207, "135": -0.015927717943373235, "136": 0.09420892759269708, "137": -0.001988534180210334, "138": 0.018333689754919922, "139": -0.04795931074426107, "14": -0.1307810827778321, "140": 0.046994324065871944, "141": 0.05719995457514324, "142": -0.016635670304613097, "143": 0.0867733766183948, "144": -0.06355314944715686, "145": -0.009559082876990817, "146": -0.08205097863570776, "147": -0.06125878437013073, "148": 0.03293088282793816, "149": -0.00586901182680789, "15": 0.031804688850271386, "150": 0.019552384170764037, "151": 0.0087792316487681, "152": 0.10708385319408054, "153": -0.06346592759129814, "154": -0.1211798063999158, "155": 0.008881757540081926, "156": -0.09305711449134148, "157": 0.02313040235217526, "158": -0.06423584377634807, "159": 0.01178263026689161, "16": 0.011485855129808811, "160": 0.036920631637827085, "161": -0.10790065643862987, "162": -0.0035238123888984146, "163": -0.010665501585854211, "164": 0.04719606923011642, "165": -0.023875034374335104, "166": 0.107045423584516, "167": -0.13337260477640606, "168": 0.018023436530801882, "169": -0.03227975135467765, "17": 0.03139023218077765, "170": -0.026031303983370554, "171": -0.040395844599805324, "172": -0.07308991692323165, "173": -0.12227233441148137, "174": -0.07413556640496023, "175": -0.026769943438951112, "176": -0.019961595958882326, "177": -0.043004312206647424, "178": -0.06466331330473805, "179": -0.046009342492865424, "18": 0.12327193991024206, "180": -0.013194004911199021, "181": 0.05047352126735251, "182": -0.009429467902194103, "183": -0.06938446666188625, "184": -0.1836135215696808, "185": 0.03568917779807063, "186": -0.07486640383553617, "187": 0.007210430957335444, "188": -0.14442216174106084, "189": -0.024059882602758327, "19": -0.011521969249286779, "190": -0.022698483161433393, "191": 0.018581966183818056, "192": 0.051667969020658275, "193": -0.062389409895474146, "194": 0.03592586724414739, "195": -0.12523601866089656, "196": -0.010058768553131814, "197": -0.07665335531299813, "198": 0.008334001685991433, "199": -0.029795361423104905, "2": 0.026783985153125696, "20": -0.05960526074663806, "200": -0.0817293267776137, "201": -0.1109591885085126, "202": -0.006377559341481224, "203": -0.08408800114888186, "204": -0.0766548793100156, "205": 0.13285219012961877, "206": -0.0008754195584535275, "207": 0.009537561947209304, "208": -0.042995059659446756, "209": -0.0005886223912593181, "21": 0.09906038415370481, "210": -0.08073713286570765, "211": -0.03994755696437131, "212": 0.1197373639177821, "213": 0.15641180843588742, "214": -0.048709136709411086, "215": 0.03801933026883471, "216": -0.013370160212740609, "217": -0.0765192680552474, "218": 0.014690100810438343, "219": 0.01697935365097375, "22": -0.00028892554364967664, "220": -0.06112823796690785, "221": 0.005069469935291398, "222": -0.03446424287287159, "223": 0.09877677744652699, "224": 0.022501067443431867, "225": -0.056415538588148156, "226": -0.05018718698660669, "227": -0.08410112283663704, "228": 0.004940368286796442, "229": -0.05063146820999168, "23": -0.06218946024403628, "230": -0.08551594144185795, "231": -0.0230084688470406, "232": -0.07928233998487444, "233": -0.09109758650638179, "234": -0.031157579921715462, "235": -0.0938501006726465, "236": -0.025747229520728835, "237": 0.10355540601966293, "238": -0.029573995794298397, "239": 0.052733976453619276, "24": -0.03761402426684641, "240": -0.09512851477358938, "241": -0.005508867778110993, "242": -0.03365488767874626, "243": -0.06024253666336802, "244": 0.06126239463931625, "245": -0.0037601401162196645, "246": -0.057128754216147076, "247": 0.0026597006237578814, "248": -0.053551621024293505, "249": 0.021583862289987092, "25": 0.022027659186905725, "250": -0.08378496934270353, "251": -0.011971576964150937, "252": -0.07961753488026324, "253": -0.05960516910156567, "254": -0.11185838464179723, "255": -0.04766736480389093, "256": -0.0706426117918661, "257": -0.03339174307121802, "258": -0.0009308833079059994, "259": 0.07699372411681649, "26": 0.013808727092113091, "260": -0.01661124296310065, "261": -0.046377208351531925, "262": -0.0890862711309968, "263": 0.025021088970844974, "264": 0.04909851344305133, "265": -0.0019019269207639334, "266": -0.014045703427314657, "267": -0.004243412195705258, "268": -0.01365723363484763, "269": -0.014983985140389998, "27": 0.03275601958649829, "270": -0.04321605592983997, "271": -0.09624126447641519, "272": -0.08174764974835999, "273": 0.09105277448963586, "274": 0.032336011685562854, "275": -0.12416214469941476, "276": -0.02400994159525651, "277": 0.03126339933580644, "278": -0.03196986448364824, "279": 0.08262254032518605, "28": -0.05085171821881971, "280": -0.06485776918397936, "281": -0.06246724428224724, "282": -0.09515802865739463, "283": -0.00365450414495702, "284": 0.037358189983486854, "285": 0.021059135602305813, "286": -0.03406383921495627, "287": -0.007856139253166234, "288": -0.0840184587982, "289": -0.05275560949435903, "29": 0.014121068796476469, "290": -0.009064253526768672, "291": -0.020807352091116647, "292": -0.08011617486774436, "293": -0.0917644836935867, "294": -0.10882619994665287, "295": 0.0011757766431075836, "296": 0.029242736158503594, "297": -0.019665771674605422, "298": -0.013729375319764326, "299": 0.00688946215667541, "3": -0.07677866334520136, "30": -0.07679858315429477, "300": -0.0075852978256636784, "301": 0.032750714632191175, "302": -0.030270523856710026, "303": 0.07141364183815091, "304": 0.011340382950904287, "305": -0.07821906836493829, "306": -0.06671529080638666, "307": -0.01884802151085536, "308": -0.050833153555560506, "309": 0.00503314404778886, "31": 0.01217163141141394, "310": -0.10514690354126995, "311": -0.04111255453517074, "312": -0.010288558660917584, "313": 0.011665155863404058, "314": -0.04139703624412682, "315": -0.04987856436263636, "316": -0.06656607949530141, "317": -0.015637443006296808, "318": -0.06897617231288168, "319": 0.02916969060152267, "32": -0.0597241025883429, "320": -0.05709827074073044, "321": -0.07857620182980933, "322": -0.05468340276584814, "323": -0.04523490491401113, "324": -0.014881488089826948, "325": 