{"data": {"layers": [{"layer_type": "input", "out_depth": 3, "out_sx": 32, "out_sy": 32}, {"biases": {"depth": 16, "sx": 1, "sy": 1, "w": {"0": 0.02667643670039038, "1": -0.06827885192205727, "10": 0.07804394241520744, "11": -0.06020704828640498, "12": -0.07621771293855562, "13": 0.05203383664783009, "14": -0.04702063549044472, "15": -0.053569357151607024, "2": -0.10423077655734814, "3": 0.0068736539083268, "4": -0.046413695388801905, "5": -0.0329100418486685, "6": 0.13540187217409436, "7": 0.004427186704027572, "8": 0.031848712143515076, "9": -0.052128516193535715}}, "filters": [{"depth": 3, "sx": 5, "sy": 5, "w": {"0": -0.005331609686380457, "1": 0.0705936446757643, "10": 0.166876941020587, "11": -0.05958521589180228, "12": -0.03990483576975964, "13": 0.033243279434583134, "14": -0.03645841288765806, "15": -0.023663898582231682, "16": 0.0946421338663394, "17": 0.15711772048891967, "18": 0.04206023700002642, "19": -0.009258157250115629, "2": -0.1439511719348681, "20": -0.21731948924129948, "21": -0.05395034385224436, "22": -0.001119038846896105, "23": 0.057270136208560814, "24": -0.12727356160596376, "25": -0.028675494429212356, "26": 0.05632708800049017, "27": -0.17590772048126097, "28": -0.0343378200983838, "29": -0.018026475372263037, "3": 0.025783793614091208, "30": -0.16322550225216956, "31": -0.0072409387443219675, "32": 0.08395371099528215, "33": -0.08351766154248516, "34": -0.028359649327572175, "35": 0.2230342373349214, "36": -0.13846035451436187, "37": 0.033187928615221074, "38": -0.0737371350278937, "39": 0.1137781649475622, "4": 0.03697350330664019, "40": -0.13333413758821586, "41": -0.19831955845673482, "42": 0.030238268801035695, "43": 0.058548956743147765, "44": -0.05819954956084661, "45": 0.025833052488354505, "46": -0.05171321063261059, "47": -0.09412453821569229, "48": -0.07327982594699964, "49": 0.15004410194307455, "5": 0.03165774886244784, "50": -0.08914624230633532, "51": 0.057985365211743266, "52": -0.07528260896161784, "53": -0.015799329457248844, "54": 0.23184219163723285, "55": 0.18224497946707835, "56": -0.18077624088438987, "57": 0.13980058076032362, "58": 0.00840420698354682, "59": 0.032234371538878766, "6": -0.10264215772865325, "60": 0.033316947289712635, "61": 0.0843551536309771, "62": -0.034587755635757465, "63": 0.03241005367427924, "64": -0.095608796829451, "65": 0.006951774219526276, "66": 0.020979725530343475, "67": -0.02085237478047397, "68": 0.07613972109738394, "69": 0.161968508998946, "7": -0.0893443713527599, "70": -0.02376206393755093, "71": 0.3348132670089158, "72": -0.04248010708258921, "73": 0.0968828444699399, "74": 0.03405930860617951, "8": -0.26371565160250277, "9": 0.002386780289816054}}, {"depth": 3, "sx": 5, "sy": 5, "w": {"0": -0.010335715113556625, "1": -0.13149450124798925, "10": -0.096737084217935, "11": -0.0017913902409059548, "12": -0.2831145595183419, "13": -0.14621145139708147, "14": -0.1196377418230819, "15": 0.25726338998445547, "16": -0.1874245848274955, "17": -0.09331818480104259, "18": -0.025007455193011882, "19": -0.008058671397000713, "2": -0.15522137498111965, "20": 0.06693463621746258, "21": 0.06797579224254913, "22": -0.1800426177567548, "23": -0.19502555556063778, "24": 0.03005422283139371, "25": -0.2719208707628406, "26": -0.0030929662532261353, "27": 0.028849652139635522, "28": -0.04179686940654845, "29": 0.04834927175683606, "3": -0.32638064256261, "30": -0.014398679015664672, "31": 0.1443742922930084, "32": 0.14265276964080964, "33": -0.11142042710841893, "34": 0.13888406811435078, "35": 0.005930636350397119, "36": -0.08924758092315567, "37": 0.03135453086972697, "38": -0.029796948703571996, "39": 0.1045634829376389, "4": -0.13993357167442919, "40": 0.03817995342104061, "41": 0.23875126074994502, "42": 0.04525227130580169, "43": -0.07697693168209226, "44": -0.017876587487362063, "45": -0.03948099744805361, "46": 0.26451699423539166, "47": -0.10011296615802524, "48": 0.15152919808051885, "49": -0.24191245416580542, "5": -0.24155275997314268, "50": 0.010147979363020327, "51": 0.27890968548757994, "52": 0.04225793515893139, "53": -0.12060979025587046, "54": -0.059968876729178236, "55": 0.11315100435592573, "56": -0.07588614132917647, "57": -0.024326921169975688, "58": 0.018506467153096284, "59": -0.10279134885178803, "6": -0.04462321254165887, "60": 0.032309254102191744, "61": 0.033786657385077266, "62": -0.06944178574983226, "63": 0.06156988183760177, "64": 0.08013669077173838, "65": -0.07984062069472202, "66": -0.18785585336319477, "67": 0.12046922436605273, "68": 0.18840359196117107, "69": -0.12639518693924306, "7": 0.09949783347457303, "70": 0.27210948629698223, "71": 0.2911816060859917, "72": 0.09813527921033921, "73": -0.13287092645906495, "74": 0.027050788639404088, "8": 0.08042288395780936, "9": -0.264603528224044}}, {"depth": 3, "sx": 5, "sy": 5, "w": {"0": -0.1892956494311262, "1": -0.14714817285278944, "10": -0.0536259225669328, "11": 0.013862102593398616, "12": 0.1279736077250928, "13": -0.20070883023628372, "14": -0.11014843314756087, "15": 0.24246140865998728, "16": -0.06421220511253531, "17": -0.03821150768933784, "18": -0.12029880269215434, "19": -0.18350377439030374, "2": 0.06901402796511875, "20": -0.03178790796829101, "21": -0.06635814475507147, "22": 0.04865423733336393, "23": 0.08727486803404813, "24": -0.032283750169622476, "25": -0.3025888344357038, "26": -0.06558143792519697, "27": -0.051620079130269364, "28": 0.06994122151861197, "29": -0.11316143751438705, "3": 0.020261335403188398, "30": 0.047465458319189954, "31": -0.13683084027122386, "32": -0.03929969274474506, "33": -0.17378447395666213, "34": 0.14237926385832503, "35": -0.05321045138106773, "36": -0.14144710353379172, "37": -0.023487794513764627, "38": -0.1771129982207596, "39": 0.29451807327266744, "4": -0.08747061730404501, "40": -0.255387485916823, "41": 0.03219847887487725, "42": 0.12304473733850986, "43": -0.27186282159501574, "44": 0.016754292537877854, "45": -0.21440183889347492, "46": 0.18428366483555858, "47": 0.21492533930666685, "48": -0.10843018921476459, "49": 0.18905453175124126, "5": -0.0684470683535044, "50": -0.03248326588419958, "51": -0.0651330081455298, "52": 0.141385624387891, "53": 0.17509280699858054, "54": 0.01072431997160271, "55": -0.01544528209576328, "56": 0.12512737916826197, "57": 0.0728503774800352, "58": 0.14737644250026444, "59": 0.1818167107598965, "6": -2.0777180575447425e-05, "60": 0.09688393104351219, "61": 0.19066630492742653, "62": 0.004963087529849166, "63": -0.011325903187342567, "64": 0.013812686423074143, "65": -0.029007731011785297, "66": -0.0927812268157494, "67": 0.17711595583018822, "68": 0.152716414719781, "69": -0.07697810800491431, "7": -0.2025694999852921, "70": -0.04359165714119731, "71": 0.09348713885613533, "72": -0.06557212431645619, "73": 0.09926448789176626, "74": 0.2323612826822075, "8": -0.059498959237276335, "9": -0.14979788724360846}}, {"depth": 3, "sx": 5, "sy": 5, "w": {"0": 0.13756164613187855, "1": 0.015462648930692125, "10": 0.1059341781153291, "11": 0.07001698417620507, "12": -0.18308542314389165, "13": 0.18220548682853316, "14": -0.12418225007253575, "15": -0.0757442719256872, "16": 0.19500753979737162, "17": -0.07382793059864028, "18": -0.12111836889900973, "19": 0.039996218346215105, "2": -0.11765871559565656, "20": -0.007564756529088398, "21": 0.08484348438349723, "22": 0.02626618155421787, "23": 0.12036542868606796, "24": 0.07000250993037523, "25": -0.07453278412895872, "26": -0.08163418930352508, "27": 0.0031295033778574394, "28": -0.3013119086748243, "29": 0.017332519586147052, "3": 0.07420770686947621, "30": 0.09772840450210024, "31": 0.03686986707059755, "32": -0.08812938354637664, "33": -0.0567643855542047, "34": 0.19698097067487932, "35": -0.1455069954180879, "36": 0.14188842083712377, "37": -0.02584491632073483, "38": 0.028151441752834704, "39": 0.043536699551717926, "4": -0.07446134252106526, "40": 0.10917115878888675, "41": 0.021525538779227017, "42": -0.1710881126841434, "43": -0.11788837428114828, "44": -0.09332562756817736, "45": -0.025126871682651264, "46": 0.10002159338368777, "47": -0.029022389396982394, "48": 0.028742441647845597, "49": -0.04568309300005892, "5": 0.03774576084373581, "50": 0.03385271762069376, "51": -0.06739111154770389, "52": 0.1429879381860863, "53": -0.10313507712090003, "54": 0.09469710316503577, "55": 0.07329857397333751, "56": -0.07896683755412594, "57": -0.12902973068636153, "58": -0.04699858609426427, "59": -0.1436357218315119, "6": 0.07267089699129169, "60": 0.07971231683127719, "61": 0.0366947499105239, "62": -0.018880472146075265, "63": -0.07830838372076959, "64": 0.1442320129350125, "65": 0.23530373616452552, "66": 0.021244598645797207, "67": -0.012442660371656086, "68": 0.11474663273450486, "69": 0.04354864220430595, "7": -0.19174871220012257, "70": -0.19145537146411196, "71": -0.21648868997026116, "72": -0.17307518672097577, "73": 0.18857781728950146, "74": -0.022860640317844558, "8": 0.040066845640216724, "9": -0.11813161188080241}}, {"depth": 3, "sx": 5, "sy": 5, "w": {"0": 0.052149825249995334, "1": -0.14323142200010833, "10": 0.0565812582625017, "11": 0.005733107593105687, "12": -0.09480286215422548, "13": 0.015532960209496051, "14": -0.14119690161578546, "15": -0.08636978979326591, "16": -0.026555410885446825, "17": 0.13929049766023496, "18": 0.034840285557872275, "19": 0.1298427870206728, "2": -0.20205706499508622, "20": 0.04504059935743618, "21": 0.07263225558861972, "22": -0.03250898479847992, "23": 0.0810966425428125, "24": 0.04192500657639493, "25": -0.11613016243560766, "26": -0.16997244149273943, "27": -0.1723562811680376, "28": 0.14847404895966637, "29": 0.08518449200159743, "3": -0.16422608854866783, "30": -0.1334278596453402, "31": -0.23618338132878025, "32": 0.11808590150353497, "33": -0.12588492878642563, "34": 0.05712055192950676, "35": -0.012070857695942898, "36": -0.051752161200868785, "37": 0.02809568155319308, "38": -0.025283110549705338, "39": 0.1274598606071612, "4": -0.017395026578911496, "40": 0.1457931582538502, "41": 0.1037806037370175, "42": -0.11431441761959223, "43": 0.059134709195448686, "44": 0.07617864636508105, "45": -0.03626402121758304, "46": -0.07861893920047604, "47": 0.060934327121984634, "48": -0.029806864953879693, "49": -0.08905666687172635, "5": -0.021808560649212667, "50": 0.11529550943345311, "51": 0.13848488539995538, "52": 0.11849519088511608, "53": 0.048186407025579074, "54": -0.056893728161553095, "55": -0.038073295067712905, "56": -0.10289870443467464, "57": 0.13320772124278965, "58": 0.053758008680436564, "59": 0.033512032099720104, "6": -0.1254435507593752, "60": -0.22210924040732, "61": 0.02102564939108967, "62": -0.043738182113384635, "63": 0.03898271073624569, "64": 0.13161681067691708, "65": 0.1667821384839542, "66": -0.04346415311684091, "67": -0.2135972358968203, "68": -0.16000393724728787, "69": 0.18378815729101844, "7": -0.01332911439503598, "70": -0.0023450818234272194, "71": -0.09224973074463229, "72": 0.043478291826294264, "73": 0.05929379160244543, "74": -0.10047723947391761, "8": -0.053366974448691776, "9": -0.05068353167837438}}, {"depth": 3, "sx": 5, "sy": 5, "w": {"0": 0.10376591915025218, "1": 0.22908615578787792, "10": 0.006607680045376546, "11": 0.20574762461340107, "12": -0.3270248614462644, "13": 0.04545923278247615, "14": 0.10257038315858844, "15": -0.20852219561132213, "16": 0.05459612277355616, "17": -0.13551985997813407, "18": 0.07953784402630334, "19": 0.06035627513407897, "2": 0.08973493740431933, "20": -0.04320727645194483, "21": -0.07728646107541187, "22": 0.03253576429109808, "23": 0.1918512672641432, "24": 0.08887093863390616, "25": 0.17866769350823597, "26": 0.3246615195255086, "27": 0.0035129274227358783, "28": -0.08808378088087343, "29": 0.18640498529785618, "3": -0.059350671505839184, "30": -0.1841132626813863, "31": -0.011519543294161301, "32": 0.106939949109104, "33": 0.06836279261773723, "34": -0.03776371916612147, "35": 0.037999098516150055, "36": -0.06539246762737984, "37": -0.0953655144559849, "38": 0.06741428269026924, "39": -0.02575946623182349, "4": 0.13301838630714174, "40": -0.1907381349933738, "41": 0.10903667986757196, "42": 0.020392875860246698, "43": -0.11258056977878068, "44": 0.18390633340776621, "45": 0.061479338564639614, "46": -0.1343963550866777, "47": 0.0061381489640672995, "48": 0.04430448261531998, "49": -0.01232180207231588, "5": 0.006129897569451936, "50": -0.05509363991447525, "51": 0.13046397923204162, "52": -0.026326592701206956, "53": -0.14144573411379965, "54": -0.2745175991123415, "55": 0.02543959531693142, "56": 0.027158884944485633, "57": -0.07927051297132297, "58": 0.020058266619272493, "59": 0.045365581192253444, "6": -0.11906097249672544, "60": -0.0013069502420949971, "61": -0.014484107507147475, "62": -0.04395248842899158, "63": 0.02452325265993109, "64": -0.17638903710346526, "65": 0.1427291513152177, "66": 0.11628398201532457, "67": 0.11095297584321068, "68": 0.05147001361431394, "69": 0.1623495051965614, "7": -0.14040105804475114, "70": -0.1847718951078307, "71": 0.03386926551811771, "72": -0.031333624311796586, "73": -0.06464662065229403, "74": -0.0011753543656618155, "8": 0.015537816084796211, "9": -0.009088005843447341}}, {"depth": 3, "sx": 5, "sy": 5, "w": {"0": 0.08128127829528636, "1": 0.003555077656096756, "10": 0.01898950871269898, "11": -0.08347025927080812, "12": -0.14942768452205948, "13": 0.2148956304901224, "14": -0.19878480244966965, "15": 0.04742444089363219, "16": 0.06264354127456166, "17": 0.004549056589090718, "18": -0.019041857861733232, "19": -0.019357712888103562, "2": -0.39685093599298554, "20": 0.16575904889922816, "21": -0.08967036857605111, "22": -0.07656659290080517, "23": -0.24502648257551185, "24": 0.08143215600937492, "25": 0.21159630401020557, "26": -0.22753848203939947, "27": 0.06624286818417326, "28": 0.14250726289768118, "29": -0.04000918929187664, "3": -0.18559748179562688, "30": -0.02647976219516655, "31": 0.05522175146577901, "32": -0.10284010794812937, "33": 0.1663003963778076, "34": -0.11242922798021712, "35": -0.06893651985902392, "36": -0.10730033603284463, "37": 0.006732120244768473, "38": -0.360867855533323, "39": -0.01961215370755526, "4": 0.28283688046905986, "40": 0.3625134998763863, "41": -0.25072038440890176, "42": -0.014914479601243102, "43": 0.17925319610617393, "44": -0.21464803993971718, "45": -0.05634393093893638, "46": 0.07080979350226237, "47": 0.06971317434953363, "48": -0.06310755990069208, "49": 0.015933061450869947, "5": -0.09169208075876743, "50": -0.0609733597049546, "51": -0.006496508944115341, "52": 0.1884663554869442, "53": -0.16715314889258376, "54": -0.1359908864887735, "55": 0.0641507223719546, "56": -0.1371549672949372, "57": 0.07494644000559911, "58": 0.13651597712316063, "59": 0.051170576579643315, "6": 0.12149528524327662, "60": -0.07778337572392344, "61": 0.16651613445954122, "62": -0.1905473160018176, "63": 0.16312411330957594, "64": -0.02810688540006626, "65": 0.014293086207204727, "66": -0.045370070678688666, "67": -0.10141975047511996, "68": -0.20397175413644897, "69": -0.006647367673128597, "7": -0.11271245293898254, "70": -0.00526318552684798, "71": -0.09992586847002398, "72": 0.005650206026311526, "73": 0.10458578024043053, "74": -0.021649166160907254, "8": -0.20918159363196573, "9": -0.06648100186790255}}, {"depth": 3, "sx": 5, "sy": 5, "w": {"0": -0.07341226902318371, "1": 0.17465747968008286, "10": 0.1900779269010367, "11": 0.03862464197561113, "12": -0.16703263199048768, "13": -0.10961432489226874, "14": -0.09946624380924482, "15": -0.12791811889309812, "16": 0.056712658729393454, "17": -0.03934942028469529, "18": -0.23037927603493008, "19": -0.007348001594561152, "2": 0.04957737008455235, "20": -0.0422391189160156, "21": -0.04202626400757775, "22": -0.14300828125630252, "23": 0.16901935455330472, "24": -0.03661483933507965, "25": -0.09665902561871835, "26": 0.1923010402150602, "27": -0.09877247542171898, "28": 0.0687751559274563, "29": 0.02051236421749737, "3": 0.2820529817855091, "30": 0.014375096200391346, "31": -0.13815255913954652, "32": 0.16746533240506217, "33": -0.03039392159717628, "34": 0.062312230070000384, "35": -0.054942225665432394, "36": -0.14277796641082835, "37": -0.052107379213666975, "38": 0.1450289146383231, "39": -0.1352368777669837, "4": 0.03380329827962767, "40": -0.1321765213327051, "41": 0.11863313245408559, "42": -0.04632085263381354, "43": -0.030485229843014487, "44": 0.33806972945826175, "45": -0.22175641132875684, "46": -0.02801286125906272, "47": 0.1047826991084894, "48": -0.059189704071966984, "49": 0.08694059306286357, "5": 0.11200811115766046, "50": 0.06355081413275576, "51": 0.08650115513025507, "52": 0.03861158952832196, "53": 0.017328443024277735, "54": -0.12085547761605327, "55": -0.11346514199917866, "56": 0.08617029285790379, "57": 0.051322554733122895, "58": 0.12186299045531691, "59": 0.10738932526573332, "6": -0.24303054714070083, "60": -0.26756293630917644, "61": 0.010079188998547, "62": 0.20324669105935164, "63": 0.04389419768023401, "64": -0.0814656616607074, "65": -0.05143946404602663, "66": -0.08059340167031083, "67": -0.05048084929104284, "68": -0.19717367317199586, "69": -0.19825416152294673, "7": 0.11884275994245677, "70": 0.19229561159604114, "71": -0.07177862635835341, "72": -0.20922680074810637, "73": 0.042002610205703256, "74": 0.13195474616027178, "8": 0.07533824645578979, "9": -0.12428985649747902}}, {"depth": 3, "sx": 5, "sy": 5, "w": {"0": 0.05327870504046379, "1": -0.042698355820021204, "10": 0.12370199389664295, "11": 0.2101188703764526, "12": -0.03892048456031787, "13": -0.06367256643304077, "14": 0.010082830643301122, "15": 0.07115569422822779, "16": -0.03629968433311284, "17": 0.015556005705784488, "18": 0.15715475721369523, "19": -0.04067136327718293, "2": -0.19057866494984288, "20": -0.07430983082272469, "21": -0.1949718719259823, "22": -0.12050085176979458, "23": 0.07780262882254624, "24": -0.13005718381867415, "25": 0.0968676455187152, "26": -0.021619298116437903, "27": 0.040701430042278615, "28": -0.057507395525005285, "29": 0.04371083312324929, "3": -0.038107427763801834, "30": -0.04762010147784153, "31": -0.045613243981796704, "32": -0.004598210378228284, "33": -0.06877616124781032, "34": 0.22857717485706477, "35": -0.015519234462579351, "36": -0.07500071438949094, "37": 0.07159150078507791, "38": 0.023319052186676143, "39": 0.050129506608423545, "4": -0.08588879409977872, "40": 0.3120720966434487, "41": -0.11029990271726461, "42": -0.13163546741654394, "43": 0.03816829734047371, "44": 0.11904883119201776, "45": 0.22159594801156976, "46": -0.19645634422399103, "47": -0.10676928876236975, "48": 0.15935184940942038, "49": -0.127013989885552, "5": 0.02748975393173902, "50": -0.005438872370625278, "51": 1.4362066303528175e-05, "52": -0.1494247347155201, "53": -0.01353493319193937, "54": -0.008380066179414364, "55": -0.17522082145714968, "56": -0.06956772041027137, "57": 0.23739862632229788, "58": 0.1277242827917587, "59": -0.15187998516479842, "6": 0.1869310460870488, "60": 0.07151800163506855, "61": 0.07597385128782312, "62": -0.21762083821818531, "63": 0.023328119643399717, "64": 0.17615764017942992, "65": 0.2500286276359542, "66": 0.13651702652271205, "67": -0.07474453628659705, "68": 0.10774575273914289, "69": -0.19691158157161204, "7": 0.03944163269671639, "70": 0.14552326432935178, "71": -0.051535803856917764, "72": 0.16836390862446113, "73": 0.10196120336150924, "74": 0.07841620812744163, "8": 0.1009310851142962, "9": -0.03888753343893286}}, {"depth": 3, "sx": 5, "sy": 5, "w": {"0": 0.1975856163400413, "1": 0.011990328922020553, "10": 0.3645374684870291, "11": 0.18587978835271954, "12": 0.11227532988805651, "13": 0.13167851444435388, "14": 0.13787141620308047, "15": 0.2183064026075719, "16": 0.06075223374190143, "17": 0.26480078604289836, "18": 0.22311353525134459, "19": 0.019137549692948133, "2": 0.02463232369235135, "20": 0.0077205903477958245, "21": 0.3148806863620361, "22": -0.021418720695035406, "23": 0.03556983819880288, "24": 0.13888919955998522, "25": -0.11157005821034688, "26": -0.014876939850565797, "27": -0.11747179337293792, "28": -0.05026805615669748, "29": 0.1212042467536264, "3": 0.1494572471981585, "30": 0.17441176052257912, "31": -0.1327617073174048, "32": 0.012219132523335719, "33": -0.029521369130822955, "34": -0.24555089747303596, "35": -0.04276322458924841, "36": 0.06945041475221102, "37": -0.11095497120587618, "38": -0.03937362208644816, "39": 0.09580473777531456, "4": -0.11261588830992283, "40": -0.202492815090506, "41": 0.016134373883388994, "42": -0.14459232556237323, "43": -0.04341402063153965, "44": 0.4508870429380198, "45": -0.04313456872333453, "46": -0.23755900812869102, "47": 0.23552730121394447, "48": 0.026629602630908893, "49": -0.1460612008943166, "5": 0.2539692574722102, "50": 0.008033879354233183, "51": -0.1377159728659389, "52": -0.20016057239082571, "53": -0.00677906317711584, "54": -0.1821129270383461, "55": 0.0748513249100014, "56": -0.07236472871163457, "57": -0.07135784018423806, "58": -0.1807919870872117, "59": -0.016410695803723868, "6": 0.224486783736806, "60": 0.07088009506481366, "61": -0.4170216377341802, "62": -0.12615887654697447, "63": -0.13688003673444596, "64": -0.1507739103426708, "65": -0.09319372906692347, "66": -0.056776067646343166, "67": -0.2642163189651133, "68": 0.04411864020501021, "69": -0.1241285057112953, "7": 0.051585167535463335, "70": -0.2879818362838856, "71": 0.04875583617997804, "72": -0.22040556196023023, "73": -0.14030911176270092, "74": -0.028752434056764448, "8": 0.1330860601879606, "9": 0.12395353305523035}}, {"depth": 3, "sx": 5, "sy": 5, "w": {"0": 0.022439843825573024, "1": 0.23010790994239277, "10": 0.11925581991517656, "11": 0.13508638594889702, "12": -0.18119265576230192, "13": 0.05762215370737136, "14": 0.29821693897496704, "15": 0.009593889374456058, "16": 0.1276021094395034, "17": 0.14624391012621954, "18": -0.17901478227997566, "19": -0.00451262376427341, "2": 0.16984187209019597, "20": 0.22892771207868665, "21": -0.1264562836597235, "22": 0.1312148427803171, "23": 0.1792208838335822, "24": -0.3581184001440896, "25": 0.11143660966283818, "26": 0.2507875815719613, "27": 0.0299545859494231, "28": -0.049601715734956114, "29": 0.25187519469459246, "3": -0.03677607338853298, "30": 0.06769553947160954, "31": 0.11441743241003466, "32": 0.0026160586820692744, "33": -0.2745331073339548, "34": 0.04287826466517074, "35": 0.09194641070725604, "36": 0.05369025146480398, "37": -0.06971443208177762, "38": 0.34323111182074234, "39": 0.17742474541745445, "4": 0.061943315667798496, "40": -0.03609796254683199, "41": 0.19535217267716798, "42": -0.2199641498199088, "43": 0.031346216246086876, "44": 0.05989685796661934, "45": -0.20028687815573593, "46": 0.11661881122552209, "47": 0.06502625111063075, "48": 0.06964320435783676, "49": 0.06376281735624272, "5": 0.25021289287970006, "50": 0.23919694353421556, "51": -0.1584596414644541, "52": 0.09748308199047344, "53": 0.06942470824340147, "54": 0.04951843183662341, "55": 0.013529554958048789, "56": 0.16822322505454657, "57": -0.23395774719194465, "58": 0.09193856715265751, "59": 0.060173942173750265, "6": -0.3175091996985704, "60": -0.02052676296099824, "61": -0.11615621935310504, "62": 0.24184505816618926, "63": 0.06964124863340856, "64": 0.019635297255532667, "65": 0.10050667825277014, "66": -0.22632283102550263, "67": 0.14890684231262014, "68": 0.14440381295043134, "69": -0.062347624935516724, "7": 0.09216735694096409, "70": 0.11014327435837404, "71": -0.041397574830987924, "72": -0.09054315782557112, "73": 0.2009810723038407, "74": 0.18329342068474905, "8": 0.17169329814343337, "9": -0.16324195163756333}}, {"depth": 3, "sx": 5, "sy": 5, "w": {"0": 0.20467710663709457, "1": -0.01973691831995706, "10": 0.07464843121925939, "11": -0.12742847414347666, "12": 0.06756698038557114, "13": 0.027383766273912924, "14": -0.13991184432327258, "15": 0.06817810206502409, "16": -0.01655177624906968, "17": -0.0764120297951344, "18": -0.04639075024783327, "19": 0.031032995067996588, "2": 0.1827390947546651, "20": -0.09649553318992589, "21": 0.0028631202809537666, "22": 0.22361948198019732, "23": -0.1799177114655393, "24": 0.03470466977228811, "25": 0.013994000701108207, "26": 0.10340322792916994, "27": 0.26428643773236227, "28": -0.1626880748355577, "29": -0.05030799231984944, "3": 0.21971083069617478, "30": 0.0007745738951905936, "31": -0.10471857081889492, "32": -0.1681685458421183, "33": 0.09292347320967502, "34": 0.1910754049874564, "35": 0.0580819734377394, "36": 0.10060943378804932, "37": -0.19457802668352006, "38": 0.02217422148661735, "39": -0.17376337655302992, "4": -0.04704821141760616, "40": -0.048166128089552354, "41": 0.14563967633894703, "42": -0.09215499935088176, "43": -0.14848188964384568, "44": -0.02657404661186016, "45": 0.2559137987149168, "46": -0.0023513000016945258, "47": 0.030296398682951753, "48": -0.024629583505397172, "49": -0.11663892424039757, "5": -0.06550944804852181, "50": 0.1519548263732261, "51": -0.15846301078184696, "52": -0.027483901024350787, "53": 0.07825181393251662, "54": 0.058457656111281696, "55": -0.0050627604162857345, "56": -0.06599463378768472, "57": -0.11894020110422034, "58": -0.04541722511032486, "59": 0.1006800672585639, "6": 0.0011070303398431063, "60": 0.01509436533731318, "61": -0.04456979212311114, "62": 0.2676864284327761, "63": -0.015144002662873768, "64": -0.18715316687760145, "65": 0.0013335854197601543, "66": 0.10408497698128488, "67": 0.1262937847600582, "68": -0.11795167469785436, "69": 0.003714518957230891, "7": -0.11027325491705665, "70": -0.033914101390354674, "71": -0.009301888224530482, "72": -0.10436683120873484, "73": -0.23602777923424928, "74": 0.01715358173067576, "8": 0.007428084709823663, "9": -0.06187992991984044}}, {"depth": 3, "sx": 5, "sy": 5, "w": {"0": -0.14988292211915957, "1": -0.06647973482745986, "10": -0.14120027648896835, "11": 0.04461613395914254, "12": -0.013668074186448288, "13": -0.027895127699472572, "14": -0.23585262135514387, "15": 0.047890767090950574, "16": -0.003497683928889476, "17": -0.0284514429183498, "18": -0.030910552443658056, "19": -0.28173490320020894, "2": -0.1202782692710993, "20": 0.1580828913994415, "21": -0.06790788813392205, "22": -0.29837074650572076, "23": -0.06818784242788666, "24": 0.15441065209487612, "25": -0.2822736657634923, "26": -0.09772908107455819, "27": -0.12188126383882097, "28": -0.12779901127121152, "29": 0.23641825849626041, "3": 0.05071730501665666, "30": 0.07114117710984368, "31": -0.3315207394670452, "32": 0.06639304760548798, "33": 0.06812074064601374, "34": 0.020609488990146037, "35": 0.11598087903945334, "36": 0.014798053485027388, "37": 0.0647071271795513, "38": -0.05389478623957286, "39": 0.025299478503057984, "4": -0.1932712115832593, "40": 0.017867531343885183, "41": 0.045191610416764234, "42": 0.03922149956220093, "43": -0.045567823228813434, "44": -0.06515370835738558, "45": 0.03222354143348259, "46": -0.012569629557333031, "47": -0.017889175053545082, "48": -0.08626995980713975, "49": -0.307753797089641, "5": -0.1254486394864495, "50": -0.15724220001634595, "51": -0.12085985646820326, "52": 0.19144437142517287, "53": 0.04270107898254859, "54": 0.10910197572117565, "55": -0.06423452582804182, "56": -0.09304650869586442, "57": -0.054915082565043564, "58": 0.053511074060393925, "59": 0.1794016499862328, "6": -0.15724372124902522, "60": 0.19329245979083096, "61": -0.08668346236681845, "62": 0.00609279902034785, "63": 0.05450879510288487, "64": 0.1435073272944423, "65": 0.1364080263482638, "66": 0.2033850290410597, "67": -0.022238230528730873, "68": 0.12368039747774458, "69": 0.17401436671933704, "7": 0.036568643902233446, "70": -0.032618403826507415, "71": 0.013178242633835642, "72": 0.09428523653983875, "73": 0.014499374632939661, "74": 0.20650062590530863, "8": 0.17347329304939743, "9": -0.05556943692489229}}, {"depth": 3, "sx": 5, "sy": 5, "w": {"0": -0.08488276643567066, "1": 0.028329407319042203, "10": 0.10344007729962171, "11": 0.021853895376573132, "12": 0.038147987570312715, "13": 0.09158315200659796, "14": -0.14857100769109757, "15": 0.021408598386964243, "16": 0.04444622614609183, "17": -0.11762911716737999, "18": -0.024216286034239726, "19": 0.00550197351449889, "2": -0.09165896815439425, "20": -0.09617332502336011, "21": -0.04384549081929547, "22": 0.008036810691309727, "23": 0.13605228138110534, "24": 0.02159612199526093, "25": -0.051489854465641124, "26": 0.010600950562957382, "27": 0.08921721215597248, "28": 0.010522500378036351, "29": -0.164567255808034, "3": -0.1296863270801122, "30": -0.05592385053907049, "31": -0.057830695926954806, "32": -0.18710113752775048, "33": -0.0455112944472919, "34": 0.0627044728805324, "35": 0.06457258859407577, "36": 0.07887992666630392, "37": 0.054597233789868256, "38": -0.09185004383832023, "39": 0.06578298297679502, "4": 0.03794180026976754, "40": 0.059157791761806654, "41": -0.09268900681147842, "42": 0.0951631116347142, "43": -0.06297545436448929, "44": -0.06383582554643931, "45": -0.07562146431926596, "46": 0.08223590171336559, "47": 0.11573792630690069, "48": 0.019368582285327104, "49": -0.019121307700750132, "5": -0.17404303711717933, "50": -0.18194507398638038, "51": -0.009305664149358687, "52": -0.010519321672297686, "53": -0.05391134565149088, "54": -0.047876765050755984, "55": 0.20742879880905726, "56": -0.07184728826201876, "57": -0.04465062433508496, "58": -0.051734052456861065, "59": 0.12044021405929285, "6": 0.17235583223166218, "60": 0.051719799475892565, "61": 0.07433533546881262, "62": -0.06576761741089562, "63": -0.1587665452485976, "64": 0.05166948032517362, "65": -0.047793649882038984, "66": 0.09801038651586881, "67": 0.03205718657644065, "68": -0.0439086957360452, "69": 0.015929162490967805, "7": -0.08145967968799818, "70": 0.18031435265167228, "71": -0.20695649675418462, "72": 0.15084531027922743, "73": 0.14302829460744035, "74": -0.1099722207319842, "8": 0.05034453918009208, "9": -0.04574296167433067}}, {"depth": 3, "sx": 5, "sy": 5, "w": {"0": 0.08782647668772431, "1": 0.13816973992212864, "10": -0.0833531622052815, "11": -0.03427061118827681, "12": -0.04059579698518689, "13": 0.029548076513959392, "14": 0.18343076290054716, "15": -0.04681522715396949, "16": 0.0949825616927729, "17": 0.07345794068475199, "18": -0.023438484391181246, "19": 0.11362412124531532, "2": 0.15519668509915954, "20": 0.03609239463734361, "21": -0.006283127333244576, "22": 0.0545989213517046, "23": 0.25714749703701945, "24": -0.041911913966890715, "25": -0.008189754191997729, "26": 0.11837780969149034, "27": 0.20992258454363427, "28": 0.14040122912695488, "29": 0.14731168420350182, "3": -0.06492605973407106, "30": -0.23433602201510353, "31": 0.06356373244811156, "32": 0.17946354841727352, "33": -0.05294155104901662, "34": 0.15148076219258536, "35": -0.15413072305704348, "36": 0.09848294319074703, "37": 0.004710905444298933, "38": 0.10710789694938393, "39": -0.15248760959002247, "4": 0.007226962509959319, "40": -0.08110099925692661, "41": 0.07894726718643502, "42": 0.0889920787238985, "43": -0.03094265303131319, "44": 0.19560771284426431, "45": -0.0603410709457505, "46": -0.22165204961804416, "47": -0.017842199240621838, "48": -0.19067998831284608, "49": 0.05291038930362013, "5": 0.19349048206798244, "50": -0.05224056278410517, "51": -0.09898196672981964, "52": -0.04258384425960734, "53": 0.09536295782791172, "54": 0.10814597962583353, "55": -0.005348696753933603, "56": 0.1621168197186437, "57": -0.26392115910595665, "58": -0.0049994097077394346, "59": 0.03710876091922853, "6": -0.11633773819379356, "60": 0.04537804656105458, "61": -0.3125044001300785, "62": -0.021326716337499343, "63": -0.0967756525152966, "64": 0.1667865898720754, "65": 0.18578095432548103, "66": -0.186573065354043, "67": 0.10644588571688993, "68": -0.1986861540745761, "69": -0.00359351222167149, "7": 0.08662794982830342, "70": -0.0005330465871857017, "71": -0.05610696247219574, "72": -0.07353195187879195, "73": -0.05854727805322855, "74": -0.10576206538164452, "8": 0.18843890695940463, "9": -4.7790091492638364e-05}}, {"depth": 3, "sx": 5, "sy": 5, "w": {"0": -0.09666650371823746, "1": 0.2061133798619475, "10": 0.07282775659851866, "11": 0.01225638805775399, "12": 0.11542068541402357, "13": -0.0425468779317022, "14": -0.04809665484903588, "15": -0.12583163257309837, "16": 0.03679592045558769, "17": -0.05228356442872145, "18": -0.22596593967503922, "19": -0.041984175015951634, "2": -0.02296835841117064, "20": -0.18493468944736235, "21": -0.16754476998356574, "22": -0.11341998569349956, "23": -0.04122696097260701, "24": -0.023020718569297775, "25": 0.03373705966680149, "26": -0.0819173961959778, "27": 0.01648936407369166, "28": 0.1353229798128188, "29": -0.10923145390461311, "3": 0.021921914802540615, "30": 0.04464565079544314, "31": -0.1139086231928747, "32": -0.10425480847271823, "33": -0.025886610046204975, "34": 0.06157384312121754, "35": -0.05592946385429742, "36": 0.0191756165337323, "37": -0.13714882589412924, "38": -0.22439773807208574, "39": 0.07466285715413924, "4": -0.01144283947747165, "40": 0.004896446898401392, "41": 0.03315655264682827, "42": 0.010806571066382609, "43": 0.1242739451784411, "44": 0.020190172452820156, "45": 0.0005877580470282235, "46": -0.15370279267010217, "47": 0.031579123140806915, "48": 0.11491509865213032, "49": 0.018332540012854996, "5": 0.19315281454599323, "50": 0.0657740354055644, "51": 0.10814298731921584, "52": 0.0733206091352704, "53": 0.02413543559852574, "54": -0.002260845712581994, "55": -0.06871331968382313, "56": -0.10532931498480709, "57": 0.0023074083642487283, "58": -0.04611154527476471, "59": -0.09454379178002138, "6": -0.04984362395061896, "60": 0.0031216496841992747, "61": 0.19706507512989804, "62": -0.05697005865056931, "63": -0.1362119132328949, "64": 0.08087634853843625, "65": -0.08834053752910988, "66": 0.03814680580265374, "67": -0.04979124905586326, "68": 0.10234966237521292, "69": 0.13803127123526346, "7": -0.05473971011180153, "70": -0.06633849894919841, "71": 0.12202632437286215, "72": 0.04700293547622489, "73": 0.15986174082244936, "74": 0.12876966821318334, "8": 0.10717318315334678, "9": -0.052070450584360654}}], "in_depth": 3, "l1_decay_mul": 0, "l2_decay_mul": 1, "layer_type": "conv", "out_depth": 16, "out_sx": 32, "out_sy": 32, "pad": 2, "stride": 1, "sx": 5, "sy": 5}, {"layer_type": "relu", "out_depth": 16, "out_sx": 32, "out_sy": 32}, {"in_depth": 16, "layer_type": "pool", "out_depth": 16, "out_sx": 16, "out_sy": 16, "pad": 0, "stride": 2, "sx": 2, "sy": 2}, {"biases": {"depth": 20, "sx": 1, "sy": 1, "w": {"0": 0.05146518963942897, "1": 0.05862471793253667, "10": 0.12649100806706765, "11": 0.07310154478566958, "12": 0.07544438149184066, "13": 0.11325294995106824, "14": -0.007394208554076691, "15": 0.061783042098188704, "16": 0.09605091337146053, "17": 0.05951430912039163, "18": 0.06582228830026918, "19": 0.054589752828038914, "2": 0.09779701151958616, "3": 0.09438786666078053, "4": 0.1711185754757714, "5": 0.08195807924996025, "6": 0.06620957579668724, "7": 0.07914146607829063, "8": 0.10392379627781098, "9": 0.08016377620571404}}, "filters": [{"depth": 16, "sx": 5, "sy": 5, "w": {"0": -0.09662310250788113, "1": 0.04421754604233985, "10": 0.05783393812394392, "100": 0.020346693036132204, "101": 0.008420455057466981, "102": -0.1015092151797722, "103": 0.05984212804406797, "104": -0.11681410618998805, "105": 0.15874807959700324, "106": -0.13950635539076198, "107": 0.05102365964089052, "108": -0.07222411134180898, "109": -0.07544616576765305, "11": 0.04078468943118188, "110": 0.042526831343349766, "111": 0.05331754736392032, "112": 0.04700549623827048, "113": -0.025629197345879696, "114": 0.06601622817311995, "115": -0.021776637403266606, "116": -0.003455355891032568, "117": 0.050702837762748296, "118": -0.14389191126856984, "119": 0.08392431564373293, "12": -0.09282184153010692, "120": -0.07828486582537726, "121": 0.011836865095323178, "122": -0.10501180578716515, "123": 0.025473306494669338, "124": -0.0523095715906563, "125": -0.051251454069949375, "126": 0.008492789459006101, "127": -0.00718674449272863, "128": 0.021352207260440875, "129": -0.009987778434454498, "13": -0.1294253455410938, "130": 0.06021275052672427, "131": -0.008942362282782954, "132": -0.04683718180442496, "133": 0.03417196465972595, "134": -0.012239382015460352, "135": -0.06092494448305058, "136": -0.06067431852748207, "137": 0.05684345947539633, "138": -0.09521724085098729, "139": 0.007223441548077369, "14": 0.13305281800781135, "140": -0.08989903971103136, "141": -0.019555483706159088, "142": 0.0382587562036144, "143": 0.04974457032874557, "144": 0.09601994688972149, "145": -0.029932113347389582, "146": -0.00390173347390683, "147": -0.13837281171215646, "148": -0.0005947602194759181, "149": 0.04949235683402003, "15": -0.04731277105153163, "150": -0.02294504486012028, "151": 0.03938317192279634, "152": -0.04815575470710566, "153": 0.013565869507365673, "154": -0.06255243215924804, "155": 0.054349901033070594, "156": -0.02340428790698486, "157": -0.07022210429800382, "158": 0.06809261783819277, "159": -0.011016654357391192, "16": -0.06261236598797942, "160": -0.06664193250537111, "161": 0.10115140885888046, "162": 0.039869340235131084, "163": -0.0687474577393825, "164": 0.07155940852340209, "165": 0.04707478907642833, "166": -0.016592556297481274, "167": 0.06115251408722246, "168": -0.09457289847617802, "169": 0.08190136350879662, "17": 0.049056295390275236, "170": -0.10179208226421274, "171": 0.03469894807178082, "172": 0.01072256974396405, "173": -0.13854644791000076, "174": 0.006702867399596814, "175": 0.02426573820908016, "176": -0.09367628916673673, "177": 0.10042826226822685, "178": 0.016319206633352994, "179": -0.08203746100199948, "18": 0.00029689037522915305, "180": -0.005952066626350162, "181": 0.03514502204062587, "182": -0.05468547727416047, "183": -0.10657405856834729, "184": -0.10749138195029877, "185": 0.02301708449146025, "186": -0.09513057711688486, "187": -0.071178075593098, "188": 0.08022150102358104, "189": -0.061575517828819606, "19": -0.057167619288020693, "190": -0.022904005648673825, "191": -0.02179034093843031, "192": 0.05808494530358248, "193": 0.0369941208736079, "194": 0.07714953889065097, "195": -0.08496264820358292, "196": 0.09314497937273461, "197": 0.06595210385149232, "198": -3.5513981125521576e-05, "199": -0.1657873357363934, "2": -0.029723238821354518, "20": -0.023609416566300445, "200": -0.09938778912202044, "201": 0.055279090831694584, "202": -0.0762343392459375, "203": 0.13501564763310914, "204": 0.005182663118084746, "205": -0.04600342727987278, "206": 0.08579066727631053, "207": 0.04913881648116787, "208": -0.03203573472186354, "209": 0.050337176795412435, "21": 0.055936769846443885, "210": 0.011874583190527505, "211": -0.04906212816288266, "212": 0.06724967171659794, "213": 0.026727904751000287, "214": -0.029186665939656888, "215": -0.16071339374483246, "216": -0.011977194373244853, "217": -0.01236769413159981, "218": -0.2051702888452477, "219": 0.011585755827298497, "22": -0.1408204863842039, "220": 0.08046627282770313, "221": 0.05790923582656121, "222": 0.05682417961113458, "223": 0.054260403680796314, "224": 0.08822902004632954, "225": 0.14582440770267446, "226": 0.027406198375436598, "227": 0.060661413515058125, "228": -0.08512262400987719, "229": 0.0467850749946319, "23": 0.10313598031214115, "230": -0.026724919691547187, "231": -0.12186139300948436, "232": -0.01979505550580382, "233": 0.18311036216936818, "234": -0.15524159686822406, "235": -0.03632048800623387, "236": 0.1167749756378925, "237": 0.013804630011468456, "238": -0.12128258360971346, "239": 0.11986544790878857, "24": -0.13664697167973722, "240": -0.021282462510584042, "241": -0.04384312312281415, "242": 7.627614228856105e-05, "243": -0.029508666910382973, "244": -0.016944933107974902, "245": -0.03195936399356449, "246": -0.009325692085622814, "247": -0.01678227374917283, "248": -0.18059238570719194, "249": 0.034870341413412685, "25": 0.20660621449008185, "250": -0.19000313696635684, "251": -0.015175614268749624, "252": -0.0018859545252584914, "253": -0.01030220016159648, "254": -0.02312804592741969, "255": 0.010112495473452362, "256": -0.004570440827024831, "257": 0.003188732363138751, "258": -0.026150344037851776, "259": -0.07221783511252208, "26": 0.11249477591057556, "260": -0.04087594154907065, "261": -0.0919568972194935, "262": 0.013843683315823868, "263": -0.0880160207240283, "264": -0.10063205163260557, "265": 0.04169464116643577, "266": -0.03519425340049081, "267": -0.10944824388020272, "268": -0.0640221094066581, "269": -0.058982454011413325, "27": 0.08364443158420726, "270": 0.0536593860723791, "271": -0.02215729372869481, "272": -0.011262755588425587, "273": -0.04520472101593719, "274": -0.04661474650983857, "275": -0.006015293670129696, "276": 0.04027979573735718, "277": -0.027222066928429545, "278": -0.03565285098481688, "279": 0.0029990238880694547, "28": 0.00781253142587426, "280": -0.046014829405393386, "281": 0.002269607196309408, "282": -0.018762850736608105, "283": -0.04323071463003407, "284": 0.013188457328436964, "285": -0.06650127937656858, "286": -0.05602638913382007, "287": 0.04271688668265378, "288": 0.09208463895914097, "289": 0.035913719323580694, "29": -0.028168691164424324, "290": 0.09529399525730319, "291": -0.13936067475394198, "292": -0.008477801718756981, "293": -0.048543911570772424, "294": -0.06602504854746348, "295": -0.015415394162099747, "296": 0.032746113851356416, "297": 0.014274840872729977, "298": -0.013666605152878621, "299": -0.01626768805977941, "3": 0.07497426776020136, "30": -0.005046723321534421, "300": 0.032428578450037146, "301": 0.05289406343760255, "302": -0.03504949437480533, "303": 0.03393527981497379, "304": -0.09557061102025383, "305": 0.13590439009825755, "306": 0.1717017068468918, "307": -0.0272739610087422, "308": 0.038771674403141505, "309": 0.013785852870902034, "31": -0.06729135598868577, "310": -0.0774826967031203, "311": 0.020238677869447576, "312": -0.033590406956957225, "313": -0.06577592979130222, "314": -0.009406827498819338, "315": 0.03379961700058065, "316": 0.061468949471758946, "317": 0.039226917428992814, "318": -0.07452609235883066, "319": -0.02241220093963388, "32": -0.022790280048522436, "320": -0.0030397665538193395, "321": -0.07490620136221154, "322": -0.02258203800314964, "323": -0.20619977211631432, "324": -0.048936795160269685, "325": 0.014184877935132265, "326": -0.1289342485234164, "327": 0.04736218832068036, "328": 0.004195842790925567, "329": 0.05117348952912991, "33": -0.02126513561158729, "330": -0.12390396330540186, "331": -0.04590830143301106, "332": 0.05954569811633555, "333": -0.12607484825199555, "334": -0.014946354612110444, "335": -0.06965151965696768, "336": -0.06082713261328274, "337": 0.05099630240180566, "338": 0.1035890952262336, "339": -0.11382358652944327, "34": 0.06417265180711637, "340": 0.019428674896154245, "341": -0.051557650743294416, "342": 0.04043205858923417, "343": -0.0630653840199904, "344": -0.048517960680339665, "345": 0.02411405324264227, "346": -0.1963112361927835, "347": -0.1478376924468792, "348": 0.05762259964310202, "349": -0.024443230310400542, "35": -0.08099736230580044, "350": 0.02196070067677298, "351": -0.0021812304910767445, "352": 0.06320015689195949, "353": 0.0077026383044724875, "354": -0.008351880337804634, "355": -0.0600432120273729, "356": 0.0933695411082704, "357": 0.06453356233340017, "358": -0.03314565172338167, "359": 0.07681486449199686, "36": 0.004458431648393986, "360": -0.02391142434253863, "361": -0.057938689626985715, "362": -0.013183344514494728, "363": -0.08343364465056785, "364": 0.059386085445132186, "365": 0.0650398143819843, "366": -0.03977536382773777, "367": -0.0022783412313710817, "368": 0.1155545090009882, "369": 0.1605292608708685, "37": 0.04808196657092864, "370": -0.07893089695016196, "371": 0.036191201571496585, "372": 0.06402063884551594, "373": -0.059585745919093526, "374": 0.00741179148983449, "375": -0.050798763687772794, "376": 0.12980149381920525, "377": -0.17167605677055123, "378": 0.18232507641778536, "379": -0.05352124061319081, "38": -0.16149643861335466, "380": 0.05081567433043023, "381": -0.02230106528918489, "382": -0.004182435028727471, "383": 0.03313243779252987, "384": 0.13304517668596694, "385": 0.04123972721320441, "386": 0.08600738831296909, "387": -0.013979855676980946, "388": 0.11080012843057654, "389": 0.10119457154086109, "39": 0.08100532081671986, "390": -0.05781605362427513, "391": -0.11142145165485288, "392": 0.0610715354239956, "393": -0.12382888685360759, "394": 0.07346197510672377, "395": -0.0797043566138724, "396": -0.0022120923073744633, "397": 0.1127208071579854, "398": -0.114743843956491, "399": 0.012597388903220574, "4": 0.061068888103814334, "40": -0.037268653207933725, "41": 0.22407422581927916, "42": -0.010657446246475074, "43": -0.0587235726767012, "44": -0.04879800340066644, "45": -0.11549610505845921, "46": 0.18147844217798967, "47": -0.08580306477153418, "48": 0.008109428946247969, "49": -0.002758447299103764, "5": 0.10242531074522136, "50": 0.03046798439993155, "51": -0.007619289343950664, "52": -0.00047430978326140475, "53": 0.10461468873498933, "54": -0.17628501339309102, "55": 0.04747718276090837, "56": -0.038830347271906346, "57": 0.18684319363101154, "58": -0.017715757914991425, "59": 0.07705106110562175, "6": -0.21608613802091114, "60": -0.0622938934424597, "61": -0.04198902453457379, "62": 0.11107849762050252, "63": -0.039748625199120306, "64": -0.12363184353539099, "65": -0.09179860439595233, "66": 0.050400673366675974, "67": -0.038515112510270975, "68": 0.026841576685312625, "69": 0.06755553787740075, "7": 0.0018478376612816579, "70": -0.12134482079613995, "71": 0.053308064646296074, "72": -0.02037695246918613, "73": 0.1427776870089873, "74": 0.07003250982969492, "75": 0.009901666190799243, "76": -0.10280229361825152, "77": -0.15858144571317384, "78": 0.08547629924625874, "79": -0.001169901894301833, "8": -0.03915234778544573, "80": -0.05212065778860368, "81": -0.10831444524037336, "82": 0.005429033682484145, "83": 0.048063123164409235, "84": -0.08619858777816, "85": -0.00884134155935897, "86": -0.05348086385957155, "87": -0.032091108255681615, "88": -0.11287410040255771, "89": 0.2062781485928722, "9": 0.1942696345273747, "90": -0.09134285652819463, "91": -0.008710647381995543, "92": -0.1296865202316716, "93": -0.03802025425902016, "94": 0.0106065199134958, "95": 0.08358486844679391, "96": 0.03719952472499069, "97": -0.05644016766895555, "98": 0.01743962477159185, "99": -0.06420746578203727}}, {"depth": 16, "sx": 5, "sy": 5, "w": {"0": -0.004533887520722325, "1": 0.0053588038205740485, "10": -0.0677173944060427, "100": -0.012050982643193911, "101": -0.0019378551532460626, "102": -0.008546841162950364, "103": -0.04394051741065618, "104": 0.012781603876786916, "105": -0.07798104029928436, "106": 0.06434329399744729, "107": -0.07590196144538945, "108": -0.10100816480967362, "109": -0.00529246730299881, "11": -0.04695673754510825, "110": -0.028303614068673693, "111": -0.047218224309511905, "112": -0.020565983578508175, "113": -0.003240424195797039, "114": 0.04958975123783028, "115": 0.0579445231258284, "116": -0.010713206357449245, "117": 0.08807199835600656, "118": -0.014052199748102104, "119": 0.05601048195872872, "12": -0.062587299638898, "120": -0.04974935993315848, "121": 0.04349374922811098, "122": -0.13383808551698068, "123": 0.08638145898714826, "124": 0.012698811694909733, "125": -0.08218436234669765, "126": -0.035234959794852395, "127": -0.04900644787560891, "128": -0.008575816849147717, "129": 0.008464189910330159, "13": -0.004040165411105278, "130": 0.0405047201751087, "131": -0.038576409973928506, "132": -0.016684308099130265, "133": 0.037014759323312274, "134": 0.027324571641079286, "135": 0.006586315484457761, "136": -0.07578924661166409, "137": -0.0060773707491324856, "138": 0.02012211053915736, "139": 0.0022914443841183622, "14": -0.03971907305852283, "140": -0.04451307323400111, "141": -0.0314524653040825, "142": 0.007876586545932832, "143": -0.0015643958397369342, "144": 0.056448774260313334, "145": 0.02036135053126525, "146": 0.01766993656398013, "147": 0.01101524339193995, "148": -0.09809491745112704, "149": 0.04918156889126817, "15": 0.05284707004055609, "150": -0.061080511588330444, "151": -0.04724916129489168, "152": 0.0671461512112417, "153": -0.04043229608105438, "154": -0.08990594140795793, "155": -0.031969240889419305, "156": -0.031239746539907097, "157": -0.05510298581548193, "158": 0.027833749929608572, "159": 0.0020313800577680388, "16": 0.046679159972017506, "160": -0.03770808607482194, "161": 0.0068777510573568, "162": -0.007839013215116396, "163": -0.03744588029045729, "164": -0.0677432514389946, "165": -0.04681802165401379, "166": -0.024689326461206567, "167": -0.038384544936595266, "168": 0.01588739301673766, "169": 0.014992226501240838, "17": -0.0469640178591714, "170": -0.057323084901332, "171": 0.02538417004615362, "172": -0.03301290804879508, "173": -0.06320352566457864, "174": -0.054203280153424724, "175": 0.09755572573043907, "176": -0.03026773843608472, "177": 0.04149944632268468, "178": -0.07905819839737072, "179": -0.02074160862996593, "18": -0.02828032408883967, "180": 0.07836249144624086, "181": -0.04464010220129338, "182": -0.009142655631348775, "183": -0.046953319683287906, "184": -0.08558998044690967, "185": 0.02779786406002431, "186": -0.022807160310056324, "187": -0.024036923002826737, "188": -0.011622848960347626, "189": 0.001993582235017429, "19": -0.04604832274430102, "190": 0.029791478532008305, "191": 0.05681572001169994, "192": -0.020510307021255406, "193": -0.008062231063462022, "194": -0.039408561891560674, "195": -0.07323396049043727, "196": 0.010599347486245157, "197": 4.205087045112006e-05, "198": -0.026014189146627058, "199": -0.046216084998574374, "2": -0.01830064720537726, "20": -0.07326348983545153, "200": 0.05137292067216965, "201": -0.07895083146708146, "202": -0.07073558361571437, "203": -0.02406338417856555, "204": -0.05903315209911529, "205": 0.006029976439954225, "206": -0.08986595768188337, "207": 0.016841950413697893, "208": -0.007623716133109361, "209": -0.00802736262229566, "21": -0.03133567027418898, "210": 0.10480791193352104, "211": -0.08982761709278721, "212": -0.03348752320673848, "213": -0.0344340022866233, "214": -0.06204589894010763, "215": -0.029570799823478766, "216": 0.014753331400797475, "217": 0.004504560145837189, "218": 0.03662299082145692, "219": 0.08306053094453958, "22": 0.03792337686740218, "220": 0.0611754498349238, "221": -0.04556365619522835, "222": -0.06982851521352264, "223": 0.03965385062349503, "224": -0.06570599030280493, "225": -0.13749489015196048, "226": -0.03865290916815248, "227": -0.09851896173414104, "228": -0.04283639164032442, "229": 0.017745696208746182, "23": -0.10132506776758403, "230": 0.02599096865510662, "231": -0.001079841691028196, "232": -0.04411608924377947, "233": -0.031588234958014216, "234": -0.05651951979835675, "235": -0.02082850125433002, "236": 0.053396466917052236, "237": -0.1448599090886913, "238": 0.07075000013274362, "239": -0.003237475719623216, "24": -0.039765899230315496, "240": 0.002421671013939477, "241": -0.07295579409170753, "242": -0.04865177159749011, "243": 0.009096178409587902, "244": -0.023550308623009115, "245": 0.03842156966475741, "246": -0.040549518150288885, "247": -0.03503670597413973, "248": 0.05644335092959573, "249": -0.023339172309344337, "25": 0.03193629978444203, "250": -0.06479034726495117, "251": 0.018675058055485517, "252": -0.08742026331741413, "253": -0.09373435409639319, "254": -0.153892080803984, "255": -0.0689554810052261, "256": -0.04600818038792741, "257": 0.04737113103188424, "258": -0.0632324420141704, "259": -0.02372102229918317, "26": 0.026478732131115998, "260": -0.031038074780179656, "261": -0.04358856611280991, "262": -0.016766520048723626, "263": -0.09584395317126056, "264": -0.05824333966564384, "265": 0.06507207816409524, "266": -0.025786303098572754, "267": -0.004075704092369043, "268": -0.04864615590794029, "269": -0.05506179684296526, "27": -0.049526868746042584, "270": -0.03328110636631342, "271": -0.020686369324061343, "272": -0.022002995424182825, "273": -0.05881653518940726, "274": 0.013112096602052597, "275": -0.04851726757008073, "276": -0.01820515131685448, "277": 0.021670400510198976, "278": -0.0412875305052119, "279": -0.007180575794604559, "28": -0.04132277518571209, "280": -0.07535723060953585, "281": -0.14462304028971196, "282": 0.0206765816434259, "283": -0.032024294331982006, "284": -0.05249879121016288, "285": -0.04605605277423501, "286": 0.05604280543353304, "287": 0.014405439257766512, "288": 0.019477119137742395, "289": -0.0009916285200350366, "29": 0.0238403519394987, "290": -0.019047636678013728, "291": -0.05671333724822838, "292": 0.0398129704981947, "293": -0.04996638593480004, "294": -0.011703875271355897, "295": 0.0037386353246257977, "296": 0.08971893063988053, "297": -0.07771971732356941, "298": -0.04077883495932095, "299": 0.01907126039880329, "3": -0.014346739354419389, "30": 0.05535396036176869, "300": -0.007638943980631047, "301": 0.04149966469343664, "302": -0.008665445502605035, "303": 0.039172519419058, "304": 0.025641173873194676, "305": 0.023811982511658922, "306": -0.08137350104999652, "307": -0.029064316789839426, "308": -0.03362100703582165, "309": -0.05354680433035663, "31": 0.0036594635021561287, "310": -0.00557056461441825, "311": 0.03607683749165043, "312": -0.04799696961799003, "313": -0.06298151380986533, "314": 0.06464062939598544, "315": 0.05909429101089152, "316": -0.07561135257226698, "317": -0.06833087181342658, "318": -0.02216823574779095, "319": -0.04222977763767563, "32": 0.00401756762222114, "320": -0.05426061580428218, "321": 0.06473815210442309, "322": -0.029426556204448777, "323": -0.06369388129901843, "324": 0.15158944892952364, "325": -0.02176553490100948, "326": 0.02576403145534681, "327": 0.018634969993116254, "328": 0.03129680499632093, "329": 0.027380280016345977, "33": -0.03932581301742455, "330": -0.03572680815509381, "331": 0.05950843465448401, "332": -0.07648427335549356, "333": 0.004544019732731638, "334": 0.05106077734055238, "335": -0.015519542736379144, "336": -0.019664665859853873, "337": -0.010377283664943966, "338": -0.02296634864996168, "339": 0.013998029830640165, "34": 0.010640717492184445, "340": -0.07005596492376144, "341": 0.04088908725610812, "342": -0.04010278709580907, "343": 0.02910057882143127, "344": 0.019318605939802447, "345": -0.039203369746783484, "346": 0.10377989147482222, "347": 0.07304777311587785, "348": 0.025478863995592717, "349": -0.11628709372432977, "35": -0.04353317798581348, "350": 0.05667381761714305, "351": -0.02361536018832837, "352": -0.03274884578899253, "353": -5.9336497942829435e-05, "354": -0.049359471522484114, "355": -0.02066535740052345, "356": 0.013009126431940703, "357": 0.07189685363979287, "358": -0.01140762169929158, "359": -0.0013242559768217534, "36": 0.004391075639631922, "360": -0.02519144435508861, "361": 0.03704607294750836, "362": -0.039506140372988295, "363": 0.05994259338558698, "364": 0.028145447862144124, "365": -0.0060622738834826195, "366": -0.021393513525586234, "367": -0.04634903059593738, "368": -0.047015874205218314, "369": 0.030123717126766474, "37": -0.05672725091737521, "370": -0.05642801421025136, "371": -0.07314391956260777, "372": -0.1147529521592108, "373": -0.06770065266655885, "374": -0.06739750994077776, "375": -0.12566563498993558, "376": -0.02553608502658968, "377": 0.021350113894578707, "378": -0.09064707245716953, "379": -0.08863054269795606, "38": 0.028910628893255814, "380": 0.0026736425397850404, "381": 0.015560140040685096, "382": 0.03878607016891756, "383": -0.04909968418116793, "384": 0.025427115496361754, "385": 0.035839891189599474, "386": -0.08698865634235346, "387": -0.0015895362097152436, "388": -0.031341176378061726, "389": -0.04256558295632922, "39": 0.0790531195812327, "390": -0.04768899747929901, "391": -0.026356351373158046, "392": 0.051008610604855766, "393": 0.0005164661056463355, "394": 0.039197329073428364, "395": 0.0860021612962873, "396": -0.10322900166592175, "397": -0.06198614176745726, "398": -0.023835940064032862, "399": -0.08172187438506964, "4": -0.03331683038142077, "40": -0.012613809206873397, "41": 0.008692232812821344, "42": 0.06976843955056877, "43": -0.04057822241730424, "44": -0.07670416956500481, "45": -0.06873543236653124, "46": 0.025657239251566898, "47": -0.008833523761490762, "48": 0.03054137584963916, "49": -0.05161739385045227, "5": -0.029352296661823915, "50": 0.034204902767630184, "51": -0.028602346582476297, "52": -0.09387629896012725, "53": -0.02954386211258641, "54": 0.03080647057553354, "55": 0.007180949815215645, "56": -0.03933903229903407, "57": -0.1629670319708732, "58": -0.02526453036011169, "59": -0.036536122153468034, "6": -0.011920396650193727, "60": -0.0028530396391312465, "61": -0.04318704869957204, "62": -0.019767764962842396, "63": -0.03453772631394666, "64": -0.04190501714863972, "65": 0.04968695981924504, "66": 0.00035915803930928206, "67": -0.054731061080308896, "68": 0.04823428965701475, "69": 0.020961291106394532, "7": -0.027406709319840607, "70": 0.051396508156217324, "71": -0.0420386467084375, "72": -0.0374597805710119, "73": 0.07182594906970063, "74": -0.019722518918366724, "75": -0.006418482374595522, "76": -0.010359698967717565, "77": -0.03906372698867416, "78": 0.02076581627705904, "79": -0.024096446990567514, "8": -0.03747847917343255, "80": -0.04663182905209775, "81": 0.10646468304541051, "82": -0.053310304686680146, "83": -0.061651811345250246, "84": 0.07239156306044733, "85": -0.023395623172781675, "86": -0.054741296527302516, "87": -0.06677564323976176, "88": -0.08639376101221916, "89": 0.015269923022011616, "9": 0.0875985609010617, "90": 0.04436531652959799, "91": -0.046640979254612525, "92": -0.10117492845775247, "93": -0.05133751288423212, "94": -0.03272696303886167, "95": -0.06037421979856539, "96": 0.0006817659234840497, "97": 0.018168727371293276, "98": 0.018672156764748933, "99": -0.049807244440380836}}, {"depth": 16, "sx": 5, "sy": 5, "w": {"0": -0.07717234664286754, "1": -0.031942636797632463, "10": -0.01246963960978342, "100": -0.010947789534436498, "101": -0.03762974623380044, "102": -0.05802742235486499, "103": -0.07512881089979608, "104": -0.134621249165005, "105": -0.0840341084004382, "106": 0.020011685288845903, "107": -0.030387483887677404, "108": -0.03699013790389759, "109": -0.06577565048125733, "11": -0.16785764561748945, "110": -0.03594751879513926, "111": -0.05154032445681212, "112": -0.13184606187218703, "113": -0.014781366398962284, "114": -0.051888903181523775, "115": -0.02523078115121632, "116": -0.06493713244798532, "117": -0.08248740878977716, "118": -0.10457301420170917, "119": -0.07252320653380358, "12": -0.0652106673348211, "120": -0.061491835063674116, "121": -0.07111452274963205, "122": -0.08121864796642772, "123": 0.015838346088851797, "124": 0.01149130514058234, "125": -0.10096449992868871, "126": -0.08208611769993372, "127": 0.002296872866896127, "128": -0.021104748422874204, "129": -0.04531609470232359, "13": -0.12888257798765954, "130": -0.07219089178206282, "131": 0.022878307952230694, "132": -0.03216053275966045, "133": -0.06010431655988939, "134": -0.007845120379996334, "135": -0.009153245041460029, "136": -0.03683628938961538, "137": -0.06058919984322872, "138": -0.08695878349141595, "139": -0.12273192162250364, "14": -0.15981704302304656, "140": -0.08821058067769733, "141": -0.05007682880396994, "142": -0.012108632897352438, "143": -0.06945368754836617, "144": -0.09107558579304438, "145": -0.04003568299775394, "146": -0.03997942041310823, "147": 0.012243389258817478, "148": -0.03919706878639878, "149": -0.004228761798898399, "15": -0.09453828881132971, "150": 0.030456852141907333, "151": -0.04965852232632042, "152": -0.01332326922554142, "153": 0.007376737104611414, "154": -0.04663013648323065, "155": -0.02405279496833348, "156": -0.01085948787860186, "157": -0.0933422123760311, "158": -0.055989974089173104, "159": 0.0033799420754442653, "16": -0.04417921254570484, "160": 0.029771365094699187, "161": 0.015563182221186266, "162": -0.040126361256152585, "163": 0.11653270744792767, "164": -0.0294368749868945, "165": -0.011850656599906001, "166": -0.002721831154703801, "167": 0.012311542730196492, "168": 0.0504277005016713, "169": 0.014786213175672103, "17": -0.03024359081765951, "170": -0.15569863052707122, "171": -0.02376200361952256, "172": -0.0477634737212786, "173": -0.014554776867643745, "174": -0.060107999901494596, "175": 0.0037332189339820184, "176": -0.08086291132656835, "177": 0.06763641305412665, "178": -0.1224620471649358, "179": -0.03846910370517301, "18": -0.06064100936715269, "180": 0.05922158433306011, "181": 0.03482138836875171, "182": 0.09265815467046251, "183": -0.04766285188266994, "184": 0.028848738016375247, "185": 0.03905755035852371, "186": -0.01723622812427025, "187": 0.07193706879676535, "188": -0.03890615977315475, "189": 0.024706962671976203, "19": -0.047998744416570524, "190": 0.07746739416944426, "191": 0.034887776788743496, "192": 0.03870804973797303, "193": -0.11191748929890193, "194": -0.04037462144205168, "195": -0.02755805751629557, "196": 0.0011294027885309836, "197": -0.04007872237488678, "198": -0.06770199059642017, "199": -0.05865651400776826, "2": -0.05862598326736925, "20": 0.038632589085146246, "200": 0.04206060618994162, "201": 0.17191161375586841, "202": -0.042674689222949244, "203": -0.021734726207169847, "204": 0.06665633357085662, "205": -0.04413538590198425, "206": -0.012277941500749904, "207": 0.0590470246906466, "208": -0.006852957523502784, "209": -0.12413656259471667, "21": -0.04398342105511396, "210": 0.020181411271947745, "211": 0.049296687941307406, "212": -0.009751720370746408, "213": 0.030653608824922875, "214": 0.0619299406043265, "215": 0.025541149304684457, "216": 0.07307226195809627, "217": 0.12518729378569302, "218": -0.06473200666872014, "219": -0.08954268544280074, "22": -0.0032230564180341483, "220": -0.039672755928635714, "221": -0.0017713614982919602, "222": -0.02168430739110628, "223": -0.015009390371162418, "224": 0.014832975836077901, "225": -0.01924769856156026, "226": -0.07455353100042954, "227": 0.029847410033282538, "228": -0.02556552677668391, "229": 0.02594753732111804, "23": 0.04136252742374961, "230": 0.006339660869182893, "231": 0.021604761859829014, "232": -0.07334987337714086, "233": -0.06083560641183361, "234": -0.09844922596268896, "235": -0.01504289301222629, "236": -0.014312263859742921, "237": 0.05158693066209529, "238": 0.0024752073820587263, "239": -0.024569310089854357, "24": -0.037846751567868805, "240": 0.011754081220091896, "241": -0.004258928039674163, "242": 0.07321313127651465, "243": -0.055738128424985905, "244": 0.05772022928979795, "245": 0.05854780850992162, "246": 0.042642362033997114, "247": -0.06888226350479834, "248": 0.08161413265275833, "249": -0.0136345237259821, "25": -0.04861927130293669, "250": -0.005992715051704581, "251": -0.06539304425095295, "252": 0.07093121951906953, "253": 0.04385212006818607, "254": -0.09016315828316149, "255": 0.04656665209322831, "256": 0.07197002757782095, "257": -0.004280542852468958, "258": -0.05975739293442891, "259": 0.04830160063226086, "26": -0.08619736542139908, "260": 0.06778557347974995, "261": 0.06388461755740125, "262": 0.028006330338869484, "263": -0.03459572730528403, "264": 0.0498433373332679, "265": 0.009668738532381557, "266": -0.004605723945050091, "267": 0.11369012626408766, "268": -0.0022781891280938635, "269": 0.043133284044314865, "27": -0.07718136543101344, "270": -0.02003159449541423, "271": -0.056012112935824546, "272": -0.09367104630631964, "273": 0.029625627616480178, "274": 0.008769674919925795, "275": 0.011637014053142854, "276": 0.09902850589567667, "277": -0.005145904447235256, "278": -0.003653708749838113, "279": -0.06632455638334098, "28": -0.05862046659131771, "280": -0.06796518539947313, "281": -0.061898998522358376, "282": -0.16566174475018464, "283": 0.04735813365025623, "284": 0.050905405627554065, "285": -0.03270082545106518, "286": -0.008759613288522648, "287": -0.002856939150496142, "288": 0.036079285192538835, "289": -0.020256351048224767, "29": -0.12681831332866725, "290": -0.012788992759958423, "291": -0.015203955186884641, "292": 0.032930987753041124, "293": -0.001179134211984929, "294": -0.05744791518806362, "295": 0.04959034495034171, "296": -0.029744155229283458, "297": 0.003368179502130356, "298": -0.010461322157965683, "299": -0.13435429158806667, "3": -0.07714542191233813, "30": -0.10489816027515446, "300": 0.007410368008621488, "301": -0.0068068996136173105, "302": -0.03323771597337927, "303": -0.010478075245692232, "304": 0.042361540346564266, "305": -0.030229986922495605, "306": 0.0015116702595868127, "307": -0.0266618495410842, "308": -0.10970309931476663, "309": -0.0775605705175081, "31": -0.0062932915233248, "310": -0.007081691193532405, "311": -0.06641188734363056, "312": -0.034768199575869886, "313": -0.05432068760312903, "314": -0.06320894707282068, "315": 0.029340524671992926, "316": -0.08855349062796695, "317": -0.04718475593022832, "318": -0.019563996165860492, "319": -0.03866077668149795, "32": -0.11176585801205059, "320": 0.058729206673562254, "321": -0.008125368070004937, "322": 0.08781740679339337, "323": -0.0039846014509851094, "324": -0.016745776185709806, "325": -0.05596217996642068, "326": 0.1016428148801911, "327": 0.020587124995935634, "328": -0.015302172435421897, "329": -0.0629702918098316, "33": -0.08194843811475816, "330": -0.04415233449734265, "331": -0.026380078705965933, "332": -0.013280587825866635, "333": 0.048652100410584036, "334": -0.0876127232330922, "335": 0.06318260734990852, "336": -0.017310303840507423, "337": -0.012181230872893889, "338": -0.07392207163510937, "339": -0.032526418046014326, "34": -0.0027053471689474557, "340": -0.0071475490150867925, "341": 0.0002296665483228743, "342": -0.00046162146929133556, "343": -0.10695535430143752, "344": 0.12193028635078032, "345": 0.022706751643361934, "346": 0.04741251295546447, "347": 0.019092503346506105, "348": 0.024762996992328295, "349": -0.061989262218379304, "35": -0.039085269034893164, "350": -0.06390329022019786, "351": -0.09503158467052836, "352": -0.07938690458828769, "353": 0.03995703262260757, "354": -0.0046942366457111044, "355": -0.009492055332854948, "356": -0.05605023195169434, "357": -0.010889834608451337, "358": 0.02499120696409042, "359": -0.04923697399111778, "36": -0.035816434250021324, "360": 0.0018566328126159235, "361": -0.013275473151303806, "362": 0.020307793320910907, "363": 0.1490847020292012, "364": -0.05904434050422694, "365": 0.02254099711865688, "366": -0.128088541774596, "367": 0.08621499333684278, "368": -0.02471718915148729, "369": 0.02485740886503099, "37": -0.10931985666698094, "370": -0.005994682404221758, "371": -0.06832265579936139, "372": 0.01303493351424467, "373": 0.011875662804903974, "374": -0.03647575971683349, "375": 0.05274895542742228, "376": 0.07361932003515541, "377": -0.00040293503073598157, "378": -0.029957711919088224, "379": 0.11968239568362887, "38": -0.053760393884433225, "380": 0.030001040894222297, "381": 0.023746570599567675, "382": -0.01761227766668529, "383": -0.030936660756870196, "384": 0.07396231725574884, "385": 0.03817897100979384, "386": -0.030694581587385923, "387": 0.018139504990725745, "388": 0.046391815928391616, "389": 0.053344207226250606, "39": 0.009483218742163313, "390": 0.0180328975499987, "391": 0.03785460182967944, "392": -0.04852751265176969, "393": 0.0996879754374586, "394": 0.023224383539296498, "395": 0.005980310973254337, "396": 0.024828101842310928, "397": 0.008007858278609099, "398": -0.035370431195601924, "399": 0.04093355259482187, "4": -0.06431672274389479, "40": -0.1036635514058987, "41": -0.09929879848282958, "42": -0.05685893100173679, "43": -0.06633627254643068, "44": -0.037701000883713205, "45": -0.08708943205056946, "46": -0.1261107122768324, "47": -0.045502219299449025, "48": -0.13891532692938405, "49": -0.057092045989581175, "5": -0.10711634833219726, "50": -0.1100711943632612, "51": -0.05283976814357121, "52": -0.053670160382332466, "53": 0.024574712914834953, "54": -0.01490081921815097, "55": -0.13062847913086348, "56": 0.013016421007054932, "57": -0.009986336348921654, "58": -0.04191097482319118, "59": -0.033430334181925085, "6": -0.037612451671247334, "60": -0.09055302848985916, "61": 0.010641755729035035, "62": -0.1344933856276544, "63": -0.04313505962541889, "64": -0.07286408984330989, "65": 0.037190896234708545, "66": -0.08190379378078147, "67": -0.11714271631852177, "68": -0.008374476353325049, "69": -0.06805465884930385, "7": -0.047409629889620934, "70": -0.0019848255121914246, "71": -0.05342263481514653, "72": -0.10387885895044065, "73": -0.0346077844008733, "74": -0.16646950463489235, "75": -0.040499359737174445, "76": -0.029756572283366062, "77": -0.10330281240324074, "78": 0.049395474050913414, "79": -0.029828020271385276, "8": -0.07477336849865375, "80": 0.021104104064520075, "81": -0.05158870347868196, "82": -0.1140792468666644, "83": -0.024434505569595887, "84": -0.17038463872243045, "85": -0.07460419439541113, "86": -0.14558872732426448, "87": -0.10901458195454114, "88": -0.025685289474012857, "89": -0.18934476487360039, "9": -0.01580004885057247, "90": -0.013683896459236353, "91": 0.03506171065418455, "92": 0.00805393862124226, "93": -0.06944013112624323, "94": -0.06726046815080938, "95": -0.02284974073745858, "96": -0.029263925691144842, "97": -0.03859484630702613, "98": 0.011863326603956881, "99": -0.04587043367226333}}, {"depth": 16, "sx": 5, "sy": 5, "w": {"0": 0.032363224076808444, "1": -0.018145438709530604, "10": -0.045964034697674794, "100": 0.028293894986676733, "101": -0.013501635348588904, "102": 0.0009589931474129313, "103": -0.02745059274582169, "104": -0.042273712404248744, "105": -0.040217208917187226, "106": -0.03377249499536931, "107": -0.07628770237637737, "108": 0.05638293888645439, "109": 0.013557165057264476, "11": -0.10162490495621876, "110": 0.005443267330544017, "111": -0.043431082527925664, "112": 0.04298782351088391, "113": -0.06356920866679233, "114": -0.04237922453111783, "115": 0.03152816911497381, "116": 0.01780102456796286, "117": -0.05678989173403273, "118": -0.007721660692432011, "119": 0.05255873682419597, "12": 0.01822487247722679, "120": 0.005039929628772622, "121": 0.0009633729916604598, "122": -0.008173788962526088, "123": -0.015048160122057345, "124": 0.047818897494236894, "125": 0.0514085140041904, "126": -0.025454935293792127, "127": -0.027458537846140302, "128": 0.05022994986939231, "129": -0.006136970138282785, "13": -0.069717950145997, "130": -0.04770192244242188, "131": -0.04168508807802767, "132": -0.0619086753693907, "133": 0.012183649162256824, "134": -0.09502846449595376, "135": 0.013378556172829105, "136": 0.016140618071677815, "137": -0.035047298475819, "138": -0.027313975403846127, "139": 0.07715705292964826, "14": -0.03346185976837302, "140": -0.06996313147492833, "141": -0.016733773242128092, "142": 0.03571925322521941, "143": -0.009912981092189223, "144": 0.022070051863098836, "145": 0.12313181377302881, "146": -0.12649102684998959, "147": -0.032667643220285654, "148": 0.024224847653266393, "149": -0.005705481129907363, "15": -0.11182586399807026, "150": -0.0800890913156384, "151": -0.09758146798775, "152": -0.026252250292139696, "153": -0.04505671586841706, "154": -0.018722846093911925, "155": -0.03012945993560196, "156": 0.055504981416389924, "157": -0.04500282488270056, "158": 0.09151342672753536, "159": 0.041079447629537795, "16": 0.015275555062135243, "160": 0.027115731302955484, "161": -0.1047748927298975, "162": -0.05017572969159973, "163": -0.03630184738544152, "164": -0.018614005772525286, "165": -0.06500288466285964, "166": -0.06621807694300136, "167": -0.009749508227249633, "168": 0.03905944635840306, "169": 0.02228851389330254, "17": -0.02696063816924752, "170": 0.05801861397412547, "171": -0.09320343973612705, "172": 0.05266532627420475, "173": -0.04319402651868821, "174": -0.01727302785851023, "175": -0.02448130452908058, "176": -0.060340199136113694, "177": -0.050027343101958915, "178": -0.016901060950363547, "179": 0.0011358928993123276, "18": 0.0721484096703066, "180": -0.09055885789667262, "181": -0.034333912112394546, "182": 0.014886728652593653, "183": 0.05539395620591918, "184": -0.001702316318379205, "185": -0.0023020161153354205, "186": 0.011647365154933424, "187": -0.0016929181919140093, "188": -0.0463294197939107, "189": -0.007847511968007297, "19": 0.06977318802222914, "190": 0.032176454542908184, "191": -0.07789736375384336, "192": -0.02695895664140098, "193": -0.05566065994991738, "194": -0.0410786392292277, "195": -0.06886096130501308, "196": 0.039072227567818724, "197": -0.09633582179157961, "198": -0.004201888685123665, "199": 0.026918634862433215, "2": -0.003918838180928473, "20": -0.05990993868323028, "200": -0.05260609321392646, "201": 0.03309571280521824, "202": 0.03556809119014442, "203": 0.0239354446378801, "204": 0.002179341143584913, "205": -0.09925038769811498, "206": -0.01014609220667648, "207": -0.01484490852700813, "208": 0.0472191686794805, "209": -0.0029904555750810457, "21": -0.07053143231867835, "210": -0.0015059847875428176, "211": 0.05589938963652057, "212": 0.002503967203540634, "213": -0.05297324880309962, "214": 0.05294062414472678, "215": 0.0612009372451296, "216": -0.05554909440374264, "217": 0.054149115567995766, "218": 0.020787567659454366, "219": -0.07815455487136302, "22": -0.006593898579490971, "220": -0.0240001584457124, "221": 0.010230610174596096, "222": -0.006454585068983179, "223": 0.014564017104401136, "224": 0.003743684530080363, "225": 0.10821054638071571, "226": -0.08018369571498084, "227": -0.011432210775035994, "228": 0.14701724564783486, "229": -0.038841688409319154, "23": 0.023503986269289692, "230": -0.035743425514348386, "231": 0.004292914132186364, "232": 0.020072332604626934, "233": -0.026300588060412817, "234": 0.014869281145676781, "235": -0.05510392645207189, "236": -0.012635326530596638, "237": -0.08329580798511116, "238": -0.03641622155342772, "239": -0.06120366210768304, "24": -0.003261088093666666, "240": 0.01705510906871965, "241": 0.004866034928689867, "242": -0.007514555683432484, "243": -0.002283066682880011, "244": 0.03794964726415125, "245": 0.017854258185778484, "246": -0.020716737477581754, "247": -0.05926179391279194, "248": 0.02838555065190219, "249": -0.010668225182390433, "25": -0.011030243503051668, "250": -0.06287381164767897, "251": 0.027747891575346018, "252": -0.03420915352067344, "253": 0.01783927651115834, "254": 0.024131213209367983, "255": -0.10048637937846792, "256": -0.08717888419608691, "257": -0.012609121887761851, "258": -0.020119641856598876, "259": -0.03607422782606183, "26": 0.015985437515280487, "260": -0.06624907793786519, "261": -0.028714587682177925, "262": 0.0021536697907330047, "263": 0.0063735889611238215, "264": 0.04179382781481871, "265": -0.03605820493117023, "266": -0.041639660709072934, "267": -0.011409944426921894, "268": -0.016822463560880387, "269": -0.027024871276457037, "27": -0.036949402425421586, "270": -0.027140130383804653, "271": 0.00964281515464961, "272": -0.08214910833562596, "273": -0.02325554326494677, "274": -0.015288585244655133, "275": 0.023780401573368814, "276": -0.10591932758399147, "277": -0.0033034189038103684, "278": 0.00871631549993319, "279": -0.062352563148154794, "28": 0.02969577049502211, "280": -0.001563953973316067, "281": 0.06832031736051711, "282": -0.04031873541082434, "283": 0.0583536393372615, "284": 0.016997788379435545, "285": 0.07021593619769297, "286": -0.043617834721263536, "287": 0.0711689012715883, "288": 0.005154221366550282, "289": -0.012926854862372189, "29": -0.07334371599551852, "290": 0.022419245177292265, "291": -0.08911946053637125, "292": -0.004728321629983875, "293": -0.01070180069942072, "294": -0.17771875656278685, "295": -0.05011525043977911, "296": -0.009237035415297544, "297": 0.0024315256220650582, "298": -0.07363746674381795, "299": 0.03710265622653311, "3": -0.025710290613270067, "30": 0.06406658942244667, "300": -0.14020802801433985, "301": 0.0411597605920867, "302": -0.07351618884906025, "303": -0.03562042172458578, "304": -0.0397263054687479, "305": 0.051170270025289497, "306": 0.03951364461746812, "307": 0.03257203287900965, "308": -0.05283378166686647, "309": 0.03303983421487674, "31": 0.051495964915556025, "310": 0.026764480785368857, "311": -0.0067649524372762225, "312": 0.01903804133328609, "313": -0.0483484699668691, "314": -0.09078280184873895, "315": 0.05372677939193045, "316": -0.0348055351350643, "317": -0.08469969380876169, "318": -0.08871853003700628, "319": -0.062084507307056294, "32": 0.11093688438968381, "320": -0.005524759473478347, "321": 0.0325872647264987, "322": -0.04166902694384089, "323": -0.028858957813973952, "324": -0.015006745011589353, "325": -0.12209691727562973, "326": -0.020819328559356365, "327": -0.04759640069993598, "328": -0.05857256308853438, "329": -0.08229139007410392, "33": -0.0010643529390188076, "330": -0.07332757126563028, "331": 0.017344448873390268, "332": 0.05000001550631659, "333": 0.039110269695025804, "334": 0.04343362915407032, "335": -0.045035547315032176, "336": -0.08961629566060632, "337": -0.015586137905950046, "338": 0.046298698339027666, "339": -0.03358510058318669, "34": -0.06019052084306678, "340": -0.042676550240019685, "341": 0.09033900740125315, "342": -0.09438390212040405, "343": 0.0013608667946213308, "344": 0.017853484926948233, "345": -0.028446171097291428, "346": 0.026417863224898263, "347": -0.02535024349366417, "348": 0.023729447121521866, "349": -0.05340557766815501, "35": 0.021312248788122868, "350": -0.029336883317010877, "351": -0.10127158798404488, "352": -0.0067673741358535155, "353": -0.06001044928369631, "354": -0.0055444128013009296, "355": -0.055960494094551956, "356": -0.02456558038838492, "357": -0.0635245017842564, "358": -0.006985859463982998, "359": 0.010507030988452553, "36": -0.007683988140668996, "360": 0.020844090235871453, "361": 0.012021997493670918, "362": -0.07528043138383726, "363": 0.05045331583515342, "364": -0.07919871250539363, "365": 0.04900137445445123, "366": 0.021624737730906358, "367": 0.03184889959531828, "368": 0.0031984139838195686, "369": -0.059471830076202506, "37": -0.024148095998914057, "370": 0.02160557434026867, "371": -0.07806225559878596, "372": 0.06408065070282914, "373": -0.02763666858921392, "374": 0.0031713925606040127, "375": -0.015892828287743088, "376": -0.08230102985338884, "377": -0.015575177169256242, "378": 0.027203451713998912, "379": -0.027762305533950028, "38": -0.035356464911980134, "380": 0.027447866396152376, "381": -0.10093202392912612, "382": -0.031170429516162442, "383": -0.0692152611534886, "384": 0.019952016427356778, "385": -0.11220000920611295, "386": -0.06173206671903044, "387": -0.018193013807604765, "388": -0.056807403425036776, "389": 0.0007177850569666133, "39": -0.016735945040465817, "390": -0.06220729184411854, "391": -0.02942818459370945, "392": -0.0456939689191436, "393": -0.008859038074944314, "394": -0.020390116919221494, "395": -0.04144747397467466, "396": 0.0010254210474330361, "397": -0.11347650401014667, "398": 0.06418808106200737, "399": 0.01789982327807472, "4": 0.07567778712161666, "40": -0.0034550618583039827, "41": -0.01822721088432324, "42": -0.019331312201475062, "43": -0.034959126992294254, "44": -0.06525665966467482, "45": 0.049486266903018994, "46": -0.017446067329442618, "47": -0.03135270729529924, "48": -0.005138287724481614, "49": -0.05395838592376407, "5": -0.019045976297074566, "50": -0.014990313459045227, "51": 0.03684695313520022, "52": -0.03371003746245377, "53": -0.004749657537685963, "54": -0.02384644315708984, "55": -0.02540111446417869, "56": -0.08918892351766315, "57": -0.0912741422540864, "58": 0.001945084185887111, "59": -0.1139313867291306, "6": -0.007304155804370457, "60": -0.01022611647604383, "61": 0.0037650169422249217, "62": 0.020637250857360356, "63": -0.040676266045820045, "64": -0.022755232137623923, "65": -0.03278270761791733, "66": 0.0512032383479095, "67": -0.06417430525930508, "68": 0.009417617157145383, "69": -0.03045670105477185, "7": -0.011277285721794308, "70": -0.012903265802459365, "71": -0.05052355976142157, "72": -0.046005374198121264, "73": 0.011969826974459771, "74": -0.027084890449442584, "75": -0.014157475268021523, "76": -0.07141372897406002, "77": -0.017999447712657286, "78": -0.06422914502884276, "79": 0.06674643442380032, "8": -0.03343482677325174, "80": 0.005493493327952365, "81": -0.03304354627639872, "82": 0.05956317695271317, "83": -0.012778907616729233, "84": -0.06919631142307174, "85": 0.00013894042154042816, "86": 0.020659157928812982, "87": 0.010679099857078489, "88": -0.03295766108537264, "89": -0.0071423149827988305, "9": -0.012720632038377012, "90": 0.05649257606874133, "91": 0.007876073516000283, "92": -0.07379300147877507, "93": -0.02957309831152917, "94": -0.1047906687094304, "95": -0.01222792705981686, "96": 0.06469496460079315, "97": -0.07735508641841354, "98": -0.08394399499437595, "99": -0.04257935595184256}}, {"depth": 16, "sx": 5, "sy": 5, "w": {"0": 0.0366467516939053, "1": 0.045493634556709184, "10": -0.017173982231167326, "100": 0.05334238851421391, "101": -0.04453404928689282, "102": 0.04254987876858165, "103": -0.03811056633608289, "104": 0.07125321591874872, "105": -0.15491263543885267, "106": -0.18115640966507882, "107": -0.03714786073367299, "108": 0.046413232275765146, "109": 0.08086238367501278, "11": 0.024783195141856694, "110": -0.14095895362793068, "111": -0.008511665919097806, "112": 0.012746298202832063, "113": 0.06513574664692214, "114": -0.01184819114272748, "115": -0.0030103496966861266, "116": 0.025373321175536923, "117": -0.022181150231862026, "118": 0.05037087851393033, "119": -0.07416098943634285, "12": 0.12144047780667822, "120": -0.036211610048260096, "121": -0.14904192677487785, "122": -0.1116280865690362, "123": 0.0018661545932604623, "124": -0.06489053576182742, "125": 0.036193687990437214, "126": -0.1542259320322198, "127": -0.07980902462149743, "128": -0.01105879920523177, "129": 0.07323737423697382, "13": 0.011590604913302254, "130": -0.053314686641037806, "131": 0.09791829284650974, "132": -0.03535334665020357, "133": 0.04285308563618966, "134": 0.011784788857565245, "135": 0.007203743358341033, "136": 0.041263740709390304, "137": -0.08239516218482563, "138": -0.04307637856034073, "139": 0.040582925790096966, "14": -0.03787507143155461, "140": -0.01397655908761867, "141": -0.012054451783915737, "142": -0.08960945213320744, "143": -0.009022367942663003, "144": -0.006301369273166688, "145": -0.011445746423204554, "146": -0.06935051395357188, "147": -0.04884598072974454, "148": 0.03268201400283741, "149": -0.0029921372297796256, "15": -0.030554052688170557, "150": 0.08697335288292365, "151": -0.047838666165423226, "152": -0.01801567653080802, "153": -0.10070392663996039, "154": -0.11460707918876724, "155": 0.035813217163862536, "156": -0.06775759322223174, "157": 0.04236783310753165, "158": -0.09427288051584153, "159": -0.0357210619311049, "16": 0.05831947834822074, "160": -0.03688240876759337, "161": 0.023589003240816142, "162": -0.12622545226756773, "163": 0.006422473769674851, "164": 0.004764119281375193, "165": -0.07646654401564372, "166": 0.07472881789880544, "167": -0.13427652601274503, "168": 0.02495628039561226, "169": -0.09545398455843578, "17": 0.055308852448717714, "170": -0.1989628629157807, "171": -0.07547643736508404, "172": -0.0220874717878942, "173": 0.04224555090436068, "174": -0.17007755478618863, "175": -0.011149524918626889, "176": -0.03923325668165565, "177": 0.024567949612061303, "178": -0.03446045628892106, "179": 0.009809693295781656, "18": 0.07976202142840833, "180": 0.11036207306073426, "181": -0.09034285661249368, "182": 0.12256746680180268, "183": -0.091343974393586, "184": -0.015207487754816064, "185": -0.12934570652933183, "186": -0.21792577067985627, "187": -0.05771711186300237, "188": -0.011915655502857657, "189": 0.08903235656129477, "19": -0.03738962334206467, "190": -0.10501072008283942, "191": 0.10040507702721053, "192": 0.045693638887195076, "193": 0.037948222871537006, "194": -0.058803345516589306, "195": 0.04923787357015174, "196": 0.10012817368751009, "197": -0.10731391786572372, "198": -0.03053596547772401, "199": -0.05113477489648187, "2": -0.016363644000149412, "20": 0.036536319574934334, "200": -0.009004078236207668, "201": -0.17869191258537892, "202": -0.04385507226946023, "203": -0.10218689702022331, "204": -0.05620926267937701, "205": -0.007459040857463107, "206": -0.0865797387720822, "207": -0.05568538292974315, "208": 0.09300563176749493, "209": 0.03467272215647718, "21": 0.003224394279898551, "210": -0.12241615022418931, "211": 0.1047641321233671, "212": 0.013007671156466501, "213": -0.05654466616789104, "214": 0.03032977147459276, "215": -0.0743293572350594, "216": 0.017221948158758223, "217": -0.10030462903856688, "218": -0.05332100090201465, "219": 0.09098514522762997, "22": 0.07825022093468686, "220": -0.05104792228718168, "221": 0.035616102591694135, "222": -0.03995460370482104, "223": -0.09515003910342454, "224": 0.00010050627988572028, "225": -0.014195424082688314, "226": 0.006612728952351581, "227": -0.02925196221823861, "228": -0.007097119994480341, "229": -0.08182397821816234, "23": -0.02808513678314015, "230": 0.06177316514529928, "231": -0.09450498500201641, "232": -0.0056201427070698496, "233": -0.11251090724817589, "234": -0.02843588447926929, "235": 0.04330891351620712, "236": -0.00750682908906891, "237": 0.014296182954168651, "238": -0.0667478500749059, "239": -0.021307782091552017, "24": 0.05432896432372267, "240": 0.057195718934202916, "241": -0.006299970917754447, "242": 0.028411440744373146, "243": -0.15753597746915518, "244": -0.019539383682717636, "245": -0.027672449785545526, "246": 0.08601289911913511, "247": -0.1377746861861196, "248": -0.11839117115709746, "249": -0.09507069187859891, "25": -0.10176545860792804, "250": -0.09502948131907217, "251": 0.004007735933985344, "252": -0.08275077727033286, "253": 0.012954371957045116, "254": -0.08374560244045455, "255": -0.0050839737450449575, "256": 0.025868096427749888, "257": -0.019950960336717904, "258": -0.10957871585107568, "259": -0.11456349420448014, "26": -0.2255981370309483, "260": -0.05932807525759091, "261": -0.05624925702377624, "262": 0.08850389124628444, "263": -0.06869195851748552, "264": -0.006402780362977662, "265": -0.16593508918157285, "266": -0.08313964250777679, "267": -0.04214257942067028, "268": 0.021072605454024486, "269": 0.07655391861265443, "27": -0.06117341630395145, "270": -0.05909877300512087, "271": 0.07269611628545802, "272": 0.040066504170304884, "273": -0.016304820029904854, "274": -0.1156761359179605, "275": 0.004993159170869571, "276": -0.07062042605219915, "277": 0.0336249699684129, "278": 0.060672829557353786, "279": -0.08673227954506166, "28": 0.07383312811266236, "280": 0.03093069605378573, "281": -0.24582467536967578, "282": -0.04274130842263874, "283": -0.061097809009725695, "284": -0.06003664855100286, "285": 0.011945106454598953, "286": -0.05740008007332193, "287": 0.035079044914669816, "288": 0.043842752454536095, "289": 0.05333254383726305, "29": 0.04448821079258868, "290": 0.02670916869488041, "291": 0.023061823709007518, "292": 0.04299173203914114, "293": -0.00033755624515078106, "294": -0.030546970913289524, "295": -0.007306031953803159, "296": 0.03393304104915745, "297": -0.2301674607404796, "298": -0.08566335409942635, "299": 0.0874161913841121, "3": -0.034257122519228314, "30": -0.0084890803020144, "300": -0.14114180500342446, "301": 0.04346767214822736, "302": -0.0777715446989257, "303": 0.006854492489066439, "304": -0.013182578158596683, "305": -0.024993894344222105, "306": 0.043332133880725716, "307": 0.15301756030610184, "308": -0.09895053587699904, "309": 0.048078846190317125, "31": 0.06429680357130714, "310": 0.047294315247600374, "311": -0.07300348080885459, "312": -0.02811072206730619, "313": -0.11310652373078742, "314": -0.027651494215705303, "315": 0.0488712441219258, "316": 0.01564314251433491, "317": 0.044241707722449675, "318": -0.0551271270968087, "319": -0.054830700417895825, "32": -0.01963554450441972, "320": 0.09057215527036452, "321": -0.05590109679431614, "322": -0.08513778836763573, "323": -0.09394638801693157, "324": 0.01435620080539524, "325": -0.04449621549027626, "326": 0.054912941415098754, "327": -0.11575373954058786, "328": 0.06036261079843002, "329": -0.16531192001449754, "33": 0.02586466106486312, "330": -0.16724741261429224, "331": 0.059634990301458336, "332": -0.03223624783922412, "333": -0.007616542556889962, "334": -0.1254503317960599, "335": -0.03459294659624968, "336": 0.026951451358698423, "337": -0.030081619734194487, "338": -0.06677461807684815, "339": 0.05166531432180427, "34": 0.02232541685364099, "340": 0.010281371126111848, "341": 0.0037549853906397187, "342": 0.06983744315264498, "343": -0.04436674390396857, "344": 0.02302703850705547, "345": -0.11375955099212273, "346": -0.0032241715328977434, "347": -0.08315386923650712, "348": -0.09874043186321567, "349": 0.007156346239387137, "35": -0.02232219853833348, "350": -0.08554773769785158, "351": 0.039501986676230026, "352": 0.06566676030485424, "353": -0.1653490685032905, "354": -0.05098674769698117, "355": -0.015823760062527448, "356": 0.0002938204949857069, "357": 0.11089382744603411, "358": -0.06695374920283084, "359": -0.08588745474651716, "36": 0.05226081543484303, "360": 0.042961736370497376, "361": -0.12133558717551764, "362": -0.05182835493538085, "363": 0.044479542391433584, "364": -0.08585674505115673, "365": 0.11764355429571749, "366": -0.04230886880242678, "367": 0.008000614870046118, "368": -0.023023887342359935, "369": -0.0012414664419367481, "37": -0.06475197639887863, "370": -0.1021726894499924, "371": 0.13455656679879638, "372": -0.08284195750424038, "373": -0.03984777326980236, "374": -0.07636885443923871, "375": -0.11651246278792343, "376": -0.02341489166975452, "377": -0.13683037516374644, "378": 0.07801630506257544, "379": -0.11047622889671634, "38": 0.06452620489052309, "380": -0.1513545363113691, "381": -0.01662979685135466, "382": -0.029166309656476652, "383": 0.07084198530889019, "384": 0.06510283462081382, "385": -0.03842674615636774, "386": -0.06474463227175994, "387": 0.023484392627319883, "388": -0.06957773254425055, "389": -0.029346379878606013, "39": -0.11804946439913744, "390": 0.04787306621078939, "391": -0.04754464390511016, "392": 0.023506387568501614, "393": -0.21448693761273624, "394": -0.0038260577712784043, "395": -0.031369329797083005, "396": -0.10299905081771948, "397": -0.04391708360678175, "398": -0.008856421392807425, "399": 0.03889328099052491, "4": -0.03970855730747938, "40": -0.07754797273443068, "41": -0.1438081822647197, "42": -0.14023862549074256, "43": -0.03638207309963709, "44": -0.018176818793164396, "45": -0.001005117324855131, "46": -0.03783869911462004, "47": 0.0393428765545661, "48": -0.0316545054196389, "49": 0.11948659054079647, "5": -0.06618147180644467, "50": 0.0788667587893632, "51": 0.11498446848348634, "52": -0.05296104919323583, "53": -0.05002055002364488, "54": 0.032637022618351164, "55": -0.12983858643926244, "56": 0.048947244291863715, "57": -0.06842915836273018, "58": -0.159165196112821, "59": 0.04115585942572642, "6": 0.1089644608228211, "60": 0.0322790994833764, "61": 0.055892393171801294, "62": -0.13027654036742267, "63": -0.0370054750460687, "64": -0.02355966330622095, "65": 0.14469889251329576, "66": 0.03555587428987875, "67": 0.11543395920458258, "68": 0.0122882697500202, "69": -0.04335560001863385, "7": 0.05146248353627381, "70": -0.005372398732125288, "71": -0.10713792697320804, "72": -0.08589429288065153, "73": -0.0830541912229723, "74": -0.09450928789691532, "75": -0.002171707268645054, "76": -0.03378691084867522, "77": 0.0017447529981296818, "78": -0.07810919152381901, "79": 0.058403231647588996, "8": -0.004440507836143851, "80": 0.07281581416340223, "81": -0.047994288908422625, "82": 0.04819720815598175, "83": -0.023889376576669, "84": 0.0446779610017098, "85": -0.12918394111369624, "86": 0.04361797114657398, "87": -0.006914209509540135, "88": 0.023357449459369444, "89": 0.015100171609665456, "9": 0.0714699579628692, "90": -0.06478648012707637, "91": -0.04847595340194325, "92": 0.1060348781407949, "93": 0.05651414120955367, "94": -0.19146658654673848, "95": 0.12426591655161172, "96": 0.010150809539649794, "97": 0.03013001972626243, "98": 0.010018893939817603, "99": 0.014524978644996557}}, {"depth": 16, "sx": 5, "sy": 5, "w": {"0": -0.09615974249632026, "1": -0.02721910716253109, "10": -0.07919793061175052, "100": -0.08122468110708071, "101": -0.016238331473173894, "102": -0.08390469343425581, "103": 0.058150624270599034, "104": 0.0015511794944042456, "105": -0.06425998289226524, "106": -0.09664728246073793, "107": -0.05041948556335804, "108": 0.023996543066653768, "109": 0.03433040327956071, "11": 0.029107480357077394, "110": -0.038073739101942734, "111": 0.07336632869865872, "112": -0.01732686881485013, "113": -0.12285124304081284, "114": -0.06026454632555462, "115": -0.07389481880723774, "116": 0.0328805223187115, "117": 0.02311800707267897, "118": -0.08059063013081529, "119": -0.1340692707734045, "12": 0.05758915526826954, "120": -0.020803811873988155, "121": 0.050700286595818704, "122": -0.07331422701138052, "123": -0.028780559940829054, "124": 0.010901795008441984, "125": -0.01781493649231155, "126": -0.005280987579972303, "127": 0.01743070053561128, "128": -0.14185050247160447, "129": -0.13796742402071288, "13": -0.03718085989930966, "130": -0.08950769323464391, "131": -0.032988235827993075, "132": 0.01020860156681749, "133": -0.031338464368794, "134": 0.02174438561485936, "135": -0.0370624344174363, "136": -0.034951172710173645, "137": -0.06586926725980365, "138": -0.02458927964190579, "139": 0.01588222773004385, "14": -0.007107268561451317, "140": -0.08221752641769961, "141": -0.032880980989003133, "142": -0.11793648949475694, "143": 0.047277496554051404, "144": -0.04183922104830496, "145": -0.07848298113429351, "146": -0.004419083379575183, "147": -0.0551452134875365, "148": -0.01065279836371313, "149": -0.07639382795237813, "15": -0.0318940270805214, "150": -0.047163457482258093, "151": -0.007949385123260558, "152": -0.03267675661528696, "153": 0.0352535046307129, "154": -0.055056206537334645, "155": -0.07269968024205165, "156": -0.0429832128778712, "157": -0.07848486778791933, "158": -0.062221178003265994, "159": -0.08086527941903845, "16": -0.0743069330475252, "160": 0.0041278407953972696, "161": 0.007783403252242645, "162": 0.0879539681720857, "163": 0.0013355613367757727, "164": -0.049607429380069484, "165": -0.09965106823937296, "166": 0.04301108459919666, "167": -0.07727925445560474, "168": -0.06193326482890072, "169": -0.05229795198673833, "17": 0.029292624965113864, "170": -0.020302094021418162, "171": 0.038603735163091464, "172": -0.07145300089944852, "173": -0.05988342469449051, "174": -0.04780569644640376, "175": 0.02899103801844446, "176": -0.043823782489319785, "177": 0.032212867749234056, "178": 0.02019789230525771, "179": 0.03861169512929299, "18": -0.02420330337724779, "180": -0.022131467944880488, "181": 0.02666425007441488, "182": -0.060197628580388754, "183": -0.02782965311585039, "184": -0.08137222067670886, "185": -0.027200933386601484, "186": -0.064122912503474, "187": 0.0014086644980173093, "188": -0.06961986973952045, "189": -0.0059548355585333475, "19": 0.032764910234116, "190": 0.033087244933655696, "191": -0.009173067150688587, "192": -0.07385232761536535, "193": -0.09360004242253589, "194": 0.07501695188704983, "195": -0.0652568529139237, "196": -0.017557340617744485, "197": -0.04369900253828139, "198": -0.11439736292724699, "199": 0.018138560630270112, "2": 0.014209002140812756, "20": -0.02610863477218326, "200": 0.016805408666075702, "201": 0.061167504444621254, "202": -0.028545098623908305, "203": 0.05835405818195176, "204": 0.04488175658771601, "205": -0.04368781950646518, "206": -0.01052220860942649, "207": -0.019662769293875323, "208": -0.0050236801068849445, "209": -0.06437269890218532, "21": -0.05197164672411043, "210": -0.02543222591828934, "211": -0.044193907077125, "212": 0.028320935945530663, "213": -0.048977572905729065, "214": -0.04737105656452152, "215": -0.024736165842863995, "216": -0.013996737005724251, "217": 0.09802421200494696, "218": 0.055511919591519306, "219": 0.019112004313639207, "22": -0.05211950462770982, "220": -0.005180219744492346, "221": -0.06422297180832738, "222": 0.07506011249333153, "223": -0.027572079566259667, "224": 0.055288366522490924, "225": -0.029847761267722435, "226": -0.03629063916845363, "227": 0.003596577191374533, "228": -0.026451751328759036, "229": -0.049517932496436996, "23": -0.031290305799778664, "230": -0.05710673771215766, "231": -0.021287108543753964, "232": -0.05666602225417205, "233": 0.08590342704316237, "234": -0.0640293635616282, "235": -0.02926444625033214, "236": 0.05270691304487886, "237": 0.010651858002232764, "238": -0.0011451029421436208, "239": 0.04493966612190909, "24": -0.0694637075450054, "240": 0.05552872776082916, "241": 0.10784469913577728, "242": -0.0477696980233257, "243": -0.02528227894252329, "244": -0.02869462524851016, "245": -0.011697717419949787, "246": -0.013004194405300897, "247": -0.013187243681973725, "248": 0.00800754254511718, "249": -0.0581841258610459, "25": -0.029351646422900644, "250": -0.020782264347803777, "251": 0.00462654718108341, "252": 0.05909124146986229, "253": -0.018969319839551694, "254": -0.008970929570266403, "255": -0.022650606453374862, "256": 0.018015112450965064, "257": -0.029208860968153068, "258": -0.09542990654195224, "259": 0.038397711604556704, "26": -0.07380604199723365, "260": -0.030906749111048626, "261": 0.000962278745205709, "262": 0.06270859599357217, "263": -0.11372486833967156, "264": -0.05161825233177306, "265": -0.021279597103814638, "266": -0.09335799615577406, "267": 0.10859784733055294, "268": -0.08667823876942626, "269": -0.05983586756185801, "27": 0.03745019529611607, "270": -0.04276488507445939, "271": 0.03035985700017793, "272": -0.09433237624585016, "273": -0.053845497483516934, "274": -0.013443730873169652, "275": -0.024274715572636153, "276": -0.012295722080359204, "277": -0.013470328415602265, "278": 0.07399256816012768, "279": -0.048164958210885025, "28": -0.03934607542926732, "280": -0.0010863033952754333, "281": -0.04698316991795806, "282": -0.1169095194674155, "283": -0.00883865106682126, "284": -0.028485727140279096, "285": -0.05245224468079057, "286": -0.027572679722472817, "287": 0.049027169481499044, "288": 0.05653929070164877, "289": 0.035459777716365104, "29": -0.02722078242550408, "290": 0.08959520987124607, "291": 0.052531155288207815, "292": 0.011752739296425754, "293": -0.0046927672290760745, "294": 0.08849563744681785, "295": 0.12619205811628195, "296": 0.02709012051902326, "297": 0.029324978148883095, "298": 0.03724820899091646, "299": 0.03440372231421, "3": -0.0037232330772307507, "30": -0.07680695066729477, "300": -0.059572917974292906, "301": 0.012472980553002114, "302": -0.13873257839878889, "303": -0.060156990406380735, "304": -0.0353450197057229, "305": -0.13694999171348998, "306": 0.024444967168973788, "307": -0.06034039060975927, "308": 0.018210987054440693, "309": 0.018206444320541006, "31": -0.01662505654358919, "310": 0.04088028369566669, "311": 0.03180569292858164, "312": -0.09855842258144328, "313": 0.09911645608071916, "314": -0.012321471635133715, "315": -0.05710552471068631, "316": -0.040344754861333106, "317": -0.03152342554895011, "318": 0.004198473929937392, "319": -0.012145594065015025, "32": -0.01423735350730777, "320": -0.00196332160864488, "321": 0.02690280835884009, "322": -0.010403094342906292, "323": 0.0558003614344915, "324": -0.11656227941603617, "325": 