{"data": {"layers": [{"layer_type": "input", "out_depth": 3, "out_sx": 32, "out_sy": 32}, {"biases": {"depth": 16, "sx": 1, "sy": 1, "w": {"0": 0.059089766961837736, "1": -0.13392010363246204, "10": -0.2366872677248007, "11": -0.22734434201847925, "12": -0.07450435151793897, "13": -0.03321143940558992, "14": -0.23166318587436371, "15": -0.161164984533087, "2": -0.26878542518555465, "3": -0.1975308599349907, "4": -0.19574586586812137, "5": -0.20947094343738834, "6": -0.20254818016371998, "7": -0.17206200427897053, "8": -0.18576951868105737, "9": -0.05122874149012661}}, "filters": [{"depth": 3, "sx": 5, "sy": 5, "w": {"0": -0.03116926256999272, "1": -0.009657054206396388, "10": -0.08841688633280499, "11": 0.21893561362982808, "12": -0.1646823627185747, "13": 0.13541033971212602, "14": 0.2892358006090035, "15": 0.21684346488522632, "16": 0.21102161918100498, "17": 0.005841980283721819, "18": -0.10232370223638808, "19": 0.23869760765494757, "2": 0.3410634330765552, "20": 0.15540717462466433, "21": -0.02122395283389475, "22": 0.13959495169048483, "23": 0.18789573753473698, "24": -0.1521983373491297, "25": 0.0070571785391159965, "26": 0.2051915933223697, "27": -0.1224949131667245, "28": 0.08343972507011636, "29": 0.12188991200732321, "3": -0.0590549839997313, "30": -0.22460640954263306, "31": -0.16499909875056665, "32": 0.15003296878614047, "33": -0.23087167626369665, "34": 0.03530494862734289, "35": 0.10956264806167089, "36": -0.2264308330790008, "37": -0.07891217979214821, "38": 0.18349436759715435, "39": -0.16392252195625626, "4": -0.16355777200330143, "40": 0.22174407208707528, "41": -0.042312895492056385, "42": -0.2032930099984596, "43": -0.1460922489351648, "44": 0.28963985010866095, "45": -0.2625506311176071, "46": 0.041739560239277926, "47": 0.1672536546635967, "48": -0.09080775551824385, "49": 0.062324319961758134, "5": 0.14185924780891743, "50": 0.08595205919632858, "51": -0.06407691389250972, "52": -0.11151416770569193, "53": 0.10257629507204767, "54": -0.14593655377131085, "55": 0.18347202960215556, "56": 0.15281001635445476, "57": -0.4490842479256088, "58": -0.025087746905548894, "59": 0.08060175706222575, "6": -0.10527187702425218, "60": -0.08523639938377964, "61": -0.24006053449571435, "62": 0.1726719897009382, "63": 0.04961819400677841, "64": -0.08279961760111211, "65": 0.1593168876126626, "66": -0.2837340263637736, "67": -0.031313281548101216, "68": 0.10838406302194697, "69": -0.3278230413963366, "7": 0.09192711064958699, "70": -0.0246257958241855, "71": 0.27604594695304346, "72": -0.008797053922959125, "73": -0.03844448162198125, "74": 0.1840832244165288, "8": 0.2527258524708902, "9": -0.02213388797546647}}, {"depth": 3, "sx": 5, "sy": 5, "w": {"0": 0.21106640321797332, "1": -0.14223259067319355, "10": 0.057315902406498156, "11": -0.03805415498401264, "12": -0.03415062406582817, "13": 0.019597286966589862, "14": -0.282614320468052, "15": 0.0015951853332020454, "16": 0.212958890987739, "17": 0.2203226785177691, "18": 0.06592810348676431, "19": 0.06825646636163883, "2": 0.2384139729992675, "20": 0.09132264422107574, "21": 0.06755166458716436, "22": -0.0503405592084499, "23": -0.0451914321225276, "24": 0.024246868081031728, "25": -0.15671596702851254, "26": -0.047641159956697064, "27": -0.30002894479024267, "28": -0.07864748875018814, "29": -0.17515420423560998, "3": 0.028926726432751407, "30": 0.027197565961475906, "31": 0.10996133192753052, "32": 0.1647552389780161, "33": 0.22244594687187647, "34": 0.07349466995661631, "35": 0.1550942994995908, "36": -0.05028946320693136, "37": -0.021410566079830606, "38": 0.047562928561506485, "39": -0.031190224392810082, "4": -1.3002752630250029e-05, "40": -0.20824740495730487, "41": -0.1327966306579489, "42": -0.19968194461235528, "43": -0.034574778035990766, "44": -0.10209320708234162, "45": -0.0543628075809595, "46": 0.16497808468020878, "47": 0.2724167640848592, "48": -0.06706937241743408, "49": 0.013726873847654954, "5": 0.012078942180672342, "50": 0.043094002380865956, "51": 0.09162619812566343, "52": -0.08621739116144392, "53": -0.01237190642303881, "54": 0.04259796908820616, "55": -0.0320148438953862, "56": -0.1891956411618048, "57": 0.06255277124073327, "58": -0.15155871030731177, "59": -0.048256329168087586, "6": -0.11827859997084379, "60": 0.038705725957088793, "61": -0.029627694130749258, "62": 0.24014342982534218, "63": 0.00888281766751862, "64": 0.19190622980099256, "65": -0.1497880832213387, "66": -0.11753468536386723, "67": 0.0226028944585505, "68": 0.17181612657448375, "69": -0.2712948857879335, "7": 0.14221272887334682, "70": -0.06397367141244595, "71": -0.1190287184838751, "72": -0.0966455931516626, "73": 0.03856716975040821, "74": 0.00043195509204734623, "8": -0.10370171438696542, "9": -0.38541887796157875}}, {"depth": 3, "sx": 5, "sy": 5, "w": {"0": 0.21008963914813406, "1": -0.11432655095824483, "10": -0.21554630862411966, "11": 0.3010172405181324, "12": 0.2824734179000377, "13": 0.020946054781869804, "14": 0.09570067268164087, "15": -0.19735778123074196, "16": 0.01596805773621575, "17": -0.07103833961090542, "18": -0.005016702277782031, "19": 0.18254940726907806, "2": -0.024481800442305895, "20": -0.04253839375579761, "21": -0.0006722351446389939, "22": -0.054119216923517045, "23": 0.2489709115392602, "24": 0.11306938713535743, "25": 0.08557587536137932, "26": -0.016527796251236664, "27": 0.09912024352173078, "28": 0.1618620973312829, "29": 0.07278042138062027, "3": 0.15532320103734934, "30": -0.009770509525294582, "31": -0.025637934662797703, "32": -0.0012599382016979862, "33": -0.1837166034614013, "34": -0.053836594431901606, "35": -0.01321001332094728, "36": -0.024825828688942987, "37": 0.022476044303309243, "38": 0.04299324506462714, "39": -0.056080241699434215, "4": -0.11647536044864727, "40": -0.08243841728778183, "41": -0.031403323395946176, "42": 0.08933951673415418, "43": 0.018575346076689987, "44": 0.24900857422444517, "45": -0.14904513820350432, "46": -0.1717504381135414, "47": -0.11878094247417915, "48": -0.09257168148310642, "49": -0.07093963521348542, "5": 0.05550347635387583, "50": -0.07714341305926775, "51": -0.007436154221483408, "52": -0.1762864256476759, "53": -0.18324095857501851, "54": 0.19229340074101933, "55": -0.08131593629742832, "56": 0.05629617912149864, "57": -0.14363971890946672, "58": -0.060433233701974676, "59": 0.14299267047795716, "6": 0.17248492196009987, "60": -0.21986655334048633, "61": -0.04840965495612022, "62": 0.2784485275155841, "63": -0.2779786474090184, "64": 0.09054920068619667, "65": 0.2723595255986336, "66": -0.02512557706114518, "67": -0.029828929971595145, "68": -0.11523864536752083, "69": -0.02042408669867982, "7": -0.20067834725333286, "70": -0.07850173326016086, "71": 0.0468844574780793, "72": -0.24388705138019906, "73": 0.035802242664796445, "74": 0.11899898868035573, "8": 0.16333791490800628, "9": -0.01614685117384098}}, {"depth": 3, "sx": 5, "sy": 5, "w": {"0": 0.3846049226266246, "1": -0.07109196116710137, "10": -0.21056200322018914, "11": -0.07865363947613974, "12": 0.07497404504722861, "13": 0.16249982259628584, "14": 0.019364004715759723, "15": 0.1055880078550106, "16": -0.15960506599600147, "17": -0.20229017353521467, "18": -0.02984628767000304, "19": -0.2418494258456139, "2": 0.01323838027006431, "20": 0.09643348016074671, "21": -0.1128389092012259, "22": -0.3593720861967598, "23": -0.14457914052638088, "24": 0.08180617112709489, "25": -0.1291269431641944, "26": -0.012127016132297547, "27": 0.16102209063161538, "28": -0.043709171511269435, "29": 0.08960144084952526, "3": 0.29226080240984276, "30": -0.228745134830296, "31": -0.15595946606496727, "32": 0.03760533674798002, "33": -0.25890899958269453, "34": -0.18333131793370708, "35": 0.2373314462149983, "36": -0.07628838629968836, "37": -0.3064830238177887, "38": 0.16532535435146872, "39": 0.036422152608246224, "4": 0.04557824128629768, "40": -0.06330189466677892, "41": 0.040222166621729984, "42": 0.1572945021065124, "43": 0.08799199850348521, "44": 0.17918472579472153, "45": -0.20699798008501888, "46": 0.08266416132687532, "47": 0.3257156593543684, "48": 0.14177216015523542, "49": -0.14771018768151556, "5": 0.20416665832648567, "50": -0.14013297796905325, "51": -0.1637988014881532, "52": 0.11082945715118947, "53": -0.2166686590324125, "54": -0.015516464443606458, "55": -0.013540888428818936, "56": -0.07826172060117362, "57": 0.23539830978651835, "58": -0.14330452619028988, "59": -0.05107176110134089, "6": 0.16334297649090243, "60": 0.07142201982151929, "61": 0.0017009310606534666, "62": 0.09047970133327227, "63": -0.11428047941951808, "64": -0.07999758164080549, "65": 0.08771302780598769, "66": -0.05100899698434629, "67": -0.07272958991014314, "68": -0.038018171914662904, "69": -0.07950996486164, "7": -0.08270039698466321, "70": 0.005705489687799916, "71": -0.1023113588036126, "72": -0.06823919599586052, "73": 0.0775430607896465, "74": -0.10715007326864712, "8": 0.02953913642201255, "9": 0.23157383521449215}}, {"depth": 3, "sx": 5, "sy": 5, "w": {"0": 0.0834776531362319, "1": -0.10153001063919916, "10": 0.13450782553924617, "11": 0.026441747441784163, "12": 0.16241099885744753, "13": -0.040683905963217644, "14": 0.24318239726590318, "15": -0.22823870284093786, "16": -0.22837275764549517, "17": 0.1658705156812145, "18": 0.0315361359787551, "19": -0.21787366883189718, "2": 0.0013645480063889852, "20": -0.11885296229508431, "21": -0.22797392722789162, "22": 0.11108143686529065, "23": 0.20653734453073772, "24": 0.04650727832740159, "25": -0.059612729277009266, "26": 0.06647333309438172, "27": 0.030680639057862717, "28": -0.028110352460096442, "29": 0.11051805483477128, "3": 0.033871686512663396, "30": -0.08447110993514145, "31": -0.40580705336630574, "32": 0.009524286285450377, "33": -0.2459849294251763, "34": -0.3822178928786002, "35": 0.026226474930698757, "36": -0.10062937379163288, "37": -0.23190130777461235, "38": 0.1591062160164267, "39": -0.041214108521034014, "4": 0.0831783391238368, "40": 0.006556384808385836, "41": 0.2612884838161437, "42": 0.06394786218722037, "43": -0.10850336109613813, "44": -0.08037348780839906, "45": 0.022117232195917467, "46": 0.018013026721582857, "47": -0.043816916250210725, "48": -0.06747851878722788, "49": -0.3057709345421744, "5": -0.08126762386703362, "50": 0.021792155994363013, "51": -0.17096145584973316, "52": -0.24301340128802232, "53": -0.07278596110768178, "54": -0.036427401186798096, "55": 0.05134144380254933, "56": -0.11512109380974798, "57": 0.061630593927543345, "58": -0.027549048235909018, "59": 0.0891239271949339, "6": 0.13105796653991086, "60": 0.21013387362117156, "61": 0.1403428021516617, "62": 0.13296917954093881, "63": 0.041829599391860144, "64": -0.1135548613286264, "65": -0.09923286898544112, "66": -0.10509831946993353, "67": 0.04040464209531946, "68": 0.22726488787174212, "69": 0.09584097461942588, "7": 0.05554753893924975, "70": 0.049358015332877696, "71": -0.05878074051291416, "72": -0.13194932764102102, "73": 0.0624492160840507, "74": -0.10858213124168682, "8": 0.054352995507231154, "9": -0.1088629945554246}}, {"depth": 3, "sx": 5, "sy": 5, "w": {"0": -0.14324948200739868, "1": 0.038470584676011256, "10": 0.11558284619359116, "11": 0.11398035301938585, "12": 0.09575592980063946, "13": -0.04481715359684135, "14": 0.0688501171220128, "15": -0.12581525007674324, "16": 0.0027193358245161245, "17": 0.024657956714159174, "18": -0.08240646968859877, "19": -0.09400169445076442, "2": 0.3007886560718662, "20": -0.04031159186401085, "21": -0.1586218471963693, "22": -0.17689402481998445, "23": -0.23744769962486323, "24": -0.17899327228583659, "25": -0.1673467463017437, "26": -0.17222555066503906, "27": -0.18401517674206425, "28": -0.16260801790466203, "29": -0.04857141549428447, "3": 0.29137188499123734, "30": -0.1694328621000122, "31": -0.03354053653435017, "32": -0.24216375858966682, "33": -0.12041765397252885, "34": -0.2467156253071152, "35": -0.08824955101320564, "36": -0.28573087319971185, "37": 0.0067059617943523095, "38": 0.10131763118009732, "39": -0.376633421203318, "4": 0.005761627573234776, "40": -0.07745986165547022, "41": -0.005942959703931161, "42": -0.069048576117148, "43": -0.07635276072303461, "44": 0.003154018388625072, "45": 0.023142748803589606, "46": 0.038363600058902, "47": -0.086086589617802, "48": -0.08894004205490783, "49": -0.08617904784169779, "5": -0.058542857363963856, "50": 0.18631834828408333, "51": 0.022897170541520902, "52": -0.028538198587854075, "53": -0.00220228228801183, "54": 0.12647422075244702, "55": 0.23740169265581282, "56": 0.3225069042832519, "57": 0.1036255173263129, "58": -0.2994101674537371, "59": 0.3660804269084352, "6": 0.16137214580955844, "60": 0.04392694594618644, "61": 0.048040644499380274, "62": 0.017071775594990492, "63": 0.16595188366549588, "64": 0.005401710228082551, "65": 0.3459767771247123, "66": 0.010810729027344923, "67": 0.3428084403795962, "68": 0.12223690616950941, "69": -0.11028965327403083, "7": 0.030925454224765385, "70": 0.0575463470856243, "71": 0.11880420900573838, "72": 0.08134960458262835, "73": 0.21592353877984416, "74": 0.1006945804120369, "8": 0.09881013188110392, "9": 0.019173387133338854}}, {"depth": 3, "sx": 5, "sy": 5, "w": {"0": 0.0016911100497919707, "1": -0.03309819869020937, "10": -0.030311132483971645, "11": -0.010857362008086097, "12": -0.15545254165611802, "13": 0.07068611526036793, "14": 0.03996369161224364, "15": 0.10120892416102949, "16": -0.10628561862117576, "17": 0.15342001168674116, "18": 0.08160624535159253, "19": -0.11055487420676184, "2": 0.3477924512432827, "20": -0.08667213791742027, "21": 0.296456911917764, "22": 0.04983196480568212, "23": -0.041890391945808916, "24": -0.07128469011960448, "25": -0.21911910771513213, "26": -0.2896643417055135, "27": 0.10872113840069418, "28": -0.1811698947456263, "29": 0.010778669121266907, "3": 0.2344211554281856, "30": 0.29080641720911277, "31": -0.1895143901604825, "32": 0.2548341082209721, "33": 0.16249975840011135, "34": -0.1599311477041358, "35": 0.06696170804025277, "36": -0.003750793958426115, "37": -0.06974741086882327, "38": 0.27373198900342205, "39": -0.10438301549304704, "4": 0.028819774647496323, "40": -0.006699306812743701, "41": -0.09275634473779851, "42": 0.15656931538797217, "43": -0.18739688969108276, "44": 0.22003288822138292, "45": 0.3307351447023292, "46": -0.14949642756363002, "47": 0.15096069022239741, "48": 0.2039296606754627, "49": -0.02602937521490252, "5": 0.25314244895190746, "50": -0.15510330392414853, "51": -0.0503367532132423, "52": -0.07467494802334587, "53": 0.08072340857691399, "54": 0.030160824403769354, "55": -0.144204875788828, "56": -0.1495911221961214, "57": -0.01663335365937726, "58": 0.0426586568589495, "59": 0.017984434287832855, "6": -0.07957386581380627, "60": 0.17152342814303487, "61": -0.11538118053711129, "62": -0.006767873279709182, "63": -0.003955385716792188, "64": -0.10354585393701898, "65": -0.046931337536655515, "66": -0.009618914025220589, "67": -0.021843622649876084, "68": -0.1946638744635454, "69": 0.023260975874427676, "7": -0.0644999461684133, "70": -0.22974981802392427, "71": -0.13181531678593855, "72": -0.05322612583229306, "73": -0.14466406204089766, "74": -0.07673740227352949, "8": 0.21123977713428366, "9": -0.03321342176047504}}, {"depth": 3, "sx": 5, "sy": 5, "w": {"0": 0.46458283112105375, "1": 0.3036885673601753, "10": 0.11671382459504441, "11": -0.2364333003101854, "12": 0.05053083429441127, "13": -0.033412825416199284, "14": 0.2804370947406602, "15": 0.2726535623443046, "16": 0.11449180584630157, "17": -0.12796255555168465, "18": -0.11357338460580813, "19": 0.020557879668830905, "2": -0.14943433916977017, "20": -0.15597845853547862, "21": -0.0907733684459095, "22": -0.09926838717299567, "23": -0.06885818892761311, "24": 0.17331829115241645, "25": 0.1297305399231402, "26": 0.026633498914693698, "27": 0.30132351142081965, "28": 0.11748853523998593, "29": -0.0661754096622904, "3": 0.11918587630474153, "30": 0.030579108739547105, "31": -0.37766075165883034, "32": -0.1964585335912956, "33": -0.20365567562660028, "34": -0.1615247304902666, "35": 0.16387105799306123, "36": -0.18831595830690345, "37": -0.3188514777862883, "38": 0.1455586882666137, "39": 0.017622463901207985, "4": 0.08350938749610448, "40": -0.05233761145502628, "41": -0.1297521759088029, "42": -0.21183318151204245, "43": -0.2333503237491873, "44": 0.042480239500013464, "45": -0.09543803726500157, "46": -0.3962612596663878, "47": 0.19103394418507247, "48": -0.11397049219579827, "49": -0.1458614655986994, "5": -0.10073693972753524, "50": 0.052094314760379026, "51": -0.22634541844515285, "52": -0.16832058600745112, "53": -0.015623119162039411, "54": 0.07080802979674103, "55": -0.039773309591628524, "56": 0.03817559013748797, "57": -0.10236245086786458, "58": 0.1015186368030799, "59": 0.045871854859990936, "6": 0.25174287731197714, "60": -0.042256028367271374, "61": -0.06439326397842088, "62": -0.011790244384859724, "63": -0.12917118948656628, "64": -0.050787158794543395, "65": 0.15874673174216503, "66": 0.059365635785927434, "67": -0.003269728157213413, "68": 0.04645415011042679, "69": -0.1484393890934645, "7": 0.12463050245938895, "70": 0.22720035112701534, "71": 0.29069153394148795, "72": 0.002068854731664342, "73": 0.08186587120242901, "74": 0.10699552021668889, "8": -0.2379649673574301, "9": -0.02280957715468302}}, {"depth": 3, "sx": 5, "sy": 5, "w": {"0": 0.01375684175043541, "1": -0.16062701017665276, "10": -0.030399871051965704, "11": -0.13121720107071919, "12": -0.20104227134239483, "13": -0.20645117695746187, "14": -0.18944716184019567, "15": 0.021797247244408836, "16": -0.14392813969317353, "17": -0.04747734989410955, "18": 0.13648109460582217, "19": -0.1202070180517815, "2": -0.0386217888283077, "20": 0.21138955618425406, "21": 0.01672634439142566, "22": -0.0820980642279077, "23": -0.025093769111454764, "24": 0.21466353819302472, "25": -0.009238762646124986, "26": 0.019995162607492612, "27": -0.13814503410068998, "28": -0.09301841321291206, "29": 0.23955702825931846, "3": -0.027093561677427665, "30": -0.020305732343552776, "31": -0.0680721332481746, "32": 0.06121290113146204, "33": -0.18202687909041027, "34": -0.23470011690258386, "35": 0.002492515097598657, "36": -0.08822112942389439, "37": -0.20783742377891554, "38": -0.021549291045351596, "39": -0.08113996999830822, "4": -0.2200657139265794, "40": -0.23957164561020283, "41": -0.008299389157095365, "42": 0.052377290488924096, "43": -0.14790442118390856, "44": 0.05044984629419086, "45": -0.20229543641397432, "46": -0.191166095969899, "47": -0.12810030100401706, "48": 0.03225151853702123, "49": 0.08893876770348999, "5": 0.16450433754161137, "50": -0.15652474678770437, "51": -0.058390393154619386, "52": -0.2503010898894151, "53": 0.26467797106447644, "54": -0.08881536695463389, "55": -0.06650442234752597, "56": 0.22854025386406962, "57": -0.026365648316652706, "58": 0.005484584105951678, "59": 0.030238885261777055, "6": 0.0061150049157813096, "60": -0.1360349142193482, "61": 0.2665248583625342, "62": 0.14389536452316645, "63": -0.02610826769505452, "64": 0.08117773305569376, "65": 0.2136831785149566, "66": 0.18399567208471004, "67": 0.0031822340009061063, "68": 0.39994138292562237, "69": -0.025849249660807077, "7": -0.19885917823776408, "70": 0.06685101124108694, "71": 0.26695113441217366, "72": 0.10977943971145893, "73": 0.15398606702774292, "74": 0.18773745926732044, "8": -0.1361141838654808, "9": 0.12118791329716756}}, {"depth": 3, "sx": 5, "sy": 5, "w": {"0": -0.08160428122428624, "1": -0.0700547724079201, "10": 0.1615346273324883, "11": -0.026676319240601667, "12": 0.1734261156894518, "13": 0.07754564730461654, "14": -0.01651687147783467, "15": -0.13358056572671329, "16": 0.16248755600005518, "17": -0.10632748372969487, "18": -0.06151508150834969, "19": 0.014693797987293436, "2": 0.08332335704169616, "20": -0.15118198529501947, "21": -0.06519700300329442, "22": 0.16504171898843448, "23": -0.0009877296081520842, "24": -0.3235698366040151, "25": 0.12785592169170715, "26": -0.03114113910607444, "27": -0.016591938137151947, "28": 0.09121447178190249, "29": -0.05047210390325452, "3": -0.0885507362826338, "30": 0.1313447719701596, "31": 0.1832130477134374, "32": -0.10137607929450519, "33": -0.07515969473821774, "34": 0.08882707823784118, "35": -0.13515198432976422, "36": 0.05241112736931497, "37": 0.17682328791476876, "38": -0.2906931246697779, "39": 0.004748823709687363, "4": 0.1674404022309623, "40": 0.1466677950048757, "41": -0.2532755499241974, "42": -0.06739490133966514, "43": 0.14417249605693458, "44": -0.15301227244765456, "45": -0.11634121357914406, "46": -0.009346354593667772, "47": -0.07055617103396025, "48": -0.049398496518457624, "49": 0.36083620008465966, "5": 0.08615109084406729, "50": 0.08842252020639448, "51": -0.08635388023831149, "52": 0.16704460355343154, "53": 0.11549881177288279, "54": 0.03781017563029588, "55": 0.04399139217004156, "56": -0.11022671973814704, "57": -0.1408981654740693, "58": 0.0075674884905185535, "59": 0.04044778886947138, "6": -0.12826766319401642, "60": -0.1647161671190523, "61": 0.08438239099141817, "62": 0.10659474698499573, "63": -0.12212931516298597, "64": -0.02530953596322019, "65": 0.1265475723636538, "66": -0.10641800983759887, "67": -0.07349448868567467, "68": 0.07529226502106208, "69": -0.01719283411962587, "7": 0.1747351073067856, "70": 0.13375750315717916, "71": 0.007311222866329486, "72": -0.11573152645444211, "73": 0.1892871818693286, "74": -0.047708170674476864, "8": -0.09061564786750072, "9": -0.1142473348434632}}, {"depth": 3, "sx": 5, "sy": 5, "w": {"0": 0.08716649334128419, "1": -0.1619085655340108, "10": 0.059614424488387614, "11": -0.09898404860616256, "12": -0.15284582703405009, "13": 0.003908906391729504, "14": -0.010458727019201077, "15": 0.2315106321336667, "16": -0.029046697915869512, "17": -0.1909456092279663, "18": -0.038361387926438936, "19": -0.03189805273827127, "2": -0.07440115878739718, "20": -0.19476655680938199, "21": -0.06442633708295173, "22": 0.02350634257339812, "23": 0.08191946454375086, "24": -0.022624363654839986, "25": 0.012860926169356305, "26": 0.07243593664864999, "27": -0.2092976570157719, "28": -0.21512967105957492, "29": 0.02967051467415848, "3": 0.08777157606189645, "30": 0.09849632509932775, "31": 0.13568037977290734, "32": 0.24897216727863594, "33": 0.27816200196850066, "34": 0.16986725585041226, "35": 0.21754209200708594, "36": 0.22661880510135635, "37": 0.059406920198389085, "38": 0.016572337789146834, "39": 0.18591435191834585, "4": -0.09181935437896639, "40": 0.07577755225028392, "41": 0.08253036918248477, "42": -0.10833136776754544, "43": 0.10325823243359526, "44": 0.1152582080555499, "45": -0.07342529144376478, "46": 0.09844523664995106, "47": 0.16524956707316002, "48": -0.0645876372260798, "49": -0.09868050204946278, "5": -0.19128728203764245, "50": 0.10564871088016696, "51": -0.2807255035112693, "52": 0.059204988256850784, "53": 0.2587175664818399, "54": -0.0011486858986875705, "55": -0.05087312997716081, "56": 0.16244717370689477, "57": -0.029644102977494237, "58": 0.11859675534705205, "59": 0.04356722755499997, "6": -0.07325157855729082, "60": -0.13163507459893467, "61": -0.226128786256809, "62": 0.06431154606396805, "63": 0.06180081548150454, "64": -0.0517463428657201, "65": -0.01598947510790503, "66": -0.12893313487580255, "67": -0.21558079011258327, "68": 0.06875214476476267, "69": 0.040824540026105215, "7": -0.061681671522529034, "70": -0.026478742994144412, "71": 0.029099730933969406, "72": -0.21180517980489258, "73": -0.04465433489412733, "74": -0.009284698417190844, "8": -0.03957165478849302, "9": -0.080911916498299}}, {"depth": 3, "sx": 5, "sy": 5, "w": {"0": 0.016386000346304923, "1": 0.1177009467463868, "10": 0.15138032173738544, "11": 0.15114229325296172, "12": 0.1128719577881703, "13": -0.004382288936896688, "14": 0.04584490906542054, "15": 0.02403874490888745, "16": -0.07276603024664437, "17": 0.14607261080199843, "18": -0.05183363104258382, "19": 0.13098866900908973, "2": 0.03794181792456381, "20": 0.11432768695038711, "21": -0.08821055768412996, "22": -0.12849008386922364, "23": 0.22455496764530294, "24": -0.09328121593179915, "25": -0.14747865875139812, "26": 0.09695711763363678, "27": 0.04196128779986779, "28": -0.044555044291197485, "29": 0.15686049536563576, "3": -0.2401151737528916, "30": -0.2016111905820483, "31": -0.15053192113067504, "32": 0.013179506036827122, "33": -0.1301632112971624, "34": -0.13604224298338752, "35": -0.04387463744855819, "36": -0.06161565648184809, "37": -0.137432870708032, "38": -0.09908347207522496, "39": -0.20014151498580804, "4": 0.06077843433738751, "40": -0.05668032182751839, "41": -0.04564098567446678, "42": -0.11304447277567864, "43": -0.0692159349488369, "44": -0.09869405736202856, "45": 0.051338608313885294, "46": -0.010744364646176776, "47": 0.04546697104306435, "48": 0.12322795114123306, "49": -0.008319086176188456, "5": 0.18782007161764216, "50": 0.02848940028299409, "51": 0.005845944362921058, "52": -0.09749578221935866, "53": 0.09801785510903657, "54": -0.1295623584546685, "55": 0.04326372267577232, "56": -0.002173230556010364, "57": -0.16636751290525037, "58": 0.07366106706068214, "59": 0.07236159710805389, "6": 0.07984343681377021, "60": 0.055433800902255144, "61": 0.09382988339071825, "62": 0.10556931502811019, "63": -1.2622954149352195e-05, "64": 0.08589219156564906, "65": -0.0784740653988358, "66": -0.07354065474201289, "67": 0.2847862567509624, "68": -0.01220336570858935, "69": 0.01607426396139915, "7": 0.0462103939799077, "70": 0.12695407729454353, "71": 0.09036960692984418, "72": 0.003102022760305361, "73": 0.0063676008285590766, "74": -0.007487581467298187, "8": -0.06203160143828404, "9": 0.11632760690300209}}, {"depth": 3, "sx": 5, "sy": 5, "w": {"0": -0.010097760185200954, "1": -0.015414573704740746, "10": -0.1719192437556826, "11": 0.006501418252149088, "12": 0.1261607399466198, "13": 0.0726211367438345, "14": 0.058762294175133095, "15": 0.12917904006117312, "16": 0.4627185439003134, "17": -0.02036251480816868, "18": 0.023744199023962333, "19": 0.23579783244379332, "2": -0.051098007074025724, "20": -0.043266740622848604, "21": -0.19206948538572877, "22": -0.21624814559162742, "23": -0.14858319937678807, "24": -0.4147375517671168, "25": -0.1371923315298481, "26": -0.010985785294812532, "27": -0.04250270022249105, "28": 0.029204766431513415, "29": 0.0742590430332074, "3": 0.11647404099408651, "30": -0.04333762411578889, "31": 0.24779561268223702, "32": -0.0440714224496008, "33": -0.29870251601636133, "34": -0.15669751370562662, "35": -0.025510087165445325, "36": -0.24851466258993726, "37": 0.12749632628756372, "38": -0.2124999519714548, "39": -0.05900020250003841, "4": 0.18507636780878756, "40": -0.10658173837309992, "41": -0.16531135933739685, "42": 0.3729578112740499, "43": 0.19390833559018705, "44": -0.02762998701485623, "45": -0.05631308979968338, "46": 0.10797882387963949, "47": -0.04509245076030821, "48": -0.12445870442458815, "49": 0.09037671801057577, "5": -0.06696505304662442, "50": -0.23344880050813993, "51": 0.04018403768756474, "52": 0.010617421599588629, "53": 0.061594505380334674, "54": 0.145442579363158, "55": -0.04704693291003823, "56": 0.09657685105982387, "57": 0.19518501684202055, "58": 0.07529676569246052, "59": 0.028369633296665444, "6": 0.044653376250965965, "60": 0.04913366823410579, "61": -0.09393361673352976, "62": -0.08233057533469255, "63": 0.07323750610598653, "64": 0.10046471905378238, "65": 0.030566702726041974, "66": -0.06068479581445189, "67": 0.2479414492716585, "68": 0.04011336443822205, "69": 0.21555373378242448, "7": -0.04470987184593908, "70": -0.04446909674148317, "71": 0.1038195628453379, "72": -0.16131686610956797, "73": -0.045402768796733876, "74": -0.08338229812602954, "8": 0.02032301094453404, "9": -0.21849272083789614}}, {"depth": 3, "sx": 5, "sy": 5, "w": {"0": -0.03133749891886061, "1": 0.09893333310160214, "10": 0.13581194788794573, "11": 0.003217782856558283, "12": -0.1179849154837946, "13": 0.023159728509782474, "14": 0.03489050279883068, "15": -0.12949285993667953, "16": -0.02591362915380597, "17": -0.041812059439589724, "18": -0.13258698117728474, "19": -0.3274726323631713, "2": -0.24549459810569363, "20": -0.20323292539324395, "21": -0.1329850568649319, "22": 0.11733303847331807, "23": 0.04821567528317019, "24": 0.06564209829715063, "25": 0.34679098057471947, "26": -0.14758577192499628, "27": 0.22261675721490892, "28": -0.029395535417071645, "29": -0.06349170196103564, "3": -0.38638440405639435, "30": -0.048328270329346786, "31": 0.03129862311711416, "32": -0.14715689284739358, "33": -0.18708483595853953, "34": 0.06036631894533224, "35": -0.17093070981889283, "36": -0.1091510943237915, "37": -0.04206648588874217, "38": -0.08747532482661284, "39": 0.33067526211248055, "4": -0.11143973256376152, "40": 0.37210065435722767, "41": -0.011880795551313664, "42": -0.11082148778049732, "43": 0.10548761434813536, "44": -0.045066842977396306, "45": -0.2834269663939276, "46": 0.024247615854798062, "47": 0.06063313807060106, "48": -0.09932466784386236, "49": -0.08871174476060943, "5": -0.041804289125464834, "50": -0.09448182119723719, "51": 0.003033178118438182, "52": 0.01184358908196818, "53": 0.05660390527226159, "54": 0.11857090757071828, "55": 0.1455999228238626, "56": 0.11708599583155246, "57": 0.18614020695133743, "58": 0.12317048034338936, "59": 0.08911527323216954, "6": 0.023243062822281155, "60": -0.1196342077992215, "61": -0.0967229042842154, "62": -0.17881288653765243, "63": 0.16051567028540117, "64": 0.05664754746428674, "65": -0.3691022267182474, "66": 0.12760925208215002, "67": -0.10718888018155705, "68": -0.0751751088156215, "69": 0.016408503965031775, "7": 0.06274519817796063, "70": 0.1374686034406632, "71": -0.0270841572967378, "72": -0.047139271543260454, "73": 0.25136608052510506, "74": 0.1859360828244944, "8": -0.11643705216449109, "9": 0.07860830120399383}}, {"depth": 3, "sx": 5, "sy": 5, "w": {"0": -0.04448759216726923, "1": -0.19379745095349316, "10": -0.1881229178912454, "11": 0.15008215647844608, "12": -0.1519917907800649, "13": -0.02257233683518791, "14": 0.042375832255454035, "15": -0.06834189039680733, "16": 0.14830187276869064, "17": 0.0437038458230322, "18": 0.027960547404185663, "19": -0.05855698432178095, "2": 0.09716346855000804, "20": -0.1251928938872864, "21": -0.11382830249773247, "22": 0.15111900745294676, "23": 0.11873613409464046, "24": -0.09572348007170155, "25": 0.030465518147604894, "26": -0.032208238929911856, "27": -0.0941877165738832, "28": 0.21097747957074564, "29": 0.14826217139791556, "3": -0.14311933688225603, "30": 0.19141418896997733, "31": 0.25275258743222806, "32": 0.10375520786573464, "33": 0.11715687207814036, "34": 0.22362352630545795, "35": 0.2117670063334918, "36": 0.15643579241556219, "37": 0.04454363501150276, "38": 0.27349137781439253, "39": 0.2096138895239665, "4": -0.07014340583400318, "40": 0.13624438623246565, "41": 0.10111581198979454, "42": 0.029074465146646244, "43": 0.004790246936642758, "44": 0.3608408733559887, "45": -0.027211479235505723, "46": -0.17192817289085088, "47": 0.12096287127121116, "48": 0.1816318750166847, "49": -0.13201522785413985, "5": 0.040108612401829474, "50": -0.11386313081417404, "51": 0.17473258296809643, "52": 0.09466120401369886, "53": 0.021445434830373887, "54": 0.10449156229779315, "55": 0.10680202821583705, "56": 0.1096714638064063, "57": -0.00949150228022005, "58": 0.1411479788313899, "59": -0.09325268930921932, "6": -0.23597318254150165, "60": -0.3169491393386385, "61": -0.24939959102367795, "62": -0.10780957680910588, "63": -0.05395918209780636, "64": -0.3374973741028947, "65": -0.15669656733147724, "66": -0.3138608102809054, "67": -0.2913935073237597, "68": -0.1801586120729629, "69": -0.19771568155640057, "7": -0.09675524476959635, "70": -0.17810924725189373, "71": -0.09263582691311668, "72": 0.10259270646634285, "73": -0.29309894106034634, "74": -0.2608218048040217, "8": -0.021626068582925033, "9": -0.10674390697734207}}, {"depth": 3, "sx": 5, "sy": 5, "w": {"0": -0.1890141826458268, "1": 0.011748346080701329, "10": -0.0995753626682745, "11": 0.12518861322512234, "12": -0.027145250138218547, "13": -0.14437875129361594, "14": 0.1416527683679867, "15": -0.246605076110227, "16": -0.15697756998264864, "17": -0.0793147456914384, "18": -0.1696971073980045, "19": -0.19175241158854872, "2": 0.08882934836094314, "20": 0.06596356853203295, "21": -0.3191279155412643, "22": -0.007190562564641217, "23": 0.061723915462194336, "24": -0.22044684664486516, "25": 0.019698942336568586, "26": -0.05810393246039373, "27": -0.20050470897217323, "28": 0.10596317372842903, "29": 0.01869896781346829, "3": -0.09230228458464919, "30": -0.08573886874908063, "31": 0.13239696873690363, "32": 0.08275182306516503, "33": -0.0024247051774913173, "34": -0.20535298399842847, "35": -0.0020936706377253094, "36": -0.09848427839422473, "37": 0.04012761709050951, "38": 0.14046668941805332, "39": -0.09676519872645133, "4": -0.08798230019201772, "40": -0.11018419802428232, "41": 0.090284842420379, "42": -0.13461961518629417, "43": -0.12063450739188432, "44": 0.15858637068182405, "45": 0.1732080229457295, "46": -0.06628168649419873, "47": -0.07892519226800429, "48": -0.13701125607706358, "49": -0.016751913178529726, "5": -0.06482390742208946, "50": 0.1967637607444159, "51": 0.02365689802090577, "52": 0.10833635686438797, "53": -0.0415019150703011, "54": 0.2826252282159996, "55": -0.24784786099093697, "56": 0.06904071854807148, "57": -0.07661004070057104, "58": -0.12554952281368595, "59": 0.34145672905997465, "6": -0.03324948855339425, "60": -0.025988830936622135, "61": 0.09059099591303961, "62": 0.12217471054231228, "63": 0.006621302954333522, "64": -0.06336078176986991, "65": 0.014336954422204165, "66": 0.08203913315966747, "67": 0.048466153584485784, "68": -0.07873634676796319, "69": -0.22067211528035272, "7": -0.1845887359408098, "70": -0.16594117155287644, "71": 0.20861283263114838, "72": -0.13574263294929892, "73": 0.031539392353807406, "74": 0.2776173899009361, "8": 0.08281669496889163, "9": -0.06599309661788749}}], "in_depth": 3, "l1_decay_mul": 0, "l2_decay_mul": 1, "layer_type": "conv", "out_depth": 16, "out_sx": 32, "out_sy": 32, "pad": 2, "stride": 1, "sx": 5, "sy": 5}, {"layer_type": "relu", "out_depth": 16, "out_sx": 32, "out_sy": 32}, {"in_depth": 16, "layer_type": "pool", "out_depth": 16, "out_sx": 16, "out_sy": 16, "pad": 0, "stride": 2, "sx": 2, "sy": 2}, {"biases": {"depth": 20, "sx": 1, "sy": 1, "w": {"0": 0.214832403240409, "1": 0.29612227001169616, "10": 0.053040712175968806, "11": 0.27879213655280133, "12": 0.09007399404398311, "13": 0.1861029743200219, "14": -0.071745528662889, "15": 0.0526785137833374, "16": -0.044530124246561296, "17": 0.1827456257885517, "18": 0.2690731385219189, "19": 0.18960267846016307, "2": 0.2637486007080431, "3": 0.22810847142436086, "4": 0.23656925600225306, "5": -0.10567839852414068, "6": 0.06753895018983498, "7": 0.005700526451764397, "8": 0.011557192505756493, "9": -0.027925276952024295}}, "filters": [{"depth": 16, "sx": 5, "sy": 5, "w": {"0": -0.13876765733271393, "1": 0.02008994251743878, "10": -0.0536158851051462, "100": -0.0849207335303149, "101": -0.17223644830822196, "102": -0.05496056651762992, "103": 0.03342140098044707, "104": -0.1605814244033409, "105": 0.035949286760937664, "106": -0.04141944852046448, "107": -0.19119001335472777, "108": -0.16706859245790068, "109": -0.04783785600942853, "11": -0.021742811681480657, "110": -0.07180442504517674, "111": -0.049226240047731656, "112": -0.19572175969197372, "113": 0.12307553209421737, "114": -0.037890377530965184, "115": -0.13524873263619142, "116": -0.2745047265622166, "117": -0.04051999487550633, "118": -0.015172278327928721, "119": -0.1697853239106107, "12": -0.27869369724973503, "120": 0.08671789038942682, "121": 0.13606026939876303, "122": 0.06678027722546817, "123": -0.04227114074351145, "124": -0.20303631648913087, "125": -0.13264492169881725, "126": -0.06432520328198492, "127": -0.06218284351279293, "128": -0.15794642375560394, "129": 0.14454660744929906, "13": -0.042979241555018, "130": -0.15359407012384768, "131": 0.009788199084571129, "132": 0.11633469255929357, "133": -0.0011484580843489122, "134": 0.015364174351383228, "135": -0.1063009362455967, "136": -0.032768218245183334, "137": 0.014007605920994443, "138": -0.005791330476135488, "139": 0.09220357512620954, "14": 0.01956728516746804, "140": 0.015881397457892323, "141": -0.06439011055705368, "142": -0.048687662501535056, "143": 0.16348208456973062, "144": -0.007607179695454193, "145": 0.014337716047828249, "146": -0.023358137077535906, "147": 0.05301848636378932, "148": 0.03704509727858479, "149": 0.12212977846937363, "15": -0.043141666725490226, "150": 0.05264920458007622, "151": -0.013470801455636982, "152": 0.05902751140943064, "153": 0.005418098340843361, "154": 0.05185012596778978, "155": 0.06855697191351888, "156": -0.054888621412544664, "157": 0.06990973133555825, "158": -0.020836013862207847, "159": 0.15797877636443827, "16": -0.05686643915509729, "160": -0.06330816992248751, "161": -0.21782819458060845, "162": 0.013775396527805416, "163": 0.06669679226318113, "164": 0.008283069195870754, "165": 0.09509760742521792, "166": -0.06728499225530978, "167": 0.09011185162450906, "168": -0.04212870673188527, "169": 0.08056942304935924, "17": 0.15585377883831505, "170": -0.1582520313275232, "171": -0.14432352958803377, "172": -0.12123392841443527, "173": -0.05841348102122098, "174": -0.0150036564162349, "175": -0.01061724434863718, "176": -0.018798043492904096, "177": -0.16867520954968995, "178": -0.03948400468550269, "179": -0.10694582663188176, "18": -0.14270216984523715, "180": -0.15319962507784532, "181": -0.14072827538434043, "182": -0.13782067656774513, "183": -0.06214204128864681, "184": -0.16542767875587072, "185": -0.03028095764064421, "186": -0.053572471606317874, "187": -0.03012894969775284, "188": -0.32523650168390866, "189": 0.003349128916845998, "19": -0.3265054394345968, "190": -0.04094490913767062, "191": -0.0736909212639977, "192": -0.08258072354874607, "193": 0.006375461554897734, "194": 0.09127739313058182, "195": -0.1625921705200169, "196": -0.30410946396328936, "197": -0.1636683522797655, "198": 0.021152402225954763, "199": -0.19415629002717663, "2": -0.057634221750095777, "20": -0.11737357980906388, "200": -0.10009955869851685, "201": 0.033218586007382755, "202": 0.060907543839042184, "203": -0.09375761655392022, "204": -0.24798593761182577, "205": -0.07556008810912833, "206": -0.11620039704678521, "207": -0.2844758009436089, "208": -0.08602229101068631, "209": 0.020670129039805567, "21": -0.04900818087580441, "210": -0.02854528755283946, "211": -0.08674941550612413, "212": -0.09357178015471293, "213": -0.1192946659130735, "214": -0.10869439545023456, "215": -0.2976887348028878, "216": -0.07259586476486593, "217": 0.04199118968708239, "218": 0.11407149973211454, "219": -0.09709904871431581, "22": 0.043218798229816294, "220": -0.10446638985196502, "221": -0.14578240620244942, "222": -0.04605999601354029, "223": 0.01474370889227255, "224": -0.001252070177320881, "225": -0.035698581861113014, "226": 0.01250499794001101, "227": -0.061003858479646754, "228": -0.02935258165437011, "229": 0.03803205203111472, "23": -0.03849023452161476, "230": -0.07814159193367931, "231": -0.03505408598483402, "232": 0.04834322018564804, "233": 0.0716270811864254, "234": -0.016179234686471693, "235": -0.07249604726171195, "236": -0.012063332719703631, "237": 0.040136029465395365, "238": -0.08934493653283154, "239": 0.09563635439258032, "24": 0.03622761913120341, "240": -0.056318743408826796, "241": -0.18853150127262103, "242": 0.09314568990057111, "243": -0.09319353817675712, "244": 0.17434626217707172, "245": -0.05169583848859278, "246": -0.03128872029026671, "247": -0.005592334311594879, "248": -0.11951010437187665, "249": 0.022688982492821825, "25": -0.04422863367556203, "250": 0.07038565830174733, "251": -0.09038178759105311, "252": -0.12821227176146027, "253": 0.01940554956881422, "254": 0.09063789959114804, "255": 0.03251218503690979, "256": -0.11556961089242389, "257": -0.093149294383392, "258": -0.030978883381750175, "259": -0.018825083430223016, "26": -0.014706032528443255, "260": -0.0744604880322773, "261": -0.12963213438970367, "262": -0.04905482187750463, "263": 0.11050984312260163, "264": -0.10487044163389984, "265": -0.04875686488844334, "266": -0.03590589314175721, "267": -0.0778887112066753, "268": -0.12660759096764002, "269": -0.18898849602132728, "27": -0.19231653432889512, "270": 0.0753734835866862, "271": -0.024681283825269226, "272": -0.019181773449957192, "273": -0.10221400214445017, "274": 0.0142884334930625, "275": -0.07673201114281678, "276": -0.17151471656452935, "277": -0.03253788052686465, "278": -0.011743909555050468, "279": -0.07465970050534723, "28": -0.09456510211645835, "280": -0.040371202759592, "281": 0.07950924145614459, "282": -0.1317984582444466, "283": -0.07358019566907505, "284": -0.23523207185647982, "285": 0.08864031494401411, "286": 0.12142141739289973, "287": -0.09432127596298545, "288": -0.02905925923860651, "289": -0.0734804242088541, "29": -0.2780092451214438, "290": -0.07964192592793247, "291": -0.028855148538333958, "292": -0.14084087281775523, "293": -0.1563474718051578, "294": -0.045312501851689974, "295": -0.050246428028465635, "296": -0.11734669779522017, "297": 0.03933994862619359, "298": -0.07464138734725591, "299": -0.11366691099583073, "3": -0.11251320211766722, "30": -0.08626784902938557, "300": -0.18741949158954202, "301": -0.10644365352418832, "302": 0.03768590566273636, "303": -0.10189829862956253, "304": 0.053608485275020365, "305": -0.1962181015821149, "306": 0.027496203827917405, "307": -0.01572355233501196, "308": -0.052166279978831956, "309": -0.12782560333079607, "31": 0.07457627409314235, "310": -0.10909171896397726, "311": -0.151729448866585, "312": -0.04931809835337218, "313": 0.035911224960462465, "314": -0.03579932571377991, "315": -0.046582760231274, "316": -0.09794831887548293, "317": 0.02128652024326822, "318": -0.03426081865037578, "319": 0.05109629999079849, "32": -0.2502530721818432, "320": 0.025577328594913674, "321": -0.16004194898055038, "322": -0.1726245077438277, "323": 0.00680802310884918, "324": 0.048085431711230905, "325": 0.07087435868305329, "326": -0.060335678577033716, "327": 0.011967522677497334, "328": 0.08598256425243085, "329": -0.08339526730392342, "33": 0.004262657746654388, "330": -0.050755034791645746, "331": -0.0030290046515205936, "332": 0.023860450337850943, "333": 0.014393003631551143, "334": -0.1481600777618557, "335": -0.12329724649570342, "336": -0.08973337895212166, "337": -0.05294353322587285, "338": -0.013086076693435809, "339": -0.0767680431625951, "34": -0.12823274147023248, "340": 0.05187094217685972, "341": 0.06524039689878706, "342": 0.004519983243158764, "343": -0.029095469025459727, "344": -0.10019808342755082, "345": -0.08745643814068026, "346": -0.042694415170999894, "347": -0.006675743503295564, "348": -0.17689857478974566, "349": -0.022313183110000582, "35": -0.10938391228619955, "350": -0.08170567162750747, "351": -0.13088110229267, "352": -0.12978000403677373, "353": -0.15415029661465743, "354": 0.04150227021939863, "355": 0.03059440545597652, "356": -0.03527213797960514, "357": -0.10367924604284012, "358": -0.027033008081122502, "359": -0.025566104465347045, "36": -0.06837426350824036, "360": -0.305669578674636, "361": 0.019308544241803376, "362": 0.044762489413705184, "363": -0.028395529884163547, "364": -0.2691049952228692, "365": 0.042874018168161346, "366": -0.01542737261844104, "367": -0.14370167128036604, "368": -0.034353755820091494, "369": 0.0002912770798972989, "37": -0.011066827276739083, "370": -0.0731383369523223, "371": -0.061704605635159115, "372": -0.05406382798831372, "373": -0.03352914347341746, "374": -0.10540423145385112, "375": 0.008054317955577478, "376": -0.1429211717912362, "377": 0.028820326285920645, "378": -0.05144259838413416, "379": -0.0737868009175491, "38": -0.01021158995102274, "380": -0.20713891234654608, "381": 0.028950293064762773, "382": 0.06377258901216687, "383": -0.055544587968615264, "384": 0.01686231327294058, "385": -0.02685402398436999, "386": -0.15321821816985276, "387": -0.02155632060411749, "388": -0.13651935248153815, "389": -0.09886622312783115, "39": -0.159434081997151, "390": 0.010798295258163332, "391": -0.12537804087693052, "392": -0.1944746457088166, "393": 0.011406038635625136, "394": -0.05381250944346104, "395": -0.013005749267659353, "396": -0.16863289665056314, "397": -0.007946865251270124, "398": -0.0794296851475276, "399": -0.03824833353373156, "4": -0.23731424687382263, "40": 0.0690897841757436, "41": -0.01782601455487147, "42": -0.07304531005418982, "43": -0.05152648821396805, "44": -0.021709465246123875, "45": -0.10667189935942692, "46": 0.004513385279915728, "47": 0.008263532311334632, "48": -0.11991294645711748, "49": 0.004016996706057171, "5": -0.12836926546508964, "50": -0.16377154511904235, "51": -0.026800259245260194, "52": 0.19652341108437288, "53": 0.004635709756532372, "54": 0.013463928038546158, "55": 0.009119328064534585, "56": 0.03190594918695218, "57": 0.02842518824045756, "58": 0.04978639062591789, "59": 0.07891881891903361, "6": 0.10350727833854327, "60": -0.043186473869213725, "61": -0.061275305279015, "62": -0.02289963524368767, "63": 0.050254351613387725, "64": 0.026353168520798043, "65": -0.06934815848171177, "66": 0.0882683680036281, "67": 0.05500026210279385, "68": 0.06065970506565196, "69": 0.059860508833595415, "7": -0.018064683258723745, "70": 0.015614156918899166, "71": 0.19878802306388565, "72": 0.12341501201960664, "73": 0.12117020114833076, "74": 0.16359776171950063, "75": 0.13134107566604508, "76": 0.010253784543267775, "77": 0.11148918063148282, "78": -0.006637546318466473, "79": 0.07880266174042569, "8": -0.05991712513666228, "80": -0.14598773061387094, "81": -0.0704876263500536, "82": -0.007305911201799306, "83": -0.07027400508990826, "84": -0.12802905964357986, "85": -0.06997918450465726, "86": -0.0974650978626896, "87": 0.024405433048639843, "88": -0.18709043955900306, "89": -0.028312214866523144, "9": -0.06216075928754, "90": -0.07200003722434091, "91": -0.10538370400077451, "92": -0.2476980978271781, "93": -0.06818421808319192, "94": 0.007125829405299388, "95": -0.11273272240354122, "96": -0.239292458089392, "97": 0.06653974399772922, "98": -0.07734750179162618, "99": 0.013542579864414712}}, {"depth": 16, "sx": 5, "sy": 5, "w": {"0": -0.056103176098615704, "1": 0.08915472493057618, "10": -0.08833709710664146, "100": -0.03644010400955084, "101": -0.12813007772445856, "102": -0.191288665061711, "103": -0.11632610845117416, "104": -0.04789698118971423, "105": -0.0104176003305381, "106": -0.1299212294967144, "107": -0.128953622797904, "108": 0.045458942581366145, "109": -0.12391372300691166, "11": -0.15082272229081342, "110": 0.022711373111168668, "111": -0.02378907679693067, "112": 0.013563754824499622, "113": -0.053856976723761774, "114": 0.00749272281483718, "115": -0.15769558262600056, "116": -0.004920243824591169, "117": -0.12608376473184746, "118": -0.20730499443173936, "119": -0.061167545425642705, "12": 0.029755533143814326, "120": -0.14479748380280374, "121": 0.1168125318783989, "122": -0.11871055728140903, "123": -0.05646188935141984, "124": -0.00440772399148147, "125": 0.008256771412527647, "126": -0.02342346558405271, "127": -0.16432735486916691, "128": -0.1410278843046429, "129": 0.04440060348893651, "13": 0.060768124645143154, "130": -0.06828492926172465, "131": -0.08198361520467226, "132": -0.035502259849380886, "133": -0.20625644520040898, "134": -0.006422203190419977, "135": 0.05782125696356168, "136": -0.014042599675920529, "137": -0.0003680163991497921, "138": -0.13084877945090603, "139": -0.1207905420460187, "14": -0.026414686753639945, "140": 0.11806471527375342, "141": -0.018760320835399316, "142": -0.036350125393988915, "143": -0.11510402948130133, "144": -0.2159986409984465, "145": 0.04679901174594019, "146": -0.15584326417095717, "147": -0.11302864221722812, "148": -0.04784693406673088, "149": -0.16921322781821224, "15": -0.07050519536129769, "150": -0.12327870705258351, "151": -0.07851982807864877, "152": -0.09070133023908689, "153": 0.07837764200860906, "154": -0.03877937968939555, "155": -0.156263841338847, "156": 0.23145426060208493, "157": 0.010624741944079264, "158": -0.11828830222213817, "159": -0.038295495689640566, "16": -0.08973619328679601, "160": -0.2829050121484204, "161": -0.054583300602565554, "162": -0.09106659324356528, "163": -0.09790183090297327, "164": -0.026141706314176224, "165": -0.07899037469231412, "166": -0.0832048297861945, "167": -0.04236498322407877, "168": -0.06973826349785336, "169": 0.03717355975843943, "17": -0.03740768928846778, "170": 0.08378098259593958, "171": -0.012378319906512178, "172": -0.08917756122266714, "173": 0.04878696292508443, "174": 0.015749362251388264, "175": -0.08430332155955514, "176": -0.2603270644943697, "177": -0.041879043592915895, "178": -0.08003900885894114, "179": -0.14167556588343633, "18": -0.18098766846636033, "180": -0.022706198941099247, "181": -0.13703766460208358, "182": -0.21610842296734703, "183": -0.018692076184522382, "184": -0.2336694938275692, "185": 0.11421203373543548, "186": 0.06670052866664486, "187": -0.07078034549734524, "188": -0.05942956990222538, "189": -0.040730377051385526, "19": -0.04504567235061852, "190": 0.09720644012473936, "191": -0.018411040499287313, "192": -0.19214794895566623, "193": -0.04834317794539544, "194": -0.09148064702713934, "195": -0.1516167092060031, "196": -0.0660794183442242, "197": -0.0045393800232181114, "198": -0.12636963399913564, "199": -0.11500588867609142, "2": -0.08295056654851878, "20": 0.0028751588598900845, "200": -0.10497905179771468, "201": 0.10943420014345209, "202": 0.11397789779825715, "203": -0.12952161020413797, "204": -0.08058964335556867, "205": -0.02365691643678089, "206": -0.028893206481688683, "207": -0.04620891965812983, "208": -0.18548685484138264, "209": -0.06917265876603887, "21": -0.21993212111912955, "210": -0.02432825997272324, "211": -0.062337644705422385, "212": -0.0683407251392191, "213": -0.04567647742858081, "214": -0.1169669229119075, "215": -0.15641485815782222, "216": -0.07491682654695642, "217": 0.06471961281239771, "218": 0.06296170929155677, "219": -0.08462364045020386, "22": -0.1567089028064264, "220": 0.0634404985779435, "221": 0.046292138999951805, "222": -0.018658021282458893, "223": -0.12750870968923905, "224": -0.27671822142143676, "225": 0.047637871212322526, "226": -0.14822558821272855, "227": -0.14061471713910179, "228": -0.21243634302644654, "229": -0.10405267463013668, "23": -0.0021794419902544347, "230": -0.06028881945401586, "231": -0.12550830910653088, "232": -0.11402075982588784, "233": 0.04394344139013137, "234": -0.03369607219682838, "235": -0.20052560194856553, "236": 0.05595942172062344, "237": 0.04863906737206724, "238": -0.050347235405817696, "239": -0.12248066952430291, "24": 0.11686316996799949, "240": -0.14613042072783, "241": -0.09564320737443396, "242": -0.026269803092089476, "243": -0.06004961866141211, "244": -0.06228231791620697, "245": -0.03387541789259279, "246": -0.13784332813417435, "247": -0.10189071410658218, "248": -0.12661320319812203, "249": 0.05437832082798829, "25": 0.07495900980403719, "250": -0.07757786463741619, "251": -0.03452310908927919, "252": 0.0020938202196097615, "253": 0.048930595535668184, "254": -0.05497042374999003, "255": -0.09108052668646348, "256": -0.17084066508215967, "257": 0.0032569471730521417, "258": -0.05448835173514918, "259": 0.011464463214864728, "26": -0.05923283314579496, "260": -0.0334141732302815, "261": -0.0417117846277166, "262": -0.2665344573719058, "263": -0.034208370738838215, "264": -0.05267914761006915, "265": -0.007866491105303082, "266": -0.07256964337319337, "267": -0.02459419022714476, "268": -0.004945718668232861, "269": -0.11208306586732854, "27": -0.09896066937466294, "270": 0.0039209522831790454, "271": -0.09909879745558449, "272": -0.1868913816137697, "273": -0.09237398676321278, "274": -0.03816249162540111, "275": -0.07666111317837318, "276": 0.043414047921660565, "277": -0.046614589739195626, "278": -0.26555305766609616, "279": -0.16082383035588874, "28": -0.05620307594997371, "280": -0.06460714216971404, "281": 0.06881375311538934, "282": -0.17206360672523263, "283": -0.016368563725030264, "284": -0.09035343202177039, "285": -0.05561769959932995, "286": -0.03915217125251219, "287": -0.13250287833799443, "288": -0.2818145805836391, "289": -0.027033309487175285, "29": 0.014873854859171205, "290": -0.08742946868978446, "291": 0.04501670912549593, "292": 0.11583990105554653, "293": -0.030696900066920222, "294": -0.1199540798545268, "295": -0.14552809235224082, "296": -0.17810736128121743, "297": -0.007062444407497806, "298": -0.057152991910060694, "299": -0.20018137060738572, "3": -0.127416373087128, "30": 0.003924388092923428, "300": -0.039857837008701234, "301": -0.009494808947579451, "302": -0.09203531937952095, "303": -0.1478421897426149, "304": -0.18327774574006503, "305": 0.05730353555017551, "306": -0.032399818000346164, "307": -0.1694804806904547, "308": -0.02044659546756096, "309": -0.12680008892350914, "31": -0.042787245696496445, "310": -0.0696578028455144, "311": -0.14045406582569764, "312": -0.1365392570380335, "313": 0.07718661175593673, "314": 0.009003807001446087, "315": -0.0831274489037057, "316": -0.05433874901502537, "317": -0.0028223025616942936, "318": 0.019767880828338334, "319": -0.1672757472764444, "32": -0.13717697286551514, "320": -0.04721932006200095, "321": -0.06437086516921284, "322": -0.06727280158846187, "323": -0.08823624795461575, "324": -0.05531394515265001, "325": -0.11234326188907066, "326": -0.09425866862819866, "327": -0.01711434356971964, "328": 0.03603163397794711, "329": 0.031032637398418238, "33": -0.07753624329377218, "330": 0.01471501222082942, "331": -0.07607889286124205, "332": 0.018650787731472045, "333": 0.10834490583204764, "334": 0.07794652784031762, "335": -0.11483962805700593, "336": -0.15422585561583999, "337": -0.062337979045823916, "338": 0.08449599524070811, "339": -0.08037363052116796, "34": -0.06053710607208934, "340": -0.05483124517238173, "341": 0.024987887294534536, "342": -0.18231615926839245, "343": -0.17328423574391183, "344": -0.09086650929424495, "345": 0.11966674311069436, "346": -0.11353931038119894, "347": -0.06435571325673016, "348": -0.036068565796616874, "349": 0.11775939954342624, "35": -0.19389680912359727, "350": 0.040841155408699197, "351": 0.007278414038165479, "352": -0.16888801086505198, "353": 0.005686605531471224, "354": 0.059805121763004815, "355": -0.1413890963901741, "356": -0.04409894812610649, "357": -0.07170931930751383, "358": -0.25412729931898764, "359": -0.15097794999231537, "36": -0.04115898438291454, "360": -0.1931979376680006, "361": 0.12169326406967991, "362": -0.021221592464456117, "363": -0.0014198134106121769, "364": -0.1287386070939768, "365": 0.03272164445054069, "366": 0.041013470541624165, "367": -0.08638996298595163, "368": -0.2448382313572705, "369": 0.023427027352159464, "37": -0.1900872669202436, "370": 0.07162634193118983, "371": -0.28256744878392176, "372": -0.20315067022131417, "373": -0.1100632407730888, "374": -0.01204787156828021, "375": -0.18520148044393311, "376": -0.024824592596752196, "377": 0.022715398875601877, "378": -0.05809784583411425, "379": -0.04881074296515612, "38": -0.23451479919735113, "380": 0.0484915842562973, "381": 0.02703097092057166, "382": 0.01793867486497798, "383": -0.14059885683643683, "384": -0.09112009557016851, "385": 0.08741105268322817, "386": 0.006946854766962234, "387": 0.1462780569484433, "388": 0.017009444668937817, "389": 0.060913036027881534, "39": -0.14451922324700742, "390": 0.05289028340210208, "391": -0.062129444449605914, "392": 0.04634022231478962, "393": -0.1377179755602853, "394": -0.092011405488142, "395": -0.03889624790877579, "396": 0.21067598643059035, "397": 0.039102779805444084, "398": -0.1599335085133913, "399": -0.030425731729611927, "4": 0.10434991115397993, "40": 0.016374844272870767, "41": -0.0244813941049509, "42": -0.08030981161240529, "43": -0.00424283618809609, "44": -0.01649090854261917, "45": 0.03966644528813463, "46": -0.0542834108878714, "47": -0.1246376444624694, "48": -0.1036053093303372, "49": 0.11157755901580076, "5": -0.009549599205528536, "50": -0.14915871337631886, "51": -0.1644054750545747, "52": -0.03552676926209424, "53": -0.15624535833011172, "54": 0.05700951498633239, "55": -0.07919641922597681, "56": -0.015328227390231104, "57": 0.03318428098584078, "58": -0.0849432544741283, "59": -0.17724084568202947, "6": -0.03932318590547866, "60": 0.1187421948705631, "61": -0.03355050614178397, "62": -0.0662184512240159, "63": 0.022181343954684588, "64": -0.18464124341482338, "65": 0.13835960611584458, "66": -0.14949083598236615, "67": 0.08274246674872031, "68": 0.14947352650958953, "69": -0.17594366146308324, "7": -0.01374799993688933, "70": -0.0056574153374951575, "71": 0.006239119766911848, "72": -0.0006128274280259307, "73": -0.015038257142297647, "74": -0.1898644934246527, "75": -0.21037121743424606, "76": 0.1355742062216978, "77": 0.12855003051893554, "78": -0.12482697183690893, "79": -0.013135012519797961, "8": -0.015226459427886745, "80": -0.1804912899340103, "81": -0.07514747542676857, "82": -0.2486768294486563, "83": -0.20869004651803325, "84": -0.001750870297033311, "85": -0.16195291496104994, "86": -0.16857050194909232, "87": -0.07037028367800172, "88": -0.11627424330805693, "89": 0.09012372566468888, "9": -0.027024113761479687, "90": -0.1393089735972999, "91": -0.10076295642614337, "92": -0.06614671445836648, "93": 0.09863653367209127, "94": 0.05944056463951002, "95": -0.1837013184254639, "96": -0.11780610869578753, "97": -0.0330393745458572, "98": -0.19555294106218932, "99": -0.06751623215632187}}, {"depth": 16, "sx": 5, "sy": 5, "w": {"0": 0.13009929135452625, "1": 0.042122006648072856, "10": 0.09773665064571127, "100": -0.0364915334690435, "101": -0.0347529709851634, "102": -0.08150048097731454, "103": -0.40018184714381094, "104": -0.02049786387666378, "105": -0.015135923149476496, "106": 0.057746330205743664, "107": -0.03596585097723735, "108": -0.07267553655139838, "109": -0.14450655241998386, "11": 0.0476877429391241, "110": -0.1758533908285489, "111": 0.0754138134099176, "112": 0.10768674633512931, "113": 0.06122379984262873, "114": -0.01859846253098359, "115": -0.12114116780298574, "116": -0.009487986069283551, "117": -0.09972523669160388, "118": -0.010156826211352915, "119": -0.3216191531363088, "12": 0.022672031126816455, "120": -0.04595636350032751, "121": -0.01885527202074993, "122": 0.13953492906201487, "123": 0.0832171665212684, "124": -0.23306748122443108, "125": -0.051140901365722226, "126": -0.15546563001271413, "127": -0.027863621078276606, "128": 0.024358917641553197, "129": -0.17573259247517026, "13": -0.08501623050534447, "130": -0.03395190963052076, "131": -0.12411357939341547, "132": -0.16133399015458022, "133": 0.015738259493005533, "134": -0.16631475506484752, "135": -0.37181925856564213, "136": 0.023173056714560037, "137": -0.0093310109925415, "138": -0.0036573621306926914, "139": 0.048116996841537966, "14": -0.02972855982680754, "140": -0.2443884705757064, "141": -0.17647298862362357, "142": -0.1781461358791363, "143": -0.03390410624295453, "144": 0.017370152229584844, "145": -0.016073183712321953, "146": -0.06433685002275837, "147": -0.04328085074954523, "148": -0.15740924747369672, "149": -0.04228653916628985, "15": 0.048284408304106616, "150": -0.09457001316936965, "151": -0.3156080677175818, "152": 0.009723649381584341, "153": -0.06591632512452597, "154": -0.05415677186172005, "155": -0.04306926279662594, "156": -0.17900384291283758, "157": -0.08512739125154016, "158": -0.15051729295982963, "159": 0.01882555007825459, "16": 0.06114587272649973, "160": 0.07264854186822643, "161": -0.0018435038392422582, "162": -0.06230076260341795, "163": -0.013288693927919946, "164": -0.03333880289454753, "165": -0.06766048539201426, "166": -0.06888729492728875, "167": -0.2586445421948822, "168": -0.0554082690867492, "169": -0.04335429687160063, "17": -0.12050857363643737, "170": 0.04509720773505026, "171": 0.09285376877465329, "172": -0.2501261875512707, "173": -0.12746220063826183, "174": -0.005572939081109577, "175": 0.12111684812375693, "176": 0.03741241860872355, "177": -0.13673194551074216, "178": -0.04790073399429778, "179": -0.16610472311255303, "18": -0.013066037287947564, "180": -0.10882296241618196, "181": -0.09502960701716937, "182": -0.0742989734315199, "183": -0.2734940522141262, "184": -0.0022420333643657256, "185": -0.03303325104689681, "186": -0.010160072755119145, "187": -0.04039791213427548, "188": -0.16690343688946102, "189": -0.15206963021170272, "19": -0.10828355732169559, "190": -0.08972810812722894, "191": 0.006905028664200109, "192": 0.03765460854202242, "193": 0.07297659125198201, "194": -0.07646789368291607, "195": -0.051075754129655634, "196": -0.09191931336365619, "197": 0.014738601725424625, "198": -0.06945388170471818, "199": -0.27008990455367093, "2": -0.023289583516169533, "20": -0.0631675431396786, "200": -0.07284158534589216, "201": -0.009341841407017335, "202": 0.033747470877574154, "203": -0.037819878128345766, "204": -0.19412056713432746, "205": -0.09379742897489997, "206": -0.03959267932014092, "207": -0.06344030576834755, "208": -0.008045791221566333, "209": -0.16344076233468896, "21": -0.004588361558228016, "210": -0.12320265486938185, "211": -0.02733168528901717, "212": -0.08023254243112785, "213": 0.0524481633188667, "214": -0.11869842733374128, "215": -0.31357619364105477, "216": -0.04127169621137347, "217": -0.07014179009874606, "218": 0.07076033667456653, "219": -0.07646819692266466, "22": -0.08749145090225505, "220": -0.20419963768335503, "221": -0.20661115711453434, "222": -0.14734834750683018, "223": 0.006993123981100463, "224": -0.020544716754395793, "225": -0.04439718228355825, "226": -0.06302808637325448, "227": -0.11540152916710554, "228": -0.11919558691885003, "229": -0.15717263888851796, "23": -0.18903374490725258, "230": -0.016367512650891543, "231": -0.27482481031274003, "232": -0.11057757251143271, "233": 0.04249566328224454, "234": -0.12008345006823812, "235": 0.03928981298362534, "236": -0.1774123906756554, "237": -0.15333270306742972, "238": -0.13773655306083685, "239": -0.07857424866685613, "24": -0.022749647602264614, "240": 0.0707229929554585, "241": -0.09594877016119917, "242": -0.016362575488010133, "243": -0.024121439630390425, "244": -0.009929959559227782, "245": 0.05406920062900413, "246": -0.006887761482342859, "247": -0.16224295233966815, "248": 0.06997631256774456, "249": 0.029642978299145077, "25": 0.00496039347478882, "250": -0.07520810985771377, "251": 0.02418207153060124, "252": -0.0922119838838136, "253": -0.1514044708686706, "254": 0.13139620286513978, "255": 0.16749348416410062, "256": 0.00451134768224681, "257": -0.08874930698639119, "258": -0.04503655566084506, "259": -0.05009389529960371, "26": 0.0106952970912206, "260": -0.004930408319495319, "261": 0.0828978228238648, "262": -0.021175823571378084, "263": -0.1003516202292228, "264": 0.017140106549452798, "265": 0.04083013441795671, "266": -0.004934665919170309, "267": 0.08488601179852696, "268": -0.17981243887205414, "269": -0.07486215034428668, "27": 0.11173980283335565, "270": 0.0392517842506671, "271": -0.06485603029147288, "272": 0.05896419868863001, "273": 0.06577958715997963, "274": -0.020802442027268397, "275": -0.035475130885350835, "276": -0.049117117128062306, "277": -0.08758517029784312, "278": -0.011943594726122615, "279": -0.18702941924781522, "28": -0.10388489914789088, "280": 0.010273701446364063, "281": -0.006803230773104128, "282": -0.12478073838242917, "283": 0.014345794212999839, "284": -0.10204234190443662, "285": -0.2018799303670251, "286": 0.029347958032337872, "287": 0.03774316553451332, "288": 0.03893035603417227, "289": -0.05510364312821809, "29": -0.05654320667426314, "290": -0.002785090084307158, "291": -0.02291838862640222, "292": -0.0027483184399712634, "293": 0.06155906119229481, "294": -0.0961362890763643, "295": -0.11008381886306602, "296": -0.020219178410266537, "297": 0.0020369466801366063, "298": -0.07462466229432221, "299": 0.028341512006217123, "3": -0.04703439058328543, "30": 0.08677629617484627, "300": -0.13065047257311493, "301": -0.18672887774870445, "302": -0.05217631924953655, "303": -0.09699872710919445, "304": 0.044335764782037844, "305": -0.012475641783642116, "306": -0.07749412824266098, "307": -0.11867988324391437, "308": -0.027366287651086924, "309": -0.085465552834993, "31": 0.11819172690705798, "310": -0.0467822888213727, "311": -0.1212215425102216, "312": -0.161422258697613, "313": 0.005715074095638683, "314": -0.11060141828660754, "315": -0.05746922805393885, "316": -0.11691676533369379, "317": -0.10533425972577452, "318": 0.07422548145897398, "319": -0.012540425341347097, "32": 0.10873002671101377, "320": 0.15545061658270357, "321": 0.02016493993837912, "322": 0.1288341886141673, "323": 0.020359355467831002, "324": -0.023588599790365365, "325": 0.02475089736558544, "326": -0.027302729436955806, "327": 0.022481445656548076, "328": 0.014318142734900204, "329": -0.010081217680959445, "33": -0.09227497839378146, "330": 0.015784444617646436, "331": -0.02050545889473822, "332": -0.08337527256714135, "333": -0.05960271535290436, "334": 0.1532608149931116, "335": -0.0025826580070945236, "336": 0.1474332003585903, "337": -0.035002281057072634, "338": 0.0578969696857366, "339": -0.09270798106985362, "34": 0.08055741776567377, "340": 0.004979028515025626, "341": 0.042841186989100596, "342": 0.02505400548130607, "343": 0.1354227367137394, "344": 0.05660311627105982, "345": 0.06663264875328273, "346": -0.05889564683225562, "347": 0.04775484349567667, "348": -0.03965396345969267, "349": 0.027925483435433086, "35": -0.02768091148113038, "350": 0.05504828976606682, "351": -0.1042043218561656, "352": 0.10889636385055385, "353": 0.09077882587157277, "354": 0.007493238595032044, "355": -0.020000402301388324, "356": -0.021758951340212763, "357": 0.04468962407614291, "358": -0.00575008959833319, "359": -0.05727576192401882, "36": 0.047372227933731845, "360": -0.059567752561488926, "361": 0.02995052539882445, "362": -0.09287843387530607, "363": -0.02605529101798317, "364": -0.06335308706961681, "365": -0.11445330577621365, "366": 0.08230896473348695, "367": -0.05982761975989451, "368": 0.047853866063977304, "369": -0.03422179077958724, "37": 0.028014741683982696, "370": 0.07221089573475935, "371": -0.026901612307981937, "372": 0.0176514097384761, "373": -0.012490199710639487, "374": -0.04429922071867584, "375": -0.16363263667369676, "376": -0.1061072536127681, "377": 0.07202630168382113, "378": -0.12386758533395971, "379": -0.0858084898879621, "38": -0.04807862206315348, "380": -0.0984853837534852, "381": -0.15019879347431403, "382": 0.004740612683349904, "383": -0.013281687213956096, "384": 0.12542536746438576, "385": 0.054626334749969294, "386": 0.0018310718201356962, "387": -0.0766988835902748, "388": 0.03805057065967529, "389": -0.09227018279979345, "39": -0.1906199431974073, "390": -0.063720564745605, "391": -0.07364713268944525, "392": -0.007567517338064254, "393": 0.0019083577686413381, "394": -0.14838224830668426, "395": -0.05903809686143892, "396": -0.06717880329853218, "397": -0.07847940581403794, "398": -0.02849349468019144, "399": -0.054324356949207515, "4": -0.020801506054283447, "40": 0.056422935932366004, "41": -0.013240407182530015, "42": 0.10508798458189918, "43": 0.03773705118487162, "44": -0.25873205961444495, "45": -0.15357066486621845, "46": -0.024599735786002653, "47": 0.054166310182791756, "48": 0.01883516819043505, "49": -0.03400889676904571, "5": -0.05796377087645491, "50": 0.10223641976875887, "51": -0.035966777503357486, "52": 0.07211633677161845, "53": 0.008705566688573913, "54": -0.061477221928878986, "55": -0.1806863330456897, "56": 0.01646960612316888, "57": 0.09676279545790735, "58": 0.02697567848864218, "59": -0.012029216114920516, "6": -0.11328442850802384, "60": -0.11118947482255302, "61": -0.238560085919972, "62": -0.17360108456419399, "63": -0.11875990314897153, "64": 0.05759814925585849, "65": 0.16779922448969545, "66": -0.043241643354948726, "67": -0.07066564809879128, "68": -0.08078416885444534, "69": 0.009080724088472382, "7": -0.10041509325183165, "70": -0.16519633236782966, "71": -0.24719447767815847, "72": -0.020593110303959983, "73": 0.006771502288832825, "74": 0.06311012399184433, "75": -0.07228379738127558, "76": -0.09758456504179058, "77": -0.13528710816872183, "78": -0.09207231818636921, "79": -0.017121143303309893, "8": -0.01044496331722143, "80": 0.05823139084008552, "81": -0.02689042599409301, "82": -0.026536255396361123, "83": -0.07094540978358045, "84": -0.08929021278883435, "85": -0.0023169075202427044, "86": -0.18644894943965834, "87": -0.22961006513623458, "88": -0.05285811130564478, "89": 0.07678896791943413, "9": 0.023802206304374705, "90": 0.07020450081346744, "91": 0.0013856657437051826, "92": -0.1849792394747536, "93": -0.09612416550049703, "94": -0.08651335300146012, "95": 0.05177639434204961, "96": 0.09199212205345354, "97": -0.036592777665284786, "98": -0.1300144412538321, "99": 0.056182342375080435}}, {"depth": 16, "sx": 5, "sy": 5, "w": {"0": 0.06465305742138112, "1": -0.04216755130165358, "10": -0.06375336651404458, "100": -0.07184354455415955, "101": 0.04150578899642036, "102": -0.12578087547155548, "103": -0.08434343890275217, "104": -0.14260348723824864, "105": 0.005014598720424037, "106": -0.038619579394828796, "107": -0.114411071668098, "108": -0.0863961322216291, "109": -0.0346737216163094, "11": 0.014581792627159636, "110": -0.24958151915786092, "111": -0.05949607882884098, "112": -0.031515730263047013, "113": -0.04558231940867828, "114": -0.04019648195568204, "115": -0.11800431855759003, "116": -0.018797213908025943, "117": -0.11127606474213206, "118": -0.14075214321275628, "119": -0.1076838829836125, "12": 0.017384721434729553, "120": -0.21351898661384464, "121": 0.002079013371799965, "122": -0.020205588089633426, "123": -0.100298232386837, "124": -0.035319686714316394, "125": -0.023228486952097022, "126": -0.127641877403154, "127": -0.08024991069776059, "128": 0.029934792395205755, "129": -0.10005539954062415, "13": -0.1619138692412205, "130": -0.029802217854751328, "131": -0.06438896974286033, "132": -0.09772365337520655, "133": -0.06751804095302591, "134": -0.1515968333453031, "135": -0.07620515700647837, "136": -0.07987924938261796, "137": -0.09253635115482735, "138": -0.011069827168918096, "139": -0.07786408958287382, "14": -0.051820533995258156, "140": -0.0486127905062143, "141": -0.1281146825764681, "142": -0.061228773070914025, "143": -0.06101924961750439, "144": 0.05573345752729638, "145": -0.08731300907834123, "146": -0.04093500853389502, "147": -0.027749555163327357, "148": -0.13712722601995542, "149": -0.13568305500808137, "15": 0.028175602026612925, "150": -0.136654952538888, "151": -0.06502202597466127, "152": -0.025834434329946178, "153": 0.04568912945004186, "154": -0.04324812915663152, "155": -0.058749606329282396, "156": -0.010634132024241077, "157": -0.04609975384939059, "158": -0.10358507840534797, "159": -0.03769000174196969, "16": -0.027508171097250043, "160": -0.052908467608864564, "161": -0.12921245520017413, "162": -0.07618279192231843, "163": 0.007482428772405081, "164": -0.07413932083109914, "165": -0.034922011877917214, "166": -0.01664026688987224, "167": -0.06992736509291476, "168": -0.15513537559441026, "169": -0.003639754285051962, "17": -0.08154091094778275, "170": -0.12332010620530347, "171": -0.0047422369388048806, "172": -0.12126848592627883, "173": -0.0776642276524199, "174": -0.13744057147768882, "175": -0.12207288869864787, "176": -0.017250827596980992, "177": -0.07053058797719722, "178": 0.0013808325393391654, "179": -0.11081635007023526, "18": 0.023707929135174933, "180": -0.06872543984117203, "181": -0.12784426376419725, "182": -0.0031788084911555116, "183": -0.16728045279697554, "184": -0.12376007800757359, "185": -0.0631435801369128, "186": -0.008134262721723823, "187": -0.029789900309327426, "188": -0.01295132357216325, "189": 0.014604689892240574, "19": -0.14494601240308053, "190": -0.09295732637935025, "191": -0.027707760527085436, "192": -0.06775611544863755, "193": -0.14588594161436694, "194": -0.016420505361418987, "195": -0.044691671528164466, "196": 0.0008245857053409174, "197": -0.018587602059034557, "198": -0.0870286597350939, "199": -0.12082535089213092, "2": 0.024526276514713268, "20": -0.07358123063804993, "200": -0.04828998196355413, "201": -0.09528793530932637, "202": -0.120534743288986, "203": 0.0535069925706607, "204": -0.06753533160251719, "205": -0.20439606577796526, "206": -0.11045154367441236, "207": -0.08678460570535168, "208": -0.007550898162135647, "209": -0.1498227489955826, "21": -0.04126370246330166, "210": -0.043959211671753394, "211": -0.08833982142296458, "212": -0.08940800912470274, "213": -0.060592843371989315, "214": -0.0643340735843476, "215": -0.08655086467997794, "216": -0.012379814118930767, "217": -0.03256758849835101, "218": -0.07866488247894768, "219": 0.015871171433047837, "22": -0.016947792224590103, "220": -0.07233296264004949, "221": -0.06221813692892694, "222": -0.10915401720487823, "223": -0.12894865816898035, "224": 0.058764244860892705, "225": -0.08209724282926927, "226": -0.15453790066126138, "227": -0.10001444588683914, "228": -0.0633886049571504, "229": -0.11622016607909369, "23": -0.1085181268298227, "230": -0.18491174397918994, "231": -0.11170938657508876, "232": -0.06843282381366439, "233": 0.008416182073550828, "234": -0.02072007756243585, "235": 0.00812385177275136, "236": -0.11319471112228503, "237": -0.05112493158818055, "238": -0.17687927969299666, "239": -0.11303634439307128, "24": -0.035446062767624076, "240": -0.03016947482427748, "241": -0.030445380804699405, "242": -0.11501518438231181, "243": -0.004713567848451101, "244": -0.04348548914371846, "245": -0.05195026808835066, "246": 0.014087638361333556, "247": -0.1535502140735063, "248": -0.01413623458284356, "249": 0.05844885643927851, "25": 0.005453969900909233, "250": 0.0013181057591203748, "251": 0.010709870049070655, "252": -0.17667116104643654, "253": -0.06177559892444094, "254": -0.07304576925026907, "255": 0.020389863213626916, "256": -0.018645993260231628, "257": -0.11636939362956647, "258": -0.004041056579666332, "259": -0.02189721623364383, "26": 0.013860231803422813, "260": -0.12146336273974395, "261": -0.10278576329803332, "262": -0.10164635720697651, "263": -0.11196680897340774, "264": -0.05418465428180962, "265": 0.002895507815050996, "266": -0.16957996714308987, "267": 0.023868967859287105, "268": -0.04898714688272459, "269": -0.08494538382085118, "27": -0.029152243539838463, "270": -0.04067326284491079, "271": -0.02662808764909919, "272": -0.09581689561502715, "273": -0.062010638119550994, "274": -0.018533645773436202, "275": -0.09154944881713767, "276": 0.03083135439738356, "277": -0.036754031468114956, "278": -0.07813758860240642, "279": -0.1590020294445164, "28": -0.09224425953882305, "280": -0.08391349946459019, "281": -0.03990728426989677, "282": -0.15471149546204635, "283": 0.027076642763251616, "284": -0.016810997216681747, "285": -0.0999091048005144, "286": -0.024928927568246634, "287": 0.04797502947615263, "288": 0.028674978308041672, "289": -0.21023828574725673, "29": -0.07840785892920572, "290": 0.02678071501936656, "291": -0.04460995687793159, "292": -0.029922425564551547, "293": -0.05692614064056632, "294": -0.12254395911253806, "295": -0.21226375407820722, "296": -0.12060294290656186, "297": -0.015250457641190126, "298": -0.06905768451804394, "299": -0.14847675418976017, "3": -0.06721196256901393, "30": -0.15102953575684852, "300": 0.056906280343150234, "301": -0.11826501770556747, "302": -0.06534947785804286, "303": 0.09081366499007992, "304": 0.00015207576726093935, "305": -0.17305772547016315, "306": -0.016989986934303713, "307": -0.08160388573907328, "308": 0.005667528720057582, "309": 0.009127546757850468, "31": 0.047715034247532956, "310": -0.01155030571920197, "311": -0.11713006434713201, "312": -0.027457725243313833, "313": 0.013929143578717343, "314": -0.15083241133944542, "315": -0.05714722487681687, "316": -0.019413438435590055, "317": -0.13496625796915682, "318": 0.045900255672752216, "319": 0.11065059613225246, "32": 0.043743469249466205, "320": -0.029463455905273224, "321": -0.05699437668165314, "322": 0.017468410338127613, "323": -0.0043578232601797435, "324": 0.028600732612704398, "325": -0.1134262116420703, "326": 0.04660492449999421, "327": -0.1713179772173639, "328": -0.027639091131677573, "329": 0.05110083955969921, "33": 0.0752706455388434, "330": 0.03618562318257396, "331": -0.09421757803599685, "332": -0.10532402618506144, "333": -0.14878683552584737, "334": -0.004902296669924421, "335": 0.07228254597764261, "336": 0.07445255874626301, "337": -0.16829996153294033, "338": 0.11412862094752782, "339": 0.009138191865933487, "34": -0.10029611080312696, "340": 0.048982674905700026, "341": -0.032121232977483316, "342": -0.040264291227148516, "343": 0.0005256265568902483, "344": -0.004231391889430809, "345": 0.031173208143872068, "346": -0.006376882854395923, "347": -0.020508990583458276, "348": -0.005199801514291302, "349": -0.10021792871041803, "35": -0.13831175726435738, "350": 0.03172962508736593, "351": 0.020207164510071766, "352": 0.014603103451252038, "353": -0.14463195101192866, "354": 0.05863865631874097, "355": -0.005490514974182143, "356": -0.004638558959685087, "357": 0.06289032281481796, "358": 0.09434798647284862, "359": 0.023296470620786595, "36": -0.14778126151074492, "360": 0.004910366713618192, "361": -0.002605650041878848, "362": -0.10808306500422486, "363": -0.10847348612059073, "364": 0.07544103624075792, "365": -0.20835100823063285, "366": 0.006155097856962321, "367": 0.05564732494203241, "368": 0.06623397132964677, "369": -0.07203179862920323, "37": -0.032339026468012885, "370": 0.014940233884146462, "371": -0.017599467710524966, "372": -0.020703464418765683, "373": 0.01568572308415548, "374": 0.07519007249742007, "375": 0.04545850138015491, "376": -0.04751718602928446, "377": 0.06558012512026141, "378": -0.007898677488226431, "379": -0.05576271632808463, "38": -0.06574839702176127, "380": -0.1337672996373895, "381": -0.14714476141251565, "382": 0.09901333182162608, "383": 0.01961881976627792, "384": 0.03109844531309149, "385": -0.17073848918951615, "386": -0.04540270968825684, "387": -0.08957222244026082, "388": 0.026892918523482856, "389": -0.011581640080427766, "39": -0.05757914086837671, "390": 0.03208318859763623, "391": 0.04281349761841533, "392": -0.006297839431486139, "393": 0.021582280366896873, "394": 0.03383134186948416, "395": -0.07406218228030928, "396": 0.03554098351384882, "397": -0.020699914329860777, "398": 0.047012961844692364, "399": 0.0015010496068390583, "4": -0.11192386700646045, "40": -0.10061635084818828, "41": 0.02558042191114255, "42": -0.047558047372000846, "43": -0.02679844036318968, "44": -0.004709178819752092, "45": -0.23981431841241077, "46": -0.02846717314362906, "47": 0.06683587168712489, "48": 0.08806127730292321, "49": -0.062356995090597285, "5": -0.09542486065586034, "50": -0.11820027043296027, "51": -0.014262927846243632, "52": -0.16539967769205974, "53": -0.05025418496005195, "54": -0.20416306683632884, "55": -0.03039797500458348, "56": 0.005816966804904781, "57": 0.001380606175579835, "58": -0.04514479133922289, "59": 0.036592079448842366, "6": -0.08180305770922301, "60": 0.01117070095500241, "61": -0.10242237239808924, "62": -0.0693515150316442, "63": 0.051850075392143244, "64": -0.009781636989782459, "65": 0.0043969535086741795, "66": -0.03741542041943933, "67": 0.10720678806833288, "68": -0.004668553333860402, "69": 0.0949064580380269, "7": -0.04958848207426609, "70": -0.054304630275660334, "71": -0.10141774595632154, "72": 2.741369357976843e-05, "73": 0.017380183865187786, "74": -0.05764168823980043, "75": 0.028767223825421784, "76": 0.06425197343183915, "77": -0.10790182784397265, "78": -0.028923150476839757, "79": 0.028425217067367465, "8": 0.009591170848418144, "80": 0.057110551577033666, "81": -0.051143549153454516, "82": 0.1218680419531667, "83": -0.09296614790239865, "84": -0.03095191964726353, "85": -0.0733747930236648, "86": 0.011333214185138385, "87": -0.11129968759459434, "88": -0.15051507414542736, "89": 0.0762234038117013, "9": 0.003909423354501322, "90": -0.044874173602332576, "91": 0.0537776097383943, "92": -0.0558924187080662, "93": -0.1459334268763878, "94": -0.07743132519899189, "95": -0.0721727344247312, "96": -0.00877721198492786, "97": -0.11698897600525847, "98": -0.06495546209491891, "99": -0.061722874641100205}}, {"depth": 16, "sx": 5, "sy": 5, "w": {"0": -0.07638082609183106, "1": -0.18275173388424645, "10": -0.005138566806761049, "100": 0.05896566701336461, "101": 0.024423579904652087, "102": -0.12741058262153826, "103": 0.14717892994454188, "104": 0.02644588605485879, "105": -0.18569342956752374, "106": 0.0002846287569684629, "107": -0.15428496668128616, "108": 0.15997284863743444, "109": 0.1351382669915373, "11": -0.055207178124953064, "110": -0.056742491848230554, "111": -0.06470348711844459, "112": -0.003336487563990128, "113": -0.2314053804764824, "114": -0.02918694461966014, "115": -0.09120552881859854, "116": -0.034052431412163596, "117": -0.15439052507045462, "118": -0.08960521275676518, "119": -0.034983764439738836, "12": 0.0038180345413260756, "120": 0.04071241171029675, "121": -0.16184842690442755, "122": 0.012859728556845399, "123": -0.13036235075255093, "124": -0.08350809885067612, "125": 0.10683206467069478, "126": -0.06991738243851163, "127": -0.05963121787562248, "128": -0.03404332178916867, "129": -0.010847792766266353, "13": 0.18572486402605587, "130": -0.16301596444421693, "131": -0.23210276987059233, "132": -0.12492805373728413, "133": -0.19806851499456163, "134": 0.008886106154049939, "135": -0.26106361320657484, "136": 0.018485726352679213, "137": -0.08919853985195143, "138": -0.05906360529663267, "139": -0.057484538045809, "14": -0.06520193772150425, "140": -0.1302926081424502, "141": -0.13654204623332533, "142": -0.0813943850168455, "143": -0.1371977700195689, "144": 0.15325610987538474, "145": -0.06556868650621687, "146": 0.02233726198068303, "147": -0.15190002475590603, "148": -0.1164295351756158, "149": -0.1335473007924219, "15": -0.15251028376819864, "150": -0.005923455480337499, "151": -0.21441550697344255, "152": -0.0546657841176214, "153": -0.02438693819204077, "154": -0.004351255480503451, "155": -0.09260553667261302, "156": -0.16058520772162263, "157": -0.15164589601442183, "158": -0.07260217045035211, "159": -0.18446276861643568, "16": -0.09521542814904098, "160": -0.17973323042044242, "161": -0.07468365689577426, "162": -0.025692580346466393, "163": -0.017045344406772602, "164": 0.06504191444718785, "165": 0.0441938782709968, "166": -0.011249279215054477, "167": -0.08348009931911371, "168": 0.01224298806131086, "169": -0.17863775989786032, "17": -0.07727257027992851, "170": -0.0018148523584923819, "171": -0.023584143753387007, "172": 0.01995688191246954, "173": 0.13994520028761825, "174": -0.07330029574440208, "175": 0.016181362767515584, "176": -0.06835730189567997, "177": -0.19027335748751795, "178": 0.019650966979909444, "179": -0.007099161345231057, "18": 0.05205707223904991, "180": -0.01793358165944399, "181": -0.058813652459644206, "182": -0.006303157107046849, "183": -0.08202218794668535, "184": -0.055333268158571605, "185": -0.2969932130354742, "186": -0.011777948264749663, "187": -0.1274551812951466, "188": -0.1122736458339696, "189": 0.1475260583800509, "19": 0.024142740722250068, "190": -0.0033558045328086236, "191": -0.01503109127495262, "192": -0.11572895619142036, "193": -0.16367809711755268, "194": 0.07779817641022194, "195": -0.07985296291461515, "196": -0.0669565588446011, "197": -0.25871008765463155, "198": -0.061426476392221735, "199": -0.02197975210631783, "2": -0.038291658074794246, "20": 0.04248011536628649, "200": -0.04901523764461958, "201": -0.25935308081502084, "202": -0.06535981438035425, "203": -0.09400219633475175, "204": -0.2078958254071924, "205": -0.1485810914348998, "206": -0.005598471136647919, "207": -0.1846687285493967, "208": 0.0794627267601493, "209": 0.016057636514838176, "21": 0.07447612310257502, "210": 0.062278218190155436, "211": -0.028182089854744394, "212": -0.12808334111265388, "213": -0.15616687820600364, "214": 0.08302471784579249, "215": -0.31015564692850806, "216": -0.04252134250636248, "217": -0.048149402430780606, "218": -0.08792149566917323, "219": -0.09414540488361721, "22": 0.05487251957361377, "220": -0.0697928659892075, "221": -0.24391859430027032, "222": -0.018385623842936603, "223": -0.2194905001646025, "224": 0.0577136233008315, "225": -0.041699871051503676, "226": 0.041162402345002125, "227": -0.04878921102896017, "228": -0.011883872245804792, "229": -0.21282986036320514, "23": 0.025747654373427513, "230": -0.044688717372501005, "231": -0.2317631987262803, "232": 0.030996617191239986, "233": -0.03911394627230089, "234": -0.03686335213343518, "235": -0.03499853988297507, "236": -0.2712390582596895, "237": -0.18284147253652835, "238": -0.05889009693424179, "239": -0.2690270114582829, "24": 0.07047472088014342, "240": -0.15434091750735013, "241": -0.011880272900532184, "242": -0.07802741314886635, "243": -0.004234115957064048, "244": 0.05767775949896888, "245": 0.009462958883248532, "246": -0.08632187630539884, "247": 0.014638226026789684, "248": -0.01679247380078952, "249": -0.22232547942003436, "25": -0.19491791601688133, "250": -0.011823816956638427, "251": -0.05106314318303957, "252": 0.061791084485010785, "253": 0.19563899895198225, "254": 0.015642028981542426, "255": 0.06879537926877259, "256": -0.010265904548611295, "257": -0.13730974035793647, "258": 0.013852405962306285, "259": -0.022797338248620708, "26": -0.09870267664364944, "260": -0.05970595905096546, "261": -0.1545964473929401, "262": -0.02762315182305118, "263": -0.03830282351600925, "264": -0.17554030289850817, "265": -0.14678647685057808, "266": -0.12482366876121115, "267": -0.12141009019209315, "268": -0.049244336602137354, "269": 0.01862838089548415, "27": -0.06831956222929778, "270": -0.002009942126885272, "271": -0.005022689277249543, "272": 0.05128977494995941, "273": -0.13102185855236226, "274": 0.006578692391559189, "275": -2.469398127652434e-06, "276": -0.1558345843873907, "277": 0.01578303364797133, "278": 0.05823605725276779, "279": -0.06519277038100821, "28": 0.06812000471323133, "280": -0.07651118957239662, "281": -0.09976189557941821, "282": -0.07430247161725351, "283": -0.06774017532543088, "284": -0.10186162679143075, "285": 0.003805348452786361, "286": 0.001573752757518714, "287": -0.013088044449728147, "288": 0.05506722990320581, "289": 0.0031705187442355835, "29": 0.04441456602521874, "290": 0.04823543704857245, "291": -0.12903506903921388, "292": -0.154600526576891, "293": -0.014668742302216875, "294": 0.028034593472442377, "295": -0.15325162496203143, "296": -0.04364989415163656, "297": -0.06262830503383672, "298": -0.04499465903519757, "299": -0.07159603689680219, "3": 0.0406912720004907, "30": -0.1710290986305771, "300": -0.0654744692106489, "301": -0.2872713570528261, "302": -0.14440503650894412, "303": -0.15090048611775236, "304": 0.042164698804369405, "305": 0.1068930205700643, "306": 0.02615376487235671, "307": -0.06925627514239735, "308": -0.10915295704337916, "309": -0.1561001418106801, "31": -0.0874074814874932, "310": 0.0354563317247747, "311": -0.08176932544483072, "312": -0.18639067345051652, "313": -0.12857255665640974, "314": -0.20538992411715978, "315": -0.047754516994481404, "316": -0.011359693839613588, "317": -0.1580047469520652, "318": -0.03159075382860753, "319": -0.03262576307327265, "32": 0.028797569348079644, "320": -0.18369260205133575, "321": -0.19057984014200394, "322": 0.09625947155041494, "323": -0.07705626778557612, "324": 0.08352072379877493, "325": -0.12312899040844691, "326": -0.018713752889068173, "327": 0.0964681522284038, "328": 0.05534130096156212, "329": -0.06899873504392613, "33": -0.24131442776687875, "330": -0.09096240450025624, "331": -0.09132453414132875, "332": -0.08817981154111063, "333": 0.19319091636928798, "334": 0.08059192292629569, "335": 0.042987162187921, "336": -0.13503316815902683, "337": -0.13290573887172671, "338": 0.20571999599791368, "339": -0.006968013552735882, "34": -0.1445005356688759, "340": 0.0879025032669738, "341": -0.18960573261961097, "342": 0.13851896294475638, "343": 0.1082106296143813, "344": -0.058416377543200844, "345": -0.0850488906627694, "346": -0.09960181289494549, "347": 0.0263553528647972, "348": -0.09109804629846248, "349": 0.03294399178177244, "35": -0.03696843502214404, "350": 0.14844987773969545, "351": 0.06213058284069299, "352": 0.06182303138811775, "353": -0.0043292176140527355, "354": 0.08969410789062805, "355": 0.12301312621582329, "356": 0.005101132952775646, "357": 0.01369330291715604, "358": -0.02071922348025237, "359": -0.04945480974408013, "36": -0.057301640456907006, "360": -0.040691334962825114, "361": -0.035220017174765646, "362": -0.06750782542974153, "363": -0.07847043274679451, "364": 0.002995721679308519, "365": 0.05094999304230182, "366": 0.16470948103384264, "367": -0.16754669089346838, "368": -0.008422582565737132, "369": 0.04332839391658405, "37": 0.14340924266440383, "370": -0.03542063145087659, "371": -0.06066672435995571, "372": -0.14002694030000207, "373": -0.014378267547334907, "374": 0.10481293923036143, "375": -0.19722910212284978, "376": 0.00029284142805399233, "377": -0.08696809811604932, "378": -0.17898243388908644, "379": -0.03611690316140061, "38": -0.10963135104785432, "380": -0.05928861544803106, "381": -0.26373134569265466, "382": -0.02847744449831052, "383": -0.22014507105606, "384": 0.003177279841113569, "385": 0.09639542364740437, "386": -0.02315147430442899, "387": 0.07371879723309586, "388": -0.025828445284343804, "389": 0.027779739994081877, "39": 0.022805568218605524, "390": 0.04335954817486254, "391": -0.1621958081734913, "392": -0.06391265940178033, "393": -0.04374694867894475, "394": -0.17189242272605096, "395": 0.027245316283791336, "396": 0.1370669199925066, "397": 0.09173159968575408, "398": -0.06612017200759114, "399": -0.0901688825198073, "4": 0.03165397031901994, "40": 0.04345416731908466, "41": -0.26347115705401003, "42": -0.030248398341564602, "43": -0.1819034866842346, "44": 0.01410690249838641, "45": 0.07845717040221668, "46": -0.08568080683982296, "47": -0.06491038406349378, "48": 0.003679499194723754, "49": -0.05264773174662302, "5": 0.020290105211227732, "50": -0.05943508182617186, "51": -0.11905236983856796, "52": -0.057789892585884864, "53": 0.07153861984685227, "54": 0.02706341152083894, "55": -0.09142225153487275, "56": 0.12972381622433835, "57": -0.09700338962694975, "58": 0.01644603851183683, "59": -0.1267953607306333, "6": 0.1392067442002445, "60": -0.020038105501292616, "61": -0.06470414690621154, "62": -0.14750591465250795, "63": -0.05713489494015378, "64": 0.17340556226403492, "65": -0.1449545522773659, "66": -0.11391299589144761, "67": -0.060983200076068986, "68": -0.10414042792466875, "69": -0.04095476501516418, "7": 0.08073205132882393, "70": -0.18523804582029643, "71": -0.1524438170745892, "72": 0.18663922089255897, "73": -0.16993482795911088, "74": -0.043486871654187256, "75": -0.09271913127616478, "76": -0.06672831469442601, "77": -0.012579243563156558, "78": -0.19334798909174702, "79": -0.001292745945110765, "8": -0.00991255145666807, "80": -0.16979238869328706, "81": -0.02145588253807365, "82": -0.055864756492234366, "83": 0.23051969160492758, "84": 0.116247123845799, "85": 0.02446869573939463, "86": -0.015021235915034677, "87": 0.07313648970927157, "88": 0.09236837791780526, "89": -0.26285512653467624, "9": -0.0964540609126458, "90": 0.06947464959109864, "91": -0.12230492241498439, "92": 0.1532213614837748, "93": 0.13156330738206112, "94": -0.11743464332689288, "95": -0.024186348525315204, "96": -0.18187850254028592, "97": -0.10242705179586449, "98": 0.09379424639429024, "99": 0.12507438369734888}}, {"depth": 16, "sx": 5, "sy": 5, "w": {"0": -0.19878380720132074, "1": 0.21185494838154367, "10": 0.17478042299561744, "100": 0.13065373538343747, "101": -0.01743710737977081, "102": 0.17600610959163687, "103": 0.156098904731434, "104": -0.07364229498817808, "105": -0.0073059014328652454, "106": 0.060012531631614345, "107": -0.04554364261612694, "108": 0.018755762874272826, "109": -0.06882591466525093, "11": -0.03329174443795566, "110": 0.15179846765147978, "111": -0.06449775864571357, "112": -0.3410963888334357, "113": -0.08208252054866912, "114": 0.1786665878207879, "115": 0.03405993381153016, "116": 0.11853069754334356, "117": 0.016285516909858324, "118": 0.029447586936707803, "119": 0.21345770718794618, "12": -0.06817639779515985, "120": -0.054489453567090985, "121": 0.021562505076562787, "122": -0.0359751831687407, "123": -0.002956815541025862, "124": -0.005125580637811681, "125": 0.02183227244728915, "126": 0.11416157470070443, "127": -0.07555894497808459, "128": -0.37537265378093004, "129": -0.13424527706952105, "13": 0.04966924321785068, "130": 0.07119345440549324, "131": 0.12580983046343402, "132": -0.0029523971055222696, "133": -0.01116272876031788, "134": -0.13748953366127376, "135": 0.09417520047106291, "136": 0.06859950106021515, "137": -0.0014201994061841265, "138": -0.060392230754903305, "139": -0.014296141695108233, "14": 0.0139344765098995, "140": 0.06858487408449004, "141": 0.15419269317698286, "142": 0.1348450041236091, "143": -0.021512276818594946, "144": -0.31455268166854866, "145": -0.010339039427733092, "146": -0.16737994260988606, "147": 0.046955740183283974, "148": -0.07964256696095265, "149": 0.09654473015481728, "15": -0.02725088297780517, "150": 0.09928290952629691, "151": 0.003046952681174539, "152": 0.13681534373083357, "153": -0.1535493509055705, "154": -0.11561711879539657, "155": -0.12989773768601717, "156": -0.04298387017768722, "157": 0.08869289846114568, "158": -0.02078480845040304, "159": -0.009435393434186508, "16": -0.14381409869670675, "160": -0.22661943507457727, "161": 0.13834991709040675, "162": 0.13201322210922647, "163": 0.19097761583009112, "164": 0.12919292583059888, "165": 0.19784557796892516, "166": 0.014221892425395464, "167": 0.10268919421333503, "168": 0.06232707508974446, "169": 0.07463661810641775, "17": 0.04094243963142375, "170": 0.019256626423334276, "171": 0.14139431190980287, "172": -0.025434115521009056, "173": -0.23711671913205892, "174": 0.015642743526298023, "175": 0.1075292086463271, "176": -0.2513608462729457, "177": 0.09287583803754722, "178": 0.07249848324272776, "179": 0.13666121111289553, "18": 0.17451520295016373, "180": 0.15001346217630473, "181": 0.01872509309065145, "182": 0.01252014413535827, "183": 0.09628718763049415, "184": 0.010862908734497361, "185": 0.01577754793544797, "186": 0.023979584405087042, "187": 0.06409444318211144, "188": 0.20024421692758848, "189": -0.10093127906369871, "19": 0.16520841560711894, "190": -0.018010933659875338, "191": 0.09175854144870531, "192": -0.4556204092364563, "193": -0.08621758733876564, "194": 0.14119412867767117, "195": 0.03880862848827256, "196": 0.15586067909290968, "197": -0.04158140082074147, "198": -0.11688692410333658, "199": 0.07115242780944483, "2": 0.10301752002735313, "20": 0.03683293865035977, "200": 0.0966239738149165, "201": -0.010753511987039634, "202": 0.06945416350180085, "203": 0.017274688756189694, "204": -0.04910404913883553, "205": 0.08877715617232022, "206": -0.036152504345820805, "207": 0.03726787492985925, "208": -0.43621909405161297, "209": -0.24797400418082938, "21": 0.06770851771099318, "210": 0.056731054234486676, "211": 0.055310902670420076, "212": 0.0812881626605355, "213": 0.07359631728368445, "214": -0.13008029228395884, "215": 0.031169841463319446, "216": 0.01864965113350748, "217": 0.021676798940969966, "218": 0.06680249024620351, "219": 0.005528778379894366, "22": 0.27711926818665794, "220": -0.034207289604686365, "221": 0.1601282932399685, "222": -0.0025777346257270656, "223": 0.022956435702845352, "224": -0.2769812172822278, "225": -0.165593854190954, "226": -0.13308701093718756, "227": -0.0016935228836792598, "228": -0.010497653580995957, "229": 0.005268600808129492, "23": 0.15067545326430423, "230": -0.08634315935942616, "231": -0.05870850869195102, "232": -0.0312503592160182, "233": -0.0654646416425107, "234": 0.006452804367115232, "235": -0.10895336716734777, "236": -0.08064975159999838, "237": 0.07924113285306458, "238": 0.04989538989788474, "239": -0.07050325912093784, "24": -0.12749319048765095, "240": -0.11737898674785087, "241": 0.17555340500066946, "242": 0.03905245465989779, "243": -0.007263475973219958, "244": 0.1033888270761598, "245": -0.007147774025310158, "246": -0.017425274735918025, "247": -0.08251208140968246, "248": 0.20211629105023865, "249": -0.030027599673999494, "25": 0.04976545193236962, "250": 0.1806272083307627, "251": 0.1450239359121014, "252": 0.0205990567325624, "253": -0.283104630508004, "254": -0.0438300128169249, "255": 0.2698635918406706, "256": -0.20707593068498809, "257": 0.13473252176666323, "258": -0.019834538857140444, "259": 0.0361287968306633, "26": -0.043779490349835, "260": -0.029723313486819895, "261": -0.0708292229895096, "262": -0.037506248549655126, "263": -0.08321500195563684, "264": 0.030358785818525004, "265": -0.09931528955259263, "266": 0.007767610688053244, "267": -0.08826715918842945, "268": -0.02531519680775627, "269": 0.0018697977568289182, "27": 0.028500640854569312, "270": 0.01597910743911645, "271": 0.1631353779833086, "272": -0.21410284354261894, "273": -0.007638141031687458, "274": -0.019800744584640706, "275": -0.1969763364084918, "276": -0.011034356529263871, "277": -0.0459855854816565, "278": -0.06521387511978932, "279": -0.14495523558773232, "28": -0.05712640948738818, "280": 0.031035697603042055, "281": -0.018522329672826653, "282": 0.02966167642610751, "283": -0.1215496365053835, "284": -0.09085781040369822, "285": 0.026734644073627935, "286": -0.01739262242076559, "287": 0.042583390314593746, "288": -0.2533925872110394, "289": -0.0852355986630368, "29": -0.028118610504801245, "290": 0.0504064898657, "291": -0.05113052741345429, "292": -0.05573181198566896, "293": -0.028810842561035336, "294": -0.12772103297267398, "295": -0.23942076083402108, "296": 0.018354307424834668, "297": 0.016508772894181335, "298": 0.12463313111475223, "299": -0.1471591334946554, "3": -0.03836483439715742, "30": 0.011256293022173139, "300": -0.06186849265236123, "301": 0.12384348026881967, "302": -0.07723831561726373, "303": 0.03228324085943452, "304": -0.14529514452989287, "305": -0.14681016501871424, "306": 0.06924542212258004, "307": -0.11979914628753612, "308": -0.06655189606649459, "309": -0.10631574209927717, "31": -0.06190042828142365, "310": -0.19707332879944725, "311": -0.13873534254474568, "312": -0.02544135123752623, "313": 0.028724992452433214, "314": -0.008016663197114804, "315": 0.038557591854937526, "316": -0.09946400825051081, "317": 0.128958227387116, "318": -0.1246996682062824, "319": -0.0723976389896657, "32": -0.1797781794692856, "320": 0.017257019261389832, "321": 0.07383986919497737, "322": -0.00411121746089414, "323": -0.011409821021697885, "324": 0.055396878120921575, "325": 0.029684832675875385, "326": 0.009029802487084754, "327": 0.06471671220364995, "328": 0.17081343445392172, "329": 0.06203431228707879, "33": 0.03772948583514288, "330": 0.0917841502379792, "331": 0.007013580538125561, "332": -0.0741187875403541, "333": -0.24210955737181056, "334": 0.0052742420680734125, "335": 0.0982651718279416, "336": -0.15328921761401218, "337": 