{"data": {"layers": [{"layer_type": "input", "out_depth": 3, "out_sx": 32, "out_sy": 32}, {"biases": {"depth": 16, "sx": 1, "sy": 1, "w": {"0": -0.2946119387412372, "1": -0.2536102393758678, "10": 0.0245947254662982, "11": -0.192386463022084, "12": -0.05195576382734901, "13": -0.21027464051032488, "14": -0.0576371213105143, "15": -0.18393883910365716, "2": -0.27741844901461166, "3": -0.18542545292973472, "4": -0.30803975775021847, "5": -0.12374782085381722, "6": -0.1078786756889588, "7": -0.2448793930300301, "8": -0.15793807249648517, "9": -0.24442249092378196}}, "filters": [{"depth": 3, "sx": 5, "sy": 5, "w": {"0": -0.02133937085159404, "1": 0.08780854139185128, "10": 0.05949626752271321, "11": 0.08783850362430093, "12": 0.19865900723602323, "13": -0.06536324622176873, "14": 0.024894319553892597, "15": 0.08878554601618643, "16": -0.060382326738593284, "17": -0.13720961670806056, "18": 0.1760010716532584, "19": 0.06828414782204864, "2": 0.07489707486503006, "20": -0.05324769488846132, "21": 0.07482467861887163, "22": 0.05103910972823747, "23": -0.13822741029834684, "24": 0.11031528886607352, "25": 0.0335040757227341, "26": -0.10272903667520047, "27": -0.07646500404100708, "28": 0.037815286480030116, "29": -0.08398328089021025, "3": -0.04614328233601806, "30": 0.04150708170016045, "31": -0.055641336512551653, "32": 0.022271881518016904, "33": 0.2340305744799709, "34": -0.09993800915415273, "35": -0.24133937057885121, "36": -0.1464220285962913, "37": 0.08582161830178345, "38": -0.1537747656008286, "39": 0.01435225845476419, "4": 0.016862486329624393, "40": 0.09883819312480056, "41": -0.03324292911663702, "42": 0.04761243931074928, "43": -0.04773812316319149, "44": -0.02695575244348278, "45": 0.23236155238033082, "46": 0.09884928494300674, "47": -0.1739266138539352, "48": 0.1401072374212196, "49": -0.0516340959686573, "5": 0.025700745939223696, "50": 0.0029339627455178723, "51": 0.18744361597881762, "52": 0.14807727765617695, "53": -0.04961070043753739, "54": 0.08668652280093911, "55": -0.08156192051301664, "56": -0.10265686101635961, "57": 0.01542867210156434, "58": 0.19210714988176997, "59": -0.07452975107267634, "6": -0.02380293528334321, "60": -0.055088296763182935, "61": -0.09903266670491864, "62": 0.17549965337015333, "63": 0.09734130578560554, "64": 0.06682029136391104, "65": -0.16140404468912525, "66": 0.06227452973492051, "67": 0.03139169560914633, "68": -0.3219347596275348, "69": 0.033667057926290225, "7": -0.04082016609453794, "70": 0.024561674119453945, "71": -0.14241598543985343, "72": -0.1254648122441616, "73": -0.16066330411128318, "74": -0.1847498544886684, "8": 0.09073464866014934, "9": -0.03699606342467401}}, {"depth": 3, "sx": 5, "sy": 5, "w": {"0": 0.0835518007748807, "1": 0.15384353653693003, "10": -0.16097403745461272, "11": -0.3098692257968101, "12": 0.08864639577145113, "13": 0.07161812700368467, "14": -0.09554161343657329, "15": 0.22927379240755252, "16": -0.07839868266715427, "17": 0.1274407207881834, "18": 0.10505506361168852, "19": -0.2615549978892527, "2": -0.020660543491692544, "20": 0.04862367298691766, "21": -0.03810005463142776, "22": -0.4981272485898239, "23": -0.3404415302526082, "24": -0.11033464126426792, "25": -0.14314181854173405, "26": -0.09911797171166507, "27": 0.05408414639241847, "28": 0.07448853698865278, "29": -0.029981428287592163, "3": 0.3432064947731422, "30": 0.275612315766623, "31": 0.029864980777287744, "32": 0.21047471932247583, "33": -0.13590079271444322, "34": -0.2803762695588798, "35": -0.07303922074567132, "36": 0.06727110730884528, "37": -0.05405166558510384, "38": -0.10982803651368074, "39": 0.13480829914462408, "4": -0.08203051853694013, "40": 0.0079881599678478, "41": 0.14371823779636253, "42": 0.08191241559067686, "43": 0.011830111956343248, "44": -0.1948984648344049, "45": 0.08653860876899659, "46": 0.07267330491248371, "47": -0.02136115586104743, "48": 0.02390914019146163, "49": -0.30264473970922356, "5": -0.030408989442981066, "50": -0.22980850953272264, "51": 0.13079868375762072, "52": -0.18069970927963047, "53": 0.049805294913969324, "54": 0.08110472219379469, "55": 0.07320446456614665, "56": 0.14529082861504664, "57": 0.13882156933001064, "58": 0.022646432371201283, "59": 0.10464464742256714, "6": -0.09560257793039295, "60": 0.051288452864457365, "61": -0.06950792630552738, "62": -0.09859116165532625, "63": -0.047439663805596756, "64": -0.1050300966932604, "65": -0.1377868974299357, "66": 0.08025276162824573, "67": -0.21753777981297093, "68": -0.00531942930313083, "69": 0.11394535652976562, "7": -0.18744081682009456, "70": -0.14430434329256533, "71": -0.0662411437918526, "72": -0.034930403786371335, "73": -0.08480672053712282, "74": -0.0045486099204876005, "8": 0.07524699937083523, "9": 0.041236556750937146}}, {"depth": 3, "sx": 5, "sy": 5, "w": {"0": 0.03590485669985286, "1": 0.027926046550233747, "10": 0.13410577270954746, "11": 0.11790826815115787, "12": 0.032422598531129686, "13": 0.07778776128899192, "14": 0.05340903645643543, "15": 0.12174602665193619, "16": -0.040587718504622845, "17": -0.20628467497990055, "18": -0.18232158793349118, "19": 0.10287053901596553, "2": -0.08323851071778013, "20": -0.1911331628324729, "21": -0.07388761299645435, "22": -0.07199963877379731, "23": -0.169909496281664, "24": 0.10269566706429044, "25": 0.1657288587948878, "26": -0.12156053145000398, "27": -0.025563030958171244, "28": 0.09466747269460353, "29": 0.05224246033558265, "3": 0.10730610886171119, "30": 0.0050999504064520845, "31": -0.006293072928444912, "32": 0.19208662175095023, "33": -0.06186445207986589, "34": 0.24502222993815337, "35": -0.12890155120410143, "36": 0.06349380425688063, "37": -0.1175022568773089, "38": -0.12652370408552588, "39": -0.06681624336317059, "4": -0.0634597183130232, "40": 0.07075259699297233, "41": -0.07441618840153544, "42": -0.10065268089699107, "43": -0.11168400830261814, "44": -0.0860765461500624, "45": 0.029423691027704868, "46": -0.037618680210380395, "47": 0.09163081268548576, "48": 0.2381515239921185, "49": 0.11140843593802681, "5": -0.07867135641802428, "50": -0.13402031095873862, "51": -0.22246057037162884, "52": -0.09151457582851016, "53": -0.0925990318303578, "54": -0.08422339124029704, "55": 0.07845703622944, "56": 0.09565368576492886, "57": 0.17544163046174013, "58": -0.11909313685755446, "59": -0.07715999480149321, "6": -0.11853159463999478, "60": 0.05404062909094261, "61": -0.03419466001583316, "62": 0.05354348066808443, "63": 0.01626406931999076, "64": 0.09615654588204642, "65": -0.027070690065057933, "66": -0.025698699992560595, "67": 0.10586897974826799, "68": -0.12663769108741432, "69": 0.1094519015360316, "7": -0.16804800337548664, "70": -0.20816749261764556, "71": -0.008098036494993173, "72": -0.01256563438307867, "73": -0.031566275903977335, "74": -0.15996161678394613, "8": 0.02185208106315131, "9": 0.23295986588181583}}, {"depth": 3, "sx": 5, "sy": 5, "w": {"0": -0.07487757439551009, "1": 0.1999157575396814, "10": -0.015325741809972614, "11": 0.056060652932174916, "12": 0.14719935907407128, "13": -0.06702565670043407, "14": -0.12361395573903451, "15": -0.025889958274495573, "16": 0.08366978959531148, "17": 0.038936457279303845, "18": 0.07146250011727676, "19": 0.15479134285508866, "2": 0.0567256081561578, "20": 0.12390920830723522, "21": 0.1688541637798613, "22": 0.03960482335381139, "23": 0.22268570251136577, "24": 0.09900586684036977, "25": 0.06005409029646977, "26": 0.1499365807986091, "27": -0.10391167544722839, "28": 0.20224161786841352, "29": 0.11132283143278028, "3": 0.04161711182498451, "30": -0.11705494368076204, "31": -0.08949848441523513, "32": 0.03998817514408299, "33": -0.14611663559471066, "34": 0.009002254358114917, "35": -0.010198364030314346, "36": -0.2750030614718089, "37": -0.03012385661799365, "38": -0.01926016166000549, "39": 0.004188390233593818, "4": 0.12758930355826872, "40": 0.054352543066291864, "41": -0.14913152236999117, "42": 0.2343822438956951, "43": 0.07656852405713538, "44": 0.1159209593725213, "45": 0.08736970096556708, "46": 0.095272593054423, "47": 0.28911333974645403, "48": 0.055479493768433044, "49": 0.04402981435610229, "5": 0.14048552872873396, "50": -0.0052854106204975795, "51": -0.011204528165372011, "52": 0.13126215678814906, "53": 0.031612546213651345, "54": -0.13570369705714647, "55": -0.104818097993167, "56": 0.10516592681945047, "57": -0.17548173104044332, "58": -0.1092443201922175, "59": -0.08111938194697861, "6": 0.09216440006468589, "60": -0.14580943111665248, "61": -0.2687794995750446, "62": -0.0640484666301102, "63": -0.06427740782646084, "64": -0.11915191650585848, "65": -0.06678850635218671, "66": -0.24020830988682534, "67": -0.028712623931105945, "68": -0.24411663111451856, "69": -0.1470989738007788, "7": 0.14486169374425256, "70": -0.1796124022292693, "71": -0.23689705608605768, "72": -0.40991024720239355, "73": -0.12760365241257218, "74": -0.24671899036412315, "8": 0.20777169544471932, "9": 0.06886347101912835}}, {"depth": 3, "sx": 5, "sy": 5, "w": {"0": -0.12707829076769261, "1": 0.028461639305909055, "10": 0.05908816923535055, "11": -0.09242942073885903, "12": 0.12031863322606656, "13": -0.04920968435135067, "14": 0.043691584137980924, "15": 0.009184963420218375, "16": -0.13781500066323418, "17": 0.14898628644628265, "18": 0.008326363909037555, "19": -0.17369014677219913, "2": -0.15014385241270717, "20": 0.08567634079807335, "21": 0.1523609753619054, "22": 0.08540731845886128, "23": -0.07156561028859479, "24": 0.05799729022211773, "25": 0.17260887611632944, "26": 0.07274655518187195, "27": -0.030314335806439812, "28": 0.012028725644493896, "29": 0.136718393478519, "3": 0.145348924083746, "30": -0.11819290405111843, "31": -0.014572823214731743, "32": -0.3220795511395466, "33": 0.007521394304410619, "34": -0.24431543244346843, "35": 0.20373779384054092, "36": 0.12363115337418454, "37": -0.1324512389789203, "38": -0.021635835262623738, "39": 0.09305676126255688, "4": -0.20597635072211107, "40": 0.09234091239212319, "41": -0.09426534350605571, "42": 0.10452590913424308, "43": -0.08026314377193652, "44": 0.15292888827901296, "45": 0.021079885591493666, "46": -0.22190626901204835, "47": 0.13776766857134767, "48": 0.10756232257478497, "49": -0.006973962332822816, "5": 0.03975949679131342, "50": 0.12213025578259094, "51": 0.191746625322197, "52": -0.061638973863331656, "53": -0.11070915935857238, "54": 0.1306935554070876, "55": 0.05738613225894831, "56": 0.0012634793897313991, "57": 0.07874216241124811, "58": 0.20543619078351874, "59": -0.004515051648462264, "6": 0.10680652189093004, "60": -0.11484696060602477, "61": -0.17842417205009103, "62": -0.009324243425835974, "63": -0.04677973552915461, "64": -0.14923158359207808, "65": 0.046272325796611655, "66": -0.055879637337436394, "67": -0.08625345944491535, "68": 0.11466515695108985, "69": -0.12107590459211205, "7": 0.05105867606931285, "70": -0.13353664287911868, "71": -0.10197239799304668, "72": 0.05012271446431719, "73": -0.0476161515808917, "74": -0.01823874839784545, "8": -0.04169389902625321, "9": 0.08572314441521757}}, {"depth": 3, "sx": 5, "sy": 5, "w": {"0": 0.17324995470720678, "1": -0.08112480692517991, "10": -0.3180698433741988, "11": 0.051016132749480636, "12": -0.032145619627869576, "13": -0.1278610398774991, "14": -0.014662265057650042, "15": -0.09864863667890751, "16": -0.20831018191130113, "17": 0.032386873177467274, "18": -0.12895184026533443, "19": -0.10313652879400402, "2": 0.16598703818314214, "20": -0.006922882043675891, "21": -0.018944205932683332, "22": -0.1187221762304485, "23": -0.14561766182550068, "24": -0.003851630909407341, "25": -0.03689192285527573, "26": 0.12219026230228444, "27": -0.09344383248744348, "28": -0.05458598253204118, "29": -0.0003788662898336515, "3": 0.006722760336169795, "30": -0.16841793379742512, "31": -0.09312790571921224, "32": 0.13035593151337543, "33": -0.03539283132545387, "34": -0.06916250166794334, "35": 0.24678209020480796, "36": 0.08073576127184175, "37": -0.15390237531832754, "38": 0.14624414586744264, "39": -0.24387238461869237, "4": 0.15031139342134842, "40": -0.00547383667030261, "41": 0.15852236114167065, "42": 0.041323697809946, "43": -0.04116088210601063, "44": -0.0015529413149060521, "45": 0.12470977455308846, "46": -0.14390251882416255, "47": 0.09840898254486123, "48": 0.143497523791787, "49": 0.017971897457498345, "5": 0.32899023444436365, "50": 0.0643693059976053, "51": -0.014873632807997752, "52": -0.2764935552199978, "53": 0.04231317653883375, "54": 0.20204997719986734, "55": -0.14720676178028042, "56": -0.1287082991340449, "57": 0.05426351233094274, "58": -0.13202994374700017, "59": -0.015377313063491112, "6": 0.09956512089350361, "60": -0.016642505338969566, "61": -0.1674665135609777, "62": 0.13559659349185096, "63": 0.13924525759713982, "64": -0.19269064724634807, "65": 0.08636910805068147, "66": 0.167145092466058, "67": -0.012144155633699865, "68": -0.13216736082357572, "69": -0.22769240288267809, "7": -0.18427285549045885, "70": -0.0588533093868659, "71": -0.0893962587357999, "72": -0.06165224125793359, "73": -0.14484735647849775, "74": -0.058215059567796094, "8": 0.20985684528092402, "9": 0.3130879874165219}}, {"depth": 3, "sx": 5, "sy": 5, "w": {"0": -0.096247849153069, "1": 0.23670605605663156, "10": 0.03900077091959333, "11": 0.0855420720578377, "12": 0.2461347398392497, "13": 0.26043620058852146, "14": 0.2273972514850533, "15": 0.09116893467141302, "16": 0.046046597880019656, "17": -0.17841572482935344, "18": -0.06465843591076603, "19": 0.05407758408473824, "2": 0.06833804450456334, "20": 0.21827132820774936, "21": -0.08908891117779481, "22": 0.11653890576621412, "23": -0.022144894605727845, "24": 0.030988083392592323, "25": -0.1943562512141605, "26": 0.11446078716173608, "27": -0.05620108206179875, "28": -0.2103732953753721, "29": 0.06222815784356396, "3": -0.019855695675871025, "30": -0.1641085857196133, "31": 0.07175555559619437, "32": 0.01231213708279181, "33": -0.15283054901474574, "34": -0.21081272432879933, "35": -0.06999656264983797, "36": -0.06504832573408, "37": -0.30802544448363545, "38": -0.07523202071354786, "39": -0.23491286028550368, "4": -0.045152999240565476, "40": 0.12118801690279585, "41": -0.07377522590665511, "42": 0.1264718324067751, "43": -0.12261444212752316, "44": 0.00841510019563092, "45": -0.19071934645434244, "46": 0.15585023551056348, "47": -0.04039721094189935, "48": -0.281390653837508, "49": -0.2135409671836488, "5": -0.04914986408948161, "50": 0.1540906465640058, "51": -0.1772041870198674, "52": -0.06871794764984246, "53": -0.019560523837777267, "54": -0.2191272538949405, "55": 0.07492359690088594, "56": -0.032590838858007336, "57": -0.10868484267034233, "58": -0.13040045611454604, "59": 0.07087191145763536, "6": 0.06433776827861039, "60": -0.12004028666961303, "61": 0.09500801044482869, "62": -0.1100176228291199, "63": 0.060050017816260334, "64": -0.007665536889839674, "65": 0.026310751030903187, "66": 0.1673556012779315, "67": 0.10245557907599395, "68": -0.000505884358179185, "69": -0.01881410874684197, "7": -0.015461201944411172, "70": 0.0066946141177616075, "71": 0.04729918554619013, "72": -0.042165554476152826, "73": 0.0011265833193890994, "74": 0.11059603719215154, "8": 0.18282502179025534, "9": -0.0442933993452674}}, {"depth": 3, "sx": 5, "sy": 5, "w": {"0": 0.3540910641306843, "1": 0.07416068488140527, "10": 0.0968230313572159, "11": 0.21717966298499797, "12": 0.41310125125857505, "13": -0.13120491725802166, "14": 0.30578933313092466, "15": 0.00042299832036062665, "16": -0.1380225985753777, "17": 0.18411842751765234, "18": 0.06778181887591184, "19": -0.19191559040377973, "2": -0.1931467692095662, "20": -0.11581937067746663, "21": 0.08914348334670578, "22": -0.14255162723962034, "23": 0.04885870249337206, "24": 0.2919616880672113, "25": -0.3568627230557646, "26": -0.010742259917920001, "27": -0.041397091652543176, "28": -0.2284141482410362, "29": -0.09398038478653853, "3": 0.5386195619674555, "30": -0.1039010801956503, "31": -0.17018266483409447, "32": 0.06541620146510002, "33": -0.39070977963516107, "34": -0.4181233719170626, "35": -0.09863367372230344, "36": -0.28358321187273383, "37": -0.21938201416411418, "38": -0.21104745510498216, "39": -0.2423037382136226, "4": 0.0024836846599995558, "40": -0.24203315669647146, "41": -0.2138270453205106, "42": -0.1108708898033393, "43": -0.06954684792555534, "44": -0.04800316907056897, "45": 0.08290949425507411, "46": 0.005701549066117783, "47": 0.19986319591828733, "48": -0.1036909726733853, "49": 0.1162861777013455, "5": 0.04659597960990726, "50": 0.3337586454649512, "51": -0.03432547414733361, "52": -0.013006464276836535, "53": 0.12407302598485959, "54": -0.07571223779893499, "55": -0.0640648510233172, "56": 0.09829166388051794, "57": -0.23439031744764324, "58": 0.12872170279529413, "59": -0.04430650090430453, "6": 0.3572660460800402, "60": 0.03528472605434193, "61": 0.03268606226326797, "62": 0.1658899310206957, "63": -0.18419838525694013, "64": 0.13395949368999235, "65": 0.1787568327186318, "66": 0.036980983043706214, "67": 0.18056209268347467, "68": 0.31165024299508687, "69": -0.049682604484186724, "7": -0.1171957822520604, "70": 0.2572245340526218, "71": 0.23805478374602618, "72": -0.10459347749437391, "73": 0.11989322418863561, "74": 0.26609720264591663, "8": -0.06785767437230723, "9": 0.27518005486264624}}, {"depth": 3, "sx": 5, "sy": 5, "w": {"0": -0.11840562145056155, "1": -0.05260359262991964, "10": 0.1470847780328226, "11": 0.14743641584583225, "12": 0.08952312272969647, "13": 0.16517439618820154, "14": 0.16437927557524806, "15": -0.03318516067632753, "16": 0.23405270460305583, "17": 0.029777106337654752, "18": 0.11060369466590347, "19": -0.0009599954621513794, "2": -0.07593278428659285, "20": 0.06668763845158064, "21": -0.32363351193284845, "22": 0.006812568669007576, "23": 0.0874089434529074, "24": 0.03648559411382828, "25": 0.1196306364249132, "26": -0.15475507746196102, "27": 0.2605260237458655, "28": -0.00930660218078407, "29": 0.029836564841076024, "3": -0.09730126669078026, "30": -0.08067436034418324, "31": -0.03111343648418116, "32": -0.05647665770939103, "33": 0.1049315969112182, "34": 0.08823183975887092, "35": 0.10983023265367942, "36": -0.21895058139385698, "37": -0.2353688378485558, "38": 0.014894952060270318, "39": -0.3752639735946436, "4": -0.15089882146482228, "40": -0.20102938910902599, "41": -0.18665478953153822, "42": -0.036727597848742216, "43": 0.03001325933154853, "44": 0.0053250612018384625, "45": 0.0998956025183318, "46": 0.25482464915778497, "47": 0.022943912765858443, "48": 0.21162313834492222, "49": 0.18036980486657947, "5": -0.21902989533324088, "50": -0.09878790179953732, "51": -0.1286226748371226, "52": 0.04431596450599573, "53": -0.04999197089724186, "54": -0.011043518491030531, "55": -0.15478473798861309, "56": -0.06965842566759196, "57": -0.09399208964025776, "58": -0.157649942639154, "59": -0.032163259685059405, "6": -0.14514747901064146, "60": -0.058706497461401094, "61": 0.20046932436518644, "62": 0.059890459661894935, "63": 0.05081593813070805, "64": 0.11338582687767126, "65": -0.1296240222342467, "66": -0.09302435874949591, "67": 0.0500384090705118, "68": -0.1524207655086842, "69": 0.10821892565147456, "7": -0.14263592457584845, "70": 0.051442572880937856, "71": 0.024717037037927533, "72": 0.010121978104771013, "73": -0.09998893175876895, "74": -0.0366080537236741, "8": -0.1008402926293222, "9": -0.06611981659062927}}, {"depth": 3, "sx": 5, "sy": 5, "w": {"0": -0.14555831127506683, "1": -0.022318199350309806, "10": -0.08674235636622195, "11": -0.09051579444670352, "12": 0.2624323702716728, "13": 0.11464353130553916, "14": 0.23248635395251938, "15": 0.01848106499434036, "16": -0.20306011037065358, "17": -0.04628116428152917, "18": 0.12735658490398433, "19": -0.04247070941772995, "2": -0.10492099887509952, "20": -0.1135127032382288, "21": -0.24980029701578274, "22": -0.14600091316598918, "23": 0.04879538115824735, "24": -0.0838337415613687, "25": -0.19520110580908573, "26": 0.014752029261756056, "27": 0.24390035537444998, "28": -0.1311282505081268, "29": 0.0954622699112789, "3": -0.06674570555816114, "30": -0.04055906869769942, "31": -0.07086819140525555, "32": 0.3981287091024027, "33": -0.2848967917579921, "34": 0.033049514466052164, "35": -0.15721677362251055, "36": 0.06601494142072563, "37": 0.06565730755609123, "38": 0.1367159169223133, "39": -0.3891399332672928, "4": -0.08115848288759976, "40": -0.06296172657336965, "41": -0.1256169320968217, "42": -0.1571826063442079, "43": -0.16386453529335174, "44": -0.27758713617187764, "45": 0.15381395533065276, "46": 0.10777109927198755, "47": 0.31006377011775865, "48": -0.11910548639132117, "49": 0.07611854100764351, "5": 0.005799644850945189, "50": 0.05954506990740818, "51": -0.051179902748357715, "52": -0.13245611274989488, "53": 0.09072734818790656, "54": -0.26495601085480147, "55": -0.029042980466301556, "56": 0.059838418170384454, "57": -0.09880064089504104, "58": -0.18693241089623236, "59": -0.08913089834806044, "6": -0.2648642757279646, "60": 0.20584298774761944, "61": 0.042578756391986744, "62": 0.04760497880178205, "63": -0.165917653879313, "64": 0.04384161180676295, "65": 0.06205594169534719, "66": 0.00506605227912887, "67": 0.01212120416794928, "68": 0.1644993785168601, "69": 0.07644889748976098, "7": 0.12508145215900182, "70": -0.029133726803560862, "71": 0.03043660225176391, "72": 0.01935467937610847, "73": -0.06779267142736962, "74": 0.16761468612573321, "8": 0.03685756717232422, "9": -0.08588278250123661}}, {"depth": 3, "sx": 5, "sy": 5, "w": {"0": -0.06847559539005567, "1": -0.24607028629199823, "10": 0.023140419224379837, "11": 0.09154419606538076, "12": -0.2847536534237252, "13": -0.05209453473310804, "14": -0.44616162976013407, "15": 0.05210558764981141, "16": -0.10047661258309622, "17": -0.11912763261675267, "18": 0.12596118211794485, "19": -0.149292345351652, "2": -0.29726525759266503, "20": 0.10983357886965349, "21": 0.1926131573165611, "22": 0.18979645130134812, "23": -0.21722777308878718, "24": 0.0074211866961835585, "25": 0.13297603155315568, "26": -0.002519637094199616, "27": -0.274848158092708, "28": -0.11428244943853426, "29": -0.4016429267103765, "3": -0.17662918947781572, "30": -0.13591457842853977, "31": -0.08422523222916199, "32": -0.1239883675043166, "33": 0.03692863222624419, "34": 0.20697188488352494, "35": 0.22144062206687548, "36": -0.12049953819087873, "37": 0.07945008672819213, "38": -0.017651379642703562, "39": 0.2309843141641528, "4": 0.19643845077566818, "40": 0.081241279006015, "41": 0.062290015565015386, "42": 0.01943740095257552, "43": 0.09652558061530007, "44": -0.200869471492695, "45": -0.11240091516563441, "46": 0.2410597481043337, "47": 0.04090879279002446, "48": -0.10692417647429156, "49": 0.06763690909150404, "5": 0.04326165365221541, "50": -0.25594088332143805, "51": -0.07779342617656133, "52": -0.009474256769796687, "53": -0.17798325116070213, "54": -0.02980464607025116, "55": 0.13149176288320158, "56": -0.019706858337508504, "57": -0.033006297222957164, "58": -0.0030072121226767906, "59": -0.1369084071797387, "6": 0.28025461208159386, "60": 0.037873076219787624, "61": 0.230647287465713, "62": -0.0010495925138866023, "63": -0.04711235049505662, "64": -0.025033822904661024, "65": -0.12816689660911457, "66": 0.007431679405387569, "67": 0.24405366154477093, "68": 0.03275463083716024, "69": 0.11512726782850326, "7": 0.04007481594575625, "70": 0.06651526840806823, "71": -0.18557925438131873, "72": 0.07547927351148587, "73": 0.15760405494278124, "74": -0.0035044061633751687, "8": 0.16741894345921904, "9": 0.077207667191242}}, {"depth": 3, "sx": 5, "sy": 5, "w": {"0": 0.11194104091270095, "1": -0.34454820218480786, "10": -0.021193858691296672, "11": -0.08603935050130947, "12": 0.011348802609358036, "13": -0.17560851813049505, "14": 0.012286365478423279, "15": 0.024306852387735965, "16": -0.15292525721760536, "17": -0.11071164014029097, "18": -0.07856474057900312, "19": -0.10476171393217969, "2": -0.015792377538203457, "20": 0.17429123627610563, "21": 0.0778997749115612, "22": -0.19224567463818132, "23": -0.04499476470390576, "24": 0.1895751994452133, "25": -0.0962637808709395, "26": -0.04085660182884621, "27": 0.08744782909189935, "28": 0.06757164479912157, "29": 0.022037779753749848, "3": 0.1867511854655189, "30": -0.12735393420938282, "31": -0.2685537851033539, "32": -0.18842166222078374, "33": 0.048117355741482605, "34": -0.04872511040864947, "35": -0.06832453048606743, "36": 0.029734749919357536, "37": -0.22995946299462858, "38": -0.10245486538893367, "39": 0.19505536199728532, "4": -0.04675248239396584, "40": 0.23391841919654724, "41": -0.08421644062369331, "42": 0.08128907953193193, "43": 0.1430142237340053, "44": 0.08010238391929218, "45": 0.019749715570899624, "46": -0.1959321093411321, "47": 0.15863943848424214, "48": -0.14911979779515427, "49": -0.36430877838376385, "5": -0.11693785230642396, "50": -0.08577544903253434, "51": -0.06170277647723424, "52": -0.1728194501584123, "53": -0.09877567472798819, "54": 0.11464209158114091, "55": 0.28211159451746837, "56": -0.1639610064970916, "57": 0.4461263723634296, "58": 0.14512143765717475, "59": 0.33086517879087646, "6": -0.028553508753376526, "60": 0.08696426427011703, "61": 0.10864742220956951, "62": -0.028446633603562706, "63": -0.06820155231956519, "64": -0.19538410655249516, "65": -0.18696129389024801, "66": -0.14153817244433278, "67": -0.3295606459995489, "68": -0.23900745057528996, "69": 0.13959339946621674, "7": -0.27639252755554067, "70": -0.14178087030357095, "71": 0.057791745283249124, "72": 0.09348869441984857, "73": 0.15169783658593333, "74": 0.3090742391265202, "8": -0.2342503119356966, "9": 0.325503717155548}}, {"depth": 3, "sx": 5, "sy": 5, "w": {"0": -0.27621377001022795, "1": -0.0029616592563813495, "10": -0.10292767947060598, "11": -0.013887115504076548, "12": -0.07957976309454821, "13": 0.003124343018335366, "14": -0.05839814259715376, "15": -0.1533720964551383, "16": -0.14909069597236485, "17": -0.06660779234196963, "18": -0.16341259476118875, "19": -0.00015252442138734073, "2": 0.273753554171533, "20": 0.2346613460027711, "21": -0.10464094223377193, "22": 0.060533241207914534, "23": -0.01791902676215613, "24": 0.016935320071022386, "25": -0.17469194163908275, "26": 0.014350024272246208, "27": -0.04067440026645884, "28": -0.036391635478156506, "29": 0.011056973617744248, "3": -0.17773478227289713, "30": -0.22843362747477874, "31": 0.16223988959338576, "32": -0.07417696507648223, "33": 0.041837493953547994, "34": -0.2523286763094426, "35": 0.07033309983971799, "36": 0.0025389245583370954, "37": -0.08918845457355738, "38": -0.029851120678870566, "39": -0.3308000949197796, "4": -0.15943077622820045, "40": 0.1171391013406757, "41": 0.10306038700974103, "42": -0.12531507688273927, "43": 0.01606063598974668, "44": 0.14018843881888773, "45": -0.04849141762607921, "46": 0.13615286687908268, "47": 0.028376745614569415, "48": -0.1790222130086073, "49": 0.055232650710052414, "5": -0.16082986912545516, "50": 0.2919324341355173, "51": 0.05153028957403305, "52": 0.10265143897463647, "53": 0.20481470524087234, "54": 0.02985301526243539, "55": 0.03402440595785155, "56": 0.1905180408290653, "57": -0.08933806343966556, "58": -0.01969934567134978, "59": 0.264325731747496, "6": -0.1345267033624884, "60": 0.20463083388407816, "61": 0.1110959434456201, "62": -0.043768454778603263, "63": 0.011420311023867542, "64": -0.1529782115651899, "65": -0.044071226570333355, "66": -0.24986163424405314, "67": 0.01559162688062356, "68": -0.19103777903831107, "69": -0.19205921561295375, "7": -0.017769631765929873, "70": -0.012525784629166765, "71": 0.17702343636143175, "72": -0.18678037619218832, "73": -0.16750422287763078, "74": 0.22386455181089673, "8": -0.2263206812164298, "9": -0.08401538707474185}}, {"depth": 3, "sx": 5, "sy": 5, "w": {"0": -0.052519554019217644, "1": -0.10541349755963085, "10": 0.009161543283562296, "11": -0.14158518381782056, "12": -0.058931464292102914, "13": 0.17212803157816495, "14": 0.18510021108308625, "15": -0.3295549775567337, "16": -0.17662452814370355, "17": -0.19532884637363104, "18": -0.2263897096150431, "19": -0.05689829031179726, "2": -0.11570830461526499, "20": -0.13817706969270016, "21": -0.060284020594185236, "22": -0.042737893834745966, "23": 0.04274180211982319, "24": -0.13561578913326874, "25": 0.0054692097914749785, "26": 0.09130491292589644, "27": 0.13764024718486784, "28": -0.07061681372909566, "29": 0.032014792721102824, "3": 0.013733550854519053, "30": -0.32900167449206646, "31": -0.13574628200991895, "32": -0.2899305668283182, "33": -0.18242626300223885, "34": 0.10854453043839428, "35": -0.13016302356898962, "36": 0.0809336583150811, "37": 0.07041097384708032, "38": 0.11901322722372015, "39": -0.03805281759655496, "4": -0.062362718187891686, "40": -0.005618242813194689, "41": -0.0012396895344853804, "42": 0.08182403191507452, "43": 0.23291608200508102, "44": 0.24249186539209577, "45": -0.30625043591381695, "46": -0.11137059940974685, "47": -0.15421696174446317, "48": 0.1279107806837276, "49": -0.15009287539109792, "5": -0.23307088650412985, "50": 0.02810257272203836, "51": 0.10074752745957835, "52": 0.21653462929021963, "53": 0.1208228889068874, "54": 0.11626875314359485, "55": 0.13007855546732305, "56": 0.034846225287757174, "57": 0.08985744205713787, "58": -0.050657809821894835, "59": 0.06340267543032319, "6": -0.031011551223087547, "60": -0.014172344291171066, "61": 0.1291154560349837, "62": 0.22685855150215808, "63": -0.0167117286310668, "64": -0.09569007190706559, "65": 0.12833955032391234, "66": 0.06426533174796199, "67": 0.026680744297100434, "68": -0.02453072529385664, "69": -0.07923691959145172, "7": -0.05895551490165955, "70": 0.06809661773681316, "71": 0.08711335360365852, "72": 0.05484833932988418, "73": 0.2742248610259603, "74": -0.004781197902289643, "8": -0.012499149947328526, "9": -0.08204249044400933}}, {"depth": 3, "sx": 5, "sy": 5, "w": {"0": 0.0174438019926125, "1": 0.12583331497351946, "10": -0.00597200025881612, "11": -0.09567906809863017, "12": -0.1438474425337865, "13": 0.16110062506293846, "14": 0.0100017368617441, "15": 0.0081521673400328, "16": -0.024259540526731776, "17": -0.06595032852000819, "18": -0.11218685902158862, "19": 0.09900089108364898, "2": -0.07886300818430311, "20": -0.01820888866236798, "21": -0.1497810314234569, "22": -0.007350563802001701, "23": -0.11879692660625427, "24": 0.16838246555155495, "25": 0.04987535671995695, "26": 0.17699101187098898, "27": 0.16193529024696515, "28": 0.0715534441272114, "29": -0.16559848264643978, "3": 0.10517354392196206, "30": -0.24722476704326976, "31": 0.2848478785209441, "32": -0.09951149989951776, "33": 0.03815040247756508, "34": 0.03163816961664183, "35": -0.05291037311284516, "36": -0.13206594645494435, "37": 0.0526609642562653, "38": -0.1320327286338822, "39": 0.027970092622327553, "4": 0.10951737352095431, "40": 0.018560016879442007, "41": 0.0063089153542801165, "42": 0.17545861728667356, "43": 0.044630792286835384, "44": 0.0336793147499859, "45": -0.00014359352835456324, "46": -0.039850739284082566, "47": 0.09795395534496355, "48": 0.24706874547299382, "49": 0.039461509848865164, "5": -0.2427783788552972, "50": -0.04536941793789223, "51": -0.06949837052034818, "52": 0.08466828303332413, "53": -0.1166793565891344, "54": 0.06725328819478206, "55": 0.19600458244302024, "56": -0.08430096532299097, "57": 0.013527473712226984, "58": 0.1407265211411271, "59": 0.021740722207580908, "6": -0.12458789112670667, "60": -0.043618437345515064, "61": 0.09085034336816107, "62": -0.13847837148872577, "63": -0.2998898189840987, "64": -0.017119182958759856, "65": -0.23339297468328188, "66": 0.15062616774395635, "67": 0.06269437681032827, "68": 0.0723583826123292, "69": -0.1446680155676241, "7": 0.04593641934944676, "70": 0.13352903825857715, "71": -0.021240859824896687, "72": -0.241208455934798, "73": -0.06894739368470074, "74": -0.03052367180764668, "8": -0.3233475651478186, "9": -0.02086792664168065}}, {"depth": 3, "sx": 5, "sy": 5, "w": {"0": 0.09662077265131759, "1": -0.07872542075336962, "10": -0.04546406305161648, "11": -0.06976819814724863, "12": -0.07406757226235794, "13": -0.29493036020116103, "14": -0.12171025203734777, "15": -0.06090500047078303, "16": -0.04310605662731338, "17": -0.10803608443315436, "18": 0.22489417958033306, "19": 0.03622043859286682, "2": -0.05123836389905149, "20": 0.08347526671420176, "21": 0.10027328378007291, "22": 0.20148589263236316, "23": 0.15035115698069262, "24": 0.0454679425750287, "25": -0.10391021104795767, "26": 0.018525210590006072, "27": -0.26299384652224983, "28": -0.3226117432947982, "29": -0.40205507777897037, "3": 0.44859337991851567, "30": 0.1439358612104608, "31": 0.16326014837493322, "32": 0.2431825323995128, "33": 0.023602389965377266, "34": -0.10664618957624117, "35": 0.06209112860772535, "36": 0.1752983500010144, "37": 0.28980209719197014, "38": 0.2847043068142285, "39": 0.09408138910868978, "4": -0.048617966570757114, "40": -0.11565614308482441, "41": -0.023263274152630204, "42": -0.22011858242308074, "43": -0.5091917865176789, "44": -0.23961111240056698, "45": -0.10905651018422823, "46": 0.05792098875233476, "47": 0.08917400741432455, "48": 0.080647557313746, "49": -0.07429606221142075, "5": 0.029067439329594005, "50": 0.05007660805149726, "51": 0.15207003365528415, "52": -0.022901808870045497, "53": 0.06342429424913743, "54": 0.04814484326050555, "55": -0.22927628720400417, "56": -0.008505120245891281, "57": -0.19992468831899737, "58": -0.33013523435127706, "59": -0.06049858767688588, "6": 0.18245604165123913, "60": 0.15054578828934448, "61": 0.19542075870048606, "62": 0.033043905414058966, "63": 0.03243206556099684, "64": 0.16487030134779826, "65": 0.1401542460301676, "66": -0.04975111317884167, "67": -0.1003456045411148, "68": 0.17055367279078115, "69": -0.002105729249998982, "7": 0.13583161719627262, "70": -0.20066207934224053, "71": -0.0769884744676927, "72": -0.17220963944245235, "73": -0.24687094490458164, "74": -0.19329070768420012, "8": -0.01986508427554993, "9": 0.06120937888683891}}], "in_depth": 3, "l1_decay_mul": 0, "l2_decay_mul": 1, "layer_type": "conv", "out_depth": 16, "out_sx": 32, "out_sy": 32, "pad": 2, "stride": 1, "sx": 5, "sy": 5}, {"layer_type": "relu", "out_depth": 16, "out_sx": 32, "out_sy": 32}, {"in_depth": 16, "layer_type": "pool", "out_depth": 16, "out_sx": 16, "out_sy": 16, "pad": 0, "stride": 2, "sx": 2, "sy": 2}, {"biases": {"depth": 20, "sx": 1, "sy": 1, "w": {"0": 0.1534987126129422, "1": 0.31248613899690764, "10": 0.3728951967039854, "11": -0.13855094782659397, "12": 0.1731191246460228, "13": 0.20658474027542567, "14": 0.11139648845324025, "15": 0.14136569206947253, "16": 0.1656747733467554, "17": 0.0570860834305244, "18": 0.1051028568797899, "19": 0.03897326978927331, "2": 0.2004615773699688, "3": 0.09268588926206309, "4": 0.011387212220251887, "5": 0.1806682015790627, "6": 0.021895473840874383, "7": 0.23294937373256272, "8": 0.07374552972727891, "9": 0.19059647297393673}}, "filters": [{"depth": 16, "sx": 5, "sy": 5, "w": {"0": -0.12980962072617244, "1": 0.17631701129129604, "10": 0.02084706509911367, "100": -0.11037527483300508, "101": -0.015058230883738814, "102": 0.006327531651574781, "103": -0.010833911483232678, "104": -0.1449235926089905, "105": -0.021248116875415852, "106": -0.1406818522762593, "107": 0.040738549152059204, "108": -0.007926560221297781, "109": 0.01439394511026302, "11": 0.14649326391970902, "110": 0.08342968406004782, "111": -0.17022225927529547, "112": -0.022236436598397805, "113": 0.05689629262555237, "114": -0.034018952875001764, "115": -0.138791459789355, "116": -0.04844949724628524, "117": -0.0013150809115752714, "118": -0.09346584674815546, "119": -0.2507405753151078, "12": 0.05377769261282055, "120": -0.044419893897388846, "121": -0.012201109204578849, "122": -0.12235465420305387, "123": 0.01485928766767982, "124": 0.05608172676630927, "125": -0.012892069261978015, "126": -0.05522471924323794, "127": -0.08902845371099942, "128": -0.13292669677601196, "129": -0.10297323574315383, "13": 0.18730064521204187, "130": -0.015932815325965063, "131": -0.19697299432202656, "132": -0.06406729431378917, "133": 0.02367233437734236, "134": -0.07377229829817872, "135": -0.17197662609082692, "136": -0.05236527802462544, "137": -0.07815626636204112, "138": -0.20089672546459525, "139": -0.042178820571782204, "14": -0.01776644259057549, "140": -0.05173447742133025, "141": -0.10444308224364554, "142": -0.1202088111932133, "143": -0.20359843102489927, "144": -0.05284879323838236, "145": -0.11128265149288644, "146": -0.10443380413035123, "147": -0.16530853565601017, "148": -0.05095639900158481, "149": 0.03455874603156254, "15": 0.04892698179078514, "150": 0.02953662921139357, "151": -0.23687837838154285, "152": -0.08060794208554062, "153": -0.09762576152543523, "154": -0.2180497848294826, "155": -0.021662980422467143, "156": -0.07410137601240271, "157": -0.09401361424848816, "158": -0.09940672940680598, "159": -0.11417809206133925, "16": -0.04808232194442078, "160": -0.057924147494486725, "161": -0.060025431084583546, "162": 0.005611644817351731, "163": -0.01584606429912439, "164": -0.011162715650422064, "165": -0.013508451672304592, "166": -0.14859249255815854, "167": -0.1933547691945698, "168": -0.11395176299834822, "169": 0.012415854920375443, "17": 0.1489195999882172, "170": 0.01195619092593075, "171": -0.09000705790029122, "172": 0.028564165494791214, "173": -0.005134618005891408, "174": -0.08674650270236134, "175": -0.06983246968562912, "176": 0.02398918535968845, "177": -0.019442516711577824, "178": -0.09829921193398265, "179": -0.09573895461386876, "18": -0.01058479419577752, "180": -0.0670127094774191, "181": 0.03446129382046611, "182": -0.13502031698168973, "183": -0.21034437390693592, "184": -0.16630276911028272, "185": -0.08999133129992035, "186": -0.07423657584333053, "187": -0.08187564202821913, "188": -0.08981730840289184, "189": -0.11907255261515216, "19": 0.025921253210723125, "190": -0.06441075638750982, "191": -0.1327484537817194, "192": -0.06163840017459972, "193": -0.05392293920596994, "194": -0.010149604739961335, "195": -0.07478895663313333, "196": -0.036841573053861404, "197": 0.00023321457385138756, "198": -0.03977362854784083, "199": -0.1705230543782471, "2": -0.05914953683723983, "20": -0.08544206745515782, "200": -0.10513983845457303, "201": 0.044095112533679454, "202": -0.06581836782409774, "203": 0.05453422800705611, "204": -0.02743055337339365, "205": -0.10330843338987367, "206": -0.07003051406102478, "207": 0.07668822260346703, "208": -0.12733962638420268, "209": -0.05353632538306227, "21": 0.132124950394674, "210": -0.05918643906905722, "211": -0.012368377106133773, "212": -0.06575297005427307, "213": -0.08008018029365062, "214": -0.029193994877416685, "215": -0.12751926393261417, "216": -0.22379278005328512, "217": -0.012951927180758618, "218": -0.1834612058861473, "219": -0.01507844515070357, "22": 0.026692767291909773, "220": 0.046525979502640716, "221": 0.02153411075714158, "222": -0.18360912782382507, "223": -0.07159346054497642, "224": -0.05591583183177756, "225": -0.15069078661756544, "226": -0.07183104859564404, "227": -0.18246347375190386, "228": -0.0019664471333001045, "229": -0.004233353856636149, "23": 0.03728235222890963, "230": -0.0731071053995918, "231": -0.2321946099797933, "232": -0.15476221492417358, "233": -0.003163086831996796, "234": -0.14654104293939318, "235": -0.033740193679907854, "236": -0.009882982845589375, "237": -0.1444966807745766, "238": -0.12870066207997222, "239": -0.17135207245906495, "24": -0.10379163915418951, "240": -0.13116372721861597, "241": 0.008566230583149124, "242": 0.08541299408177461, "243": -0.11451609465165871, "244": -0.11381271537645885, "245": 0.0621572373982188, "246": 0.00432071929801953, "247": -0.07354770587397537, "248": -0.07541936432861224, "249": -0.0075928224177086966, "25": 0.07090988913718595, "250": -0.0873787606528969, "251": -0.03968438742334697, "252": -0.014266503790508926, "253": -0.10408354582224137, "254": -0.2120105628859182, "255": -0.03278836112739774, "256": -0.11249830753967581, "257": 0.019331605539129694, "258": -0.040900142253180886, "259": -0.04052105023071989, "26": -0.03554470681741301, "260": 0.040576028902990974, "261": 0.021267673850179088, "262": 0.020366313512999758, "263": -0.10465303988873428, "264": -0.0548560753342776, "265": 0.012378790936168331, "266": -0.034743769145979084, "267": -0.080519315978034, "268": -0.009846772105850634, "269": -0.013362433552363178, "27": 0.10259971094717968, "270": -0.10332446590052413, "271": -0.035535886196822686, "272": -0.0989711848655632, "273": -0.012545224897269783, "274": -0.08065395731103156, "275": -0.1584434483451519, "276": -0.008319728167873488, "277": 0.04146905362797613, "278": 0.044536621262707465, "279": -0.05444227663921021, "28": 0.04646178535788977, "280": -0.11771879796043236, "281": -0.056916305401667026, "282": -0.1878459082437295, "283": 0.01883922934842378, "284": 0.06424981658558519, "285": -0.010647773472543339, "286": -0.11026388167806539, "287": -0.01785430338513021, "288": -0.10286388970628785, "289": -0.04943067315890143, "29": 0.20559630184471037, "290": -0.06541853908716547, "291": -0.1825323769281571, "292": -0.10767108519662259, "293": 0.06979878233836928, "294": 0.03994514676462447, "295": -0.12218144655813677, "296": -0.07894436277151833, "297": -0.091371240725369, "298": -0.03967571566250972, "299": -0.0852776857891861, "3": 0.08055819722642063, "30": 0.02080039680646907, "300": 0.0193144079434709, "301": 0.048598325518451335, "302": -0.10804759852999889, "303": -0.13329947489372967, "304": -0.013458276502122814, "305": 0.008871499115242492, "306": -0.07481797121071714, "307": -0.19448970643777327, "308": 0.03341164709558257, "309": -0.034488320880683224, "31": -0.056910102569970124, "310": -0.09667996869457052, "311": -0.15254049158244798, "312": -0.08820376104405814, "313": 0.03067158974846431, "314": -0.02944577631043893, "315": -0.025107559122007468, "316": 0.021957942951001373, "317": 0.02516927357474316, "318": 0.04683309301738353, "319": -0.08804632724777098, "32": -0.01086550313980636, "320": -0.14770311043601297, "321": -0.029631176395547215, "322": -0.09674598917266351, "323": -0.07358838843573891, "324": -0.06301619977131206, "325": 0.024943686327559913, "326": -0.029518801151124208, "327": -0.05311481206819353, "328": -0.09637518358129116, "329": 0.01039794343231566, "33": 0.11260247880298017, "330": -0.11174736140355825, "331": -0.24750435053645306, "332": 0.09431034689720205, "333": -0.0824289991722117, "334": -0.18404096760107191, "335": 0.07745038168819703, "336": -0.13257140748767576, "337": 0.004015368742413414, "338": -0.10923110248504626, "339": -0.08746128698899859, "34": -0.03955629204407205, "340": -0.07312447494410229, "341": -0.08479109110550456, "342": 0.023273272081824798, "343": -0.06049160885480257, "344": -0.10459596149147045, "345": 0.058674197007728565, "346": -0.10827577463314866, "347": -0.053230533437235425, "348": 0.08347139719133045, "349": 0.06134639804661924, "35": -0.008573634073137241, "350": -0.1418601677822468, "351": -0.009814698446259509, "352": -0.03862798010208047, "353": -0.051918646298799144, "354": 0.016213736272803904, "355": -0.1675696219072717, "356": -0.060729286009494586, "357": 0.05645302198393359, "358": 0.052171567533992595, "359": -0.16943595988724394, "36": 0.017975757933036574, "360": -0.05973113375274159, "361": -0.08614805357695735, "362": -0.051781226851529874, "363": -0.08565833378787914, "364": 0.01928236023755823, "365": -0.07096468652246857, "366": -0.09538326617775891, "367": 0.028813787567552415, "368": -0.05289593148906989, "369": 0.009183828930981366, "37": 0.03886855727188851, "370": -0.02817793013470862, "371": -0.12900753634431292, "372": 0.0034641333068241784, "373": 0.023354498568786065, "374": 0.023955316206198545, "375": -0.060587483570173344, "376": -0.00472043962139404, "377": -0.08592164744355886, "378": -0.08479651061075084, "379": -0.0010120997632766821, "38": 0.08700163567250692, "380": 0.042414511407828356, "381": -0.12887353969398235, "382": 0.016778480610057593, "383": -0.07327290649206916, "384": -0.06105022485699898, "385": -0.06589043771749167, "386": -0.020745630311226154, "387": -0.16145780771806564, "388": -0.0009240564706810662, "389": -0.039805393002109696, "39": 0.010940465475494623, "390": -0.0037894826024577086, "391": -0.0586688898420393, "392": -0.07323833864842265, "393": 0.008225262707632283, "394": -0.1591489434590506, "395": 0.002699057774232399, "396": 0.01872031062849928, "397": 0.002325156152872898, "398": 0.009616184182433518, "399": -0.10352652445332139, "4": -0.00026764600869404165, "40": -0.04755054602674006, "41": 0.0918456950371775, "42": -0.027424170701957334, "43": 0.05968061393785487, "44": 0.011905715307344251, "45": 0.0375913352817663, "46": -0.03648379977774511, "47": 0.010895733941044572, "48": -0.0038370529739314135, "49": -0.023145713676741602, "5": 0.15797686003102812, "50": -0.06758493319155294, "51": -0.07400129522517128, "52": -0.009731098687080572, "53": -0.024847958975160553, "54": 0.015120040413510158, "55": -0.05502877600160821, "56": -0.051218901554732355, "57": -0.006469932351403935, "58": -0.12712818147622085, "59": 0.037064617644439794, "6": 0.031739151266769336, "60": -0.051496311194862844, "61": 0.16554285085916343, "62": 0.03586453331584239, "63": -0.15338791513359004, "64": -0.021302437218924837, "65": -0.010266047615271166, "66": -0.04978375096721215, "67": -0.02233886575027234, "68": -0.03590012668536098, "69": -0.06302923373953802, "7": 0.1427982830852822, "70": 0.06687874857235007, "71": -0.05830530302625144, "72": -0.08105373619519593, "73": 0.02621880256244042, "74": -0.22565034503288825, "75": 0.05890806398981381, "76": -0.011198183968988413, "77": 0.13394582596289478, "78": -0.02389372794910188, "79": -0.07493738741460308, "8": -0.009058217698151402, "80": -0.042706873490319895, "81": 0.0035999570028917276, "82": -0.011479260707590621, "83": -0.02634319484567841, "84": -0.1920730308518686, "85": 0.044481358701303805, "86": -0.010784424573082757, "87": -0.011465112424336683, "88": 0.022541181265938633, "89": 0.03198380614095284, "9": 0.07398611255187154, "90": -0.06785205883828227, "91": -0.01680001594585386, "92": 0.052034905337120234, "93": 0.07001152206887888, "94": -0.015149881548189656, "95": -0.07204327557797682, "96": -0.022944855465667078, "97": -0.0010211387514986988, "98": -0.1378619675162938, "99": 0.02724947751237876}}, {"depth": 16, "sx": 5, "sy": 5, "w": {"0": 0.039196918429507566, "1": -0.124247749412017, "10": -0.14622772716533092, "100": -0.09172189783892955, "101": -0.03404525614174036, "102": -0.04960562456122551, "103": -0.058582274705560974, "104": -0.023712951619109923, "105": -0.040833299744429834, "106": 0.0017678846602265331, "107": -0.07713414344370018, "108": -0.12618291619167132, "109": -0.12270780390618329, "11": -0.010301233183358871, "110": -0.0410400092747932, "111": -0.01603251725660549, "112": -0.12352981168525044, "113": -0.030504817863378827, "114": -0.09387868959372565, "115": -0.009131092143750815, "116": 0.09655869849731277, "117": -0.020723188541263107, "118": 0.10923086969935213, "119": -0.027244120092806474, "12": -0.08244532358835573, "120": 0.01690725202322669, "121": -0.01840710515645278, "122": -0.07843472383670508, "123": -0.009167730279634492, "124": -0.041163110843773366, "125": 0.08140619432981533, "126": -0.0212920188569519, "127": 0.023763507821890028, "128": 0.07409800471625706, "129": -0.028715114182221207, "13": -0.13571374421220211, "130": -0.03283956059568498, "131": 0.11969015460661156, "132": 0.032429220773178107, "133": 0.09069947426065622, "134": 0.046003582772056094, "135": 0.018796782852361756, "136": 0.012624463691654684, "137": -0.08897169798079022, "138": -0.13985384236054257, "139": -0.16241725005287821, "14": -0.029562090727606283, "140": 0.012619261332182661, "141": -0.21945996864191394, "142": -0.016616936927418714, "143": -0.17780786954610195, "144": -0.03676680438226952, "145": -0.053796767608840085, "146": -0.05846513044771287, "147": -0.0008328501598791091, "148": -0.047295192037264386, "149": -0.010570169370400647, "15": -0.04261666291280721, "150": 0.048375991424549014, "151": 0.09651591399062837, "152": -0.10068132677085238, "153": -0.0792528273253104, "154": -0.14332049059330845, "155": -0.08804071041441518, "156": -0.04910682735264552, "157": -0.043785067872658116, "158": -0.07053951523699566, "159": -0.10152623184735596, "16": -0.09471484350915743, "160": -0.11266126351696895, "161": -0.11180947466521676, "162": -0.08636220566945374, "163": -0.12283033365119293, "164": -0.09085545609251022, "165": 0.0007392450029939339, "166": -0.06578273437226562, "167": -0.03912459630955197, "168": -0.07346487233763822, "169": -0.06256611912974722, "17": -0.005702529917753736, "170": -0.07822202798276365, "171": -0.043383820820180795, "172": -0.032115455821005674, "173": -0.03800094576789078, "174": -0.05271153564378466, "175": -0.14032113668276963, "176": -0.14238530775792088, "177": -0.041434406953132025, "178": -0.08542019528353409, "179": -0.16791361341234312, "18": -0.013318425749243494, "180": -0.0719072567904343, "181": -0.12667401288618593, "182": -0.08466037483077081, "183": -0.17122431214810105, "184": -0.14367091493245868, "185": -0.075266968810541, "186": -0.08894626633672123, "187": -0.0019904114278998385, "188": -0.0545127520202462, "189": -0.04972574993830192, "19": -0.02834921175829213, "190": -0.08610936113699375, "191": -0.09713371361549794, "192": -0.0972339112408895, "193": 0.06129264733134888, "194": 0.028481239157437246, "195": 0.08411433346755741, "196": 0.02935515946850915, "197": 0.10545981201796505, "198": 0.07854111909799337, "199": -0.03870828127269894, "2": -0.03119431250309889, "20": -0.007977877384955161, "200": 0.17080957149928833, "201": 0.07992690756383997, "202": 0.050336379248226246, "203": -0.03570403561344396, "204": -0.06957868978018904, "205": 0.0008906439714162117, "206": -0.013701625551760157, "207": -0.009020260627295884, "208": 0.025006654797036176, "209": -0.0572397780231593, "21": -0.07387851896479607, "210": -0.054753193618560514, "211": 0.07496750401452117, "212": 0.04739562551660762, "213": 0.0462461252824133, "214": 0.05177664241714348, "215": 0.11527037699235192, "216": -0.08488654085402866, "217": -0.03745770843969696, "218": 0.10270467870481917, "219": -0.061148170382600474, "22": -0.08218129527027992, "220": 0.02884225698708684, "221": -0.18753457009937463, "222": 0.026368049811558283, "223": -0.21401607051869326, "224": 0.06260770455843664, "225": -0.012508483861763982, "226": -0.006054511936862007, "227": 0.07342795186953956, "228": -0.03610186757200551, "229": 0.07047091218731177, "23": -0.025840183521008257, "230": 0.03252069155216296, "231": -0.031192852481130098, "232": -0.11897643713654496, "233": -0.0589809518820226, "234": -0.001790257843325809, "235": -0.1377492602242282, "236": -0.0037496269677122084, "237": -0.06603403828570278, "238": 0.05708807181789895, "239": -0.11962271934321901, "24": -0.07929737199074681, "240": -0.08590308474963665, "241": -0.060516141542817405, "242": -0.02248227446594652, "243": -0.07495164145116902, "244": -0.0639741565030051, "245": -0.022900877444640304, "246": -0.02497310154929394, "247": -0.13695775043082634, "248": 0.015706030039138445, "249": -0.03160199662326993, "25": -0.0477365317049016, "250": -0.02827315622653992, "251": -0.11774584809819633, "252": -0.08516001169489847, "253": -0.12746780754913223, "254": -0.04324845455937386, "255": -0.04464004641545435, "256": -0.09362283828976609, "257": -0.1795558705591511, "258": -0.014882383469690199, "259": -0.12915296510311536, "26": -0.0881957028202416, "260": -0.03048979207266496, "261": -0.06878296163422412, "262": -0.05511083097252135, "263": -0.15337604600136062, "264": -0.09066728792969042, "265": -0.06173774442526148, "266": -0.0810862542698629, "267": -0.03529068358644598, "268": 0.027401475175587185, "269": -0.005775201349650082, "27": -0.1396987521834746, "270": -0.05568833605454176, "271": -0.13329796415050546, "272": 0.019245723654682807, "273": -0.003746180163635052, "274": 0.09280057973921572, "275": 0.018163023563024145, "276": -0.05896817430537373, "277": 0.06968339027170378, "278": 0.11223843481125223, "279": -0.0486031495708494, "28": -0.033047071958331876, "280": 0.13298564671970103, "281": 0.06156592937789915, "282": -0.01851449277360368, "283": -0.057632981818988925, "284": 0.07736953548778269, "285": -0.006077815127488064, "286": 0.03876451336591677, "287": -0.025171411983761684, "288": 0.09373412926385524, "289": 0.006610975053746095, "29": -0.09603496722942409, "290": 0.03870987928650364, "291": -0.07341889078241859, "292": 0.08200328046104854, "293": -0.023620522047368583, "294": 0.03166580501648993, "295": -0.03963838007013532, "296": -0.10854054498758862, "297": 0.08096621887969506, "298": 0.04167108165021625, "299": -0.12314879541130369, "3": -0.06537417682224163, "30": -0.10243526713586135, "300": -0.021464481521325164, "301": -0.14743073213797092, "302": 0.052008996439643476, "303": -0.2156345330735522, "304": 0.012515525932340014, "305": -0.11636889534906171, "306": 0.01625873963645718, "307": -0.023304895698105562, "308": -0.10655370793489494, "309": 0.06374903023848225, "31": 0.014730635346956726, "310": 0.11391520041820222, "311": -0.04351011763858115, "312": -0.01768938558913957, "313": -0.05547065247202804, "314": -0.033870760831768335, "315": -0.11764278637066185, "316": 0.09799667844191293, "317": -0.010063305084804559, "318": -0.019172267237643977, "319": -0.05527530121391544, "32": 0.03468844139401789, "320": -0.011912473413445935, "321": -0.12246883040938031, "322": -0.08741238401972183, "323": -0.09809053717840369, "324": -0.09549370283299592, "325": 0.007807719991281009, "326": 0.040702137707208104, "327": -0.06731721173746189, "328": 0.036032009473219474, "329": 0.03482354223672934, "33": -0.024539224740035993, "330": -0.004379460975287933, "331": -0.15328629730138424, "332": -0.06511920967936032, "333": -0.059813038073776366, "334": -0.09805707356117269, "335": 0.021665719601135832, "336": -0.08314488866519008, "337": -0.07102987387273345, "338": -0.0508476025534506, "339": -0.10336024632060249, "34": -0.027800409507370828, "340": -0.06652634237926486, "341": -0.11398763399599203, "342": 0.13838420986718622, "343": -0.12512955100700812, "344": -0.05690244498448043, "345": -0.10670368168101002, "346": -0.10754114160723299, "347": -0.11971417480232233, "348": -0.021660718152532222, "349": -0.05172905333994628, "35": -0.010611976603082489, "350": 0.07004758884141331, "351": -0.09257728964608296, "352": -0.06266127052001536, "353": 0.0819562559291116, "354": 0.005817728038760748, "355": -0.06952915106754715, "356": -0.0019225465724458986, "357": 0.0826991573033149, "358": 0.13825554604688273, "359": 0.03472735417488433, "36": 0.13628794572049446, "360": 0.16158338171676098, "361": 0.0023505946687958123, "362": -0.01964359096631296, "363": -0.01388583806061264, "364": 0.013908332525551561, "365": -0.02860976670677179, "366": -0.011459311654783927, "367": -0.03931975827945801, "368": -0.03132111459023972, "369": -0.061815169755869495, "37": 0.0021869162734637574, "370": -0.008059282017198617, "371": -0.03829913020730653, "372": -0.02151250461445773, "373": 0.07292194161080469, "374": 0.07317769080737813, "375": 0.009156286498945896, "376": -0.1356417990059094, "377": -0.073376924829814, "378": 0.0745547382735466, "379": -0.1502711220488661, "38": -0.0022784184913081486, "380": 0.026114264575024276, "381": -0.07296922171950883, "382": -0.02830650137588228, "383": -0.26587867601968795, "384": 0.08755153382390321, "385": -0.05035611374268296, "386": -0.014039277799298835, "387": 0.06460695689195703, "388": 0.007377696590828483, "389": -0.056100588061298924, "39": -0.09930914211649529, "390": 0.06310714112552501, "391": -0.0666770244284115, "392": 0.02169449449352133, "393": 0.1284218655929419, "394": 0.05981216973381419, "395": -0.06771330885451093, "396": -0.06904713393607644, "397": -0.06953088045720653, "398": -0.019483987505554193, "399": -0.09396581111628692, "4": 0.012398463428026677, "40": -0.09303328243485315, "41": 0.04263934885332083, "42": -0.03580624491120253, "43": -0.03024806669198957, "44": 0.06937325797516018, "45": 0.032091321940616244, "46": -0.11145725551272584, "47": 0.02866924598005601, "48": 0.019242965646904815, "49": -0.10199688916791054, "5": -0.014052077729043733, "50": -0.07486450183680479, "51": -0.02370525558657462, "52": 0.07776088717130206, "53": 0.07029173164097727, "54": 0.04718941014392081, "55": -0.03846881141483862, "56": -0.05386698211376674, "57": -0.05188899815878178, "58": -0.18518249206690168, "59": -0.0004986675229259317, "6": -0.08511102566792683, "60": 0.06945319171255121, "61": -0.18787242308297333, "62": -0.050235886692994294, "63": -0.21891435257788414, "64": 0.10124662979115623, "65": -0.06437404625461154, "66": -0.07734554369610287, "67": 0.025192577846555295, "68": 0.09839713700128842, "69": 0.04543540167673837, "7": -0.007295896050999246, "70": 0.014907251356247635, "71": -0.10451477289782855, "72": 0.004696576539401913, "73": -0.0630894875392022, "74": -0.08967499093467791, "75": -0.039753152343816954, "76": 0.0021120477222695247, "77": -0.2335402356837853, "78": -0.07906143297812865, "79": -0.05903601565603776, "8": 0.034486542150032135, "80": -0.046795290762608535, "81": 0.044991249612694, "82": -0.02551562852063835, "83": 0.035915665916769944, "84": -0.08590945742846394, "85": 0.017503974227686674, "86": -0.06918557352769944, "87": -0.0028348612254669022, "88": 0.11041645820600923, "89": -0.03992898804483226, "9": -0.07018912485652745, "90": -0.05039721942517302, "91": 0.0623039665268747, "92": -0.14590820370996327, "93": -0.11508941979451258, "94": -0.11553416105972265, "95": -0.06720591873877403, "96": -0.07831155728173635, "97": -0.02241351884180391, "98": -0.10626610586921525, "99": -0.029825006281805563}}, {"depth": 16, "sx": 5, "sy": 5, "w": {"0": 0.142782451563228, "1": 0.11128022225009704, "10": -0.014754738605903707, "100": -0.07242846777577823, "101": 0.07886652793955522, "102": 0.11065457622701978, "103": 0.08807508169026831, "104": -0.14854968467012128, "105": -0.06094979712252541, "106": -0.13840080724896223, "107": -0.10759921029466969, "108": 0.025905687500352607, "109": -0.020911409257050526, "11": -0.14095060843745516, "110": -0.0920034565536367, "111": -0.06646932387110639, "112": 0.050811210489138885, "113": -0.03528093038854343, "114": -0.19061547740590004, "115": 0.07364855720562893, "116": 0.044618156229778744, "117": -0.006444362594555415, "118": -0.013700559228735074, "119": 0.09563844342477312, "12": 0.08147326678075131, "120": -0.20225588648727813, "121": -0.16436416597916467, "122": -0.06168390886506473, "123": -0.068073300079385, "124": -0.005249952559670238, "125": -0.06852429075940913, "126": -0.02435779027836697, "127": -0.10979275257105485, "128": -0.008680293963603931, "129": -0.1054252174789607, "13": 0.06155492526002521, "130": -0.08298249865468925, "131": 0.04051182829187214, "132": 0.0158953297513518, "133": 0.030641057933073274, "134": 0.04147496733783437, "135": -0.0004602909752418609, "136": -0.195562635605342, "137": -0.06206448104873303, "138": -0.06906526484647776, "139": -0.10389782540326635, "14": 0.11166086080131109, "140": -0.013828578825722476, "141": -0.09594455664928116, "142": -0.09443948944104091, "143": 0.0318670060564255, "144": -0.025968542344417117, "145": -0.0041374661509253185, "146": -0.06983436148545895, "147": 0.11325170885001003, "148": 0.04040996994458714, "149": 0.030994547664185104, "15": -0.1840583555299192, "150": -0.045485339911094345, "151": 0.006962497305789219, "152": -0.127269012594387, "153": -0.11250984851287625, "154": -0.08962662408052326, "155": -0.11692056441804453, "156": -0.004249780973483696, "157": -0.11343178080868727, "158": 0.0006307167426369126, "159": -0.014205000286131845, "16": 0.05900238567214794, "160": -0.18973578962927592, "161": -0.054241623415646534, "162": -0.12000890935286954, "163": -0.20943053024110758, "164": -0.25437326359350515, "165": -0.008113780919091155, "166": 0.15623794971496416, "167": 0.15574605245390497, "168": -0.0053913163500541855, "169": 0.000990130967961413, "17": 0.06672734478480122, "170": -0.07442085388720479, "171": -0.15901725425985117, "172": 0.10780358363632964, "173": 0.05154539460710131, "174": -0.0050970172937506815, "175": -0.21102683916392356, "176": -0.16613375680831008, "177": -0.10032669488092903, "178": 0.036446092516461824, "179": -0.07640128777069688, "18": -0.16936921950620942, "180": -0.20171656130325016, "181": 0.018740389145595445, "182": -0.04009025966271022, "183": -0.033293637137769234, "184": -0.014626992939524916, "185": 0.10273454627630818, "186": -0.036368810272262186, "187": -0.24118634685474757, "188": 0.06825497215018475, "189": 0.0013535171176138935, "19": 0.08940087239454729, "190": -0.07613241471855385, "191": -0.07267476984572986, "192": -0.11307997521148598, "193": -0.10768442543291169, "194": -0.10068142376086413, "195": -0.08596268501174542, "196": -0.09776707082570062, "197": 0.04733951461355822, "198": 0.106904947671723, "199": -0.0858723592428417, "2": -0.05797809737013514, "20": -0.025648132559840348, "200": -0.116641455092458, "201": -0.04645168517345509, "202": -0.07775052569530673, "203": -0.16812532410158354, "204": -0.022558708632959314, "205": 0.04988282780896049, "206": -0.08061043409038553, "207": -0.15038669738530633, "208": -0.06915692792784717, "209": -0.16054681192196285, "21": 0.02355362254497771, "210": -0.16755766933592622, "211": -0.0531884267115331, "212": 0.05997174211586922, "213": -0.0052291821240425685, "214": 0.0021196694996986508, "215": -0.07235894570205123, "216": -0.21971885413853845, "217": -0.025900679457584102, "218": -0.060842325669725465, "219": -0.18308772641474136, "22": 0.01168770173537691, "220": 0.06059168950440953, "221": -0.050239547625420496, "222": -0.0400982800787892, "223": -0.06554288178815346, "224": -0.010144792850675105, "225": -0.21684660119222926, "226": 0.021553766695724896, "227": 0.01355332846230121, "228": 0.13491635458628468, "229": 0.08610735364543219, "23": 0.06408799403721159, "230": 0.044729170060618946, "231": 0.014389064823844373, "232": 0.019191309342993595, "233": 0.05095016320643982, "234": -0.026059881314336182, "235": -0.28594464183743, "236": -0.051914508969553644, "237": -0.1578116425446528, "238": -0.08817268198911114, "239": 0.11939278999356806, "24": -0.1996937130285967, "240": 0.026419980392423274, "241": -0.0821011835409753, "242": -0.038417941409978146, "243": -0.12081976616764226, "244": -0.08693200599076709, "245": -0.031147622364783845, "246": 0.02059261163233331, "247": -0.03539784906215348, "248": 0.01181674879377312, "249": 0.06037550507184837, "25": -0.09871781217992909, "250": -0.13458756171244302, "251": -0.1340264265255014, "252": 0.21083607566698884, "253": 0.06833986271178946, "254": -0.09837605478439856, "255": -0.17098650903881213, "256": -0.0328800541687707, "257": -0.12781135267737928, "258": -0.23000556329806682, "259": -0.2497856360379675, "26": -0.19361338422299787, "260": -0.19855190697038527, "261": -0.011709284399124388, "262": -0.04649243005976145, "263": -0.08531732879991948, "264": 0.030905442874502073, "265": -0.009722615050657323, "266": -0.1062411299037972, "267": -0.27748267703300517, "268": 0.14316819888325694, "269": -0.0531653334283095, "27": -0.15445198611976466, "270": 0.013561945098203087, "271": -0.0819991380707063, "272": -0.1252791382722869, "273": -0.061180976706382034, "274": -0.06246028547167431, "275": -0.16960653733799505, "276": -0.1656052916557678, "277": -0.098474693585957, "278": -0.04298388171399732, "279": -0.13261038893659302, "28": -0.03016278118724567, "280": -0.05179100795584319, "281": 0.03286843154158432, "282": -0.12021358361539618, "283": -0.18427776525217535, "284": 0.16069623947883657, "285": -0.12423103643111545, "286": -0.1285586793688283, "287": -0.24642225733276818, "288": 0.026224939224434203, "289": -0.11023803821873193, "29": 0.04075763411649099, "290": -0.024707214321680878, "291": -0.06421336385261125, "292": -0.12344468272657408, "293": -0.01351443613369131, "294": 0.09356409917282008, "295": -0.06626942065716358, "296": -0.13093669452007012, "297": -0.025931449974117327, "298": -0.0579747973633634, "299": -0.30694815747506604, "3": 0.07808335638804963, "30": 0.07224015900160861, "300": 0.06277496043817124, "301": -0.07528634145344087, "302": 0.07167990917653225, "303": 0.08822084742492553, "304": 0.06254644600612143, "305": -0.051651484372913635, "306": -0.01134832115070812, "307": 0.05871160482614661, "308": -0.10848021902031345, "309": 0.025116460921910205, "31": -0.1751339612765201, "310": 0.06875670635281107, "311": -0.03454080017466927, "312": 0.10095624989845561, "313": 0.04280253363205618, "314": 0.0111494819200573, "315": -0.18341042917545947, "316": 0.07305553790025913, "317": -0.09379668445141562, "318": -0.16636196442155046, "319": 0.12589034354657044, "32": 0.07829008853588296, "320": -0.06378667981755284, "321": -0.06250510125951098, "322": -0.12727508711452512, "323": -0.03672980882841019, "324": -0.014461941735312279, "325": -0.028216020134944342, "326": 0.11985219392736261, "327": -0.0012701059781796296, "328": -0.0020655303455792817, "329": -0.06806801554177845, "33": -0.04327328336873117, "330": -0.08129279216316952, "331": -0.05927193320290932, "332": 0.10241577816295537, "333": -0.10195519812354356, "334": -0.0654098928214342, "335": -0.18337874931778658, "336": 0.0342112550402864, "337": -0.18083119949918217, "338": -0.16298621438215916, "339": -0.057175337812356855, "34": -0.14526648783139862, "340": -0.12251472687399616, "341": 0.05476107857714276, "342": 0.07572948693201866, "343": -0.0723789413491725, "344": -0.06806266575623651, "345": -0.10544846363262052, "346": -0.031585563363618153, "347": -0.14292996693384488, "348": 0.11687118016857988, "349": -0.24498330331829016, "35": 0.05937571787637218, "350": -0.12331671882190609, "351": -0.18303947041574262, "352": 0.004825410390470269, "353": -0.171702286499494, "354": -0.07912149133206638, "355": -0.0828029438834964, "356": -0.14668489003538782, "357": -0.041610678568625076, "358": -0.0002006063463996057, "359": -0.10223930400005246, "36": 0.012412660828188217, "360": 0.03247294679938425, "361": 0.035427557228897955, "362": -0.13235766564934773, "363": -0.11793601400141979, "364": 0.07721301341559153, "365": -0.2390213871809687, "366": -0.17251244882264752, "367": -0.1719211350503426, "368": 0.10381487277180149, "369": -0.12005622457256966, "37": -0.06833539968150888, "370": -0.03816649160128849, "371": 0.06290426802269936, "372": -0.08891797215491512, "373": 0.018102639624001483, "374": 0.03031790858406653, "375": -0.11524990472013615, "376": -0.005095190252046676, "377": 0.03463597683978735, "378": -0.145093545965068, "379": -0.2276198854423751, "38": 0.03350275056545181, "380": 0.12307295290817274, "381": -0.10880223086159764, "382": -0.03368977687824117, "383": 0.1871718809201261, "384": 0.006260135243254965, "385": -0.01021474359534675, "386": -0.07531442531946303, "387": 0.11248653176861198, "388": -0.16432438638008479, "389": 0.038740035752842815, "39": 0.12502287019765027, "390": 0.06943457379333684, "391": -0.004329715170308788, "392": 0.08103397810940705, "393": 0.11884435367985868, "394": 0.10256026483783842, "395": -0.02886794466417648, "396": -0.009783995936081325, "397": -0.15866047319686172, "398": -0.12481393314763085, "399": 0.20281937357142965, "4": 0.15996545539178383, "40": -0.011848023020412426, "41": 0.01383640792521698, "42": -0.08835364103322978, "43": -0.0953812562971692, "44": -0.014339902762583331, "45": 0.06161760974258797, "46": 0.09398016886444358, "47": -0.16555070561270055, "48": 0.07190879558542823, "49": -0.09728605329868989, "5": 0.005760393290369677, "50": -0.053337055005136434, "51": 0.02170716448571378, "52": 0.042260586140219644, "53": -0.1245038491867674, "54": -0.03196111949408562, "55": 0.01948610191077183, "56": -0.16676125936694933, "57": -0.06071252453563604, "58": -0.056387074946636154, "59": -0.10355451364807852, "6": 0.06868240821208683, "60": -0.023133861501171412, "61": 0.01127474765016063, "62": 0.03864697185025836, "63": -0.10254284780225746, "64": 0.168632902617979, "65": -0.11713013563338186, "66": -0.06163388867161129, "67": 0.009357950669663185, "68": 0.05034667181449963, "69": -0.05424503329850491, "7": 0.16033436069393464, "70": -0.018532894224386892, "71": 0.040593386256045576, "72": -0.15528552670129547, "73": -0.192550032683578, "74": -0.01670757894989016, "75": -0.20788599694137172, "76": -0.03145051586453221, "77": -0.0267726806406357, "78": -7.662194632550198e-05, "79": 0.013454059347391103, "8": -0.10462931753326642, "80": -0.0515062111138917, "81": 0.005211128348854699, "82": -0.08244957450268951, "83": 0.061428479794975316, "84": -0.0504099223927116, "85": 0.014275262928502782, "86": 0.12497577890605847, "87": 0.1363756174404443, "88": -0.14416926117692602, "89": -0.0737524124294172, "9": -0.03634254441577852, "90": -0.14073717988410803, "91": -0.15484249376572898, "92": 0.05352513162139828, "93": 0.03173004109367036, "94": 0.12888528298128227, "95": -0.17441340307133893, "96": -0.025173248786085616, "97": -0.00959902093006494, "98": -0.11162941517052456, "99": 0.020881112780010865}}, {"depth": 16, "sx": 5, "sy": 5, "w": {"0": 0.003763260556700245, "1": 0.018416276853632868, "10": -0.09399450674365052, "100": 0.028151791257216768, "101": -0.02995353626119981, "102": 0.004258095132769546, "103": -0.16871538414116907, "104": -0.04438038652068419, "105": -0.05051778770379703, "106": -0.08757008441344474, "107": 0.0006789974506654946, "108": -0.011744855707461832, "109": -0.05183728358193787, "11": -0.008363555292670211, "110": -0.06230179033933286, "111": -0.1672753976812394, "112": -0.02058105241631009, "113": -0.038012152763578985, "114": -0.15005645348968855, "115": 0.036046508093569164, "116": 0.060431723407912016, "117": 0.008509539297467632, "118": 0.014736816352102122, "119": -0.14204222953126402, "12": 0.12632547878184403, "120": -0.0408476719037095, "121": -0.035973964489605346, "122": -0.1153988964638966, "123": 0.058832951480346445, "124": 0.004675170653786966, "125": 0.14383260582709634, "126": 0.03282755229720474, "127": -0.12498514314299461, "128": 0.014894402377799133, "129": -0.04023548707261602, "13": 0.10165806659726732, "130": -0.06986271856974687, "131": 0.08770704657180552, "132": -0.09503628314670015, "133": 0.06451565278151157, "134": -0.03802026874728668, "135": -0.09736110480693526, "136": -0.03512874004877945, "137": -0.09873383546951477, "138": -0.024249980198689434, "139": -0.007391738967336071, "14": 0.004066955671324982, "140": -0.017548582912073833, "141": -0.05842482294430014, "142": -0.014461536217643458, "143": -0.13444703484618686, "144": 0.08888272979230544, "145": -0.1395070641160253, "146": -0.1086224260666805, "147": 0.008442781427866941, "148": -0.017934911978031282, "149": 0.08158431857581824, "15": -0.11415042079730806, "150": 0.06950832740030632, "151": 0.019384202134035643, "152": 0.013797148506119693, "153": -0.056206997967733714, "154": -0.006168185811581837, "155": 0.011742892881552142, "156": 0.09230056235581446, "157": -0.11336805528906028, "158": -0.05187799214894281, "159": -0.07012902327951748, "16": 0.0031755916554231252, "160": 0.026778051660229212, "161": 0.08231802759931463, "162": -0.0013211910940579747, "163": -0.025104656428348932, "164": -0.07443726590025478, "165": -0.0898866194847612, "166": -0.03991046853014453, "167": -0.06652159786599653, "168": -0.10293782816919442, "169": -0.04928836690272566, "17": -0.03105947902349586, "170": -0.019376011519145617, "171": -0.10560040705175151, "172": -0.10333866667052485, "173": -0.018429614878810226, "174": -0.057427712322299054, "175": -0.005146040861311862, "176": -0.12482139186492389, "177": 0.06634694154963416, "178": -0.09241492593768949, "179": -0.04030800696208764, "18": -0.07455950582708996, "180": -0.08877473698904222, "181": -0.09293056951868645, "182": -0.006519923471584456, "183": -0.0384833438307143, "184": -0.0014926852588401712, "185": -0.03331613799240701, "186": -0.12480957431618203, "187": -0.012962264125025285, "188": -0.1148451278632721, "189": 0.0167172699079843, "19": 0.11778504707936091, "190": -0.048501960019554646, "191": -0.0951016972363086, "192": -0.030077470894563467, "193": -0.0462353229546536, "194": -0.13124271775497912, "195": -0.11167778404940554, "196": 0.04544210503733946, "197": -0.05887575135519314, "198": 0.06280295559846634, "199": -0.00789604151522571, "2": 0.02114159895661011, "20": -0.022927323343718886, "200": -0.043896007910668874, "201": -0.123284912294085, "202": -0.017258643764471227, "203": -0.08392156360297989, "204": -0.03774587357489617, "205": 0.14405804844345316, "206": -0.005390532607950592, "207": 0.022476278099713615, "208": 0.06700770604881301, "209": -0.08432129047418412, "21": 0.05131555225213034, "210": 0.0645596526438193, "211": -0.004980826973315077, "212": -0.07402244046083503, "213": -0.023878416788219402, "214": 0.11382602698172158, "215": 0.03487864165737402, "216": 0.04233633789567149, "217": 0.029018858413920122, "218": -0.13911264329097192, "219": -0.07005779262716004, "22": -0.04245199623411481, "220": 0.017930424620652165, "221": -0.10854619811500966, "222": -0.000181869029408689, "223": -0.14871517548731022, "224": -0.02130711640642487, "225": -0.058427607773146414, "226": 0.11373441669294114, "227": -0.004705434784621702, "228": -0.1032761983113912, "229": 0.07618291664152274, "23": 0.04440122609578568, "230": 0.07716707502918194, "231": 0.12841659784263093, "232": 0.05939941365672955, "233": -0.010587092267872187, "234": -0.030936492656371075, "235": -0.08877918042449963, "236": -0.029248732846232344, "237": -0.11021372804403215, "238": -0.07729390859167239, "239": -0.14541617870315068, "24": -3.96719035704496e-05, "240": -0.0515126894251302, "241": -0.1391178479236676, "242": -0.05513400385564609, "243": -0.07576016847803763, "244": -0.05762189374821206, "245": -0.06320682166591195, "246": -0.03708709479980986, "247": -0.1517820091797814, "248": -0.0717698044511787, "249": -0.03452071225482934, "25": -0.020937148838824186, "250": -0.20212983380248165, "251": -0.039878605040387996, "252": -0.11670265695217463, "253": -0.10608054135089054, "254": -0.07612049957100046, "255": -0.09713084178118997, "256": -0.055930342719244915, "257": -0.09259743444361436, "258": -0.16778142576488728, "259": -0.06542383120525483, "26": -0.17312321379939713, "260": -0.053175732368838574, "261": -0.025726885327124714, "262": -0.044687833539266676, "263": 0.04159579734818207, "264": -0.0839340175045253, "265": 0.021975736698877427, "266": -0.09861590683831102, "267": -0.0005070161108542924, "268": -0.11280854081927401, "269": -0.0037702858181539777, "27": 0.0377893997183956, "270": -0.11257121580230631, "271": -0.09544167628373082, "272": 0.008862247491834322, "273": -0.1459069382340071, "274": -0.11138025328337453, "275": -0.011402875024793521, "276": -0.0873950942836555, "277": 0.10934437088666184, "278": 0.0013761476207908585, "279": -0.035503761804749005, "28": 0.02779986405405942, "280": -0.03072092684680779, "281": -0.013475883703766515, "282": -0.01205579852114443, "283": -0.06979264408744673, "284": -0.042629345431217956, "285": 0.1173742564047549, "286": -0.05821472195101961, "287": -0.048416110011247425, "288": -0.04838661704762079, "289": -0.06998123120377042, "29": -0.012440820331156998, "290": -0.07860290760376965, "291": 0.01557807525019321, "292": 0.004260206454483716, "293": -0.046817193458758094, "294": -0.06777452949833243, "295": -0.03571948428282468, "296": 0.11127733327569102, "297": -0.04860069898638876, "298": 0.021578654753944045, "299": -0.13224379920558935, "3": 0.011689066469802861, "30": -0.09582316758267767, "300": 0.048610862547361564, "301": 0.005137482246332724, "302": 0.017368159181728737, "303": -0.08260320757144815, "304": -0.022335467717479265, "305": -0.03155912545277436, "306": 0.006175755030431703, "307": -0.07312666533709856, "308": 0.013276853673177417, "309": 0.0769926788120773, "31": -0.1607761878142016, "310": 0.051712778454405216, "311": -0.10432548455888169, "312": 0.00042370077367115486, "313": -0.10643869572326788, "314": -0.05374388037052656, "315": -0.06633310975704831, "316": 0.022434475663863772, "317": -0.04637311022682945, "318": -0.08166581575212774, "319": -0.10977741968020943, "32": -0.05965180972461521, "320": -0.10773862872919819, "321": -0.020802708316783016, "322": -0.1250011223528015, "323": -0.14980625496259986, "324": -0.10393904110916116, "325": -0.05060565011402759, "326": -0.09315390267639503, "327": 0.005275378918211387, "328": 0.06268681737613509, "329": -0.04018213038276584, "33": -0.10448750759086758, "330": -0.1061625498407713, "331": -0.053908758174314675, "332": -0.04521395818092941, "333": -0.03461942040860781, "334": -0.07986086963318337, "335": -0.10334990310048378, "336": -0.10061033458942421, "337": -0.07385134109611217, "338": 0.03924518810380671, "339": -0.10511373392599414, "34": -0.03713741534687582, "340": -0.02970600975843228, "341": -0.10514756964363682, "342": -0.059109558617588966, "343": -0.019188156961955992, "344": -0.06497667450295486, "345": -0.08407582668864916, "346": -0.11685765119105246, "347": -0.100409817013824, "348": -0.08058807069443034, "349": -0.056169245256874105, "35": 0.07935658037582138, "350": -0.03666825618951873, "351": -0.05889531218320636, "352": -0.08824591809692184, "353": -0.08645107805786881, "354": -0.1027655419155554, "355": -0.048299201062554455, "356": -0.05231835639282653, "357": 0.0757696260714564, "358": -0.09885565690461258, "359": -0.01757367931332179, "36": 0.03720384341117034, "360": 0.0056347630669651115, "361": -0.05443099537697738, "362": -0.13110408753027175, "363": -0.10017539026377725, "364": -0.08750147313502116, "365": 0.08989411304755499, "366": -0.043761564937431406, "367": -0.02856608833938041, "368": -0.03661510159167022, "369": -0.10788013001889582, "37": 0.1014696266857128, "370": -0.05382271870150294, "371": -0.017719234192191128, "372": 0.011365397532893212, "373": -0.08262819842950558, "374": 0.08404987596615618, "375": 0.15317041354645344, "376": -0.05777262775105113, "377": 0.008844095934851281, "378": -0.1540283697529456, "379": -0.05056579323831526, "38": 0.07441615896538532, "380": 0.05346510726067284, "381": -0.10607073498943279, "382": -0.11416489743909264, "383": -0.16022402755976684, "384": -0.06168880765550728, "385": -0.14226014315782154, "386": -0.06833597685064323, "387": -0.019528583011179573, "388": -0.05227408898074702, "389": -0.0461256537972839, "39": -0.024016942021348117, "390": 0.0506101951217101, "391": 0.06308066789641281, "392": -0.0718402689766072, "393": 0.02635871299141391, "394": -0.09758414083738176, "395": -0.06990812623925631, "396": 0.09184797755116947, "397": -0.020718740319792067, "398": -0.019225284727591004, "399": -0.12470530825961874, "4": -0.038018837436531734, "40": 0.04589447824783011, "41": -0.04567597004299679, "42": -0.1395251886983654, "43": 0.0961200159685829, "44": -0.07281046763451203, "45": 0.126395963005148, "46": 0.01580397480342791, "47": -0.0586904986641904, "48": -0.004710774851791895, "49": -0.044026189629451616, "5": -0.09943642810758963, "50": -0.054208112481626276, "51": -0.012523624458645693, "52": 0.07985252428538658, "53": 0.0022748693769048126, "54": -0.027405695076079786, "55": -0.05452045414357741, "56": -0.02311333774380121, "57": -0.07227183181211226, "58": -0.1458471765786201, "59": 0.007738808943098277, "6": -0.06427113437885802, "60": 0.011265537914434784, "61": -0.11970910624570598, "62": -0.12184631066768914, "63": -0.02517030379214476, "64": 0.06551959850988057, "65": -0.10706340609005821, "66": -0.00852967351649462, "67": 0.15964638156337835, "68": 0.016861313018811577, "69": 0.03560507572428907, "7": -0.10992478762565085, "70": 0.007357638561530556, "71": -0.07853838695135877, "72": 0.03004340059089535, "73": -0.12241050086984648, "74": -0.0812133061041204, "75": -0.09686211921211663, "76": 0.08846642461990127, "77": -0.09865596373990837, "78": -0.0906111374902471, "79": -0.021337638449908363, "8": -0.07494023323200595, "80": -0.018988303969090133, "81": 0.005573665690486192, "82": 0.005746330655301896, "83": -0.04116553007741709, "84": -0.04771458985415594, "85": -0.06883663909785921, "86": -0.005632894223853271, "87": -0.08591960640501389, "88": -0.07765122301735855, "89": -0.004222811907135726, "9": 0.07378505788315687, "90": -0.03493849458815096, "91": -0.1008674705420954, "92": -0.011779115118611495, "93": -0.09198195081347903, "94": -0.00262822313044117, "95": 0.025111029716537548, "96": 0.03476194555207912, "97": 0.016582025040211595, "98": -0.004874306981477463, "99": -0.03321397259445807}}, {"depth": 16, "sx": 5, "sy": 5, "w": {"0": -0.18180818237186397, "1": -0.004004758259266094, "10": 0.07822458365163742, "100": 0.10089369552148728, "101": 0.014414859733622554, "102": -0.043960697180437394, "103": -0.062195207409436765, "104": 0.04359447674041544, "105": -0.032500763431678334, "106": -0.1430731200358337, "107": 0.012223175520145936, "108": 0.01407352043384444, "109": 0.07636033152518382, "11": -0.05615093585638847, "110": -0.0231971473101084, "111": -0.0992410276451715, "112": 0.05779907486851395, "113": -0.2109948842566875, "114": -0.08046734844541657, "115": -0.11434712921535634, "116": 0.11682906197873032, "117": -0.033504270767272734, "118": -0.09755746421104725, "119": 0.004860077581657257, "12": 0.08585317517470334, "120": -0.0002639241085482119, "121": 0.10282558592102062, "122": 0.12602870508000547, "123": -0.059771476519235665, "124": -0.072706460071366, "125": 0.04368925862677202, "126": -0.09056299748283385, "127": 0.06724392872419882, "128": -0.02503636313836492, "129": -0.13276596040566224, "13": -0.05946075524667576, "130": 0.049553348739845154, "131": -0.09803309939381759, "132": -0.03486330102176439, "133": -0.07648922024993207, "134": -0.06529230802188851, "135": -0.04481547430410632, "136": 0.13254001122438233, "137": 0.013296784838279703, "138": 0.03825061487751516, "139": -0.09930942263273213, "14": -0.10783782254773337, "140": -0.17130677238274614, "141": -0.15606090423082367, "142": -0.009884278194740909, "143": -0.051323702290502746, "144": -0.04834538727604663, "145": -0.15811160629121723, "146": -0.08470298149639917, "147": -0.07836765995425694, "148": -0.04412611711668869, "149": -0.0803473342152943, "15": 0.19933490601273285, "150": -0.030764325687322947, "151": -0.07878325910057475, "152": 0.022364936026883976, "153": -0.052383497734006475, "154": 0.01705687403320618, "155": -0.1393559287412018, "156": -0.011016179678143152, "157": -0.09830299297018702, "158": 0.01487490245720667, "159": -0.15854757458969324, "16": -0.10042407279200175, "160": -0.11691683279652258, "161": -0.06171571603321932, "162": 0.03955569538821802, "163": -0.02157245325891925, "164": -0.09438022737789274, "165": -0.038733515082537306, "166": -0.2616040906079667, "167": -0.18779385957245667, "168": 0.11983280121581917, "169": 0.009113852635229635, "17": 0.15905806387501054, "170": 0.18054322445047974, "171": -0.19972989468843436, "172": -0.07777994620773324, "173": -0.004334152410748772, "174": -0.005809755325127596, "175": 0.23342372614848134, "176": -0.09190786406743061, "177": 0.01263723296542989, "178": 0.06461792717844812, "179": -0.13459543707518998, "18": -0.040604984744788034, "180": 0.09165256089288996, "181": -0.10274199956375574, "182": -0.079443182882581, "183": -0.10197652955583342, "184": 0.17513990457482556, "185": -0.1286261767555337, "186": -0.040878370231431004, "187": 0.02407455196812114, "188": -0.14664394846645132, "189": -0.02743695086232262, "19": -0.0903635839787585, "190": -0.019955251105090596, "191": -0.17623998082477949, "192": -0.013356207042189691, "193": -0.17214175317443062, "194": -0.108199801989329, "195": -0.10185081508095876, "196": 0.07099710034984685, "197": 0.026456280734898023, "198": -0.12194306317280021, "199": -0.05546866344626843, "2": -0.060825857880726, "20": 0.01202635645209257, "200": -0.14638022499900075, "201": -0.10132258955625241, "202": 0.10256326311836222, "203": -0.07690944535457872, "204": -0.15798732939313592, "205": -0.03388276857107833, "206": -0.1791853319585834, "207": -0.028451739558144187, "208": -0.00947756814210828, "209": -0.06526608272513462, "21": -0.11565042829173616, "210": -0.04281790473399073, "211": -0.13901658857892177, "212": 0.05467881495129205, "213": -0.1649783497294475, "214": -0.19968798939034343, "215": 0.004470504397397769, "216": 0.004704061359207087, "217": -0.02838592480822995, "218": 0.024375505623368564, "219": -0.11327934075095042, "22": 0.168697183908591, "220": -0.08113770146256163, "221": -0.22121784908046843, "222": -0.07032753451896367, "223": -0.12343200772433134, "224": 0.08473054117048322, "225": -0.07367563499022689, "226": 0.0012222933313325343, "227": -0.22317601374873752, "228": -0.015206135190719804, "229": -0.10331080422795713, "23": 0.015474373664232773, "230": -0.21556881970670677, "231": 0.08608376447356217, "232": 0.09188030612954949, "233": -0.10069531671693481, "234": 0.009190010010609833, "235": -0.21527618785875768, "236": -0.10593084351486595, "237": 0.006925142625759016, "238": 0.021821781884234174, "239": -0.23104591781856068, "24": 0.04169102391573878, "240": 0.05669625965803994, "241": -0.13347385899769526, "242": -0.05630605843535501, "243": -0.07783152854127029, "244": -0.07952454626389148, "245": -0.02500348404715764, "246": -0.10580157670248877, "247": 0.023665845755246342, "248": -0.06218419427220534, "249": 0.016023669240793296, "25": 0.13420366093466768, "250": 0.16606961602072923, "251": -0.2342092533307876, "252": -0.16256169315419688, "253": -0.1113383381789315, "254": -0.08905399865370456, "255": 0.1507493060451284, "256": 0.1204435314751476, "257": 0.04692291238850097, "258": 0.015389097633748258, "259": 0.02095040864591761, "26": -0.04345873990063063, "260": 0.054151584993764754, "261": -0.11670697097974071, "262": -0.14713281120347624, "263": 0.01388885795306022, "264": 0.1651099949144313, "265": -0.05056104096903327, "266": -0.023081773134507225, "267": 0.08448826759400893, "268": -0.22357474314227405, "269": -0.006379328105753204, "27": 0.13005024749998706, "270": 0.0017849324644801932, "271": -0.07686712583898012, "272": -0.014130847609972136, "273": -0.15665805899282145, "274": -0.08211190824296286, "275": 0.05657789020398355, "276": 0.06157108117807222, "277": -0.051113260884888836, "278": -0.23587158975925573, "279": -0.06543102234773666, "28": 0.061572603461250285, "280": -0.15332438202749718, "281": -0.020801186511302142, "282": 0.0840489411998815, "283": 0.008539798549170407, "284": -0.14106250184147998, "285": 0.022516855459220334, "286": -0.10200346219442195, "287": 0.11025120492899505, "288": 0.08540605188644601, "289": -0.15677151763278824, "29": 0.15085645966988645, "290": 0.04703574588401383, "291": 0.014749735099512582, "292": 0.07369060941431099, "293": -0.07633423692649059, "294": -0.11273916392285255, "295": 0.12334845290175654, "296": -0.004789378405623199, "297": -0.04807525035670048, "298": 0.01744859847335202, "299": -0.05325259914094698, "3": -0.07399451463857125, "30": 0.07133520831692239, "300": -0.13771600156495953, "301": -0.14623182058048967, "302": 0.11661282717235383, "303": -0.07462180497478454, "304": -0.10224406666349015, "305": -0.20307934969522745, "306": -0.08629177374361335, "307": 0.014337354467966615, "308": 0.023806046057069704, "309": -0.071752480125878, "31": -0.07993632692894245, "310": -0.13713111918158505, "311": 0.06000952727647422, "312": -0.13236423111682083, "313": -0.015064215253968295, "314": 0.09434219016591014, "315": 0.01630363171087699, "316": -0.1381377937493813, "317": 0.030686893644297122, "318": 0.027382730278685763, "319": -0.24790743536521634, "32": 0.004788718665001259, "320": -0.17266669277512864, "321": -0.15253120266273326, "322": -0.1631948278928911, "323": -0.11216884057504613, "324": -0.002778633985207403, "325": -0.043966544026295414, "326": -0.16169083159160008, "327": 0.028132810770050434, "328": -0.0005836325548521665, "329": -0.006705653758135842, "33": 0.019880978102024566, "330": -0.0262744421029798, "331": -0.1640371011592429, "332": -0.08318701427259284, "333": -0.06097210794655974, "334": -0.05058577599514716, "335": 0.163950371547425, "336": -0.1368178175126249, "337": -0.048268662252742206, "338": -0.16355720199352963, "339": -0.11161376426481846, "34": -0.16353184172800003, "340": -0.02518642418823928, "341": 0.014736596565941285, "342": -0.12866187539420965, "343": 0.06147824071002045, "344": 0.1260055074857684, "345": -0.05926402704704116, "346": -0.0969098707980503, "347": -0.11156627361475514, "348": -0.20795557997839864, "349": -0.03781390109587656, "35": -0.08687770691178964, "350": 0.03587301056381526, "351": -0.19126208618278093, "352": -0.038601993556600336, "353": -0.13748655073001745, "354": -0.15324325423923457, "355": -0.01509020308829259, "356": 0.025252567145751588, "357": 0.04303840291769925, "358": -0.009887434351360127, "359": 0.04487075621718961, "36": 0.04179448113454403, "360": 0.004532181338890947, "361": -0.09428103504330115, "362": -0.0030645544715359, "363": -0.1394642208927825, "364": -0.09865062607333809, "365": -0.0380006510887831, "366": -0.14037635608233218, "367": 0.06224599719421705, "368": 0.01936836506487717, "369": -0.10014673851247241, "37": 0.026900192121642765, "370": -0.07126154465265999, "371": -0.0686290415421556, "372": -0.049418371943718856, "373": -0.18115969816111355, "374": -0.08435942199408222, "375": 0.012820139721813971, "376": -0.09850165372841668, "377": 0.06747659591655734, "378": -0.02690596568978276, "379": -0.03792918617019623, "38": 0.052664658674483465, "380": -0.17855570242713228, "381": -0.0821340408067749, "382": 0.014637936021060073, "383": -0.08571185862248991, "384": -0.12446201648997807, "385": -0.14616713330080058, "386": -0.16613719943301192, "387": -0.19023627623483702, "388": -0.02541898002229628, "389": -0.1475182265955275, "39": 0.02367873815518858, "390": -0.1458379378166584, "391": -0.05547553584728482, "392": -0.15116248042217656, "393": -0.07736701272789291, "394": -0.06074206932736057, "395": -0.092471584708512, "396": -0.14645211422620713, "397": 0.007542697063561965, "398": -0.11937329784612964, "399": -0.16339128154091273, "4": -0.022381060367141232, "40": -0.012767481027541345, "41": 0.1294152694072128, "42": 0.14705617144415614, "43": 0.02723417597583902, "44": -0.022626884212649547, "45": 0.1700732816202927, "46": -0.05636703088462382, "47": 0.03685808137116799, "48": 0.029925376410514987, "49": -0.004404318607122201, "5": 0.031545132470439614, "50": 0.005001501847187931, "51": -0.09663328340415107, "52": -0.15102231605187832, "53": -0.009057907771870466, "54": -0.12255900673771196, "55": 0.02411977393296206, "56": 0.24438633097961054, "57": 0.04325237335897399, "58": -0.021591420887048626, "59": -0.07016902277968437, "6": 0.17766526292218, "60": -0.0505474199408144, "61": -0.04473481298746141, "62": 0.05486226149022074, "63": -0.026217602979578796, "64": -0.03370180206072216, "65": -0.014423465407664857, "66": 0.01281267940235358, "67": -0.06341234367214348, "68": 0.04069101960436317, "69": -0.12923134260105004, "7": -0.033544892411036246, "70": 0.01522071159002573, "71": 0.09267693526268349, "72": -0.016045288252163746, "73": -0.05232566026616309, "74": 0.07666849687971429, "75": -0.0009141129960846902, "76": -0.02476316083442837, "77": 0.06308921786591766, "78": 0.06008603114528981, "79": -0.08041754175428298, "8": 0.10648711419462173, "80": -0.1165198812458726, "81": -0.010751278472821625, "82": -0.10166250437315405, "83": -0.14921387409842798, "84": 0.017337449503749953, "85": -0.06739453052657474, "86": -0.08929100074950962, "87": -0.044136722954526496, "88": 0.09808495664156036, "89": -0.020098847188976532, "9": 0.22895533539107846, "90": 0.018428638923955822, "91": -0.0841125311777065, "92": 0.028744549542094648, "93": 0.06844512485276427, "94": -0.13490104895945254, "95": 0.20777314193224866, "96": 0.05683340818217895, "97": 0.10096336666469172, "98": 0.12406660493087078, "99": -0.0444106767773154}}, {"depth": 16, "sx": 5, "sy": 5, "w": {"0": -0.01815481000314679, "1": -0.144409144324116, "10": -0.0728616996070051, "100": -0.07236576533129359, "101": -0.02054597515828558, "102": -0.08744470453605545, "103": -0.1374630610163119, "104": -0.09785498997307032, "105": 0.05071177194401807, "106": -0.043887009248829614, "107": -0.07256997401718737, "108": -0.052118846943897054, "109": -0.23285490929883243, "11": -0.04756172235539064, "110": -0.08814116129210002, "111": -0.07361359644959274, "112": -0.05672423544288447, "113": -0.04303044994348674, "114": 0.006152426943960974, "115": -0.06934512085130637, "116": 0.040575941745197075, "117": -0.04112054855870984, "118": 0.031199206771051497, "119": -0.1352277588940818, "12": 0.09573285726997646, "120": 0.019881406404214024, "121": 0.07580605250186374, "122": 0.029996891214489767, "123": -0.1878971486636241, "124": 0.10398917972980255, "125": -0.01834404448274556, "126": 0.04194540542169728, "127": -0.13028260816034823, "128": -0.06391924669087803, "129": -0.07607855330947379, "13": 0.059165084569545626, "130": -0.08343685921979906, "131": -0.006194161196050197, "132": 0.001240665641106538, "133": 0.0975639691327868, "134": 0.024439469045353178, "135": -0.04342207891509526, "136": -0.11000994562107537, "137": 0.02228406950513486, "138": 0.13312268493717708, "139": -0.1897611726360937, "14": -0.028180190607962567, "140": -0.024261445396090434, "141": -0.07437195716511238, "142": 0.0703499387791666, "143": -0.09947371622801254, "144": 0.007315926575293063, "145": -0.17752984741092007, "146": -0.032170378541521584, "147": -0.057628383331040305, "148": 0.038988798051605135, "149": -0.07135206382085674, "15": -0.2192774793888368, "150": 0.09819267456799288, "151": -0.09013778210174066, "152": -0.08114716787790309, "153": -0.0420340881901163, "154": 0.001717100652287211, "155": -0.14449039050532247, "156": -0.02102481366667285, "157": 0.0021529252215000427, "158": 0.0687596860151289, "159": -0.046157975246899255, "16": -0.01435275781320121, "160": -0.025487805882312295, "161": -0.1220511873775666, "162": -0.0297999974489825, "163": -0.03793868624792338, "164": 0.022806123943134998, "165": -0.014230692241462634, "166": -0.0333249999801372, "167": -0.10413886219993693, "168": 0.005084735482663119, "169": 0.06989220267343096, "17": -0.2099529186464505, "170": -0.06486653186749071, "171": -0.13444414352239184, "172": -0.13010180278002015, "173": -0.03130634220375194, "174": -0.11490406395437174, "175": -0.09348964004214362, "176": 0.030288251206367335, "177": -0.03020675062522277, "178": -0.049887330852503894, "179": 0.0917759146151916, "18": -0.09051979072966031, "180": -0.08608110793977208, "181": 0.06826961020787112, "182": 0.052682316404563695, "183": 0.049814878654844644, "184": -0.03619992667523525, "185": 0.013276006487581959, "186": -0.06324598323166995, "187": -0.09627177193490291, "188": -0.08630536224720341, "189": -0.12743275115710725, "19": -0.13548563099457014, "190": -0.13136768848891964, "191": 0.007968701874556667, "192": 0.06450458640166484, "193": -0.05560573800978361, "194": -0.17739407872317153, "195": 0.10917166846872194, "196": -0.11054870357485566, "197": -0.000827912981291098, "198": 0.06956146899808893, "199": 0.08071849945598318, "2": 0.0031886231984808865, "20": 0.060775592493967336, "200": 0.022681587099573394, "201": -0.01382093026278815, "202": 0.06670338344899934, "203": -0.11304616939680961, "204": -0.024210566859607676, "205": 0.09341341617226934, "206": -0.007469604810237804, "207": -0.26877173526141784, "208": 0.05346786347236762, "209": -0.009869496577942605, "21": -0.10727994583511109, "210": -0.038518653097329235, "211": 0.01663904368019235, "212": -0.1325452963117961, "213": -0.06463414798665036, "214": 0.024668566453108224, "215": -0.07507948312452366, "216": 0.023321275227617132, "217": -0.09346568157527299, "218": 0.06898577892946299, "219": -0.08169095138964404, "22": 0.012601106055079785, "220": 0.08208085257479204, "221": 0.06704518112733353, "222": -0.007925771643440351, "223": -0.06406354545503783, "224": 0.08566432478082223, "225": -0.12407588247319692, "226": 0.0029834792526134187, "227": -0.14164276598295777, "228": -0.10231654671637545, "229": -0.10719775430346744, "23": -0.1755019597751192, "230": -0.05534576216585169, "231": -0.05440856937519726, "232": -0.010019353240213124, "233": -0.14582570137890422, "234": -0.009713725364673463, "235": 0.0016350565898623226, "236": 0.008305532552144699, "237": 0.14712389042800803, "238": 0.05287994570461198, "239": 0.021974619411127952, "24": -0.24655958009266432, "240": 0.04973773068247045, "241": -0.03935782646750095, "242": -0.06986568047175731, "243": -0.06647559455900032, "244": -0.03164019173656618, "245": -0.1314121939333079, "246": -0.09043520267960352, "247": 0.055825073818504774, "248": -0.07108270455761079, "249": -0.1925078803783046, "25": -0.12258310510556544, "250": -0.04285126872849072, "251": -0.10587335912601424, "252": -0.04792434515755737, "253": 0.05073522186851772, "254": 0.014608665967996823, "255": -0.13428484225904852, "256": 0.13721105365243616, "257": -0.08823939203082896, "258": 0.0450969700239852, "259": -0.022599128058116404, "26": -0.08312986842137857, "260": -0.0751183989575836, "261": -0.06258025846985558, "262": -0.016704619399416167, "263": -0.07473385972563748, "264": -0.1868251358571249, "265": -0.1681177160292165, "266": 0.01867043687675365, "267": -0.08174839503571996, "268": -0.01911399525776119, "269": -0.049959289218453384, "27": -0.04631512625221894, "270": -0.022329222276057277, "271": -0.25315649354036424, "272": 0.09455877941965854, "273": 0.08597859162292346, "274": -0.08604599447018293, "275": -0.12564088166550647, "276": 0.017135169858844057, "277": -0.03764641535274748, "278": -0.03072128756069869, "279": 0.023569671296486995, "28": 7.983127023860823e-05, "280": -0.07748056505261651, "281": -0.09840379164078164, "282": 0.01380815669481524, "283": -0.00822562060334627, "284": -0.004552942492940276, "285": 0.19331022298925768, "286": 0.15997128996081003, "287": -0.24494736333329573, "288": 0.1678485689519951, "289": -0.10954185449904418, "29": -0.022428813254654317, "290": 0.01806528380571918, "291": -0.1684852666873612, "292": -0.004596213619874064, "293": -0.09647363409539712, "294": -0.1563641855033945, "295": 0.04967491647937319, "296": 0.058539308114269335, "297": 0.08539975090229272, "298": 0.04203940504810782, "299": -0.08176623225355042, "3": -0.11653804235518314, "30": 0.06377258636841386, "300": 0.05679012726102217, "301": 0.22889095134018642, "302": 0.17719862904976114, "303": -0.09914507350190216, "304": 0.16418098357344318, "305": -0.20037899811762544, "306": -0.09118042094431578, "307": 0.03763911956189342, "308": -0.03325016865675025, "309": -0.014427146762967184, "31": -0.16947590680856783, "310": -0.10747227706963473, "311": 0.09227768830192014, "312": -0.19147376215083833, "313": -0.15947664484698423, "314": 0.020998971461891513, "315": -0.030989141514624778, "316": -0.030243685894527327, "317": 0.08660957335566377, "318": 0.08409840141945503, "319": -0.03843320848373684, "32": -0.0037545156136193063, "320": 0.11357929279207053, "321": -0.09779990863922577, "322": 0.06680691180247245, "323": 0.08190956619022512, "324": 0.05176161552084828, "325": 0.06427103488163052, "326": 0.001408938665988276, "327": 0.09963068307037545, "328": -0.09945351498095549, "329": -0.1859251243596721, "33": -0.11461880636855751, "330": 0.07571249093579274, "331": -0.1081590994659703, "332": -0.0030556142210932963, "333": -0.05669998249083479, "334": -0.025978311644088786, "335": 