{"data": {"layers": [{"layer_type": "input", "out_depth": 3, "out_sx": 32, "out_sy": 32}, {"biases": {"depth": 16, "sx": 1, "sy": 1, "w": {"0": -0.05559049355897494, "1": -0.11523152854776597, "10": -0.07492210349550357, "11": -0.12811471008350422, "12": 0.002101780206873275, "13": -0.13063395783015547, "14": -0.2176748387963754, "15": -0.0015385316005663355, "2": -0.013346552027618867, "3": -0.06444316196777457, "4": -0.12687244211365054, "5": -0.07115613491479028, "6": -0.22052226386857007, "7": -0.21458961802608134, "8": -0.16739262653678258, "9": 0.11470790306944915}}, "filters": [{"depth": 3, "sx": 5, "sy": 5, "w": {"0": -0.17319419920287024, "1": 0.06212076003577293, "10": -0.005320781642679972, "11": 0.1901577762401188, "12": 0.11086798710198659, "13": -0.20441278797459878, "14": 0.08965446519493885, "15": 0.03519090402693823, "16": -0.1641812659927901, "17": 0.2796557208554026, "18": -0.12963411524350374, "19": 0.11633719921237155, "2": -0.049328309157369965, "20": 0.08470180220728711, "21": -0.21386778301728762, "22": 0.16834945394175566, "23": -0.05274981465252097, "24": -0.040408863655325866, "25": -0.32869848466824875, "26": 0.10657434847876011, "27": -0.07320130837575947, "28": -0.16890702112300635, "29": 0.11944641194686005, "3": -0.0061515297199307315, "30": -0.21799161795983055, "31": -0.21462925803144384, "32": -0.013339752630983411, "33": -0.18230711578877945, "34": -0.2679902789799297, "35": 0.040729600368871195, "36": -0.10744259064578686, "37": -0.2063730293748753, "38": -0.051843018161240456, "39": -0.2115369832162382, "4": -0.27086494393062177, "40": -0.17769652206533335, "41": 0.1837292150678759, "42": -0.473002319080428, "43": -0.028569267973146958, "44": 0.12202187568079377, "45": 0.007548515629709306, "46": -0.13113604990002517, "47": -0.04079173239730323, "48": 0.06992044531133314, "49": -0.20996344961569052, "5": 0.09016742682258932, "50": 0.10563346950467314, "51": -0.03484621496708562, "52": -0.0944057338138924, "53": 0.008488673889014123, "54": 0.08762669714448376, "55": -0.06338096380760824, "56": -0.20175821148134257, "57": -0.24553257387071353, "58": 0.050267448155671544, "59": 0.17505143747495622, "6": -0.10923339714029455, "60": 0.08898856375909066, "61": 0.3075653643457962, "62": 0.2235160475443638, "63": 0.12491457008716324, "64": 0.14673996567938624, "65": 0.16193213847327928, "66": 0.11483405554592983, "67": 0.25788976294664523, "68": 0.267607054500215, "69": 0.22972547039212934, "7": -0.1222475301461294, "70": 0.178008352670545, "71": 0.2730833454530401, "72": 0.16994262506755847, "73": 0.17285219368808258, "74": 0.4171407808121108, "8": 0.09038780973795307, "9": -0.21782591830045855}}, {"depth": 3, "sx": 5, "sy": 5, "w": {"0": -0.18157482547136483, "1": -0.08568323635117009, "10": 0.09821734797989665, "11": -0.12602230534513031, "12": 0.11038089247717402, "13": -0.01958868757869208, "14": -0.026149544789515335, "15": 0.035085650607940944, "16": 0.13003701321105998, "17": 0.05545571747099892, "18": 0.03350940686153946, "19": 0.1641193118549899, "2": 0.030614269127187392, "20": 0.12949475191626872, "21": -0.1704822876094987, "22": 0.06201571388454494, "23": -0.000823666264130528, "24": -0.10826126400589069, "25": 0.0842496192070296, "26": 0.06014198218328815, "27": 0.14018301396629362, "28": 0.09371409891328382, "29": 0.1845903891262417, "3": -0.21053343888036868, "30": -0.079019850259934, "31": -0.10586945592309063, "32": 0.17951606446047813, "33": -0.09368243063114162, "34": -0.05077959107406305, "35": 0.20168058968853475, "36": 0.23325189365565202, "37": 0.16006054654279225, "38": 0.06548706210288667, "39": -0.06079869223631187, "4": -0.047130412618154385, "40": -0.023142522835719225, "41": 0.10656774540587295, "42": -0.008315196552613075, "43": 0.048758186190545914, "44": 0.10426223223708167, "45": 0.013145800915025273, "46": -0.21574330128339236, "47": 0.15878668162272058, "48": -0.3318493307627775, "49": 0.007636762830935582, "5": 0.042598622233753165, "50": 0.059185127970015225, "51": -0.07097808957134287, "52": -0.13980181652898632, "53": 0.07385518249146299, "54": -0.14716990684523695, "55": -0.23310861988237788, "56": 0.17611840835027168, "57": 0.09261392975955009, "58": -0.112355733203158, "59": 0.16889908016893035, "6": -0.18604961369349088, "60": -0.12076233206869837, "61": -0.13126756128377431, "62": 0.053545852354879624, "63": -0.06488463562254207, "64": -0.07553159838897688, "65": 0.045516590483855965, "66": -0.18551826456130788, "67": -0.2044081829468782, "68": -0.00029637144511839887, "69": -0.30530782057348954, "7": -0.14063925721724785, "70": -0.09595308414525959, "71": 0.13496888016476727, "72": 0.09628065331175634, "73": -0.15657266393840202, "74": 0.009509885375987896, "8": -0.008684110891522856, "9": -0.012493771272237358}}, {"depth": 3, "sx": 5, "sy": 5, "w": {"0": 0.2879647619599137, "1": 0.060023389100600275, "10": 0.11770510335717285, "11": -0.23447816307630162, "12": 0.19043465459211503, "13": -0.060952075731606235, "14": 0.17591344827495076, "15": -0.022713664167251717, "16": -0.19978817075377026, "17": 0.11119819540110404, "18": 0.1636321309265297, "19": -0.13045089770441795, "2": 0.09726124076238656, "20": -0.09055240154419328, "21": 0.01599457329840916, "22": -0.11222760702976847, "23": -0.01107025516319317, "24": 0.1827794643985534, "25": -0.032389472841819235, "26": 0.2675882006472156, "27": -0.04868810861246228, "28": 0.22725053751114027, "29": 0.30438953616759573, "3": 0.10694092881326772, "30": -0.1844897336029009, "31": -0.20465366807225838, "32": 0.11897307174034263, "33": -0.047168374076297225, "34": 0.11057731518786237, "35": 0.14488796549480845, "36": -0.2245167562353384, "37": -0.03899202761368592, "38": -0.1230915683379705, "39": -0.10620788676870913, "4": -0.012399587164166583, "40": -0.004201098169546137, "41": -0.020411743761469862, "42": -0.27962111333463446, "43": -0.20299493440785535, "44": -0.22270402500247583, "45": 0.09193390776213466, "46": -0.09660467835154188, "47": -0.0389613543899575, "48": -0.2004175269396146, "49": -0.08480963331631078, "5": 0.01432909354400318, "50": 0.19603581693828326, "51": -0.20212247290277346, "52": -0.12094573429587926, "53": 0.28410827002859645, "54": -0.11361528622615075, "55": -0.04510033100905518, "56": 0.0701696762766568, "57": -0.12780193112272167, "58": 0.20016222461915945, "59": 0.16622317806788878, "6": 0.4479776221564542, "60": -0.15370747689435407, "61": -0.022391089311389573, "62": 0.22185653849780898, "63": -0.38836414451042056, "64": -0.04772297287884095, "65": 0.409019776075739, "66": -0.2270052925345817, "67": -0.06033102831257972, "68": 0.06759001501490802, "69": -0.2255862484558848, "7": 0.28966540488778514, "70": 0.051263150843236446, "71": -0.039384101983156033, "72": -0.2751327949527171, "73": -0.17362363071843107, "74": 0.2823756682230068, "8": -0.14027398281545564, "9": 0.4901904012723083}}, {"depth": 3, "sx": 5, "sy": 5, "w": {"0": -0.18553716333782913, "1": -0.27791193225762983, "10": -0.09465053606291031, "11": 0.19184602561934672, "12": -0.24901538088540484, "13": 0.09564080833288069, "14": -0.17254560236418426, "15": -0.1569228398187244, "16": -0.2723022440668706, "17": -0.22319489802869755, "18": -0.1777656406154504, "19": -0.023090284060491892, "2": -0.21552012410287308, "20": -0.10370175870071228, "21": 0.18814956254994772, "22": 0.20862113267647275, "23": 0.11692261730818931, "24": 0.08994382034409437, "25": 0.06662973118146857, "26": -0.016545316896226243, "27": 0.1051506354249217, "28": 0.06561354922115074, "29": 0.019016721934294583, "3": -0.16241193414870878, "30": -0.2799806422063267, "31": -0.13534407161529874, "32": -0.10946491407696213, "33": -0.13338282688247924, "34": -0.035011743247488535, "35": -0.19962717113649234, "36": 0.07987246359289879, "37": -0.002595065246704113, "38": -0.0070268657609089775, "39": 0.10554735711818486, "4": -0.1030921137943192, "40": 0.18419083339071585, "41": -0.043483728347072426, "42": 0.17600616819061324, "43": 0.142156283422558, "44": -0.07381058493127872, "45": -0.17648504897859524, "46": -0.3019437567581374, "47": -0.04372445966416446, "48": 0.03697162830074897, "49": 0.16062072499365698, "5": 0.03171835567549017, "50": -0.12358154941719722, "51": 0.09356937913340813, "52": 0.06671826853252412, "53": 0.3060786248824454, "54": -0.007835937625324408, "55": 0.24065544116756526, "56": -0.046306397587135444, "57": 0.022924148694737374, "58": 0.027161276764095573, "59": 0.049588763981171305, "6": 0.021890550148950826, "60": -0.15074650528586558, "61": -0.06757950687669818, "62": -0.16863358452373084, "63": -0.034730918955531875, "64": 0.0434165005961578, "65": 0.23005651864571325, "66": 0.17463447512969185, "67": 0.03590396389117046, "68": -0.09809261190288411, "69": -0.005905939685640957, "7": 0.1027317282155117, "70": -0.04554468132377102, "71": 0.2723838804029364, "72": 0.03549432406982145, "73": 0.1969937766446803, "74": 0.031804369966232135, "8": 0.15189729231344995, "9": 0.12376662852391745}}, {"depth": 3, "sx": 5, "sy": 5, "w": {"0": -0.07359117111767031, "1": -0.003028502368269386, "10": 0.06609389237806773, "11": 0.17800357181902898, "12": 0.04313191952055821, "13": -0.17610115177313823, "14": 0.2299185377020347, "15": 0.03527159981496886, "16": 0.06442091867628538, "17": 0.19325975286615696, "18": 0.01119544365916033, "19": 0.01523125177870445, "2": -0.024996752513219308, "20": 0.31893713342733687, "21": -0.12948312873289888, "22": 0.11874506642129952, "23": 0.2064814502977284, "24": 0.23364457833815855, "25": -0.08069457573270447, "26": 0.23197577639093794, "27": -0.07732118520377114, "28": 0.1192567400573556, "29": 0.07693544105219302, "3": -0.09044079740877421, "30": 0.068179275586933, "31": 0.32389637476190497, "32": 0.05131237594864985, "33": -0.01313132158599527, "34": 0.021087513258177572, "35": 0.07030830854984628, "36": 0.18327500313633127, "37": 0.02840220344371566, "38": 0.3086902284463685, "39": 0.047583133230137825, "4": 0.002561418034104486, "40": -0.10677632036699113, "41": 0.08514994122687446, "42": 0.2200245610400998, "43": -0.0745320257964272, "44": 0.13473558028059013, "45": 0.09218765442731539, "46": -0.01093887180000676, "47": -0.04956134861799252, "48": -0.01631059590927481, "49": -0.15220485156996727, "5": 0.22656143999726114, "50": -0.009457876310484, "51": 0.04585485583583686, "52": -0.18695096877315392, "53": 0.09441084180338112, "54": 0.10720927992749593, "55": -0.22977235462510787, "56": 0.026352157604437577, "57": 0.06608118435528962, "58": -0.0630113619497833, "59": 0.0415423552761555, "6": -0.08388661138721969, "60": 0.08457648892158795, "61": -0.1956884400515636, "62": -0.08571680165444892, "63": 0.05599104687237465, "64": -0.18449150643574408, "65": 0.044962184761323284, "66": 0.06737377744807964, "67": -0.2597581209830482, "68": -0.1291973145652521, "69": 0.14182932143147783, "7": 0.09772632641503208, "70": -0.12384980636638551, "71": -0.1354582714952805, "72": -0.03822726427695609, "73": -0.1222244094164314, "74": -0.08593546559474838, "8": 0.006779150242668116, "9": -0.16743743872065472}}, {"depth": 3, "sx": 5, "sy": 5, "w": {"0": -0.1557596735185228, "1": -0.06191415028858778, "10": 0.061762009968233264, "11": 0.08459483174784237, "12": -0.12663193666236822, "13": -0.009836698392318245, "14": 0.20505353889002084, "15": -0.09279833205377588, "16": 0.1972034079846181, "17": 0.26032164609221264, "18": 0.024738456880263448, "19": 0.11551155467561088, "2": 0.07766023779898226, "20": 0.1618443313066501, "21": -0.018655884925729737, "22": -0.19878806407143498, "23": 0.2695040331400433, "24": 0.07964070102549223, "25": -0.051159808777447156, "26": -0.061131808883105314, "27": 0.09909118877810573, "28": -0.1990220909767207, "29": 0.02134129380641642, "3": -0.1517809644119719, "30": -0.11536726371836964, "31": -0.06966093279328246, "32": 0.24847862105262306, "33": 0.042350350704028455, "34": 0.2499444959273698, "35": 0.20768586574634557, "36": 0.054877767557095974, "37": 0.05645380207750341, "38": 0.007257166622303312, "39": 0.01075719871455332, "4": -0.14865775797086347, "40": -0.004710153370427337, "41": 0.22993883032524193, "42": 0.28337366934062463, "43": 0.0842331478003639, "44": 0.23663686715352555, "45": -0.16542940734651992, "46": -0.15600594109052418, "47": 0.03193618192000308, "48": -0.020224507139724446, "49": -0.11923765336402876, "5": 0.19010938438917221, "50": -0.021636160523662448, "51": 0.1268654486027758, "52": -0.06742454396825341, "53": 0.06881309631549182, "54": -0.19765724690490324, "55": 0.07922060836314058, "56": 0.18921701120854834, "57": -0.06757645906314703, "58": -0.22297396882718545, "59": 0.07813860077241891, "6": -0.006735020672787292, "60": -0.19425453456688227, "61": -0.1441223844043922, "62": 0.012788963215268349, "63": -0.23433504830781435, "64": -0.06551934601944231, "65": -0.004277587967966982, "66": -0.38405476563318236, "67": -0.18652930390828004, "68": -0.08139440507560597, "69": -0.09758873344414673, "7": -0.07115604462546418, "70": -0.017185304037250885, "71": 0.09714810289664348, "72": -0.09953811442827645, "73": -0.20230002025159416, "74": -0.11817560865456035, "8": 0.02522629213542196, "9": 0.11991684318509536}}, {"depth": 3, "sx": 5, "sy": 5, "w": {"0": -0.0038279706610503308, "1": 0.22566690891361563, "10": 0.03465026160188195, "11": 0.2234172299858857, "12": 0.16615392967720055, "13": 0.09122759962252623, "14": 0.0013572892023406844, "15": 0.0652680854452696, "16": 0.17144552517980463, "17": -0.008615585177539431, "18": -0.13548908904254497, "19": 0.11146466117254139, "2": 0.18831276013753317, "20": 0.22015227608313775, "21": 0.02301912769542246, "22": 0.25777902302551003, "23": 0.07061824861734087, "24": -0.06461941713324779, "25": -0.14279594565334056, "26": 0.10132604428575916, "27": 0.2695294355084773, "28": 0.11801430809072828, "29": -0.0016904485033062248, "3": -0.15247456349396715, "30": -0.11828364105191189, "31": 0.06564026962119393, "32": 0.013709383509012572, "33": 0.1743944546120747, "34": 0.030961579769259416, "35": 0.0167419125558632, "36": -0.047583008554751074, "37": 0.19648882239643503, "38": 0.09036955912310882, "39": 0.08032879803670329, "4": 0.022020827737338544, "40": 0.08442752190793132, "41": -0.015647914874722967, "42": 0.008253305398015713, "43": 0.08729838627112177, "44": -0.11956544923273928, "45": 0.022827862198276587, "46": -0.11035434178986496, "47": -0.05623725697090874, "48": -0.1724850770253607, "49": -0.11711980536940636, "5": 0.32337623260759235, "50": -0.022895858650343947, "51": -0.1267832897399817, "52": -0.15005708871459056, "53": -0.11402237356167857, "54": -0.12756430221301, "55": -0.025951047215031407, "56": -0.20699591357112695, "57": 0.019476591653295853, "58": 0.03025287756516191, "59": 0.07076224998791043, "6": -0.10150800498027956, "60": -0.06261443107164845, "61": -0.06765488019239141, "62": 0.042197432645927714, "63": 0.03568706891585175, "64": -0.07805731797464238, "65": -0.02981085613821654, "66": -0.0867169721439499, "67": 0.09805446641180984, "68": 0.19095768359191254, "69": -0.08455920970907381, "7": 0.06043597739655664, "70": -0.025346939742362216, "71": 0.015193349082513043, "72": -0.16974075167522723, "73": -0.280971724139184, "74": 0.027073348052699953, "8": 0.22693446904567274, "9": 0.1204382182134091}}, {"depth": 3, "sx": 5, "sy": 5, "w": {"0": 0.008830479030712747, "1": -0.06299534210706814, "10": -0.16147381929472907, "11": 0.050146003000100005, "12": 0.13436293373739722, "13": 0.10377358790269414, "14": -0.07666597108829055, "15": -0.002041318911699761, "16": -0.12803940731128288, "17": 0.03963152839105865, "18": -0.007773582317042693, "19": -0.08075554179474387, "2": 0.11699809558546766, "20": 0.050178625370266135, "21": -0.04198245132202894, "22": 0.02220677209342897, "23": -0.10889611064273243, "24": 0.028083003728301716, "25": -0.23999506380579433, "26": 0.10666250900670693, "27": 0.24172786274212918, "28": 0.014025743062963178, "29": -0.08541027533740624, "3": -0.08311286753520368, "30": 0.09773925394431415, "31": -0.036324666419799784, "32": 0.08731490875571225, "33": 0.21373095763650382, "34": 0.0689453213444504, "35": 0.11770318071462914, "36": -0.041639281731520136, "37": -0.11956599281066449, "38": 0.21113123101807524, "39": 0.035847350881986054, "4": -0.18438024783358084, "40": 0.01512265729900094, "41": 0.04370234239773854, "42": 0.06889015008761905, "43": -0.06006103882782332, "44": 0.01035275486115804, "45": 0.000766336968513962, "46": 0.057839572894609545, "47": -0.0053439067333483576, "48": 0.09726643581405157, "49": -0.23497843949914143, "5": 0.03132402521054869, "50": -0.11297740682247404, "51": 0.014760724387360208, "52": -0.10531226760130849, "53": 0.07902294314828287, "54": 0.029722987395870596, "55": -0.26713621297671514, "56": 0.09006065987935222, "57": 0.17626034741761626, "58": -0.20854121774095838, "59": 0.21549659991025033, "6": 0.05813704248772687, "60": -0.012960967857771025, "61": -0.17589110161577196, "62": -0.11927803437595337, "63": 0.20460233006428646, "64": -0.3105015994827939, "65": 0.07642410537621178, "66": 0.038802573019353005, "67": -0.19960674227460082, "68": -0.11745716752034852, "69": -0.04878060786962393, "7": 0.12312881287506446, "70": -0.1697549087019444, "71": 0.0762922391896872, "72": 0.22591083816377483, "73": -0.26903555966025167, "74": -0.11840548600997715, "8": 0.17043876361173124, "9": 0.05602503886296405}}, {"depth": 3, "sx": 5, "sy": 5, "w": {"0": -0.18892657047485178, "1": -0.27535376105279896, "10": -0.13294564518923419, "11": -0.0425861675549947, "12": -0.21506874110252255, "13": 0.14094501578448068, "14": -0.15200199369826473, "15": 0.02988312881931207, "16": 0.07879645020550106, "17": 0.007233034210977651, "18": 0.09515986008182221, "19": 0.09116771042042054, "2": -0.03757553432353067, "20": -0.1960023093422063, "21": -0.04013868148242266, "22": 0.07070278664353206, "23": 0.21020220706457224, "24": -0.015405855575365366, "25": 0.0869000673489057, "26": 0.09239735079892437, "27": 0.07256365550733151, "28": 0.012862511597068728, "29": 0.15165932851175132, "3": -0.024963120921093734, "30": 0.23367959217174433, "31": 0.30445595817336313, "32": 0.31074458210149086, "33": 0.13169209473899904, "34": 0.26389931598840183, "35": 0.23116443432643463, "36": 0.12897131353558175, "37": 0.20348552892464775, "38": 0.11170586214763893, "39": -0.06835969361078884, "4": -0.06180845644050122, "40": 0.13123552768848495, "41": 0.1599460629497092, "42": 0.1801376728136055, "43": -0.1635752832639035, "44": 0.06557258965309311, "45": 0.08643244382826326, "46": 0.13288287403573287, "47": 0.16005272392828443, "48": -0.12771023884152471, "49": -0.28699367752379834, "5": -0.23988895727801796, "50": -0.07251943604911218, "51": -0.13496000557912216, "52": -0.27175540465161957, "53": -0.046520452263575006, "54": 0.009257465156409714, "55": -0.013816415142952433, "56": -0.1379489482946702, "57": -0.08216588041006084, "58": -0.16826639677060867, "59": 0.0243302616498573, "6": -0.005740035359452951, "60": -0.17364720104190934, "61": -0.15849674193521274, "62": -0.006102727078570333, "63": -0.02567938188237018, "64": -0.06995248440814832, "65": -0.27443758518876815, "66": 0.0156371344451542, "67": 0.007268416483280293, "68": 0.1841802220576617, "69": 0.08061506103948766, "7": -0.12662682596275915, "70": -0.10614038232715894, "71": -0.08600744077079894, "72": 0.07564865845034642, "73": -0.13622791904075646, "74": -0.21658373922847626, "8": 0.07195043226243376, "9": -0.15061011749082853}}, {"depth": 3, "sx": 5, "sy": 5, "w": {"0": -0.20322940589120372, "1": 0.17505688455368476, "10": -0.07889459865146989, "11": 0.21917754723539, "12": 0.07177871754131386, "13": -0.07038504176109331, "14": 0.010581520775962793, "15": -0.3211683559562782, "16": -0.033666314194696546, "17": 0.11025407788325481, "18": -0.20700460897157777, "19": 0.05130767861843981, "2": 0.257295867413061, "20": 0.07707575504644382, "21": -0.29988504366256746, "22": 0.11611415028919841, "23": 0.02313424345867213, "24": -0.1812719449312937, "25": -0.10144096484253476, "26": 0.010281144194213554, "27": -0.10988598311094364, "28": 0.06891880168299863, "29": 0.20372148443696225, "3": 0.053144717262431196, "30": 0.05975213717051334, "31": -0.042305483444714735, "32": 0.08777294179578654, "33": -0.29535171540837124, "34": 0.09097182614470055, "35": 0.06389695682266544, "36": -0.16128196338439008, "37": -0.016089310675152693, "38": 0.17982081135547287, "39": -0.04447300541031457, "4": 0.19793126898750807, "40": 0.07607410374415396, "41": 0.2134572144043793, "42": -0.07407123422465986, "43": -0.04038513725737134, "44": 0.24314202485751865, "45": -0.22628885823026812, "46": -0.0776855238207506, "47": 0.17238492991652093, "48": -0.11456900755018404, "49": -0.03374312539043978, "5": 0.0285243452819451, "50": 0.19593738107760644, "51": -0.3971494819534252, "52": 0.07490993659047933, "53": 0.20885771300441716, "54": -0.47042747810516106, "55": -0.0800133602725811, "56": 0.21831703253946572, "57": -0.15989451277485134, "58": 0.17765960869320646, "59": -0.004957953216072625, "6": -0.03767253142745355, "60": 0.016059179081259495, "61": -0.1215103951838959, "62": 0.037786181977654855, "63": -0.06495830990906458, "64": 0.10918823482883519, "65": 0.07997443863137835, "66": -0.06299547269469097, "67": 0.01178349019646057, "68": -0.04854935986577553, "69": 0.05698328201101244, "7": -0.04882874848559266, "70": 0.17439175967500634, "71": 0.24667722678867607, "72": 0.0647287988541776, "73": -0.05612082564824262, "74": 0.3943285669920172, "8": 0.21687766054327742, "9": 0.1222460881563972}}, {"depth": 3, "sx": 5, "sy": 5, "w": {"0": -0.4044847808448009, "1": -0.4070979954529449, "10": 0.02258993729393894, "11": -0.10112316621127171, "12": 0.02018660502550999, "13": -0.052303415927519595, "14": 0.25161840737976565, "15": -0.163569921352581, "16": -0.26568754118678095, "17": -0.3364092466775633, "18": -0.08541500705289329, "19": -0.19169667865001994, "2": -0.19028359975008458, "20": -0.1285980462739274, "21": 0.04755622410015945, "22": 0.20586396136108687, "23": 0.11832310640369867, "24": 0.23236658563865284, "25": 0.13294400553270558, "26": 0.1450808732271101, "27": 0.12542149374482126, "28": 0.13607451656045033, "29": 0.06150716535735451, "3": -0.18297244582141925, "30": -0.10442913290605434, "31": -0.21556380791042057, "32": -0.047239722045737315, "33": -0.11395509053255179, "34": -0.14971333363509784, "35": -0.1505095393910153, "36": 0.0036060466781165632, "37": -0.18741176641723598, "38": 0.12983553984834315, "39": 0.08377650631711551, "4": -0.25610494461140143, "40": 0.03748558118108056, "41": 0.0712653574534144, "42": 0.10012784591878125, "43": 0.07720631086438823, "44": 0.000722624714192896, "45": 0.007963971244282723, "46": 0.13685982661403776, "47": -0.09496745015293832, "48": -0.08824620190655298, "49": 0.09784794584040589, "5": 0.07430829555727123, "50": -0.08400013440830126, "51": 0.13906531684192594, "52": -0.23439646227733058, "53": -0.10536814397863178, "54": -0.016614181528546313, "55": 0.2662693823594314, "56": 0.16454981095532353, "57": -0.08076110565848212, "58": -0.0038842826082844725, "59": 0.2920538670602192, "6": 0.1961508953977769, "60": -0.06057458588944513, "61": 0.012101882990939405, "62": -0.02088245089225606, "63": 0.0822017581925571, "64": -0.1624915328771997, "65": 0.039384628503513805, "66": -0.05499987129392341, "67": -0.1835325567513306, "68": -0.03523717175727976, "69": 0.08600615505436929, "7": -0.027716379571602893, "70": 0.06288282428089526, "71": 0.12489138761412628, "72": 0.03726647808479167, "73": 0.2226964281205856, "74": 0.2529516109805167, "8": 0.12565432116993325, "9": 0.061188759283242466}}, {"depth": 3, "sx": 5, "sy": 5, "w": {"0": 0.33687725070564484, "1": -0.23562282352367053, "10": 0.020997217119489844, "11": 0.015625882207457763, "12": 0.11429659219898348, "13": 0.10002848005104002, "14": -0.049427698109273985, "15": 0.00221927915902959, "16": -0.2368588412361767, "17": -0.005028914076829202, "18": 0.1142638897343954, "19": 0.06803852823688943, "2": -0.025077076214561546, "20": 0.21030499618629722, "21": 0.0346285224137022, "22": -0.06722916378153879, "23": 0.18802334245631966, "24": 0.07103204248399796, "25": 0.04052037913582087, "26": 0.05958183136525716, "27": 0.12196538241813587, "28": 0.20129102034450633, "29": 0.040479046034491414, "3": 0.28492812385928595, "30": -0.001401617570214265, "31": 0.1309285010040523, "32": 0.1330359182354257, "33": -0.028168551402479397, "34": -0.1169464286176269, "35": 0.0787682134126354, "36": -0.07056457884207037, "37": 0.0051110516111889616, "38": 0.08291565096603218, "39": -0.10164813064328419, "4": -0.1120207366910584, "40": -0.17526402737347735, "41": 0.03588838686330348, "42": 0.08783639546351986, "43": -0.21854708350598584, "44": 0.023157250080789213, "45": -0.24479306550774818, "46": -0.02389034792462026, "47": -0.05930708938003469, "48": -0.19872186635206016, "49": 0.01316393260353529, "5": 0.1350546222762585, "50": 0.05574370174597166, "51": 0.1645698340868799, "52": -0.00037702413551100563, "53": -0.050283112817158235, "54": -0.036380047172956384, "55": -0.15784568519805472, "56": 0.04617544536539852, "57": 0.06326980672022413, "58": 0.16400256175699862, "59": 0.11683013366050757, "6": 0.10487295510568757, "60": 0.007070210149555972, "61": -0.021473004964151887, "62": 0.3176656779366964, "63": -0.2023379032799138, "64": -0.18719016994078996, "65": 0.09469732286739298, "66": -0.0916576623231766, "67": -0.18791640375663932, "68": 0.05139210461912844, "69": -0.21849050816137297, "7": 0.09273537369148337, "70": -0.21216752509831696, "71": -0.1705226420322788, "72": -0.1981587490904148, "73": -0.20841706338546578, "74": 0.07985816845538722, "8": 0.04073153048723424, "9": 0.21143736489612722}}, {"depth": 3, "sx": 5, "sy": 5, "w": {"0": 0.11290246127825586, "1": -0.19918751884431118, "10": -0.04226784905323771, "11": 0.1329445842157361, "12": -0.09338731601859632, "13": 0.06077920774011328, "14": 0.0988890456154417, "15": 0.12999275659826812, "16": -0.09932909158760347, "17": -0.026420656754436302, "18": -0.07736044352471019, "19": 0.20698896799070868, "2": -0.006083060166076381, "20": 0.06665121415063716, "21": -0.041283603462863784, "22": -0.027580087503014557, "23": 0.1548097746678203, "24": 0.09923948935343667, "25": -0.2058488690209325, "26": 0.13474853701550638, "27": 0.12964073128801434, "28": 0.2358680784848332, "29": -0.10744517554521814, "3": 0.0835718093766368, "30": -0.09626259044544358, "31": 0.09259671175160954, "32": 0.09755271825732209, "33": -0.08207072493299258, "34": 0.02247552841092497, "35": 0.1381453820220728, "36": -0.0816671967117044, "37": 0.0623252834530114, "38": 0.046259849155530754, "39": -0.057612141177078136, "4": -0.1713993632066645, "40": -0.16043476388688008, "41": 0.3175176548619963, "42": -0.10486944646456797, "43": -0.10064464240652099, "44": 0.26007084250019874, "45": -0.3063398130466583, "46": 0.0818379652035065, "47": 0.14281872590713685, "48": -0.06595995657912906, "49": -0.0002127880625268691, "5": -0.17388391539086537, "50": -0.0587282704137435, "51": -0.15352692875445206, "52": -0.03734062764237883, "53": 0.18000387228811204, "54": -0.038104099397076936, "55": -0.078438275263029, "56": -0.03806704435978781, "57": -0.11324946823820058, "58": -0.018194385589353414, "59": 0.1527063434335323, "6": 0.05622776514711922, "60": -0.05261287629130899, "61": -0.21152273380496636, "62": 0.27449379421861486, "63": -0.21053882551048228, "64": -0.1106387655738081, "65": 0.10311018951564753, "66": -0.2334253522353368, "67": 0.28045665238950673, "68": 0.14229863061103032, "69": -0.17745596463150756, "7": -0.14315650802378774, "70": -0.0897182940575267, "71": 0.05804941225308733, "72": -0.1063017163762737, "73": 0.0968865642365299, "74": 0.19339070271118272, "8": 0.030623072722417446, "9": 0.12623439749983958}}, {"depth": 3, "sx": 5, "sy": 5, "w": {"0": 0.24158751687761143, "1": -0.13498991273266295, "10": 0.04347625549948296, "11": -0.05766530388272767, "12": 0.24038758156135456, "13": -0.20146055819218858, "14": -0.03111984282970306, "15": 0.18137825526752563, "16": -0.16750995186790157, "17": -0.15733761884594719, "18": 0.11046148714206323, "19": -0.300936675666682, "2": -0.07982820423738449, "20": 0.10430507038734307, "21": 0.12218711915821402, "22": 0.03250244214219731, "23": -0.06557505279012929, "24": -0.068533037057008, "25": 0.04685042789830672, "26": 0.09442668129500204, "27": -0.12053708590677795, "28": -0.052797380157304244, "29": 0.16353199405942923, "3": 0.07082831561577094, "30": -0.08307400396855881, "31": -0.09353692136579544, "32": -0.07962916793862634, "33": -0.015534076574425577, "34": -0.3560532115906431, "35": 0.05911383611397656, "36": 0.18943973244437118, "37": 0.021995297461022707, "38": -0.03570074861553254, "39": -0.07963559782768817, "4": -0.17038441162654333, "40": -0.03771741188302881, "41": 0.046296544047713176, "42": 0.04585194698915673, "43": -0.11483385521217154, "44": -0.0043513952302211625, "45": -0.1261622839138299, "46": -0.07041920083287816, "47": 0.1334490633355567, "48": -0.14296418161650162, "49": -0.01133007776666542, "5": 0.098199309580158, "50": -0.021129799450981666, "51": 0.2013003131048556, "52": -0.18246498813181483, "53": -0.1919293222488981, "54": 0.009070894174106003, "55": -0.14183372723671808, "56": 0.012286085637692915, "57": -0.11067460647822093, "58": -0.03712218694130317, "59": 0.08510085051276248, "6": 0.06054618041292344, "60": -0.2537166223035307, "61": -0.10465660811842704, "62": 0.10264367212031746, "63": -0.05025342247226162, "64": -0.09110939149130907, "65": 0.10897844350716425, "66": 0.09288503121581601, "67": 0.05526811111564948, "68": -0.05377962547305726, "69": 0.06198323134566346, "7": 0.02537476161335986, "70": 0.05573718641197269, "71": 0.1763037308082928, "72": 0.039223764413938926, "73": 0.09199593228302584, "74": 0.07479016148392677, "8": 0.12087378500869081, "9": -0.03656877605582553}}, {"depth": 3, "sx": 5, "sy": 5, "w": {"0": 0.2228811843461521, "1": 0.01779008220145811, "10": 0.054282549278717784, "11": 0.17340746698823767, "12": 0.21185472449781387, "13": -0.1721470038593329, "14": -0.11592353473241139, "15": 0.08905085774547798, "16": 0.14542213847780847, "17": -0.2843896707756301, "18": 0.078822286653523, "19": 0.03998967472511412, "2": 0.15907263003580882, "20": 0.08834689593672314, "21": 0.09321684540860826, "22": -0.09817210203137829, "23": 0.07824021192504145, "24": 0.038457044731821086, "25": 0.19850731867542132, "26": 0.0006809921979988244, "27": 0.08018623309820416, "28": -0.15865078852918693, "29": 0.04529986595126436, "3": 0.07316355004265876, "30": 0.22196866821481392, "31": 0.06402008247176937, "32": -0.0537972857698306, "33": -0.04388138908382656, "34": 0.05477321260339776, "35": 0.2695331366415713, "36": -0.18285246154692064, "37": -0.2137922701738434, "38": -0.19811933282836725, "39": 0.05683641498782512, "4": 0.2521375600056585, "40": 0.14455637332880186, "41": -0.1449945100818285, "42": 0.09953460264401383, "43": 0.0335305516850994, "44": -0.22315856033400497, "45": -0.1404009872027785, "46": 0.021578166992732364, "47": -0.10116215077693422, "48": -0.06191330178870716, "49": -0.22361592256462812, "5": 0.09505650730984248, "50": 0.04076240092279554, "51": -0.18099075399375272, "52": -0.018406904412936246, "53": -0.11147360434096201, "54": 0.057370452817997415, "55": -0.057710859172928626, "56": 0.013008753324290603, "57": 0.13376620993955204, "58": -0.09117021056021263, "59": 0.05830813560293905, "6": 0.1714283011659135, "60": -0.04710924945696074, "61": -0.13678250420491994, "62": 0.0683086542695942, "63": -0.050710674422534435, "64": -0.1934161361944371, "65": -0.19451065292438996, "66": -0.26946903360817737, "67": -0.3414348995008973, "68": 0.1294638748123337, "69": 0.03894066230492875, "7": 0.06349583832935664, "70": -0.03607320064903872, "71": -0.04282883341837251, "72": -0.038956054255691486, "73": 0.25022239627547416, "74": 0.054608505997383275, "8": 0.12379320832088456, "9": 0.35773090988382716}}, {"depth": 3, "sx": 5, "sy": 5, "w": {"0": 0.10723442311830217, "1": 0.056844738555441046, "10": -0.25531223524086816, "11": -0.1927888137154473, "12": -0.1261976939391845, "13": 0.10609755550914407, "14": -0.08083249489535589, "15": 0.035690248915405294, "16": 0.07774031777480818, "17": -0.0776046939664552, "18": 0.13959435953875118, "19": 0.2328153434310342, "2": -0.014126165035129703, "20": 0.11163636896438489, "21": 0.06333512773428251, "22": 0.046708659373693354, "23": -0.0720040139537241, "24": -0.21097433034595778, "25": -0.01565156184699531, "26": -0.017017943096434025, "27": -0.09319543573314165, "28": 0.05128199333514669, "29": -0.12220218332159717, "3": 0.05276029722595305, "30": 0.02118606191143983, "31": 0.2187466398412681, "32": -0.06715390115503556, "33": 0.06069259255848732, "34": -0.07962947843218711, "35": 0.05721542090944569, "36": -0.0012038813750984245, "37": 0.19707605322352637, "38": 0.15445207246535633, "39": -0.11665801332077975, "4": 0.07903431478034696, "40": -0.0879957913094865, "41": -0.021310784097404764, "42": -0.1728991999565543, "43": 0.03863998238227386, "44": -0.20386920058680363, "45": 0.22798061029134567, "46": 0.2134604940010574, "47": -0.047726722872516315, "48": -0.048684313529443426, "49": 0.08281330124530256, "5": 0.025115724271037067, "50": 0.09619216449307212, "51": -0.056949660725765565, "52": 0.21158207029001283, "53": -0.1283191636722574, "54": -0.07898258121675032, "55": -0.20413264891238161, "56": -0.03689240767989361, "57": -0.07734873618224779, "58": -0.20955618539477855, "59": -0.0144400596953612, "6": 0.01582706289084146, "60": -0.09948646060279721, "61": 0.1867386912001308, "62": -0.042551831141737946, "63": -0.41018696757051537, "64": 0.13149152006233214, "65": 0.10972048618698237, "66": 0.028417442091258866, "67": 0.16534779181492293, "68": -0.15889279462443995, "69": 0.09180458511185559, "7": -0.05684847989130899, "70": -0.03312681954156794, "71": -0.03616295421253634, "72": -0.04763376726105837, "73": 0.30409697817526526, "74": -0.1219554649531201, "8": -0.03383234092539359, "9": -0.12693441617451134}}], "in_depth": 3, "l1_decay_mul": 0, "l2_decay_mul": 1, "layer_type": "conv", "out_depth": 16, "out_sx": 32, "out_sy": 32, "pad": 2, "stride": 1, "sx": 5, "sy": 5}, {"layer_type": "relu", "out_depth": 16, "out_sx": 32, "out_sy": 32}, {"in_depth": 16, "layer_type": "pool", "out_depth": 16, "out_sx": 16, "out_sy": 16, "pad": 0, "stride": 2, "sx": 2, "sy": 2}, {"biases": {"depth": 20, "sx": 1, "sy": 1, "w": {"0": 0.2244526426474581, "1": 0.0518348868322514, "10": 0.3704694463037421, "11": 0.12599684833432745, "12": 0.061138928461759424, "13": 0.22893899380680904, "14": 0.20286207494099365, "15": 0.21410787088150543, "16": 0.08903056897676496, "17": 0.11038099329597462, "18": 0.13697134172257386, "19": 0.19601181123772807, "2": 0.19365622341908537, "3": 0.182890542406861, "4": 0.13068182599596484, "5": 0.10713472270905552, "6": 0.2502306705779942, "7": 0.06733052229783508, "8": 0.0009266622618653894, "9": 0.07128795235487413}}, "filters": [{"depth": 16, "sx": 5, "sy": 5, "w": {"0": 0.023711398277950456, "1": -0.018535312815654036, "10": -0.05600813451085976, "100": -0.1296567181981721, "101": -0.09947614303241252, "102": -0.12823813377053336, "103": -0.039856988459823245, "104": 0.07137814613711264, "105": -0.1406036650938565, "106": 0.05000049058607056, "107": -0.10019969943775524, "108": -0.09284154348642602, "109": -0.06656645094224295, "11": 0.024423814568478145, "110": -0.028814896925840522, "111": 0.09451003118556381, "112": 0.024906704699933953, "113": -0.09413773029389692, "114": -0.16198634803116418, "115": -0.012456789837223196, "116": -0.055826124381480664, "117": -0.15898955676242033, "118": -0.04515912728398903, "119": -0.06568337147561448, "12": -0.06526021467127842, "120": 0.20931780245907772, "121": -0.13926795794691416, "122": 0.05909027367201868, "123": 0.005960889378443511, "124": -0.08847628175742794, "125": -0.13421498882841168, "126": 0.037795265177200006, "127": 0.08486425088039906, "128": 0.20512296245547226, "129": -0.07883428526430718, "13": 0.14518438733420266, "130": -0.1295267129088386, "131": 0.0033594686095742804, "132": 0.015404194462260894, "133": -0.19058372350003536, "134": -0.003571881739463751, "135": -0.07749172695998181, "136": 0.11699630230849796, "137": -0.073297504100378, "138": 0.1730406934968016, "139": -0.0306067108672881, "14": 0.01329760129438941, "140": -0.09139873211810579, "141": 0.09325427310661157, "142": -0.026623647146530087, "143": 0.05740319780407679, "144": 0.1946093459153058, "145": -0.003507640848796068, "146": -0.0526369825327746, "147": 0.17341625793273238, "148": -0.030158643905807758, "149": -0.07419362004568407, "15": 0.21760232017507683, "150": -0.0970438567536402, "151": -0.05774410513694092, "152": 0.036247867705878976, "153": -0.01366274260583206, "154": 0.17950030395632754, "155": -0.007076028234033135, "156": 0.06295517186453503, "157": 0.09339185353627986, "158": 0.06658210117274825, "159": -0.036185637084263596, "16": 0.051556425218555385, "160": -0.08336083085497616, "161": -0.08163688414839008, "162": -0.018325083780865076, "163": 0.061579486084133564, "164": -0.049561032233833166, "165": 0.10811938709739342, "166": 0.040406896567936695, "167": 0.0014849582568390682, "168": 0.024262118378126155, "169": -0.08839332086184232, "17": -0.015572536374245771, "170": 0.03034075418651546, "171": 0.04098122814285788, "172": 0.024864936971100936, "173": -0.10039784523197048, "174": 0.04387029679685333, "175": -0.05926551545950199, "176": -0.19914730163302988, "177": -0.014627009014089025, "178": -0.059795781267686636, "179": 0.03114444092107646, "18": -0.09915343566316384, "180": 0.019683243660557903, "181": -0.03469866306162343, "182": 0.0571024444723963, "183": 0.02248349034913749, "184": -0.06742840890176839, "185": -0.1316764647793301, "186": 0.09047221871240524, "187": -0.004608275410146627, "188": -0.008973468789008884, "189": -0.126698134237891, "19": 0.12228064056340682, "190": 0.08065696086666878, "191": 0.0066424172840920765, "192": -0.14732039401491984, "193": -0.03662910665753991, "194": -0.16104623477969549, "195": -0.05992529873388141, "196": -0.0409204996157504, "197": -0.051278065752707186, "198": -0.0345403193888434, "199": -0.07436514563960901, "2": -0.030321000985556432, "20": -0.064162216331747, "200": -0.08009984675024057, "201": -0.1319545960615083, "202": -0.02048706478425711, "203": -0.10794292530356182, "204": 0.02823387163274754, "205": 0.045044307987623204, "206": -0.013118144623272923, "207": 0.18478833085614416, "208": -0.07012812981384413, "209": -0.11128888918013687, "21": -0.09163915409986974, "210": -0.07718554273086592, "211": 0.07281768519336158, "212": -0.11699589575010477, "213": -0.03924988619122048, "214": -0.006930838687737149, "215": -0.0017711130055108734, "216": -0.05377323524440843, "217": -0.19977424166263555, "218": -0.03675312866242566, "219": -0.09842237089231505, "22": -0.07583582749204797, "220": -0.02613310209988098, "221": -0.04299978101017393, "222": -0.07310567883330907, "223": 0.027527726865875828, "224": -0.08222649530982584, "225": 0.07761787937703574, "226": -0.07557589150837005, "227": 0.007144901616605574, "228": -0.08542441363733291, "229": 0.004056786075160264, "23": 0.04098905409605952, "230": -0.028982130410759158, "231": -0.015716338281210565, "232": -0.0443583744726869, "233": -0.06891062898563359, "234": 0.05888982776810377, "235": -0.013543876017926778, "236": -0.04806552513559254, "237": -0.06350934655646553, "238": -0.05270144330874859, "239": 0.001854727716837864, "24": 0.021676612729906623, "240": -0.23817161743581083, "241": 0.0005545940030557438, "242": -0.05975322394813183, "243": 0.08530875740370064, "244": 0.07084648438944097, "245": -0.014163602344051647, "246": -0.03268033663530461, "247": -0.1640757166260221, "248": -0.008487256550723821, "249": -0.10446669142819422, "25": -0.18933802879663603, "250": 0.031876164579265745, "251": 0.027006291318103583, "252": 0.0043401559231179025, "253": -0.022740905043453368, "254": -0.1206848026385507, "255": -0.11441647359733864, "256": -0.06800987627361824, "257": -0.00702933036566932, "258": -0.32586696387658914, "259": -0.026837265975582617, "26": 0.10279818356105482, "260": -0.03922704971321171, "261": -0.0843307316288897, "262": -0.020845064804866534, "263": -0.03382526139271861, "264": -0.08849559247085796, "265": -0.08250945991180182, "266": -0.1944388494410307, "267": -0.05836646557876978, "268": 0.0480846956276221, "269": -0.03528597463525849, "27": 0.037108863498148285, "270": 0.019073126601794926, "271": 0.04245281968751934, "272": -0.038876385065604896, "273": -0.027285521989412552, "274": -0.31109023624640064, "275": -0.010068909623466824, "276": -0.07013288768903465, "277": -0.08456521194522229, "278": -0.10103340444941797, "279": -0.042882460906928176, "28": -0.21583761543577945, "280": 0.08996522052706535, "281": -0.059363387682120856, "282": -0.16090806262054017, "283": -0.106160281224865, "284": 0.021613915857088505, "285": -0.07779968026112814, "286": -0.03825923507346931, "287": -0.04074886286261159, "288": -0.1382262696240644, "289": 0.015554820779747111, "29": 0.0954874377276773, "290": -0.18115964678570587, "291": -0.08303426495212278, "292": 0.025278385944019644, "293": -0.042768765844859766, "294": -0.009752259878471262, "295": -0.07256794201789882, "296": -0.05307078261322233, "297": -0.10598804347350144, "298": -0.024751644900655862, "299": 0.046178343843179606, "3": -0.050033620196238825, "30": -0.0856326699039958, "300": 0.08160922761522604, "301": -0.052185002482939134, "302": -0.08874428364334307, "303": 0.049921787123840565, "304": -0.1932371446994588, "305": -0.01879667355878167, "306": -0.2009169709419801, "307": -0.016871598160486688, "308": 0.029616045492256094, "309": -0.034333517541264305, "31": 0.14290579933780645, "310": 0.0056144021593832515, "311": -0.028941252413583026, "312": 0.0441629552509626, "313": -0.17713384121545034, "314": -0.04233163469705559, "315": -0.03144168214917822, "316": 0.08685897328051448, "317": -0.051203370911707846, "318": -0.0037110587523296527, "319": 0.09911250867141436, "32": 0.12877164273306363, "320": -0.27331696617662593, "321": -0.07442877357718086, "322": -0.08046951699204963, "323": 0.029670297411495197, "324": 0.007781643026065142, "325": 0.051150638375915554, "326": 0.022576744009065414, "327": 0.016532407250098267, "328": -0.003792698049134086, "329": -0.10779158970797569, "33": 0.020569749558645857, "330": -0.0125948408045866, "331": -0.09304736028107903, "332": -0.047308406284057226, "333": -0.1128332932795284, "334": -0.00609016870596377, "335": -0.03091515549828767, "336": -0.2916316367793995, "337": -0.08833834787697914, "338": -0.21399141000456073, "339": 0.060606569218841035, "34": -0.0974752415988548, "340": -0.0055179519466258325, "341": -0.09266686673649602, "342": -0.05970216630201303, "343": -0.13653444906782256, "344": -0.03581422067583045, "345": -0.08716779902801908, "346": -0.026553290819039056, "347": -0.08842512386294504, "348": -0.11964445523155702, "349": 0.03726111950089725, "35": 0.04812144589148583, "350": -0.00829339227993164, "351": 0.06810338392188048, "352": -0.2526892323947121, "353": -0.13584968091278374, "354": -0.2226317199240635, "355": -0.010605000592607296, "356": 0.028668140570751528, "357": -0.1394593883001663, "358": 0.07042979445988429, "359": -0.11641156667106048, "36": -0.06962529614702472, "360": 0.03910039479309519, "361": -0.13615038710300162, "362": -0.10619446227719556, "363": -0.0803785138692559, "364": -0.038585008989684734, "365": -0.010768413427057068, "366": -0.08206215481305287, "367": -0.028418850638595224, "368": -0.1869409987993199, "369": -0.15256915060730586, "37": -0.09731031167660194, "370": -0.178734432102131, "371": -0.07818025285634049, "372": 0.06444256742450383, "373": -0.024990649597887583, "374": 0.04784060693611588, "375": -0.027320091294209533, "376": 0.16384484078976577, "377": -0.16954394532561456, "378": -0.11175647832826195, "379": -0.06060060010304376, "38": 0.028430397626282498, "380": -0.0884198127845283, "381": -0.05621471452388016, "382": -0.046203391801757726, "383": 0.12471855301046292, "384": -0.12228062811371258, "385": -0.04199693262910224, "386": -0.06856959290295188, "387": -0.026902660823966525, "388": 0.020151635085002933, "389": 0.009521579071209417, "39": 0.052272528246934936, "390": 0.03578079284173759, "391": -0.10344902234847735, "392": 0.09321353639402805, "393": -0.13948030259677532, "394": -0.05402963350965241, "395": 0.01520266804674764, "396": -0.1627514353215208, "397": 0.07287112427528632, "398": -0.0393684185260969, "399": 0.11181123309592905, "4": 0.03346814540628394, "40": 0.15219358446266942, "41": -0.2052277428677852, "42": 0.018537050449577992, "43": 0.08968274730078804, "44": -0.18926489196553925, "45": 0.023056512293219443, "46": 0.026763093010003288, "47": 0.22497946518903983, "48": 0.05724315380052188, "49": 0.0137088236422593, "5": -0.036967377366823526, "50": -0.07129404395550311, "51": -0.012202720784691026, "52": 0.07705079746188584, "53": -0.05895167485624145, "54": 0.0027301524782607166, "55": 0.09999557270195872, "56": 0.07274549629140868, "57": -0.1263260733515324, "58": 0.0056977028894947095, "59": 0.07490920178290238, "6": 0.04741584363703793, "60": -0.19470991735728896, "61": 0.08618246004754777, "62": 0.06706055541501138, "63": 0.12249878293988474, "64": 0.15060680307489532, "65": 0.17375356074336518, "66": -0.031884557435092206, "67": 0.28740353885103337, "68": -0.05038352386674941, "69": 0.06537373034342053, "7": 0.10107527054207968, "70": -0.05346674333558736, "71": 0.1077307000408763, "72": -0.060071951263365536, "73": -0.03441919069722726, "74": 0.2586054857965613, "75": 0.045089272180854276, "76": -0.06766121839250507, "77": 0.198244511537016, "78": 0.08279554724127083, "79": -0.09515194044841062, "8": 0.0646830188222866, "80": 0.09903290949873046, "81": -0.04295148416938893, "82": -0.11849889874612347, "83": -0.1290605280705961, "84": -0.1148229097360977, "85": -0.11929142692560758, "86": -0.043263478285002606, "87": -0.08674968409657428, "88": 0.041669795091016246, "89": -0.10298913619284013, "9": -0.043096051137348726, "90": 0.001100015452856731, "91": -0.07060151029641637, "92": 0.017108797325733668, "93": -0.042141845153423695, "94": -0.08993485599286218, "95": 0.12271863878189634, "96": 0.07711482704235337, "97": -0.0023520657160207925, "98": -0.08752027969633078, "99": 0.03309419807713657}}, {"depth": 16, "sx": 5, "sy": 5, "w": {"0": -0.0005544537815631152, "1": -0.11577325553370978, "10": -0.08031947537659169, "100": -0.045002644308767166, "101": -0.03373755698196631, "102": -0.03632495474752606, "103": 0.02323770517268488, "104": -0.04120684051048105, "105": -0.04925699899639738, "106": -0.08198822343023453, "107": -0.0186907007575354, "108": -0.045762330859947464, "109": -0.001147093275147817, "11": 0.007764977621139447, "110": -0.04450080024174217, "111": -0.007001449194859044, "112": -0.045156813658149525, "113": 0.026474041594393816, "114": -0.022509789102729667, "115": -0.08584598603051835, "116": -0.034000537107183516, "117": 0.03432701159376013, "118": 0.00026987661220767936, "119": -0.004064867733580013, "12": -0.11460528955253972, "120": -0.00011137550554074602, "121": 0.00028472003337274437, "122": -0.04170366395776487, "123": -0.1225677760223172, "124": -0.059482723257624215, "125": -0.15296858533404292, "126": -0.031549906462942076, "127": -0.04401282510360409, "128": -0.04036373577225334, "129": -0.030563745299264547, "13": -0.08803955561188227, "130": -0.07533494448710687, "131": 0.0988507383125558, "132": -0.028411359979482943, "133": -0.012511550755610884, "134": -0.016641996677239774, "135": 0.006685036688769695, "136": 0.035430605974524354, "137": -0.08840261770533153, "138": 0.049815789245082745, "139": 0.0036736915443376546, "14": 0.041808864703658806, "140": -0.08544544474119264, "141": -0.07937514568136185, "142": 0.0170870610636313, "143": -0.036071052535009994, "144": -0.06578252751567915, "145": 0.02250615964472352, "146": -0.08766051655730096, "147": -0.09695054930020963, "148": -0.04586606529504081, "149": 0.012187476586270316, "15": -0.08940333444342027, "150": -0.013062260034402301, "151": -0.01706924154750616, "152": -0.01987208284042133, "153": -0.0701520987849624, "154": 0.011046861423859163, "155": -0.036172008416099403, "156": -0.08118447616417056, "157": 0.004948337551557663, "158": -0.08515575730438725, "159": -0.018258848962603685, "16": -0.007950859798501558, "160": 0.007618307362509254, "161": -0.038645697197935154, "162": 0.011749738281599026, "163": -0.019148855680537695, "164": -0.05179831146233078, "165": -0.003346378855602374, "166": -0.08702093176955548, "167": -0.010488227051605655, "168": -0.048765065898547975, "169": -0.08390576614582436, "17": -0.026083799250718232, "170": -0.03906161802380264, "171": -0.05569180158364467, "172": -0.059016355408864025, "173": -0.04115895714421574, "174": -0.12331967462197406, "175": 0.11605525165519329, "176": -0.002289177518843395, "177": -0.0608587385655413, "178": -0.06687298920725016, "179": -0.0977983779036742, "18": 0.005220511717036237, "180": -0.06733268722612241, "181": -0.0034525336508553785, "182": -0.07669468151986733, "183": -0.029179437189911464, "184": -0.037971109458167444, "185": 0.012519636431936884, "186": -0.0017425410133443762, "187": -0.06490060797441217, "188": 0.0329967613829439, "189": -0.05971217631087908, "19": -0.035217631693040055, "190": -0.04633380619113255, "191": 0.06783365342098784, "192": 0.018304887729097302, "193": -0.07055478312685036, "194": -0.006987105347976198, "195": 0.1563251966928683, "196": 0.030915034946754953, "197": -0.03738557260473945, "198": -0.11602476384208714, "199": 0.007713127728299731, "2": 0.11953135921240735, "20": -0.01001095096805832, "200": -0.011121116599525792, "201": -0.08785305676806586, "202": -0.004427115555826221, "203": -0.06659929521011727, "204": -0.029626966468109795, "205": -0.019342674822875973, "206": -0.03440542840318879, "207": 0.018640674887328044, "208": 0.02101605689285434, "209": 0.02521063398568112, "21": 0.043559437395411175, "210": -0.023817204289383057, "211": 0.03077118840523359, "212": -0.08269281408700707, "213": -0.0113353146517842, "214": 0.03828442301298691, "215": 0.07130014772714786, "216": -0.12061460033680355, "217": -0.022762054935375378, "218": -0.017393757896746548, "219": -0.06117283786059716, "22": 0.02549627574375009, "220": -0.057818317041998954, "221": -0.027309635760223813, "222": 0.017920596200736556, "223": 0.01897406672784982, "224": -0.07605444432772807, "225": -0.026753690235362476, "226": -0.0815745385120397, "227": -0.0637803943153437, "228": -0.03515679708878641, "229": 0.06687499639283588, "23": -0.028911083607109107, "230": 0.0285396684120915, "231": 0.05628553013396448, "232": 0.01709154155934422, "233": -0.0653701737511616, "234": -0.022743426585489914, "235": 0.014919301383164149, "236": -0.04977112296403137, "237": 0.020942947530975108, "238": -0.016580856647479447, "239": -0.021966214361633662, "24": 0.04128283724296583, "240": 0.013240809649021332, "241": -0.015885359662768373, "242": -0.05787446504305901, "243": -0.013348233130949499, "244": -0.06942138610578918, "245": 0.07748480217498702, "246": 0.03309999089497831, "247": -0.021354206598501277, "248": 0.000976883070302869, "249": -0.086542866978904, "25": -0.08794786153061254, "250": -0.05815495624724688, "251": 0.013054330788467981, "252": -0.07607320252486434, "253": 0.02056861425068332, "254": -0.018730681944142097, "255": 0.0686510777968935, "256": 0.040380149432182336, "257": -0.009106509442904587, "258": -0.05608705018616749, "259": -0.0713207859376879, "26": -0.10599224558864531, "260": 0.047204167703673, "261": 0.012660919334858725, "262": -0.001445067539155727, "263": 0.09171026046728792, "264": -0.09426826397598166, "265": -0.040933657573231017, "266": -0.008319200860752045, "267": -0.021554431157222467, "268": -0.07812082934410283, "269": 0.061146972121962934, "27": 0.050229961594028275, "270": 0.033818108417809856, "271": -0.036772048117163614, "272": -0.031909678012547564, "273": -0.00013532845218131506, "274": -0.04397581293072406, "275": 0.022623445397065612, "276": -0.04442634805331111, "277": -0.03041754846884486, "278": -0.033321582963297555, "279": -0.005521423205541811, "28": -0.031040335018155153, "280": 0.042232920498020195, "281": -0.0664078721085274, "282": 0.0543170652744027, "283": -0.005069188480581514, "284": -0.02608609292082076, "285": -0.0024770737255347774, "286": -0.012393416617300035, "287": -0.07891462755741535, "288": -0.008741299976630298, "289": -0.05126358714739594, "29": 0.0005336143150052611, "290": -0.05098012360066977, "291": -0.055185946448581026, "292": -0.07131807301929868, "293": -0.07629477504475961, "294": 0.031217221602283664, "295": -0.020656695293318365, "296": 0.021856216479876407, "297": 0.04817152607108124, "298": 0.05420041616153055, "299": -0.08865185612862915, "3": -0.02508755157889594, "30": -0.07175400665167857, "300": 0.02422692331529118, "301": 0.011727670188326357, "302": -0.008445793523388692, "303": 0.029763839476712114, "304": 0.07526989152961894, "305": -0.040493005485853904, "306": -0.09236715267545767, "307": -0.02267260231178111, "308": -0.09306723549469816, "309": -0.022521390666860125, "31": -0.11194774488727176, "310": -0.05091277686223385, "311": -0.04104369112237412, "312": -0.039676918202757275, "313": -0.07791475305069627, "314": 0.00030967034048434217, "315": 0.00736632003394786, "316": 0.03164280220909992, "317": -0.012254899803834563, "318": -0.04094172827788254, "319": 0.05713135370884009, "32": -0.02654458904013569, "320": -0.07565199512101989, "321": -0.01785912377477123, "322": -0.07947304293450051, "323": 0.016353998824208252, "324": -0.039350367628152395, "325": -0.07786005799407231, "326": -0.014611162246065346, "327": -0.003993635928171382, "328": 0.021094556119867224, "329": -0.07082597955342183, "33": -0.00612393570162673, "330": -0.09263375255067029, "331": 0.03123576575992454, "332": -0.11656973583856721, "333": -0.00298170083044355, "334": -0.004457397682995677, "335": -0.00626076028707849, "336": 0.037573818923565136, "337": -0.05183906260741781, "338": 0.06408937186994541, "339": 0.06788592698469678, "34": 0.0462383393498027, "340": -0.11911019497924066, "341": -0.06392011086925531, "342": 0.007387655704148341, "343": -0.021430553167456616, "344": -0.013505696426679793, "345": 0.033359242479995777, "346": -0.036904854436266434, "347": -0.01449113631778727, "348": -0.014785535075816992, "349": -0.10458584664107001, "35": -0.12814800162160273, "350": -0.0861221844334481, "351": -0.006625081591098034, "352": 0.03623904902624798, "353": 0.004178797626262665, "354": -0.08064241466170399, "355": -0.04226128231434765, "356": -0.004288388377823941, "357": -0.056846510874718904, "358": -0.02540253612406812, "359": -0.05239397011997791, "36": -0.057644300643541826, "360": -0.11199291970226306, "361": -0.11899432693041949, "362": -0.009121013451927272, "363": 0.013281830124900551, "364": 0.052495508907471074, "365": -0.13019303391223772, "366": -0.007946724219902284, "367": -0.0019036716111452416, "368": -0.03544101842596147, "369": 0.008208327432839675, "37": 0.008745103020128845, "370": 0.020758846145577686, "371": 0.07182652396118851, "372": -0.010429590282965119, "373": -0.042250240260152935, "374": 0.009621226296518582, "375": -0.011258624584880592, "376": -0.022937247269772202, "377": -0.018590837357776533, "378": -0.012042865603148548, "379": -0.029194022216170446, "38": 0.060465359642106385, "380": 0.03622981606396334, "381": -0.05992565182016155, "382": 0.04838608246731814, "383": -1.3821727278845615e-05, "384": -0.026045899925244573, "385": -0.065876228638444, "386": -0.10464630338920065, "387": -0.021477264517035195, "388": -0.01719232458559978, "389": 0.031770124547091355, "39": 0.0018376473242151421, "390": 0.021970528799661177, "391": -0.032895841756080235, "392": 0.0014428911084725321, "393": 0.0008069911223846881, "394": 0.013520050826654069, "395": 0.05662217902398428, "396": 0.020586998981150868, "397": -0.07912151625771058, "398": -0.08618814351694816, "399": -0.04595358036941585, "4": -0.08976895152436735, "40": -0.14556015126520014, "41": -0.00019126581780144693, "42": -0.0424696300764626, "43": 0.22405110122908978, "44": -0.06388533979994253, "45": -0.06485065054331891, "46": 0.0967671505817728, "47": -0.03118840874462309, "48": -0.03894652877400297, "49": -0.05386629119282626, "5": 0.00018350099786120484, "50": 0.03057570023888756, "51": -0.014860674729791426, "52": -0.055129476106133654, "53": -0.048184707380354394, "54": 0.09765541161976689, "55": -0.013422792300281604, "56": -0.14581099898449812, "57": -0.08352979835066131, "58": -0.06898987473128934, "59": 0.005639562210682558, "6": 0.02653899758031672, "60": -0.0721880828671106, "61": -0.013102582206479276, "62": 0.14015701067838887, "63": -0.12888898349669226, "64": -0.07102444961152961, "65": -0.08621254140567491, "66": -0.016810226042006916, "67": 0.06410098212919438, "68": -0.028321153947268606, "69": -0.019562319249310605, "7": -0.008687469941546863, "70": 0.07787963234447635, "71": -0.017425300232300416, "72": -0.09026047063911405, "73": -0.010621027755534699, "74": -0.007255077770575897, "75": 0.010470859063341628, "76": -0.13324877513248595, "77": -0.02268008872189792, "78": -0.011276287589189478, "79": -0.03030004599069573, "8": 0.0895356856857339, "80": -0.050519455298175475, "81": -0.03319768950059143, "82": -0.09540371603414997, "83": -0.02225904415083336, "84": 0.05126708315960084, "85": -0.0030676699138331865, "86": -0.06558374009833781, "87": -0.046152125079616864, "88": -0.05487623873577441, "89": -0.030828472528929802, "9": -0.09549986018334844, "90": -0.08479249369424517, "91": -0.01872454259383973, "92": 0.014782873865462468, "93": -0.020194393760381926, "94": 0.0033960116842484574, "95": 0.07272514016691396, "96": -0.052046043798892085, "97": -0.004048415874165862, "98": -0.0567021036130308, "99": -0.024629727943492625}}, {"depth": 16, "sx": 5, "sy": 5, "w": {"0": 0.016214738344168683, "1": -0.026357271360731755, "10": -0.15080379923002427, "100": -0.03450747767547766, "101": -0.05550482598865092, "102": 0.017064250916120034, "103": -0.11894556260117249, "104": 0.03647897023817939, "105": -0.08253130457166075, "106": -0.045192421244770326, "107": -0.07785623247481563, "108": -0.03809270403545383, "109": -0.04653466062462282, "11": -0.092196192975674, "110": -0.12136662142024085, "111": -0.09627039447192329, "112": 0.11108484864281491, "113": -0.004824317810057063, "114": -0.013891736598351016, "115": 0.06657879903313231, "116": 0.1233201447112045, "117": 0.06181889688126931, "118": 0.029860719013881237, "119": 0.0607008575599731, "12": -0.10274146758408098, "120": -0.008275297763032423, "121": -0.11066513525536759, "122": -0.0019992501985602097, "123": 0.0175073596958259, "124": -0.020522191722584432, "125": 0.056263427370259314, "126": 0.029713085083733853, "127": -0.0732925784839084, "128": 0.10873121663460118, "129": -0.0051092240983227795, "13": -0.04838246569268872, "130": -0.09834166061599364, "131": -0.047685275541070854, "132": 0.10541907110014753, "133": -0.022841599456518206, "134": -0.07796349562039954, "135": 0.026709676957475236, "136": 0.07567551531415795, "137": -0.17667032479648803, "138": 0.0012182195893985063, "139": -0.074057412168575, "14": -0.11550734770132645, "140": -0.0985721784812772, "141": 0.014763872290173303, "142": 0.03714931159851536, "143": -0.0045494469876340435, "144": 0.0530966383729152, "145": -0.03998663640170422, "146": -0.13439709927416574, "147": -0.06509421364262045, "148": 0.08672352095464905, "149": -0.04845181953671313, "15": -0.07085894968601719, "150": -0.10030622344944373, "151": 0.03046510268990425, "152": 0.1006566951681562, "153": -0.09497343207887637, "154": -0.015313043897011566, "155": -0.06188973137180791, "156": -0.036256957033221786, "157": 0.0943832477083467, "158": 0.010658705244705335, "159": -0.010171572258677193, "16": 0.02176527573973478, "160": -0.07241174885169764, "161": 0.10030870438286438, "162": -0.06713283545177037, "163": -0.1694476478035535, "164": -0.0013961334991261505, "165": 0.0022066541578420807, "166": 0.04741879815986525, "167": 0.004843194429858144, "168": -0.060204168192736086, "169": -0.035476298494732945, "17": 0.05440791832435478, "170": -0.028113777414840314, "171": 0.05853259895833976, "172": -0.030629078592461438, "173": 0.0068464757023990064, "174": -0.06889131745579725, "175": -0.20690662180374356, "176": -0.10728639069247832, "177": 0.06279862311095667, "178": -0.0454726846355721, "179": -0.08450297722545874, "18": -0.11171683109289288, "180": 0.025343902704727334, "181": 0.09338950087036439, "182": -0.04787816028973584, "183": 0.05433073986751406, "184": 0.03068683408623894, "185": -0.0012979817126725275, "186": -0.10411230771097865, "187": 0.025054282274174135, "188": -0.020028954398441733, "189": -0.027579934048193526, "19": -0.03731385729224217, "190": 0.03911192377858465, "191": -0.10566049430706374, "192": 0.01731111984220452, "193": 0.04163581686524593, "194": 0.11999392554072263, "195": -0.00927600252489981, "196": 0.09920186731573832, "197": 0.11378329548104674, "198": 0.035574466701300114, "199": 0.11504161843582354, "2": -0.17140192717352332, "20": -0.07286144514500284, "200": -0.011330850071264047, "201": -0.09601664495680264, "202": -0.009162660302400033, "203": 0.12103399694798954, "204": -0.02874337650882711, "205": -0.024159212915666358, "206": 0.14966496218250652, "207": -0.03497020290186559, "208": -0.036564960520390134, "209": -0.06214129623103815, "21": -0.04363282270873384, "210": 0.008818068510727115, "211": -0.061771893442211324, "212": 0.05774453518761841, "213": 0.028048454704644423, "214": 0.0831380509118973, "215": -0.11306229066914093, "216": 0.04475248454409066, "217": -0.03843523011211835, "218": 0.003597198566284606, "219": -0.0011636302644675344, "22": -0.1499780486902358, "220": 0.0354506191485573, "221": 0.004346335355853659, "222": 0.06029527536926917, "223": -0.07130637609961342, "224": 0.05452828591819747, "225": -0.06724392635133837, "226": 0.04687673203435973, "227": 0.03558406557988212, "228": 3.149176943700481e-05, "229": 0.1076531790193384, "23": -0.060515595850083384, "230": -0.01236063261166632, "231": 0.0065077044360784455, "232": -0.1208726617104502, "233": -0.15972556822487483, "234": 0.1284099746285143, "235": 0.06892591217796744, "236": -0.024055802850122005, "237": 0.04440321733885025, "238": 0.05028913243986197, "239": -0.021781560771655942, "24": -0.04512293889796602, "240": -0.055071597596581486, "241": -0.005733673040778791, "242": 0.04827973006632752, "243": -0.0634495000170028, "244": -0.05939002852927187, "245": 0.08536703428473007, "246": 0.032297032119883586, "247": 0.0012136973077845135, "248": -0.05439742538018199, "249": -0.016394348128362105, "25": -0.03706306919247467, "250": -0.010749648924776685, "251": 0.13801010519618678, "252": -0.07665593916812809, "253": -0.0014394535924089472, "254": -0.0011194458682364974, "255": -0.0073795913618451, "256": 0.03694485514475644, "257": 0.0271197710477853, "258": 0.015117906856205877, "259": -0.03015139802738501, "26": -0.04329808065054607, "260": 0.011513808020449564, "261": 0.1432127064598787, "262": -0.013809362531586005, "263": 0.09282578380322545, "264": 0.029529447857865113, "265": 0.03139660097324278, "266": -0.11411569499639751, "267": 0.08111632617809143, "268": -0.022887652694207426, "269": 0.040960424548021866, "27": -0.028212001654859646, "270": 0.04674866655731882, "271": -0.012008536656256149, "272": 0.004229956074888848, "273": -0.021275772750920192, "274": -0.021776583547531418, "275": -0.12939391378230242, "276": 0.01827065340469806, "277": 0.021454854008123633, "278": 0.07321502473311743, "279": 0.02842316545125547, "28": -0.05412953612303639, "280": -0.02412723919368774, "281": -0.12135850989554818, "282": -0.007639666608242932, "283": -0.04739708325073806, "284": -0.12572358038509943, "285": 0.06605538013099908, "286": 0.02853118191319781, "287": -0.10071334377816661, "288": -0.03327479628909302, "289": -0.09010759139407731, "29": -0.10743113860614875, "290": -0.12199639935013541, "291": 0.03480467018081947, "292": -0.08461487997850481, "293": -0.05070675535105948, "294": -0.08406384208637432, "295": -0.01497703561264702, "296": -0.035854026617046855, "297": -0.10553752063035174, "298": -0.06679047834058804, "299": -0.09366110825633656, "3": -0.0416125368264674, "30": -0.06028101583445215, "300": -0.14489996496847027, "301": -0.12348000735017581, "302": 0.06669649518238717, "303": -0.013063217119470064, "304": 0.07128824487687327, "305": -0.08368746431068548, "306": -0.1962005412890724, "307": 0.04050824687737034, "308": -0.12145835748124137, "309": -0.0683482083765044, "31": -0.10448600784421654, "310": -0.11579756294444529, "311": 0.025329610007959604, "312": -0.01812932576646561, "313": -0.10124051933720618, "314": -0.0001207727422716106, "315": -0.09800843107615706, "316": 0.0009954342548137611, "317": 0.0325261817982953, "318": -0.02464772732258584, "319": 0.017066854615482557, "32": -0.0469615224539136, "320": -0.13333303341003044, "321": -0.1606267979590186, "322": -0.01758722734391016, "323": -0.0014710208397830519, "324": 0.02880886006227991, "325": 0.0005246850826660324, "326": 0.052837242670943335, "327": -0.05942403740836853, "328": 0.04016871410487074, "329": -0.03270774676851723, "33": 0.022556408719662146, "330": -0.19533209515798117, "331": -0.04667066246379822, "332": -0.02680064279897694, "333": -0.03751028125100528, "334": -0.11967786983514747, "335": -0.020074662497287975, "336": -0.05751063356853498, "337": -0.11870331535056969, "338": -0.04279077694580187, "339": -0.09254043517827025, "34": -0.002150311015859748, "340": 0.03145658373373161, "341": -0.09596996973938919, "342": 0.009745196730090926, "343": -0.034048336078457135, "344": -0.06968086880564804, "345": -0.05037923006154773, "346": -0.06498078981198249, "347": 0.04246779666773661, "348": -0.07681085942287989, "349": -0.00763628182178399, "35": 0.012804409180520808, "350": 0.07022147752448288, "351": -0.047612666064947115, "352": 0.000557030739324589, "353": -0.014200017527219253, "354": 0.027892242052881946, "355": -0.06656635782807895, "356": -0.02684780311063435, "357": -0.007628851293143001, "358": -0.03252612072645116, "359": 0.10138878748325693, "36": -0.039980686110193835, "360": -0.05167900292937872, "361": -0.1129850750255419, "362": -0.010183096434427606, "363": -0.04026138581471191, "364": -0.027112561767465095, "365": 0.011709780452069116, "366": 0.019595450596610615, "367": 0.04556593926596782, "368": -0.11716799354369195, "369": -0.09115694414745182, "37": -0.021363328025861463, "370": -0.08840050406022512, "371": 0.03592191835538501, "372": 0.1260017761832867, "373": -0.05073256382420582, "374": 0.07456155517823451, "375": -0.00680019162864882, "376": 0.09493074588779009, "377": -0.09802457772439639, "378": 0.0017592363264770968, "379": 0.008765758084184257, "38": -0.06271945814458056, "380": -0.026658310231670212, "381": -0.03521368361764328, "382": 0.018444250644363683, "383": 0.05372877379452599, "384": -0.049937103066090956, "385": 0.04188361286021146, "386": -0.06931235172718715, "387": 0.017367219220805977, "388": -0.04640783741175059, "389": -0.03954661944693988, "39": 0.07052008267992525, "390": -0.11429140120041709, "391": 0.0201511749681463, "392": -0.10573495916935743, "393": 0.00050366472227198, "394": -0.01899436808352092, "395": -0.06805967945377461, "396": -0.12543956502165435, "397": 0.06115684159128824, "398": 0.10168591133153235, "399": 0.11206571026457134, "4": -0.1446914702072379, "40": 0.05739805944867718, "41": -0.1303031900694593, "42": 0.002718851731837493, "43": 0.028963049276305768, "44": -0.05848301869372909, "45": 0.01692734736719506, "46": -0.059765550315450805, "47": -0.07076523221658565, "48": 0.053898063260609766, "49": 0.059574481173718954, "5": -0.09345775893841486, "50": -0.07489295138680219, "51": -0.011312317471513761, "52": 0.07846105688182876, "53": -0.07777238370562849, "54": -0.06581058978019544, "55": 0.05463059419067064, "56": 0.07594417526942006, "57": -0.21305478115299548, "58": 0.08724563868934213, "59": 0.06390231168931515, "6": -0.06606461675589965, "60": -0.05714757639909701, "61": 0.01948302435185382, "62": -0.04486860091150011, "63": 0.010169180892766368, "64": 0.028053544797039153, "65": 0.05663991118749291, "66": -0.14054780626249905, "67": -0.04827424008072909, "68": 0.0386361416135488, "69": 0.006289870329344264, "7": -0.11483522141008287, "70": 0.03152535817738219, "71": -0.02028931364247165, "72": -0.020311758358999538, "73": -0.08287094391257464, "74": -0.1673420764856207, "75": 0.007326043108073223, "76": -0.17661938338145686, "77": -0.04850591103864195, "78": -0.04183405404838399, "79": 0.08419901250002489, "8": -0.1984259689037117, "80": -0.05378914087473874, "81": -0.05693110633741648, "82": -0.13320130340342753, "83": -0.10052842143236061, "84": -0.05605189294695797, "85": -0.07575174648311793, "86": -0.04297880594799624, "87": -0.11866042123362719, "88": -0.03892486554527723, "89": 0.03941662531198489, "9": -0.016296484718881045, "90": -0.06929424482285951, "91": -0.08476525768907783, "92": -0.04099885553776513, "93": -0.05125805970118958, "94": -0.05844417943100483, "95": -0.25281714807318484, "96": -0.035541568429818184, "97": 0.04024564381289658, "98": -0.105563042593724, "99": -0.06675131935224349}}, {"depth": 16, "sx": 5, "sy": 5, "w": {"0": -0.03520347448194471, "1": -0.01389234493319327, "10": 0.024938333520423243, "100": -0.04393679306325037, "101": -0.04980611255300295, "102": -0.06698873176841416, "103": -0.059102487492343043, "104": -0.04374493270875626, "105": -0.10912199173731578, "106": -0.036848478033680514, "107": -0.06628435049262775, "108": -0.07427643195665018, "109": -0.022317949467336198, "11": -0.09086733704935071, "110": 0.04244420112887488, "111": -0.03004428753805517, "112": 0.01729416444895365, "113": 0.08300589138693687, "114": -0.10646719404164567, "115": 0.07204836136126759, "116": -0.010812691837171621, "117": -0.027459533679303032, "118": 0.035337146320095186, "119": -0.07582584832992635, "12": -0.12741105420990984, "120": -0.08306014275953351, "121": 0.022257166986955273, "122": 0.03130243371064218, "123": -0.039501905658756255, "124": 0.014122405058771723, "125": -0.01896693475323235, "126": 0.015396903685402955, "127": -0.0484749909878328, "128": 0.040991525079186596, "129": 0.09253220579181348, "13": -0.1339450944855917, "130": -0.04629472354684012, "131": -0.11336031012009082, "132": 0.015890941746134913, "133": -0.01473388745836021, "134": -0.06309722998561963, "135": -0.038972810556187704, "136": -0.08332596112927737, "137": 0.09426479589127908, "138": -0.2257636092677975, "139": -0.010054525271999572, "14": 0.040077312472501334, "140": 0.08458777734097184, "141": -0.028317846849515646, "142": -0.09686999186082751, "143": -0.034563709293314905, "144": 0.09259803308270567, "145": -0.08313324401923022, "146": -0.06143122071270658, "147": -0.22612080425834374, "148": 0.0053694352669654034, "149": -0.00042148369638119625, "15": 0.07076006862408003, "150": -0.11430666910190343, "151": -0.18164270161325963, "152": -0.09346899442072665, "153": 0.08220569414944578, "154": -0.2779524736844258, "155": -0.03790495600888046, "156": 0.06388703736873645, "157": -0.04069478115487066, "158": -0.07139372068302204, "159": 0.019098934086563633, "16": -0.1204245649442782, "160": -0.1604396084114403, "161": 0.029296380894607527, "162": -0.13347072955444542, "163": -0.0048655123707288484, "164": -0.17585976953347596, "165": -0.02426534151607838, "166": -0.0351357448313856, "167": -0.023339198548263673, "168": -0.004479125135149458, "169": -0.15923951646308016, "17": -0.14099415449531255, "170": -0.06183465302113106, "171": -0.032572343659610606, "172": -0.09937479498620924, "173": 0.007294489747862451, "174": 0.005994309706473812, "175": 0.03063714709925889, "176": -0.15969565664295174, "177": -0.011696216626654215, "178": -0.16871054226754895, "179": -0.01866563372369407, "18": -0.1842478121036421, "180": -0.05975301497145332, "181": -0.09212645155367094, "182": -0.11562584119458762, "183": -0.01926931546803208, "184": -0.04845802376351201, "185": -0.015500988754940917, "186": -0.04116606047684864, "187": -0.025529556845975968, "188": -0.03331492330430054, "189": -0.0982098742976508, "19": 0.007654376402521383, "190": 0.12376800117163024, "191": 0.012890613249354263, "192": -0.022954439533879014, "193": 0.03680477968033583, "194": -0.041798509885432024, "195": 0.07525974594832753, "196": -0.09404197531760214, "197": -0.10798111728046658, "198": -0.07814466245265532, "199": 0.11663358513688031, "2": -0.16311495261598688, "20": -0.16006857606219288, "200": -0.1619545634839983, "201": 0.11240337517145658, "202": 0.14862811415260388, "203": -0.0026817343660691627, "204": -0.06006584691953052, "205": 0.044497806512492015, "206": 0.048499583836520505, "207": -0.010912890960250384, "208": -0.017966244386149542, "209": -0.023253518675387136, "21": -0.05915592326249205, "210": -0.09183640117311767, "211": -0.05854940928948303, "212": -0.10395427833511828, "213": -0.021355579480552264, "214": -0.009437253876543488, "215": -0.11138100193930907, "216": 0.009290693754507562, "217": 0.0875685828488441, "218": -0.1820106865979699, "219": -0.06281167510860977, "22": -0.07041873707575656, "220": 0.008937318234691233, "221": 0.0724116093544297, "222": -0.15778976173711354, "223": -0.09541320652082484, "224": -0.004923777404740398, "225": -0.014891752973513299, "226": -0.06706927178936901, "227": -0.20588151730807913, "228": -0.03932119709452163, "229": -0.0323049076825413, "23": 0.05287934443432552, "230": -0.1228520780033629, "231": -0.1492568901418217, "232": -0.10804294733417756, "233": 0.12769871241611283, "234": -0.20618403158853962, "235": -0.04740807796117298, "236": 0.036966737973806556, "237": 0.0071547984626791315, "238": -0.12644113272364502, "239": -0.1283888380644373, "24": -0.06075425959312104, "240": -0.1694998175595981, "241": -0.051290424134202636, "242": 0.003392401572048011, "243": -0.028752084424848334, "244": -0.06040250912015564, "245": -0.09548596406545866, "246": 0.061012484686365956, "247": -0.020573413138226204, "248": -0.005961725403276922, "249": -0.030852799237364368, "25": -0.15323222470879191, "250": 0.0852470251402343, "251": 0.029885524733524026, "252": -0.18380033018351227, "253": 0.047684978340318124, "254": 0.10548920929137069, "255": 0.022731712067833174, "256": -0.0975364328242066, "257": -0.028800431836218138, "258": -0.02273615434430809, "259": 0.008052228843087088, "26": 0.01897593787995333, "260": -0.07491849862509074, "261": -0.11271624681809148, "262": -0.0604448017711671, "263": -0.059809668739970505, "264": -0.1564449425759951, "265": -0.1025133544943773, "266": -0.11443181566541522, "267": 0.02788946021487296, "268": -0.22201889278270465, "269": -0.04547589071832577, "27": -0.0768926661840702, "270": 0.1261981232153883, "271": 0.032862809006626234, "272": 0.07498360807140086, "273": 0.018028808526613278, "274": -0.0641058136497354, "275": 0.15765339096814177, "276": 0.043426701139863265, "277": -0.03808181813214337, "278": -0.050431645098751754, "279": -0.015649901561301215, "28": -0.11176879112397185, "280": -0.06789306066817755, "281": 0.010753677075702406, "282": 0.15745840268356917, "283": -0.12805083118183141, "284": 0.03943929875877923, "285": 0.02720097505416516, "286": 0.04548513268689125, "287": -0.015677599037951663, "288": 0.04409665520498444, "289": -0.03333946398329505, "29": -0.03386579314346808, "290": 0.0403303729901321, "291": -0.051793422249235554, "292": -0.01927960311984285, "293": -0.019595593819032395, "294": -0.07871604905722426, "295": -0.1083233421036485, "296": -0.08633253050137449, "297": 0.05344246818239005, "298": -0.09814523372991346, "299": -0.09630744954956537, "3": -0.009917202163956853, "30": -0.05251711837033398, "300": 0.07948585429798152, "301": -0.07022885045518118, "302": -0.1955030471066091, "303": -0.11785544372423935, "304": 0.02592054639768326, "305": 0.046834088585881416, "306": -0.047237715095220414, "307": -0.13196698451373864, "308": 0.002472456295240783, "309": 0.01667256199207956, "31": 0.105992346051232, "310": -0.1101062726837732, "311": -0.16595712982392755, "312": -0.11741279485782133, "313": 0.11014343718974468, "314": -0.14767149413392686, "315": -0.1469689867682067, "316": 0.02532740268472422, "317": -0.05627222213571951, "318": -0.26936133524858114, "319": -0.05355834186266989, "32": -0.012694150992032662, "320": -0.15016753686615844, "321": -0.13821629600423146, "322": -0.0696758536880614, "323": -0.03647891036669334, "324": -0.1018091732741083, "325": -0.10568688774110527, "326": 0.026202628762415678, "327": -0.10263916988701426, "328": -0.02391201478546438, "329": -0.04910257066559011, "33": 0.05647174451763883, "330": -0.022915547292720963, "331": 0.0130503936767632, "332": -0.0922106014928369, "333": 0.008267298878044085, "334": 0.0036161841407605162, "335": 0.08279453195119447, "336": -0.13838601515559382, "337": 0.013166905712524893, "338": -0.020760776163889317, "339": 0.004228935049365716, "34": -0.03080701531785317, "340": -0.08338352677801374, "341": -0.18893446541466966, "342": -0.1046293474072081, "343": -0.0754915880512172, "344": -0.013888593114156184, "345": -0.2114056661714329, "346": -0.08169821910965733, "347": 0.04784746631577829, "348": -0.17396267093193232, "349": -0.061347925726378816, "35": -0.0003403708516100449, "350": -0.03419004670174843, "351": 0.010984194691575433, "352": -0.03646133536736089, "353": 0.01701568204591814, "354": -0.09542942164873315, "355": 0.12184290309200692, "356": -0.1324783773609794, "357": -0.04277785262682952, "358": 0.11728804335475745, "359": -0.13033004026858155, "36": 0.058013980717440676, "360": -0.23405026305485818, "361": 0.0289335414284623, "362": 0.13840205507715062, "363": -0.029566080497995337, "364": 0.07418591374027701, "365": 0.049120082107379386, "366": -0.0703578743218741, "367": -0.013152231889379513, "368": 0.02412290876804578, "369": 0.026870084563627748, "37": 0.03801752054870745, "370": 0.028043103099791227, "371": -0.0049456177740094705, "372": -0.012258415758836495, "373": 0.010901644690212715, "374": 0.024205626863314792, "375": -0.1350540594653077, "376": -0.17184533210264505, "377": 0.08798112487310336, "378": -0.11080136222311064, "379": -0.07184347798523426, "38": 0.03090085217698399, "380": -0.006924709894232809, "381": -0.03365125664820857, "382": 0.002775944714109307, "383": 0.08682494390601983, "384": 0.0830925696575013, "385": 0.0351317478899279, "386": 0.03826385305309824, "387": -0.09161808359191433, "388": 0.027376047686894823, "389": -0.03904433334062331, "39": 0.07766408401780567, "390": 0.02419117719273309, "391": -0.04006453573967029, "392": -0.06346092270338012, "393": 0.021951875921485477, "394": -0.03558890913196763, "395": -0.08692898421616474, "396": 0.019057766818402013, "397": -0.08223010519138303, "398": -0.11924246523086757, "399": -0.0028448997670438444, "4": 0.049462841389043714, "40": -0.02650990803813183, "41": 0.1505827035539524, "42": 0.09978423571300006, "43": 0.054492938635151485, "44": 0.07208380040824447, "45": 0.011219071976445777, "46": 0.02796895142685788, "47": -0.01452547922917169, "48": 0.0993746678953268, "49": 0.11622439343989414, "5": -0.0922129553676653, "50": 0.0458168557376483, "51": -0.21837954754024175, "52": 0.03324437508023356, "53": 0.057957779506921395, "54": 0.03456097518366608, "55": -0.042755529335430476, "56": 0.005675165243682746, "57": 0.13978184401220847, "58": -0.2828912003393041, "59": -0.07567272905675226, "6": -0.1075164557184943, "60": 0.10783358655583816, "61": 0.0165383237759012, "62": -0.11609317443776282, "63": -0.07320667262734111, "64": 0.03016575169852526, "65": 0.08932819863092467, "66": -0.13734764522104562, "67": -0.13423009307209072, "68": 0.027251689771997083, "69": -0.0030568326032946037, "7": 0.01411925279975422, "70": -0.024592454726630974, "71": -0.08801357893532684, "72": -0.011338902688583237, "73": 0.03835663272108229, "74": -0.263315674321498, "75": -0.08421908962293888, "76": -0.01620755591340645, "77": -0.02256094261299201, "78": -0.1354125229520326, "79": -0.08382954249660866, "8": -0.15727367829389913, "80": -0.04965637744371437, "81": -0.022891697002253967, "82": -0.12673119182702164, "83": 0.03745515504821297, "84": -0.012672413267661558, "85": -0.14181193774182801, "86": -0.07142661312905876, "87": -0.028655136827616876, "88": -0.05817775093569201, "89": -0.07219349392605245, "9": -0.10107413512745045, "90": -0.07639700948696668, "91": -0.006199151478172224, "92": -0.15755466405665638, "93": -0.03384080021794574, "94": 0.03263668111128789, "95": -0.008795274602817475, "96": -0.09573677124961001, "97": -0.032108115156123496, "98": -0.20487313135584448, "99": 0.023172582235223418}}, {"depth": 16, "sx": 5, "sy": 5, "w": {"0": 0.0395774220671822, "1": -0.011856157431966387, "10": -0.05605271820433699, "100": -0.13829807793801246, "101": -0.031634891806112786, "102": -0.01603465099106242, "103": -0.05091582993820681, "104": 0.024819848638044678, "105": -0.13630320308148797, "106": -0.10154479703053061, "107": -0.10236626450880582, "108": -0.04746868995138418, "109": -0.04225835135055675, "11": -0.07824689773912716, "110": -0.025017530342749426, "111": 0.04602725388040585, "112": -0.13852058902496162, "113": -0.08153827018050262, "114": -0.06901813777833005, "115": -0.08406377883135965, "116": -0.07151374185003584, "117": -0.17514192829206157, "118": -0.0855906217118889, "119": -0.09678987057568857, "12": -0.0023603617071281586, "120": -0.08154599434974487, "121": -0.03871188374289206, "122": -0.19833271189218515, "123": -0.124232121653199, "124": 0.003510790471844409, "125": 0.005091094662169431, "126": -0.05778182937073022, "127": 0.12715669157650047, "128": -0.005313365586715967, "129": 0.037942354255419176, "13": -0.05358808342796145, "130": -0.043889483072239034, "131": -0.14008167159339027, "132": -0.04333903600416667, "133": -0.02210445434304973, "134": 0.0746603675675496, "135": -0.21394658117454407, "136": 0.009961497473024541, "137": 0.0721826413794898, "138": 0.017668532301908752, "139": -0.07031404877695509, "14": 0.02851100074096792, "140": -0.016607271935841595, "141": -0.02448530575671295, "142": 0.033754043020893354, "143": 0.02388771101863195, "144": 0.04069339051425538, "145": -0.02158400293390048, "146": -0.06529195705847277, "147": 0.1502938590381079, "148": -0.021856704894917325, "149": -0.16729712035433156, "15": -0.021298085608846388, "150": -0.06407253123254439, "151": -0.028284140333217432, "152": 0.1509346213930399, "153": -0.01716416314286684, "154": 0.13817870816042466, "155": -0.020147606488267494, "156": -0.11677855872298407, "157": 0.03470670686545742, "158": -0.02890515765113204, "159": -0.19915668468443704, "16": -0.0485329275966864, "160": -0.0711414613531098, "161": -0.09667383010641895, "162": -0.006898976483304627, "163": 0.08156952440837019, "164": -0.022639261396418395, "165": -0.07632832606716967, "166": 0.056302863643392966, "167": -0.0449421033471111, "168": -0.09196114175336802, "169": 0.0024906777287842384, "17": -0.1399500787591899, "170": -0.16463114425253503, "171": -0.12153627546702059, "172": 0.10984373014916969, "173": -0.035441962202908, "174": -0.07125578787838092, "175": -0.0332217618518807, "176": -0.10992415165958372, "177": -0.02681017297448445, "178": -0.10092809033641922, "179": 0.0082064856777547, "18": -0.0433950425752512, "180": -0.040543435848518744, "181": -0.14648364535339034, "182": -0.05540620770837355, "183": -0.05906203316129061, "184": 0.02000696368738408, "185": -0.016726534232498536, "186": -0.08639051303131329, "187": -0.09391948854762543, "188": -0.13511952286668913, "189": 0.020232368476911507, "19": 0.15870449039970908, "190": -0.18971091863109152, "191": 0.016738389417559413, "192": -0.060098520489256596, "193": -0.07545762977313412, "194": -0.0343527466111477, "195": -0.10944024860363799, "196": -0.06232430317568828, "197": -0.02917593714072371, "198": 0.038691444924940886, "199": -0.022905833355795317, "2": -0.07504027058396186, "20": -0.06858151628553222, "200": -0.06162454762454617, "201": 0.04742231288508418, "202": -0.08338600656042053, "203": -0.0914047935969891, "204": -0.05793042672844213, "205": 0.07677726411991297, "206": -0.008837379940679459, "207": -0.0016635953688579185, "208": -0.10030570621148215, "209": -0.06321665164253824, "21": -0.1520757567060814, "210": -0.10074361688352272, "211": 0.014306941371581488, "212": 0.03650041727547663, "213": -0.12534406521421307, "214": -0.04698840224283674, "215": -0.0321373648636763, "216": -0.004612505369288996, "217": 0.058054464838517526, "218": -0.13905516901725878, "219": -0.0333776420409503, "22": -0.04411345438915361, "220": -0.05181380983071243, "221": 0.031088653684090382, "222": 0.002763043196573951, "223": -0.038737745513207314, "224": 0.04858287431075077, "225": 0.06550703188632653, "226": -0.09652433223051393, "227": 0.06265347994193891, "228": -0.06173257507611396, "229": -0.08105125135563339, "23": 0.005261917610641874, "230": -0.02206904344691097, "231": -0.07324532141889753, "232": 0.007523272211391872, "233": -0.03885812089811778, "234": 0.020125593620944553, "235": -0.06519299222017945, "236": -0.04451233434140181, "237": -0.03779457015514855, "238": 0.1279095156477792, "239": -0.031600287215529876, "24": -0.011887844382977693, "240": -0.04737335252951055, "241": 0.045033492727914855, "242": -0.0062093423944129065, "243": 0.0002947920380248349, "244": -0.055595102966516895, "245": 0.07269652673984592, "246": 0.1121659096032258, "247": -0.011596929095278997, "248": -0.10522538877790946, "249": 0.037722378198650784, "25": -0.09315675787678115, "250": -0.10774453014444743, "251": -0.04542836422251425, "252": 0.006233151906877201, "253": 0.03186793940625977, "254": -0.13496723437711391, "255": 0.005748345951735615, "256": -0.03652181081895934, "257": -0.1102955146546745, "258": -0.1104481513524137, "259": 0.05781551409404252, "26": 0.00679025477734173, "260": -0.0977978348455965, "261": -0.0011208585015187063, "262": -0.0685678454936963, "263": -0.07163566166198448, "264": -0.13699205173074683, "265": -0.019798180782693197, "266": -0.07648903988242334, "267": -0.12380919784008138, "268": 0.024851743194273676, "269": -0.0928490212823752, "27": -0.0738633553844421, "270": -0.09468391716017883, "271": -0.06629185565648976, "272": -0.11318738405030052, "273": -0.12838521064679886, "274": -0.03885286725212827, "275": 0.03399567494673156, "276": -0.01307913821391162, "277": -0.11928590245555319, "278": 0.10313032801065809, "279": -0.05144726020944638, "28": -0.021430637984287453, "280": -0.16991889625350415, "281": -0.0442456283007255, "282": 0.03623296122500143, "283": -0.10689001857772464, "284": -0.033823071921789974, "285": 0.007236783025141845, "286": -0.13449278727007036, "287": 0.028324613421337786, "288": -0.050362818301652845, "289": -0.051637260415984994, "29": -0.019268174297954757, "290": -0.08751060340575634, "291": 0.11016652687854755, "292": 0.010042766351121595, "293": -0.10962366277990317, "294": 0.05206702335208427, "295": -0.06763616178389195, "296": 0.0698469894333723, "297": -0.004744471615775514, "298": -0.04179756158586013, "299": -0.21143212213496201, "3": -0.020440339138659724, "30": -0.15157727136707477, "300": -0.024800606318352948, "301": -0.052022605232665116, "302": -0.059187875212081874, "303": -0.030807147860404054, "304": -0.06235801860157028, "305": -0.010175944320829716, "306": -0.0030674910726136936, "307": 0.010555491328594142, "308": -0.05106667753985835, "309": -0.10808645904502927, "31": 0.015094693029680976, "310": -0.017292889237621623, "311": -0.06437393146540922, "312": -0.017241555632813668, "313": -0.04431083913602764, "314": 0.07279253487184369, "315": -0.07438148379082843, "316": -0.13027214636548926, "317": -0.17309421199392505, "318": -0.11797540629893057, "319": 0.05606428993749627, "32": 0.14388537460636694, "320": -0.12337437758316537, "321": 0.04747555645576691, "322": 0.07710874032792613, "323": 0.122123266863091, "324": -0.09094098447145582, "325": 0.07562636142510945, "326": 0.06537744879202184, "327": -0.0015504640932387129, "328": -0.15446300817073538, "329": 0.0854376777120789, "33": -0.11407333125841868, "330": 0.04222333196363446, "331": -0.028471832116073462, "332": 0.0191486474105576, "333": 0.07316514459814878, "334": -0.03670781651441679, "335": 0.04493926864756842, "336": -0.05239126182751737, "337": -0.06623935638500059, "338": -0.0513181925139456, "339": -0.005672402610256601, "34": 0.018967834833850464, "340": -0.09239201284721231, "341": -0.046916032831169886, "342": -0.10822594442250891, "343": -0.04976684552105371, "344": -0.11148738306937556, "345": 0.07254297518927849, "346": -0.14183537211675168, "347": -0.1571104524642843, "348": 0.021861287777586825, "349": -0.012470056120471435, "35": -0.1317611658040659, "350": -0.14201052833494504, "351": 0.07896523121872306, "352": -0.09611437817242872, "353": -0.033803604558427174, "354": -0.06562936309048241, "355": -0.06861030586414682, "356": 0.04606801021759838, "357": -0.21258875114401748, "358": -0.004722666615002221, "359": -0.027269677637370707, "36": -0.06222338774767101, "360": -0.17553889789312585, "361": 0.03936168458687362, "362": -0.05654711904797311, "363": -0.08283859162644097, "364": -0.0341070196970814, "365": -0.08306065849694586, "366": -0.05906474164141418, "367": 0.10232484306656871, "368": -0.06796780322447277, "369": -0.1258843548255886, "37": -0.1446771818054389, "370": -0.01413652652058757, "371": 0.010514359634881204, "372": -0.028506012764121492, "373": -0.04778707332255188, "374": -0.06962598650802296, "375": -0.04804179034394154, "376": -0.09682887220692019, "377": -0.013258739199238, "378": -0.0626874137735183, "379": -0.05610220060124635, "38": 0.013512708947244642, "380": -0.06760642366977686, "381": -0.025860691775601408, "382": -0.10296181403863493, "383": -0.002011152156896228, "384": -0.0226046285991078, "385": -0.14693314309950234, "386": -0.02977607238497834, "387": -0.0401762109895251, "388": 0.08777035813850512, "389": -0.09080559996016813, "39": -0.157447002077076, "390": 0.09714903830152599, "391": 0.049286867833558165, "392": -0.04487372639365933, "393": -0.003454791614542535, "394": 0.07087781547279837, "395": -0.036657487891635, "396": -0.13495559955614297, "397": -0.09140402108797564, "398": -0.04202522805773794, "399": -0.005232095884454393, "4": -0.13555285200956482, "40": 0.05990182744862768, "41": 0.11187332430926114, "42": -0.05355652664618124, "43": 0.012863983461809229, "44": -0.03956674963420499, "45": -0.06830214646536246, "46": -0.07862314133496703, "47": 0.03368180454618408, "48": 0.19080599724801525, "49": -0.05022692118633957, "5": -0.03393754021359422, "50": -0.03155759844532939, "51": -0.06169336301602845, "52": 0.050165474797245924, "53": -0.08678317307248834, "54": -0.0241360640624859, "55": -0.005847656482734857, "56": 0.14697975906108435, "57": 0.057736227860902094, "58": 0.0592319488104293, "59": 0.02976812067540548, "6": -0.027134434248961316, "60": -0.08853228941209483, "61": -0.0899167988982912, "62": 0.00734929958665349, "63": 0.042795503116057905, "64": 0.13532720041840401, "65": -0.004716461129066865, "66": -0.10410676985516198, "67": 0.05593848974444849, "68": 0.045785406266335545, "69": -0.07379911094803306, "7": -0.037512010397970245, "70": 0.0602841835262666, "71": -0.08128012490404102, "72": 0.0553638187010423, "73": 0.013829283010892517, "74": 0.12408537130208194, "75": 0.06650937673152, "76": 0.0603216471384117, "77": 0.008147267268588136, "78": 0.003241863819841522, "79": -0.16064925643309794, "8": -0.040277014652741736, "80": -0.05575173116487894, "81": 0.060284563611612024, "82": 0.03617474173439527, "83": -0.0604026143800311, "84": 0.002298350715679018, "85": -0.08361412432100118, "86": -0.057847326806006016, "87": -0.010287333396772283, "88": -0.010167974523532236, "89": -0.040437283640542644, "9": -0.12033907936433842, "90": -0.05348167443368178, "91": -0.042932627626077316, "92": 0.07419208663639008, "93": -0.052641936243979164, "94": 0.01578035708917895, "95": -0.02532610864177765, "96": -0.07562653193939184, "97": -0.02324214035486907, "98": 0.030987634219867964, "99": 0.07632487684853527}}, {"depth": 16, "sx": 5, "sy": 5, "w": {"0": -0.031710823649168066, "1": -0.015373628268654852, "10": 0.0460492578725725, "100": -0.11635601002708582, "101": 0.09083272900913078, "102": -0.015423462421449225, "103": 0.01790250332946103, "104": -0.030817398245903745, "105": 0.019133851033057495, "106": -0.09883771273439663, "107": -0.0855286411683611, "108": -0.045917015721210604, "109": -0.02498822136065961, "11": -0.08258925113393357, "110": -0.1040342760647748, "111": -0.012784720766156778, "112": -0.128066185290324, "113": 0.06115400807496093, "114": 0.02221614410694779, "115": -0.08667308848362887, "116": -0.020647616115919556, "117": -0.026446053026633602, "118": -0.0011203912983662372, "119": 0.05131963273817027, "12": -0.052559992529448936, "120": -0.12461786339021882, "121": -0.04070426114239855, "122": -0.05499140099318822, "123": -0.01616585069041132, "124": -0.02715859983485321, "125": -0.10679054405330013, "126": 0.011225971574876634, "127": -0.12708585071959516, "128": -0.05307458983108126, "129": -0.06566779904975276, "13": -0.08595810220292024, "130": -0.0161762217920745, "131": -0.09009608912823054, "132": -0.04949950952416201, "133": -0.05051088281235667, "134": -0.021608870314227722, "135": -0.011075080966977709, "136": -0.08035160787476056, "137": 0.042211303754139215, "138": -0.111424584863628, "139": -0.03461382968703261, "14": -0.12379528403784265, "140": -0.006068261458119957, "141": -0.11402374998671233, "142": 0.030824566849111716, "143": -0.10271231212099247, "144": -0.06854391103203973, "145": -0.03711529942086769, "146": 0.027417790234629338, "147": 0.016890567340465207, "148": 0.018367595820718806, "149": -0.008888144521293098, "15": 0.08616224893306759, "150": -0.10943345417907543, "151": -0.04776695977659227, "152": -0.02247294684009087, "153": -0.06227246159983463, "154": -0.0639379264093306, "155": -0.09523482233495369, "156": 0.07792280388035806, "157": -0.04922839224783432, "158": -0.13769127213416843, "159": -0.02502325829645522, "16": -0.04166885688197596, "160": -0.07199682369949853, "161": -0.00037468576038764253, "162": -0.028433954792869757, "163": -0.17130230913796765, "164": -0.12612297798981678, "165": -0.08845051297732025, "166": -0.07761281848511384, "167": -0.005608216018569437, "168": 0.03146318010260341, "169": 0.0019867891472853424, "17": -0.04284724714391591, "170": -0.07899569291130448, "171": 0.05104655673833963, "172": -0.07110094313142756, "173": -0.006299569847998285, "174": -0.032282491486604864, "175": -0.08501769429435459, "176": 0.014559069322780937, "177": -0.0176895480458267, "178": -0.009682486788337073, "179": -0.07813208532090489, "18": -0.045193293117125534, "180": -0.09236155363283156, "181": -0.039690901051621034, "182": -0.018042948506287033, "183": -0.003791368158673433, "184": -0.12096123350105575, "185": -0.04173927221349498, "186": -0.11831892293125283, "187": 0.0005354205237546823, "188": -0.08261147807675902, "189": -0.10125090502825912, "19": 0.12180002176605384, "190": -0.09088269263501017, "191": -0.04638726947077349, "192": -0.10554825059707573, "193": -0.018291179645897295, "194": 0.00961914406233938, "195": 0.011261486562219179, "196": -0.08005253484899813, "197": -0.012473247232569885, "198": -0.01818899637692606, "199": -0.05911836555520747, "2": -0.06001185078138923, "20": -0.04377943113521528, "200": -0.018199402725709746, "201": -0.05544479805622189, "202": -0.011297901939049226, "203": 0.05186400681282137, "204": 0.023356919723958633, "205": -0.12001446708917216, "206": 0.025485001192395933, "207": -0.1570788672237433, "208": -0.11165587733957312, "209": -0.007285157658777964, "21": -0.03464215905333065, "210": -0.009986375753599787, "211": -0.1302229410963977, "212": -0.07011123408008822, "213": -0.02380555981966012, "214": -0.02734034738646846, "215": 0.0839646234060694, "216": -0.05573067818363873, "217": -0.010184756926390665, "218": -0.07832257099856298, "219": 0.10386133298671467, "22": -0.046386912573410745, "220": 0.014027341024622237, "221": -0.08402058925439693, "222": -0.08883979042138165, "223": -0.17993697344025142, "224": -0.03613335975722662, "225": 0.011960496171154206, "226": 0.020989612476408286, "227": -0.12371969931163579, "228": 0.09279568994550444, "229": 0.025770947688217565, "23": 0.0015692830938089735, "230": 0.01465800336382749, "231": 0.08069283614017397, "232": -0.04219781243385017, "233": 0.0659442359863238, "234": -0.014060445045497489, "235": 0.1083191191938608, "236": 0.08764399480226395, "237": -0.08804911289712065, "238": 0.01809491845420818, "239": -0.040001048028046146, "24": 0.0009007561955971787, "240": -0.05575799852381515, "241": -0.017256738367368584, "242": 0.018826900826297413, "243": -0.08746436934633046, "244": -0.15224738819861933, "245": -0.03548184617625961, "246": -0.11376879186219939, "247": -0.0783818904893143, "248": -0.10743621207213773, "249": 0.09026208947546273, "25": 0.012287778878786161, "250": -0.042817432093748636, "251": 0.0110873800082615, "252": 0.013644472527728367, "253": -0.008153832204470315, "254": -0.053724930033066914, "255": -0.07153645772001348, "256": -0.05109794246571633, "257": -0.09074031809177364, "258": 0.058249828894104495, "259": -0.16523577145735263, "26": 0.016740438878104197, "260": -0.04885571075087947, "261": -0.015024062516368345, "262": 0.0005461851359979436, "263": -0.004970998850376195, "264": 0.011472207930464448, "265": 0.011550802489740077, "266": -0.14102882929578972, "267": 0.0229298763980586, "268": -0.05865010061992969, "269": 0.03536767662381133, "27": -0.11590621313967271, "270": 0.003816888011551522, "271": -0.08409996947820993, "272": 0.03089877643455047, "273": 0.07269353056629957, "274": 0.06102262504850827, "275": -0.02091863032241244, "276": -0.01968193617441482, "277": 0.02613444074864665, "278": -0.01677565494734404, "279": -0.1378995419498832, "28": -0.024197962638769898, "280": -0.19147111264307023, "281": 0.08602291305824337, "282": -0.04694798741963064, "283": 0.04030296637000828, "284": 0.021599051913861255, "285": 0.07519732247001291, "286": -0.03748448610712705, "287": -0.15060559712358587, "288": 0.019242666099374327, "289": -0.04920512538799377, "29": -0.0732993263802029, "290": 0.11765039614872606, "291": -0.07042433818860254, "292": -0.10940283614167244, "293": 0.003990898499695, "294": -0.021649512512990902, "295": 0.0912832441428893, "296": 0.012214227068566582, "297": 0.05440430448704731, "298": -0.11097838395867565, "299": 0.08350596617180736, "3": 0.05282781415273971, "30": -0.07628607017528712, "300": -0.12629519470686087, "301": 0.1335818456123686, "302": 0.07920849787013497, "303": -0.03927479670258591, "304": 0.032006958009597505, "305": -0.0001838363031820855, "306": 0.15439834362553365, "307": -0.07308110644214762, "308": -0.001094959756716511, "309": 0.01607398989465203, "31": 0.10326962469467656, "310": -0.054173477584916266, "311": -0.12598010706303833, "312": 0.021215159351509937, "313": 0.08201119718241041, "314": -0.1415844894571328, "315": 0.04055928191094027, "316": 0.034121965473988644, "317": 0.013937526280311531, "318": -0.13125694830835224, "319": -0.19534781432674472, "32": -0.08010785525605686, "320": 0.0331380895834681, "321": -0.015916082694792475, "322": -0.017747463478096956, "323": -0.0938718077632754, "324": -0.0779466939366976, "325": -0.09903570107891685, "326": -0.05786217964993958, "327": -0.03920424603126287, "328": -0.08549098584710621, "329": -0.007708848346195872, "33": -0.09994036129714272, "330": -0.07958069089700594, "331": -0.02785721436772626, "332": -0.06790965687693967, 