{"data": {"layers": [{"layer_type": "input", "out_depth": 3, "out_sx": 32, "out_sy": 32}, {"biases": {"depth": 16, "sx": 1, "sy": 1, "w": {"0": -0.13771955192091037, "1": -0.01212554553791629, "10": -0.038512702623988614, "11": -0.27575221473661066, "12": -0.08448612883347878, "13": -0.2960529994944472, "14": -0.261621169072075, "15": -0.19012344159814148, "2": -0.33227796767748674, "3": -0.31398373800507834, "4": -0.09561022571363934, "5": -0.2969290977987345, "6": -0.27328548477662873, "7": -0.2680141197140247, "8": -0.2840506092062354, "9": -0.2897402193512175}}, "filters": [{"depth": 3, "sx": 5, "sy": 5, "w": {"0": -0.030688752671195113, "1": 0.06731595688346369, "10": 0.0004025941965508308, "11": 0.03177924774472299, "12": -0.0033428812444517256, "13": -0.11546770235544068, "14": -0.1957829816998172, "15": 0.25528204698015, "16": -0.016159272997330353, "17": -0.08026403204670134, "18": 0.21641588448900417, "19": -0.20312871539052718, "2": -0.29930632617907027, "20": -0.1513278530392584, "21": 0.039237546847745816, "22": -0.2017878190980495, "23": 0.10452934520757284, "24": -0.10449568391224359, "25": -0.06465109417623967, "26": 0.2506615624506427, "27": -0.21328143105070868, "28": -0.14735252366064502, "29": 0.1260444893923473, "3": -0.07323362468509215, "30": 0.0025463971163353443, "31": 0.25604180138017396, "32": 0.12875624144261757, "33": -0.1409432833614108, "34": 0.21456764709148443, "35": 0.0047455765436640734, "36": -0.03539249354457544, "37": -0.027832634310216996, "38": -0.08194201967757088, "39": -0.13505152846130955, "4": -0.09175246330930692, "40": -0.16878338514971533, "41": -0.028547964154212326, "42": -0.20473507544195912, "43": -0.1153201031957452, "44": -0.11815323058809207, "45": 0.1744465465372134, "46": 0.25788514587732847, "47": 0.23647370804987558, "48": 0.07182362665343517, "49": 0.19853072737001204, "5": -0.0447880354933065, "50": 0.2814900440400177, "51": 0.10024507836541768, "52": -0.11237567720162113, "53": -0.10647519811479025, "54": -0.26628702101907553, "55": -0.2571622268736054, "56": -0.14327187147582668, "57": -0.01918205040165248, "58": -0.24845206055978492, "59": -0.31166988287017483, "6": 0.14184671795598264, "60": 0.22811430007505537, "61": 0.24769368331162206, "62": 0.17775429920653413, "63": 0.20706269837824615, "64": 0.05707703156460221, "65": 0.013583631600918654, "66": -0.019302649811639795, "67": -0.0069354956030260664, "68": -0.11732367337359989, "69": -0.06584052174829334, "7": -0.06953702269904861, "70": -0.1227024960222742, "71": 0.027403830286225925, "72": 0.002757839074073648, "73": -0.07548855970704593, "74": -0.14746607788170513, "8": 0.18190567994387005, "9": 0.10803435353250326}}, {"depth": 3, "sx": 5, "sy": 5, "w": {"0": -0.1733510363215395, "1": 0.018119155203952738, "10": -0.046120488953704034, "11": 0.12348430932712674, "12": 0.13757221428848718, "13": -0.10475942604032741, "14": -0.07923264792899744, "15": -0.08083986105071093, "16": -0.11606613788814561, "17": 0.0625003134997592, "18": -0.1175090429297504, "19": 0.008454466207923221, "2": 0.2298029764143855, "20": 0.23088620998054735, "21": -0.08039146329196323, "22": -0.13989975524297688, "23": 0.05054862154006829, "24": 0.07580977278202938, "25": -0.01355495145893184, "26": 0.07430258805497075, "27": -0.0825473345800638, "28": 0.09866059460808282, "29": -0.051923410757331256, "3": 0.0028757023536222777, "30": -0.09035260180788486, "31": 0.11220162981254152, "32": -0.07436735380789371, "33": -0.09208100567238145, "34": -0.04661973923421943, "35": 0.16538964268945475, "36": 0.01831498813842546, "37": -0.07198787469408204, "38": 0.20022340707736488, "39": 0.05380221807352397, "4": -0.1332275669391696, "40": -0.10970587589672663, "41": 0.1137599433106489, "42": -0.12534593607364702, "43": -0.11009347479172303, "44": 0.044219330581138555, "45": -0.031159285673210985, "46": 0.022424570522516805, "47": 0.25962520282851104, "48": -0.05660265983910762, "49": 0.0639351989134066, "5": 0.2008909961592, "50": 0.11837488487712308, "51": -0.18754861864714503, "52": 0.049428472675769525, "53": 0.1023477534574667, "54": 0.0065743229713810525, "55": -0.0381463357244713, "56": 0.2723336440921559, "57": -0.19959101893087292, "58": -0.09238122902662296, "59": -0.07106601511843899, "6": -0.0028075832134798724, "60": -0.278515203345914, "61": 0.028832563886503203, "62": 0.08593500480880154, "63": -0.050872883843614894, "64": 0.08588313770948476, "65": 0.1502168455725385, "66": -0.11121413821536927, "67": 0.1184951490692906, "68": 0.13888093061073054, "69": 0.01998283639158072, "7": 0.09901267338163852, "70": -0.12701484198526916, "71": 0.16925267243236103, "72": -0.281212231068606, "73": 0.27190366772400165, "74": 0.18237568536822382, "8": -0.02765259818520053, "9": 0.05532645969328402}}, {"depth": 3, "sx": 5, "sy": 5, "w": {"0": 0.028293586184032313, "1": -0.08407227662555321, "10": -0.13546288966786665, "11": -0.08792107632698218, "12": 0.08001223822806665, "13": -0.07170002652918778, "14": -0.06638491443836336, "15": 0.24370930160998036, "16": 0.049808929004692484, "17": 1.543878445253056e-05, "18": 0.14748894821154496, "19": 0.026556170413412624, "2": -0.022611620608971487, "20": -0.044762058629269616, "21": 0.08460058464974828, "22": -0.06946413222733229, "23": 0.057105783748941895, "24": -0.06557505063054898, "25": -0.12207651199650514, "26": -0.03545366108593223, "27": -0.19155755842067881, "28": 0.17907676107828233, "29": -0.07516036600296927, "3": -0.09787570511269869, "30": 0.13196683338973245, "31": -0.04102054541935886, "32": 0.005191698773630644, "33": -0.04774095648065688, "34": -0.047745409858595655, "35": 0.029230479419146766, "36": 0.04914961081720651, "37": -0.08429101564647104, "38": 0.01153919262499605, "39": -0.1419499324749333, "4": -0.044487669205328956, "40": 0.12535893744923618, "41": 0.1243071945773146, "42": 0.045833773846816306, "43": 0.05482992456013134, "44": -0.051278799053036, "45": 0.063361796063973, "46": -0.029948096765458225, "47": 0.02120248590952806, "48": -0.12693350122632616, "49": -0.12237499996001913, "5": -0.05009040511093907, "50": 0.03662889751771645, "51": -0.034603582932733065, "52": 0.1390012312451405, "53": 0.06722192572731138, "54": -0.20911894702897732, "55": -0.0034664289417903715, "56": -0.04310085106982905, "57": 0.11671877926659845, "58": -0.04313361971143281, "59": 0.16167568355520448, "6": 0.09731182380506784, "60": 0.012458905361197165, "61": -0.17561210662704912, "62": -0.010309240854223065, "63": -0.15550611012086143, "64": -0.033158636041715935, "65": -0.021997967870446344, "66": 0.03474776265078462, "67": 0.11550404474394912, "68": 0.012856632402971547, "69": -0.086688483630067, "7": 0.16477079922690624, "70": 0.08816219088447141, "71": 0.03823317910473465, "72": 0.0005632875257647605, "73": -0.002309091962088664, "74": 0.041956568037179356, "8": 0.20137504971028608, "9": 0.0312517491031771}}, {"depth": 3, "sx": 5, "sy": 5, "w": {"0": -0.02566335958953692, "1": 0.08194193610920554, "10": 0.2693820817553958, "11": -0.029635879634009925, "12": -0.13612459888465608, "13": 0.012292825006585847, "14": 0.21991636060774436, "15": -0.1420446611408707, "16": -0.000225638659051434, "17": -0.046304785743627196, "18": -0.055080068475467286, "19": 0.1705196524697404, "2": 0.07173705595514064, "20": 0.10132715016185154, "21": 0.06623859556685387, "22": -0.005787834212166934, "23": 0.3764470863311583, "24": 0.03957730811872188, "25": 0.11433804884728, "26": 0.10155706856100866, "27": 0.2129574913201853, "28": 0.16366807005756306, "29": 0.11264936890295749, "3": -0.10089199445011227, "30": -0.37236070704153074, "31": -0.11395888269374166, "32": 0.004267135591434563, "33": -0.13441417013917256, "34": -0.23538553894027647, "35": -0.01816095973390003, "36": 0.10390342364239703, "37": -0.07167217526842781, "38": 0.08676330554468965, "39": -0.09753800850496022, "4": -0.014718217853574219, "40": 0.007938380854612908, "41": 0.17192302540398277, "42": 0.09937281627485252, "43": 0.24116009885669684, "44": 0.3174749395680319, "45": -0.2487555154311001, "46": -0.06422122768666107, "47": -0.009304802489100593, "48": -0.17361188245758724, "49": 0.004878864997190806, "5": 0.03133455998858828, "50": -0.014189318057861902, "51": -0.03185258725361499, "52": 0.21647126934330613, "53": 0.10343747967254341, "54": -0.2323021495106135, "55": 0.04621543400928911, "56": 0.02399036128161114, "57": 0.09031812383716316, "58": -0.13090058077306294, "59": 0.2778521238238435, "6": 0.05004071967657707, "60": 0.029132158896960098, "61": -0.2257926613771638, "62": 0.10223320302240156, "63": 0.19590715152788266, "64": -0.20385451958262005, "65": -0.07560135551447483, "66": 0.012878808417148396, "67": -0.07264606484423436, "68": -0.12867742376874786, "69": -0.06171079963471853, "7": -0.080206265581488, "70": 0.1191682161346559, "71": -0.24244633435092994, "72": -0.1986108691507882, "73": -0.10969344716075363, "74": -0.057652664636759235, "8": 0.00010232555902193075, "9": -0.22826040257664304}}, {"depth": 3, "sx": 5, "sy": 5, "w": {"0": -0.1837473967150695, "1": -0.15094235828257238, "10": -0.0031691000194174167, "11": 0.005991319026080799, "12": 0.052632169803016125, "13": -0.05075876747262577, "14": -0.21838131014028042, "15": -0.08991882108841054, "16": 0.004227639214209591, "17": -0.1921685986023086, "18": -0.16110845125013065, "19": -0.1343731308784071, "2": -0.16888263670086537, "20": -0.30778764334932696, "21": 0.11811346423812487, "22": 0.2039004648579231, "23": -0.06612763708073928, "24": 0.04009552418394193, "25": 0.12882912594160517, "26": -0.03881290260197569, "27": -0.08785054730549562, "28": 0.10323553210829625, "29": 0.12285151823045017, "3": -0.23911482074485907, "30": -0.14637837987874888, "31": -0.078080585225657, "32": -0.16230997032371772, "33": 0.18692387300930155, "34": -0.18018213117141016, "35": -0.12982828877687408, "36": 0.150712164155606, "37": 0.13301555118436986, "38": 0.039455916249206066, "39": -0.1295551346895218, "4": -0.19819181779909031, "40": 0.011647876602357497, "41": -0.2774093226211617, "42": 0.33494599638869027, "43": 0.13309450817758178, "44": 0.09590980109488412, "45": -0.048772972586866525, "46": 0.02906222100526792, "47": 0.047797064423531016, "48": -0.13578418934600128, "49": -0.08210778348676734, "5": -0.035462082278646785, "50": -0.09490251188752541, "51": 0.024207590924633884, "52": 0.15736010786480117, "53": 0.1305609710796883, "54": -0.11034410212017991, "55": 0.14978741530012754, "56": -0.019074924071006152, "57": 0.16532768629558983, "58": 0.2174114029988715, "59": -0.03022604222710332, "6": 0.23157238901112007, "60": -0.038602325428391766, "61": -0.12873762895354413, "62": 0.0012643050344306856, "63": -0.2769293847686827, "64": -0.0076270043767149714, "65": -0.27010916612110597, "66": 0.11229235703690153, "67": 0.08515124905198204, "68": 0.012633923189318368, "69": -0.0074512354745215215, "7": 0.14886333436787003, "70": 0.2255779778036391, "71": 0.2278260399947521, "72": -0.04330363337380098, "73": 0.15842831207514546, "74": 0.18507045128478813, "8": -0.013961942383965238, "9": 0.0005525686140911657}}, {"depth": 3, "sx": 5, "sy": 5, "w": {"0": -0.25645190218231934, "1": -0.18359178664709694, "10": -0.21600172803794865, "11": -0.08205770905517895, "12": 0.0777178015811777, "13": -0.0578947978532289, "14": -0.18047713298031792, "15": -0.15556019350714037, "16": -0.011077323797386828, "17": -0.024651359314737616, "18": -0.008557049190910285, "19": -0.04630209840326237, "2": -0.09277765584429454, "20": -0.03794544018562724, "21": 0.12527595577515277, "22": 0.38068474048210266, "23": 0.1101884720809561, "24": -0.03115926628270127, "25": 0.08104112541705832, "26": 0.003087033396671583, "27": -0.19669250576428046, "28": -0.13291931847809385, "29": -0.13796726986670596, "3": 0.044913976433530886, "30": -0.1833425437494567, "31": -0.18096285581273353, "32": 0.027560724879470803, "33": 0.0018478789211539368, "34": -0.2199687343305924, "35": 0.01731520124071598, "36": 0.3866922414518263, "37": 0.2376538511789681, "38": 0.15757940735642675, "39": 0.11934386985750493, "4": 0.0024514839405039898, "40": 0.12991805452177188, "41": -0.04288135525840871, "42": -0.17507369912335674, "43": -0.16510099438345568, "44": 0.062360155540219855, "45": 0.04717484086353023, "46": 0.19205719364498086, "47": 0.006164562789646887, "48": -0.1551658724927253, "49": -0.06532178770722294, "5": -0.11329801495109161, "50": -0.1279446596701913, "51": 0.03473055619819234, "52": -0.044978804856314614, "53": 0.07573436850573664, "54": 0.046862608508214956, "55": 0.1334489046519354, "56": -0.0929667260334506, "57": 0.0030948344482495706, "58": 0.049589618375739594, "59": 0.019960078992641003, "6": 0.21994005481669887, "60": -0.007281412911556709, "61": 0.08427278659050988, "62": -0.24366982382521316, "63": 0.021692165418826105, "64": 0.04152468209037187, "65": -0.06252567926647047, "66": -0.019432752455745224, "67": 0.0015279871181192633, "68": 0.1178061571806677, "69": 0.005996910751537088, "7": 0.3141538086820006, "70": -0.02557225920868487, "71": 0.09197883845577279, "72": -0.29619136926958145, "73": 0.012618449225303304, "74": -0.034310064594619445, "8": 0.2971721315502079, "9": 0.07935945211399398}}, {"depth": 3, "sx": 5, "sy": 5, "w": {"0": -0.09673143895464086, "1": -0.10015017937958787, "10": 0.055124434540453265, "11": -0.1239540058590631, "12": 0.07382185293218352, "13": -0.031938124866514546, "14": 0.07818598212017351, "15": 0.15778514266308358, "16": 0.008300039310331787, "17": -0.09600109631805653, "18": 0.06057012457668567, "19": -0.1338937438946147, "2": 0.06416549234551698, "20": 0.07766042321255028, "21": 0.11209261343719096, "22": 0.24542379646799725, "23": -0.04192977956165863, "24": 0.0716567030903844, "25": 0.18798236757688955, "26": 0.16661853900380616, "27": 0.10220572912793088, "28": -0.1779737334840276, "29": 0.16089409270445637, "3": -0.03924786032104462, "30": 0.3208358514105999, "31": 0.1098209697151174, "32": 0.22501522486593026, "33": 0.466421978310495, "34": 0.3032919449887208, "35": 0.23184322344345848, "36": 0.34472932374083565, "37": 0.16113980820604615, "38": 0.34386686348269885, "39": 0.47685067095392086, "4": 0.110762349434391, "40": 0.43519231141017334, "41": 0.2712171204186266, "42": 0.3351095716440638, "43": 0.18621401996393716, "44": 0.11526209787544799, "45": -0.13132547600819103, "46": -0.3012344487131271, "47": -0.30018170752713413, "48": 0.091293703258608, "49": -0.13665406996098292, "5": 0.059575846146119646, "50": -0.016428973869389022, "51": -0.09517367574205458, "52": -0.07741699191710012, "53": -0.06603100227804443, "54": -0.22976868239024378, "55": -0.1282461148656014, "56": -0.1642771825401532, "57": -0.08997712100438751, "58": -0.033943798750174996, "59": -0.09576786645096518, "6": 0.22574374892906404, "60": -0.15508071290063385, "61": -0.3416165845698114, "62": -0.13832462268933185, "63": -0.39080178267389326, "64": -0.21216980407442454, "65": -0.1605233646846925, "66": -0.3391748332732685, "67": -0.23675770705621166, "68": -0.2866652528580106, "69": -0.20601895776115298, "7": 0.09219752103983474, "70": -0.32605405412221483, "71": -0.020732760486377812, "72": -0.2858306792889964, "73": -0.31930225701897474, "74": 0.0005393271089553597, "8": -0.1789008394765187, "9": -0.037651590233761224}}, {"depth": 3, "sx": 5, "sy": 5, "w": {"0": 0.0017638273877449112, "1": -0.05001275671010958, "10": 0.016785435131048465, "11": -0.037274200042490914, "12": 0.22523753378974237, "13": 0.14550611372439276, "14": 0.2401499487001648, "15": -0.11796182794571146, "16": -0.2621658783042476, "17": -0.29961834104367946, "18": 0.0032284224505013935, "19": -0.046199432747356606, "2": -0.32765333130397656, "20": -0.0265531415755078, "21": 0.1672423017061294, "22": -0.08319488109440924, "23": 0.01641035756026627, "24": 0.24370395843401627, "25": -0.034074011497029946, "26": 0.07478819681842197, "27": 0.08410906166776946, "28": 0.09312946813646676, "29": 0.20067674546705067, "3": -0.05560081943156404, "30": -0.21523577264811464, "31": -0.12529131092788737, "32": -0.13142235073092748, "33": -0.016437244483700195, "34": -0.12463032786526754, "35": 0.026089977953669217, "36": 0.24157149222733484, "37": -0.16977969978309926, "38": 0.029294942045518198, "39": 0.04844224611642396, "4": -0.3287177542395463, "40": 0.027938117999724815, "41": 0.07391546307297027, "42": 0.2107811968251153, "43": 0.04303630428353705, "44": 0.19676068857040305, "45": -0.06939818245008089, "46": -0.12054004924740057, "47": -0.2298038439848037, "48": 0.09850992664362176, "49": -0.05926169278373812, "5": 0.012784149968689908, "50": 0.025557624550596573, "51": 0.04944949241049308, "52": 0.06849579706944965, "53": 0.05398105734955819, "54": 0.17295917433426966, "55": 0.06356852300462398, "56": -0.040680013931709696, "57": -0.01975023637653357, "58": -0.041607862576575935, "59": 0.25669417798850047, "6": -0.02648703145257981, "60": 0.043876513043686616, "61": 0.06721532989504944, "62": -0.0747330410886634, "63": -0.014674920164919216, "64": -0.01166331137277542, "65": -0.0288721152573412, "66": 0.05882852015186705, "67": 0.013056103906743634, "68": 0.029191125007584865, "69": 0.08258472546374679, "7": -0.12485676261038219, "70": 0.03134917741504931, "71": -0.015461466802743046, "72": -0.09738108712845953, "73": 0.22430619946255573, "74": 0.08028262752201924, "8": 0.056195016298239295, "9": 0.1875526611341577}}, {"depth": 3, "sx": 5, "sy": 5, "w": {"0": 0.10924761328985437, "1": -0.307494518136246, "10": -0.27909376808021286, "11": -0.23409596775068212, "12": 0.09153481947933503, "13": -0.14759371064818338, "14": 0.10558069220838397, "15": -0.13935910377412888, "16": -0.012603462875976267, "17": 0.1524704589315649, "18": -0.04970529492092201, "19": 0.03722142851959956, "2": -0.06842926658049397, "20": 0.26341944329801087, "21": -0.07058594489505929, "22": 0.21578687100745786, "23": 0.25796790801342884, "24": 0.21332098225255303, "25": 0.24599514931692254, "26": 0.097016557959162, "27": 0.2320272252564908, "28": 0.1362203464442824, "29": -0.12449061874621185, "3": -0.1632331984818269, "30": -0.1655505708843606, "31": 0.024526213027234414, "32": 0.45865710199974413, "33": -0.1160453859821095, "34": 0.07034839287110041, "35": 0.27273638705180453, "36": -0.03699338315695459, "37": 0.01851160566889068, "38": 0.1596713747280411, "39": 0.14615821178716157, "4": -0.307118786885413, "40": 0.19700554636366616, "41": 0.013309145159315536, "42": 0.22344092747735353, "43": 0.038312114550335785, "44": 0.2804830897060532, "45": -0.07465351436360797, "46": -0.17754458118863556, "47": 0.007735059107381642, "48": 0.03684983794229357, "49": -0.1125775186255432, "5": 0.04894068221625925, "50": 0.03708492790245727, "51": -0.18041473947310976, "52": -0.1225888451140688, "53": 0.07595408328322825, "54": -0.16996901268730208, "55": -0.20160436689786967, "56": 0.15435105974046012, "57": 0.14067034821793886, "58": -0.14618196342408932, "59": -0.09870262267342027, "6": -0.3216370983601185, "60": -0.0376659355365982, "61": 0.07903461834958204, "62": -0.1694577910061324, "63": -0.11150701039404412, "64": -0.21391449086363476, "65": -0.01582810284018037, "66": -0.09569109621334633, "67": -0.0935274212342735, "68": -0.029126646438807722, "69": -0.09205425604234724, "7": -0.12947400604004378, "70": 0.04167394626997856, "71": -0.008134763519455197, "72": 0.04666794000148195, "73": 0.004893105127945926, "74": -0.06127625125390915, "8": 0.018560736922252286, "9": 0.04024581017675588}}, {"depth": 3, "sx": 5, "sy": 5, "w": {"0": 0.10575900456863818, "1": -0.04676752245198261, "10": -0.2587105288549019, "11": -0.2656133615997912, "12": -0.024971509587275478, "13": 0.19392333367230635, "14": -0.04772400943661424, "15": -0.24571998518408358, "16": -0.06551267477711199, "17": -0.008772882752338144, "18": -0.12582841721581994, "19": 0.08139613197465165, "2": -0.09916236640761387, "20": 0.005348853357091687, "21": 0.05716185951581078, "22": 0.035234155403612424, "23": -0.16412770581888456, "24": 0.059410686333204746, "25": 0.1542213860942822, "26": 0.19547288508381633, "27": -0.12084090692405684, "28": -0.19707966196336824, "29": 0.08021681739000786, "3": -0.13538787448977618, "30": -0.20713892334420436, "31": 0.0344500604197029, "32": -0.11021580194205627, "33": 0.12470730800084796, "34": 0.09359977477239002, "35": -0.02267581578154505, "36": -0.01467842783902543, "37": 0.23880475657979378, "38": 0.17149471046099213, "39": 0.1794727153212512, "4": -0.11659445084663232, "40": 0.008158370257823504, "41": 0.026678728524089375, "42": 0.17395956848002586, "43": -0.06913258149208068, "44": 0.08163843554198637, "45": 0.15300037098380284, "46": 0.1451934588540841, "47": -0.030416802422603657, "48": -0.0662315236824042, "49": 0.07119690863442635, "5": -0.06171189849774494, "50": 0.005769206116732657, "51": 0.13096136516446777, "52": 0.08778879827702399, "53": 0.07211855647246983, "54": 0.005187293150131948, "55": -0.11876376266270015, "56": -0.04809634460763103, "57": 0.0012219341197283234, "58": 0.30529956692860044, "59": 0.0962401628635684, "6": -0.3875974566748096, "60": 0.0713561920937873, "61": 0.2089059122613465, "62": 0.10324366464205065, "63": 0.12054099252687868, "64": 0.2733876545128113, "65": -0.23259848583388004, "66": 0.07271871283546082, "67": -0.09936403010959934, "68": 0.035871205966837884, "69": -0.17341364715010837, "7": -0.22231461672329467, "70": 0.03819948715920403, "71": 0.014175170522462073, "72": -0.0745105448356189, "73": -0.17977822422670622, "74": -0.19240412343498267, "8": -0.06444020284029273, "9": -0.12555841238666143}}, {"depth": 3, "sx": 5, "sy": 5, "w": {"0": 0.03300401091444608, "1": -0.09236850574806733, "10": -0.05646112718783307, "11": -0.20972247152576218, "12": -0.00011587530649203974, "13": 0.003701045225098141, "14": -0.13308570591019656, "15": 0.150078419585425, "16": -0.023638543268245358, "17": 0.2688137914100878, "18": 0.12468511023263512, "19": 0.02947446961165599, "2": -0.025667783178068303, "20": 0.05247512896709444, "21": -0.04619543013294448, "22": -0.12146917874942177, "23": 0.07951404310024902, "24": -0.1489259826537602, "25": -0.1642662583861061, "26": 0.04210899170611935, "27": 0.11366914069531724, "28": -0.028017338608657762, "29": -0.1881524886201305, "3": 0.11030013193130986, "30": -0.16844444654297, "31": 0.04700312040824532, "32": 0.13721349531925445, "33": 0.025971073082102183, "34": 0.14872453466270785, "35": 0.15904810840134814, "36": -0.11652845091592892, "37": 0.03095120859174622, "38": 0.27487468419357075, "39": -0.20526432362797023, "4": -0.07919088695120081, "40": -0.22492668628547133, "41": -0.10207146847643138, "42": 0.01857481515609971, "43": -0.27576882992595486, "44": 0.195304359328892, "45": -0.07417937316391784, "46": 0.19596024034179396, "47": 0.15818826850519283, "48": -0.10588355753667167, "49": 0.06073162618717735, "5": -0.1179082769720825, "50": 0.33114035737268066, "51": -0.09527085938912701, "52": 0.044534192653279146, "53": 0.1879146054682075, "54": -0.07665836934312777, "55": -0.240697516746717, "56": 0.22623392535539188, "57": 0.014772901736247604, "58": -0.1106267953197662, "59": 0.19830287906146044, "6": -0.15773574931796958, "60": -0.09243280608762784, "61": -0.12263976659439617, "62": 0.3292814883866399, "63": 0.17247375108761176, "64": -0.004569255832748897, "65": 0.10375157155079827, "66": -0.07818243430960183, "67": -0.08665204472091201, "68": 0.14266066898828653, "69": -0.12337235466901388, "7": -0.21709143065012085, "70": -0.06193035569043782, "71": 0.051267401312908883, "72": -0.20858099025344812, "73": -0.2179804357984055, "74": 0.10142747658004811, "8": -0.01989757910700404, "9": -0.0683268114465952}}, {"depth": 3, "sx": 5, "sy": 5, "w": {"0": -0.023374636295850723, "1": 0.14281081985231414, "10": 0.069862084401487, "11": 0.07225908692274848, "12": -0.0937536144358855, "13": -0.026416366857161925, "14": 0.35832340859388223, "15": -0.04921878025024698, "16": -0.21681605864283024, "17": 0.14980881711747657, "18": -0.15308448124994173, "19": -0.07611276816073843, "2": 0.2039601283455012, "20": 0.16803036155108672, "21": -0.24100756447460384, "22": -0.06734043832871808, "23": -0.02837492763293342, "24": -0.10458843982729704, "25": -0.25696391496043386, "26": 0.14872077973710446, "27": 0.02248815286988675, "28": -0.007093240908028572, "29": 0.10771793292332912, "3": -0.11296287827348478, "30": -0.27323891098814135, "31": -0.1579079646755592, "32": 0.17804872880939085, "33": -0.39559856543222643, "34": -0.020274529797129057, "35": -0.1113388050278729, "36": -0.34647063415680207, "37": 0.02135240167228585, "38": -0.14540139448854575, "39": -0.0220898757066985, "4": 0.009714900247847722, "40": -0.32398642540439154, "41": -0.06932370505264061, "42": -0.4206878990891245, "43": -0.2698345074843966, "44": 0.12283398635805748, "45": 0.07668601890701526, "46": 0.027098743861850003, "47": 0.1149520283171736, "48": -0.07317133569997786, "49": 0.18264373343220328, "5": 0.19270224048566767, "50": 0.029290376904612846, "51": -0.02128064097349682, "52": -0.016892427145710293, "53": 0.35663442079668844, "54": 0.006782449329543897, "55": 0.11329007719296164, "56": -0.06301177867969712, "57": -0.2459117455438826, "58": 0.0850735344197018, "59": 0.05329692633990832, "6": 0.1390888746166183, "60": 0.10293932237389856, "61": -0.053177872389229684, "62": 0.12583678670782808, "63": 0.33350319102365056, "64": 0.10451557955134512, "65": 0.18517225067594087, "66": 0.25671665545403793, "67": 0.16627018536343988, "68": 0.12395872958465777, "69": 0.15232581652857782, "7": -0.11782376943941393, "70": 0.08191349828561376, "71": 0.23996038071277753, "72": 0.02562916354894058, "73": 0.13223902805171545, "74": 0.05419815429117273, "8": -0.15452492894984937, "9": 0.022149572944779823}}, {"depth": 3, "sx": 5, "sy": 5, "w": {"0": -0.06695253563535486, "1": -0.01111461888730762, "10": 0.21544481062745058, "11": 0.003941567261464588, "12": 0.10334534861906927, "13": -0.05838961997580787, "14": 0.087828250251122, "15": 0.08258046293513856, "16": -0.11183445923846055, "17": -0.10726171500646423, "18": -0.1046643934056919, "19": 0.17975092808087445, "2": -0.27164164703183497, "20": -0.17474172326829623, "21": -0.24575968985650737, "22": 0.0022424016367108713, "23": -0.2857985103816986, "24": 0.024201484419999586, "25": 0.11199256459978915, "26": 0.17263329419016377, "27": 0.13363086963459897, "28": 0.23494506995340167, "29": 0.010676138144385484, "3": 0.1272273203077546, "30": 0.16343719863605174, "31": 0.2813352553824253, "32": 0.10793222593845679, "33": -0.08565122306817485, "34": -0.3254847691980354, "35": -0.23811930087895203, "36": -0.07206560901651846, "37": -0.1914057934402265, "38": -0.03278054872631361, "39": 0.09460813894560033, "4": -0.025658908841712014, "40": 0.0901503867248953, "41": -0.021872365711170887, "42": -0.12296993631257187, "43": -0.07011618805938966, "44": -0.06089996654373978, "45": 0.28626500588399945, "46": 0.3640954584252076, "47": 0.20449469820501967, "48": -0.18448089059843412, "49": 0.18083505968154348, "5": 0.06008877199569971, "50": -0.20306432807205507, "51": -0.17523257442567722, "52": -0.2180139891639964, "53": -0.28952625539912763, "54": -0.08129918720166628, "55": 0.19471729431689883, "56": -0.04217823422236505, "57": 0.05734958085742862, "58": 0.02214484893716169, "59": -0.07638169263127453, "6": -0.011756047281203616, "60": 0.46548613861971705, "61": 0.29343933445514747, "62": 0.24296898343690573, "63": 0.07500581374055444, "64": 0.25522043687291, "65": 0.05841223006755504, "66": -0.1343825314758541, "67": -0.05280284899348758, "68": -0.10695026274044503, "69": -0.2658526162588795, "7": -0.06910466461785592, "70": 0.06484738867541318, "71": -0.20991624982467513, "72": -0.12813422281707576, "73": -0.07707616764681763, "74": -0.09851803788144468, "8": -0.04833704511199325, "9": 0.15077685660326723}}, {"depth": 3, "sx": 5, "sy": 5, "w": {"0": -0.14483100777640784, "1": -0.0345312297995651, "10": 0.026250779543904486, "11": -0.02971883278593765, "12": 0.05434593704179786, "13": 0.08002747464014023, "14": 0.1951422415376528, "15": -0.07050696523180333, "16": 0.01589330971845255, "17": -0.18398932670125037, "18": -0.0290314632050898, "19": 0.021550184893201454, "2": 0.15388182383115961, "20": -0.007599172048251817, "21": -0.036398229413267154, "22": -0.15538381106584553, "23": -0.17222480614346597, "24": 0.0505272611183363, "25": -0.17014905750816636, "26": 0.09080210010436551, "27": -0.008011077017331362, "28": -0.09882123342581715, "29": -0.012228076940077555, "3": 0.007105312334301758, "30": -0.054189619660312854, "31": 0.1913659643542872, "32": 0.0884553325394907, "33": -0.16073249546737742, "34": 0.11471174715153015, "35": -0.07227646292125883, "36": -0.27587311380523155, "37": 0.15540079146736502, "38": -0.013306367388055842, "39": 0.06295662063006968, "4": -0.17011553864814777, "40": -0.13063115504646355, "41": 0.04554503441915523, "42": -0.0683523894148242, "43": -0.028802477521888428, "44": -0.028025452390574055, "45": 0.18050017950111807, "46": -0.14422228170403478, "47": 0.13565897044307382, "48": 0.037671468541732527, "49": 0.06313070212956041, "5": -0.00949944501065804, "50": 0.0865460798811459, "51": 0.11461002466372933, "52": -0.00872221606336694, "53": 0.2051162373610692, "54": 0.16655074158402405, "55": -0.013823312039701826, "56": 0.15368983349031917, "57": 0.12636244057539867, "58": -0.0012207207206646952, "59": 0.0994753554258464, "6": 0.06465857216801617, "60": 0.09538915789667746, "61": -0.05509613060431119, "62": 0.2618847428006568, "63": 0.11993081505983312, "64": -0.19188542901584477, "65": 0.15832841729712302, "66": -0.0029042039299779533, "67": 0.124529639155336, "68": 0.012926985118923644, "69": -0.09924437502568502, "7": 0.03740690257717839, "70": 0.006569345881151639, "71": 0.13655420741916915, "72": 0.03556735835251118, "73": -0.005766402341624791, "74": 0.06372888512152985, "8": 0.1533504395210458, "9": -0.0023436824449983382}}, {"depth": 3, "sx": 5, "sy": 5, "w": {"0": 0.17561622009763433, "1": -0.03953906250498801, "10": -0.04816427408325868, "11": -0.07647676713019545, "12": 0.2279658349612024, "13": -0.3197709285400183, "14": 0.10140205294782877, "15": 0.42158272112073736, "16": 0.006883458695530302, "17": -0.04204296816171298, "18": 0.25275998262873783, "19": -0.11056968436037651, "2": 0.2820336242871285, "20": -0.09981268909821644, "21": 0.02004466611813172, "22": -0.22116364120224785, "23": -0.07720283426791656, "24": 0.2478032611273612, "25": -0.1720599129780187, "26": -0.2127140812375875, "27": 0.2881933581746352, "28": -0.41742642660012025, "29": -0.1192566413707853, "3": -0.005069686346122599, "30": 0.21841590106055941, "31": -0.1543521627857823, "32": 0.001133493038757473, "33": 0.26476170153055234, "34": -0.14156600698152655, "35": 0.08770292004334576, "36": 0.16048570429675718, "37": -0.379023124813487, "38": -0.07421297550237417, "39": 0.20481799055577893, "4": -0.1030246421159337, "40": -0.14201953180616203, "41": -0.0495455847986963, "42": 0.032264750457299686, "43": -0.21592899647615954, "44": -0.18071541260082324, "45": 0.11652570840186542, "46": 0.028809521830535992, "47": -0.017272288079107037, "48": 0.17258572582241824, "49": -0.18182933355524572, "5": -0.004031037051094449, "50": 0.15329150042564285, "51": -0.16518424244490282, "52": -0.19688444111927553, "53": 0.18864175049780527, "54": 0.007034748509321075, "55": -0.04918008390875884, "56": 0.07305618355670412, "57": -0.026638448347470953, "58": -0.12038982496237764, "59": -0.13715324263601594, "6": 0.1521264099302801, "60": 0.07734668841292089, "61": -0.13435768684006066, "62": 0.26634095989593376, "63": 0.2770556273832835, "64": -0.19131275241159162, "65": 0.11974689678626363, "66": 0.06743361976774759, "67": -0.0653770443998088, "68": 0.24154892687666027, "69": -0.1509519201001847, "7": -0.13962548920303736, "70": -0.0655085663163355, "71": 0.406508500113871, "72": -0.07362393024293745, "73": -0.1386531351098517, "74": 0.13430329250360126, "8": 0.05404788801956538, "9": 0.03119559354642559}}, {"depth": 3, "sx": 5, "sy": 5, "w": {"0": 0.11576646403963023, "1": 0.077324984726622, "10": -0.07622467815681021, "11": -0.07226514627655903, "12": -0.054424126031409906, "13": -0.25516196989011397, "14": -0.21648600746622937, "15": 0.301334630529326, "16": 0.11556994718026668, "17": -0.02858422153613354, "18": -0.3265685918422578, "19": 0.011191000848826942, "2": -0.024869132091475725, "20": -0.24679235426024376, "21": -0.07253896531047035, "22": 0.1975151493593187, "23": -0.07064513300788176, "24": -0.25410922405116937, "25": -0.11490715380173067, "26": -0.07439769911259997, "27": -0.04054069205609672, "28": -0.07588801237770333, "29": 0.037575623479917324, "3": 0.19971604771114104, "30": -0.06806930343131926, "31": 0.21950332754211424, "32": -0.08564445513986564, "33": -0.240352864773076, "34": 0.035781077978131036, "35": -0.2139334990034465, "36": -0.32063706746816945, "37": -0.06775054574446095, "38": -0.21072201473578728, "39": -0.05213301507688092, "4": 0.2882467711067213, "40": -0.00845475540463839, "41": 0.18629725324130766, "42": 0.27278915398604947, "43": 0.07258708441604128, "44": 0.13426138992823983, "45": -0.08871950633451497, "46": 0.15811212429107677, "47": -0.20299915096375215, "48": 0.006462033905329098, "49": -0.09314190950741066, "5": -0.18219471883794833, "50": -0.04736686601746601, "51": 0.09023354126247685, "52": 0.22466823081729584, "53": -0.10472394723369273, "54": -0.006464722047193021, "55": 0.3094679967185943, "56": -0.16088514443593796, "57": 0.14669948861611976, "58": -0.02878737187438478, "59": 0.0462908843803312, "6": 0.2572324379706351, "60": -0.29339833967231865, "61": -0.01681189152879858, "62": -0.07158307648459132, "63": -0.10868125761519919, "64": 0.17918735462020277, "65": 0.006507773263728079, "66": -0.062280743931892035, "67": 0.17603384347971376, "68": 0.05499402745472315, "69": -0.14511213088346023, "7": 0.41306874382287956, "70": -0.08108616188321262, "71": 0.0304369979636812, "72": -0.10200101108795138, "73": 0.11666345795627729, "74": 0.002361036186591432, "8": -0.0003679324407911955, "9": -0.09190892573527051}}], "in_depth": 3, "l1_decay_mul": 0, "l2_decay_mul": 1, "layer_type": "conv", "out_depth": 16, "out_sx": 32, "out_sy": 32, "pad": 2, "stride": 1, "sx": 5, "sy": 5}, {"layer_type": "relu", "out_depth": 16, "out_sx": 32, "out_sy": 32}, {"in_depth": 16, "layer_type": "pool", "out_depth": 16, "out_sx": 16, "out_sy": 16, "pad": 0, "stride": 2, "sx": 2, "sy": 2}, {"biases": {"depth": 20, "sx": 1, "sy": 1, "w": {"0": 0.2817860431888446, "1": 0.31796819965563783, "10": 0.05823762043701035, "11": 0.2811714063663731, "12": 0.30992858710294513, "13": 0.07699025455192508, "14": -0.028598040364437027, "15": 0.04465228619167827, "16": 0.0095573891288693, "17": -0.007460088396997875, "18": 0.028430919856130773, "19": -0.06579619699542572, "2": 0.08744162947631241, "3": 0.3678609033634931, "4": 0.14531603842293028, "5": 0.264036436655886, "6": 0.2961407853808556, "7": 0.0539521905429546, "8": 0.2803196207275616, "9": -0.1647553506511805}}, "filters": [{"depth": 16, "sx": 5, "sy": 5, "w": {"0": 0.07950511522454817, "1": 0.016207935622291683, "10": -0.10239978704447855, "100": 0.10566236727776365, "101": -0.022110007466839072, "102": -0.14913493246816312, "103": -0.06936755671693177, "104": 0.006267798971043766, "105": -0.02952721990031626, "106": -0.09118348333525146, "107": -0.11361318079079837, "108": -0.10669563679608098, "109": -0.05080258898569811, "11": -0.06521222507434045, "110": -0.09340126230377487, "111": -0.05749760909107468, "112": -0.03349564948957619, "113": -0.012347963990965044, "114": -0.13813901950143714, "115": 0.05889876248631128, "116": 0.031874261237560444, "117": 0.061204504896628535, "118": -0.08038268800362311, "119": 0.0017762763889067482, "12": -0.003704109356495799, "120": -0.0651714547689548, "121": -0.13503319851028078, "122": -0.04530984287620105, "123": -0.09256146469307053, "124": -0.034015325444667906, "125": -0.025451130802117205, "126": -0.13190897546185867, "127": -0.12979526875731476, "128": -0.16662639282698954, "129": 0.07048219056244051, "13": 0.01562288301622004, "130": -0.05549095326533815, "131": 0.16526198581953117, "132": -0.045297445149749524, "133": 0.029851507181003448, "134": -0.07622048022768847, "135": -0.0586491187290883, "136": 0.030084824171621203, "137": -0.14472731737383746, "138": 0.011360435634913024, "139": -0.09499478215187016, "14": -0.10307646793604924, "140": -0.22372155662402712, "141": -0.0018524397434478328, "142": -0.1496925793827867, "143": -0.1750116752326916, "144": -0.22118984880927128, "145": 0.08328677755190844, "146": -0.0514461040205404, "147": 0.07204735237017536, "148": -0.059870991534008995, "149": -0.14048946306604324, "15": 0.2075299075326193, "150": 0.040594135843777336, "151": -0.22114083237499926, "152": 0.0258358678048538, "153": -0.08325393830494658, "154": 0.09552731119875843, "155": -0.1830587793782826, "156": -0.2012396621947877, "157": -0.002614086174974128, "158": -0.15019785785504572, "159": -0.16460355424099457, "16": -0.17768211220932165, "160": 0.09257939900910389, "161": -0.1471805135559539, "162": 0.011814343570092648, "163": -0.08946619434695256, "164": -0.07138743848019208, "165": -0.021845016458595427, "166": -0.25277188224772, "167": -0.017138616375140345, "168": 0.03820904400768668, "169": 0.19457698007757673, "17": -0.05125202864456755, "170": -0.05205213844924113, "171": 0.012030950901813109, "172": -0.17939277764343306, "173": 0.06944515307588235, "174": -0.15968156210255677, "175": 0.1164011690680189, "176": -0.1017641794600287, "177": -0.12043002269346449, "178": -0.037086410415110016, "179": -0.06146993076748725, "18": -0.021601275225996776, "180": -0.12504077702861757, "181": 0.01645277978682857, "182": -0.26872262301924243, "183": -0.0315767095647867, "184": -0.004986627244823967, "185": 0.03980550611446618, "186": -0.06082644368584146, "187": 0.016486588185406704, "188": -0.33478849719751824, "189": -0.10922120700841567, "19": 0.0013758362095145893, "190": -0.16268437481421644, "191": 0.03705662308565347, "192": 0.0780409119870368, "193": -0.005251000459898746, "194": -0.1313970708358273, "195": -0.05992436012494554, "196": -0.10059009985241774, "197": -0.0778254164127262, "198": -0.2901553403085042, "199": -0.029043196541932652, "2": -0.07026466093805894, "20": 0.22171792080235914, "200": 0.05682127629277452, "201": 0.07843426785016985, "202": -0.0033891539515741673, "203": -0.017072251108905073, "204": -0.05427542750598859, "205": -0.005054046089885957, "206": -0.10755522783907333, "207": 0.022576586542981905, "208": -0.18362470950249674, "209": 0.023935597060710367, "21": -0.10567876263342985, "210": -0.017043393763109774, "211": -0.12135820254918706, "212": -0.15329574122226677, "213": -0.00441098822385851, "214": -0.207819485188368, "215": -0.04271678845332892, "216": -0.007677203551749966, "217": 0.06182363796284968, "218": 0.022395485108620494, "219": 0.1159763471815126, "22": -0.11701888611914077, "220": -0.23607770341338355, "221": -0.047757535509655814, "222": -0.12039438934998092, "223": 0.024970994618136507, "224": -0.21488948681209805, "225": -0.054600168275835255, "226": -0.01108000895105819, "227": 0.06805625388854009, "228": -0.08522630414973609, "229": -0.025002958437911615, "23": 0.11124089961884236, "230": -0.0616082862529999, "231": 0.03730950890845314, "232": 0.08508794890332806, "233": 0.12177591471497212, "234": 0.015359357378072747, "235": 0.04429242173476714, "236": -0.23496702399218977, "237": 0.04798727355663328, "238": -0.2631845269383534, "239": 0.04009350981536742, "24": -0.08615968154331285, "240": -0.010006426870025769, "241": 0.04194737189553058, "242": 0.016757142291328218, "243": -0.10673305768096651, "244": -0.21007796498685377, "245": -0.11755990626962658, "246": -0.21641841612818308, "247": -0.09074747135747219, "248": -0.10457730179969832, "249": -0.2100055897578867, "25": 0.015476438608013452, "250": -0.08074633015173079, "251": -0.08646318033847261, "252": -0.11029121517713743, "253": -0.07216684132949086, "254": 0.10133919939878548, "255": 0.08832612439539007, "256": -0.10379813527778649, "257": -0.01160288924478957, "258": 0.050714192586567536, "259": -0.03564062979390257, "26": 0.045765550225636525, "260": -0.1643108824463332, "261": -0.15326286933948616, "262": -0.28729809965422287, "263": -0.1501274506288196, "264": -0.07582046572080824, "265": -0.12391594986901965, "266": -0.10224300907011076, "267": -0.04459681067407071, "268": -0.1832121113120166, "269": -0.09293295464495542, "27": 0.10087158542864356, "270": -0.06647747463781403, "271": -0.09270600339320692, "272": -0.04597745769778193, "273": 0.05801838333146529, "274": -0.014956249276634487, "275": 0.03760502037648243, "276": -0.0400749396053499, "277": -0.12896861646312294, "278": -0.29195942634651306, "279": -0.0982320888409086, "28": -0.07283486899152948, "280": 0.0017119316647773537, "281": -0.09884630384980263, "282": -0.04538569198748439, "283": 0.061545307846175935, "284": -0.11766503539231866, "285": -0.10898156463900181, "286": -0.08258224099559498, "287": 0.013344965744718829, "288": -0.15629790989184333, "289": 0.03848672509078004, "29": 0.0406865005545525, "290": 0.04828235337444202, "291": -0.013197200930496367, "292": -0.1513350519686522, "293": -0.06098813224807905, "294": -0.2080241849846268, "295": -0.03611937708359568, "296": -0.08326787026654363, "297": -0.12410421373194276, "298": 0.008154015449892775, "299": -0.002676851735773506, "3": -0.09601843465106227, "30": -0.0392702012797611, "300": -0.2881651635973591, "301": -0.06262061138212068, "302": -0.12869419657704775, "303": 0.021449262274673028, "304": -0.16330639675692915, "305": 0.08338381030117255, "306": -0.046513585808885226, "307": 0.008878297451301934, "308": -0.058932784443205766, "309": -0.039253647275598325, "31": 0.09583301186938528, "310": -0.17620511285638635, "311": -0.007313426673402689, "312": -0.030212044327246862, "313": -0.07734093502984749, "314": -0.014218068141487898, "315": 0.002676599820742224, "316": -0.14097173023562615, "317": 0.05132429804617362, "318": -0.0997578533663533, "319": -0.04583513652531706, "32": 0.008642032101204752, "320": 0.047022720890265324, "321": -0.0539904231068513, "322": -0.1021013349935559, "323": -0.0568102639629629, "324": -0.22008754488703794, "325": -0.03549813754628225, "326": -0.14240152737268333, "327": -0.0636233780118599, "328": -0.07595888352818661, "329": -0.0946833279077065, "33": 0.06162510927577504, "330": -0.04158188767686083, "331": -0.0709121219827865, "332": 0.02120829125850531, "333": 0.04215517081748305, "334": -0.15083607584373138, "335": 0.021309751544729885, "336": -0.09131688247553957, "337": -0.009710311977110628, "338": -0.01175217610225172, "339": -0.007061857917808464, "34": -0.06996222085571645, "340": -0.14422844557195297, "341": -0.10972928341873128, "342": -0.09317840058491655, "343": -0.0491221789401465, "344": -0.15520113421760245, "345": -0.09685104264491984, "346": -0.013042677912739952, "347": -0.13913707212162765, "348": -0.09303380875946947, "349": -0.03715582270503357, "35": -0.0408546311661726, "350": -0.0426402253329596, "351": 0.07242782096719289, "352": 0.12278210047549273, "353": 0.03200906979404159, "354": 0.020240346212505585, "355": -0.10368914352073237, "356": 0.03183066555549912, "357": -0.06290427289366249, "358": -0.1627876690497005, "359": -0.05942544887625229, "36": 0.11481817720985545, "360": -0.0400638111364725, "361": -0.05320044217044434, "362": -0.06980892085477555, "363": -0.03291454589905479, "364": -0.13162239653749733, "365": 0.046569329113695705, "366": -0.12113232891066758, "367": -0.001537462152691523, "368": -0.06136680887567514, "369": 0.06225547572513856, "37": 0.08200673916503592, "370": -0.07939862710312993, "371": -0.051441983827324796, "372": -0.06430385472908741, "373": -0.04662529421742742, "374": -0.17095073786843504, "375": -0.11523770603362382, "376": 0.04235268960209629, "377": -0.0688594118847466, "378": 0.05799750831948918, "379": 0.030557340101036216, "38": -0.17234315635871988, "380": -0.16814789820460027, "381": 0.037061356895781286, "382": -0.04960530396406396, "383": -0.006921839430109647, "384": -0.07611391055829701, "385": 0.08285452892322577, "386": -0.06794362425084725, "387": 0.058624346827867435, "388": 0.06604550704893793, "389": -0.04101870909334594, "39": 0.10360035333724248, "390": -0.16098470691993844, "391": 0.09177151367102816, "392": 0.049877511743602505, "393": -0.05089493716921236, "394": 0.05557264741914297, "395": 0.004064151775807233, "396": -0.054903032583048836, "397": 0.03222737395549338, "398": 0.044863665864635124, "399": -0.20733929147493285, "4": 0.02737630414871117, "40": -0.010385120158957593, "41": 0.07967387255550162, "42": 0.12991660665869098, "43": -0.12236947878192005, "44": 0.04527761140102536, "45": 0.008274519607445746, "46": -0.10738717242323514, "47": -0.07301449090942942, "48": -0.22012257472468102, "49": 0.10049165007432939, "5": -0.08202133086793037, "50": -0.05999579962568031, "51": -0.005282810823875124, "52": 0.045833433361480734, "53": -0.05185979743946819, "54": -0.15520333064120642, "55": -0.0010687737740789384, "56": -0.006600828822598678, "57": -0.00544084830493096, "58": 0.017957540683106295, "59": -0.150948738429468, "6": -0.018974675675200416, "60": -0.11083152526822113, "61": -0.017927147480232282, "62": -0.14994236126910238, "63": 0.012357184752394335, "64": -0.20695725567857798, "65": 0.003932336519336494, "66": -0.007596553047613599, "67": 0.030691893354048958, "68": 0.08161664500032259, "69": -0.08232697007271998, "7": 0.13441983169938868, "70": -0.003593998113083881, "71": -0.03775365599537655, "72": -0.036311977385300426, "73": -0.06923769404573617, "74": 0.07080283804589489, "75": -0.08667528656099202, "76": -0.19522863909301386, "77": 0.018892469935980215, "78": -0.1260217252277718, "79": -0.14440435718312233, "8": -0.16195262246193068, "80": 0.026826354457037918, "81": -0.10463466282391229, "82": -0.03695649354026991, "83": -0.15652176153919473, "84": 0.09367291222198375, "85": -0.08910681494520743, "86": -0.1693721242923165, "87": 0.12015654908083809, "88": -0.046115894107986846, "89": 0.1854248328510484, "9": 0.10497573742596278, "90": -0.09539386005945626, "91": -0.020592780719877968, "92": -0.006037340607526847, "93": 0.0540727018473309, "94": -0.09998283737959153, "95": 0.14573854194244512, "96": -0.1779793513977131, "97": -0.02482490670988122, "98": -0.04779537080325432, "99": -0.02996575665840985}}, {"depth": 16, "sx": 5, "sy": 5, "w": {"0": -0.1278386487292042, "1": -0.12758576657246123, "10": 0.03343416284571311, "100": 0.10346451358290538, "101": 0.08571089738828028, "102": -0.04261511312761827, "103": 0.0890078994867114, "104": -0.08708696892645496, "105": -0.07266942752460719, "106": -0.15879683034584055, "107": 0.07786622628938783, "108": -0.005414098985570397, "109": -0.1543995909569758, "11": -0.00951163182067441, "110": -0.090577357106349, "111": -0.0725335725757282, "112": -0.1109245996856339, "113": -0.17844887928831984, "114": -0.016049824066925122, "115": -0.06737801192990076, "116": 0.003143807123134774, "117": 0.07887529880374206, "118": 0.07410591008512087, "119": -0.03397062664560867, "12": 0.07796716120607225, "120": -0.16041814665309104, "121": 0.008926030556997464, "122": -0.22572862623773288, "123": -0.1494778684571425, "124": -0.018726789219125895, "125": -0.08149776093475926, "126": -0.12650623191068947, "127": -0.01492695089131266, "128": -0.08422179479694522, "129": -0.10067791751706548, "13": -0.03572804761958884, "130": 0.03515143601116032, "131": -0.06478014911223343, "132": -0.10093704209031676, "133": 0.004851420482471461, "134": 0.08783987485171289, "135": -0.08614529059914892, "136": -0.005958449909617896, "137": 0.031113619373276658, "138": -0.10209847779779803, "139": -0.048135313318266724, "14": -0.07418116260122516, "140": 0.033418435001016406, "141": -0.10328513783454035, "142": -0.11348134339603179, "143": 0.10362301235076478, "144": -0.016047526284872608, "145": -0.03726380736037564, "146": 0.06105044672073025, "147": -0.11159302133321246, "148": 0.1455715308803134, "149": 0.1171920220168282, "15": -0.19460734918530015, "150": -0.0057860293128909985, "151": 0.01413775986541856, "152": -0.19585262875863274, "153": 0.028059556893211816, "154": -0.26905235138466804, "155": 0.030210946325392545, "156": 0.04361802958815132, "157": -0.13024345642537266, "158": -0.06068856602019456, "159": -0.04557081045259869, "16": -0.24066248795834336, "160": -0.02966098911239283, "161": -0.1751746153317193, "162": 0.035616014536716714, "163": -0.24601251449012257, "164": 0.0905494755339358, "165": 0.03858753141380472, "166": -0.23195530656474395, "167": 0.07766549402425262, "168": -0.20717006958861142, "169": -0.06343154410064296, "17": -0.09503870250885944, "170": -0.1187603330301238, "171": -0.16648083385201462, "172": -0.06616942584969024, "173": -0.1697288748981351, "174": -0.1873259831132273, "175": -0.010200102562161376, "176": -0.13776585811005457, "177": -0.1758324336360677, "178": 0.0817463181506401, "179": -0.010283653744277506, "18": -0.007632970611794417, "180": 0.09021344155624147, "181": -0.1026954422859894, "182": -0.07846841579492336, "183": 0.04094101196684179, "184": -0.1318310875131752, "185": 0.06976341325872248, "186": -0.19680172592285639, "187": -0.27758685490466817, "188": 0.04714086499519423, "189": -0.1844420122124839, "19": 0.016597739185609205, "190": -0.07748677748409147, "191": -0.13404736199158665, "192": 0.025017322758156213, "193": -0.20449987504023182, "194": -0.08669093991745787, "195": -0.08941965436355488, "196": 0.039098547540194706, "197": 0.017000198042338596, "198": -0.12090477754964901, "199": -0.19303110974368579, "2": 0.03342671306766579, "20": 0.0626330531233438, "200": -0.23975665437977914, "201": -0.0058367057007040965, "202": -0.28937374222988815, "203": -0.22429271853488975, "204": 0.008072961717321428, "205": -0.17032740009030217, "206": -0.09185256882654022, "207": -0.12268032288763286, "208": -0.0585306604808642, "209": -0.1825550567971887, "21": -0.03144487093934015, "210": 0.018859190212809757, "211": -0.09828736994555355, "212": 0.12358704696478182, "213": -0.08387451997091736, "214": -0.24493638502153853, "215": -0.1482826992049048, "216": -0.14547062194334504, "217": -0.04359305134431118, "218": -0.32110004696798505, "219": -0.29497452515593364, "22": 0.043066028718736174, "220": 0.03952651338149532, "221": -0.1909465556688378, "222": 0.049706572869436694, "223": -0.006581496102966316, "224": 0.04731002448857629, "225": -0.12993621917028236, "226": -0.018128538733377175, "227": -0.22422770010288645, "228": 0.014462908983101454, "229": 0.06165886856955592, "23": 0.0544581179891693, "230": -0.2740374434438545, "231": -0.18009181150559878, "232": -0.2794368957427201, "233": -0.005703289046260614, "234": -0.15261924690524098, "235": -0.2215169968926391, "236": 0.13450378549709602, "237": -0.15104177713131242, "238": -0.0016975773879292964, "239": 0.06295845190898944, "24": 0.06306048916767339, "240": -0.03587556264108365, "241": -0.07093329327251366, "242": 0.09674334779791974, "243": -0.14753397286026235, "244": 0.10620585595339864, "245": -0.16579333890812675, "246": -0.10123381738936363, "247": 0.02106185677409402, "248": -0.14209220505792367, "249": -0.2537689063050254, "25": -0.1130111303745426, "250": -0.06227139590022849, "251": -0.23836973636285347, "252": 0.10190118614086124, "253": -0.27005511795288556, "254": -0.30634040228758946, "255": -0.040951502119233804, "256": -0.1389953550770343, "257": -0.16565382638377724, "258": 0.004904783900112099, "259": -0.08634299527898147, "26": -0.19656196327640332, "260": 0.05897624804336021, "261": -0.12062280162353639, "262": -0.12841835145498087, "263": -0.004761828778914659, "264": -0.20825579517280507, "265": -0.03304607121775205, "266": -0.07617401800605555, "267": -0.32690425915977556, "268": -0.014569536953091298, "269": -0.1662593968770571, "27": -0.06744847487643986, "270": -0.1445639111828754, "271": 0.011566647914757061, "272": -0.22136851110916744, "273": -0.1661097630585888, "274": 0.07997370652275054, "275": -0.04889086204883143, "276": 0.06379252558242415, "277": -0.1094874960969139, "278": -0.1718141640978426, "279": -0.2622702257230623, "28": 0.036287024514017274, "280": -0.30267442081736856, "281": -0.07668124961114986, "282": -0.164802359108045, "283": -0.3392345042380848, "284": 0.08797076022780706, "285": -0.22349442799101477, "286": -0.06315981596473298, "287": -0.007366866102510481, "288": -0.04821916029299919, "289": -0.011012142839800882, "29": -0.1865112049096092, "290": 0.09966760003542997, "291": -0.08267441805784105, "292": -0.05645042563800205, "293": -0.07584229318320405, "294": -0.22965461208134888, "295": -0.11868354617434115, "296": -0.22378688641536718, "297": -0.06416161094907766, "298": -0.2004150194068542, "299": -0.2294736700528516, "3": -0.11593679382558471, "30": -0.04368998819851455, "300": 0.021085740091222764, "301": -0.13206313426755587, "302": -0.009776427024471217, "303": 0.052361597600203515, "304": 0.06455768859908957, "305": -0.202508157336525, "306": -0.00515215663577668, "307": -0.0878889737593178, "308": -0.03622765449561295, "309": -0.07860096201525196, "31": -0.16107686427062648, "310": 0.016193098860152157, "311": 0.04457142167868396, "312": -0.1447674240828724, "313": 0.031084428588244836, "314": -0.14803959326667646, "315": -0.36358330275595857, "316": -0.03322894763199188, "317": -0.13837743791048607, "318": -0.07420127554469415, "319": 0.09271641773644662, "32": -0.08199611710924647, "320": -0.1830345291550902, "321": -0.0524715463563777, "322": 0.09022551373196282, "323": -0.06495245908074362, "324": 0.13377410669935805, "325": -0.10285313698513258, "326": -0.015265668175076293, "327": 0.16366187869015875, "328": -0.27222049400876314, "329": -0.08546324120873879, "33": -0.1387983142121013, "330": -0.06457108739219741, "331": -0.15349189887751097, "332": 0.04905883426140421, "333": -0.1138525765758778, "334": -0.16122743819521454, "335": -0.15618789960429041, "336": -0.015192927014345825, "337": -0.1699114007953787, "338": -0.006567549214870247, "339": -0.15137448727613975, "34": -0.017625037849673574, "340": 0.06833785733311022, "341": -0.22547056300101176, "342": -0.16229516826286583, "343": -0.04691919461513229, "344": -0.14061064237558096, "345": -0.012082881346150758, "346": -0.13697596110651702, "347": -0.2087140676081401, "348": -0.07906424557963192, "349": -0.11077754054047545, "35": -0.1651018423081451, "350": -0.1319831797017628, "351": -0.08480345665328874, "352": -0.11882002095833316, "353": -0.1390847626655869, "354": -0.023126032458852263, "355": 0.01152616752496129, "356": -0.0880787018172327, "357": -0.033993526935325695, "358": -0.29711520167789024, "359": -0.3136734845341597, "36": -0.013387224184667486, "360": -0.25802439968554924, "361": -0.006711945082007398, "362": -0.1856388755726418, "363": -0.12834442330392729, "364": -0.04225808345393018, "365": -0.16025224050442827, "366": -0.13643111832648216, "367": -0.046449097024967106, "368": 0.1090404638871072, "369": -0.14151593571934495, "37": 0.03492600001321889, "370": 0.039131373150132466, "371": -0.12207797699938747, "372": 0.07169063308242893, "373": -0.31691757036709234, "374": -0.1766945370801437, "375": -0.024010241913590875, "376": -0.13721465336586502, "377": 0.032535623174774396, "378": -0.3150318718899662, "379": -0.24822708676172778, "38": 0.04512936348580043, "380": -0.10863153923068312, "381": -0.0685952526757773, "382": -0.05177283090660737, "383": 0.030256800781965444, "384": 0.15029711286539965, "385": 0.03895291260595053, "386": 0.037851821282263214, "387": -0.08137417034295537, "388": 0.03824752647498, "389": -0.2186229074576121, "39": -0.23257123069338773, "390": -0.2089614596528166, "391": -0.061382426242866335, "392": -0.2702391192414146, "393": 0.0026008575657220433, "394": -0.12421097944328371, "395": -0.1947372688390395, "396": 0.14211494445376358, "397": -0.14631938799120803, "398": 0.07522424343909209, "399": 0.03610293558124793, "4": 0.11847028434085843, "40": -0.17853864566373503, "41": -0.09351379799617168, "42": -0.3144261489012359, "43": -0.15865650298210007, "44": -0.0396598858866905, "45": -0.14567828500782298, "46": -0.04163486240573879, "47": -0.11786119887491843, "48": -0.07688950300212671, "49": -0.014896405002166307, "5": 0.09747503939301279, "50": -0.07234493109570005, "51": -0.04171540541411674, "52": -0.07050596310827716, "53": -0.09992769419417159, "54": 0.02052024084582021, "55": -0.06392037549349638, "56": -0.164279882645818, "57": -0.08128916532432744, "58": -0.18124543681967542, "59": -0.07022065308662255, "6": 0.025325382043855392, "60": 0.1068891457143146, "61": -0.13666936380302794, "62": 0.025191178738472417, "63": 0.013251918660280694, "64": -0.0911836351382933, "65": 0.043776926626232865, "66": -0.039014505113604096, "67": -0.11112632571218566, "68": 0.01693513742792853, "69": 0.08069940046279744, "7": 0.20561065577998364, "70": -0.007315831809601915, "71": 0.03542041561257421, "72": -0.14833610925433982, "73": -0.022181918460387123, "74": -0.19152588596029932, "75": -0.11108265857939838, "76": -0.035700190373125544, "77": -0.2003985848131589, "78": -0.1516238455516972, "79": -0.02096101751931443, "8": 0.13338288090814207, "80": -0.12610148135964522, "81": -0.05740009366574285, "82": 0.14103931178324022, "83": 0.009842032564341874, "84": 0.023531855486372998, "85": 0.04813069403866631, "86": -0.17266532345138058, "87": 0.02973676530948372, "88": -0.09569558411255023, "89": -0.10501117205067592, "9": -0.11083251942245874, "90": -0.06778541017320937, "91": 0.049560145624972844, "92": 0.11091825188489392, "93": -0.05458988390442404, "94": -0.1489810955245525, "95": -0.13262260393298858, "96": -0.11252254785301283, "97": -0.08587196951348469, "98": -0.03210235324145655, "99": 0.07643437892112744}}, {"depth": 16, "sx": 5, "sy": 5, "w": {"0": 0.22556053466801151, "1": -0.0478839672828642, "10": 0.04295889286759792, "100": 0.09171716731522492, "101": -0.17056877242423987, "102": -0.0759269118330118, "103": 0.18202850887197244, "104": 0.03262040099465503, "105": -0.0248299183354532, "106": -0.22654641780790946, "107": -0.11948186967203012, "108": -0.014984193340895766, "109": -0.02622729258862839, "11": -0.06062976558151815, "110": -0.1807725588515093, "111": -0.13310862290660677, "112": -0.13767644819339947, "113": -0.03432308638729849, "114": 0.08435141871541782, "115": 0.0025099619029686792, "116": 0.07350101979255609, "117": 0.026371223017933793, "118": -0.11299767031125418, "119": -0.02751218254049865, "12": 0.19610277148958846, "120": 0.021812930506751014, "121": 0.061100461916223196, "122": -0.02474029910636521, "123": -0.23777597895008537, "124": -0.20413964582928157, "125": 0.08435845226373151, "126": -0.0026181557965371765, "127": -0.09603834827867598, "128": 0.06951181527577262, "129": 0.0393704084957001, "13": 0.13587764247798642, "130": -0.08623970046419996, "131": -0.09964924656888724, "132": -0.3399781958169926, "133": -0.019632091110425416, "134": -0.24160819359623803, "135": -0.11886488293392827, "136": 0.16342662755515655, "137": 0.010191395594941925, "138": 0.22097448373055578, "139": 0.06312682399156741, "14": 0.07349520493663073, "140": -0.17501199995672087, "141": -0.004165285707549419, "142": 0.09110944264016183, "143": -0.061177402683100554, "144": 0.18004208727851687, "145": 0.025365903211204494, "146": 0.06546593033047544, "147": -0.17885814578212264, "148": -0.2670988553504073, "149": 0.12077813296143752, "15": -0.0506361009322162, "150": -0.35668914347375447, "151": -0.15933585304281953, "152": -0.03556220625633613, "153": 0.1564043861589284, "154": 0.1370997064688599, "155": 0.02512696006777985, "156": 0.2185568439700046, "157": 0.0520378494848297, "158": 0.18206525805163812, "159": 0.03315772971067648, "16": -0.2828535792402082, "160": 0.06566464859340825, "161": -0.13516863643951513, "162": 0.05862769387204371, "163": -0.18323378259592393, "164": 0.18856304822729622, "165": -0.14369143019805258, "166": -0.17920119286452368, "167": 0.07316349716661258, "168": -0.16142155819759169, "169": -0.11746668101390274, "17": -0.09871483285136907, "170": -0.07310452302257044, "171": -0.07531681913390154, "172": 0.08657625582332543, "173": -0.1602011722539763, "174": 0.09073387464339391, "175": 0.07395085351275617, "176": -0.11505389770731506, "177": -0.08552118376498354, "178": 0.05254702105480014, "179": 0.027249252041842066, "18": 0.10959877448943942, "180": 0.07948930896547075, "181": -0.09905964948450757, "182": -0.223308987091956, "183": 0.19446411130294278, "184": -0.16172605255479106, "185": -0.05785836931037361, "186": -0.050935815621548274, "187": -0.20826039005621508, "188": 0.00587335936030214, "189": -0.12884956379642715, "19": 0.06598455490509231, "190": -0.09450824753946213, "191": -0.21021201360053648, "192": -0.15347773916526064, "193": -0.012827655810588074, "194": 0.08480862238098845, "195": 0.047322632625971896, "196": 0.023514041831469656, "197": -0.0025865775314193908, "198": -0.015418590061713384, "199": -0.02761450294690789, "2": 0.009069493496172205, "20": 0.10911255053020791, "200": -0.03818162737903985, "201": -0.1269977594895196, "202": 0.016957094773616736, "203": -0.10323168318775726, "204": -0.16744428770909045, "205": -0.07925794944325516, "206": -0.051956149811656596, "207": -0.13119675492391503, "208": 0.014227249146238076, "209": 0.09579605396738856, "21": -0.0423713171675263, "210": -0.02334099534231632, "211": -0.05612259838463831, "212": -0.26388102084888704, "213": -0.16428888810552514, "214": -0.1233700824523829, "215": -0.22023733987307162, "216": 0.10298907350262362, "217": -0.12293255843024768, "218": 0.11746837493751051, "219": -0.1660110773000647, "22": -0.15312038515931575, "220": -0.22410981751815223, "221": -0.20088313643865732, "222": 0.04598667011509128, "223": 0.05148464415181213, "224": 0.01265620522277794, "225": 0.11620166000645166, "226": 0.05575780970013489, "227": -0.13930199915968663, "228": -0.38400223524789845, "229": 0.05575854603123921, "23": 0.1363483291763579, "230": -0.2988617811454245, "231": -0.24277860291750503, "232": -0.05635789418280783, "233": 0.03821488040667786, "234": 0.10549618158770198, "235": -0.06652373318300818, "236": -0.06849769587474738, "237": 0.010136121810332792, "238": 0.12449982278090377, "239": 0.10174035933874237, "24": 0.08421325786077252, "240": 0.02730229369484375, "241": -0.16547353024265865, "242": 0.02960977413949988, "243": -0.08995610016708278, "244": 0.11637355113922797, "245": -0.16137398393122362, "246": -0.15903413622376633, "247": 0.01228239716988879, "248": -0.15770421252137876, "249": -0.044907684812085215, "25": -0.04558785746433539, "250": -0.03845264880737848, "251": 0.02427603409787352, "252": 0.1099491177639384, "253": 0.016137325144509336, "254": 0.008422705551994952, "255": -0.03254735345055112, "256": -0.09876437854752818, "257": -0.06660163831904858, "258": 0.03628729152289325, "259": -0.05446302189851016, "26": -0.2526445928259373, "260": 0.041024512738133845, "261": -0.005382631286878824, "262": -0.13215567142917803, "263": 0.11660352321702612, "264": -0.19918735066753035, "265": -0.1098744491173121, "266": -0.20434092890073396, "267": 0.01737398129850274, "268": -0.13164823085954927, "269": -0.0652197640589162, "27": -0.18027139218246574, "270": -0.1506117243746413, "271": -0.1843761147637873, "272": -0.018879452453347705, "273": 0.04198366291791678, "274": -0.09163596823554343, "275": -0.12089485606454177, "276": -0.11053771685790675, "277": -0.10298907038376608, "278": -0.15518614653300622, "279": 0.06396859355999027, "28": -0.016188414972851478, "280": -0.18466751520917024, "281": -0.17892539344220262, "282": -0.035619126659606135, "283": -0.19726650843544444, "284": -0.20890106580705547, "285": 0.005112110805097457, "286": -8.169619512693026e-05, "287": -0.0893467861207828, "288": -0.09903309513533717, "289": 0.029221219338631373, "29": -0.00424703057418808, "290": -0.0828662125401549, "291": 0.021044295036442964, "292": -0.18504630658694235, "293": -0.14678424425729972, "294": -0.1358785381611983, "295": -0.24351875141802673, "296": -0.001074696264639669, "297": -0.29723776427574433, "298": 0.18437737849801208, "299": -0.16073255021532906, "3": -0.02028533296793767, "30": -0.09875400880228134, "300": -0.08610813649909739, "301": -0.054115759811750985, "302": 0.01383629618847303, "303": -0.13378979308060768, "304": -0.18309030890411868, "305": 0.07819710904457837, "306": -0.04898965583643766, "307": -0.0052168098588357414, "308": -0.19355050648262137, "309": 0.11746726413537117, "31": -0.05736624517215023, "310": -0.12786770084818755, "311": -0.23298404230289804, "312": -0.02472172291085315, "313": -0.05794918946307896, "314": -0.04705929899723811, "315": -0.17765469432110464, "316": -0.17236629979496854, "317": -0.07179957619314747, "318": -0.07161289684206025, "319": 0.10325749932923717, "32": -0.08836530025251003, "320": 0.057888483444950574, "321": -0.22489683687219772, "322": 0.03945823372675151, "323": -0.1788541008402686, "324": 0.12987683526318328, "325": -0.08554635853658982, "326": -0.07797546622079653, "327": 0.0965587896794044, "328": -0.07801381154101834, "329": 0.01481690063792786, "33": 0.13186927178191601, "330": -0.08783448180502601, "331": -0.02875808764930435, "332": 0.005654715885173864, "333": -0.06900888895809712, "334": -0.002060243489759267, "335": -0.004376705183008352, "336": 0.041480935189909134, "337": -0.13206750188078017, "338": 0.00015922057475547415, "339": -0.04684661931559409, "34": 0.15436502861181253, "340": 0.13766537050066133, "341": -0.10153511314727717, "342": -0.08578746810168689, "343": 0.13919667794463506, "344": -0.058438708148655566, "345": 0.07012034476551915, "346": -0.11163654376415602, "347": -0.07080034622501803, "348": -0.1417812659399602, "349": -0.09451778250972448, "35": 0.17904851067019042, "350": 0.021492082380152083, "351": -0.14316095667931322, "352": 0.07558232890315293, "353": -0.02866524654272041, "354": -0.045292170511161085, "355": 0.05856079411792586, "356": -0.09317541774614055, "357": -0.10215486835574311, "358": -0.023401377199865715, "359": -0.0086483460486217, "36": -0.02502671585166231, "360": -0.1128128249348885, "361": -0.04360417339014711, "362": -0.08977266051078159, "363": -0.09052083755589307, "364": -0.08420756947233048, "365": -0.12196760690459622, "366": 0.01551602201195302, "367": -0.23984816989002952, "368": 0.008489635033460365, "369": -0.018917346624597847, "37": 0.13231075802598893, "370": -0.07609396144980705, "371": 0.07514771034263541, "372": -0.2569621344560798, "373": -0.149230214462429, "374": 0.03654232533688312, "375": -0.09595391134133952, "376": -0.07128663729378573, "377": -0.20199320240629692, "378": 0.036316692738824735, "379": -0.11070983985723076, "38": -0.013875683546282184, "380": 0.047170534851132456, "381": 0.11706846902179421, "382": 0.055245521075272745, "383": -0.06954067530089102, "384": -0.06115606473346854, "385": -0.009601042911100192, "386": -0.12155273922754321, "387": 0.07753277527460699, "388": -0.3234091764310447, "389": -0.09254867779207769, "39": -0.025995466601800937, "390": 0.11149287337783226, "391": -0.19467255904867464, "392": 0.1083208712371207, "393": -0.20387803471635946, "394": -0.04920646523121853, "395": -0.08079853407155616, "396": -0.0958526383521482, "397": 0.06261709292388175, "398": -0.021486556738651488, "399": -0.02424516163390769, "4": 0.03014399950819215, "40": 0.08181723712120952, "41": 0.07204657457751426, "42": 0.1374363025285041, "43": -0.058693319184999676, "44": -0.3221988662762997, "45": 0.1324839912700188, "46": 0.08624400144763476, "47": 0.0477053928114522, "48": 0.23648518911151248, "49": 0.14112600404298212, "5": -0.039202460410572584, "50": 0.016752139595547593, "51": -0.020114793965977783, "52": -0.18136205992988744, "53": 0.02457236454572978, "54": -0.07171182898428154, "55": -0.13118533208548158, "56": 0.0997767285868689, "57": 0.14151457516976196, "58": 0.1393882872245142, "59": 0.009762011754039509, "6": -0.08776322690395413, "60": -0.060669668825746044, "61": 0.1067282016804971, "62": 0.21410435731483252, "63": -0.051137641591180415, "64": 0.1732103788776833, "65": 0.0900749829677863, "66": -0.020258075476983158, "67": -0.13471432407553083, "68": -0.23142241829234855, "69": -0.0053647183341621295, "7": 0.11306772366739402, "70": -0.23222996438490448, "71": -0.1834799434985152, "72": -0.1688679644984907, "73": 0.2018938172846124, "74": 0.06757827161949104, "75": 0.024233139756228324, "76": 0.12344271134193603, "77": 0.024169074039776032, "78": 0.2445201389674183, "79": -0.011640580365554607, "8": -0.021997534538666888, "80": 0.18100475028920238, "81": -0.1714779912642875, "82": 0.012000954029825548, "83": 0.037888614733425106, "84": 0.1839144358290511, "85": -0.15956262121399006, "86": -0.04550865550240409, "87": 0.09775906768256137, "88": -0.0004981400559851855, "89": 0.009141434798698785, "9": -0.02415894865842738, "90": -0.015210690592381157, "91": -0.2164643803929296, "92": 0.13135455361877513, "93": -0.04061909331356508, "94": 0.05595775761771082, "95": 0.057164093846650735, "96": -0.13841515040689412, "97": -0.17454744725259708, "98": -0.02000381994524611, "99": 0.05128502903342596}}, {"depth": 16, "sx": 5, "sy": 5, "w": {"0": -0.03560455325937839, "1": -0.031768988753551226, "10": -0.05061338820507331, "100": -0.056278254113953825, "101": 0.036719464879882056, "102": -0.1803664941692856, "103": -0.15982182930766056, "104": 0.05289726258111898, "105": 0.09020573778748589, "106": -0.09149016103759057, "107": -0.18685380438196952, "108": -0.08484414744352753, "109": -0.08120498175038321, "11": -0.1905229890133858, "110": -0.16355129553875655, "111": -0.054125149806796856, "112": 0.08773832195682556, "113": 0.1129604383267791, "114": 0.03931859541871689, "115": -0.0007950868580178082, "116": 0.0937565131368973, "117": -0.04387241891130116, "118": -0.1085133637019237, "119": 0.06538720034238744, "12": 0.004951755175396989, "120": 0.05622542856417394, "121": 0.0925191315681385, "122": 0.0583215840170886, "123": -0.06684770368785165, "124": 0.020747661346184634, "125": 0.04319566573322352, "126": -0.02755832298357895, "127": 0.034000371856101566, "128": -0.16851283755652197, "129": 0.08824288407736926, "13": 0.043768265952733865, "130": 0.046518239610882875, "131": 0.08732021571704751, "132": -0.09889325192589445, "133": -0.05818620629186843, "134": -0.07153348707694311, "135": -0.014830637101458825, "136": 0.11961194980427729, "137": 0.032937038035979166, "138": 0.002538411186771923, "139": 0.07288709330882343, "14": -0.060415965632973856, "140": -0.22970767542363027, "141": 0.07895801702865317, "142": -0.029923406004891608, "143": -0.12725284707834125, "144": -0.1501828934233837, "145": -0.04089203984338247, "146": 0.06653279744545501, "147": 0.14563626879563407, "148": -0.12690642746638311, "149": 0.005543389196532054, "15": -0.052225432335801916, "150": -0.02499913396689477, "151": -0.05813222548984563, "152": 0.07447063655005225, "153": 0.024007583878730983, "154": 0.02212863085753108, "155": -0.0039023674299143584, "156": -0.23949916275869587, "157": -0.08183178316926784, "158": -0.16742955810719812, "159": -0.11090098782637368, "16": -0.09248412793343903, "160": -0.22203421367336346, "161": 0.004376932954428865, "162": -0.09420592361487225, "163": 0.010907332748606039, "164": -0.09162892875838043, "165": 0.013337774202309676, "166": -0.20776269748208367, "167": -0.1114768695330304, "168": -0.0717652939782849, "169": -0.12455606159715335, "17": -0.05810684344810663, "170": -0.14007889456520922, "171": -0.2910613158059664, "172": -0.03162341902221195, "173": -0.13680721281480623, "174": -0.173860910692616, "175": 0.012940892566899008, "176": -0.32792418405674884, "177": -0.05693838147625383, "178": -0.01854652146250908, "179": -0.10437179560623043, "18": 0.0018987589191180106, "180": -0.12610631786399604, "181": -0.019679248295172893, "182": -0.16189382788471257, "183": -0.19867921875278935, "184": -0.026749371469560395, "185": -0.09502598249532995, "186": 0.017033473712078796, "187": -0.13910619246002892, "188": 0.0003508473057014597, "189": -0.10604149311733214, "19": -0.049684387215363106, "190": -0.1687826615144536, "191": -0.027901861521554838, "192": 0.11604058943058024, "193": 0.05395233131931068, "194": 0.045040706624388305, "195": -0.009402202031464748, "196": 0.08210491470403906, "197": -0.0065327843414755265, "198": -0.24641971281950667, "199": 0.12176157940649192, "2": 0.03383808555901634, "20": 0.04541483225148193, "200": -0.1338939865775762, "201": -0.10855656721413066, "202": 0.03403664154590431, "203": -0.1522505807174575, "204": -0.010929364293362371, "205": -0.004218714545352449, "206": -0.051340081133999245, "207": -0.05343433740208894, "208": -0.30775920257491174, "209": -0.06432592429983944, "21": -0.07422976839188347, "210": 0.010297546599741761, "211": 0.07910589204837234, "212": -0.1236376857309727, "213": -0.06997835154581371, "214": -0.19779454641065866, "215": -0.09640149449012804, "216": 0.03859180256598999, "217": -0.07707497644955315, "218": 0.01862834131074879, "219": -0.011666002926321684, "22": -0.16632157016915144, "220": -0.22880217133581118, "221": -0.04297185299065623, "222": -0.08634233360352951, "223": -0.21262160412819633, "224": -0.20835727198943577, "225": 0.04860848148417687, "226": 0.001373199851505828, "227": 0.05124496986495435, "228": -0.10329258194673129, "229": -0.13865869027864525, "23": -0.04343688090960307, "230": -0.3385700492889228, "231": -0.2384385759936358, "232": -0.0110562582904891, "233": -0.09039291467696393, "234": -0.057001867107800815, "235": -0.03200580427027528, "236": -0.12844514143193173, "237": -0.005003184052441862, "238": -0.16037518510362742, "239": -0.02355679162102464, "24": 0.010185966846733348, "240": -0.1049407401808057, "241": 0.007638556331468745, "242": 0.03344747714152939, "243": -0.09849060611823525, "244": -0.04379770882123041, "245": 0.014228059536453319, "246": -0.33432265030742864, "247": -0.15010151853029735, "248": -0.15977328550893585, "249": -0.056367756045696986, "25": -0.052756208068695194, "250": -0.04375995095792604, "251": -0.14893417329751968, "252": -0.10845696749856036, "253": 0.011712881353254396, "254": -0.18668970987103484, "255": -0.034965028578092756, "256": -0.17193745599150903, "257": -0.022081255440417325, "258": 0.002640304843128982, "259": -0.010948624534512008, "26": -0.06878393008413483, "260": -0.05940842951218776, "261": 0.03680399371661967, "262": -0.1944993819469064, "263": -0.1656643420712136, "264": 0.06499097415134523, "265": -0.14081512489396672, "266": -0.0673174421762459, "267": -0.13559609598906297, "268": 0.04037262503300374, "269": -0.014325941207491005, "27": -0.037959805827484684, "270": -0.13826230101386608, "271": -0.11498590295854148, "272": 0.020978027564826546, "273": 0.11665718002631517, "274": 0.12451082521878405, "275": -0.08339481509073847, "276": 0.1641488060547797, "277": 0.0642964704482085, "278": -0.25680093852007274, "279": 0.04909570294224863, "28": -0.04262679832769135, "280": 0.05163353697665217, "281": -0.07851014246305014, "282": 0.03335426285489583, "283": 0.051407099656914236, "284": 0.05601612064759507, "285": 0.0630710695752761, "286": -0.06625702749436768, "287": 0.004563269565716185, "288": -0.1887614949969932, "289": 0.10138384417405032, "29": 0.007384068665728132, "290": 0.06961215700764589, "291": -0.05651963665304771, "292": -0.09053656347796853, "293": -0.08827351934546453, "294": -0.30345883961781384, "295": -0.1479283900242219, "296": 0.010553647414980173, "297": -0.031743134492510955, "298": 0.04267015656536173, "299": 0.132582673618983, "3": -0.005334389442892195, "30": -0.09725360358370454, "300": -0.036773478137422946, "301": 0.008011641606441066, "302": -0.08714460402813218, "303": -0.09320543772254063, "304": -0.144920472005671, "305": 0.06045489565927602, "306": 0.09570994040966907, "307": -0.009204317477014976, "308": -0.0004020258002855617, "309": -0.07617674841111767, "31": -0.13856862064765874, "310": -0.18291254999859852, "311": -0.15566694904484377, "312": -0.025822175583687563, "313": 0.07358246365046259, "314": -0.008993757413894608, "315": 0.11935244140383135, "316": -0.0944375596356089, "317": 0.06721171132798395, "318": -0.16832308089060835, "319": -0.08457918156774949, "32": 0.03912533320823882, "320": -0.17942038014196057, "321": -0.0525205408237759, "322": 0.020918464605542926, "323": -0.08648083555657926, "324": -0.07478803176029275, "325": 0.008875847729177168, "326": -0.2145924396527417, "327": -0.21370409676099847, "328": -0.12395918604640588, "329": -0.13335424392417664, "33": 0.08018685614907937, "330": -0.022590364721964767, "331": -0.16544463207318452, "332": 0.024051831165959377, "333": 0.04293004279880658, "334": -0.06958229811650207, "335": -0.1847097416986185, "336": -0.07992635582007901, "337": -0.028043182742130125, "338": 0.05121369801727794, "339": -0.03544024990805088, "34": 0.009353928397676273, "340": -0.10696033303642631, "341": -0.08488892917479084, "342": -0.20582205689446037, "343": -0.19140018958710828, "344": -0.10970669932534799, "345": -0.029252396943380894, "346": -0.1212113484472247, "347": -0.037236183904134856, "348": 0.03088032061952125, "349": 0.017350395688845825, "35": 0.03803936147507203, "350": -0.1890024204951599, "351": -0.07366954630114349, "352": 0.06775549852602805, "353": 0.034349740782928295, "354": 0.027936345258712723, "355": 0.051623490845585686, "356": 0.17842174137803427, "357": 0.10145871604627239, "358": -0.2449657280970577, "359": 0.0904376547037867, "36": 0.19580849552392318, "360": -0.0025985784974341536, "361": -0.09427410120211882, "362": 0.07927874332732203, "363": 0.029070776649523844, "364": 0.07532692537442008, "365": 0.0469214103259741, "366": -0.08289441087534201, "367": -0.06077814576736713, "368": -0.31071250051391286, "369": 0.008179735164255207, "37": 0.11486106836443065, "370": -0.012013469170382342, "371": 0.09325683570451583, "372": -0.16933400321985137, "373": -0.14022629548742713, "374": -0.22739504247325706, "375": -0.1181447714992762, "376": 0.11614004738462422, "377": -0.05324671942776172, "378": 0.004438697161609482, "379": 0.029501725900598637, "38": -0.04890694720482561, "380": -0.07353560493001006, "381": -0.050373972855780595, "382": -0.004367549894586126, "383": -0.05929162333684143, "384": -0.12741906433358255, "385": 0.04984032791243405, "386": -0.023349282115732648, "387": -0.03027292254092393, "388": 0.01974555338142691, "389": -0.043641534385007695, "39": 0.13804698912042568, "390": -0.19079558570696648, "391": -0.14121505317048472, "392": -0.004224397812803212, "393": -0.09314868529721292, "394": 0.05138598818334659, "395": -0.049895455939170066, "396": -0.1635856718867885, "397": -0.042926177574054473, "398": 0.043056190938682175, "399": 0.01525296202391775, "4": 0.10282462981368759, "40": 0.07216169459640358, "41": -0.06953414183784119, "42": 0.08333200077489446, "43": -0.07870239778774799, "44": 0.004525747382815754, "45": 0.10594101813431549, "46": 0.03165953724801831, "47": -0.027409680050870047, "48": -0.23107838375633866, "49": 0.114937513921121, "5": -0.04050078237431046, "50": -0.07870081704067737, "51": 0.08505970905887149, "52": -0.00018073912625031724, "53": -0.13854963320571165, "54": -0.01721716520521609, "55": -0.08547833586639146, "56": -0.005222930797822164, "57": -0.17951397456159793, "58": 0.08882345054850996, "59": -0.03941372725967694, "6": -0.003162050537392945, "60": -0.1339551112428488, "61": -0.015912745866422325, "62": -0.10469991593755862, "63": -0.061749936763701635, "64": -0.11669446920351484, "65": 0.09112208139359815, "66": -0.011756662648656473, "67": 0.12632387014144103, "68": -0.0799460427989931, "69": -0.09068344695158044, "7": 0.18915824547915047, "70": -0.09187191000305306, "71": 0.012803150637987242, "72": 0.10116632466766691, "73": -0.12514368005779636, "74": 0.018105422277624638, "75": -0.15950833683151774, "76": -0.20388490930249767, "77": -0.10143371083130685, "78": -0.04939083986699279, "79": -0.03387621756061278, "8": -0.0180734903083111, "80": -0.12858006165107172, "81": -0.049169990193429915, "82": -0.007214120081167433, "83": -0.08483491563756987, "84": 0.026907319734989298, "85": 0.027511716003521494, "86": -0.155598307435857, "87": -0.03390936133253555, "88": 0.08296148264110641, "89": 0.1390656169740108, "9": 0.018730905533320734, "90": -0.060650943261868956, "91": -0.10981557404274701, "92": -0.06438334310097646, "93": -0.05955317397720831, "94": -0.14395676490173537, "95": -0.014953918515943672, "96": -0.13985533851443163, "97": -0.035283193654301236, "98": 0.04763846659866961, "99": 0.02376158885549949}}, {"depth": 16, "sx": 5, "sy": 5, "w": {"0": -0.11483467838379693, "1": -0.07982146887581977, "10": 0.02725929045217167, "100": -0.029469463627892607, "101": 0.04525584634330396, "102": -0.018474880768377666, "103": -0.08091867586257584, "104": 0.0009102049653108683, "105": -0.06919923533827815, "106": -0.031022560542611582, "107": 0.03533044429006625, "108": -0.005602918002005497, "109": -0.01352929057330258, "11": -0.005619097160461208, "110": 0.05223634040098859, "111": -0.08599017935374828, "112": 0.021110082202067927, "113": -0.08026426720644024, "114": 0.07505663717985112, "115": 0.04851960301796423, "116": 0.02428040812164661, "117": -0.019497950846792563, "118": -0.012453203179819917, "119": -0.09889806218046479, "12": -0.09622074282248419, "120": 0.02891489655068931, "121": -0.08284560866879849, "122": 0.006419106047273167, "123": -0.05302568969461753, "124": 0.01884648043613661, "125": -0.0217953944568395, "126": -0.07336059040148132, "127": -0.015284839947328932, "128": -0.10070346447119975, "129": -0.07901659834047518, "13": 0.058967086385211843, "130": -0.019785183436889793, "131": -0.009170090562579102, "132": 0.09427411206586618, "133": -0.005198729212133532, "134": 0.010290677303781852, "135": -0.1370670694677466, "136": -0.052109903586375905, "137": -0.05904662854060618, "138": -0.039013726697325536, "139": 0.028124696115823092, "14": -0.042187754316977924, "140": -0.09589198918892353, "141": -0.05960238169110942, "142": -0.015381393877744618, "143": -0.09256790224578113, "144": -0.113130073742272, "145": -0.12162586274101923, "146": -0.027189980858195607, "147": 0.02888368940266728, "148": -0.05407305785892349, "149": 0.031473929480554975, "15": -0.061928491485249634, "150": -0.04816821953401804, "151": 0.02218231776548285, "152": 0.09769486737714914, "153": -0.054777516165452476, "154": -0.11307658702714658, "155": -0.036089210535931615, "156": 0.020206346487537268, "157": -0.09252275186440828, "158": 0.07994497848808699, "159": -0.12391800136003978, "16": -0.031568382669851215, "160": -0.03163832919924784, "161": -0.05444502940579566, "162": -0.11384560541353318, "163": -0.08228660284280626, "164": -0.07010221770100172, "165": -0.053935776233714865, "166": -0.031617640056191096, "167": -0.08326445772240817, "168": -0.0005771451752220281, "169": -0.08083036149574584, "17": -0.06410393124612868, "170": 0.03560138100563133, "171": 0.006313640620483067, "172": -0.04957395196728897, "173": 0.0005505181507307651, "174": -0.033261659498950845, "175": -0.0634681755659786, "176": -0.05087662292254785, "177": -0.004529930806749464, "178": -0.09297457313224289, "179": -0.026488187850521625, "18": -0.07284634175925432, "180": -0.11762204709130483, "181": -0.06835941540179945, "182": -0.12401163600286534, "183": 0.0014557408944035164, "184": 0.025103130516599435, "185": -0.009723288858734436, "186": -0.10091298004503291, "187": -0.004629182067927679, "188": -0.030735279363247166, "189": -0.06567315181624865, "19": 0.028736666796813443, "190": -0.05340591662384207, "191": -0.04002272819204393, "192": -0.10444778379976208, "193": -0.11169250689605743, "194": 0.04733776050214969, "195": -0.025330728579104258, "196": -0.018007545522730956, "197": -0.019722860981856185, "198": -0.10221587400004463, "199": -0.04697943712034954, "2": -0.051456479800772156, "20": -0.10087066202337272, "200": 0.061703757483100245, "201": 0.04129839604317877, "202": -0.05574106463538213, "203": -0.03797580892556369, "204": 0.021755490511881453, "205": -0.09258779419363926, "206": 0.060084096738164394, "207": -0.05898381780100228, "208": -0.056755708336348694, "209": -0.04355997501397014, "21": 0.06958689829584681, "210": -0.002337431181158753, "211": -0.06547432768568985, "212": 0.012345331255455618, "213": -0.0430294824831599, "214": -0.06018700464142283, "215": 0.04537859252410891, "216": -0.018259108620145577, "217": -0.08511576858958017, "218": -0.08206678879976129, "219": 0.04335318667745425, "22": -0.0810676289489041, "220": 0.04138777956947666, "221": 0.0034475658839100867, "222": -0.06406093653556062, "223": -0.06899705306947783, "224": -0.035721992226651955, "225": -0.014464650046954573, "226": -0.05730876942427999, "227": 0.05085111959079432, "228": -0.014473180326454905, "229": -0.03654280698769491, "23": -0.11015472981251903, "230": -0.19688172672230214, "231": 0.005599517899468152, "232": -0.056917383382717686, "233": -0.024664986056137383, "234": -0.04956341718447012, "235": -0.02131520345673598, "236": -0.1551618748657963, "237": -0.02255892894833386, "238": -0.040106255760996475, "239": 0.04397354373219633, "24": 0.04392560707408767, "240": -0.02325693572810017, "241": -0.025132274184034836, "242": 0.01141417978944763, "243": -0.037672532443134565, "244": -0.015574271747480955, "245": -0.07279775911117888, "246": -0.029109441140689425, "247": -0.0445732293667975, "248": -0.08990139786665223, "249": -0.09747945790788665, "25": -0.01354201919514114, "250": 0.03899726521316603, "251": -0.03839658232365356, "252": -0.09441401597583589, "253": 0.03701603568083916, "254": -0.07579538127316682, "255": 0.027850575644949107, "256": -0.04091900041464439, "257": -0.027301618756222713, "258": -0.012829579544329256, "259": -0.08948731518198447, "26": -0.0019110290630465578, "260": -0.051829767922957966, "261": -0.024573234641732312, "262": -0.021947411396839044, "263": -0.022573469593133787, "264": 0.057099586368040314, "265": -0.07309397808441238, "266": 0.02239486550123501, "267": 0.0012745742620358272, "268": -0.06189172299683463, "269": -0.04047103213489562, "27": -0.019055047376476616, "270": -0.0655846492934311, "271": -0.048804331590041224, "272": -0.1051055939448209, "273": -0.08825574291429077, "274": 0.03893497676961852, "275": -0.00177966736390735, "276": -0.01806573883652349, "277": -0.06834519043711522, "278": -0.04653128985154637, "279": -0.10860823720653777, "28": -0.12548373389108028, "280": -0.0386051817750913, "281": -0.05311500489879089, "282": -0.05966204899392555, "283": -0.009117036408127943, "284": -0.02835208473961297, "285": -0.14160137249961216, "286": 0.060120704101369916, "287": -0.008617551324201616, "288": -0.06345540149918281, "289": -0.105416771914519, "29": -0.035468374516244974, "290": 0.017806139460575746, "291": -0.01171023107253844, "292": 0.03904399148186859, "293": 0.016045808238102657, "294": -0.09563888758551058, "295": -0.02018789843704805, "296": -0.168629952568214, "297": 0.03134819364345908, "298": -0.02426717676359178, "299": -0.05961591211218411, "3": -0.04081406960133553, "30": -0.03316954525502729, "300": -0.015393130632486419, "301": -0.02210155709199735, "302": -0.013205689861243305, "303": -0.06282728926352356, "304": -0.0651852374528349, "305": -0.0461852357552082, "306": -0.061518676037237104, "307": 0.04383143981183784, "308": 0.008103673904579247, "309": 0.02503197695504193, "31": -0.022680611783001924, "310": -0.04332234050532756, "311": -0.07101236877443513, "312": -0.11419148960980587, "313": -0.0876708680420787, "314": -0.04679638453009902, "315": -0.04824844767510393, "316": -0.04119523374386677, "317": 0.01592601137651093, "318": -0.09146810120012493, "319": -0.06881500737306652, "32": -0.1078806554639288, "320": -0.05066892560884693, "321": 0.0035172453702019438, "322": -0.09834295504259714, "323": -0.0541411107841421, "324": 0.02386521429383103, "325": -0.07346495310322013, "326": 0.009879569260396542, "327": 0.0013654115385023867, "328": -0.01989202705353125, "329": -0.0039309551897878, "33": -0.04613901782190093, "330": 0.0047079511921363625, "331": -0.06894357383077752, "332": -0.07413620508089978, "333": -0.06514187262431441, "334": -0.02393774565299354, "335": -0.06769670733531682, "336": -0.029979464907645168, "337": 0.07170844958473409, "338": -0.04716677484058597, "339": -0.019040620139831863, "34": -0.012490603258883147, "340": 0.05760289466845741, "341": 0.003607259722854563, "342": -0.09104265117758258, "343": -0.09496994885665697, "344": -0.04165920617800488, "345": -0.008109438171071992, "346": -0.13500753710331687, "347": 0.01232886863434013, "348": -0.18533594789685817, "349": -0.030989919620221785, "35": 0.06537694321808728, "350": -0.09781549716415179, "351": -0.02411579770416636, "352": -0.029436750747134192, "353": -0.07050717087684268, "354": -0.017195437175142676, "355": 0.05917070851082239, "356": -0.12991409942483625, "357": 0.028655866068356215, "358": -0.07184750655340504, "359": -0.037044350248295804, "36": -0.08203253533623957, "360": 0.00733870308216051, "361": 0.02567261560742534, "362": -0.007820920658181976, "363": -0.048631034898204605, "364": -0.04438122705852734, "365": 0.00015216067803421423, "366": -0.04013844793274535, "367": -0.0877338548691859, "368": 0.009734216876833082, "369": -0.08133681709613712, "37": -0.06289227023511691, "370": -0.03983157307241386, "371": -0.026921461788326728, "372": -0.05497053103058672, "373": -0.04456437566548135, "374": -0.08125003599142709, "375": -0.039587229103729055, "376": 0.01871242318082279, "377": -0.0012136601520777708, "378": -0.0011167794527103007, "379": -0.0038759155988214197, "38": -0.07764983490453659, "380": -0.04558852284404662, "381": -0.03201670512534608, "382": 0.008013512214131872, "383": -0.009984478602243057, "384": 0.062459704306012366, "385": -0.10498523608818734, "386": -0.0883639457830903, "387": -0.0831778462741876, "388": 0.033896745075431084, "389": 0.03798390505790922, "39": -0.10054899596514563, "390": -0.02730150723952587, "391": -0.05225043122458164, "392": -0.02231508071401244, "393": 0.023197557401398006, "394": -0.06711521838469295, "395": 0.03742576649980532, "396": -0.056967396572667424, "397": 0.014251241600984158, "398": 0.034387978632684564, "399": 0.022397981488225253, "4": -0.053179216289748615, "40": -0.03960780332942653, "41": -0.08663189965193409, "42": -0.05512813726292386, "43": 0.05727869075814795, "44": -0.004780789617317095, "45": -0.020301437116066436, "46": 0.07232549777026015, "47": 0.010508479160215366, "48": -0.02294832069817372, "49": -0.06726997694465471, "5": -0.029561428190035544, "50": -0.08570914643664493, "51": -0.02749884862555438, "52": 0.0022727060271934938, "53": -0.15174912840444638, "54": -0.0885102527427657, "55": 0.007362288211532192, "56": -0.035294607562529126, "57": -0.022931466429291034, "58": -0.045317734689954474, "59": -0.04040740138082718, "6": -0.09997274975762815, "60": -0.04548492112602359, "61": 0.015091205394014075, "62": -0.05965604653825237, "63": -0.06254559120851055, "64": -0.05725699406500681, "65": -0.05535316597357183, "66": -0.013465696839380929, "67": -0.05643168854184481, "68": -0.03778941585213826, "69": 0.006196748886875548, "7": 0.04122696278638993, "70": -0.058059463770324976, "71": -0.05148371136072306, "72": -0.08638513601186706, "73": -0.04560684516089807, "74": -0.05122057774710822, "75": -0.0021963166043356013, "76": -0.1568184600434865, "77": -0.05409102969482064, "78": -0.012145147605104335, "79": -0.001515783873951429, "8": -0.09472067069851137, "80": 0.02104437132537322, "81": -0.04156821115492451, "82": -0.07688719885936798, "83": 0.005334498604626921, "84": -0.023240630511665906, "85": -0.037219669902644144, "86": -0.10281189417541062, "87": -0.06546855681683282, "88": -0.010207936244795934, "89": -0.006641084506515976, "9": -0.02591765812422811, "90": -0.06194400972147963, "91": -0.06876720676413146, "92": -0.05249869313583351, "93": -0.024109839519840442, "94": -0.0010277920129695395, "95": -0.04954980273549743, "96": 0.050678734755934894, "97": 0.06008437439999394, "98": 0.05205038174839765, "99": 0.025553803390861118}}, {"depth": 16, "sx": 5, "sy": 5, "w": {"0": 0.09537318301837874, "1": 0.09988670986649328, "10": 0.03236799066616115, "100": 0.20628137222733234, "101": 0.018841415484731817, "102": 0.022095157034097982, "103": 0.03449951384397964, "104": 0.06803563224716139, "105": 0.2737059777930343, "106": -0.19115492385375996, "107": 0.04641364827108848, "108": 0.026757737912270235, "109": 0.14179142818661591, "11": 0.11187360723988755, "110": -0.09137980232254614, "111": 0.20473529165180773, "112": -0.12147085088689984, "113": -0.2730783350239492, "114": -0.028846750991886154, "115": -0.12691646083295752, "116": 0.20554724712134, "117": -0.10590339834571581, "118": -0.15673642401369947, "119": 0.2211155251567163, "12": -0.04430921005192709, "120": 0.09513961834497947, "121": 0.28773620453231163, "122": -0.36189713347144986, "123": 0.014544288071764446, "124": -0.05902867058428308, "125": 0.06960354514281387, "126": -0.033243877823653976, "127": -0.010021547966298595, "128": 0.08580508831033609, "129": -0.05187909483560671, "13": 0.011198156603550152, "130": -0.1828000528127797, "131": -0.05891024780397431, "132": 0.03206350861094315, "133": -0.14152636731356785, "134": -0.12524856601317558, "135": 0.19118795217500298, "136": 0.03622354269778505, "137": 0.1273726875127231, "138": -0.21591651942756274, "139": -0.04648520444509836, "14": 0.011252152856121089, "140": 0.2578561876962709, "141": 0.015566315214213386, "142": -0.12412817674447083, "143": -0.1409073227000673, "144": -0.047020908396177646, "145": -0.1234802685906651, "146": -0.028121731043704495, "147": -0.0912769428610648, "148": -0.038437917939848375, "149": 0.14248155837461896, "15": 0.02270149700124749, "150": 0.00915321017454395, "151": 0.18380095573498625, "152": 0.008095327358272966, "153": -0.08890060174577352, "154": -0.42209964672833333, "155": -0.21877193294905864, "156": 0.0315327170175071, "157": -0.1868213713795953, "158": -0.13247908978008074, "159": -0.05485218047236646, "16": -0.04126061098106926, "160": -0.1308099493829344, "161": 0.025456848657825645, "162": 0.06938259260829036, "163": 0.009031747098788394, "164": 0.05813299602601136, "165": -0.031208791244248312, "166": 0.08389021895472767, "167": -0.068491199959735, "168": 0.20906163563129312, "169": 0.14891551278834678, "17": -0.07953682923312119, "170": 0.19249123117390976, "171": 0.09725305038401888, "172": -0.04374481861351749, "173": 0.08459137312506695, "174": 0.1391709968290517, "175": 0.19571304723241686, "176": -0.24173127830498572, "177": -0.017443041356277604, "178": 0.1387173566159849, "179": -0.04546786901967891, "18": 0.008243155454533985, "180": 0.14488739685639757, "181": -0.15953823612803142, "182": 0.058853593140832765, "183": -0.0995350058216634, "184": 0.16740603097405826, "185": 0.21175396190878387, "186": 0.008243838097037078, "187": 0.025839017144584905, "188": 0.06432524960697109, "189": -0.01087855579672043, "19": -0.13554388978290186, "190": 0.03733640207227811, "191": 0.05733069395626615, "192": -0.17687449142468645, "193": -0.19555373348493219, "194": 0.059287082031246684, "195": -0.10099553825060893, "196": 0.05982558594612243, "197": -0.12021588764541623, "198": -0.0592635913213362, "199": 0.07354902807456042, "2": 0.05559583808011189, "20": 0.10185763758508057, "200": -0.04411311620841146, "201": -0.027279817264730166, "202": -0.06388187062175418, "203": -0.09559032030058319, "204": -0.14274536847265873, "205": -0.10507629804055964, "206": 0.048023740830828845, "207": 0.04190610434690249, "208": -0.07670424437665535, "209": -0.1346816632517058, "21": 0.03149027554927557, "210": 0.001018109880889221, "211": -0.053973984664390004, "212": 0.04834165634766411, "213": -0.13760233680137363, "214": -0.01775966842523755, "215": -0.10101689347832565, "216": -0.13403042102842402, "217": -0.05159898170047334, "218": -0.10821762367188996, "219": -0.17962959928372507, "22": 0.06134012798925873, "220": -0.0061880626932252205, "221": -0.02422654204708611, "222": 0.09354680659058075, "223": 0.013622089282310018, "224": -0.046581652816664064, "225": -0.11576508082450039, "226": -0.004033056940647872, "227": -0.16721249225008208, "228": 0.1015008871755318, "229": -0.03228185677670893, "23": 0.08338187763808413, "230": 0.045069876330493155, "231": -0.029536199259127337, "232": -0.20901698393562196, "233": -0.09361849507793334, "234": -0.13293930945682417, "235": -0.2396877475891508, "236": 0.018953956970227594, "237": -0.11483257504037836, "238": 0.06633144077726978, "239": 0.17795025008777204, "24": 0.07576300024956557, "240": -0.25038104770198405, "241": 0.0886610100008629, "242": -0.008119790281164002, "243": 0.05159659977058701, "244": 0.023385954037972875, "245": -0.06614149824800256, "246": -0.16205584740261267, "247": -0.08084342247760039, "248": 0.11083730415960052, "249": 0.15056557452824734, "25": 0.18686517372296466, "250": 0.04212560819919823, "251": 0.14597262558909996, "252": -0.1779741707314985, "253": 0.21754191281893892, "254": -0.0846373561463875, "255": -0.06706303884588806, "256": -0.28446684235084513, "257": 0.043923925013038025, "258": 0.10087662321109653, "259": -0.15090125704465085, "26": -0.07742870484982622, "260": 0.013007144070314015, "261": -0.14137890932530367, "262": -0.1979733510761623, "263": 0.1447663457166265, "264": 0.15006061919496766, "265": -0.01058041119446928, "266": -0.06361252253131876, "267": -0.05968515107323581, "268": -0.19111187075149055, "269": 0.1644114981832187, "27": 0.0715634648632767, "270": -0.0169543511227349, "271": -0.13922974549752556, "272": -0.3188858685470695, "273": -0.10603549031453065, "274": 0.014453587928025544, "275": -0.19698071598319883, "276": 0.022780018927413426, "277": -0.10057278656695141, "278": -0.36795434649529574, "279": 0.03454618243518158, "28": 0.08980136250603807, "280": 0.06447744772942089, "281": -0.053733515196838715, "282": -0.12731141820366404, "283": -0.1251122199011441, "284": -0.2741223213885674, "285": -0.08922043856275538, "286": -0.07521405494520882, "287": -0.2183195467795254, "288": -0.13007204803052622, "289": -0.0853450347049815, "29": 0.0033151955364523968, "290": 0.06315568068212674, "291": -0.0840634819884686, "292": -0.09234212278950275, "293": -0.05394983048719396, "294": -0.17727153692563075, "295": 0.10590500865909568, "296": -0.0910912718026554, "297": -0.27351371908501515, "298": 0.0026009536296085142, "299": -0.27465259590942137, "3": -0.05065419841511181, "30": -0.06406439173898752, "300": -0.27922599281503063, "301": -0.062404684768452956, "302": -0.053466299987719575, "303": -0.15380930091773568, "304": -0.15702891416051265, "305": -0.07815241775897662, "306": -0.05199570456250991, "307": -0.19532911615919474, "308": -0.09779425497039815, "309": -0.09284406420153608, "31": 0.03095843956705951, "310": -0.0992691942966463, "311": -0.02067846744310927, "312": -0.15209210356097488, "313": -0.3149529414266173, "314": -0.08258067456754559, "315": -0.2842721993930799, "316": -0.15999702651466363, "317": 0.005867738028810261, "318": -0.055195169196812076, "319": -0.2181085141697005, "32": 0.0359263566635192, "320": -0.193763876830805, "321": 0.17168426644134788, "322": 0.014228926929398625, "323": -0.0313356773461988, "324": -0.04726840522354866, "325": -0.027177757347241854, "326": -0.26776516172511244, "327": 0.1495225383169472, "328": 0.1471128360684859, "329": 0.1559491536744243, "33": -0.2482589316282411, "330": 0.12029310143183704, "331": 0.09188284750026508, "332": -0.15527342749478582, "333": 0.13554506911880537, "334": -0.1219630544476328, "335": -0.14098525541209217, "336": -0.18364136748327273, "337": 0.05591161449300906, "338": 0.08892582110298296, "339": 0.0003091142635920832, "34": 0.017852709947340777, "340": 