{"data": {"layers": [{"layer_type": "input", "out_depth": 3, "out_sx": 32, "out_sy": 32}, {"biases": {"depth": 16, "sx": 1, "sy": 1, "w": {"0": -0.23751385509153725, "1": -0.1464377501750676, "10": -0.010127734839437425, "11": -0.2329496888524556, "12": -0.14512447518857627, "13": -0.03369739040608301, "14": -0.2024491100914051, "15": -0.28314472713716954, "2": -0.2074696434404994, "3": -0.21840832153555975, "4": -0.19118055465354444, "5": 0.036591130310466624, "6": -0.12362109850409601, "7": -0.24495654267864478, "8": -0.03067669672447268, "9": -0.26069681010938933}}, "filters": [{"depth": 3, "sx": 5, "sy": 5, "w": {"0": -0.12816717657847146, "1": -0.15844376002799074, "10": -0.29055434717602696, "11": 0.15045470221754026, "12": -0.21875375497160043, "13": -0.16036127582930085, "14": -0.1664561884772202, "15": -0.026104888144694534, "16": -0.058702494892404616, "17": 0.36160596680908613, "18": -0.037499427133164585, "19": -0.10499330627267824, "2": 0.0946563894891554, "20": 0.10888090033634386, "21": -0.09052091182803851, "22": -0.17233470745746485, "23": 0.030749734799267556, "24": -0.23583912983077787, "25": -0.12135031865984096, "26": 0.05654345683355663, "27": 0.04480592012659225, "28": -0.07779817282624205, "29": 0.07632478404559905, "3": -0.3312930191270152, "30": 0.04798236682678358, "31": -0.056448995256791167, "32": 0.13247108771724284, "33": 0.06278353768710479, "34": -0.12540666214799331, "35": -0.00032099017070098, "36": 0.13575168712422933, "37": 0.15552773448713433, "38": 0.11563526928125138, "39": 0.15480234537969886, "4": -0.1772628233505341, "40": 0.04749481913696274, "41": 0.16664938721301242, "42": 0.49727556774949766, "43": 0.19874868461603376, "44": 0.08670608389022454, "45": 0.03488152013960024, "46": 0.1720485398993766, "47": -0.023768036202573745, "48": 0.13545182880484727, "49": 0.05073880648426873, "5": -0.07467285490069805, "50": 0.09870555876669403, "51": 0.4494671986855897, "52": 0.05688983089298383, "53": 0.22683295361271252, "54": 0.20614901827258245, "55": 0.23794658508222252, "56": 0.17751588188941617, "57": 0.1452924329846062, "58": 0.13432486877934507, "59": -0.0665972797812426, "6": -0.1421138686744076, "60": -0.06058435540908665, "61": -0.04017157290244371, "62": -0.1873788583193636, "63": -0.08024202754245358, "64": -0.053965450380688215, "65": -0.07322459033362, "66": -0.08074681669880833, "67": -0.17605932222272047, "68": -0.19119657879201948, "69": 0.010254392615889719, "7": -0.199550408664867, "70": -0.10404024805925405, "71": -0.11266658714747868, "72": 0.1423727752877564, "73": -0.0030662065087277233, "74": -0.008095084169861828, "8": -0.0838878480941676, "9": -0.33379985781936933}}, {"depth": 3, "sx": 5, "sy": 5, "w": {"0": -0.002651916108672843, "1": -0.316444128134649, "10": -0.013106938442923977, "11": -0.12504710055183654, "12": 0.08738731078276044, "13": 0.1561250440462321, "14": 0.1809963889309415, "15": 0.03778040399433785, "16": -0.20519289460705864, "17": -0.2128828540941469, "18": 0.19882780485382287, "19": -0.07482633499414024, "2": -0.1667095954006448, "20": -0.1668559945431603, "21": 0.08836145459248615, "22": -0.26443713009903325, "23": 0.03779028686661072, "24": 0.41731528787395666, "25": -0.04775365026016506, "26": 0.03154343186024316, "27": 0.29179393285461563, "28": 0.06409865421215155, "29": -0.09154995180281518, "3": 0.13561816834900073, "30": 0.12946637165705127, "31": 0.03970527771965026, "32": -0.1270659631440442, "33": 0.12523953744409064, "34": -0.24338472036127143, "35": 0.04455805242945828, "36": -0.005098964618483319, "37": -0.2593211528394215, "38": -0.4103979532315415, "39": 0.11252639250485387, "4": -0.16549671795957935, "40": -0.2747651393058182, "41": 0.053000073967127206, "42": 0.1995775808528619, "43": -0.23689664455571177, "44": -0.11926709889483186, "45": 0.38745617403581994, "46": 0.0738679783661841, "47": 0.11207228887171665, "48": 0.15205530515154458, "49": -0.07385423577851168, "5": -0.15391158452226325, "50": 0.0797088897783359, "51": -0.11442145469131904, "52": 0.02178397594202031, "53": 0.013495400057929463, "54": -0.026142954254392742, "55": -0.12540957313446818, "56": -0.23187906516976797, "57": -0.0686491519286136, "58": -0.15836378300095438, "59": -0.06098646316726977, "6": -0.06739057166712699, "60": -0.09790906490240125, "61": 0.09122165549874686, "62": 0.16868732655949267, "63": 0.025699169645170546, "64": 0.094811713872842, "65": 0.07906104720289472, "66": 0.06547249305429274, "67": -0.08092015555115863, "68": 0.21983426631599334, "69": 0.10617749181078641, "7": -0.18235143446221766, "70": -0.1752236636535684, "71": 0.0034365745832573144, "72": -0.27495811238418677, "73": -0.060001773048610464, "74": -0.13794066736826782, "8": -0.04429739550321548, "9": 0.16206967788596685}}, {"depth": 3, "sx": 5, "sy": 5, "w": {"0": -0.18801415610370648, "1": 0.12825545493998908, "10": 0.04460347163020768, "11": 0.055256555662954024, "12": 0.007899841998772734, "13": -0.0723671848183297, "14": 0.05890580869527342, "15": -0.27261742825094254, "16": -0.004699227551047472, "17": -0.18623941655271126, "18": -0.06859379328746187, "19": -0.1843627014503517, "2": 0.08559447563326833, "20": 0.016686177067698926, "21": -0.04099050832864544, "22": -0.1502349229353465, "23": -0.08540094351560683, "24": -0.17284177337122228, "25": -0.021936504068097818, "26": -0.14664111772472715, "27": 0.007539741355006724, "28": -0.2830701705704285, "29": -0.09408085779499523, "3": -0.08673386728156725, "30": -0.17646849519406396, "31": -0.20156047956144355, "32": 0.25122069852559703, "33": -0.13593511694480861, "34": -0.08902864011029732, "35": -0.04244466906462531, "36": -0.04317409732914978, "37": 0.06351103918955159, "38": -0.05650784826006127, "39": -0.056143901994690375, "4": -0.15682827617579276, "40": 0.019567542604931844, "41": 0.0782635760158983, "42": -0.20400943499282562, "43": -0.10879129854982275, "44": 0.017803334138866523, "45": 0.05412306297259244, "46": 0.11907397463336607, "47": 0.18094067098208969, "48": 0.0621524688235326, "49": 0.14629403509145275, "5": 0.14509165665785165, "50": 0.34801274757118517, "51": 0.15729524708796724, "52": 0.12538393461483685, "53": 0.059868013241890124, "54": 0.09800595729161399, "55": -0.10357825506008005, "56": -0.08432762067704964, "57": 0.14897281316201436, "58": -0.19627324151180386, "59": -0.27132770332749634, "6": -0.07035265308274799, "60": 0.34254969251681183, "61": 0.22868112028259954, "62": 0.21544805595560093, "63": 0.21289782643439226, "64": 0.09546075691564153, "65": 0.04227310148725389, "66": 0.38256856070692186, "67": 0.147850977348128, "68": 0.11247121878394482, "69": 0.07534090221060648, "7": 0.15059399777999208, "70": -0.2161602563244535, "71": -0.23573285718086526, "72": -0.19618283054995697, "73": -0.2510450320768495, "74": -0.22004045606082256, "8": 0.07769190930018934, "9": 0.006308624504825969}}, {"depth": 3, "sx": 5, "sy": 5, "w": {"0": 0.28445828083929464, "1": -0.02404060022429021, "10": -0.08594752573648766, "11": 0.09099510766178559, "12": 0.21174879180748898, "13": 0.08611622409677361, "14": -0.03295335222113549, "15": -0.04585387372565237, "16": -0.05782768987040517, "17": 0.13912280314112854, "18": 0.0028331133121541245, "19": 0.273701175606439, "2": 0.034557908734830674, "20": 0.21792832402757104, "21": 0.1210250016274129, "22": 0.001523278685515249, "23": 0.17400278229937838, "24": 0.1966755296702284, "25": -0.12043163953669453, "26": -0.08851250085476553, "27": 0.23917564634663974, "28": -0.10917685224161777, "29": -0.3637784152582003, "3": 0.15280128854089786, "30": 0.1555160700467914, "31": 0.01611915297665295, "32": -0.08951905022366598, "33": -0.16525013888700305, "34": -0.07953673066777256, "35": 0.16835224541014285, "36": 0.09325166955846424, "37": -0.017840018566012136, "38": 0.14553452350089338, "39": 0.02953409751493758, "4": 0.10354790234955195, "40": -0.3070065722156289, "41": 0.08470793837125165, "42": 0.012911720299977196, "43": -0.17423467272928836, "44": 0.0012098863506282038, "45": -0.15941570696487872, "46": -0.137286326937587, "47": -0.11864082380091809, "48": -0.10388284815448168, "49": 0.0505316848065668, "5": 0.0058744581418770404, "50": -0.009114631049499963, "51": -0.1916243213860147, "52": -0.28679809041087234, "53": -0.20669449236942974, "54": -0.15463202063273188, "55": -0.2990078823923282, "56": -0.2552461187128144, "57": 0.021816535148021263, "58": -0.3423225413537366, "59": -0.12193272733613192, "6": 0.14399008349040396, "60": 0.14307254149239484, "61": -0.14543286636132993, "62": -0.02081799838864034, "63": -0.2496464955684747, "64": 0.008290599920920886, "65": -0.11095919407174411, "66": -0.19481311099294252, "67": 0.13556946645925533, "68": 0.21494608353063224, "69": -0.22022305444364892, "7": 0.07837750365428528, "70": 0.05971220027222599, "71": 0.17248548894206192, "72": -0.09982598221056783, "73": 0.0459970830338259, "74": -0.21093432057807537, "8": 0.08909415578022027, "9": 0.1533005362793829}}, {"depth": 3, "sx": 5, "sy": 5, "w": {"0": -0.021160653302071328, "1": -0.1894875752296316, "10": -0.14952277524281365, "11": 0.10176128062672836, "12": 0.15264923425122423, "13": -0.1828870864197306, "14": -0.19391922222636784, "15": -0.012813914304673234, "16": -0.12043472365600534, "17": 0.008812360764378939, "18": 0.13132821457614374, "19": -0.2878872879380129, "2": -0.10215244024882356, "20": -0.25701488693201185, "21": 0.4358638213359003, "22": -0.23343344802913832, "23": -0.14059342544465778, "24": 0.27871212906484844, "25": -0.11447202140270223, "26": -0.019105748530861312, "27": 0.2634933324402489, "28": 0.053609377156529185, "29": -0.07472243863611423, "3": 0.08708042295175877, "30": -0.009406429912442274, "31": -0.12677917537451464, "32": 0.13300337711803015, "33": -0.23200171677093617, "34": -0.08966583437402913, "35": -0.10739836184436866, "36": 0.15089479039948375, "37": -0.009991753099773437, "38": -0.15804061457039068, "39": 0.26583531773055624, "4": -0.22780277715994232, "40": -0.08371968096754077, "41": 0.1288517870346721, "42": 0.44662800394972785, "43": -0.014166172534856554, "44": 0.03374961966434971, "45": -0.10964614478792098, "46": -0.07191788368718727, "47": 0.03554159349760552, "48": -0.05471845046712836, "49": -0.29173906086797613, "5": -0.11996332554707585, "50": 0.12225099435465385, "51": 0.05585828669916116, "52": -0.24484386418737694, "53": -0.25675082371653785, "54": 0.20179314423120778, "55": -0.020862272529917448, "56": 0.01297450529857087, "57": 0.08815845604378912, "58": -0.07880646710701668, "59": 0.16230594456955066, "6": -0.04011191533866667, "60": 0.05088694521855405, "61": -0.12008599987667423, "62": 0.004169887145585408, "63": -0.2373097666368664, "64": -0.09176793032276839, "65": 0.11014330227068275, "66": 0.0832215503239898, "67": -0.23118660424920168, "68": -0.05484387236794037, "69": -0.2613635222529466, "7": -0.0836286998176222, "70": -0.06671461944042487, "71": 0.04233094894203561, "72": 0.1926402315840788, "73": -0.16078036872446236, "74": -0.035785158902128494, "8": -0.0351789261074641, "9": 0.23228610985334466}}, {"depth": 3, "sx": 5, "sy": 5, "w": {"0": 0.02284745065571714, "1": 0.2643284909337259, "10": -0.04635512816484262, "11": -0.004113727106702538, "12": 0.10816326282975648, "13": -0.02010513544702221, "14": -0.05670438043197275, "15": 0.1467405965935546, "16": 0.008612559767414405, "17": 0.0015619881978284683, "18": -0.24548725033049434, "19": 0.08405888791888803, "2": 0.13862805490709146, "20": -0.037300344276277056, "21": -0.12061673394328289, "22": -0.24242531833299197, "23": -0.20455033871289466, "24": -0.08976517139809304, "25": 0.012435659909713796, "26": -0.1996430422654365, "27": 0.27820025247166663, "28": 0.039079767878193894, "29": -0.09734959493833666, "3": 0.10654220338378137, "30": 0.09569871195967096, "31": 0.13396999602573123, "32": -0.0603531344255935, "33": 0.2782400519948359, "34": 0.15670033179047613, "35": -0.31259125098183305, "36": 0.1270540010696946, "37": -0.13375559321075334, "38": -0.07764111177476582, "39": -0.07309822103412031, "4": 0.024096626169114725, "40": -0.07505957652822973, "41": -0.2662341424952019, "42": -0.01113103051793194, "43": 0.03980679121084577, "44": 0.016929394555874912, "45": 0.3450996751084872, "46": 0.021060978574653798, "47": 0.005827989227397397, "48": 0.10495137803975318, "49": -0.10720099770169132, "5": -0.12855668727361033, "50": 0.008502116548125351, "51": 0.10030403425206928, "52": 0.02898590312460382, "53": -0.16652329310443037, "54": 0.17757480601708706, "55": -0.12739771972790398, "56": -0.32599170153409035, "57": 0.2632121162949817, "58": 0.10718834906767302, "59": -0.18892021935809483, "6": -0.08058036582165815, "60": 0.21498716106432136, "61": 0.05297982941600013, "62": 0.003503980224658902, "63": 0.00834542262149278, "64": -0.011483945788993625, "65": -0.11202505440245915, "66": 0.06595674009931682, "67": -0.04084258292194871, "68": -0.35222010748000754, "69": 0.1395240615846859, "7": -0.26933066422818597, "70": 0.030809892926390935, "71": -0.1421887839199599, "72": 0.2818737207574805, "73": 0.25493401507816, "74": -0.11590945312107802, "8": -0.26567369687650333, "9": -0.11487581034849637}}, {"depth": 3, "sx": 5, "sy": 5, "w": {"0": 0.01812525867120416, "1": 0.0906484122840099, "10": 0.13454375322803483, "11": -0.17344568605842078, "12": -0.04995625757884147, "13": 0.012361232439281208, "14": -0.03093835542918131, "15": -0.12305652782240448, "16": 0.047737507935146514, "17": 0.14662862392658416, "18": -0.11740928212933349, "19": 0.04444054679128729, "2": -0.19883337239578597, "20": -0.007542569156662314, "21": 0.11785072175683745, "22": 0.1833265454621644, "23": -0.25895564941943044, "24": -0.018816666192235394, "25": -0.37306745724047213, "26": -0.06800972716370285, "27": -0.1655038293502761, "28": 0.2177165598232851, "29": 0.004319298122232769, "3": -0.1429039677472583, "30": -0.06533332195750102, "31": 0.011662881661389438, "32": -0.18476192776980568, "33": -0.0042037365007102645, "34": 0.03898754459787464, "35": 0.04929785776940371, "36": 0.2593547588179026, "37": 0.11313104643756607, "38": 0.04250002281333526, "39": -0.029998182904217775, "4": 0.017721734252662547, "40": -0.014508373884713472, "41": -0.20740407988211082, "42": -0.059524749210502, "43": -0.07048323590650281, "44": -0.15570597410890089, "45": -0.0814582483429988, "46": -0.030579652759633442, "47": -0.3324656022945185, "48": 0.05874874478442389, "49": 0.05422316527553, "5": 0.07062567293294426, "50": 0.14171827137682383, "51": 0.1693508141282039, "52": 0.12523544754115162, "53": 0.10550145852397708, "54": -0.11863524156970479, "55": 0.20894390771905363, "56": 0.11955002542704951, "57": -0.2536996932869615, "58": -0.23600669266229218, "59": -0.2451253506851455, "6": -0.11323017475920322, "60": -0.1719514091943705, "61": 0.008029041143095078, "62": -0.15956458141480356, "63": 0.08736025327504217, "64": -0.11179793755924065, "65": -0.04627624156552836, "66": 0.19277471400266116, "67": 0.10810033632054492, "68": -0.19323602462702488, "69": 0.3078865797160126, "7": 0.16743240405305845, "70": 0.11363429721205381, "71": -0.05706098893568879, "72": 0.24445525347293154, "73": 0.14323109429177727, "74": -0.297206399040833, "8": -0.07069526993894655, "9": 0.027654278898229148}}, {"depth": 3, "sx": 5, "sy": 5, "w": {"0": -0.08996444240207603, "1": 0.18778393251806583, "10": -0.12021690613148897, "11": -0.10612219601824094, "12": -0.1474110728641638, "13": -0.040751161276437686, "14": -0.0031888327766111486, "15": 0.025111949989002305, "16": -0.0555854183275499, "17": -0.15948352748655395, "18": -0.019469578646848795, "19": -0.09830615009446289, "2": -0.006619761113916473, "20": 0.0029336143337144677, "21": 0.007623658108852391, "22": 0.141585787357084, "23": 0.07683992315462962, "24": -0.04077155540519186, "25": -0.04627461706031241, "26": 0.058719924197469985, "27": -0.16737624987801028, "28": 0.11873748753592803, "29": -0.057002601871308074, "3": 0.02466335057292424, "30": -0.21776622861284678, "31": 0.015335666778255739, "32": 0.01830701130811188, "33": -0.06341985363858464, "34": 0.12129869294126368, "35": 0.10865342251176073, "36": -0.24056801225824578, "37": -0.06908772154811221, "38": 0.12396598415953741, "39": -0.07190681097598499, "4": 0.12961242873686074, "40": 0.02279670610424796, "41": 0.18036249424797235, "42": 0.010306824275210482, "43": 0.16395957922382798, "44": 0.26835992442103035, "45": 0.04707292552678187, "46": -0.034873369938272676, "47": 0.10682277820699283, "48": -0.04711382980068826, "49": -0.08430838923107048, "5": -0.2801915525335048, "50": 0.006625395726970238, "51": 0.056425433675492256, "52": 0.08223810154431979, "53": 0.03737260620404042, "54": -0.05715818919442461, "55": 0.11442249749301822, "56": 0.015699059872777123, "57": 0.014953929601582807, "58": 0.2711186047414784, "59": 0.059468335698370706, "6": -0.08774347983547348, "60": 0.007861030296386132, "61": 0.1300566982054337, "62": -0.0032310040658918666, "63": 0.10990472260373706, "64": -0.10800258880589209, "65": -0.13232100843233008, "66": -0.158680494092592, "67": 0.21179303216591094, "68": 0.10518593133543298, "69": -0.10172247693083529, "7": -0.010718629945875623, "70": -0.12834533114890498, "71": 0.024071239534657958, "72": -0.03996315179111417, "73": -0.14784729227383234, "74": 0.04785788110618905, "8": -0.0810477748741524, "9": 0.022811957231787378}}, {"depth": 3, "sx": 5, "sy": 5, "w": {"0": -0.1092766170177439, "1": 0.04147988978139537, "10": 0.02382274213746298, "11": -0.25797404869546436, "12": -0.010510617988163272, "13": -0.0516807671922736, "14": -0.0018673016042456414, "15": -0.05289753876929625, "16": -0.0999558570783262, "17": 0.010351451439965291, "18": -0.041955596039400016, "19": -0.09439429274851197, "2": 0.09746275022408442, "20": 0.1654044661905585, "21": -0.029136921503080122, "22": -0.09758000476612512, "23": -0.002023198296455895, "24": -0.10835600099294444, "25": 0.1058133109913232, "26": 0.11046702046198376, "27": -0.09146112193784134, "28": -0.003042313925319666, "29": 0.2580050725052358, "3": -0.21017440228875361, "30": -0.08896442510151602, "31": 0.05329391149238165, "32": -0.06485642751327211, "33": -0.07669722072923632, "34": -0.0070424614682123715, "35": 0.295429116439705, "36": -0.26167578404333336, "37": 0.1556154594725953, "38": 0.20882743246820965, "39": 0.16696629810925226, "4": -0.054407158644133785, "40": 0.15592104256965242, "41": 0.20737151991581815, "42": -0.1667564505779982, "43": 0.06426596140803592, "44": 0.09055047984752855, "45": -0.031975603415573275, "46": 0.2620048677776172, "47": 0.16777693698330393, "48": -0.22438931669697174, "49": -0.10201399876422299, "5": 0.15354862718972614, "50": 0.03150308039170325, "51": 0.07530496009333695, "52": 0.08335627255151506, "53": 0.24698602761081306, "54": -0.17723128347511372, "55": 0.10364057621051166, "56": -0.11638780674231394, "57": -0.10470045686198172, "58": -0.04184848472904255, "59": 0.010318696399659854, "6": -0.1811770121419262, "60": -0.11846536292394304, "61": 0.03266631960576061, "62": -0.05971866043732426, "63": -0.13235753674436945, "64": -0.08943460105500164, "65": 0.1954235129997186, "66": -0.3798358175406971, "67": -0.110194217337016, "68": -0.0037455885654672965, "69": -0.10126923172542472, "7": 0.03783395494428062, "70": 0.06544944079296934, "71": -0.013423490077720316, "72": -0.3632648403431174, "73": -0.03416060803648902, "74": 0.025160898735829156, "8": 0.21249745538088974, "9": 0.2222119491376289}}, {"depth": 3, "sx": 5, "sy": 5, "w": {"0": -0.020576265824393977, "1": 0.028527138660050536, "10": -0.11942875495366234, "11": 0.049841861305734245, "12": 0.38540031865469915, "13": 0.0971940685782617, "14": -0.0869902929958532, "15": 0.15045531296614403, "16": -0.02373552321934228, "17": 0.03887348925395294, "18": 0.13270238278394406, "19": -0.008913541611989045, "2": -0.15066290901477056, "20": 0.2039826974959581, "21": 0.15226175346875925, "22": -0.006619836591254596, "23": -0.06450902438329012, "24": -0.03470316612878063, "25": 0.04448393823273633, "26": -0.05394353926266958, "27": 0.004156201496096939, "28": -0.20532510855111108, "29": -0.014710444544358782, "3": -0.032598715272344855, "30": 0.26362232609069347, "31": 0.03589126800969734, "32": 0.03966640413719771, "33": 0.31928736264900637, "34": 0.15727548882635295, "35": 0.049367762756502176, "36": 0.11736681137165417, "37": 0.07796427311636946, "38": 0.17403406426864104, "39": 0.07347139324705099, "4": 0.13142401638899787, "40": 0.043263219328024585, "41": 0.07008437465181257, "42": -0.10804064334797978, "43": 0.047456505574413305, "44": -0.09821175788945077, "45": 0.13490639069490507, "46": 0.0038614997081941075, "47": 0.1971427095221425, "48": -0.0964060242735351, "49": -0.006900821174048369, "5": 0.0059228836012106, "50": 0.1444263598779708, "51": -0.13524822596240574, "52": 0.08728601989648042, "53": 0.06753703436318059, "54": 0.06839234949766039, "55": -0.3708462545951546, "56": 0.03381372360946942, "57": -0.21903724680338668, "58": 0.06436142549584307, "59": 0.02624828024283803, "6": 0.2570478987790796, "60": -0.12784683203544162, "61": -0.061646845359450066, "62": 0.10628861138305197, "63": -0.15399776729655415, "64": -0.34261052791306945, "65": -0.1442650920748577, "66": -0.2782415957160305, "67": 0.03419837299281439, "68": -0.15446034008989953, "69": -0.3078804719121959, "7": 0.0024776581880602195, "70": -0.215527724662154, "71": -0.1259072497847937, "72": -0.38648362123476093, "73": -0.37454093045956593, "74": -0.06904184151097709, "8": -0.04977614525089301, "9": 0.014347831672917248}}, {"depth": 3, "sx": 5, "sy": 5, "w": {"0": -0.12609547852278835, "1": -0.1272435332185354, "10": 0.20091518694971114, "11": -0.004445037523322698, "12": -0.045249346215243, "13": 0.10535086643162073, "14": -0.06251800730381186, "15": -0.15919497029272367, "16": 0.09610471252839942, "17": 0.03023746279217255, "18": -0.18082962962577218, "19": 0.029550095304074243, "2": -0.022212178801144827, "20": 0.11354289650486421, "21": 0.16618942799820358, "22": 0.022177262933726617, "23": 0.021467687797783717, "24": 0.07151931160382113, "25": -0.10871010484729177, "26": -0.12417648366327008, "27": -0.008271888960848633, "28": 0.06672658262940619, "29": 0.2597581352678991, "3": -0.01735444050707771, "30": 0.12465087440274947, "31": -0.13531328214904365, "32": 0.11505374883745384, "33": 0.17187434603255483, "34": -0.2520470394489729, "35": 0.1400523790279787, "36": 0.14331477887973032, "37": -0.16781507939342521, "38": 0.051744982631202266, "39": 0.17775708906510196, "4": -0.09184206913060475, "40": 0.019823299879483815, "41": 0.019093478662228082, "42": -0.05617425316443974, "43": 0.09862956549132317, "44": 0.3327265244204221, "45": 0.1332634086497757, "46": -0.1508601612281772, "47": -0.02775184673125566, "48": 0.045838812589569275, "49": -0.11156530537394976, "5": 0.03993761132896849, "50": 0.14170440781896385, "51": -0.10109889820488636, "52": 0.36471280774025516, "53": 0.17258822478227395, "54": -0.0684232026763329, "55": -0.00633692419511582, "56": -0.03884794320314329, "57": 0.2914184849537938, "58": 0.1323528262610096, "59": -0.05526448239044465, "6": -0.05451259529004708, "60": 0.12220671142814378, "61": 0.06487929056080532, "62": -0.02147644890343449, "63": 0.0023012100299385093, "64": 0.018094833540003602, "65": -0.026162844553756504, "66": -0.11721015632519327, "67": 0.03209027897273362, "68": -0.02744935893528551, "69": 0.180640894016687, "7": 0.13056062379857955, "70": 0.08879274030369799, "71": -0.09367160298020623, "72": 0.13283792035892805, "73": 0.04124416592875601, "74": -0.12020303575334082, "8": 0.052736948314814104, "9": 0.07821465190020163}}, {"depth": 3, "sx": 5, "sy": 5, "w": {"0": -0.0850408813155909, "1": -0.10460335902466907, "10": -0.32627205108719126, "11": -0.2094944965024885, "12": -0.19157261378999796, "13": 0.12600682129331386, "14": 0.12539125572502197, "15": -0.04617272765923457, "16": 0.0869515865280091, "17": -0.01079396653565211, "18": -0.10797551163486044, "19": -0.13954949680131415, "2": 0.08122302658711857, "20": 0.00470963515505513, "21": -0.07149581768694899, "22": -0.20311054360523992, "23": 0.22442327873403156, "24": -0.15194486546431363, "25": 0.0480414642098499, "26": -0.03618457420450081, "27": -0.017925852198909024, "28": 0.2956198993295028, "29": -0.12339734469344725, "3": -0.33456790695823063, "30": 0.0936212355670493, "31": -0.015469830844165864, "32": -0.07929322801372703, "33": 0.05649766151666241, "34": -0.04733280404595366, "35": 0.07421207338796657, "36": 0.06781357149380635, "37": 0.07703927561087516, "38": 0.018817450883154466, "39": 0.027633877864747615, "4": 0.2795411762722698, "40": 0.20453412230289375, "41": 0.09825160688369688, "42": 0.18701204564037346, "43": 0.11995208788349707, "44": -0.10773538600736095, "45": 0.028502865319433763, "46": -0.08082532846460301, "47": -0.12131531224174888, "48": 0.024697409345193832, "49": 0.11227811597759307, "5": -0.0698742570856317, "50": 0.09746145169315482, "51": -0.005557098953679949, "52": -0.017048076026683418, "53": -0.09099334295403887, "54": 0.2925852005773218, "55": 0.02138619359497867, "56": -0.20318092208504124, "57": -0.1217551925121661, "58": 0.11716844194996127, "59": -0.3295338128988092, "6": -0.07481800805424209, "60": -0.01092952991424102, "61": 0.18016535681661416, "62": -0.2844997953510413, "63": -0.10861517668203467, "64": 0.34395160421179893, "65": -0.1104370329277971, "66": 0.13903568050573503, "67": 0.12115982215275013, "68": -0.3514333148918012, "69": 0.240610181961892, "7": -0.07432771822811673, "70": -0.1277679138602581, "71": -0.0831389062496158, "72": 0.46587819256336266, "73": 0.17145661161643336, "74": -0.21908473581119453, "8": 0.05802630796372128, "9": -0.3911650931841131}}, {"depth": 3, "sx": 5, "sy": 5, "w": {"0": -0.04576360883491988, "1": 0.13651345947849017, "10": 0.2509676395184102, "11": 0.17524810032568466, "12": 0.2705831231352404, "13": -0.053357897655961405, "14": -0.13746907454083213, "15": 0.1259754139840684, "16": -0.011535019936556618, "17": -0.18796096615822908, "18": 0.06486798851911049, "19": -0.37524887095732407, "2": -0.020964989502166204, "20": -0.2529666054813843, "21": -0.18749203931054537, "22": -0.1004799891478969, "23": -0.20544756389054458, "24": 0.08256702664085895, "25": -0.0012899899863349819, "26": 0.05816874973597401, "27": 0.2767894191889904, "28": 0.042434972166179294, "29": 0.002996031929317742, "3": -0.007285429428733895, "30": -0.1360503236373013, "31": -0.0931213603117583, "32": -0.0188793303110881, "33": 0.008991793229744851, "34": -0.056251083027839766, "35": -0.089530264434325, "36": -0.1633139963834903, "37": -0.13989596575534158, "38": -0.33172303949725757, "39": 0.025428669820401758, "4": -0.5252820883982208, "40": 0.238569306425561, "41": 0.13137797538622756, "42": 0.3391428015778248, "43": 0.06959792783391204, "44": 0.07283582578425664, "45": 0.02583686829522898, "46": -0.011111242719134117, "47": 0.22562727611463823, "48": -0.07898575993932949, "49": -0.19908697843795375, "5": -0.39597779361952534, "50": -0.06081338901329312, "51": -0.14470629037598137, "52": -0.26653717172820246, "53": -0.15230558694146062, "54": 0.270544920509014, "55": -0.22205093188149466, "56": 0.2698059311375128, "57": 0.06785973804890703, "58": 0.23093903650342534, "59": 0.20894201998839093, "6": 0.14309932534021658, "60": -0.30975070591262444, "61": -0.07529432668022824, "62": 0.011709772546719895, "63": 0.11005440940519477, "64": -0.192336700706153, "65": -0.08248253917541011, "66": -0.08300822860442036, "67": 0.015073869830421156, "68": -0.0842974041641339, "69": -0.0975615955409326, "7": 0.13884222484951506, "70": 0.08885711332184364, "71": -0.11732192826003927, "72": 0.09319801271933319, "73": 0.09706234175398584, "74": 0.20718840739449076, "8": -0.2681439032302805, "9": -0.09131552041193063}}, {"depth": 3, "sx": 5, "sy": 5, "w": {"0": -0.29972284818119604, "1": 0.14446610900131113, "10": 0.17996038046825766, "11": -0.14085873576092048, "12": -0.15692083290344944, "13": 0.163118410945464, "14": -0.06172856439861585, "15": -0.2312818431458984, "16": 0.07014812884473723, "17": -0.22027298127055647, "18": -0.003838310987625213, "19": 0.2155920369257284, "2": -0.25194601793234506, "20": -0.11187817873600628, "21": 0.06464023843854097, "22": 0.025542863082398823, "23": 0.005203715101798947, "24": 0.047972458974995934, "25": 0.004261674877056046, "26": -0.04933838372942842, "27": -0.16591661637967664, "28": 0.3140612716479753, "29": -0.07543564343986806, "3": 0.125087450798877, "30": -0.2733127984234182, "31": -0.07914622706554579, "32": -0.30434466751795586, "33": 0.1778611805696147, "34": 0.22897197932726318, "35": 0.0011141780446611083, "36": -0.13633063478732665, "37": 0.11284014703015956, "38": -0.1599758830516235, "39": -0.12718074976866595, "4": 0.04055260316561033, "40": 0.15096960956265526, "41": -0.040000224280668094, "42": 0.12183815916467376, "43": 0.3005776317471753, "44": -0.01839956347288967, "45": 0.016038345962847783, "46": -0.04679284336039852, "47": -0.12431107893371417, "48": 0.06633998387066782, "49": 0.23171121853908552, "5": -0.11045107927121256, "50": 0.17153117108020238, "51": 0.07867778615733279, "52": -0.013812344696087202, "53": -0.09136645502360316, "54": 0.19483718243199452, "55": -0.03166884420042113, "56": 0.05757017536754176, "57": 0.12319398344952626, "58": 0.1923187144027952, "59": -0.18425299488743346, "6": 0.0767576583087172, "60": -0.03795807117215484, "61": 0.21589206860611812, "62": -0.25307425551783286, "63": 0.006507135628613593, "64": 0.1987653470979437, "65": -0.38887950427636114, "66": 0.04428344806436379, "67": 0.14570003528370437, "68": -0.4183249478421986, "69": 0.16341604553547773, "7": 0.03558943093082141, "70": 0.3437668473268871, "71": -0.1397014786715629, "72": 0.03740575205478356, "73": 0.19796605460589745, "74": -0.04596169600641013, "8": 0.0013380001236155928, "9": 0.01999265310452237}}, {"depth": 3, "sx": 5, "sy": 5, "w": {"0": 0.26274550260351287, "1": 0.027162890853216836, "10": -0.1893378036026267, "11": -0.10058626295210887, "12": 0.2857039730053086, "13": -0.07973759264762911, "14": -0.08065495126112228, "15": 0.17604156951979397, "16": 0.1316236056751454, "17": 0.24804309381328432, "18": 0.07701003189247187, "19": 0.18059033389526105, "2": 0.0012716642349438225, "20": 0.1877951630783203, "21": 0.13552990817057972, "22": -0.027491441602840356, "23": -0.1540551713081031, "24": 0.27623720339459606, "25": -0.023369669810183624, "26": 0.016496512132482977, "27": 0.1629394983532277, "28": 0.10232151181654421, "29": -0.024464044121356134, "3": 0.4409231422257514, "30": -0.2721248664616258, "31": -0.2148355992454899, "32": 0.026345904151870415, "33": -0.13008279241195433, "34": -0.27185730594475577, "35": -0.0309989664298376, "36": -0.0773707216533551, "37": -0.21028686625791296, "38": -0.0931945510551713, "39": -0.051132759954170416, "4": 0.016336043459598017, "40": -0.31920482682055384, "41": -0.09069969737529118, "42": -0.030759712788334274, "43": -0.017722511827598847, "44": -0.29894642351279666, "45": 0.09018943346978033, "46": -0.25015413640462725, "47": -0.043329061865173685, "48": -0.37766108192212494, "49": -0.3741141864952471, "5": 0.14202018404798028, "50": 0.08204587768196994, "51": -0.22525652493923315, "52": -0.19666230007290453, "53": 0.12893732794699928, "54": -0.2089546999914021, "55": -0.2363200927911829, "56": -0.23873798199314875, "57": -0.12961819698959245, "58": -0.009860179902352665, "59": 0.08373620726098764, "6": 0.2835422955860015, "60": 0.23184352758670757, "61": 0.15474929777888805, "62": 0.007100659223334643, "63": -0.010814970525084486, "64": -0.09376304036038856, "65": 0.07561978078445239, "66": 0.2013759185990677, "67": 0.06923266113404392, "68": 0.3505690476476323, "69": 0.11928547927570712, "7": 0.04812928371393044, "70": -0.060370171287814696, "71": 0.3035397480019562, "72": 0.19980891606405635, "73": 0.15879345166617828, "74": 0.33882024001703903, "8": -0.10968277218708913, "9": 0.3351132188041968}}, {"depth": 3, "sx": 5, "sy": 5, "w": {"0": -0.18921864665516527, "1": -0.15369668255559332, "10": -0.2482395770291173, "11": -0.0217119779170089, "12": -0.11978960038234526, "13": 0.1661661847743362, "14": -0.03260972106844724, "15": -0.11941832260008, "16": 0.23151121328582186, "17": 0.18247218204627264, "18": -0.09575388025749128, "19": 0.010636975642135489, "2": 0.11129379164250465, "20": 0.0771272158035537, "21": -0.09338846033110314, "22": -0.2015450624448524, "23": -0.2470763915063206, "24": -0.20748726617559446, "25": -0.37112029886416104, "26": -0.09383891752422953, "27": -0.002054703811131242, "28": -0.03654975233897245, "29": 0.08307263659072153, "3": 0.0542626635730207, "30": 0.13366745709375244, "31": -0.15875521974609016, "32": -0.07577881944246512, "33": -0.1550118479266374, "34": -0.11477858099003344, "35": 0.028287202585981802, "36": -0.06868310018660964, "37": -0.011211545962659178, "38": -0.1355786020186133, "39": -0.15066271300702427, "4": -0.03775388816994148, "40": 0.02145733744996181, "41": -0.2769720974437858, "42": 0.06542681174621552, "43": -0.02356201210663978, "44": 0.13471773204846388, "45": -0.22191630734770276, "46": 0.08988827316945829, "47": 0.07111522257213304, "48": 0.00018936906692088376, "49": -0.06483666131057751, "5": 0.06408255434231516, "50": 0.087481326048942, "51": 0.011406397004219946, "52": -0.14945101619195106, "53": -0.13336084300860726, "54": 0.05675778223303692, "55": 0.04051206820266169, "56": 0.06371893949813506, "57": -0.12344499653427685, "58": -0.04312310760207853, "59": -0.10448629777252043, "6": -0.19817915551625673, "60": -0.01577622638109623, "61": 0.27299514569394134, "62": 0.12013810671043447, "63": -0.15764010513079782, "64": 0.27666187843579126, "65": 0.041448004992953806, "66": -0.1364265181474796, "67": 0.1714402847372425, "68": 0.25460959302192515, "69": 0.217516610067992, "7": -0.06675430070404334, "70": 0.20513509362523144, "71": 0.24711495360385802, "72": 0.175263082915338, "73": 0.23269166611554307, "74": 0.2034482748805218, "8": -0.11445507022427345, "9": -0.14916706946057962}}], "in_depth": 3, "l1_decay_mul": 0, "l2_decay_mul": 1, "layer_type": "conv", "out_depth": 16, "out_sx": 32, "out_sy": 32, "pad": 2, "stride": 1, "sx": 5, "sy": 5}, {"layer_type": "relu", "out_depth": 16, "out_sx": 32, "out_sy": 32}, {"in_depth": 16, "layer_type": "pool", "out_depth": 16, "out_sx": 16, "out_sy": 16, "pad": 0, "stride": 2, "sx": 2, "sy": 2}, {"biases": {"depth": 20, "sx": 1, "sy": 1, "w": {"0": 0.02747857939717347, "1": 0.03986655159116086, "10": 0.07061332571194913, "11": 0.09573301028066651, "12": 0.2422390965710506, "13": 0.2635817567382347, "14": 0.05568715995028581, "15": 0.030601896694934124, "16": 0.277632501154957, "17": 0.275293935979493, "18": 0.09509161733132579, "19": 0.2893134956433774, "2": 0.26738429049662377, "3": -0.06266770822135967, "4": 0.28435399864514155, "5": 0.2274603319485745, "6": 0.2553978868307718, "7": 0.27308723302633403, "8": 0.1892308449569297, "9": 0.04103513542194231}}, "filters": [{"depth": 16, "sx": 5, "sy": 5, "w": {"0": -0.03911474219495121, "1": -0.06181313612261647, "10": 0.013442979221391675, "100": -0.01592011939882433, "101": 0.024614683796930516, "102": 0.035320950673079596, "103": -0.01452886778513112, "104": -0.028032743295022932, "105": 0.0007245218004003646, "106": -0.05024184501918787, "107": 0.052092136476803254, "108": 0.00019555085996957063, "109": -0.0487388466117391, "11": -0.08785269089849129, "110": -0.05932277313780814, "111": 0.003419123087027973, "112": 0.09318766768588208, "113": 0.023872164849687044, "114": 0.05834948811823545, "115": 0.016709561350039676, "116": 0.0013044718682568989, "117": -0.04183066926318617, "118": -0.038775637626234476, "119": 0.009936586342676024, "12": -0.03810602866129701, "120": -0.018241810309295996, "121": 0.05745553997451055, "122": -0.04004379973082257, "123": 0.02068280109715372, "124": -0.016343039581284354, "125": -0.0075932828860958155, "126": -0.03830547167506191, "127": 0.0022307741692796277, "128": -0.04519886327839216, "129": -0.12331578480757491, "13": -0.09201710878505986, "130": 0.0877162560414221, "131": -0.07192444700595757, "132": -0.016708164068811007, "133": -0.01927110180946953, "134": -0.05772404508856212, "135": 0.0047147651643882574, "136": -0.08431179351828053, "137": -0.1041926168510098, "138": 0.028193107016421828, "139": -0.01440596886595173, "14": -0.08744307922893879, "140": 0.07414901858059227, "141": -0.010082529759060002, "142": -0.007649642997366364, "143": -0.04614169618524582, "144": -0.00923248393611362, "145": -0.04230049763895863, "146": -0.0259723253737276, "147": -0.05908324722669854, "148": -0.008613479223897344, "149": 0.0055043186357775714, "15": 0.07727830836523597, "150": 0.009285446089833121, "151": -0.10745990560050439, "152": -0.00060742753017506, "153": 0.07965029437626756, "154": 0.03288042958270294, "155": -0.07073855315280246, "156": -0.04314497681483919, "157": 0.00123422494988915, "158": -0.03909334579292492, "159": -0.002853524742339544, "16": 0.07110643739496499, "160": -0.022508507556523942, "161": 0.06162914328004592, "162": -0.03913681067792781, "163": 0.004085676404349646, "164": 0.02703802449145041, "165": -0.048915207767424626, "166": -0.059330785866184836, "167": 0.035455478255418095, "168": -0.03787834994581627, "169": -0.015544822118995294, "17": 0.03422417453310095, "170": -0.05244086622190722, "171": -0.011224932818781641, "172": -0.08425234229632539, "173": -0.060311449577568475, "174": 0.02806291105313379, "175": -0.091147705943255, "176": 0.07841044525336235, "177": 0.03990430707267364, "178": -0.04123974865048443, "179": -0.1410328433858087, "18": 0.02573806000269775, "180": -0.014351021218196385, "181": -0.03690555713154045, "182": -0.015853542319192386, "183": -0.022519826488268925, "184": -0.023727396605365752, "185": -0.009466286535125146, "186": -0.0832608039889589, "187": 0.06131689973021988, "188": -0.07125795213872821, "189": -0.09349965034045145, "19": -0.021161570854898545, "190": -0.07198501947182495, "191": 0.04089342780909169, "192": -0.05709853012845979, "193": -0.042901370093553895, "194": -0.060880318652652796, "195": -0.10419376903068833, "196": -0.010200191732900593, "197": 0.03400735220492217, "198": 0.03407930497285035, "199": -0.0522338194775169, "2": -0.013843961621221347, "20": 0.031254644484516765, "200": -0.046771910245638953, "201": -0.02049555917294335, "202": -0.11774522779688862, "203": 0.08537679695285477, "204": -0.019275472605202373, "205": 0.02091181106748228, "206": 0.011464826350947926, "207": -0.11031219732136444, "208": 0.019387426666946428, "209": -0.023355519488834672, "21": 0.018415616645407105, "210": -0.05257523334243685, "211": -0.04275845673345672, "212": 0.044800545071702606, "213": -0.12152728074515064, "214": 0.04028539350785043, "215": 0.061515987875239646, "216": -0.016617921227745407, "217": -0.030387613067506366, "218": -0.03126194361855753, "219": -0.02000470274059428, "22": -0.04434174760448754, "220": -0.028430771454101483, "221": 4.510305923081704e-05, "222": -0.019720807016067914, "223": -0.04978722406310128, "224": 0.016560596555613722, "225": -0.03215412571805918, "226": -0.052965038948742965, "227": -0.019129510932311133, "228": -0.009455449011120843, "229": -0.0469768841834075, "23": -0.005014761381180966, "230": 0.04221110660111777, "231": -0.07223888732732578, "232": -0.06421669022038838, "233": -0.016774230059217195, "234": -0.00093089812072272, "235": -0.046612567717000536, "236": -0.017627469582760864, "237": -0.0694563986524731, "238": -0.008490309995137408, "239": -0.022452472410665864, "24": -0.02783957497795686, "240": -0.0011444726634906922, "241": -0.010099021976313812, "242": 0.04597592959539477, "243": 0.026818785106534137, "244": 0.0018230407574277145, "245": 0.03188626020676037, "246": -0.024004370549379518, "247": -0.03947660878957085, "248": 0.005982984022620233, "249": 0.006263689994098635, "25": -0.08668670395583387, "250": -0.12721778848117524, "251": -0.050443795561084886, "252": 0.009223035443856968, "253": -0.0823726741735233, "254": -0.009569833009494138, "255": -0.08003574082471017, "256": -0.008099736238726594, "257": 0.005172463249881431, "258": 0.051858311698934866, "259": -0.051056723644348184, "26": -0.05770552509185864, "260": 0.07800108571584327, "261": -0.09260992851389914, "262": 0.021499553483201806, "263": -0.09555913811339176, "264": -0.07200614584189867, "265": -0.04238726465994906, "266": -0.012141007046189464, "267": -0.009396378329090394, "268": -0.00038728271408632503, "269": -0.0048134833849468065, "27": -0.1355038933286906, "270": 0.06321717451352578, "271": -0.05668445446000166, "272": -0.0803712152135983, "273": 0.030120264613001047, "274": 0.08399060898258606, "275": 0.0011216867507462178, "276": -0.08175712373592124, "277": -0.07881952186143588, "278": 0.018039091480375077, "279": -0.0751458512571772, "28": -0.033421416862991424, "280": -0.02085904314945391, "281": -0.051739559896118295, "282": -0.11618736582090351, "283": 0.04404872662243476, "284": -0.03543575508261981, "285": -0.02836850882243394, "286": -0.013211866063737285, "287": 0.09983620649961338, "288": 0.005238199617089085, "289": 0.022234408422897495, "29": -0.031053748177303907, "290": 0.03367570178467445, "291": -0.03562749644715119, "292": 0.02558750153853542, "293": 0.04573872147759571, "294": -0.023027349460615704, "295": 0.011998198014757176, "296": 0.04510170427932932, "297": 0.013301050575157772, "298": 0.014729416968596632, "299": -0.06909602359535799, "3": 0.029408565727252565, "30": -0.009499175366177256, "300": -0.029658074728199466, "301": 0.03663452807043282, "302": 0.042593855597744874, "303": -0.010385553629711046, "304": -0.06604579615726475, "305": 0.10434794426956713, "306": 0.016181846648907063, "307": 0.039545730534481474, "308": -0.007495386007279964, "309": -0.023361175438443016, "31": 0.06488392741963918, "310": -0.03551677708598467, "311": 0.011341695149846004, "312": 0.026013240406036614, "313": -0.045069921524551484, "314": -0.03815525382227221, "315": -0.043714175459582096, "316": -0.013515459729394746, "317": -0.11561667722085393, "318": 0.03718072474332254, "319": 0.031872601673616996, "32": -0.06561724424641237, "320": -0.04267109842570464, "321": -0.04223191725756316, "322": 0.018820220793945838, "323": -0.04974636042182862, "324": -0.056877337993631406, "325": -0.01684758283739476, "326": -0.04683957442453196, "327": 0.035034014105230216, "328": 0.05375556922475382, "329": -0.07198678778491932, "33": -0.07082547447736715, "330": -0.00796059477838718, "331": -0.025419346675978744, "332": 0.04001934661866817, "333": -0.02738247020659165, "334": 0.01746551860431253, "335": 0.01969160978180105, "336": -0.08655969182339514, "337": 0.026417842215149197, "338": 0.11723443888070267, "339": 0.05513924538142887, "34": -0.09029736419628635, "340": -0.006809611695887434, "341": -0.007147581695061776, "342": -0.010377642235291964, "343": -0.048468945380262696, "344": 0.025504039326039566, "345": -0.00880036486456588, "346": 0.004507356395794538, "347": -0.03665299032708092, "348": 0.021489717538969392, "349": -0.041208359912069274, "35": -0.01862716041385648, "350": -0.04891007427502632, "351": -0.07517233710350077, "352": 0.021194431210270395, "353": -0.06124397305838849, "354": 0.01468991416569975, "355": 0.026321019253276862, "356": -0.07620926587229702, "357": -0.013470293796900892, "358": -0.0028779307025966388, "359": -0.037035794546970806, "36": 0.006004270078186965, "360": -0.033126953268275604, "361": 0.004517614907169497, "362": -0.12645996832833134, "363": -0.054110671070922926, "364": -0.015574885479966008, "365": -0.1797801234738551, "366": -0.001540301236674096, "367": -0.12802230229338094, "368": -0.00277758679317182, "369": 0.13147311604622045, "37": -0.1342331762423239, "370": 0.02293754222654861, "371": 0.042964768033405445, "372": 0.0054902128086477394, "373": 0.016680708760284005, "374": -0.07764545620229371, "375": -0.022872618543258432, "376": 0.050893472023006744, "377": -0.03408659755627142, "378": 0.0004029721599489395, "379": -0.045151002829843266, "38": -0.03689511337255561, "380": -0.014306521141708842, "381": 0.004462335492165, "382": -0.0152642865839412, "383": -0.034261089977242046, "384": 0.0012702618701977279, "385": -0.05975339393724818, "386": -0.04259049182706809, "387": -0.06012943353529566, "388": 0.05987307902550851, "389": 0.00823127352771663, "39": -0.025121311615774963, "390": 0.04927053583676056, "391": -0.04359697150417028, "392": -0.10499769679915093, "393": -0.06698232908840775, "394": -0.014843240608900812, "395": -0.028772741822677257, "396": -0.004070601381762737, "397": -0.07481850574205261, "398": -0.0026071794311176423, "399": 0.006906838055080437, "4": -0.06284005604759, "40": -0.02918193998981535, "41": -0.027396624886830347, "42": 0.0409951474722795, "43": 0.020396729663047147, "44": -0.0760528801752868, "45": 0.00027593001972220767, "46": -0.049136426169453615, "47": 0.01776670435081338, "48": -0.019839924113515612, "49": 0.05907409671899339, "5": -0.06315313906541681, "50": -0.039890979368936895, "51": -0.011724945022466099, "52": -0.02419277475127128, "53": -0.08060612302396465, "54": -0.07490238604583743, "55": 0.045169785060255575, "56": -0.06465120152026983, "57": -0.04278921045074193, "58": -0.08279886563126422, "59": 0.034391481013755394, "6": -0.015830770096297405, "60": -0.004411436771596225, "61": -0.015603524000349292, "62": 0.046575622808290515, "63": -0.04228010251765276, "64": 0.026439730121028696, "65": -0.06306514262251012, "66": -0.004420265824698802, "67": -0.1163794437655599, "68": 0.0015886561244621718, "69": -0.060265219431513056, "7": -0.03680168300548808, "70": 0.015144076380905898, "71": -0.06778066606193578, "72": 0.012762397036041961, "73": 0.027532366366755892, "74": -0.11359355570880444, "75": 0.059533672285628045, "76": -0.06886090959447999, "77": -0.051726552859366746, "78": -0.006122418615175784, "79": -0.008665460685932345, "8": -0.05716239823924326, "80": 0.08823400788712112, "81": -0.028550620784788806, "82": -0.02400319299020001, "83": 0.052644724672059384, "84": -0.037610722669503056, "85": -0.031633607707753086, "86": -0.12315194744579226, "87": -0.08290056711160677, "88": 0.00035845725698946607, "89": 0.03809707114880781, "9": -0.008151225123226021, "90": -0.02635332293481844, "91": -0.04083069287677324, "92": 0.04612691506796385, "93": -0.04927254282293013, "94": 0.014951251141594494, "95": -0.007660517359020603, "96": 0.007061968184938783, "97": -0.009254150976026764, "98": -0.053959123904719956, "99": 0.0064496750873434755}}, {"depth": 16, "sx": 5, "sy": 5, "w": {"0": 0.008751856845459408, "1": -0.012362969988083925, "10": -0.009245238882321849, "100": 0.10308037490900605, "101": -0.05328150077378924, "102": -0.04305460039473069, "103": -0.07915054461846288, "104": 0.03366429130493283, "105": -0.02695106552256926, "106": -0.04646410067410329, "107": -0.07419710805879783, "108": -0.15765380862418404, "109": -0.025148879078703053, "11": 0.023304681213662165, "110": -0.04793846347932993, "111": -0.03611126799274352, "112": 0.01807879416660538, "113": 0.028645839827453348, "114": 0.04461871563186389, "115": -0.09426024999363121, "116": -0.012190077548843027, "117": -0.10504236037126921, "118": -0.05276344455660447, "119": -0.15183231790430105, "12": -0.029006536560111425, "120": 0.053161704396427936, "121": -0.08498161306498712, "122": 0.013771676818948347, "123": 0.04360730079100754, "124": 0.01546058481664144, "125": -0.016219513196464513, "126": 0.003933906875309878, "127": -0.09932571046114282, "128": -0.026404208185620746, "129": -0.017277731324676943, "13": -0.02599799272156016, "130": -0.04428105728289374, "131": 0.052899626222754396, "132": 0.053837186112878306, "133": -0.0602730924579923, "134": -0.0233602796821693, "135": 0.022666367799721483, "136": -0.049146346455575377, "137": -0.0016340455126644892, "138": -0.0609664944757538, "139": -0.0682076255951803, "14": 0.07686358348849566, "140": -0.0060712895633810585, "141": -0.012096733347829377, "142": -0.1060843251116738, "143": -0.06428512167410792, "144": -0.14092967978563262, "145": -0.02331304938427473, "146": -0.0812144182957994, "147": -0.04618398806615117, "148": -0.06784271383599484, "149": 0.032870998784535484, "15": -0.07386755159204074, "150": 0.0051040112327113835, "151": -0.032544541605689335, "152": -0.050270892090905316, "153": -0.05067666042808137, "154": -0.09966952632140831, "155": -0.0940517460022357, "156": -0.0029294561896690235, "157": 0.038103431388067543, "158": -0.015715733437190453, "159": -0.04335175553473651, "16": -0.04539452381648026, "160": -0.08228131642290684, "161": 0.009445129530994946, "162": -0.0809741050777521, "163": -0.07499856490670295, "164": 0.011695577855161468, "165": -0.07085811114214365, "166": 0.05824745163932273, "167": -0.08167607999813323, "168": 0.05160281315891218, "169": -0.09355579213731686, "17": -0.05753890112748842, "170": 0.058851252487640046, "171": -0.12006876939484723, "172": -0.010807833761815924, "173": 0.00844665462433277, "174": -0.041721917857750375, "175": -0.05483004694606566, "176": -0.039089485913992965, "177": -0.03711434603051113, "178": -0.05382549699256902, "179": -0.016621781862906894, "18": -0.05669045445567585, "180": -0.02767194795835045, "181": -0.0497473285290034, "182": 0.02692709537696929, "183": -0.12747446366871087, "184": 0.03909510014352913, "185": -0.11131477444473413, "186": -0.004965122593242254, "187": -0.01616419056723555, "188": -0.04908245629263473, "189": -0.10211312907278955, "19": -0.07107519012933432, "190": 0.010674926982645022, "191": -0.03700582979373587, "192": -0.06778467790774909, "193": 0.02189345374471057, "194": -0.1279297612993481, "195": -0.09813178807297586, "196": -0.044310370964754923, "197": -0.06077410171312365, "198": -0.12124868629359864, "199": -0.05982399413604886, "2": -0.03383211569191738, "20": -0.15729953682393977, "200": -0.005310513121830167, "201": -0.06396286729835193, "202": -0.037105453118052564, "203": -0.08618434611837583, "204": -0.022872612774551274, "205": 0.03928246159233801, "206": 0.0039536281652132995, "207": -0.009552132912262926, "208": -0.028004701285580386, "209": 0.06148667847365442, "21": -0.011332232933078822, "210": -0.0481723371942652, "211": -0.09011214113433051, "212": 0.021827614847597168, "213": -0.04382992901363083, "214": -0.09395873208132867, "215": -0.09875346343963173, "216": 0.028527409019501654, "217": 0.02044842001732203, "218": -0.08267769446016235, "219": 0.07677821308617482, "22": -0.0152213255299218, "220": -0.10791806856845565, "221": 0.08308352470160275, "222": -0.025797962672737648, "223": -0.14134575770078203, "224": -0.07793816849516635, "225": -0.013687809842717847, "226": 0.03762877116790512, "227": -0.1495720678469838, "228": -0.08415212681849969, "229": -0.05540037025261828, "23": 0.07045804799917799, "230": -0.06816442750602864, "231": -0.06985372202548643, "232": -0.14866686887477173, "233": -0.06145693987001351, "234": -0.12131190689218305, "235": -0.06526957953057072, "236": 0.03475079451060082, "237": 0.009963030068779155, "238": 0.016113633411120758, "239": 0.05940203858770742, "24": 0.04910022180842487, "240": -0.004760847675342486, "241": -0.003303323442467011, "242": -0.058543200498714934, "243": -0.01197016913008422, "244": -0.02449349043860276, "245": -0.036787111283200453, "246": -0.053219494345680754, "247": -0.09273007036831922, "248": 0.05757501134250992, "249": 0.01835902676673887, "25": 0.030636060902184726, "250": -0.05279965989915651, "251": -0.09104544669602702, "252": -0.03173769134679102, "253": 0.04403974123347185, "254": -0.011829200678405153, "255": -0.06986077521493322, "256": 0.026483108566386505, "257": -0.02985161863027162, "258": -0.06766597584385757, "259": -0.034072769149239956, "26": 0.014915176713833519, "260": 0.005069870186033205, "261": -0.06572318541059377, "262": -0.011196220970408703, "263": -0.034030740617998, "264": -0.012063098622876304, "265": -0.08886567757764294, "266": -0.005594947202045241, "267": -0.023009376930253782, "268": -0.022521173708598564, "269": -0.051667181271887096, "27": -0.06722613585809348, "270": -0.04984471490721396, "271": -0.05318564863427634, "272": -0.05814017229646502, "273": -0.014715956242462025, "274": -0.07125241235300259, "275": -0.022544360914996803, "276": -0.04118852523350753, "277": -0.026526944620076497, "278": -0.036735353360994226, "279": -0.05887458961785646, "28": -0.05352844558877674, "280": 0.039831842129363026, "281": -0.1317276804704321, "282": 0.013057920209854783, "283": -0.03862659799617573, "284": -0.02911686357486958, "285": -0.016702874466012783, "286": -0.007530422170347273, "287": 0.013509197025222809, "288": -0.03829816861779253, "289": -0.007728270993954559, "29": -0.04563617443445811, "290": -0.05416576335368267, "291": -0.04078965472362644, "292": -0.04908249476356733, "293": -0.052105734580121535, "294": -0.07686656775768055, "295": -0.03721436722417958, "296": -0.09934052665528705, "297": -0.09089570721134721, "298": -0.04456656357350214, "299": -0.05426511007349545, "3": 0.037411196311021314, "30": 0.031716736859931434, "300": 0.007948688668858991, "301": 0.022548657082830045, "302": -0.025195713977210467, "303": -0.07814431599871983, "304": -0.05179120690659371, "305": -0.0315848913404153, "306": -0.00636784975576621, "307": -0.06266444468856369, "308": 0.029636794554734395, "309": -0.04125931747914432, "31": -0.08973740915489561, "310": 0.02674592114017555, "311": -0.030607910172511563, "312": -0.10151710685829934, "313": 0.021445068029304463, "314": 0.04138545659312634, "315": -0.09350871860013146, "316": -0.08786935959529013, "317": 0.016170653767488868, "318": -0.04997085147404264, "319": 0.011926354146424584, "32": -0.03003070967804148, "320": 0.01868858799436088, "321": -0.10904548720412481, "322": 0.030872424823445176, "323": 0.03659110079767495, "324": -0.0258037490732164, "325": -0.10229865624776656, "326": -0.09214334970818672, "327": -0.10212302068796328, "328": -0.01213535637033688, "329": 0.03450020955489172, "33": -0.07938263800444739, "330": 0.0425308310987944, "331": 0.00781200058924038, "332": -0.06759574082804264, "333": 0.004541356885555144, "334": 0.02189783325018916, "335": -0.010408432196345008, "336": -0.03909334023254362, "337": 0.051908285548575406, "338": -0.03653142996614011, "339": -0.027330763656845315, "34": -0.1279787583595507, "340": -0.03308485853829127, "341": -0.031747989853433946, "342": -0.0032946203895818137, "343": -0.05140654044078886, "344": 0.04790955080638591, "345": 0.04491364435648531, "346": -0.015326518829963122, "347": -0.03797038347683324, "348": -0.054969892202518945, "349": -0.04798973392782579, "35": -0.02646145594553189, "350": -0.00011434057813799355, "351": 0.009438513662706186, "352": -0.07921741485068175, "353": -0.005030341704292038, "354": -0.09105115339241893, "355": -0.009583330859180138, "356": 0.02225002420424301, "357": -0.16313100325912808, "358": -0.053217615551663135, "359": 0.07537547385156129, "36": -0.0488364928087085, "360": 0.018420267898435518, "361": 0.016549508807204766, "362": 0.011126967709767566, "363": -0.04856404154544913, "364": -0.07080437000334308, "365": -0.0019741504692664374, "366": -0.009225062462463398, "367": 0.07621250880486016, "368": -0.09324712447550437, "369": 0.05678036467611896, "37": -0.029839404076166663, "370": 0.02508790672583905, "371": -0.08767843229690031, "372": 0.032899704187780786, "373": -0.040021147466416294, "374": -0.08869924962789032, "375": -0.012563650567578995, "376": -0.01818334536529119, "377": -0.07004181963266101, "378": -0.023426798804001652, "379": -0.11209446272535545, "38": -0.05620962814797534, "380": -0.046545482110162434, "381": -0.06304353645769119, "382": 0.022402360718558792, "383": 0.0075140979802744805, "384": -0.044995968478474896, "385": 0.007265259501049212, "386": -0.04106398422879033, "387": 0.048804542857794786, "388": 0.01662856652763257, "389": -0.11431357330599078, "39": -0.06960376862322132, "390": -0.010531723613010562, "391": 0.011996140772443554, "392": -0.04958551160884307, "393": -0.01257010536403252, "394": -0.04347967101425575, "395": -0.06310597688829597, "396": -0.07804846131721829, "397": -0.020382192767169575, "398": 0.003461827472974676, "399": 0.0050394984895388234, "4": -0.06534648500010973, "40": -0.08073641864566554, "41": -0.09064208484237606, "42": -0.022622472228924037, "43": -0.11670623880763405, "44": -0.11898606715387931, "45": -0.14216819871497627, "46": -0.023209761718249834, "47": -0.06677861759616069, "48": -0.05599001146973843, "49": -0.0006113003164421102, "5": 0.0134912184059271, "50": -0.04000693884800028, "51": 0.03676758255759452, "52": -0.012527323244752052, "53": -0.023072467721960165, "54": -0.048339919183343766, "55": 0.04929379428482105, "56": 0.0017383252795599787, "57": 0.0790832651337713, "58": -0.003807408108107467, "59": -0.02717270202829807, "6": 0.0005997816248582316, "60": -0.0020197030166304985, "61": -0.05198876628943135, "62": 0.006979419614067265, "63": -0.08588877571913603, "64": -0.03790176219066356, "65": 0.0075442358313597985, "66": -0.09076289333901615, "67": 0.016504892798069916, "68": -0.06017763870727962, "69": -0.08273272282645219, "7": -0.04285709671724339, "70": -0.06481212927168192, "71": -0.025150241057444355, "72": -0.01218619451955382, "73": -0.04014451645245924, "74": -0.061165335522525476, "75": -0.0037698391598502837, "76": -0.05677462175922651, "77": -0.01693033552578064, "78": 0.0497422627220465, "79": -0.06219059927326496, "8": -0.04556308907470647, "80": 0.009183435053016002, "81": -0.11128318407467344, "82": -0.04574649961507474, "83": -0.11270258216255982, "84": 0.024370132614505238, "85": -0.10016381568599665, "86": 0.02921967451058549, "87": -0.05399680348711331, "88": -0.026855970335007855, "89": -0.007350771619706445, "9": -0.036713058328270626, "90": 0.038567556703361094, "91": -0.002025322007151428, "92": 0.009356895175023371, "93": 0.051490086275063005, "94": -0.03244636148352025, "95": -0.041321549492694364, "96": -0.032091015735590894, "97": -0.06470468869290866, "98": -0.09392378243518548, "99": 0.010498771094408403}}, {"depth": 16, "sx": 5, "sy": 5, "w": {"0": -0.2471447555712466, "1": -0.14730305140014474, "10": 0.06656474424263975, "100": 0.007038979772111658, "101": -0.07539848500453772, "102": -0.20874239193909935, "103": 0.029044515635813492, "104": 0.14529141439179594, "105": -0.16423068298393204, "106": 0.024324850808366473, "107": -0.08047230421850333, "108": -0.2724522417509714, "109": 0.10670406881659839, "11": -0.06997271576499799, "110": -0.1330059163642407, "111": -0.25557776617163175, "112": -0.13095039020889657, "113": -0.325037141564771, "114": -0.04113977041995953, "115": -0.10388592191992335, "116": 0.06964104567884005, "117": -0.08970357610189918, "118": -0.24292538130562064, "119": 0.031158042503991217, "12": -0.0678672360350227, "120": 0.21039414671473083, "121": -0.22953792866738126, "122": 0.053170851387437025, "123": -0.1547603579920045, "124": -0.006897374074958117, "125": 0.026424209371139065, "126": -0.12414462520117668, "127": -0.1385506853036747, "128": -0.20073268567660305, "129": -0.026983564721186397, "13": 0.0614762087077449, "130": -0.1139522305093403, "131": -0.17562929694365073, "132": -0.11485773079376947, "133": -0.026463576400375836, "134": -0.1309676920450399, "135": -0.0655895747848251, "136": -0.03426375285942247, "137": -0.16668251412938723, "138": 0.021414572924273064, "139": -0.24209595500591735, "14": -0.25528556199262364, "140": -0.15338558059087393, "141": -0.20629990752272998, "142": -0.17288222210502022, "143": -0.03595806881669685, "144": -0.13888805605531207, "145": 0.0578125924060435, "146": 0.0581124398992598, "147": 0.03601812305609319, "148": -0.06468750615171352, "149": 0.16268955776019708, "15": -0.0736834244967022, "150": -0.05125162033226091, "151": -0.05513111601964037, "152": 0.0013768451618947368, "153": -0.13100135085921658, "154": 0.010768455777823559, "155": -0.13553903763366293, "156": -0.09550792201234934, "157": -0.2553589967932529, "158": -0.11124792513995432, "159": -0.015312561703822938, "16": -0.26203281162272246, "160": -0.04310604706085491, "161": 0.04993906857578697, "162": -0.08933412184920851, "163": -0.147908063002328, "164": -0.10729654021773939, "165": -0.0034212386190113934, "166": -0.2806084040030174, "167": 0.07872903420767902, "168": 0.15676775654258412, "169": -0.13268455617780667, "17": -0.13411209563235307, "170": 0.12405929274039061, "171": 0.02742866295584728, "172": -0.02348748807330872, "173": 0.07005900820414604, "174": -0.18962473811341463, "175": -0.11349957303836432, "176": 0.020842890829172102, "177": -0.06839991844884567, "178": -0.053993549132633545, "179": -0.10848945914158176, "18": -0.15703950601386016, "180": -0.013571477527759713, "181": -0.09565049548805242, "182": -0.2709141571896483, "183": 0.07305005287427417, "184": 0.12494554031531548, "185": -0.1622294900685161, "186": 0.08251075158530279, "187": 0.028451952967235634, "188": -0.11875493273121678, "189": 0.04099739104783795, "19": -0.2662799691838844, "190": -0.21723484770400037, "191": -0.02924279549100981, "192": -0.03565263762137756, "193": -0.1943302003745473, "194": -0.013250700205745146, "195": -0.16353693265352715, "196": 0.07583646455382502, "197": -0.17831475782564582, "198": -0.22474016152040763, "199": 0.1968091488368847, "2": -0.17815591626630659, "20": -0.005543886067056868, "200": 0.12477366575464904, "201": -0.3198393791882663, "202": 0.05400337406130932, "203": -0.07580593793244186, "204": 0.005918684308184893, "205": -0.10953261102205018, "206": -0.23187645952480743, "207": 0.007383220363302036, "208": -0.030707334873334532, "209": -0.26257244445561945, "21": -0.031667880647929206, "210": -0.004134077740544945, "211": -0.24364644156553392, "212": -0.1288665546997712, "213": -0.1366339197547741, "214": -0.13740293453188226, "215": 0.07545905091581749, "216": 0.10430080091413323, "217": -0.19472794735747437, "218": -0.049926778340021793, "219": -0.00650734456384874, "22": -0.1416367703552648, "220": -0.026818232043355972, "221": -0.1722349000723711, "222": -0.06285583210491522, "223": -0.09801780734808088, "224": -0.05028118228755371, "225": -0.013559628256397433, "226": 0.20620886807780037, "227": -0.08985594923412549, "228": -0.1064838110993191, "229": 0.03577690789315014, "23": -0.01743781250533168, "230": 0.08980085986644624, "231": -0.10593588483554674, "232": 0.07822733080990646, "233": 0.03350766770452493, "234": -0.06765846115141633, "235": -0.12290077979732603, "236": -0.07278118748415767, "237": -0.28138602690988646, "238": -0.15801468831580176, "239": -0.1464637073668547, "24": 0.21165631148117098, "240": -0.10788460855609554, "241": -0.07918528726193672, "242": -0.034730652672058854, "243": 0.002991415500590101, "244": -0.00903005631008642, "245": -0.01600055487198639, "246": -0.11942683400630139, "247": -0.014487230951993193, "248": 0.2524681516934734, "249": 0.06527096532107576, "25": -0.35575915683033316, "250": -0.02384906419445237, "251": -0.06148284926020125, "252": -0.16023620753724027, "253": 0.020099510094857144, "254": -0.17154786170326253, "255": -0.10870152686463044, "256": -0.05002272291021678, "257": -0.19017393249065354, "258": -0.07266273816248225, "259": 0.0015484976016464464, "26": 0.09490462406755774, "260": 0.018716392177667213, "261": -0.14771372704436303, "262": -0.09502781660246357, "263": 0.061643562617217755, "264": 0.08402340762273697, "265": -0.04200678740206176, "266": 0.00302390831984434, "267": 0.02752478579259754, "268": -0.09392811337873049, "269": -0.04444245249098577, "27": -0.08369876777592615, "270": -0.07560653990514504, "271": -0.011413902042425208, "272": -0.03506670323170124, "273": -0.23171301263636093, "274": -0.041873914804221396, "275": -0.08091399683580071, "276": 0.11165971021435858, "277": -0.12726604872642167, "278": -0.06148639513347975, "279": -0.036568906717516815, "28": -0.1861904759078458, "280": 0.18779393925647347, "281": -0.12914112873385353, "282": 0.013977723205134834, "283": -0.09699067189942381, "284": 0.09860424393850434, "285": 0.038143631521552576, "286": -0.11408624889659323, "287": -0.03850126292982928, "288": -0.12141075546773476, "289": -0.24783379403011896, "29": 0.03051264022326893, "290": -0.0026815426920648393, "291": 0.05195128014108735, "292": -0.06298678449594362, "293": -0.15155003156856534, "294": -0.019627327567339998, "295": -0.03002169078364412, "296": 0.03975712305218823, "297": 0.0986873217402962, "298": -0.04651598590400649, "299": 0.019412716504088098, "3": -0.229515968565031, "30": -0.17741056413972348, "300": -0.1606874684710386, "301": -0.15334971816609907, "302": -0.03916464922277586, "303": -0.08540186715038459, "304": -0.16112126298814106, "305": -0.055682306205469094, "306": 0.20350115194588564, "307": 0.12834304160568033, "308": -0.127159350103548, "309": 0.027406284830512828, "31": -0.10110824483334462, "310": 0.006076087260323478, "311": -0.14093986826454602, "312": -0.03656450940547712, "313": 0.09054863544330635, "314": -0.07688584105245147, "315": -0.051463783800949445, "316": -0.07119147471949903, "317": -0.1728473147538587, "318": 0.13741400564924441, "319": -0.009227755723148913, "32": -0.268246789043927, "320": 0.0011432531973818321, "321": 0.031179882695309552, "322": -0.14085787355524612, "323": -0.013667646911649609, "324": -0.058998570355683504, "325": 0.014064652639115226, "326": 0.019314754137650117, "327": -0.0019334067916971555, "328": 0.031522250292128094, "329": 0.0016636169294968542, "33": -0.3213872500229202, "330": 0.03902310710857687, "331": 0.023137053343128884, "332": -0.039295875129492, "333": 0.10293050176983412, "334": -0.06960626126570947, "335": 0.03503008665327298, "336": 0.01542535078987128, "337": -0.213468401878487, "338": -0.08361597766430198, "339": -0.08405927161217831, "34": 0.045121368157847216, "340": -0.054658032694875625, "341": 0.06873828051407625, "342": 0.08490157312434699, "343": -0.013066611003394485, "344": 0.13480559886706547, "345": -0.1191843510888461, "346": 0.06109797759748078, "347": 0.20461527243824287, "348": -0.11176277724538361, "349": 0.017923512731294163, "35": -0.30466385815744207, "350": -0.0977012021189754, "351": -0.025338784858300434, "352": 0.09566845994884662, "353": -0.04104523347998884, "354": -0.0001437999255542305, "355": 0.03037992790744415, "356": -0.03254803409879064, "357": -0.022179087177108116, "358": 0.053111409752447596, "359": 0.09492859184340655, "36": -0.0761734678088232, "360": 0.1514079402487078, "361": -0.1165207869432019, "362": 0.10957766882662107, "363": 0.1256597576913947, "364": 0.059782646158987866, "365": 0.04060767373285637, "366": -0.002617394820272432, "367": 0.012779197852771606, "368": 0.14167461574721357, "369": -0.11299463580082833, "37": 0.08055420174278068, "370": 0.049006092857671185, "371": 0.08841470274375496, "372": -0.04305642936072427, "373": 0.05422200353055438, "374": 0.046661386690498345, "375": 0.017637613035710663, "376": 0.14230549633031797, "377": 0.07926102167769278, "378": 0.10151144294556054, "379": 0.06513178443712517, "38": -0.12071590768653603, "380": -0.0822969595539319, "381": -0.08704632423555811, "382": 0.06474310171363926, "383": -0.10865081736066377, "384": 0.03284667699657445, "385": 0.0009685575245836449, "386": 0.05907794371718451, "387": 0.11568420595653287, "388": -0.07255291793289757, "389": 0.18092500634544878, "39": 0.0038576635073509407, "390": 0.12645817040061205, "391": -0.10964738231624367, "392": -0.04687430392174877, "393": 0.034316694439999906, "394": -0.09852504349223244, "395": 0.08933017297911384, "396": -0.10459670424426598, "397": -0.033720841867421004, "398": 0.12098909550792003, "399": -0.058825369225305506, "4": -0.013311576086266111, "40": 0.16398144883217494, "41": -0.22157049353107813, "42": 0.09286102237043917, "43": -0.22910267947491705, "44": -0.0020679982343248227, "45": -0.07024841117067272, "46": -0.1967228810535864, "47": -0.07268525069785074, "48": -0.17294341231352833, "49": -0.048713372502607266, "5": -0.047700040260801914, "50": -0.032448279709065254, "51": -0.180072443771026, "52": -0.19695623498679216, "53": -0.0027529813393436255, "54": 0.059088382812652086, "55": -0.10763383220673188, "56": 0.04438493523724617, "57": -0.2302748243637197, "58": -0.10281383338190411, "59": -0.0730828475581997, "6": -0.1511564659496316, "60": -0.2331724035039115, "61": -0.2477448931063629, "62": -0.2384308111097665, "63": -0.11450446233005158, "64": -0.12558285634790953, "65": 0.066165480491653, "66": 0.09005696271337214, "67": -0.19150669814408455, "68": -0.060929323857838565, "69": 0.10375311055987181, "7": 0.021235345414599004, "70": 0.08154692698395292, "71": -0.14217010487300352, "72": -0.07199484630923174, "73": -0.15156779750666183, "74": -0.011044390277803613, "75": -0.15475225585354987, "76": -0.0487995296842848, "77": -0.2429624512979997, "78": -0.03327508057766396, "79": -0.061647067864858685, "8": 0.07887764639942675, "80": -0.2965525907737038, "81": -0.02421670807003604, "82": -0.03975887270391362, "83": -0.19931496085710865, "84": -0.18670390205087734, "85": -0.026998368221573605, "86": -0.15186734616065822, "87": -0.07802012887470308, "88": 0.07613256848952255, "89": -0.14354500745866214, "9": -0.2439806173611269, "90": 0.11752510259197527, "91": -0.05928332287065502, "92": -0.14175562622798976, "93": 0.035202976616046044, "94": -0.14470720178525812, "95": -0.151863289859742, "96": -0.04781634766582103, "97": -0.15532163347631323, "98": -0.11535553607201993, "99": -0.2968291384568836}}, {"depth": 16, "sx": 5, "sy": 5, "w": {"0": 0.039465478929377226, "1": -0.2175028446729585, "10": -0.1876218223445865, "100": -0.08910903449183666, "101": -0.13743321960388105, "102": 0.014715237752254943, "103": -0.07472770878347898, "104": 0.13884390604074834, "105": -0.15551811606161647, "106": -0.1629248233824104, "107": -0.07145094168351895, "108": -0.09983937073343403, "109": 0.03192124714858643, "11": 0.16769735324815777, "110": -0.1917133698294899, "111": 0.016505512996984197, "112": 0.09635494553877504, "113": 0.038410129531563135, "114": 0.07971450059638714, "115": -0.00976751579743483, "116": 0.059662487737533965, "117": 0.03792057148868108, "118": 0.006767685478940188, "119": -0.07063731315899828, "12": -0.2459030509143239, "120": 0.07789776119191233, "121": -0.02076783082355198, "122": -0.041608838653252066, "123": 0.052735910245708534, "124": 0.04922368815412504, "125": -0.0897384460144006, "126": 0.012770902394926906, "127": 0.13955751044002432, "128": 0.10812106551511945, "129": 0.03341557208952402, "13": 0.0066611185427360884, "130": 0.05637174015618923, "131": 0.08499522638787128, "132": 0.15137476547386297, "133": 0.0010000966321799002, "134": 0.011046867873011578, "135": 0.06486973350316234, "136": 0.11963829259612173, "137": 0.0995784885946661, "138": 0.04963586872092039, "139": -0.009223370262834324, "14": -0.08218489788323649, "140": -0.01456112922778659, "141": -0.0856784592582813, "142": 0.08775499793655255, "143": -0.12817961000088626, "144": 0.14411527638030197, "145": 0.1891951455220496, "146": -0.11351403954397496, "147": 0.06133634733554217, "148": 0.08385882403705164, "149": 0.08502507556553324, "15": -0.07067434830247656, "150": 0.1225009723501602, "151": -0.08449133825276006, "152": -0.00013863912668259527, "153": 0.17640728117498308, "154": -0.015263835110639105, "155": 0.052791015311021205, "156": -0.015163215988117928, "157": -0.0649891161450416, "158": 0.014752449258001756, "159": -0.04118211322703247, "16": -0.05687661204989026, "160": -0.14541853836359567, "161": 0.11532820070155057, "162": 0.19392513541423959, "163": 0.08192678526283904, "164": 0.05518155905723709, "165": 0.062192407530572716, "166": 0.026477799225048136, "167": 0.14551520874913945, "168": 0.12246981913835808, "169": 0.07227358508542753, "17": -0.12571016164384835, "170": -0.2353771687846828, "171": -0.25433088798787135, "172": -0.04800707956776838, "173": -0.06414595605852949, "174": 0.08299359511337905, "175": -0.06781168237302711, "176": 0.009213410486898466, "177": 0.04452988994393355, "178": 0.07678217836323563, "179": -0.005676337497100112, "18": -0.09281931969397604, "180": 0.04394748884312892, "181": 0.0565223814737017, "182": 0.06752851579582941, "183": 0.023042963244051508, "184": -0.03117301108008153, "185": -0.12332996099982564, "186": -0.15925662837079307, "187": -0.04952096766269247, "188": -0.050194608676823994, "189": -0.025621516075049432, "19": 0.021965844464497883, "190": 0.0818735663985373, "191": -0.15150446242628496, "192": 0.04386978510485474, "193": 0.11444028252522366, "194": -0.06923146442193302, "195": -0.011564729787695458, "196": 0.09502637346896707, "197": 0.07035663005764053, "198": 0.07269043914420803, "199": 0.03544994313675505, "2": -0.09282824941279944, "20": -0.14539691032863925, "200": -0.025474603403244016, "201": 0.016002334693156255, "202": -0.13159350316836824, "203": 0.16707214948135046, "204": 0.17692865067693433, "205": 0.020012854037181296, "206": 0.08293904157456625, "207": 0.000944057753699489, "208": -0.014598034541687899, "209": 0.06542793673614622, "21": -0.022351554270360823, "210": -0.2184627351553071, "211": -0.007189212285996074, "212": 0.10237288920651796, "213": 0.22043035374815675, "214": 0.0052677647615913155, "215": -0.08573330843806556, "216": 0.023438102994083162, "217": -0.10084992813882163, "218": -0.0634127513141512, "219": 0.04938622896854301, "22": -0.04933648852723086, "220": 0.13972378376652608, "221": 0.06442175578047109, "222": 0.2197625686039682, "223": -0.054093005107780326, "224": -0.20837239345590955, "225": 0.006143769299294284, "226": -0.17591941707365016, "227": -0.08245900677895647, "228": 0.023739336734172004, "229": 0.1069333685792879, "23": 0.06267847267047608, "230": 0.09106464464363233, "231": -0.18539956696335866, "232": -0.07629549662421259, "233": -0.047299651371033626, "234": -0.04930703030350519, "235": -0.021395830668370332, "236": 0.0672122857963618, "237": -0.01752740584824889, "238": 0.097984657810879, "239": -0.3380351876968698, "24": 0.18183886531384436, "240": -0.029391888867192982, "241": -0.010893195972594793, "242": 0.20228759341757982, "243": -0.08314951524749173, "244": -0.011757557155538653, "245": -0.1526692680239868, "246": -0.0612708264260646, "247": 0.048273758815055474, "248": 0.066831624297175, "249": 0.05035677471121182, "25": -0.08405942041350008, "250": -0.18121446523067591, "251": -0.20011121751094804, "252": 0.030332725405356493, "253": -0.09171726355268355, "254": -0.07004707642592592, "255": -0.15459348260325892, "256": -0.12590957355916865, "257": 0.08116339824785469, "258": -0.034228563647210664, "259": 0.03359116845785256, "26": -0.12664443491825206, "260": 0.06808405642939178, "261": -0.007537775043727463, "262": -0.14180507778952994, "263": -0.019706443551619317, "264": 0.14422245237273545, "265": 0.13266760771786637, "266": -0.23858563453024703, "267": -0.20040147238252728, "268": 0.00826832388669326, "269": -0.2270281680796232, "27": 0.16843896152247767, "270": -0.11077983466150237, "271": -0.10555909809367152, "272": -0.08197396414169926, "273": 0.2160535601210413, "274": -0.011223579630975292, "275": 0.23749368928761908, "276": 0.09680080770134833, "277": -0.05474081486375067, "278": 0.038493882212431885, "279": 0.020924881549186463, "28": -0.16091707814569697, "280": 0.1507534131254029, "281": 0.13204293581473214, "282": -0.15892306298768055, "283": -0.07945474753842596, "284": 0.07620920656968255, "285": -0.0663873245453512, "286": -0.05883698608142851, "287": 0.1529060842042917, "288": 0.09491211885873645, "289": -0.002550912386866565, "29": 0.1363543295333409, "290": -0.17241167243167382, "291": -0.04007462675724384, "292": 0.1662136166455854, "293": 0.05810920280047336, "294": -0.009117403280147188, "295": 0.03228789316053596, "296": 0.1371105742024518, "297": 0.0864256689333497, "298": -0.08239206566822516, "299": 0.019836429338297566, "3": -0.1427105395480621, "30": -0.08057045073044221, "300": 0.3018006170179366, "301": -0.06507562848188736, "302": 0.09615348960471515, "303": 0.11611164713578224, "304": -0.08473743852277629, "305": 0.1700199749511765, "306": 0.05107294619666853, "307": -0.09526914604573058, "308": 0.0026762786767668455, "309": 0.05119287457689503, "31": -0.14292070397476744, "310": 0.08081164465767438, "311": -0.03400812393485327, "312": 0.048623434433852905, "313": -0.0632843680216317, "314": -0.13655283347388594, "315": 0.08943495571598355, "316": 0.15662457859776155, "317": -0.029966854820716277, "318": -0.09464267929271464, "319": -0.18543453693443754, "32": 0.017660972420737484, "320": -0.03104840811862115, "321": -0.026042127244500245, "322": 0.20945649789071227, "323": 0.07557050624141266, "324": -0.05293355942487055, "325": -0.13329989455829586, "326": -0.06363485271659451, "327": -0.056966946715353954, "328": 0.1327982080331131, "329": 0.15057939286457012, "33": -0.09112259196946397, "330": -0.20525258888419554, "331": -0.056046355031728834, "332": -0.20634541177430624, "333": -0.31793965625916065, "334": 0.003974419927454219, "335": -0.05337229851045869, "336": 0.018393590407035275, "337": -0.08226485963162528, "338": 0.08222610593023982, "339": 0.21127768802561053, "34": -0.02961637170127844, "340": -0.0540013455816374, "341": -0.12411584788375815, "342": -0.09777291280462061, "343": 0.00610641774487051, "344": -0.04693890555719228, "345": 0.2321519827892716, "346": -0.3505745896544344, "347": 0.033338471271475004, "348": 0.0273803408935972, "349": -0.2530435797510474, "35": 0.048735388724432054, "350": 0.13088809230900117, "351": 0.14166575958168032, "352": 0.10116181275002203, "353": -0.03329280017796368, "354": 0.022359633344646558, "355": 0.2360207852883919, "356": 0.12268504853142685, "357": -0.18881678246476505, "358": 0.010858643237356542, "359": 0.01805430034481941, "36": -0.23328748568676846, "360": 0.21293767338761777, "361": 0.18230718142240657, "362": -0.2861181223802767, "363": 0.057735054027608604, "364": 0.03043268620045391, "365": -0.23014635788808915, "366": 0.19636867541765082, "367": 0.24068891544315668, "368": 0.16540467465505912, "369": -0.08388078245633812, "37": -0.09695601339086242, "370": 0.0667747626579984, "371": 0.14575245648304852, "372": 0.18456182791549525, "373": -0.14907709684468737, "374": -0.03717041284969672, "375": 0.11145822534182813, "376": 0.10974185879938546, "377": 0.1915580155555146, "378": 0.0513170543821972, "379": 0.09052259681208046, "38": -0.010478575837054988, "380": 0.13617127312427732, "381": -0.08709175489631796, "382": 0.20006105713003197, "383": 0.28495822627107925, "384": 0.1012282712970331, "385": -0.08654035464354541, "386": -0.015177206450491088, "387": 0.06324383319343452, "388": -0.02376877499088905, "389": -0.0664346510123166, "39": 0.04643981233696154, "390": 0.0056870475289463596, "391": 0.08227070814577672, "392": 0.005915412384626617, "393": 0.1857566047236983, "394": -0.013726076860912475, "395": 0.18693187034807374, "396": -0.00866085329207442, "397": 0.019538284598692175, "398": 0.20080301477470172, "399": 0.2605446657925982, "4": -0.1474718702233139, "40": 0.016068946211346982, "41": -0.05288063543443122, "42": 0.048778520739337784, "43": 0.24068811042587854, "44": -0.21326274002378992, "45": 0.09844427403644115, "46": -0.047017830417559595, "47": 0.006002033255577532, "48": 0.019564854632089873, "49": -0.05051236793615061, "5": -0.11187245729352359, "50": 0.08710516412669961, "51": -0.047084072312242584, "52": -0.08037193035913139, "53": 0.00803123263770044, "54": -0.07356156842489667, "55": 0.009183649825286829, "56": 0.010942818439019068, "57": -0.05287779540432281, "58": 0.05610457122689229, "59": 0.15677648545769982, "6": -0.09987837919188781, "60": -0.019370971976847534, "61": -0.053685675907090766, "62": -0.09868790364880367, "63": 0.12253871967275602, "64": -0.0722077012175161, "65": -0.13630422102416379, "66": 0.10636166746600911, "67": 0.03502934025922218, "68": -0.187369936632201, "69": 0.017318599956847723, "7": -0.06648619227250223, "70": 0.06278014879444932, "71": -0.02392786576031665, "72": 0.15447474692017946, "73": 0.06608515944131721, "74": 0.14998118448283226, "75": 0.03202532044778228, "76": -0.17782783877024474, "77": 0.08698662313361219, "78": 0.06782078648749362, "79": 0.11872177895100601, "8": 0.06725294937004149, "80": 0.03944306340477704, "81": 0.04320339569277023, "82": -0.037059309635393896, "83": -0.0001059427005673893, "84": 0.06394008340927518, "85": -0.11729476886436571, "86": 0.12389310921096688, "87": -0.0013854821565218367, "88": 0.11420243765128009, "89": -0.15758297110252575, "9": -0.20689271381809132, "90": -0.22426721718827755, "91": 0.09880669822192086, "92": 0.016846923149325583, "93": 0.07720251625925983, "94": -0.1592051767477762, "95": -0.1115561429734722, "96": 0.043233420266168776, "97": 0.051263035631785456, "98": -0.12360206217097204, "99": -0.14526170327875912}}, {"depth": 16, "sx": 5, "sy": 5, "w": {"0": 0.02914892966922195, "1": -0.01057506912836147, "10": 0.15670319948747868, "100": -0.12435526466668886, "101": -0.034135287343304475, "102": -0.11862429553688121, "103": 0.015189584111585466, "104": 0.04300001481080026, "105": 0.005540090479922812, "106": 0.025277251860670896, "107": -0.06440055085211353, "108": -0.179212964542867, "109": -0.15129855255145658, "11": -0.030186916897689278, "110": -0.054733535114326395, "111": -0.13719117364072927, "112": -0.09829326379660541, "113": -0.14559435360641548, "114": -0.13569402609549852, "115": -0.11485521281173247, "116": 0.006552689216306583, "117": 0.02985238378767546, "118": -0.07526559224308937, "119": -0.022571740217148337, "12": -0.17092658644633474, "120": 0.06818493819062764, "121": -0.13707249939956878, "122": 0.016218361536403707, "123": -0.002331837092568797, "124": -0.05032234008358518, "125": -0.04680015317454584, "126": -0.0804196133744418, "127": 0.04418770139621646, "128": -0.007872116880134838, "129": -0.011085036789653935, "13": 0.02480174179102446, "130": -0.10258863481923622, "131": -0.07673480961609433, "132": 0.019188849847710097, "133": 0.037464107558680675, "134": -0.0751149295202561, "135": -0.10528062948583679, "136": 0.00756265225247978, "137": -0.11246717988659652, "138": 0.03407793050221019, "139": 0.03323045635402562, "14": -0.024485135821605036, "140": -0.12207206181761185, "141": -0.12188898174156185, "142": -0.171122212798648, "143": 0.003165127572351859, "144": 0.0506344466903116, "145": -0.02746787121430758, "146": -0.09155519074790806, "147": -0.13707543619932502, "148": -0.03468078079765782, "149": -0.028581698703228773, "15": -0.03642979137290349, "150": -0.002544910256921192, "151": -0.04753444789784621, "152": 0.02353596560050209, "153": -0.19934317462936002, "154": 0.08212768491984603, "155": 0.04629676935586612, "156": -0.14518395228283132, "157": -0.06686714433177735, "158": -0.0643973887529325, "159": 0.027871400261510342, "16": -0.07685595747467971, "160": -0.1514509922529114, "161": -0.018274010291789954, "162": -0.10354317513822135, "163": -0.04794319710296716, "164": -0.09334364226537498, "165": -0.15278952512895824, "166": -0.00586239536365378, "167": -0.016229107619330767, "168": 0.014888558804719936, "169": 0.007713462384186464, "17": -0.06916342683811973, "170": 0.1260286162727901, "171": -0.1332748258249433, "172": -0.04710036315206596, "173": -0.05238405773408717, "174": -0.08477482487256315, "175": -0.007238702242218534, "176": -0.03386055968540563, "177": -0.09224879848889106, "178": -0.11184072448854138, "179": -0.08997044984146318, "18": -0.005473958340768659, "180": -0.08749729944202736, "181": 0.020616592392755484, "182": -0.10142258144550835, "183": -0.09184778699574177, "184": 0.07794920014210792, "185": 0.018542635535338643, "186": 0.024808160898190525, "187": -0.07112451077973589, "188": -0.12399092032335621, "189": -0.09497854360040857, "19": 0.02256595205969778, "190": -0.003799478577973044, "191": -0.0740787884338755, "192": -0.05891633720707993, "193": -0.037033255071304325, "194": -0.09860949671613886, "195": -0.018695502254488135, "196": 0.058766974755285, "197": -0.02592571466337839, "198": -0.09024113640039588, "199": -0.019318351412662475, "2": 0.037608344354332336, "20": -0.06768661188710308, "200": -0.03135684697482273, "201": -0.003213149547669743, "202": -0.05263560782518989, "203": -0.015213329646342115, "204": -0.01880093111119761, "205": 0.0074640516711262095, "206": -0.07481589031683702, "207": 0.005146494101577225, "208": -0.07862747598780535, "209": -0.05281478068146372, "21": 0.09116858724132051, "210": -0.14349424151217274, "211": -0.014629273613620307, "212": -0.04577095480644696, "213": -0.0788388222162616, "214": -0.07396892792156623, "215": 0.04422655287010273, "216": 0.10788472451183584, "217": 0.012209817697119851, "218": 0.0031933564118684856, "219": -0.07722408237913492, "22": -0.10333099929260635, "220": -0.11223042125831154, "221": -0.13412573309755083, "222": -0.1583530264088868, "223": -0.11645202316433949, "224": -0.011661429284594713, "225": -0.051317878467348976, "226": -0.15659659999332526, "227": 0.02643738322365714, "228": -0.030684365438552724, "229": -0.05426185294064743, "23": 0.019849883924719508, "230": -0.011991749670151654, "231": -0.06738796783349879, "232": -0.04315246780121102, "233": -0.2008403346265051, "234": 0.020342724936750264, "235": -0.07231978864130385, "236": -0.12131589409148033, "237": -0.05095617802100844, "238": -0.11290976057183123, "239": -0.08811512287790123, "24": -0.014123576597943936, "240": -0.075902969195007, "241": -0.06020967191347952, "242": -0.002386040289784624, "243": -0.05634370173985762, "244": 0.023289961283266148, "245": 0.020148314554700203, "246": -0.055568816659041335, "247": 0.02304561973107074, "248": 0.13456343794779402, "249": -0.0010679538283133734, "25": 0.0005745038173848196, "250": -0.020745071461690124, "251": -0.011647166741970917, "252": -0.05863084901085477, "253": -0.07836167517846376, "254": -0.022173982815540224, "255": -0.07870080254639068, "256": -0.059369318284584444, "257": -0.01980819945339971, "258": -0.027448867565258956, "259": -0.03275615193330408, "26": -0.010873646010932204, "260": -0.04830241449124181, "261": -0.026516459039837705, "262": 0.07433746760655995, "263": -0.008758479986036316, "264": 0.14852699344743964, "265": -0.07133895720299852, "266": -0.047098934804704715, "267": -0.03518412151613052, "268": -0.0650802658508661, "269": -0.0190951440682965, "27": -0.01567076708301246, "270": -0.06479565261608974, "271": -0.04590865602325345, "272": -0.0001981635774648701, "273": -0.0016666311252766896, "274": 0.014754827154739265, "275": -0.07077926580539558, "276": 0.10975315193255716, "277": -0.03049382039485573, "278": 0.024493128417705564, "279": 0.053974310441865424, "28": -0.11790969665604167, "280": 0.07422565313612847, "281": -0.09709761771944046, "282": -0.1149202328059562, "283": -0.001569646416677879, "284": 0.001343438208810507, "285": 0.0007999762972626069, "286": -0.08215284814184873, "287": 0.08259949464491993, "288": -0.019363515058546204, "289": -0.023118371652137946, "29": -0.08271142411773888, "290": 0.0008279365294259215, "291": -0.08521247369423972, "292": -0.04824120192826001, "293": -0.10701596963612992, "294": -0.03076882049260797, "295": -0.08920121677294603, "296": -0.019550942072430737, "297": -0.12703196536048533, "298": -0.06413899996697801, "299": -0.059073433603530415, "3": -0.0019549893183868823, "30": -0.026105448445875232, "300": -0.012500878456779337, "301": 0.017476807052799526, "302": 0.014880654178310564, "303": -0.0195745163793212, "304": 0.02347423485390176, "305": 0.0004086819399401361, "306": -0.09153576449542375, "307": -0.14090989793850542, "308": -0.010966666487244035, "309": -0.055241839057711475, "31": -0.10754005256717522, "310": -0.06682310744717007, "311": -0.07156944769483706, "312": 0.035358952990360085, "313": -0.1887583098723595, "314": -0.020949636734421993, "315": -0.05784063922959429, "316": -0.11082134572040561, "317": -0.013335857151652206, "318": -0.002981452044957806, "319": 0.010877264954101634, "32": 0.11270851572918635, "320": -0.11848739888838612, "321": -0.007111005980877005, "322": -0.05548468505730098, "323": -0.08258552820029282, "324": -0.08774969552199957, "325": 0.026314806846034114, "326": 0.1016146148549278, "327": -0.0663482760694625, "328": -0.03481757871165287, "329": -0.05425599680287233, "33": -0.010961832304568694, "330": -0.05374111038549612, "331": 0.01766693398569639, "332": -0.0622567890730895, "333": -0.05589895417953898, "334": -0.11319997124615842, "335": -0.08432234557524905, "336": -0.1381363138953937, "337": -0.0999378256355474, "338": -0.08438541084455868, "339": -0.12859891697278975, "34": -0.13003101799513936, "340": -0.015576368150285763, "341": -0.003253182279386228, "342": -0.008246805286995923, "343": -0.03533627682649657, "344": 0.07375175918351584, "345": -0.01880886777352348, "346": -0.05069590964592989, "347": 0.003649469195503888, "348": -0.15114947624563166, "349": -0.06880156620464782, "35": -0.031944195089708416, "350": -0.04237202258229633, "351": -0.024243800181417384, "352": 0.05962474067465079, "353": -0.01640064756575931, "354": -0.06003384031526466, "355": -0.11699201987190941, "356": 0.16876404944433906, "357": -0.038298673209109776, "358": 0.02939836222449546, "359": -0.0641293937085396, "36": 0.0005008273154681465, "360": -0.016570369773538925, "361": -0.1301795707958423, "362": -0.0674307613958631, "363": 0.003963819037999652, "364": 0.12394490091314087, "365": 0.05891115877602231, "366": -0.04031007051231868, "367": 0.019373342389240284, "368": -0.047023110114669316, "369": 0.049345436385118735, "37": 0.022091760984257983, "370": 0.026538422697119056, "371": -0.0254260496339772, "372": -0.06024466555619043, "373": -0.045364627031236913, "374": -0.061142543497897196, "375": -0.11278544560208685, "376": -0.042563472250368696, "377": -0.09444750854478759, "378": -0.11213272053528875, "379": -0.04065056165790903, "38": -0.010947083441592866, "380": -0.043891728692776286, "381": -0.03155739523222166, "382": -0.04109054736585913, "383": -0.03614610531030156, "384": -0.08038936974252071, "385": 0.008282363472310837, "386": -0.07212744224827108, "387": -0.036226565628788523, "388": -0.022349923091937382, "389": -0.07430113263962954, "39": -0.05337883026265548, "390": -0.08783717458651524, "391": 0.04222487502220763, "392": 0.0005678295080793846, "393": -0.06240406276855857, "394": -0.06344640304764167, "395": -0.016903051452249997, "396": -0.04138211899570278, "397": -0.023553000673030185, "398": -0.10365506495168028, "399": -0.09651283451400158, "4": -0.07924627155056388, "40": -0.020692738419483138, "41": -0.03845944317142993, "42": 0.01571577812036528, "43": 0.006942272246201975, "44": -0.003723314973870493, "45": -0.07794106934586581, "46": 0.12487210155654765, "47": 0.056493830745747056, "48": 0.06692872844925875, "49": 0.11461505292496753, "5": 0.013837557174697023, "50": 0.05342618064912608, "51": -0.058151772104169025, "52": 0.012869346769162697, "53": 0.12404497001089616, "54": 0.04007911914756, "55": -0.04451565509860504, "56": -0.0003041951908093055, "57": -0.12198737848103618, "58": -0.04107199214201773, "59": -0.06337225988861699, "6": -0.043263642534045556, "60": -0.05606885282192363, "61": -0.10166230928100643, "62": 0.019672139289591765, "63": 0.07376013125030191, "64": 0.12759003993846263, "65": 0.21982289902885527, "66": 0.03158522314819901, "67": 0.019532702947100366, "68": 0.14229250460113044, "69": 0.1835203422335427, "7": 0.05347005150774526, "70": 0.05263652434490461, "71": -0.028764231859000722, "72": -0.039289313238153795, "73": -0.11884664453328316, "74": -0.02331675782129964, "75": 0.01763521709606082, "76": -0.036935201657540995, "77": -0.09958726756556839, "78": 0.0028279348531019158, "79": 0.032683796259292144, "8": 0.02343055844077926, "80": -0.12727832702350683, "81": -0.06821068934151554, "82": 0.021718795994094625, "83": -0.07881752957659355, "84": -0.12992692199512282, "85": -0.04853816282000732, "86": -0.05333278132702748, "87": 0.020821921371516106, "88": 0.16473993313198515, "89": -0.024704036914498264, "9": -0.02100086011934998, "90": 0.03933958579685337, "91": -0.03596564440909748, "92": -0.11442234347298166, "93": 0.01437777736543002, "94": 0.02850973122454011, "95": 0.04077114893690464, "96": -0.08488597832892436, "97": -0.0819082347192716, "98": 0.011249570662203692, "99": -0.06250396554766845}}, {"depth": 16, "sx": 5, "sy": 5, "w": {"0": -0.009104692487547635, "1": -0.07676320709855317, "10": -0.031227190891236625, "100": -0.1858455241931205, "101": 0.05273249636295341, "102": -0.06332165097959451, "103": 0.025633735532963775, "104": 0.016618359602550623, "105": -0.18377455902252046, "106": -0.09336258467055317, "107": 0.018959115276820624, "108": -0.11552537988026722, "109": -0.10063205447371003, "11": -0.012170482430169919, "110": -0.16580359452565605, "111": 0.03412861713296612, "112": -0.07531262194279553, "113": -0.15780328021117995, "114": -0.13905015854804917, "115": -0.12323813604915536, "116": -0.10230180317184058, "117": 0.0508407481078822, "118": 0.0947680947319215, "119": -0.08610432338647023, "12": -0.08871298954614953, "120": -0.057652053207717754, "121": -0.1403447958892458, "122": -0.0846272262389276, "123": 0.08076354234840831, "124": -0.11524012564133747, "125": -0.037824661466434824, "126": -0.10991225531820287, "127": -0.051658586035722306, "128": -0.05272454353730752, "129": -0.06752137653985386, "13": -0.12454750062051831, "130": -0.02432132093165533, "131": -0.0920400134103479, "132": -0.10732647598207773, "133": 0.1048643994564238, "134": 0.06356288487141874, "135": 0.008973044235565539, "136": -0.04471312084178826, "137": -0.194252499596019, "138": -0.11846762210607298, "139": 0.003951679354320196, "14": -0.09790408265008091, "140": -0.08741624758861923, "141": 0.10149426283633044, "142": -0.20044492850172804, "143": -0.0339448046181328, "144": 0.042242931105875216, "145": -0.11763826300512617, "146": 0.024913129749722443, "147": -0.2851557216983266, "148": -0.14705932954489717, "149": 0.10101895544745294, "15": -0.09998580247132038, "150": 0.1519183187279254, "151": -0.017083968188375688, "152": -0.0857867625954527, "153": -0.1666714261982527, "154": -0.08296744062625831, "155": 0.042177394680578024, "156": -0.09487837474261765, "157": 0.0859385425688789, "158": -0.12213709148969396, "159": -0.037219610444220445, "16": -0.053177160110249005, "160": -0.21608386596994636, "161": -0.1491358138628026, "162": -0.14715222846643256, "163": 0.011157792286391261, "164": -0.13823887649434083, "165": -0.1354542755718284, "166": -0.10860550668780393, "167": -0.08142851806204654, "168": 0.17013560266167016, "169": -0.022908019279600907, "17": -0.17688972265067904, "170": 0.04619184377448886, "171": -0.005825191438552023, "172": -0.13795822135052221, "173": -0.12232969397026563, "174": -0.006214374011402621, "175": -0.13315347449473108, "176": -0.01752266957557435, "177": -0.09947925757805844, "178": -0.09085534536842166, "179": -0.10556740488490708, "18": 0.07944841195396866, "180": -0.16401349018897118, "181": -0.07744822979814686, "182": -0.00044488007714546497, "183": 0.07598127331014003, "184": 0.009909841138612865, "185": -0.10989796810670274, "186": -0.028321240374608325, "187": -0.044152824781039046, "188": -0.15599473778443418, "189": -0.0009802612631824694, "19": -0.11203092683739317, "190": -0.08554258850585722, "191": -0.07033436930257538, "192": 0.02740273906587492, "193": -0.13032527882185813, "194": -0.00641491650761931, "195": -0.04493543169829947, "196": -0.060817811447384164, "197": 0.0376351413228272, "198": 0.037777635877156455, "199": -0.02266639874707699, "2": -0.13788727102816928, "20": -0.10178742740536377, "200": -0.0337221825626084, "201": -0.08580867467275075, "202": -0.05674131160021357, "203": 0.04512828199604918, "204": -0.19348611307144434, "205": 0.027050634974287127, "206": -0.10981501815443068, "207": -0.025486757711673608, "208": 0.01163785908065358, "209": -0.061809798461134366, "21": 0.05213686219249568, "210": -0.01555229920266174, "211": -0.0672571767333351, "212": -0.025451746809484047, "213": 0.05944363590451373, "214": -0.016820281780743327, "215": 0.04066834584778304, "216": 0.025337133116959464, "217": -0.10062586851647, "218": -0.002198873703600763, "219": 0.025147074137002814, "22": 0.01675982713647991, "220": -0.1182483618527464, "221": 0.05258601580557151, "222": -0.031932666465646506, "223": 0.03605282879678222, "224": 0.035325207102869204, "225": -0.10287813372325418, "226": 0.11124947574621519, "227": -0.08088906358810247, "228": -0.07839286251039823, "229": 0.056606785377105055, "23": 0.009353364554744208, "230": 0.016129156272336246, "231": -0.03200827590788658, "232": 0.021393585302452306, "233": -0.06805769238532819, "234": -0.04512645430140694, "235": 0.08820305027315853, "236": -0.08626461539875718, "237": 0.06582585562188427, "238": -0.07302565599316141, "239": -0.0568713046307931, "24": 0.003408834466445108, "240": -0.022432987957805597, "241": -0.045076444656861024, "242": -0.12970447966344936, "243": -0.003287963278189181, "244": -0.03158949198696148, "245": -0.0425290389467841, "246": -0.10213119924841033, "247": -0.0009839206220136859, "248": 0.1139542422047361, "249": 0.08416769392476507, "25": -0.06172830683188528, "250": -0.0625758139724353, "251": -0.017416006579495245, "252": -0.010416314872313644, "253": -0.07603278963899197, "254": -0.04323057806875551, "255": 0.05637764535472905, "256": -0.08448599238571364, "257": -0.12222409113619519, "258": -0.00028337394220467275, "259": 0.006631918607783125, "26": -0.06635399987793789, "260": -0.08455636052679386, "261": -0.21323057292484027, "262": -0.05879107791613645, "263": 0.06863808529699615, "264": 0.11973257919997708, "265": -0.06257943416261172, "266": 0.006383193070835631, "267": -0.05366177758907137, "268": -0.12160906434725365, "269": -0.07291343193550845, "27": -0.07090428780233701, "270": -0.15150535440521676, "271": -0.04232731234870948, "272": -0.1074460391261639, "273": -0.06914168786235786, "274": -0.03728252977874774, "275": -0.024738707195948045, "276": 0.06198804943912508, "277": -0.13332638056009566, "278": -0.0807851219737368, "279": -0.07007643321642121, "28": -0.09784578350118457, "280": 0.0389016822279182, "281": -0.0013189089050002272, "282": 0.03210746904522938, "283": -0.1062510283047134, "284": -0.12496494906982002, "285": 0.02422614344529147, "286": -0.12481938313920052, "287": 0.06481942295799112, "288": -0.1253373112691765, "289": 0.08474163522653362, "29": 0.04524320300225556, "290": -0.018290361216003293, "291": 0.04748838688769258, "292": 0.0535605025656838, "293": -0.09339451445609011, "294": -0.0026398796933922814, "295": 0.08968903260950581, "296": 0.07188462643764017, "297": 0.18975576307483666, "298": -0.04055572346854857, "299": -0.0176683052681756, "3": -0.03468965219010887, "30": -0.12163457148662563, "300": -0.04459967922579387, "301": 0.005894922509076133, "302": 0.017976660360573212, "303": -0.015478954672530807, "304": -0.03493983868118394, "305": 0.09739310920635999, "306": -0.032793907876515815, "307": 0.05357615121846696, "308": 0.009889795659058382, "309": 0.03113365103550404, "31": -0.028021414478744355, "310": -0.06966347667690473, "311": 0.022375302698172284, "312": 0.1569041081870618, "313": 0.09363438370953524, "314": 0.03686173643809184, "315": -0.07791615207410171, "316": -0.14848961230432023, "317": -0.008008544679512689, "318": -0.04258736258799132, "319": 0.07300471335882246, "32": -0.02319646308128628, "320": 0.02780391669696376, "321": -0.10599339138356743, "322": -0.0612020874545966, "323": 0.10456656391082576, "324": -0.022081663480651995, "325": -0.2766153752335599, "326": -0.07255998971702485, "327": -0.030774621363650924, "328": 0.12873087420274662, "329": 0.07764261240101725, "33": -0.13145490048426764, "330": 0.06813151680079936, "331": -0.08155584236439326, "332": -0.09903383899853328, "333": -0.04942747404397044, "334": -0.07430216021676253, 