{"data": {"layers": [{"layer_type": "input", "out_depth": 3, "out_sx": 32, "out_sy": 32}, {"biases": {"depth": 16, "sx": 1, "sy": 1, "w": {"0": -0.08937714439084965, "1": -0.1479323620821362, "10": -0.1047908984539732, "11": -0.014949566626983938, "12": -0.013950751015527094, "13": -0.0660539410424955, "14": -0.04584525479521258, "15": -0.05287639503380712, "2": -0.05748488640188962, "3": -0.1363534298411649, "4": -0.014073740437634687, "5": 0.0964614271261163, "6": 0.0064615708229372355, "7": 0.04578788173864472, "8": -0.10014619929913537, "9": -0.0941677779115716}}, "filters": [{"depth": 3, "sx": 5, "sy": 5, "w": {"0": 0.025225360869171258, "1": 0.005997949680262358, "10": 0.2059662721404771, "11": -0.05565303063833318, "12": -0.030304906442503336, "13": -0.09685886233381943, "14": 0.015533117624613098, "15": -0.03767815669137728, "16": 0.10073771228164043, "17": 0.016419559566158128, "18": -0.0772028968747523, "19": 0.031049957305587097, "2": -0.06640798405569737, "20": 0.030832247990995407, "21": 0.0003793837905255563, "22": -0.10267514657594602, "23": -0.1436903516916168, "24": 0.15652004343962808, "25": 0.1432519763848302, "26": 0.01395759863436167, "27": -0.08065328106952803, "28": 0.055450770574551736, "29": 0.05598559700050878, "3": 0.18900405386399355, "30": 0.17283674777808739, "31": -0.1905305246534718, "32": 0.16970190425706935, "33": -0.09096418288323871, "34": 0.2631675474861196, "35": 0.3400932820677367, "36": 0.059743074430097624, "37": 0.015725025918521422, "38": -0.02348064211821975, "39": -0.22591270132034233, "4": -0.08125185020912182, "40": 0.013323419399120514, "41": 0.12664579051147581, "42": -0.19560608503522744, "43": 0.19952269131141903, "44": -0.05753453396144533, "45": 0.03620839513334073, "46": 0.06504938772335456, "47": -0.0012914461806038616, "48": -0.16011013105306707, "49": -0.07579946099490469, "5": -0.025470324408894414, "50": -0.006103306930417134, "51": -0.09532989070718055, "52": 0.13988283185052888, "53": -0.09382857447802236, "54": 0.09353620413767207, "55": 0.05767671574548958, "56": -0.08984131744658194, "57": 0.15836239328770899, "58": 0.03730935956280602, "59": -0.33469393030048766, "6": 0.08650838972507757, "60": 0.1036501630393489, "61": 0.11159597488822728, "62": -0.12406751579369481, "63": -0.06098842027835628, "64": 0.03628422999166681, "65": -0.010112025408624372, "66": 0.02611270628221093, "67": 0.06464597523000094, "68": -0.03085813641463735, "69": 0.12660926272609255, "7": 0.22866740980093617, "70": -0.0956003304092067, "71": 0.02235222782951365, "72": 0.1791086017956749, "73": 0.09330335305233882, "74": -0.3147691528060363, "8": 0.022718572273530094, "9": 0.06892887714020285}}, {"depth": 3, "sx": 5, "sy": 5, "w": {"0": -0.07070478511403115, "1": -0.07229158843898482, "10": 0.13921885011382434, "11": -0.21204600051584335, "12": 0.12808659251274584, "13": -0.0987345716429465, "14": 0.027174427711904675, "15": 0.060391884723644394, "16": -0.07284816707780077, "17": -0.08558275555660358, "18": 0.01843824435459998, "19": 0.05711305035321411, "2": 0.19564574738200802, "20": 0.005297961936619048, "21": -0.0849436104293958, "22": -0.06637308551066663, "23": 0.005816587925840364, "24": 0.1769175324042016, "25": -0.016709959525091817, "26": -0.0005595382037941056, "27": -0.05559658288479589, "28": 0.1901406334182344, "29": -0.0050489367547758394, "3": -0.10635767880261093, "30": 0.22557861485087183, "31": -0.046512491887576224, "32": -0.14963515351237125, "33": 0.16930697673842535, "34": -0.1665898539593808, "35": -0.23263988125028762, "36": 0.24741317440703636, "37": -0.08760935237951448, "38": -0.0616551347955476, "39": 0.10163728623889143, "4": 0.18454634174146292, "40": -0.2035383505515448, "41": 0.2327229244338935, "42": 0.26934900174437165, "43": -0.05043178790151648, "44": -0.20432759742244855, "45": 0.11424129392935196, "46": -0.17208465481981097, "47": -0.0010811778831642427, "48": 0.08561063041407001, "49": -0.07725585425648096, "5": -0.05180991042453123, "50": -0.24085664811829763, "51": 0.2190546461230289, "52": -0.26298571429563133, "53": -0.1895708432797405, "54": 0.1955133080273782, "55": -0.3218159916524312, "56": -0.15322867660032263, "57": 0.1673556834624038, "58": -0.45728550239780374, "59": 0.0801580783485116, "6": -0.12829487287948185, "60": 0.07646191220877227, "61": -0.07438247308483421, "62": 0.06379077153917927, "63": 0.07420522664317507, "64": -0.2395079239926755, "65": 0.07923126487504446, "66": 0.041975709520144025, "67": 0.03991086958023736, "68": 0.05427785576380517, "69": 0.07497377652166855, "7": -0.02391988811490668, "70": 0.005385139164082869, "71": 0.10751692276216754, "72": 0.1791877516372898, "73": -0.08308692684889132, "74": 0.014661340965857441, "8": 0.1533996811901185, "9": 0.10109854911753635}}, {"depth": 3, "sx": 5, "sy": 5, "w": {"0": 0.19678153728954395, "1": 0.230565113244833, "10": -0.003083459357961327, "11": 0.026336382873231118, "12": 0.012627581136755387, "13": -0.11283450153161947, "14": 0.11408256339836684, "15": 0.02638257977952567, "16": -0.06658214083300538, "17": 0.06368706999308983, "18": 0.04336270848190975, "19": -0.3196971947240066, "2": 0.16828371100101377, "20": -0.05387307150674695, "21": 0.17033988412928003, "22": -0.1563947348274785, "23": -0.04129626369841997, "24": 0.01860632073279979, "25": -0.012686350719376084, "26": -0.011233763141219903, "27": -0.17524385499782003, "28": -0.10367075469345037, "29": -0.11345435484757449, "3": 0.08731533147507413, "30": 0.3108883830288548, "31": -0.11717014098207254, "32": 0.009504954365294646, "33": 0.11031641878419493, "34": -0.12107886159457876, "35": -0.23505406012532723, "36": 0.14375727288274892, "37": -0.24199851133842074, "38": 0.0510090921259048, "39": 0.029604954571043382, "4": 0.0015701459936923133, "40": -0.16639484569469076, "41": -0.15149176511059229, "42": 0.0190768965842444, "43": 0.025926741767775888, "44": -0.22920465322099726, "45": 0.02454030646753215, "46": 0.09492618418749171, "47": 0.0797372971569036, "48": 0.07131678839257678, "49": -0.18316808900710677, "5": -0.057117808623627565, "50": -0.11425453402110175, "51": -0.009281554437786535, "52": 0.006409337676737183, "53": 0.02615858794439803, "54": 0.1471258126821644, "55": -0.10317750411989506, "56": 0.12936111943985146, "57": 0.18256445764119925, "58": -0.04257037486875865, "59": -0.09807461608839992, "6": 0.0791188693668763, "60": 0.3131143322078685, "61": -0.030806292022961597, "62": 0.09251125484135278, "63": 0.07205584376102504, "64": -0.12157055506981614, "65": 0.2172474484073555, "66": -0.0056425508004658105, "67": -0.23221759352172536, "68": 0.015077285711962912, "69": 0.0071937211291479295, "7": -0.1805799977379813, "70": 0.08266182020641118, "71": -0.1238147256762398, "72": -0.01959904197411168, "73": -0.30518812268578327, "74": 0.04333453301661934, "8": -0.06259120930474278, "9": -0.16668111586512677}}, {"depth": 3, "sx": 5, "sy": 5, "w": {"0": -0.09600811796404925, "1": -0.2492266219075171, "10": -0.04166459426158368, "11": -0.01572547187688757, "12": 0.18452833631389798, "13": 0.16938916323839232, "14": -0.078184006304168, "15": 0.06177023293000836, "16": -0.0768777795786364, "17": -0.27824593513056195, "18": -0.07923437646269059, "19": -0.1417162875948012, "2": -0.15885748011696013, "20": 0.05513997021537593, "21": 0.15929547174007233, "22": 0.04656487478656544, "23": -0.011455963932926545, "24": -0.041634500373183024, "25": 0.21429437539703772, "26": 0.09892288713000055, "27": -0.1152847331770135, "28": -0.037783944183917825, "29": -0.06306315273430653, "3": 0.2537259898530763, "30": -0.041318565328255, "31": -0.03618526048777217, "32": -0.15706984571761665, "33": -0.02942877997451694, "34": -0.14068426862118483, "35": -0.19361914022457483, "36": 0.09308359317233299, "37": -0.009345410035732644, "38": 0.29428900607413017, "39": 0.011901623210228475, "4": -0.09145955962141193, "40": 0.07485280221190684, "41": 0.15827028122781758, "42": 0.06966204965782752, "43": 0.0005180849121141699, "44": -0.1845968153305598, "45": -0.15305334005115503, "46": -0.26894642147656694, "47": -0.06398913016935366, "48": 0.13191189152655028, "49": -0.14100172727208127, "5": 0.123439081205349, "50": -0.13574898609132127, "51": 0.3199462516948792, "52": 0.10703772838416191, "53": 0.29369939170711723, "54": 0.0885963274567395, "55": 0.06895823674728654, "56": 0.17057087819796413, "57": 0.040555247734842974, "58": -0.03647552379113614, "59": 0.08008220937738146, "6": 0.24769256426071204, "60": -0.11586233999949778, "61": -0.16285203439001802, "62": 0.12227210352839503, "63": -0.15525774781273327, "64": -0.08939252064439665, "65": 0.0811190324201981, "66": 0.1682048365909452, "67": 0.11017119425157504, "68": -0.03755146291066171, "69": -0.15187581410137654, "7": 0.1510983283816546, "70": 0.06244364866349951, "71": -0.007222784638786017, "72": -0.10665691927924205, "73": -0.03288940123884498, "74": -0.22858873658166592, "8": 0.0003711697112499617, "9": 0.10700529631289718}}, {"depth": 3, "sx": 5, "sy": 5, "w": {"0": -0.18226732440581955, "1": -0.13172528706346215, "10": 0.10467891524220409, "11": -0.15911732258766778, "12": -0.09659317582699344, "13": -0.10124978093799364, "14": 0.1484311829465352, "15": 0.031454218285892295, "16": 0.074317754739899, "17": 0.07435478050105757, "18": 0.02383708833468916, "19": -0.03304546833094709, "2": -0.059771464613784374, "20": -0.2937897551979111, "21": -0.013724383722348672, "22": -0.003963080348632395, "23": 0.073658512970158, "24": -0.15983116017607324, "25": -0.16333623799922967, "26": -0.028372720815078897, "27": -0.04338474052298125, "28": -0.2115643392871286, "29": 0.0948793438263584, "3": -0.1234770326036992, "30": 0.047920846687438644, "31": 0.03086821913288428, "32": 0.0042259345337920294, "33": -0.037405962464483335, "34": 0.015792372777957194, "35": -0.03663403540121066, "36": -0.047724769758503566, "37": -0.1423213414495202, "38": 0.176118055081142, "39": -0.05689166415054579, "4": -0.3160156009905876, "40": 0.15964099413755592, "41": 0.0067005370686793325, "42": -0.051672838559285915, "43": 0.06322790912727565, "44": -0.09866118068629466, "45": -0.10660811231606257, "46": -0.06433298966756235, "47": 0.1364165707729457, "48": -0.031242043042057653, "49": -0.15297154329187793, "5": -0.10087379110643331, "50": -0.08723044234510494, "51": -0.0673817330302556, "52": 0.21539539563459034, "53": 0.13303858921286066, "54": -0.3524414400372505, "55": -0.07071738969299238, "56": 0.17237443868930627, "57": -0.16970839457586137, "58": -0.24462191128797495, "59": 0.2482628571335208, "6": 0.08784708823440143, "60": 0.005732358807357079, "61": 0.11521471840232927, "62": -0.07771367706849366, "63": -0.03724376950463151, "64": -0.007847157618931726, "65": 0.06311241617287722, "66": 0.10235569974134173, "67": -0.08077185196581525, "68": 0.19507378156149574, "69": 0.2205047098999112, "7": 0.10457163626085493, "70": 0.04081195437784625, "71": 0.18382784369127825, "72": -0.06661851472484305, "73": 0.3575798838685175, "74": 0.1592191624185772, "8": 0.11095337497569562, "9": 0.07712335655195937}}, {"depth": 3, "sx": 5, "sy": 5, "w": {"0": -0.05579780181714014, "1": -0.060999785106208536, "10": -0.07571838547845709, "11": 0.26237285026821144, "12": -0.1889995140323729, "13": 0.13716298780127187, "14": 0.25899427052205115, "15": -0.1503130982414944, "16": -0.16365077330927982, "17": -0.017390161799360107, "18": -0.05233903159406539, "19": 0.07664593167031797, "2": 0.2037706804422104, "20": 0.15149476719710628, "21": 0.0001315539589771442, "22": 0.027409450332566792, "23": 0.12323331154066394, "24": 0.2217047647152894, "25": -0.1415592118966992, "26": 0.2684029619622524, "27": -0.04211809483595368, "28": 0.02094345679826176, "29": 0.030398487519041454, "3": 0.12332897041865594, "30": 0.0017309165321499871, "31": 0.10556720453091077, "32": 0.13983054971199232, "33": 0.05523587979008267, "34": 0.06748485393203887, "35": -0.07255628642412644, "36": -0.16671980393231797, "37": 0.15001617297880776, "38": 0.3180207910280149, "39": -0.08058169408085092, "4": 0.05253754327288952, "40": -0.24977697427595527, "41": 0.16015433322770095, "42": 0.01956351044512895, "43": -0.09573814256389687, "44": 0.2844414972091983, "45": -0.40862423854937907, "46": -0.05927447028242909, "47": 0.14844616116327827, "48": -0.28211152563018665, "49": 0.05387827060728894, "5": 0.03881641830545935, "50": 0.16374889762420033, "51": -0.34943404714265514, "52": 0.04546536012758444, "53": 0.07238879836695611, "54": -0.11246416313432225, "55": 0.045985587821449604, "56": -0.09588029722568396, "57": 0.12698831433568886, "58": 0.002105022719606177, "59": -0.2143570877455338, "6": 0.01134225410164989, "60": -0.05412839857004633, "61": -0.001306791171041058, "62": 0.1688799557875379, "63": -0.13937402803849663, "64": -0.11471857668583664, "65": -0.01744461682244663, "66": -0.10328500737586135, "67": -0.06796377085726371, "68": 0.19643793626326864, "69": -0.1694472697146183, "7": -0.08506191695272379, "70": 0.030015566172951532, "71": 0.006412353825504971, "72": -0.041058637395482774, "73": 0.004392072908073422, "74": -0.02534511869612169, "8": 0.0964147537603555, "9": 0.1547836672851031}}, {"depth": 3, "sx": 5, "sy": 5, "w": {"0": 0.07930940438115863, "1": 0.091253369013481, "10": 0.0019466375949372973, "11": -0.20335591005295395, "12": 0.30433516603401595, "13": 0.05756441282604143, "14": -0.19330266971367505, "15": 0.2962547458675466, "16": 0.20886723107307736, "17": -0.05197047417220303, "18": 0.34373389462913884, "19": -0.026653152773894885, "2": -0.15484367796151366, "20": -0.29961475469626403, "21": 0.022048641213989223, "22": -0.06778373389876192, "23": -0.043321178987058104, "24": 0.11937933937145331, "25": 0.07692570376350093, "26": -0.15602584465620717, "27": 0.10345182809778693, "28": -0.0478385616350024, "29": 0.056858933233622705, "3": 0.28910422376961, "30": 0.3030236007350309, "31": 0.08162217499933504, "32": -0.13658447999593235, "33": 0.13582411658699464, "34": -0.13997559072528873, "35": -0.14503837637930753, "36": 0.16375936333171529, "37": 0.022896902984675765, "38": -0.1539795649324492, "39": -0.009044133522733202, "4": -0.09988032840958011, "40": -0.14946665632637765, "41": -0.22195798607709563, "42": 0.014967933990753253, "43": -0.054253639020004275, "44": -0.0758399274640666, "45": 0.22825171483400417, "46": -0.08773698068813758, "47": 0.04663618319509441, "48": 0.047596166317022466, "49": 0.09413039426892673, "5": -0.004158939057445896, "50": -0.12134821556123156, "51": 0.07242995377394808, "52": -0.09019452526791143, "53": 0.014199755407906451, "54": 0.16460549172802652, "55": -0.3793105555016915, "56": -0.19737622185399456, "57": 0.23939334317243707, "58": -0.0035779487035965036, "59": -0.08580655654200339, "6": 0.09691437038307331, "60": 0.17966106837841428, "61": -0.1637274661921658, "62": -0.06335462061295738, "63": -0.04982248457934934, "64": -0.06832724423512244, "65": -0.030556958121920975, "66": -0.1784322183695241, "67": -0.18472733010343192, "68": 0.252274783524491, "69": -0.0010754705573437296, "7": 0.007152588383068946, "70": -0.42408268718654024, "71": 0.13022143940405143, "72": 0.05079655849859605, "73": -0.17931237783294868, "74": 0.11378911430898278, "8": -0.3287355686685917, "9": -0.06608895686820947}}, {"depth": 3, "sx": 5, "sy": 5, "w": {"0": 0.016204102309550147, "1": 0.11883264210365974, "10": 0.21412623683887025, "11": -0.2274280464137851, "12": -0.06702877427758842, "13": 0.04048844067865863, "14": -0.3478389634505499, "15": -0.02201061924343979, "16": 0.1610310064651321, "17": 0.006770053952799377, "18": 0.020855872649660993, "19": 0.21256200654681232, "2": -0.05799129326574165, "20": 0.0737540748360117, "21": 0.024216995326765786, "22": -0.1443872211119117, "23": -0.41792432724369105, "24": -0.011490296501265478, "25": 0.07543604343603605, "26": -0.07637167186011544, "27": 0.00010509405166434448, "28": 0.2666466131503045, "29": -0.09753114024421722, "3": 0.07069944041272949, "30": -0.05397032899827393, "31": 0.040466614330634844, "32": -0.0031999668290488086, "33": 0.18113879665287388, "34": 0.1777201178254913, "35": -0.12005354795547263, "36": 0.059618822316122665, "37": 0.10214241836282759, "38": -0.19774591134796124, "39": -0.010430759944641533, "4": -0.050893902840923724, "40": -0.07026728139891476, "41": -0.19778354167059492, "42": 0.0801966398159251, "43": -0.05548097064499148, "44": 0.016912115185144266, "45": -0.06733305879473607, "46": 0.2908041070933002, "47": -0.021190851342167097, "48": -0.045244096076878015, "49": -0.0047697669895851195, "5": -0.0513520378710194, "50": -0.10328428352290475, "51": 0.16467647809093794, "52": 0.18363687354936334, "53": 0.07323059835601019, "54": 0.019585911517256978, "55": -0.003032834735563977, "56": -0.11355790794101914, "57": -0.07524349099977469, "58": 0.00027423254264883723, "59": -0.24630018165582437, "6": 0.17310866624619978, "60": 0.2704138206787148, "61": 0.1333744043114488, "62": -0.04553489230681094, "63": -0.029700246588994606, "64": -0.019198470216002038, "65": -0.18556949700674644, "66": 0.10856555185607393, "67": 0.025426443650640455, "68": -0.1852292012411705, "69": 0.07551378075343393, "7": 0.08963749261814337, "70": -0.09815885336260133, "71": -0.14551096734054636, "72": -0.12303961308598312, "73": -0.0952070077254738, "74": 0.059053422650693826, "8": -0.18859831366595653, "9": 0.12648680672024332}}, {"depth": 3, "sx": 5, "sy": 5, "w": {"0": 0.28740612443070007, "1": 0.014172277179575709, "10": -0.22473170372791812, "11": -0.16357875290927026, "12": -0.002024631494551834, "13": -0.14121111058621968, "14": -0.23131698904368145, "15": 0.3111455475815206, "16": 0.15555516813345166, "17": 0.22736568198087018, "18": 0.20659330213433055, "19": -0.2186207772430015, "2": 0.23031043379293273, "20": -0.10485158572574163, "21": -0.0340377688714778, "22": -0.38047618475651945, "23": 0.12009247888567587, "24": 0.013831227098231666, "25": -0.23652825461456273, "26": 0.011613286413187216, "27": -0.009105606324429886, "28": -0.26922852625126303, "29": -0.18677930008512314, "3": 0.22205713780381764, "30": 0.1669603567311014, "31": 0.19019477390201164, "32": 0.364989609813128, "33": 0.3115436314212345, "34": 0.016913978948834195, "35": 0.26278001763112546, "36": -0.2220516220595542, "37": 0.0009971884633116048, "38": -0.10874967485504922, "39": 0.05609120404803814, "4": 0.06878830285469617, "40": -0.2750056971146759, "41": -0.09901109115874318, "42": -0.010322310815166338, "43": -0.06960137816233915, "44": -0.2899378676718836, "45": 0.3466668547199652, "46": 0.15504777339823947, "47": -0.0228955395332415, "48": 0.1503018265192383, "49": -0.008684450595408056, "5": -0.009407678144174616, "50": -0.03524347655007705, "51": 0.13486687877928014, "52": 0.07379453248058948, "53": 0.10044297118023567, "54": 0.08652596950561019, "55": -0.2772378299479379, "56": -0.12729191389140382, "57": -0.10639730184865992, "58": -0.29053435779732667, "59": -0.011291071678171226, "6": 0.05265603363776567, "60": 0.3011478028836289, "61": 0.08275074353904538, "62": 0.09501912677010954, "63": -0.10279941583393684, "64": -0.05373973604082541, "65": 0.08852372131690256, "66": 0.18212313998163285, "67": 0.09535805179127342, "68": -0.017590480853966074, "69": 0.12242480663440063, "7": -0.1350204609613376, "70": -0.16056202512706208, "71": -0.14134271746381638, "72": -0.044135762545638293, "73": -0.10535653919730292, "74": 0.09245409227642501, "8": 0.03225650994667207, "9": 0.06436496098332126}}, {"depth": 3, "sx": 5, "sy": 5, "w": {"0": 0.15449949817550798, "1": -0.016816482011291586, "10": -0.11596368835518887, "11": 0.07876737349972333, "12": -0.1665817633787818, "13": 0.11962873788730265, "14": 0.10443024077465518, "15": 0.17878194170627937, "16": -0.0527968859294536, "17": 0.11169424765056399, "18": 0.11118379826545197, "19": 0.020098436422593798, "2": 0.04514135804500292, "20": 0.1325152792597807, "21": 0.1723694591233089, "22": -0.04432833185545294, "23": 0.16191908987967985, "24": 0.1493841399316821, "25": -0.024220996110793314, "26": 0.023496961604897, "27": -0.14211926532145597, "28": -0.03087182611655971, "29": 0.180388232146865, "3": 0.29737978042051944, "30": 0.05833990287080927, "31": 0.012458237334392261, "32": 0.22976639350202088, "33": 0.24056089810988324, "34": 0.166330153277764, "35": -0.11795517698633787, "36": 0.02244415841574352, "37": 0.10240350662533111, "38": -0.01961749033248959, "39": 0.13008598842300595, "4": -0.07122197593879404, "40": -0.30139682542475726, "41": 0.20805008147441323, "42": 0.2787327188977728, "43": 0.20721042317224797, "44": -0.15700714090035184, "45": -0.021421099800521648, "46": -0.20810555834283842, "47": -0.00992704262105174, "48": -0.1413182042575359, "49": -0.22104779976045927, "5": -0.05305342161674807, "50": 0.11492667593890767, "51": 0.022583115779165094, "52": -0.04178866997609918, "53": -0.17583020299005814, "54": 0.04071525546949614, "55": 0.10392199797298375, "56": -0.006379388144600512, "57": 0.13299344618327044, "58": -0.04299162567484144, "59": -0.3641807698533226, "6": 0.11842226991570512, "60": 0.008734077433047403, "61": -0.24885354102765572, "62": -0.21638323047116237, "63": -0.09287782866964475, "64": -0.23829937026648743, "65": 0.06397324541138681, "66": 0.016030788642370293, "67": -0.3129306941161994, "68": 0.12769415035020246, "69": -0.010477542099364552, "7": 0.17843373778281846, "70": -0.09950894903055857, "71": 0.0442130564262324, "72": -0.08080121496195647, "73": -0.2544951776487261, "74": -0.001222435453088587, "8": -0.06139881662308182, "9": 0.26292996187910345}}, {"depth": 3, "sx": 5, "sy": 5, "w": {"0": 0.19947676272346712, "1": -0.18752158057841262, "10": 0.0063997744583190325, "11": 0.024153937396726135, "12": 0.048567890043784354, "13": 0.03698789763124387, "14": 0.13468030736295147, "15": 0.20224549944445086, "16": -0.027106536537314204, "17": -0.09839820399805324, "18": -0.12337009630229735, "19": -0.006020738302208382, "2": -0.06048684802264847, "20": -0.10098125443558291, "21": 0.16021361332375803, "22": 0.09178430868694487, "23": -0.09268720054376867, "24": 0.08550048688613747, "25": 0.046782284568189225, "26": -0.11301841077814667, "27": 0.3248314945673172, "28": 0.1069696783598908, "29": 0.17116324161013927, "3": 0.025814786935217174, "30": -0.07229899174744292, "31": -0.170830202119757, "32": -0.16611854683731356, "33": 0.11223259204738846, "34": -0.060783331517059024, "35": -0.37443013638490763, "36": 0.08006715284732856, "37": -0.13943013064662613, "38": 0.0410046398632295, "39": 0.02715627225570949, "4": -0.08434683177721744, "40": -0.004044561157096722, "41": 0.017959805468372385, "42": 0.24686579659341223, "43": 0.03828497816438446, "44": 0.21031038264731194, "45": 0.04570608103315913, "46": -0.24669331925869298, "47": -0.18691571285052092, "48": -0.16145140022712656, "49": -0.17960445604111347, "5": -0.2159091168435597, "50": -0.17904123342923653, "51": 0.022700540466305704, "52": -0.48677533158739594, "53": -0.056716992878663545, "54": -0.01644789569144118, "55": -0.009783751446428917, "56": -0.0684723159183123, "57": 0.09929557888054463, "58": -0.14497908862137754, "59": 0.2849196198717472, "6": -0.0010268955144534342, "60": 0.2384751744974491, "61": -0.23210479543676493, "62": 0.040378867165079727, "63": 0.011965878049685144, "64": 0.1669321448833225, "65": -0.1450308501328128, "66": -0.02495441242247754, "67": -0.0009446202329020867, "68": -0.17121536579930305, "69": 0.05331099587968403, "7": 0.19548005989982795, "70": -0.0040570453574195475, "71": 0.13654140599213777, "72": -0.022627032426055935, "73": -0.01992661757017979, "74": 0.34420622359189557, "8": -0.1395451990770837, "9": 0.15477725748767568}}, {"depth": 3, "sx": 5, "sy": 5, "w": {"0": 0.052631212883610834, "1": 0.1614695935566109, "10": -0.26134133040166907, "11": 0.08631029385396262, "12": 0.2745055431798729, "13": 0.009852647455028694, "14": 0.06345917942719893, "15": -0.07026905054502149, "16": -0.04744707053954893, "17": -0.04807590584850145, "18": 0.11350399745952637, "19": 0.03156331598793134, "2": -0.14918577834867952, "20": 0.06883591462114734, "21": -0.10412436152475123, "22": 0.13984262938572603, "23": 0.014362041967935885, "24": 0.15587028815787257, "25": 0.14826704398499488, "26": -0.0014621375812436499, "27": -0.04829672382193979, "28": 0.16157102124145953, "29": -0.053303878743396885, "3": 0.21766398562462133, "30": 0.1320405157545442, "31": -0.1418971817517025, "32": 0.08559660281916712, "33": -0.004528921882243663, "34": 0.18332669133839904, "35": 0.04920903469083425, "36": -0.17577347889412245, "37": 0.047244144121676525, "38": 0.2836896884164785, "39": -0.11277250606245427, "4": -0.13400674984632385, "40": -0.12065371589342459, "41": 0.14855154947794816, "42": 0.09095972563844458, "43": 0.18927052372253186, "44": -0.22223069149971608, "45": -0.015300978840915231, "46": -0.12298760266650449, "47": 0.21933275399496824, "48": -0.08050382665875457, "49": -0.021241408002581383, "5": -0.21258509958358654, "50": -0.16460750746103464, "51": 0.010978663307673152, "52": -0.10908839365526316, "53": 0.05432435115980516, "54": -0.007856278053162215, "55": -0.04933144155339476, "56": 0.1998053365430381, "57": 0.07002671626418154, "58": -0.14931066919424407, "59": -0.03615309428140393, "6": -0.03437880026172841, "60": -0.05927482394565473, "61": 0.05817919513294525, "62": 0.22144755392923582, "63": 0.16351505257513418, "64": -0.04749389588704402, "65": 0.05755846321922138, "66": -0.028036710034696488, "67": 0.05604908250245292, "68": 0.027111699709290456, "69": 0.06967069763608846, "7": 0.01525624384829963, "70": -0.06711636994649806, "71": -0.01928627544306944, "72": -0.007807627189836194, "73": -0.0004237241041090394, "74": 0.011180673256350776, "8": 0.1236124408775378, "9": 0.11016442423087985}}, {"depth": 3, "sx": 5, "sy": 5, "w": {"0": 0.07614968796426072, "1": 0.0878671015165921, "10": 0.13438757035598797, "11": 0.12002995810717827, "12": 0.07034300606615235, "13": -0.09097267002773259, "14": 0.02914094807728924, "15": -0.25080160513354266, "16": -0.1977591844595959, "17": 0.15666223795603354, "18": 0.12480451527523713, "19": 0.1286136043442839, "2": 0.10720581722560324, "20": -0.11183402009849712, "21": -0.003368416643240905, "22": -0.13125182298357502, "23": 0.11604577124599938, "24": -0.025857490372017997, "25": 0.09968662811881535, "26": -0.08879187695250855, "27": -0.14854319074498565, "28": 0.10341579788055805, "29": 0.06046621760291593, "3": -0.07423503575264921, "30": 0.03962718603131505, "31": 0.05171768745841206, "32": 0.06914413920431987, "33": 0.06120069034773615, "34": -0.05656138459399354, "35": 0.12428175799470757, "36": -0.1397142953735123, "37": -0.1276786484814015, "38": 0.1123368037130097, "39": -0.06750290680405031, "4": 0.02017856881188218, "40": 0.09995505757949215, "41": 0.02800422666434767, "42": -0.07147520977280207, "43": 0.16812407954695596, "44": -0.00960940290010259, "45": -0.09529472399600583, "46": -0.1495768221157378, "47": -0.0803441782630505, "48": 0.06093868589354056, "49": -0.07922963953372929, "5": 0.17716394653140582, "50": -0.0381862039482393, "51": 0.05606631304547017, "52": -0.13952852181811704, "53": 0.05539138915107319, "54": 0.008494117642148694, "55": -0.11389620342484857, "56": -0.08255280843481272, "57": 0.1030257297503386, "58": 0.07384622975460442, "59": -0.1635821532734624, "6": 0.15010976470282228, "60": -0.11006303822101546, "61": -0.04705109999317435, "62": 0.031442765663238385, "63": -0.001381187396144077, "64": -0.05868320280999961, "65": -0.05818328232979245, "66": -0.12464330352255937, "67": 0.020266991040447952, "68": -0.013948165020930969, "69": -0.03901322544034588, "7": 0.12343665358859462, "70": 0.07634906362995864, "71": 0.1739741436201892, "72": -0.1283334523637401, "73": -0.05653095681083309, "74": -0.09459066280094793, "8": -0.13982669843530418, "9": -0.14145309380380086}}, {"depth": 3, "sx": 5, "sy": 5, "w": {"0": -0.10494462864254268, "1": -0.16063767002961232, "10": -0.03318429322624972, "11": 0.13783305531911594, "12": -0.055637054185083044, "13": -0.0760663100876648, "14": -0.060540476757381154, "15": 0.2140752064901446, "16": 0.057728911396833386, "17": 0.2618617648633585, "18": -0.030066555771223778, "19": -0.2844679290857439, "2": -0.15372308163399345, "20": -0.09639283935556131, "21": -0.0016627683785487143, "22": -0.012102290936845556, "23": 0.03326368898941443, "24": -0.05688965182881922, "25": 0.06586147606295832, "26": -0.10850847579809088, "27": -0.022973029724981112, "28": 0.008788133305467714, "29": -0.035062583869556276, "3": 0.018239475529038925, "30": -0.0948425357071455, "31": 0.16003192112260117, "32": -0.07188235696567093, "33": 0.2351897926665091, "34": 0.0858716938681171, "35": 0.1699288182155466, "36": 0.11068128224633429, "37": 0.19505811344728635, "38": -0.09486114741354734, "39": 0.0664874563194852, "4": 0.24923149431789188, "40": -0.035032707038109595, "41": -0.08783755603242888, "42": -0.016676939267023735, "43": 0.03314824480577121, "44": -0.08702980171305263, "45": -0.08077031743732448, "46": 0.1185470976725151, "47": 0.07610142375163023, "48": -0.02031149272396996, "49": 0.07706264356633401, "5": 0.2568035592308162, "50": -0.04705988874796202, "51": -0.09663351501561707, "52": 0.07514787095881913, "53": -0.11949514020505116, "54": 0.029674896904834377, "55": 0.14071579857768615, "56": -0.06701582740358068, "57": -0.2759848057180319, "58": 0.049434446959099765, "59": -0.2469037977924719, "6": 0.3653053923123017, "60": 0.02303564827055116, "61": -0.0326784762379147, "62": -0.05333802611467614, "63": -0.10008761302701503, "64": 0.040427290322359186, "65": -0.0020229766486020845, "66": -0.0669070789642087, "67": -0.0017369783988759563, "68": -0.06633199300936406, "69": 0.12831562913666916, "7": -0.00794485150672704, "70": -0.05365369521445236, "71": -0.0393547446060886, "72": 0.1431138163816179, "73": 0.017661034646746232, "74": 0.010003673265740828, "8": 0.033477120896120705, "9": -0.05584813544708925}}, {"depth": 3, "sx": 5, "sy": 5, "w": {"0": -0.07162384150022114, "1": -0.007574630482754047, "10": 0.12911574348159896, "11": 0.019523503370083167, "12": -0.01381182650248269, "13": 0.11480579300675219, "14": -0.22448712451909897, "15": -0.14946415960667198, "16": 0.0015541725056532959, "17": -0.06831325392036397, "18": 0.22040274677980107, "19": 0.02508612194431546, "2": -0.04746952224494206, "20": -0.04516706112052448, "21": -0.071793101272324, "22": 0.09110666818945733, "23": -0.14092905726007587, "24": 0.0477179238362342, "25": -0.06800484651288664, "26": -0.12999308013041405, "27": 0.07759521348023403, "28": -0.1689161542326387, "29": -0.02257928973218205, "3": -0.06485068594494713, "30": 0.0699943409027531, "31": -0.09732800784112391, "32": -0.17415808634396823, "33": 0.04705057860911729, "34": -0.14595319614787353, "35": -0.04287641979860373, "36": -0.1230321765025041, "37": -0.05622363693872493, "38": 0.06527366771109809, "39": 0.09936492763613332, "4": 0.1254723443595463, "40": -0.10805878944232934, "41": -0.11529676177830304, "42": -0.021816270250589638, "43": 0.1466789043989989, "44": 0.20399466425221666, "45": -0.05471336402485748, "46": 0.02464225376633658, "47": -0.09283163015136799, "48": -0.05706976290287302, "49": -0.20618018253002227, "5": -0.24232709047810633, "50": -0.2123937933628919, "51": 0.07306710476002158, "52": 0.12014757560562288, "53": 0.03592566540189761, "54": 0.08666882326752405, "55": 0.020967000589376745, "56": 0.028355461530062447, "57": 0.17686981936002696, "58": 0.11571352192946995, "59": -0.14208462840322914, "6": 0.21209069694993007, "60": 0.004956677954550138, "61": 0.06606374568856146, "62": -0.09722105853247648, "63": 0.0036902191896522806, "64": 0.015135983470776812, "65": -0.22560658625718805, "66": 0.014048906516137825, "67": 0.01546770548019843, "68": -0.16316995141340637, "69": 0.09605562635947656, "7": 0.007495930708019949, "70": 0.17856172463774203, "71": -0.1352413797743358, "72": 0.281342816162112, "73": 0.10236729820202989, "74": -0.09184954245176123, "8": 0.1789720289720184, "9": -0.15287806747432364}}, {"depth": 3, "sx": 5, "sy": 5, "w": {"0": -0.07520877846477274, "1": -0.2309223524029144, "10": -0.16196684098392658, "11": 0.11793551397990866, "12": 0.01800660594176237, "13": -0.028064137962487915, "14": -0.036675201823369696, "15": -0.011263201735362993, "16": -0.038311909641110566, "17": -0.07949238935566935, "18": -0.008737497944286682, "19": -0.1913213895895446, "2": -0.15670829391178198, "20": 0.09329949561877564, "21": -0.04663684651101374, "22": -0.04772989631250446, "23": -0.14380335630116958, "24": 0.09715612587295865, "25": 0.16969719428433155, "26": 0.10002137713187886, "27": 0.03858295386028845, "28": -0.22479344375407329, "29": 0.04694170117942481, "3": 0.1730647363718235, "30": 0.07845704541160002, "31": 0.13443983372501145, "32": 0.06841487632032543, "33": 0.11685973691499084, "34": -0.010476903109850355, "35": 0.13926312160610455, "36": -0.12016680928180437, "37": -0.2894323783315262, "38": 0.09862275925843632, "39": -0.09079251224285383, "4": -0.08250090932749937, "40": -0.09765392249095864, "41": 0.17342093204508435, "42": 0.05568502523001382, "43": -0.022962432272726267, "44": 0.014183675771968508, "45": 0.22754154699502852, "46": 0.0051561511404929275, "47": -0.22290616457864043, "48": 0.12890662015742946, "49": -0.16380228654274845, "5": -0.021192897649560217, "50": 0.05516701282841481, "51": -0.05578529348836174, "52": -0.24978468932130402, "53": 0.08305599543087902, "54": 0.11507123596034177, "55": 0.005229206409004607, "56": 0.20226953707699993, "57": 0.08201706623650105, "58": 0.007181465357691325, "59": 0.148686275910372, "6": -0.03223049975405738, "60": -0.06790809789527379, "61": 0.07654597710608073, "62": 0.08859477373375446, "63": -0.12229726431388363, "64": 0.06108506845561498, "65": 0.05483613638332323, "66": -0.03373537809894736, "67": 0.05172118665868339, "68": -0.006772512514257188, "69": -0.05658419181995673, "7": -0.1378761691296519, "70": -0.15274310155359405, "71": 0.16137187465450673, "72": -0.06228156519462995, "73": 0.11020912435781334, "74": 0.03374784579826235, "8": 0.013547592965963324, "9": 0.1351557594910165}}], "in_depth": 3, "l1_decay_mul": 0, "l2_decay_mul": 1, "layer_type": "conv", "out_depth": 16, "out_sx": 32, "out_sy": 32, "pad": 2, "stride": 1, "sx": 5, "sy": 5}, {"layer_type": "relu", "out_depth": 16, "out_sx": 32, "out_sy": 32}, {"in_depth": 16, "layer_type": "pool", "out_depth": 16, "out_sx": 16, "out_sy": 16, "pad": 0, "stride": 2, "sx": 2, "sy": 2}, {"biases": {"depth": 20, "sx": 1, "sy": 1, "w": {"0": 0.15908326825320215, "1": 0.14273536446153634, "10": 0.05410414102130165, "11": 0.15033436909091327, "12": 0.17528056357988184, "13": 0.04341786164772262, "14": 0.02998772077761111, "15": 0.07430146357140019, "16": 0.14422565083132588, "17": 0.14529670687860186, "18": 0.10597125730545572, "19": 0.09605454048613044, "2": 0.1225020382317536, "3": 0.11228848333156458, "4": -0.008628600402051512, "5": 0.1297346988613576, "6": 0.06176006636458792, "7": 0.1014461349104852, "8": 0.15034821314169633, "9": 0.10647040379147138}}, "filters": [{"depth": 16, "sx": 5, "sy": 5, "w": {"0": -0.04213911793090862, "1": -0.03692434205761303, "10": -0.016945778984526535, "100": 0.05640552249492244, "101": 0.06402677296500163, "102": 0.0699171722504618, "103": -0.14289288138843326, "104": -0.045713476815944745, "105": -0.03580907126186247, "106": 0.03516452133448758, "107": -0.008784640599820233, "108": -0.05046196400804783, "109": -0.053357630952732, "11": -0.006119989944823635, "110": 0.020641604999142936, "111": -0.0788356530493277, "112": -0.008920387549803808, "113": 0.01469282543382911, "114": -0.031006603277242153, "115": -0.07187994068563164, "116": -0.05752009947723701, "117": 0.04663405671840489, "118": 0.00449591706407599, "119": -0.060704956875797654, "12": 0.0245285045730494, "120": 0.03919790940708426, "121": -0.06271344863727477, "122": -0.0775283044189009, "123": 0.040780876351583444, "124": -0.02789662329668418, "125": -0.04627167208167707, "126": -0.05148261344030422, "127": -0.059404669395004106, "128": -0.021983447070051513, "129": 0.084628761809416, "13": -0.07888059055541166, "130": -0.04260658971632001, "131": -0.02699006284239953, "132": 0.01629144747108076, "133": -0.003624628513996176, "134": -0.04169929470370401, "135": -0.05444092393381887, "136": -0.006897360869659131, "137": 0.029422421095420797, "138": -0.04465199212931777, "139": 0.06361748054236763, "14": -0.041598656785512264, "140": -0.007996712721959554, "141": -0.038738042493813574, "142": -0.09355980316086841, "143": -0.02133371554411726, "144": 0.028196398191393097, "145": -0.07277007048958, "146": -0.0033701512845269207, "147": 0.07944106374381185, "148": -0.039284603650475536, "149": 0.011296561770481477, "15": 0.029329643662668027, "150": 0.002708527174441531, "151": -0.02751027549103398, "152": -0.07392816441787403, "153": -0.003645919666542534, "154": -0.1445149261122044, "155": -0.04925738830909969, "156": -0.050506913527926675, "157": -0.032539444670994226, "158": 0.0035590659934150483, "159": -0.040709110614352145, "16": -0.10897021473969462, "160": -0.05554588474067255, "161": -0.06465827926736657, "162": -0.08902291341887289, "163": -0.08413666081977902, "164": 0.013459145214732926, "165": -0.013757513386276173, "166": -0.16009909735675967, "167": -0.11867319793631667, "168": -0.15145082285463254, "169": 0.008561363838739712, "17": -0.0725946391426144, "170": -0.08667365457978772, "171": -0.04875541635066633, "172": -0.015138033071328988, "173": -0.04595042199007799, "174": -0.017551116040926674, "175": -0.04103261605664279, "176": -0.049417843674971276, "177": -0.017473393283068794, "178": -0.01781049901099306, "179": -0.021160102937425984, "18": -0.07724068481200833, "180": 0.028168479844689304, "181": -0.04151617177508723, "182": -0.03766252556760214, "183": -0.020987828353056272, "184": -0.05586379130880927, "185": -0.04788090977681035, "186": 0.011987398954285697, "187": -0.08177644389760452, "188": -0.04816706363165714, "189": -0.03096869649954526, "19": 0.1478410059528365, "190": 0.01230982769967881, "191": -0.026802293655182413, "192": -0.03381200209103206, "193": -0.05383612860698299, "194": -0.08314901826457943, "195": 0.043042949346841344, "196": 0.07416976529863074, "197": -0.08598839322940979, "198": -0.062379266816874744, "199": -0.0666999359723946, "2": 0.12329844433152412, "20": 0.12583800028355763, "200": -0.0053602419926560355, "201": 0.05109831054020406, "202": -0.03159338318285131, "203": 0.07960679684555463, "204": 0.05514418608433782, "205": -0.10662818801600095, "206": -0.008819969326497704, "207": 0.03998116610759583, "208": 0.02299608806791559, "209": -0.01092766463116634, "21": -0.17137840596234252, "210": 0.01356382014065132, "211": -0.008812628612170735, "212": 0.012808540814390425, "213": 0.1038380799098099, "214": -0.10078633071690894, "215": -0.12650076650368433, "216": -0.0388001370293284, "217": 0.008804913119792309, "218": -0.04628282907135613, "219": 0.007618008852766671, "22": -0.07354827799093398, "220": 0.05305401427318601, "221": -0.05050588560868415, "222": -0.09635648973442529, "223": 0.05538650989548687, "224": 0.013630811405462188, "225": -0.0031162654461470794, "226": -0.05047384144275435, "227": -0.1057661318073977, "228": 0.04428857507348545, "229": 0.04713347853663257, "23": -0.03164852494442239, "230": -0.028492571462708716, "231": -0.09653112076206793, "232": -0.0299229920694438, "233": 0.07769865405479255, "234": 0.0751811213599437, "235": -0.06317210249534215, "236": -0.00015719530646552207, "237": -0.04494738347439333, "238": -0.007613100494189833, "239": 0.07471745738375235, "24": -0.0536380095820997, "240": -0.09704304798445551, "241": 0.005988547254128751, "242": 0.02800239788914887, "243": -0.017923119396544094, "244": 0.02770798191918103, "245": 0.046530997763781105, "246": -0.1002551013948159, "247": -0.042144129061033375, "248": -0.05805649309271131, "249": -0.012689927076253424, "25": -0.003544381776905737, "250": -0.10050252754597203, "251": 0.021380296533848858, "252": -0.04515230452117692, "253": -0.009658050869185489, "254": -0.026801719313541666, "255": 0.009955874868889561, "256": -0.00759935296787652, "257": -0.07869186573692047, "258": 0.004388530580756462, "259": 0.06493723207358504, "26": -0.016784012083490632, "260": -0.1662957225688847, "261": -0.0272898235219037, "262": -0.05061142819540576, "263": -0.01057884619848197, "264": 0.0073116855158267555, "265": 0.03332187176708794, "266": -0.036868431397830505, "267": -0.07256586373970415, "268": -0.06779096579919539, "269": -0.020166742406540875, "27": 0.006542450513851874, "270": -0.11571077894043222, "271": -0.02034115590696101, "272": 0.01827847173457132, "273": -0.029299347752994406, "274": -0.058335334169410474, "275": 0.10381123885409373, "276": 0.06214423207360133, "277": 0.057554984843253804, "278": 0.029880373332138128, "279": -0.13572523298777137, "28": 0.012490514506454713, "280": 0.0760131542920967, "281": -0.04416995933089189, "282": 0.005735272623587294, "283": -0.02046032410097929, "284": -0.10031179477236236, "285": 0.05812360074916057, "286": -0.03882923665900821, "287": -0.05708687985805584, "288": -0.0027697688750697924, "289": -0.046110624263006404, "29": -0.04212303406679629, "290": 0.03055535025513399, "291": 0.009033675303946631, "292": 0.04399244341011529, "293": 0.051189602019456375, "294": -0.018127290602990703, "295": -0.04370157318877509, "296": -0.1294229039643878, "297": -0.03762514164186157, "298": -0.058513388070776856, "299": -0.0993834161088632, "3": 0.03075781024653409, "30": 0.04817127077521925, "300": -0.03437343015391216, "301": 0.016624210250214298, "302": -0.12306462381494764, "303": -0.03490597209813815, "304": -0.0055000733040835685, "305": -0.030198963819360436, "306": -0.00600436319736174, "307": -0.004647883038641924, "308": 0.025191708650596, "309": 0.11204119072541288, "31": 0.06855979449173305, "310": -0.08953902818152462, "311": -0.06507362275824485, "312": 0.023722526797112623, "313": -0.035505778832800435, "314": -0.00443927339310609, "315": 0.05742866146195812, "316": 0.014556260063492263, "317": -0.04098526159632922, "318": -0.02607199705124764, "319": 0.011389418695023622, "32": -0.07094834404179884, "320": 0.03350590841326684, "321": 0.05784689464692447, "322": -0.08485514868396687, "323": -0.113029626838859, "324": 0.07354480160802414, "325": 0.01976031266074332, "326": -0.09352355081046042, "327": -0.04945461320585809, "328": 0.006584189102212578, "329": -0.10980995874934961, "33": 0.027404367500260308, "330": -0.09365878244810748, "331": -0.10398326822552714, "332": -0.024457035526403548, "333": -0.040349163921316024, "334": -0.10625165137054103, "335": -0.002366158313439924, "336": -0.041769584253672894, "337": 0.0698598185244414, "338": -0.04344636781899617, "339": 0.031936934520169255, "34": -0.005323704924830597, "340": 0.07446264119845904, "341": -0.03331995825377653, "342": -0.06514643004427924, "343": -0.072608283674288, "344": -0.09925635968888162, "345": 0.015199429840150087, "346": -0.014569249859566136, "347": -0.018878656245179228, "348": -0.027285230852063375, "349": 0.03314675674708725, "35": -0.01833811738024902, "350": -0.023341285148297714, "351": -0.12190708706999091, "352": -0.06264690756047762, "353": -0.01888515122114504, "354": -0.12971639613102848, "355": 0.033144372240167, "356": 0.0036611199157178544, "357": -0.00030183153543112285, "358": -0.08663330024875103, "359": -0.06638577581046427, "36": 0.0866908127232179, "360": -0.052647499880792065, "361": -0.04357227067621008, "362": 0.015329971971564096, "363": -0.061017547050255284, "364": -0.01461939216642322, "365": -0.0040672255232359145, "366": 0.0925499367388987, "367": 0.013532888161112585, "368": 0.01850062580012412, "369": -0.03807201276053551, "37": -0.05135615154120299, "370": -0.07580215840733505, "371": 0.11521218839830549, "372": 0.0011676602738555474, "373": -0.004671384247950824, "374": 0.04049383935906155, "375": -0.0025080818401599678, "376": -0.009913582783393845, "377": -0.0907293328199805, "378": -0.1274375383784607, "379": 0.058692056714412646, "38": -0.043991023559904446, "380": -0.01107603348060213, "381": -0.01156097558123453, "382": -0.028903659855177666, "383": -0.01769616011232027, "384": 0.06055880794633796, "385": 0.03687078926438175, "386": -0.019932570102114355, "387": 0.026997746826010055, "388": -0.007761187933018409, "389": 0.07980081190207965, "39": -0.06224794720582416, "390": -0.02997742064096431, "391": -0.13143156355007243, "392": -0.05486659439227085, "393": -0.024983200053861503, "394": -0.019517059707390042, "395": 0.03772764133682725, "396": 0.06564598490160783, "397": -0.011633899218382907, "398": 0.004833087698214318, "399": -0.021202237089477362, "4": 0.011168521636180836, "40": 0.056342306930849524, "41": -0.08801574864802104, "42": -0.03289271623350596, "43": 0.005062281046960047, "44": -0.021349340419728243, "45": -0.07602544363362898, "46": -0.04059100953532907, "47": 0.08082498990139553, "48": -0.043516924113196694, "49": -0.019217420315787676, "5": -0.03467158976427372, "50": -0.06691997117166701, "51": -0.04351311228367535, "52": 0.11588013786324844, "53": -0.05235178981091566, "54": -0.017971833230074313, "55": 0.01393131696986965, "56": 0.0061761599074633255, "57": -0.0778654090605989, "58": -0.06889691044944077, "59": 0.04862760905480616, "6": 0.005762853638736791, "60": -0.03726984820790957, "61": 0.024344577723527914, "62": -0.03790774098959093, "63": 0.10826850283158952, "64": -0.0027576940530259714, "65": 0.01635468906365859, "66": 0.08829009918758934, "67": 0.04711702549087342, "68": -0.021973232203710523, "69": -0.007624326284504546, "7": -0.04293693956374321, "70": -0.1521998335158522, "71": -0.047675066491909356, "72": 0.08498935061690252, "73": -0.06001703965186348, "74": -0.1785526091767211, "75": 0.021491774200043688, "76": 0.019015184838951198, "77": -0.04724255443005199, "78": -0.13040343092675777, "79": 0.02100826471678125, "8": 0.00014305849565290844, "80": 0.0059979086816120564, "81": -0.018868231263389892, "82": 0.019471213248840224, "83": -0.06505405518291237, "84": 0.013173765818812543, "85": -0.024100151290602497, "86": -0.08034802783858629, "87": -0.043821857374242316, "88": -0.08387914054500732, "89": -0.1284846477071882, "9": 0.0310545649285122, "90": -0.09875456316895664, "91": 0.009633516982050006, "92": -0.042537340812599626, "93": -0.002416849499633634, "94": -0.18533060011305333, "95": -0.008497065699191599, "96": -0.09862057439886661, "97": -0.029632510407209833, "98": -0.1360297320643522, "99": -0.03137421640355129}}, {"depth": 16, "sx": 5, "sy": 5, "w": {"0": -0.04793950804439211, "1": -0.07596234519797877, "10": -0.048727180175109894, "100": -0.0345830365881907, "101": -0.05604375063808055, "102": 0.05511582280223116, "103": 0.05273873750217574, "104": 0.021977924243178616, "105": 0.009988669711675864, "106": -0.04653363225784919, "107": -0.005787494315240679, "108": -0.0041189355766748665, "109": -0.1101650605369804, "11": -0.07817003761616816, "110": -0.053543621927143535, "111": -0.0015226292925776092, "112": 0.07650850293665537, "113": 0.02251124014033055, "114": 0.005304915056232407, "115": -0.07467043075968607, "116": -0.03656371353771041, "117": 0.01875159126163713, "118": 0.025170682548292148, "119": 0.05350738643464277, "12": -0.06964172775544422, "120": -0.03436215164249551, "121": -0.04441851754152885, "122": 0.013229258719669304, "123": -0.06790963849261553, "124": 0.036075740562319984, "125": 0.031598083669983935, "126": 0.00910842443175085, "127": 0.0059681353524457985, "128": -0.018298402691310774, "129": -0.16916769348063504, "13": -0.07604970674752765, "130": -0.11136749185892732, "131": 0.02446358748712904, "132": -0.03382978381882523, "133": -0.036601833601125205, "134": -0.05848976010206905, "135": -0.0010030344247813129, "136": -0.06953182306806073, "137": -0.09121925478368936, "138": -0.05889594458652856, "139": -0.1084424284086634, "14": -0.016688074594119244, "140": 0.005990404821351544, "141": -0.043509789205171435, "142": 0.003461926504264497, "143": -0.03541494194779044, "144": 0.03156530421571449, "145": 0.004023328012312059, "146": -0.05069260107796341, "147": 0.0050120795215977025, "148": 0.018930136647691078, "149": -0.07339263699369247, "15": -0.024907794651934205, "150": -0.07087572895210048, "151": 0.031239207065669638, "152": -0.02886703302543493, "153": -0.05066285510994496, "154": -0.04230884655839848, "155": 0.03961223509492615, "156": 0.07470475395426299, "157": 0.022721529325497786, "158": -0.07381597843499955, "159": 0.006163362680858144, "16": 0.05812192904978105, "160": 0.04492253422934654, "161": -0.06507382142188224, "162": 0.028487116781147015, "163": -0.009562966522100506, "164": -0.13339424809994677, "165": -0.06881593667193864, "166": -0.027685890329570955, "167": -0.03533657692933957, "168": -0.1501439833380511, "169": -0.045287780108256966, "17": 0.04576753992629049, "170": -0.07111715697577957, "171": 0.05310937893560477, "172": 0.046810166927358524, "173": -0.0479693891089927, "174": 0.019079505490915354, "175": -0.012598793454870525, "176": -0.06794591729603618, "177": 0.045018472926400085, "178": -0.0027748913655263165, "179": -0.0660336976228626, "18": -0.0011582695819059587, "180": -0.025081400686939412, "181": 0.04110022019281805, "182": -0.034367250855608066, "183": -0.005400901223964769, "184": -0.04444543695299701, "185": -0.04954243821454891, "186": -0.15355336512471598, "187": 0.0495790826698963, "188": -0.07555338232678528, "189": -0.034469502685498025, "19": -0.06186726557181955, "190": 0.054281096651477664, "191": -0.058305205495362444, "192": -0.006247998667683797, "193": 0.0431314322578951, "194": -0.002739310563081313, "195": -0.00026049478691777395, "196": -0.006659713306701655, "197": -0.0163015487558257, "198": -0.07397624419268159, "199": -0.019006265396711405, "2": -0.06864461451177764, "20": -0.08069517313907368, "200": -0.05333934871852233, "201": 0.04228286285980415, "202": -0.03217333332949113, "203": 0.04084624025984481, "204": 0.01974966739327573, "205": -0.06106894302906515, "206": -0.009495614678464385, "207": -0.015242469571642443, "208": -0.03154163718748199, "209": 0.004654906602716076, "21": -0.0032385194750411384, "210": -0.07241390061574751, "211": -0.0978382329258047, "212": -0.0719877111495185, "213": 0.02855015318783362, "214": -0.10376151335683952, "215": -0.032692642889675785, "216": -0.056195996785152774, "217": -0.013551412608792078, "218": -0.013173322638445898, "219": -0.06443905262012152, "22": 0.00880596817355995, "220": -0.043581358850677314, "221": 0.003376566699505917, "222": 0.049854838110371634, "223": -0.031935108869903465, "224": 0.01973034004294762, "225": -0.1141194587000796, "226": -0.018913981727702093, "227": -0.08343391870596618, "228": -0.09291590378012932, "229": 0.007911591197572157, "23": 0.017837240627673435, "230": -0.03993683360269098, "231": -0.06627242848265101, "232": -0.02588265527628883, "233": -0.08891786716865946, "234": -0.02024552188605737, "235": 0.03261527833981297, "236": 0.008983582493845595, "237": 0.038360943719092974, "238": -0.024672528393903336, "239": -0.014307242091812583, "24": -0.06070165379465249, "240": -0.0008669548702147093, "241": -0.03513249111287677, "242": -0.07375031033330186, "243": -0.03531923553262681, "244": -0.06159206325748182, "245": -0.0022724145324083773, "246": -0.010635511513258564, "247": 0.00885930339003022, "248": -0.11972868681716858, "249": -0.028727723344256082, "25": 0.05027028521687547, "250": 0.01752646526024867, "251": 0.05812708483537423, "252": -0.021137670001694732, "253": 0.0037294316017041714, "254": 0.012745630805635542, "255": -0.11143943660030509, "256": 0.07665803930622973, "257": 0.0006736170217065952, "258": -0.03473422606288312, "259": 0.006983269498309018, "26": 0.05002369154290638, "260": 0.012269476836725465, "261": -0.03701157957321314, "262": -0.05724470657998673, "263": 0.11985113764082883, "264": -0.0814815871110342, "265": -0.008698042688483468, "266": -0.03268976493698049, "267": -0.09466072086303434, "268": -0.023480254122149023, "269": -0.02014863210471059, "27": 0.01568859012261691, "270": 0.07992225887582492, "271": 0.02253960727274224, "272": -0.06885469437027981, "273": -0.022970275498593182, "274": -0.014710006087235904, "275": -0.09925942297656577, "276": -0.11095102121980903, "277": -0.03166371209728363, "278": 0.01244335933314605, "279": -0.021628191993529552, "28": -0.06716320924933153, "280": -0.06681075456975263, "281": -0.0652768092587395, "282": -0.02845185131009158, "283": -0.027983439469731343, "284": -0.017894477753661948, "285": -0.009566879959056716, "286": -0.04141356298222551, "287": -0.08289033840875112, "288": -0.07032375437274759, "289": -0.03444835437477712, "29": 0.006764473746492354, "290": -0.08268351964368117, "291": -0.07138692854835613, "292": -0.028543249956066625, "293": 0.07616215230989884, "294": -0.020124248336781447, "295": -0.13210145898797132, "296": -0.0388767798832274, "297": -0.058862603307759144, "298": -0.06205446292519512, "299": 0.003800350444502149, "3": -0.058990765148569366, "30": -0.06970442918827782, "300": -0.04301195567029179, "301": -0.006387960717407788, "302": 0.0035119597164061395, "303": -0.001993696961546586, "304": 0.06552298886174465, "305": -0.04948235271000305, "306": 0.019446585400998882, "307": -0.06155434962931953, "308": -0.04547032298502799, "309": -0.04266378869785866, "31": 0.04397056003938633, "310": -0.014943083690232744, "311": 0.03354093626815528, "312": -0.10718510351321638, "313": -0.1216188513031128, "314": -0.03104705186372333, "315": -0.01852688173116324, "316": 0.019019122087967764, "317": -0.10821276251269368, "318": 0.022263510135948874, "319": 0.02753575909848108, "32": 0.05766431708649857, "320": 0.0342324907273598, "321": -0.06726616642958846, "322": -0.12456210652887657, "323": -0.0065751301350602176, "324": 0.0073089545102511585, "325": 0.057164470144686515, "326": -0.0061949608103741985, "327": 0.018660237149992022, "328": -0.20481197681052296, "329": -0.04009422863535134, "33": 0.01022667372729553, "330": -0.0561064889984443, "331": -0.031579323370263625, "332": -0.1479724765721266, "333": 0.038016401483730214, "334": 0.04521852018978267, "335": -0.014511405060164868, "336": 0.03327709403902417, "337": 0.036961037586988904, "338": 0.015729070526306812, "339": 0.05462822079606166, "34": -0.097009027953438, "340": -0.016968045435950766, "341": 0.037520731271508144, "342": -0.043174467607715344, "343": 0.04187859958384587, "344": -0.01646460022735082, "345": 0.040611432642245475, "346": -0.11453939483243958, "347": -0.10943447548089337, "348": 0.01377231396062003, "349": 0.0714778186467236, "35": 0.05681093216349362, "350": 0.0708651708638811, "351": -0.07517745390963661, "352": 0.06494562343978524, "353": -0.03535477558584484, "354": -0.1372327318815796, "355": -0.09009415561211107, "356": -0.03049832507280749, "357": 0.039669050358679785, "358": 0.06049787473857033, "359": 0.013144418863481905, "36": -0.03068451919263473, "360": -0.01799081442334517, "361": -0.11626935874977533, "362": -0.019942368397790965, "363": 0.045535949069684896, "364": -0.10624213028765413, "365": -0.005425895694867392, "366": 0.04352580995814564, "367": -0.03142963640900791, "368": 0.02123116402720593, "369": -0.10085417784650116, "37": -0.010983598811577127, "370": -0.006503229983263924, "371": -0.01661696110348664, "372": -0.058564695623590686, "373": -0.008328650008950719, "374": -0.08955050492117697, "375": 0.03894986420235164, "376": -0.060132788468628566, "377": 0.06639139732805092, "378": -0.07415755652910312, "379": 0.07921910040903257, "38": -0.0064580914445703606, "380": 0.043938267905074574, "381": -0.08159013811151788, "382": 0.002797901690394419, "383": -0.01648205968573125, "384": -0.02370374280742208, "385": -0.04983920317629049, "386": -0.019024934262929758, "387": -0.023224479403081845, "388": 0.06282152531842458, "389": -0.08774989028789755, "39": 0.008948411017628959, "390": -0.0003836605432976517, "391": 0.002076235920303715, "392": -0.04851520329719189, "393": -0.029884694238811026, "394": -0.05992057364700658, "395": -0.01211542785686975, "396": -0.027498117728882627, "397": 0.0363709456594971, "398": -0.019866648028126297, "399": -0.0551128516263284, "4": -0.023933330402720356, "40": -0.006544066083533005, "41": -0.07628112596333433, "42": 0.00790167567747026, "43": 0.012679029816173122, "44": -0.09930413120964335, "45": -0.023220624408067242, "46": -0.015854360777692172, "47": -0.026906798639174098, "48": 0.04410544220815106, "49": -0.046696171852417215, "5": 0.079322881241572, "50": -0.11890642265117425, "51": -0.07107882724351706, "52": -0.0768450287994892, "53": 0.05755297193244654, "54": -0.08709803977569584, "55": 0.013995585179278618, "56": -0.11902428941300366, "57": -0.06320654765537081, "58": -0.05253537839167328, "59": -0.034576771861435394, "6": -0.011968531343718955, "60": -0.04222001283684341, "61": -0.0030499016990656156, "62": 0.014460467040618716, "63": -0.09342048625874182, "64": -0.02889382089974012, "65": -0.012460784268982016, "66": -0.16025190848606896, "67": -0.046752111297026264, "68": -0.0766430584589366, "69": 0.050386415733050985, "7": -0.008300390442415708, "70": -0.13189552926906473, "71": -0.00850853978866315, "72": -0.050523893208375054, "73": -0.028278890890479583, "74": -0.10095265407558025, "75": -0.11348169036362882, "76": -0.06362646796557145, "77": -0.11881146761528513, "78": -0.055211263815638775, "79": -0.05822698131661065, "8": -0.07980005300423604, "80": -0.05514185270971166, "81": -0.03475923882715131, "82": -0.023928504674729654, "83": -0.10445024161042833, "84": -0.14251713374304723, "85": -0.02790854036703272, "86": -0.04293658614136359, "87": -0.011509728195457468, "88": -0.047857041876692555, "89": -0.08076904375791143, "9": -0.06795503712031731, "90": 0.04393527759369276, "91": 0.10161994324678622, "92": -0.030207710163778937, "93": -0.11083794787414895, "94": -0.060434137291329564, "95": -0.07847971192966022, "96": -0.07394858250812823, "97": 0.08345977076507359, "98": -0.01888030841470121, "99": -0.03650764006664018}}, {"depth": 16, "sx": 5, "sy": 5, "w": {"0": -0.10647757019741498, "1": -0.05520087880838666, "10": -0.04702280533485849, "100": 0.12360515509521679, "101": -0.02842314015518336, "102": -0.08861583651841214, "103": -0.05567276876191943, "104": -0.001994415522037051, "105": -0.0515809260952358, "106": -0.0400858438356423, "107": -0.07831303729312172, "108": -0.04481462801156257, "109": 0.041217143250299924, "11": 0.02505727049916333, "110": 0.01167343580109135, "111": -0.01491995575688127, "112": -0.06371024215060797, "113": -0.041639117709588384, "114": 0.15410415620727788, "115": -0.07028794592568326, "116": 0.10912280177399912, "117": -0.058021480923166106, "118": -0.15086208380622762, "119": 0.03608570544695115, "12": -0.014925312462722183, "120": 0.15414533857897578, "121": -0.11842349856416463, "122": -0.05612654397423588, "123": -0.03886040122025989, "124": -0.06210596854246333, "125": 0.023789468428847448, "126": -0.020938755194409065, "127": -0.09600744398213738, "128": -0.03280738024693194, "129": 0.04424420578211536, "13": 0.05502974712774504, "130": 0.11063327293536895, "131": 0.17049316150944835, "132": 0.13705619049987067, "133": -0.07767415975566351, "134": -0.17982586529567687, "135": -0.0071317045377573655, "136": 0.04657231818133412, "137": -0.11403410901609665, "138": -0.02510625176424362, "139": 0.01684243181247236, "14": -0.04946999572689556, "140": 0.06756275594396442, "141": -0.0004243848454822815, "142": 0.03466713798072653, "143": 0.0335865153279819, "144": 0.08405250908248241, "145": 0.05471484009514765, "146": -0.04439268856735115, "147": 0.04950731396377131, "148": 0.16488118497886184, "149": -0.08886051943028234, "15": 0.04290954306238243, "150": -0.017986746821296102, "151": -0.043466807895430094, "152": -0.054753735603792125, "153": 0.017083265641198265, "154": 0.011403064427207909, "155": -0.15256004646738178, "156": 0.078916988457578, "157": -0.06361581599622672, "158": 0.0170068670609677, "159": 0.09891392383092384, "16": -0.0950019780240734, "160": 0.06557479456549492, "161": -0.11456927354006256, "162": -0.037035868771029316, "163": -0.10784804301988912, "164": -0.05187041877397869, "165": -0.06498192698905879, "166": -0.14872445858117955, "167": -0.04546394432848247, "168": -0.018935043141607263, "169": -0.06892749328295206, "17": -0.02508555095709391, "170": -0.18659821152712822, "171": -0.06573849758672681, "172": -0.08592248691821532, "173": 0.0659651140748895, "174": -0.011678277094904599, "175": -0.004725482224000034, "176": 0.020480479744362286, "177": -0.018217691438635712, "178": -0.019476113286410534, "179": -0.060568707191334545, "18": -0.007095067117262734, "180": -0.004707298993812586, "181": -0.07358558013803021, "182": -0.12633498705917415, "183": -0.06830961971147083, "184": 0.002829688444574263, "185": 0.026148385957561988, "186": -0.15295876194291194, "187": 0.055165617085825444, "188": -0.07539740583234181, "189": -0.004813375208936992, "19": -0.011089806262219195, "190": 0.033680279948957385, "191": -0.001108479194614465, "192": -0.01299848320584919, "193": -0.0997471965421686, "194": 0.12096911972845716, "195": -0.1683962932753525, "196": -0.06311535508361087, "197": -0.010965424163245491, "198": -0.06670865999125385, "199": 0.05014271466440755, "2": -0.016585121952496996, "20": 0.12859844428803188, "200": 0.0346254204345872, "201": -0.0449216906351242, "202": -0.12883071766719315, "203": 0.07462743350678452, "204": 0.008463820984243009, "205": 0.1009363776297387, "206": -0.028374671142863687, "207": 0.0008869921426433072, "208": -0.0494753068239048, "209": -0.045566415450424926, "21": 0.02565968423902131, "210": -0.03571342557882876, "211": -0.021530704514541185, "212": 0.011382876700405966, "213": -0.16215384128388496, "214": -0.08428229913417196, "215": 0.09607228345872468, "216": 0.04167423786149199, "217": -0.06066083268150437, "218": -0.10015654126792949, "219": -0.00470257269469305, "22": -0.025607318426451083, "220": -0.02539820676536136, "221": 0.047707467391987286, "222": -0.0247395112061446, "223": 0.027488355036116227, "224": -0.026484263843560864, "225": -0.04740022200714291, "226": -0.04045628062283574, "227": -0.1570153239507978, "228": -0.017263860555484217, "229": -0.18138442448422618, "23": 0.009641115773915673, "230": -0.12600362468583576, "231": 0.011748778686059278, "232": -0.03085833317407869, "233": 0.01732190245566803, "234": 0.038481924216795096, "235": -0.04427509132876353, "236": -0.06351393857194361, "237": 0.03441670440886098, "238": 0.10662476929700641, "239": 0.048082194211469004, "24": 0.025479904761237397, "240": -0.17462586258938687, "241": -0.04725049365497524, "242": -0.18983825403169147, "243": -0.06757610692684232, "244": -0.1082114793737657, "245": -0.11216420340588198, "246": -0.10209602247009245, "247": -0.17941866590022437, "248": -0.17414718230341628, "249": -0.08569523368107144, "25": 0.047830919376035834, "250": -0.20425033164037437, "251": -0.061208040747723555, "252": -0.04554687775674456, "253": -0.048429339973274074, "254": -0.026911373811917133, "255": -0.013259570403090018, "256": -0.11445667062961955, "257": -0.00011426325757630684, "258": -0.02764255046196575, "259": 0.007060969468612081, "26": -0.0010751406777871628, "260": -0.14147670437822865, "261": -0.06706480860590278, "262": -0.05376464885034516, "263": 0.026492388068796502, "264": -0.1367137632268724, "265": -0.0584951097325967, "266": -0.0672290517767871, "267": -0.06065242093988898, "268": -0.042614980345537894, "269": -0.022890209388201316, "27": 0.023484100096647594, "270": 3.281838480940726e-05, "271": -0.04068504899703826, "272": 0.0017577511839019875, "273": -0.0570795930672156, "274": 0.03122604092160483, "275": -0.1781567357745213, "276": 0.006065361234574277, "277": 0.04547175891004552, "278": 0.039753506187530895, "279": 0.07910007614097819, "28": -0.023034757197831653, "280": 0.04906710064493352, "281": -0.029031909487166805, "282": -0.05329038075541781, "283": -0.05320905612980687, "284": 0.032961321857588544, "285": -0.1047603491153606, "286": -0.028130474296855557, "287": -0.12584825099768404, "288": 0.048193587229702364, "289": 0.018438048968407957, "29": 0.13458178196339646, "290": -0.03728333513483209, "291": -0.05283108872749972, "292": -0.09971317271594188, "293": -0.1512222040294378, "294": -0.025458542941792894, "295": -0.009241254251349721, "296": -0.08843913610841715, "297": 0.034918294137379874, "298": -0.12619381410442096, "299": -0.011025371381901301, "3": 0.13859755796353793, "30": -0.02277040167830592, "300": -0.07943546043120961, "301": -0.07803068366993426, "302": 0.08432159383900893, "303": 0.04015101833045919, "304": -0.05276063083780014, "305": -0.026896239680857508, "306": 0.022854678338866424, "307": -0.013776298089366042, "308": -0.06507948369902149, "309": -0.07899789917130447, "31": 0.07426457775410356, "310": -0.012004124928759166, "311": 0.04993347851425604, "312": -0.03624576770459371, "313": 0.006843059764200608, "314": -0.022091747771604647, "315": -0.09901051375034567, "316": -0.006561639608424272, "317": -0.11321665972783264, "318": -0.05875906604151078, "319": -0.09701937111567628, "32": -0.15750269206467654, "320": 0.09695532680309861, "321": -0.08150637523291666, "322": -0.13828537675573838, "323": -0.12061097180121934, "324": -0.13167755113341792, "325": -0.10010271145713188, "326": 0.0006955999459476898, "327": -0.06608698782839167, "328": -0.08002912622550169, "329": -0.0545413471942399, "33": 0.08572896167573028, "330": -0.09826043396045492, "331": -0.032849034099476794, "332": -0.10258491089218635, "333": -0.08734188479085245, "334": -0.05727566952926869, "335": -0.12177342823062146, "336": -0.08536496000716808, "337": -0.08578291752380636, "338": -0.10012278299614602, "339": 0.014037120453883625, "34": 0.05921100051892609, "340": 0.03444531354944534, "341": -0.05025765313112392, "342": -0.18898055960582988, "343": -0.1718467725949539, "344": -0.08890371265443939, "345": 0.029962720630272784, "346": -0.01986013434683747, "347": 0.010949159033212936, "348": -0.038029142475588584, "349": -0.024679798507878766, "35": 0.07528582137152011, "350": -0.056397515339253246, "351": 0.026869614558022316, "352": -0.20578330265952163, "353": 0.07255197688864196, "354": 0.09619821405843493, "355": -0.039867693681156856, "356": -0.17295831331598008, "357": -0.01756823063880166, "358": 0.037746959650835875, "359": 0.15100131991207122, "36": 0.1234302193328859, "360": 0.057039283691974876, "361": 0.10193687933822355, "362": -0.08912357161257453, "363": -0.04954235538677403, "364": -0.06504423618295935, "365": -0.09921569788005252, "366": -0.05022808744014459, "367": -0.1388467551057281, "368": -0.00210621883157256, "369": -0.08780735164034559, "37": -0.0305649297419472, "370": -0.09353816693509032, "371": 0.02366195184038451, "372": -0.1315967182680156, "373": -0.08610677184975866, "374": -0.040255545321709475, "375": -0.05842132033763338, "376": -0.11162464383251672, "377": -0.12760613769560114, "378": 0.05996931612874159, "379": -0.12092656220414771, "38": -0.10580921546523725, "380": 0.022929829739376847, "381": 0.009548249734166552, "382": -0.0017411156720401925, "383": -0.05540502867992791, "384": -0.051393320967754626, "385": -0.08524256345140618, "386": -0.029976328868585932, "387": 0.0873306694681607, "388": -0.049444495635128635, "389": -0.043137220421831816, "39": 0.0162299721101684, "390": -0.04743977582672062, "391": 0.03491509743989285, "392": -0.016571903286424498, "393": 0.008373483308790012, "394": -0.03999042438865622, "395": -0.12140904616804563, "396": -0.14167577220785732, "397": 0.004233888777587122, "398": 0.012290443804748884, "399": -0.0538470224784591, "4": 0.011706871865303078, "40": 0.12055658036585365, "41": -0.007797917059030487, "42": 0.06441963042452739, "43": -0.02517964855617693, "44": 0.07515574036744199, "45": 0.009812223077735575, "46": -0.02408763619241566, "47": 0.020408785131559845, "48": -0.1201031851277067, "49": -0.0496695799696095, "5": 0.06846365970114572, "50": -0.05510233620747067, "51": 0.04708643844766475, "52": 0.11119709709150268, "53": -0.07035870915062084, "54": -0.1836435768069423, "55": -0.12700905366848572, "56": 0.050647038107021175, "57": -0.005719807724078685, "58": 0.08831052078858037, "59": -0.0441323427347191, "6": 0.01779926395494922, "60": 0.043935079035927464, "61": 0.013989971862711476, "62": 0.02026523660143283, "63": -0.03205871657862112, "64": -0.035290448583390296, "65": 0.001731929683512275, "66": 0.007947692026551883, "67": 0.028569458630834932, "68": 0.11391353142606189, "69": -0.05496110768489735, "7": -0.04275443953600459, "70": 0.08011946249244874, "71": -0.10675690170026414, "72": 0.005078617891113415, "73": 0.009115755731442344, "74": 0.10846189277644132, "75": -0.1294463177673757, "76": 0.06404768817439323, "77": 0.010127708242142246, "78": -0.048791817260090714, "79": 0.07792735912344251, "8": -0.014605652189812458, "80": 0.047740493056173935, "81": -0.012185048667362261, "82": 0.03329613369641774, "83": -0.078594147292249, "84": 0.14576039060098642, "85": -0.05697761368339351, "86": -0.17705160904609202, "87": -0.05454246683932791, "88": -0.008093786819948283, "89": -0.20305077735450985, "9": -0.07490773661431782, "90": -0.053040443596257335, "91": -0.09508554741725614, "92": 0.007055438323775919, "93": 0.007855334390976668, "94": 0.06255447340873997, "95": -0.101061057784659, "96": -0.059355672146111094, "97": -0.05592422321028899, "98": 0.027718027254547424, "99": 0.030743122713896523}}, {"depth": 16, "sx": 5, "sy": 5, "w": {"0": 0.009764512191892708, "1": 0.12281219120804435, "10": 0.030624549622062146, "100": 0.08034306903845778, "101": 0.07703287343668172, "102": 0.011296488069545035, "103": -0.04762751698119676, "104": 0.052415826368336846, "105": 0.14634757879534224, "106": -0.0581176520369362, "107": -0.1393875550081593, "108": 0.12599352709229783, "109": 0.04250082986494145, "11": -0.12209103179156133, "110": -0.16995028066385517, "111": 0.004813887668140865, "112": -0.042092418716135636, "113": 0.013980468446811972, "114": -0.06136060789323294, "115": -0.04648896048939201, "116": 0.0613665508610466, "117": 0.03772340140522167, "118": 0.048627175191182315, "119": -0.07727214261623556, "12": 0.026583786891297333, "120": -0.12814038900739222, "121": 0.043535491084838944, "122": 0.04371976211805795, "123": -0.13534933661916168, "124": 0.04869820328203711, "125": 0.06872467604562282, "126": -0.06256036608037865, "127": -0.032570451605077745, "128": -0.09923226307219975, "129": -0.0692595280509846, "13": 0.04648262973265647, "130": -0.1329179830596589, "131": -0.008929646752846089, "132": 0.04918868851933479, "133": 0.07840730254564533, "134": -0.028921215879803546, "135": -0.005856675616966926, "136": -0.10341617755828603, "137": 0.006376608425503017, "138": 0.006691411425307111, "139": 0.01655578448879508, "14": -0.010598629837168742, "140": 0.06904749788938874, "141": -0.058574804686096285, "142": -0.1377797186321605, "143": 0.011942644335843083, "144": -0.08210849978655375, "145": 0.03309141374026359, "146": -0.05592990848276913, "147": -0.07810965475145719, "148": 0.04983756640095917, "149": 0.07302965203085289, "15": 0.11193491078132903, "150": 0.021090202092968684, "151": -0.11331192292623424, "152": -0.16464042846860372, "153": 0.002376969203579782, "154": -0.012998439230203496, "155": -0.10491192478783648, "156": -0.004963700389946062, "157": 0.03274562518856011, "158": -0.008057264068584724, "159": 0.010633953104903084, "16": 0.04588873702020912, "160": -0.056015672707480625, "161": -0.03412872300732375, "162": -0.0033092374721191134, "163": -0.037611649194326253, "164": -0.006537662299247675, "165": 0.09839151253389755, "166": 8.953308182095202e-05, "167": -0.0937824925337073, "168": 0.04568338453772741, "169": 0.014254575936320808, "17": -0.05736854721003015, "170": 0.04104095630825155, "171": -0.024569669805869207, "172": -0.058373675764430304, "173": -0.06857361507986819, "174": -0.1157403565916019, "175": -0.025053109511161648, "176": -0.04892880775238427, "177": -0.036926456039548326, "178": 0.0030415229488933854, "179": -0.03358285486313031, "18": 0.05488860225483695, "180": 0.06783780805977424, "181": 0.027823118174825363, "182": -0.027652327421318273, "183": -0.1086576132574666, "184": -0.09271407896162424, "185": 0.005106268624673468, "186": 0.04133903374960654, "187": -0.08754880238727826, "188": 0.029618470146527468, "189": -0.09044828111667888, "19": 0.11648602210093267, "190": -0.01374710934478819, "191": 0.07311416246725036, "192": 0.01370966639691755, "193": -0.023363613195520563, "194": -0.14463581219816204, "195": 0.044538865164680065, "196": 0.11071815840678276, "197": -0.0545339794631699, "198": -0.10461058591999758, "199": -0.0872859378675578, "2": 0.1987851108716523, "20": 0.020717870129200282, "200": 0.00803079001401266, "201": -0.04891294536854963, "202": -0.03595264129709614, "203": -0.021774645997184962, "204": 0.05948501199777212, "205": -0.01877837802668206, "206": -0.04652752912838753, "207": -0.01593035835358205, "208": -0.13507481989765588, "209": -0.16234747973480412, "21": 0.04456855853477434, "210": 0.0604792423695515, "211": -0.034175915621769325, "212": 0.1472916069014342, "213": -0.023359251182972395, "214": -0.06111098974498803, "215": -0.14399425529300175, "216": -0.13442855784831065, "217": -0.05049583830025369, "218": -0.06034955368321308, "219": 0.0254682289826449, "22": 0.029798494262461436, "220": -0.0016606669885879998, "221": 0.012547294471327405, "222": 0.040320317171355514, "223": 0.041125907362756384, "224": -0.1238641805926335, "225": -0.046677688767597, "226": -0.043775554841532116, "227": 0.0208618139794035, "228": 0.07807380862384679, "229": 0.05424848857841539, "23": -0.04350733072341762, "230": -0.028920995191899328, "231": -0.14532515072761246, "232": -0.12122514991159633, "233": -0.020222886900656333, "234": -0.12363685691624161, "235": -0.16380107439519803, "236": -0.039439306589320315, "237": -0.039095068211708356, "238": 0.014758747381354577, "239": -0.003949908568073071, "24": 0.03539359737927255, "240": -0.04236262929737232, "241": -0.13531919835211056, "242": 0.05695994669905116, "243": -0.042194800562069285, "244": -0.015155243214569958, "245": 0.020118277375193908, "246": 0.12005398917714975, "247": -0.025037701628016024, "248": 0.09653169435293643, "249": -0.061515371805041574, "25": 0.09908650761641226, "250": -0.01931733288976392, "251": -0.168186487040818, "252": -0.1007536443739937, "253": -0.07814620776099708, "254": -0.11804878242600671, "255": 0.08226652115132621, "256": -0.07369080508966898, "257": -0.04187782651023513, "258": -0.07403663443368952, "259": -0.025528769835870838, "26": 0.02937731420449272, "260": 0.05130372100010764, "261": -0.03787208419197507, "262": -0.08850220088052926, "263": -0.006558747194538453, "264": -0.06666641451507783, "265": -0.11160754070845358, "266": -0.05115239240338804, "267": -0.01121310842223834, "268": -0.06583421652631892, "269": -0.06961033308067022, "27": -0.05104364100007629, "270": -0.04629339514435652, "271": 0.00898733134048519, "272": -0.12321059960143707, "273": 0.051657933058635135, "274": -0.05049364326637022, "275": -0.1666664733072015, "276": 0.03772074133000331, "277": 0.06468136133670624, "278": -0.10756814568536023, "279": -0.06408087740068236, "28": -0.044595454368550336, "280": -0.05448197347788532, "281": -0.037669661007146325, "282": -0.03878874573928987, "283": -0.07189502972227788, "284": 0.01408555820669767, "285": 0.0010383280896749877, "286": -0.03331086336659303, "287": -0.01797523659466001, "288": -0.1246916967933506, "289": -0.020956119999205144, "29": -0.010111545336554758, "290": -0.012982709160544358, "291": -0.03562711232755804, "292": 0.04058933235594181, "293": -0.047606728265982355, "294": -0.04042944701531535, "295": -0.16308286457601215, "296": -0.012711686854370952, "297": -0.031510423758657216, "298": 0.022618454813069542, "299": -0.14887548512920212, "3": 0.008396657036507838, "30": -0.0067772315748265135, "300": -0.04091902353039791, "301": 0.035134134699906845, "302": -0.11084409467165922, "303": 0.0371269920913327, "304": -0.034327495533210704, "305": -0.011427689834826903, "306": -0.06490552196640215, "307": -0.0660739930331391, "308": 0.019762976993371154, "309": -0.01520317392850943, "31": 0.0029988333177122318, "310": -0.0368849444770256, "311": -0.21901115730164022, "312": -0.177960864778589, "313": -0.10871366830075385, "314": -0.017934198284889433, "315": -0.04677654244531941, "316": -0.004155895775853445, "317": -0.017259897183558904, "318": -0.01730706168554903, "319": 0.057184010073254625, "32": -0.044487346383777736, "320": -0.12175920071883314, "321": -0.016278509060047103, "322": 0.08329719257842434, "323": -0.19007772361339634, "324": 0.015124811477938318, "325": -0.05357423736830047, "326": 0.04081758913663655, "327": -0.02308216778765075, "328": 0.11070526768045946, "329": -0.10893382966253064, "33": 0.013026634671451527, "330": -0.07443015998283306, "331": -0.09320640865276993, "332": 0.03954446963234477, "333": -0.04428618388201747, "334": -0.06914059285452276, "335": -0.03771039004030718, "336": 0.07579844254071391, "337": 0.00664708509191879, "338": -0.09326894888058188, "339": -0.13852371424720644, "34": -0.026626655298611024, "340": -0.04225722321725622, "341": 0.014564061267023795, "342": -0.026741346038243186, "343": -0.048775487625537184, "344": 0.0478506074913582, "345": -0.08779791014270356, "346": -0.053510322564250624, "347": -0.05841004933320698, "348": 0.04473544023573321, "349": 0.009563450058799286, "35": -0.00035498189780928664, "350": -0.23014101587521868, "351": -0.01460454809591525, "352": -0.1612858440752376, "353": -0.06982754231457666, "354": -0.04083837287140972, "355": -0.0982887228125664, "356": 0.11521406657473994, "357": -0.10179659281610377, "358": -0.006807127253526519, "359": -0.14140790523332003, "36": 0.010771690690568466, "360": 0.0008699547266824088, "361": -0.10852954420736256, "362": 0.02774289828898613, "363": -0.09565443035429956, "364": 0.07450087123230707, "365": -0.05050204348445475, "366": -0.12588503149488275, "367": -0.05765030642246175, "368": -0.051953530273885024, "369": -0.012213564545157197, "37": 0.03781664884437069, "370": -0.02555670813474379, "371": -0.04857873049593812, "372": -0.04602221848825642, "373": -0.030418650862190044, "374": -0.07757988115637363, "375": -0.07473924150239085, "376": 0.016223076721876263, "377": -0.14921877938667366, "378": -0.009656634346484406, "379": -0.12737090019497133, "38": 0.024695872408195835, "380": -0.022176308525972514, "381": -0.044951172532739225, "382": -0.06840195777182445, "383": 0.017258999651063738, "384": -0.05270444087109532, "385": 0.018408728433244165, "386": -0.08553279044185065, "387": -0.08640720991681558, "388": 0.005211483188969404, "389": 0.0337056095164371, "39": 0.046794577213693865, "390": -0.12362057678135771, "391": -0.0715564045819832, "392": -0.06630916686575433, "393": 0.0033482406977448126, "394": -0.025830869745903456, "395": -0.13661367166820496, "396": 0.03573465936434449, "397": -0.04284055715027195, "398": -0.04287614158296409, "399": -0.05794069966555388, "4": 0.08018391988685093, "40": 0.037847097850924084, "41": 0.1204219096896993, "42": -0.07009145033773521, "43": -0.01055675874643883, "44": 0.0740020622002864, "45": 0.028487061545919075, "46": -0.023092998596953025, "47": -0.0218585925821453, "48": -0.05942276958387609, "49": -0.033255401003462116, "5": -0.04710703711309865, "50": 0.07442081297652058, "51": -0.08759051664057493, "52": 0.010470882641496319, "53": -0.025860644011557486, "54": 0.036865548844015925, "55": -0.02971092390984174, "56": -0.11067830139857184, "57": 0.015270252043392735, "58": -0.12450961639682223, "59": -0.1323588205003528, "6": 0.09930507337231946, "60": 0.06967723239504717, "61": 0.0035714161618250876, "62": -0.00124424234622021, "63": 0.07167716418746604, "64": 0.025648040712264134, "65": 0.02592978798891397, "66": 0.07433788779017905, "67": -0.08746127556847144, "68": 0.07834109304745829, "69": 0.051400791654476266, "7": -0.05165841054090102, "70": 0.018988426268071214, "71": 0.002775029656433727, "72": -0.06533934751828573, "73": 0.03339401392301968, "74": -0.1080722869707947, "75": 0.005855352138063674, "76": 0.07066596490537368, "77": -0.02851321425920726, "78": -0.053851273242434404, "79": -0.009063909218394433, "8": 0.050593404090259725, "80": 0.005835252134480684, "81": 0.06941099677972985, "82": -0.002475273735892209, "83": -0.10719001863625546, "84": 0.014744682232464017, "85": 0.08045229033258144, "86": 0.012703850747890927, "87": 0.011767716388488857, "88": -0.05734869845980165, "89": 0.10999222807962107, "9": 0.019705682872843237, "90": 0.1214077962588049, "91": -0.09358495090785533, "92": -0.03130148999944043, "93": 0.006841176276214747, "94": -0.2031728797262077, "95": -0.0031230027740397908, "96": 0.029821128141760377, "97": 0.07545443157595078, "98": -0.10408343889455189, "99": -0.0390948134873214}}, {"depth": 16, "sx": 5, "sy": 5, "w": {"0": 0.04476227058033427, "1": 0.0731347200686788, "10": 0.101827946021749, "100": 0.024863822354523498, "101": -0.13881249617431823, "102": 0.059841717996864115, "103": -0.0731906391782911, "104": 0.2116359544734069, "105": 0.03694699383758065, "106": -0.02301270967655914, "107": -0.08017119320573012, "108": 0.09777558838021537, "109": 0.13278736975578176, "11": 0.07822115713261632, "110": 0.04965478800708662, "111": 0.06994727947590074, "112": -0.01888490439197826, "113": -0.03449539136654133, "114": 0.06642008769551982, "115": 0.10891672269429116, "116": -0.04424581697591321, "117": -0.040725944893672095, "118": 0.08622340046995165, "119": 0.022462345524259023, "12": -0.09441947875348729, "120": 0.12831706140550733, "121": 0.1758157031833931, "122": 0.05614240663927447, "123": -0.14675870632682983, "124": -0.017512689773309588, "125": 0.047306471451304496, "126": -0.056979971991952816, "127": -0.06912050883513458, "128": -0.105635772925166, "129": 0.08126732652450676, "13": -0.005465715985658011, "130": 0.05286537212509812, "131": 0.0577060184893627, "132": 0.003501334207574342, "133": -0.07582288084201246, "134": 0.1039517302310924, "135": -0.06624437449442569, "136": -0.04670103649049968, "137": 0.13507445614503136, "138": 0.11157261287276876, "139": -0.0036896190685077736, "14": 0.028316149646472204, "140": 0.06369984100559577, "141": 0.030314614765957044, "142": 0.01953687042183806, "143": 0.12918857138774384, "144": -0.03052603767087359, "145": 0.02625029853273219, "146": 0.03253394803359113, "147": 0.1616390398623033, "148": 0.005995568826985053, "149": -0.08284557150372625, "15": 0.09261956754154735, "150": 0.03035725277917106, "151": -0.10776370988689023, "152": -0.017508947978841127, "153": 0.02769089864973423, "154": 0.14226821933266634, "155": -0.11495328781953917, "156": 0.07261850224460291, "157": -0.10036404767903988, "158": -0.036975707044918545, "159": 0.08655111493909676, "16": 0.035353323770228984, "160": 0.12466327906876719, "161": -0.12095075510376913, "162": 0.008832265481971963, "163": -0.034007955667134805, "164": -0.10612179803135435, "165": -0.13802655892785368, "166": 0.14586648464890062, "167": 0.023268253984085257, "168": 0.19511249612094575, "169": 0.12072048855473902, "17": 0.10989929319474412, "170": -0.10359125960548254, "171": -0.057646818223335984, "172": -0.06889147525337887, "173": 0.0824605515061812, "174": -0.03943311656466067, "175": -0.056158324544024626, "176": 0.06152989274787379, "177": -0.00018291063156519022, "178": -0.01809224792053658, "179": -0.041755331363423076, "18": 0.06982820056350908, "180": 0.002820635151009012, "181": -0.013041749991330058, "182": 0.0793605910986579, "183": 0.00497762112931907, "184": 0.18580534183554145, "185": 0.01858297031412099, "186": -0.016176992225019, "187": -0.07682629035391686, "188": -0.061958995714769184, "189": -0.02569112719304543, "19": -0.05231271708917091, "190": -0.005154322904553054, "191": -0.000564023072985986, "192": -0.11199592522869294, "193": -0.07240006231086969, "194": 0.09016035869646952, "195": 0.07794213726212768, "196": 0.04677706332624191, "197": -0.06992557603160132, "198": -0.003421030792156138, "199": 0.02606483858310342, "2": 0.07299534587846157, "20": 0.005135367881102859, "200": 0.10563423970313464, "201": 0.011678892819339008, "202": -0.08657395343439184, "203": -0.13632966818797207, "204": -0.0003665843022995752, "205": -0.020233849459715222, "206": -0.12065425077771784, "207": 0.019363181814566484, "208": -0.09303478297975537, "209": -0.01680546310836016, "21": -0.05202453008284013, "210": -0.012639125377641874, "211": -0.012912329393266959, "212": 0.04471411372073463, "213": -0.17200983884633111, "214": 0.026169078974600142, "215": 0.004843586107833741, "216": 0.031541660551688167, "217": -0.05403770515144299, "218": 0.07169311778289215, "219": -0.08066114515422312, "22": 0.11880227736871574, "220": 0.03625064557750641, "221": -0.0925346692865706, "222": -0.006711786766311879, "223": 0.05062603324549301, "224": -0.023889046562658243, "225": -0.15066684344585327, "226": -0.0930431638460133, "227": 0.01806977075595972, "228": 0.13723515180080073, "229": -0.022654586641177237, "23": -0.02574561220537963, "230": -0.11820254749772541, "231": -0.15576793873969236, "232": -0.07337410504063469, "233": 0.03789352061872667, "234": 0.12907938877188954, "235": -0.1370545655793799, "236": 0.13803967456386448, "237": -0.09958394229229449, "238": 0.028884617126846136, "239": 0.07595004024536181, "24": 0.09228087506835786, "240": 0.06481528707375044, "241": -0.02903311523278723, "242": 0.09597550165723273, "243": -0.046363127822361114, "244": 0.049191309133822844, "245": -0.0947175837780164, "246": 0.05498343321307309, "247": 0.052600993017130324, "248": 0.18948919450202445, "249": 0.0631723788809377, "25": 0.058397544480494994, "250": 0.05940046675966205, "251": -0.049846724215229225, "252": 0.012277544454201594, "253": 0.09645567638430705, "254": 0.013279933129642442, "255": -0.06326313619691434, "256": 0.046978694858244595, "257": -0.09215318401081642, "258": 0.005194778512981648, "259": 0.0008025481872227804, "26": -0.09192503976629458, "260": 0.13918961429984122, "261": -0.08784527096486502, "262": 0.02128492506003589, "263": -0.06771124957167145, "264": 0.026147307965155967, "265": -0.03085866750966324, "266": 0.05145432195095025, "267": 0.001968787825375728, "268": -0.022100955514646276, "269": 0.0754170547512947, "27": 0.09221051037367545, "270": -0.0205914282392008, "271": -0.02014816016668976, "272": 0.06332422576362612, "273": -0.037707039787948045, "274": -0.0633269491636628, "275": 0.10948922866762997, "276": -0.0005457098388446917, "277": -0.12671033577190174, "278": -0.015392402811763767, "279": 0.021157911252614854, "28": -0.004632749253623603, "280": 0.12563493231213732, "281": -0.06165002438569204, "282": -0.07905028306260443, "283": -0.06673438244511976, "284": -0.04316051974310738, "285": 0.030117969207648556, "286": -0.035036907344786455, "287": -0.03369500963923271, "288": -0.08288618665081647, "289": -0.09057715205846921, "29": 0.04101345337919998, "290": -0.06777636494392837, "291": -0.06546375000556927, "292": -0.02182025265320632, "293": -0.22130688630140127, "294": -0.11427476444045633, "295": -0.1936929677587471, "296": 0.05789380208587418, "297": -0.13060717751413772, "298": -0.03397894535704076, "299": -0.2073326089534204, "3": 0.062248025416643774, "30": 0.0038616672162344145, "300": -0.011625431848661055, "301": -0.0035344020852926036, "302": -0.0857342636373261, "303": 0.08235666639289073, "304": -0.15363207354072808, "305": -0.11400818442966595, "306": -0.04122034077861656, "307": 0.11368892245904821, "308": -0.0022345741002418222, "309": -0.1536543607121577, "31": 0.012841917148176209, "310": -0.10892781848386214, "311": -0.2570847713439998, "312": -0.09525795597308048, "313": -0.13303620611176428, "314": 0.037568255039289185, "315": -0.13730857782084596, "316": -0.05924411952496171, "317": -0.06909771767069146, "318": -0.030056749871553858, "319": -0.051567864243376144, "32": -0.06656981522765251, "320": 0.08217678982330083, "321": -0.2032799969604921, "322": -0.06105120018189167, "323": 0.02429664902348119, "324": -0.04214505339209642, "325": -0.17729743860547256, "326": -0.06988705730824109, "327": 0.0821479938773533, "328": 0.026662915545622893, "329": -0.06232037964919926, "33": 0.12924505840095968, "330": -0.12645624616265672, "331": 0.005104977804492582, "332": -0.13988677567140836, "333": -0.010657572539094091, "334": -0.07917878972680677, "335": 0.03375917751204457, "336": 0.09838037077276526, "337": -0.19965188730141364, "338": -0.07161721996651343, "339": 0.0787215130064709, "34": 0.06175122863373444, "340": 0.01682763043603725, "341": -0.0798601695685428, "342": -0.10048795504275282, "343": -0.04700602769017542, "344": 0.04463958811654858, "345": -0.20875265401621018, "346": 0.02490668342086739, "347": 0.07176596738391325, "348": -0.05747487402791241, "349": 0.04763875918457677, "35": -0.01107815203156603, "350": 0.1147841011065318, "351": 0.016584507190672088, "352": 0.013104774302788232, "353": -0.1962206371161988, "354": -0.013525404250771058, "355": -0.06149409132631842, "356": -0.03164974363829747, "357": -0.19036513855217194, "358": -0.18288785283566666, "359": -0.05001572969080411, "36": -0.10005875540960214, "360": 0.030409772582341447, "361": -0.1694128097275474, "362": -0.19071722567239677, "363": -0.011393848893674917, "364": -0.1180756460293276, "365": -0.02607560886888894, "366": -0.02803887191811102, "367": -0.05729366883854637, "368": -0.00012217080586625437, "369": -0.2595083690975381, "37": -0.01958118457511661, "370": -0.048978289104787576, "371": -0.06204149811805355, "372": -0.07294199501234558, "373": -0.19145514056017296, "374": -0.1668714334667423, "375": -0.09082389435368012, "376": -0.03524474017111464, "377": -0.08723942500950764, "378": -0.1284141981472027, "379": -0.1695502400076547, "38": -0.011076598103656583, "380": -0.12570481420787724, "381": -0.016003904172666207, "382": -0.03669740945441669, "383": 0.051783080096096334, "384": 0.02376109451707525, "385": -0.18453119022150288, "386": 0.010272612028575486, "387": -0.02527001945006887, "388": 0.04197795548307983, "389": -0.25511148140794726, "39": 0.04979174666429142, "390": -0.16422160237984182, "391": -0.053560290465915615, "392": -0.09715895585947487, "393": -0.16448749937109877, "394": -0.14822503310376145, "395": -0.1354783997798285, "396": -0.054944923634049965, "397": -0.026685523172916063, "398": 0.0017250178221530198, "399": -0.007552899528290344, "4": -0.0022055454830866446, "40": 0.10226774173196103, "41": 0.045635336093774924, "42": 0.022088861202448642, "43": -0.029178296475883957, "44": 0.0015903545894573002, "45": -0.0167423262085383, "46": -0.04159796304364127, "47": 0.13081740632505925, "48": -0.07818981585263902, "49": 0.13166996273577633, "5": -0.096786604620538, "50": 0.04386681487726697, "51": 0.02917753537093028, "52": 0.0013502996431786168, "53": -0.08187668303067491, "54": 0.1413242842282942, "55": -0.13235560829469617, "56": 0.07399413051079931, "57": 0.13174581430736462, "58": 0.13548588480269466, "59": 0.024659337214177464, "6": 0.028174851391675373, "60": 0.004487330886290483, "61": -0.028725251034995854, "62": 0.04047570762143333, "63": 0.054155701566777785, "64": -0.1205647878288519, "65": 0.15752483940354808, "66": -0.026859093373880184, "67": 0.10565631111768253, "68": -0.030144277278453452, "69": -0.014067909468274097, "7": 0.029513328951099198, "70": 0.08556269385629935, "71": -0.10606484243335866, "72": -0.005606764319877955, "73": 0.01633530152554092, "74": 0.05667293370782238, "75": -0.10513476193882468, "76": 0.05136229996190693, "77": -0.048265512510755774, "78": -0.07804632544857897, "79": 0.1396627745259254, "8": 0.06684893191491932, "80": 0.10051828507373368, "81": 0.05653193476602815, "82": -0.032980348291908594, "83": 0.016553795262814072, "84": -0.06017965088914871, "85": -0.10650237915054847, "86": 0.09514572636761122, "87": 0.024002707076834606, "88": 0.1955371345064024, "89": 0.08921272793676106, "9": -0.03728955441152801, "90": -0.031196442326242826, "91": 0.05997204845883246, "92": 0.018408411392508626, "93": 0.06416043268666365, "94": -0.006880668759724304, "95": -0.017606241529499914, "96": -0.08266432556485011, "97": 0.036347220112838724, "98": 0.032836337213561356, "99": 0.13384620741606407}}, {"depth": 16, "sx": 5, "sy": 5, "w": {"0": -0.043323175585156096, "1": -0.04458655142102598, "10": 0.05753513065143111, "100": 0.019908092962953983, "101": 0.0473942839013173, "102": -0.18450093978767287, "103": -0.081970882693822, "104": 0.05252989899485378, "105": -0.10658281569855899, "106": -0.06676503581069625, "107": -0.031807665943780344, "108": 0.04114931711415452, "109": -0.08470657855603737, "11": -0.06918935002164486, "110": -0.019638718860453284, "111": 0.09089858471546104, "112": 0.014193634131460995, "113": -0.03794126561003009, "114": -0.03768553461649006, "115": -0.03455055871390645, "116": 0.05513230124903979, "117": 0.012652065984706208, "118": -0.05570481566924674, "119": -0.03609140137682324, "12": 0.027753918956205496, "120": 0.032173730075027926, "121": -0.06232951118569964, "122": -0.09061853777583787, "123": -0.01287236840328919, "124": -0.008528240860231257, "125": -0.03706101586589613, "126": -0.1133706327578596, "127": 0.020753493732279405, "128": -0.011598933962453026, "129": -0.04846540633752419, "13": -0.09068349808375746, "130": -0.01445614643500533, "131": 0.033867666472959246, "132": 0.12840340812409462, "133": 0.10204963011237425, "134": -0.15163095589322173, "135": -0.059749481322835224, "136": -0.06408874558610295, "137": -0.03577894196840721, "138": -0.1537117096000873, "139": -0.060619927499867624, "14": -0.008169590375238806, "140": 0.07814237166566561, "141": -0.07549860319326088, "142": -0.07017544410419342, "143": -0.017711753860588524, "144": -0.01825423848344811, "145": -0.07593108739929365, "146": -0.034044561567221715, "147": -0.006309551892805412, "148": 0.09886182385972463, "149": 0.14288345984216058, "15": 0.09699728942457496, "150": 0.002430203480931895, "151": -0.04251488890205987, "152": -0.053279075210313935, "153": 0.005844715603451322, "154": -0.13577942440068658, "155": -0.10384304877322337, "156": 0.0978403953547914, "157": -0.06832123614995282, "158": -0.06240116549482041, "159": 0.03725438092362554, "16": -0.005825325434810972, "160": -0.12972555507930153, "161": -0.0015657091184685388, "162": -0.10298131921545813, "163": -0.04037396128254662, "164": -0.009416134107030565, "165": -0.031281693491041984, "166": 0.015002322827282035, "167": -0.10762600136887694, "168": 0.0281965517494863, "169": -0.04743352716940453, "17": 0.025734361710095292, "170": -0.04346954594681981, "171": -0.08595480437618497, "172": -0.024391441759857347, "173": -0.034724610899037375, "174": -0.11374675024945605, "175": -0.06649961638796055, "176": -0.015671856384206886, "177": -0.01562154955343537, "178": -0.006128047180611355, "179": -0.08936922904376182, "18": -0.0682926993772622, "180": 0.022006080523092962, "181": 0.06124481559501326, "182": -0.04482931481996911, "183": -0.08083910081875312, "184": -0.02396536718981728, "185": -0.04014873817551977, "186": 0.014091992442460918, "187": -0.017723769735528076, "188": 0.008376638551491943, "189": -0.07036849643959149, "19": -0.03315142316967027, "190": -0.042922710010610945, "191": -0.01583931188220847, "192": 0.03815905270599751, "193": -0.09122781979321583, "194": -0.16020521657093978, "195": -0.034554884769652204, "196": 0.045631497151379735, "197": 0.046575612255432185, "198": -0.1446419765868239, "199": -0.12032639983320015, "2": 0.0004973606467132078, "20": 0.06417700234559937, "200": -0.04992579707849389, "201": -0.06415349346507113, "202": -0.07434313957310873, "203": -0.03451049033206988, "204": -0.0015523962625533134, "205": -0.0680650818581429, "206": -0.05811298817562014, "207": -0.034934609589608256, "208": -0.06506773955220167, "209": -0.05493760256733634, "21": -0.012182595206087266, "210": -0.049371112564893516, "211": -0.050311499285071455, "212": -0.06652083344601234, "213": 0.11323848189819027, "214": -0.09090581206299565, "215": -0.1874551983553836, "216": -0.06544183053308758, "217": -0.09972292551094722, "218": -0.05475700395711472, "219": -0.04080097469659857, "22": -0.14966798230339767, "220": 0.10259915585882508, "221": 0.029463866121073323, "222": -0.0849365416661197, "223": -0.0044341379169534805, "224": -0.051500078961406855, "225": 0.024156325149612898, "226": 0.013310802601652695, "227": 0.02311769839390846, "228": 0.07368780207819986, "229": 0.058915934329709874, "23": -0.060866366537761084, "230": -0.08469278712613389, "231": -0.14543600829798062, "232": -0.031205661910001167, "233": -0.02096516636584988, "234": -0.047267139850755695, "235": 0.12110196066893805, "236": 0.04111131156329288, "237": -0.05226602210447464, "238": -0.0932062527750197, "239": 0.03385866245045839, "24": 0.017842582042710775, "240": -0.015834580182966185, "241": -0.12544264134129468, "242": -0.016338742057239602, "243": 0.0134983282816567, "244": -0.10311527067240016, "245": 0.009528671098380594, "246": -0.02596272605920135, "247": -0.04498879037081639, "248": -0.0013087575345212433, "249": 0.07416759431909388, "25": -0.0646046457148259, "250": 0.013454398300331799, "251": 0.01742752838025645, "252": -0.06284404210130043, "253": -0.04493471373275086, "254": -0.06599183171386759, "255": 0.0357292348717286, "256": -0.16723642182072646, "257": -0.014084796413146129, "258": -0.010694762526870981, "259": 0.04554416098186352, "26": -0.007172658221623542, "260": 0.05418776611354969, "261": -0.04888215930371232, "262": -0.10964139467232231, "263": -0.03700078057214917, "264": 0.027098236251876406, "265": -0.08407240687772931, "266": -0.014794286974767517, "267": -0.06576491448235787, "268": -0.033049376999481725, "269": -0.11344950628618689, "27": -0.12434079508907032, "270": -0.009829903275473935, "271": -0.04791239264646064, "272": 0.008612224377428609, "273": -0.021095898566562944, "274": 0.06727563710960725, "275": 0.001490193640713435, "276": 0.004986245754851003, "277": 0.09355808261391406, "278": -0.06263983713833951, "279": -0.0754318744171509, "28": 0.014184798063224188, "280": 0.024560887975400056, "281": -0.024419150158910996, "282": -0.02689687026480979, "283": -0.13707841596097559, "284": -0.04484849886021374, "285": -0.01725815691526184, "286": -0.05724342704494888, "287": 0.03342716513173333, "288": -0.04010339528060374, "289": -0.03903220251154897, "29": 0.005735197039055094, "290": -0.06334752992927543, "291": 0.07464610475170919, "292": 0.021825960715806083, "293": 0.05912910117205256, "294": -0.10073960544067097, "295": -0.04852532123822427, "296": 0.0014052162884220635, "297": -0.09062738393062326, "298": -0.025090202283301118, "299": -0.056997920268675485, "3": 0.006157899236743523, "30": -0.011342411205407691, "300": 0.05879023768526903, "301": 0.05188669635362208, "302": -0.11620979513373304, "303": -0.027532524641901337, "304": -0.06951563917562655, "305": -0.013433344401297856, "306": -0.08830807551291926, "307": -0.028461603997300834, "308": 0.06272561242617718, "309": 0.051801843542864774, "31": 0.1458062935240533, "310": -0.054734258233606954, "311": -0.08141634862308014, "312": -0.04927541863411489, "313": 0.05424069092961413, "314": -0.09212758538396539, "315": 0.060010260792311185, "316": 0.08415346571220313, "317": 0.09917238637296064, "318": -0.05354779864168318, "319": 0.024189261755189026, "32": -0.003469275692068248, "320": 0.0015483072081391954, "321": 0.023783049176531557, "322": -0.02182805138106741, "323": 0.03320600092920128, "324": 0.008622610230268462, "325": -0.02401126174838799, "326": 0.012948719738494383, "327": -0.09146417805023536, "328": -0.021563997389544235, "329": -0.043508389836339964, "33": 0.01004737498224656, 