{"data": {"layers": [{"layer_type": "input", "out_depth": 3, "out_sx": 32, "out_sy": 32}, {"biases": {"depth": 16, "sx": 1, "sy": 1, "w": {"0": -0.006038759012644049, "1": 0.05803652845902907, "10": 0.09359473030466779, "11": -0.01860034351173479, "12": 0.0607832486185693, "13": -0.010239559308241794, "14": 0.008859258743764368, "15": 0.049542418200034376, "2": 0.06478155693713693, "3": -0.03610291812676907, "4": -0.025880654178161936, "5": -0.040440715819215475, "6": 0.06440579483701481, "7": 0.05491410848667825, "8": -0.06575389792820481, "9": -0.13735318914675637}}, "filters": [{"depth": 3, "sx": 5, "sy": 5, "w": {"0": -0.12699303121841546, "1": -0.05481459644015064, "10": 0.08092223792722206, "11": 0.08409277881507919, "12": -0.10139009961787329, "13": -0.15339328546141562, "14": 0.25089272160600723, "15": -0.13512402132475512, "16": -0.1237909258162994, "17": -0.035363897251159536, "18": -0.20210930561286197, "19": -0.05360612884570468, "2": 0.09931493180502293, "20": 0.060522210786796524, "21": -0.26135656785956546, "22": 0.02583776348186438, "23": 0.05000523654904559, "24": -0.1899390369680535, "25": -0.0756133761359463, "26": -0.11012718984373512, "27": -0.16699387230950957, "28": 0.003692205339576496, "29": 0.1540692928076487, "3": -0.13094511938587533, "30": -0.18552826029239824, "31": -0.1320052833485201, "32": 0.00796397654265718, "33": -0.17503121588638618, "34": -0.05234531068905458, "35": 0.09907867630253615, "36": -0.02616877926836888, "37": 0.06833151160726725, "38": 0.09071727866624195, "39": -0.25921385890613646, "4": 0.0020259717767938594, "40": -0.13799671671059216, "41": 0.23380881019352312, "42": -0.004908116306558418, "43": -0.07006063896913585, "44": 0.1282956365631735, "45": -0.15801547781425052, "46": 0.10165472123452979, "47": 0.024264378260984393, "48": -0.06547653658996465, "49": -0.0035768550472106914, "5": 0.04161658787774449, "50": 0.1514230214682808, "51": 0.019729187655003682, "52": 0.04319993743913209, "53": -0.07072941197981066, "54": 0.058474796196884324, "55": -0.18337302210241319, "56": 0.34946661193216794, "57": -0.03863378977231187, "58": -0.07614284857405548, "59": 0.05872438552875509, "6": -0.1597297104273719, "60": 0.3288546453655957, "61": 0.19412918664294732, "62": 0.03927184914358888, "63": 0.20488948626887446, "64": 0.1315946050488997, "65": 0.1275089968942211, "66": 0.03521428437095758, "67": 0.17438874609356805, "68": 0.1193725268002631, "69": 0.16136799258023168, "7": -0.16011509584671055, "70": -0.022238128557505524, "71": 0.40975785745677834, "72": 0.14127202528763047, "73": -0.11744483345062313, "74": 0.25570451796467325, "8": -0.09852970570023184, "9": -0.1821913544501953}}, {"depth": 3, "sx": 5, "sy": 5, "w": {"0": -0.0762024050605571, "1": 0.00429087139048798, "10": -0.03972150930658849, "11": 0.0007180036707914576, "12": -0.20098654952520362, "13": 0.1430599687198188, "14": 0.12404656771973754, "15": -0.19319958700661774, "16": -0.0954870693534022, "17": 0.09788081532470516, "18": -0.07859431879861599, "19": -0.015499941026717609, "2": 0.0432699210441101, "20": 0.11422886025975351, "21": -0.053740478007611295, "22": -0.11464174328766293, "23": -0.12336283174687646, "24": -0.09517967883688626, "25": -0.09394307724723773, "26": 0.010731990882831591, "27": -0.15999668523488833, "28": -0.16027254878435251, "29": 0.0657186197248073, "3": 0.07137563925702106, "30": -0.020717471045582712, "31": 0.07208209979573985, "32": -0.031082144279228317, "33": -0.026388150562056446, "34": 0.04655381029209254, "35": -0.017085139321051344, "36": -0.07625523446788354, "37": 0.2275351068451243, "38": -0.018904406484663603, "39": 0.08064924315936296, "4": -0.02660265988995783, "40": 0.06568026333399729, "41": 0.0723429351864984, "42": 0.05584406879058999, "43": 0.001287175237059883, "44": 0.167839919198371, "45": 0.11331723601865445, "46": -0.12904416834470275, "47": 0.029001937444090697, "48": 0.1063964459802024, "49": 0.09658280157336786, "5": 0.16821937433009027, "50": 0.19257169460354975, "51": -0.24132701310221236, "52": -0.11062682780265717, "53": 0.33336069961736353, "54": 0.06419393764155018, "55": 0.08309825319928803, "56": 0.20628332424646292, "57": -0.036636735325623844, "58": 0.03343575924406398, "59": 0.11362371735543278, "6": -0.23592881577772856, "60": -0.03326738962781892, "61": -0.0247309574471449, "62": 0.0902568811626311, "63": -0.059555154733929375, "64": -0.15923546576514586, "65": 0.03810787619736693, "66": -0.1251530731995989, "67": -0.0022758167883280924, "68": 0.247961564272433, "69": -0.16323383845485773, "7": 0.022971287102203038, "70": -0.09211451345422522, "71": 0.06961858025635378, "72": 0.12339455288377021, "73": -0.19376025307526978, "74": 0.1169869476149433, "8": 0.07801987609920882, "9": -0.05489846621127332}}, {"depth": 3, "sx": 5, "sy": 5, "w": {"0": 0.01959040234706948, "1": 0.1284578581337469, "10": 0.16982058346836415, "11": 0.24398787011186399, "12": -0.08658808079649331, "13": 0.08583336359238795, "14": 0.15740879589729884, "15": 0.15959921918565348, "16": -0.025879082622776772, "17": 0.035231888522190793, "18": -0.08957370645384269, "19": 0.13450017378827064, "2": 0.21041099385187315, "20": 0.09950413827583737, "21": 0.017143690941587453, "22": -0.05059264038459707, "23": 0.12362427696226483, "24": -0.06333689471505377, "25": 0.07065116750071161, "26": 0.10159444303139256, "27": -0.028948465756146284, "28": 0.021670423374449053, "29": 0.045163983384967105, "3": -0.19684292517363197, "30": 0.0006209815002669306, "31": -0.24303291156185183, "32": 0.040112421177115894, "33": -0.03332364509853928, "34": -0.23072730646847864, "35": 0.057328173599115385, "36": -0.054087362268528255, "37": 0.19765922238107142, "38": 0.19654931968901898, "39": -0.04944195228059012, "4": 0.049479864379418315, "40": -0.06275094778513376, "41": 0.11010898111059592, "42": -0.19919490767604975, "43": 0.11655766156086499, "44": 0.2130551229090686, "45": 0.04250456046778799, "46": 0.013140564286175611, "47": 0.005646229651798297, "48": -0.08075002321063776, "49": -0.10517998556016848, "5": 0.2970718146006391, "50": 0.04142994460868111, "51": -0.04698258297478582, "52": -0.18374383628360896, "53": 0.12086198374652427, "54": -0.22224156943185674, "55": -0.0699040938034195, "56": 0.18092927272318501, "57": 0.10554073902487753, "58": 0.0475986090496879, "59": 0.02146258100503007, "6": 0.1321387177832476, "60": -0.03834044385284436, "61": 0.025927265752516606, "62": 0.03204051118448328, "63": -0.10138065233424967, "64": -0.10321453997545146, "65": 0.07069215642911346, "66": -0.11221554735399866, "67": 0.014761511507103472, "68": 0.021511393260399782, "69": -0.126523012464777, "7": -0.03582489880697554, "70": -0.21927713926601178, "71": 0.014539938747105243, "72": -0.2778912117376411, "73": -0.1503441226735504, "74": -0.05406921686114816, "8": 0.07130825405307994, "9": -0.03004290203524272}}, {"depth": 3, "sx": 5, "sy": 5, "w": {"0": -0.11466840029640324, "1": 0.16095637085957282, "10": 0.09335716755148135, "11": -0.027639259707997046, "12": -0.11139856827571773, "13": 0.06015124185614372, "14": 0.04222790621516977, "15": 0.0030916070221089485, "16": -0.0670185327082277, "17": 0.017281091697398894, "18": -0.1443885939832192, "19": -0.14160658413926203, "2": 0.23043390679393094, "20": 0.023875269626686187, "21": -0.13044045708362367, "22": -0.017899161203063063, "23": 0.2198622533401699, "24": 0.005590335641380197, "25": 0.031688132414026786, "26": -0.04036739986383505, "27": 0.011884079796596423, "28": -0.14345551796185055, "29": -0.14153864176863817, "3": 0.03745741245446397, "30": 0.0035883581129346085, "31": 0.0865951318961706, "32": 0.052634925346481766, "33": -0.07389474251788132, "34": -0.11020690910985935, "35": 0.11411433156224622, "36": 0.008325703193380744, "37": 0.004263235451074727, "38": 0.08059963589818032, "39": -0.10253650850134968, "4": 0.05791810489567891, "40": 0.03310189325650101, "41": -0.04000401201487865, "42": 0.028041289939164292, "43": -0.09848626097275194, "44": 0.0583991614042968, "45": 0.12016030658643845, "46": -0.07238209939867396, "47": -0.032703657880738646, "48": 0.022640042859950426, "49": 0.1187857066378787, "5": -0.12460681834650725, "50": 0.27109207039941813, "51": -0.07658658613126118, "52": -0.06204875155599002, "53": -0.13182484006308656, "54": -0.18860113489984115, "55": 0.048501662119899584, "56": 0.1308771510864368, "57": 0.13569890270384063, "58": 0.03830934641656197, "59": 0.008360499922977233, "6": -0.11189925265721329, "60": 0.18843387365833536, "61": 0.04791290768577138, "62": -0.11396134755199556, "63": 0.24363523436490261, "64": -0.1184344933619995, "65": 0.26561153098064, "66": -0.23272191944772336, "67": 0.07741354968628442, "68": 0.08818031577415798, "69": -0.29363697471684425, "7": 0.18656320414483923, "70": -0.0718882338032518, "71": -0.1274574860485333, "72": 0.016848958794752397, "73": -0.05770552093395674, "74": 0.4143305795905815, "8": -0.15486945462123888, "9": -0.07997693980313401}}, {"depth": 3, "sx": 5, "sy": 5, "w": {"0": 0.0582882581437988, "1": -0.14301973724419945, "10": 0.10311381476659955, "11": 0.030699920756752982, "12": -0.0036798094160417024, "13": -0.032491708957738764, "14": 0.18570167422665523, "15": 0.0746214233989402, "16": -0.0003657465387733041, "17": 0.13480279718315827, "18": 0.03416251240694761, "19": -0.2001803605991877, "2": 0.06431327497801792, "20": 0.08485156575211933, "21": -0.0680789143086542, "22": 0.15303930850048086, "23": 0.17418660340493666, "24": -0.018855878240230627, "25": 0.07204695391830342, "26": 0.2582509390442457, "27": -0.03453914963181051, "28": 0.21520768931986375, "29": 0.05303043456729508, "3": -0.08419575343291918, "30": 0.03944337555885994, "31": -0.03838216269156872, "32": -0.17244953470605937, "33": 0.22455174136171996, "34": -0.09082389753858464, "35": 0.12095115551682017, "36": -0.0038044242275441197, "37": -0.0340671082931643, "38": 0.06695359127164903, "39": -0.29189567999872046, "4": -0.0649390284101582, "40": 0.013193078978038968, "41": 0.06766775670194503, "42": -0.04553274325542793, "43": 0.05622142423407098, "44": 0.022539102667801104, "45": -0.14662416728405622, "46": 0.0924524696423379, "47": 0.092935571327502, "48": -0.08609166149998872, "49": -0.04677384905954836, "5": 0.1382907955162302, "50": 0.19210617445434808, "51": 0.014561494396371975, "52": 0.03872959428926426, "53": 0.010658231369313239, "54": -0.08172766511002383, "55": 0.1571920297816855, "56": 0.02082758567076165, "57": 0.07500929622976728, "58": 0.09001616703215944, "59": 0.02664381878003575, "6": 0.05559988949187548, "60": 0.02757244051191217, "61": 0.010864962677865821, "62": -0.034657355714518084, "63": 0.043730414578829965, "64": -0.061747452183814236, "65": 0.37309107300856775, "66": 0.219400005006658, "67": -0.06197529732710587, "68": 0.060634620560147914, "69": 0.01605059885322046, "7": 0.19427919117992473, "70": 0.0028508618794385217, "71": -0.12188570011826262, "72": -0.09215862780289777, "73": -0.09099244602076116, "74": -0.07996311772434414, "8": -0.04112139889637316, "9": -0.2743834716387068}}, {"depth": 3, "sx": 5, "sy": 5, "w": {"0": -0.15852019420099267, "1": 0.0657942217933685, "10": -0.1449390708466351, "11": 0.010444470843507938, "12": -0.10652384462330299, "13": 0.03282148887802591, "14": 0.09222744549102915, "15": -0.07526857160496946, "16": 0.026862840592852724, "17": 0.1727792983519112, "18": -0.02378986305121806, "19": 0.025733788681164486, "2": 0.34752960345006195, "20": 0.23790813328025173, "21": -0.0693395094983898, "22": 0.2718768479447043, "23": -0.015633210568439276, "24": 0.0837569555483334, "25": 0.12810991195450044, "26": 0.021403483413095562, "27": -0.055842805480953966, "28": 0.10453774694657388, "29": 0.051469423228975214, "3": -0.17068676036813427, "30": 0.07279909826425457, "31": 0.015337479619363608, "32": -0.13736786046831154, "33": -0.2521980901028034, "34": -0.2522835118092706, "35": 0.41281415667177773, "36": -0.0339898579200551, "37": -0.05669787804452077, "38": 0.15847480864872449, "39": 0.040776912852075596, "4": -0.13548877965202435, "40": 0.19933384109834465, "41": 0.17309823737942218, "42": -0.057911365534524195, "43": -0.038325444736170645, "44": 0.10640523564556088, "45": -0.12380406413192978, "46": 0.022405318849943963, "47": 0.003135960406573015, "48": -0.00390937121830419, "49": 0.1716209003368053, "5": 0.10383046583736202, "50": 0.0037209481735240553, "51": -0.17114695572416894, "52": 0.12905177770220372, "53": 0.19148304461619595, "54": -0.10869070250039388, "55": -0.007163407806531755, "56": 0.09144134449792313, "57": 0.0001839469946996184, "58": -0.12782383294755562, "59": 0.05904533187633411, "6": -0.14105086030740427, "60": -0.07386706029307824, "61": -0.031881416889468106, "62": 0.07267776065631575, "63": 0.10897633146810916, "64": -0.08609023607323003, "65": 0.0685056849910478, "66": 0.07270372698167939, "67": 0.1589996255895314, "68": 0.11446293656876368, "69": 0.16060171347439833, "7": -0.18528596076068057, "70": 0.18283202401137474, "71": 0.2569190100507449, "72": -0.12875699135387922, "73": -0.08791115083069635, "74": 0.11934560740660968, "8": 0.171387532776524, "9": 0.0061920781962319605}}, {"depth": 3, "sx": 5, "sy": 5, "w": {"0": 0.18494322078317138, "1": 0.0597973823899525, "10": -0.09654925240854792, "11": -0.32445467418047447, "12": -0.013783185922284565, "13": 0.07243572470382507, "14": 0.004745805873610359, "15": 0.1647275623197839, "16": 0.03452692924666671, "17": 0.040460839378855105, "18": -0.07627110471020535, "19": -0.012122720381353792, "2": 0.08194174056499094, "20": 0.002929381736352601, "21": 0.018797862486435304, "22": 0.09168761526588166, "23": 0.01630788109499453, "24": -0.002931457834648462, "25": 0.045461095696361614, "26": -0.25988649724027013, "27": -0.09459656984710041, "28": -0.03276448523488228, "29": 0.17044712213212132, "3": -0.05085809083024095, "30": 0.12386727102107828, "31": 0.017928092933751923, "32": 0.2837829745343799, "33": 0.029902291074598786, "34": 0.16740961193834716, "35": -0.12175149100728816, "36": -0.09790133769805563, "37": 0.18490944176501659, "38": 0.0017988305743203425, "39": -0.02326697722856858, "4": 0.1607695847820396, "40": 0.18604589580217465, "41": 0.017662531778941795, "42": -0.20349540547193667, "43": -0.006979587922112132, "44": -0.18340233303210757, "45": 0.16194843277646154, "46": 0.16909986638300428, "47": -0.09660609681347701, "48": 0.03878273371751876, "49": 0.10117133943988957, "5": 0.029437373367745934, "50": 0.14895184456380345, "51": 0.029826338016033568, "52": 0.11641709742084769, "53": 0.03774550288861736, "54": 0.008856957210594636, "55": -0.0059644954196486225, "56": -0.1468662873139261, "57": -0.004400507132125628, "58": 0.024315257158916925, "59": -0.2524218264386473, "6": -0.18165144068848513, "60": 0.12488454639977851, "61": 0.18814069236265613, "62": 0.13265870880805217, "63": 0.026832958743313286, "64": 0.12222366659477599, "65": 0.06553724769166304, "66": 0.07153682183212133, "67": -0.1173950019650572, "68": -0.12553568302217835, "69": -0.15914924514144388, "7": -0.10730608501710023, "70": 0.02677722336129236, "71": 0.11835688039781442, "72": -0.0014160891875756915, "73": -0.03503498229651823, "74": 0.09773279379581097, "8": -0.1040531419766336, "9": 0.03263832447045331}}, {"depth": 3, "sx": 5, "sy": 5, "w": {"0": -0.3042595135475098, "1": -0.053984231315332754, "10": 0.008729308910523707, "11": -0.011884563098148579, "12": -0.1640544757181363, "13": 0.04873856960052183, "14": -0.05442697487540353, "15": -0.04479212567823362, "16": 0.07928288115254242, "17": -0.16863352669378773, "18": 0.024237823856994037, "19": -0.008930584082467096, "2": -0.16977981579364745, "20": -0.14035878521588618, "21": 0.00984999047858714, "22": 0.14590332989831994, "23": -0.15310791250320901, "24": 0.016508921461846116, "25": 0.2530591959830914, "26": 0.12826409413950585, "27": -0.030521883842354935, "28": -0.05538722019354288, "29": -0.1375352514624057, "3": 0.08331648838484221, "30": -0.14534942077151747, "31": -0.1452334669589506, "32": -0.015715982905076767, "33": -0.34283454948744424, "34": -0.11527086245782701, "35": -0.25714700637726046, "36": -0.046210178475019445, "37": 0.10498295915812403, "38": -0.1367478254692998, "39": 0.06693217793290077, "4": -0.1499375892627886, "40": 0.28971728126702784, "41": 0.2738336799153946, "42": 0.13430833352148364, "43": 0.14390615802367449, "44": -0.03335564989788088, "45": 0.03806881585703348, "46": 0.06290339786454455, "47": -0.20638034578828043, "48": -0.16089316555194, "49": 0.06819048166694973, "5": 0.016714810622831262, "50": -0.016066556665933134, "51": -0.012619452645811309, "52": 0.13694471630980626, "53": 0.03998277935583088, "54": 0.035090107348974824, "55": 0.02916712293384099, "56": -0.1411835646902518, "57": 0.08755065508752842, "58": 0.04371270058096089, "59": 0.0855658561923279, "6": 0.10927934704693083, "60": 0.19726499139973258, "61": -0.11417892457354782, "62": -0.1471945065328265, "63": -0.09100851596914945, "64": -0.00250749083818032, "65": 0.030739130799633325, "66": 0.07100739936608397, "67": -0.00897484015442927, "68": -0.09908885082821942, "69": -0.11517074780078954, "7": -0.18422900270326403, "70": 0.002381518340826272, "71": 0.18804559211111596, "72": 0.0029461736684036977, "73": 0.2522739957635729, "74": -0.05337813215826566, "8": -0.07807660703919982, "9": -0.11609194573367487}}, {"depth": 3, "sx": 5, "sy": 5, "w": {"0": 0.23545934706919097, "1": -0.09737120024736873, "10": -0.1284305234954591, "11": 0.034196749370295695, "12": 0.09825293786047874, "13": -0.06918827887377757, "14": -0.26802878182021367, "15": 0.0002756930030799147, "16": 0.10791629601520993, "17": 0.14106034994448674, "18": 0.2579008816174718, "19": 0.056785874508857956, "2": 0.0022789776284785784, "20": -0.06587097848712535, "21": -0.032031094058518665, "22": -0.14989705821667232, "23": 0.12567243562479521, "24": -0.18430022887037484, "25": 0.15014152539506145, "26": 0.07273098640267026, "27": -0.09472038397464957, "28": -0.13196246483913443, "29": -0.013615305852641535, "3": 0.09024816734162913, "30": 0.02243814937002237, "31": -0.029273902538215293, "32": 0.10254944422422582, "33": 0.0764780821095444, "34": -0.1586855761950251, "35": -0.1306499867805764, "36": 0.12692014324101325, "37": 0.061167821663257294, "38": 0.006348748183597233, "39": 0.02690386050547989, "4": 0.04046807339466294, "40": 0.08470218704516692, "41": -0.15635893199488365, "42": -0.009723138868270882, "43": -0.04338954245718974, "44": -0.09871975941176024, "45": 0.07568241465351842, "46": -0.1897051425152616, "47": 0.15622279237990233, "48": 0.024581966637996375, "49": -0.0065736754900391735, "5": -0.06073810758247222, "50": 0.13131598246685308, "51": -0.1786516788574996, "52": -0.1155072839623823, "53": 0.23954612175495582, "54": 0.08743828904981162, "55": 0.1700023865386017, "56": -0.09567727888234305, "57": -0.12977622502335992, "58": -0.17418759921492305, "59": 0.004561579161863201, "6": 0.03393279952450617, "60": -0.03270623756462825, "61": 0.01727107223223809, "62": 0.09957326584848507, "63": 0.01995483422871554, "64": -0.11967117847047216, "65": 0.10998450014864224, "66": 0.11571350947050758, "67": -0.1398112277334313, "68": 0.09935896682648626, "69": -0.08625810260739518, "7": -0.12998963215260745, "70": -0.07284601862490883, "71": 0.2093225529906787, "72": 0.09353174568051281, "73": -0.11036779578682651, "74": 0.003790017876984745, "8": 0.11623923043921047, "9": -0.17352474246118824}}, {"depth": 3, "sx": 5, "sy": 5, "w": {"0": 0.22723648874315466, "1": -0.01096625519287924, "10": -0.09408574748671157, "11": -0.027947747460892493, "12": 0.021508867695304374, "13": -0.06834070598167075, "14": 0.12463473050372469, "15": 0.2978298168389536, "16": -0.19403616999607678, "17": 0.09472617365699217, "18": 0.4913551424636203, "19": -0.1258838414141095, "2": 0.06958403199658245, "20": 0.009009264711113683, "21": 0.057506977964261206, "22": 0.010304873556400798, "23": 0.04094595183498432, "24": 0.11055131428975572, "25": 0.0832998622205108, "26": 0.056759912732319194, "27": 0.008306177826193202, "28": 0.29768173515481, "29": 0.3033796164492545, "3": 0.05977954057340575, "30": 0.23856217702766436, "31": -0.1322804540536825, "32": -0.017578090020470442, "33": 0.18860226890248205, "34": 0.06790211516271298, "35": 0.03004418888064196, "36": 0.0771664695972999, "37": -0.1352038064698902, "38": 0.052687277816578885, "39": 0.12158368766946388, "4": 0.1191664016131967, "40": -0.2604547556531658, "41": 0.16496542862346664, "42": -0.07478832188980097, "43": -0.1941912907501045, "44": 0.24726614246080797, "45": -0.2858482563827208, "46": -0.30516516407431127, "47": -0.0075006900129384714, "48": -0.005176566034602638, "49": -0.11117728610820331, "5": -0.019255833715459577, "50": 0.026222655693706364, "51": 0.01431537384017521, "52": -0.28578564585582905, "53": 0.022692423544581446, "54": -0.040835184087287445, "55": -0.10129307270339953, "56": 0.09570346085605333, "57": 0.1318648949533255, "58": -0.10662460110406115, "59": -0.0976461539823177, "6": -0.02082946545851401, "60": 0.01011351495652996, "61": -0.1658473084569923, "62": 0.15508000084224527, "63": 0.023128233587175737, "64": -0.08214414635860845, "65": -0.1732305994328109, "66": 0.19499170425136095, "67": -0.20201325578233809, "68": -0.036580625522751, "69": 0.15854049351913774, "7": -0.025051847698129, "70": -0.2182565095579398, "71": 0.10630046208192762, "72": -0.21188215253520895, "73": 0.047979388914593996, "74": 0.03453175237313695, "8": -0.05414251788611012, "9": 0.2735596052075389}}, {"depth": 3, "sx": 5, "sy": 5, "w": {"0": -0.1683018851454712, "1": 0.11568834482346772, "10": 0.009060216695285811, "11": -0.02271382375287232, "12": -0.16947594085556297, "13": 0.3027706793428939, "14": -0.05677147910629292, "15": -0.009804352798595676, "16": -0.09444387238163235, "17": -0.11686259786434239, "18": 0.17230274467427045, "19": -0.025134589195537065, "2": -0.04601736583040289, "20": 0.07446458577979326, "21": -0.15241314297008857, "22": 0.18616254514750527, "23": 0.030779032966994538, "24": -0.0018059113915638303, "25": 0.17405030269482305, "26": -0.02975624422123494, "27": -0.07194544535457806, "28": -0.08976023315319362, "29": -0.06826627811590674, "3": -0.032917135464311895, "30": 0.09494725068511077, "31": -0.005151278402876367, "32": 0.014388832371297846, "33": 0.1922403968717615, "34": 0.276405507789509, "35": 0.24749552237530387, "36": 0.08239499826495468, "37": -0.016778324317314092, "38": 0.0775526365816433, "39": -0.12547379249227947, "4": 0.31781429477312906, "40": 0.027840651431000736, "41": -0.07192591833672632, "42": 0.06868261119271309, "43": -0.045597516153655614, "44": -0.029711823252409376, "45": 0.12489562409347227, "46": -0.034162565170007576, "47": 0.17016554321486885, "48": 0.02071845887890738, "49": 0.18710014683321952, "5": 0.013864729974327115, "50": -0.04963109583537935, "51": 0.01284226394909691, "52": 0.023105926170591755, "53": -0.12425492241802809, "54": 0.0702604586832917, "55": -0.0007292061955233003, "56": -0.024020515098496217, "57": -0.23472700927198523, "58": -0.07580634575239224, "59": -0.1356695132868577, "6": 0.2207093423833965, "60": 0.017460849115900554, "61": 0.17738493251868523, "62": 0.19673609716259916, "63": -0.035620026270974214, "64": 0.028050737016358494, "65": 0.007828320647695213, "66": 0.05023668523517137, "67": 0.05434539699241182, "68": 0.25435163637603586, "69": -0.19781453685746164, "7": 0.15976549906026266, "70": -0.006578743164434974, "71": 0.3440234535605126, "72": -0.06577291807738953, "73": -0.012661487991999886, "74": -0.1641041376645655, "8": -0.1356222409156549, "9": 0.12609698150495474}}, {"depth": 3, "sx": 5, "sy": 5, "w": {"0": 0.03964453492867175, "1": -0.08741719686388152, "10": 0.007135510191906919, "11": 0.17643905484797753, "12": -0.014959685351284672, "13": -0.09063893527626478, "14": 0.18141543934640617, "15": -0.04964951449997452, "16": 0.02743185692021348, "17": 0.3290751688709186, "18": -0.16655633594883867, "19": 0.04114499960346171, "2": 0.0714932129736747, "20": 0.02508573093526092, "21": -0.007566468216803632, "22": -0.06389252103390529, "23": 0.3732570333885087, "24": 0.043560319853750196, "25": 0.06057151786095294, "26": 0.11485400643865123, "27": 0.02564740439922733, "28": -0.03536526039380605, "29": 0.023003455182344028, "3": -0.31769191153491055, "30": -0.17458771401425285, "31": -0.14472379358180212, "32": 0.0012851162998928091, "33": -0.11985902044230891, "34": 0.05244783020465167, "35": 0.017868844477616712, "36": -0.09334772955960861, "37": -0.06949233299092102, "38": 0.10649874636003939, "39": 0.062099374222083226, "4": 0.18121228679863188, "40": 0.14798354078401013, "41": 0.02061678687049139, "42": -0.06930964588308522, "43": 0.07797796079007208, "44": -0.08725039286680658, "45": 0.06684967067982887, "46": -0.006415796067052096, "47": 0.17478004480555145, "48": 0.1623039481566628, "49": -0.05922636569194495, "5": 0.061314912604694086, "50": 0.04667098563707702, "51": -0.00016163194135433495, "52": 0.16340304049735846, "53": 0.025785669980876308, "54": -0.1355733878910891, "55": 0.12405797894448077, "56": 0.07146725435454457, "57": -0.01565759245844214, "58": -0.17719953051059426, "59": 0.12129324342230025, "6": 0.044338987228178264, "60": 0.05815883940711977, "61": -0.09298812674687632, "62": 0.16869254329554428, "63": 0.13883475399274234, "64": 0.03362107048693321, "65": 0.01363525183266852, "66": 0.09129353432473593, "67": 0.02590050636810824, "68": 0.16317585127968467, "69": -0.008644076488185179, "7": -0.04570566411290692, "70": -0.002255821579923175, "71": 0.07540325194006345, "72": 0.017953510533095404, "73": 0.1502035309871247, "74": 0.1136390941352656, "8": -0.11174141647704958, "9": -0.060409505680336026}}, {"depth": 3, "sx": 5, "sy": 5, "w": {"0": -0.2712913576880698, "1": -0.0077779655408112165, "10": 0.12715033617800955, "11": 0.31073992351165264, "12": -0.08501330783526323, "13": 0.023051419582343302, "14": 0.17541327062590722, "15": -0.062419658657705206, "16": 0.025670709342338522, "17": 0.28808370729379823, "18": -0.004351248331308527, "19": -0.08315035168024809, "2": -0.04885172286616493, "20": 0.2566940753738501, "21": -0.12493864867273098, "22": 0.1632635748722359, "23": 0.11725544039649319, "24": -0.1157275114535105, "25": -0.16651623090958664, "26": 0.006739331270392168, "27": 0.09845851537364467, "28": -0.12330032576864913, "29": 0.16929216038177525, "3": 0.04293000001644039, "30": 0.05054605231502529, "31": -0.022341304984247128, "32": 0.12209532223821967, "33": -0.18793691121385003, "34": 0.10396304213977994, "35": 0.11802704964527234, "36": -0.04490585990523123, "37": -0.023188195790458947, "38": 0.2792552549925205, "39": 0.03667914858681673, "4": -0.07143539172712378, "40": -0.12792230240817964, "41": 0.211856804230586, "42": 0.1630349719645298, "43": -0.08351865077791039, "44": 0.04028954149718311, "45": -0.16372236076115673, "46": -0.2129373070222052, "47": -0.14264298119046706, "48": 0.10256246549185598, "49": 0.01641918156280942, "5": 0.11219764929200753, "50": 0.022108594074498555, "51": -0.1657188885177536, "52": -0.01192281640433325, "53": -0.005449466527068069, "54": -0.22767910914596381, "55": -0.01842330833488393, "56": 0.24419453433015045, "57": 0.04008964540644963, "58": -0.07621059004955197, "59": -0.05118497886442782, "6": 0.035528768889875, "60": -0.02558121454277402, "61": 0.07427320626799033, "62": 0.03721365444148295, "63": 0.013907439225333749, "64": -0.11629920449726984, "65": 0.030167738359730273, "66": -0.21845477131178798, "67": -0.04579147706150417, "68": -0.02560530470190035, "69": 0.05102089321133841, "7": -0.20011839144389298, "70": -0.07771472757255964, "71": 0.3098403389577093, "72": -0.0884045109413092, "73": 0.08314956133819339, "74": -0.05953850286524753, "8": 0.2126326440923449, "9": -0.12494240505057076}}, {"depth": 3, "sx": 5, "sy": 5, "w": {"0": -0.14320898102886057, "1": -0.020844693266678954, "10": -0.08915256092367542, "11": 0.11916526024253597, "12": 0.014305120987742937, "13": 0.14453077444205006, "14": 0.1379165483849489, "15": -0.06800026099507016, "16": 0.012249970680739066, "17": 0.10321996146879264, "18": -0.046176557030818334, "19": 0.1445373230991831, "2": 0.049424975026471675, "20": 0.11570548989476648, "21": -0.012206474328326751, "22": 0.002898691450376794, "23": 0.23634929859012493, "24": -0.000721646285741019, "25": 0.061119203265014826, "26": 0.037646235991145444, "27": -0.047029108764939355, "28": -0.004534135784165142, "29": 0.14776341312208205, "3": -0.10560398731665457, "30": -0.20094653737294726, "31": 0.039373487960506874, "32": 0.05592153836913994, "33": 0.05670026978127612, "34": 0.04658328197115161, "35": 0.025146392171761164, "36": -0.044505974750104586, "37": -0.23005035204960925, "38": -0.02312647191661718, "39": 0.043123421117557285, "4": -0.14992655130639926, "40": 0.08636932364248952, "41": -0.02043577038184665, "42": 0.01559333371670332, "43": -0.014150767066411322, "44": 0.07132486247419191, "45": -0.010455995556074139, "46": -0.1968080980873379, "47": 0.16145588225264995, "48": -0.0027599366918524366, "49": 0.10345056972335, "5": -0.02002745363987586, "50": -0.07436592106672342, "51": 0.03578123567791097, "52": -0.10505884300874029, "53": -0.10628033733625113, "54": 0.049474070350114245, "55": -0.11813225394632033, "56": 0.030331069661760447, "57": -0.02941353948691915, "58": 0.041141923743567024, "59": 0.09445366429996606, "6": 0.11880364621374191, "60": 0.05304578836709997, "61": 0.09071956817146229, "62": -0.0017618354587713666, "63": -0.08155569153344108, "64": -0.026477747710117534, "65": 0.03845843642034658, "66": 0.13655368802588164, "67": -0.3121127307781347, "68": 0.18282790221329187, "69": 0.10542478571057154, "7": -0.036066461855463125, "70": -0.0537058664350464, "71": -0.24157397087320062, "72": 0.1104213045239384, "73": -0.09373719596203017, "74": 0.15954532160760768, "8": 0.07037991954695752, "9": -0.07852577876081429}}, {"depth": 3, "sx": 5, "sy": 5, "w": {"0": 0.07919936323744786, "1": 0.004157542759692776, "10": 0.02446555387475919, "11": 0.24570576946810435, "12": 0.004945077661270322, "13": -0.013720882804607752, "14": -0.08281036054547487, "15": -0.19830967010363637, "16": 0.052832005132064874, "17": 0.25657551219796243, "18": 0.07165475337891652, "19": -0.1326454680779129, "2": 0.06763715182797575, "20": 0.1566878945996816, "21": -0.2074353414440903, "22": 0.14273607547148884, "23": 0.1540069352474833, "24": -0.05498158783685342, "25": -0.2559227220929366, "26": 0.06566275766102075, "27": -0.10786635680048494, "28": 0.011085292970316997, "29": 0.12676713332241504, "3": -0.04822101074537352, "30": 0.16012315147043807, "31": -0.061355915949917565, "32": 0.0753978130782077, "33": -0.27856302822631274, "34": -0.050122009904827146, "35": 0.03180621787714046, "36": 0.059937463587267426, "37": 0.08652883847135424, "38": 0.21731699689059042, "39": 0.07793284582581482, "4": 0.15070148894672472, "40": 0.06252784618338696, "41": 0.1221948960545519, "42": -0.14647300634907265, "43": -0.14657731306484212, "44": -0.009196008059013577, "45": -0.0020154294955190928, "46": 0.06605516777206713, "47": 0.15840270084889227, "48": 0.011488661652357474, "49": 0.040227791058006265, "5": 0.030733142720452526, "50": -0.17062523791550946, "51": 0.011567614312583196, "52": -0.11770402609531176, "53": 0.041265308522751204, "54": -0.10453474113080577, "55": -0.043062817945676124, "56": 0.2197888513544978, "57": -0.06302079006817775, "58": -0.04064387561984369, "59": 0.09690092509854398, "6": 0.13074653642577416, "60": 0.10614461076462149, "61": -0.07265238652376853, "62": 0.01937412692456952, "63": 0.15517414427847637, "64": -0.1966553492467896, "65": -0.1369844803577069, "66": 0.1847612834390973, "67": -0.06971356943379435, "68": 0.039823769084315355, "69": 0.13121713396331888, "7": -0.07573482770951624, "70": -0.07412396573475931, "71": 0.1044693384454988, "72": 0.11895674449395605, "73": -0.07656927405766455, "74": -0.09540530473169526, "8": -0.058577390970974676, "9": 0.1042975751151187}}, {"depth": 3, "sx": 5, "sy": 5, "w": {"0": 0.03319836549430005, "1": -0.12676479311776537, "10": 0.03670161580574151, "11": 0.11602905758180752, "12": -0.06503798795628252, "13": 0.0022040975351192466, "14": 0.1533429624535444, "15": -0.20591510305478808, "16": 0.06327635152139013, "17": 0.1613437093901448, "18": 0.005780386177952683, "19": 0.04889566041039304, "2": 0.01906477732841168, "20": 0.01526028072469628, "21": -0.2438740393819499, "22": 0.10405058855703456, "23": -0.06439701207951169, "24": -0.10488219221898974, "25": 0.1021698481350608, "26": 0.20854211007034637, "27": 0.011755261233152485, "28": -0.19869588770431584, "29": 0.16790156185739147, "3": 0.008960870123783472, "30": -0.14252890148898928, "31": 0.043628436297791624, "32": -0.04028411200551994, "33": -0.02142615699301498, "34": -0.045985450467683195, "35": 0.18407650193746156, "36": -0.30279090944490034, "37": -0.11296134251160729, "38": 0.3265078466552964, "39": -0.1123849013795312, "4": 0.08949181231288306, "40": 0.03179637962461453, "41": 0.19297265200234268, "42": 0.24790372386371437, "43": -0.0722321702986513, "44": 0.10812499925650075, "45": -0.07963809409856695, "46": 0.15096969767921045, "47": 0.1584529049553981, "48": -0.2099783775715115, "49": 0.11482099000719609, "5": 0.10264272763999138, "50": 0.008341997692346927, "51": -0.022593191962633007, "52": -0.008844272362176914, "53": 0.17231709110825022, "54": 0.020817333279018198, "55": -0.12023958808429049, "56": 0.018012578768062795, "57": 0.03206593705444733, "58": -0.13892973667898587, "59": 0.10085719007987778, "6": -0.04657138422101508, "60": 0.046607640160093396, "61": -0.00809559763546368, "62": 0.001563298241034617, "63": 0.007778512326127186, "64": -0.10051282990622065, "65": -0.1594673902953743, "66": -0.09720595346077883, "67": 0.008330011029910843, "68": 0.010751976619791078, "69": 0.11216094718142391, "7": 0.05045550068098086, "70": -0.18539176465282592, "71": -0.036373993936627755, "72": -0.0036412852265556538, "73": -0.005812424833126646, "74": 0.170520189054875, "8": 0.008215202151485444, "9": -0.09250495142660921}}], "in_depth": 3, "l1_decay_mul": 0, "l2_decay_mul": 1, "layer_type": "conv", "out_depth": 16, "out_sx": 32, "out_sy": 32, "pad": 2, "stride": 1, "sx": 5, "sy": 5}, {"layer_type": "relu", "out_depth": 16, "out_sx": 32, "out_sy": 32}, {"in_depth": 16, "layer_type": "pool", "out_depth": 16, "out_sx": 16, "out_sy": 16, "pad": 0, "stride": 2, "sx": 2, "sy": 2}, {"biases": {"depth": 20, "sx": 1, "sy": 1, "w": {"0": 0.05136388056011056, "1": 0.040706442029408804, "10": 0.07956349271330054, "11": 0.08189765488756676, "12": 0.04424667654144106, "13": 0.06587282530081977, "14": 0.06698792792888018, "15": 0.16737377441912255, "16": 0.16898141282688184, "17": 0.08564973427523807, "18": 0.053961398202220935, "19": 0.05840073016711747, "2": 0.07075183117547292, "3": 0.0972846440965923, "4": 0.15707501206564597, "5": 0.07810087766169944, "6": 0.0534770916472212, "7": 0.07893677984550465, "8": 0.03284220606721971, "9": 0.07486922107775089}}, "filters": [{"depth": 16, "sx": 5, "sy": 5, "w": {"0": -0.0021948263436772793, "1": 0.02775381847775785, "10": 0.0330738510644877, "100": -0.045941366229307265, "101": -0.04834254672566385, "102": 0.016338999943692454, "103": 0.023770394108769667, "104": -0.10276885337863836, "105": -0.08580462846985257, "106": 0.008520364033673003, "107": -0.057342132224063994, "108": -0.09278971330466844, "109": -0.017580136198802544, "11": 0.010366456459217821, "110": 0.1033802649480091, "111": -0.015795483302027777, "112": -0.00348389958361798, "113": 0.04837802739346427, "114": -0.06907048783559322, "115": -0.07884242241401346, "116": -0.04368813841993319, "117": -0.022848573941717062, "118": 0.021069951874329546, "119": 0.07973391810805784, "12": 0.016635816836466442, "120": -0.027532835035796777, "121": -0.035690854370682784, "122": 0.032573975469842406, "123": 0.11083745894198747, "124": -0.07608244063499643, "125": -0.039469411988450186, "126": 0.048241007969783464, "127": -0.06501212402247925, "128": -0.026641434146531553, "129": -0.0707746165634586, "13": 0.05897073200329462, "130": -0.027663038215929664, "131": -0.04601831372071347, "132": -0.0809980866130285, "133": -0.05125206585969835, "134": 0.05603288212806378, "135": -0.04597534980415195, "136": 0.045616587010217605, "137": -0.07086261188189004, "138": 0.06352859785442598, "139": -0.010301212820967699, "14": 0.029269377015135753, "140": -0.07407365535073987, "141": -0.07902476308477474, "142": 0.02818132356701744, "143": -0.006080028147087479, "144": 0.041101674855559635, "145": 0.03880670671916719, "146": -0.04355300762080362, "147": 0.019588925740394125, "148": 0.019579621760788587, "149": -0.07770703741427516, "15": 0.10793687791161383, "150": 0.03550605278456196, "151": -0.11276583754201383, "152": -0.05417582948162932, "153": -0.06574830059118415, "154": -0.04197934466799821, "155": 0.009591163902654553, "156": -0.06197180700164033, "157": 0.025398144413830738, "158": -0.021853612731477193, "159": -0.010962964278105879, "16": 0.040796232639113354, "160": -0.05072755362366288, "161": -0.05817473792216281, "162": -0.016642559111086853, "163": -0.017460525992632966, "164": 0.05099115081715599, "165": -0.013356843086285876, "166": -0.038025606858416244, "167": -0.08639911202088281, "168": 0.03979613561258518, "169": 0.06845455859219322, "17": -0.04699209369532111, "170": -0.054119523662556485, "171": -0.0225562441614783, "172": -0.11314439079093391, "173": 0.00687090103772267, "174": 0.01003730137641316, "175": 0.008792408358505446, "176": -0.07402085201317428, "177": -0.06897550375786042, "178": -0.044317444650041116, "179": 0.023064599808082075, "18": 0.06517184421079227, "180": 0.05512738051753667, "181": 0.014418023795542355, "182": 0.04169683636837907, "183": -0.07967644924702723, "184": -0.024842059803298688, "185": -0.029650994265352067, "186": 0.03319886836879468, "187": 0.04346177106330737, "188": 0.05383828919952005, "189": -0.03207366766112422, "19": -0.026301064177274396, "190": 0.026879918063294428, "191": 0.025384749117295553, "192": -0.04787617851034919, "193": -0.08959910152624458, "194": 0.09113206545053447, "195": 0.061207117159722116, "196": 0.011839471118822564, "197": 0.13065836333703187, "198": 0.03497871186732618, "199": -0.03762806760814696, "2": 0.07930343465281084, "20": 0.008883870155512435, "200": -0.041925127627680144, "201": 0.00678617047555229, "202": 0.10172732687010648, "203": -0.026577593614567012, "204": 0.02774212029958456, "205": 0.03406150494598582, "206": -0.01672659132016311, "207": -0.08445000973606946, "208": -0.08975139381833984, "209": -0.09394494081893914, "21": -0.0456521198503489, "210": 0.03131244390847632, "211": 0.004472563601924139, "212": 0.01875213444017374, "213": -0.016114325242834723, "214": -0.026286351323017654, "215": 0.0009865351737784174, "216": 0.006123084319971322, "217": -0.01227164299934907, "218": 0.0043000617246032186, "219": -0.061431817041555106, "22": 0.03281854361083703, "220": 0.03224194544183152, "221": 0.07587610650706589, "222": 0.027257233869519108, "223": -0.052797637986079116, "224": -0.03336756489519248, "225": -0.02020420110969449, "226": 0.012012856027013562, "227": -0.0844786359773123, "228": -0.07406758400036058, "229": 0.09441331089475838, "23": -0.09326843387011859, "230": -0.00374817477092213, "231": -0.06865436705631987, "232": -0.013308271383491487, "233": -0.0032619247903081447, "234": 0.028053649048216292, "235": -0.020133115671874726, "236": 0.03562413819455324, "237": 0.09182770170578258, "238": 0.0014682894115844944, "239": 0.027313237412589786, "24": -0.058338689016286326, "240": -0.05396932872276181, "241": -0.05068688624757939, "242": 0.09766147727661902, "243": 0.009194460658045394, "244": -0.09707790681413302, "245": -0.02098960955353812, "246": -0.07476522872666246, "247": -0.06097421490193346, "248": -0.09729084081523817, "249": -0.01864439446124822, "25": 0.10602390741549869, "250": -0.044903415305864745, "251": -0.007886668117983907, "252": -0.016667355958306377, "253": -0.02870660905763175, "254": -0.04048307512922781, "255": -0.0006604519669809817, "256": -0.012677061273884559, "257": -0.1083292069890116, "258": -0.043016990414170654, "259": -0.021203255759625086, "26": -0.016635060851006134, "260": -0.07262052659042878, "261": 0.02974476336223368, "262": 0.025095942278338435, "263": -0.06615862915653638, "264": -0.12869670182424106, "265": -0.06743561362045548, "266": -0.05614980037706325, "267": -0.09017026615107636, "268": 0.025321540692248477, "269": 0.03766207668456379, "27": 0.04568229392732506, "270": 0.037488069386827826, "271": 0.0009763683009205899, "272": 0.03278053133087224, "273": -0.026940698343619958, "274": -0.0371780638789214, "275": -0.06162990984406304, "276": -0.030575283247495883, "277": 0.0041864595654827206, "278": -0.08517303064049964, "279": -0.10132367721272167, "28": 0.03297754957266346, "280": -0.05780178780260397, "281": -0.05724139759385211, "282": -0.08415256124626996, "283": -0.05386089912441876, "284": -0.07663942771340304, "285": -0.009137608742757364, "286": -0.02448321809840228, "287": -0.04723549550052157, "288": 0.05604732060600574, "289": -0.0008033100952845321, "29": 0.01226656388194072, "290": -0.08000800167466841, "291": -0.06097338166948326, "292": -0.01449654028016606, "293": 0.045636933898039, "294": 0.02064298172378082, "295": -0.002931212891163208, "296": -0.10101992139800128, "297": 0.01004146421787122, "298": -0.022097505126489014, "299": -0.024371527583037837, "3": -0.05148664526759978, "30": 0.02868575885320773, "300": -0.046936181414924186, "301": 0.02861235994587166, "302": -0.07685548362416636, "303": -0.04651380862303218, "304": -0.03766474813681972, "305": -0.06340784253459626, "306": 0.0022037109882742517, "307": 0.02627623141457949, "308": 0.05438454364263347, "309": -0.003871784791312402, "31": -1.6548712794754988e-05, "310": 0.015195732112932406, "311": -0.0441660138597853, "312": -0.047626709277922084, "313": -0.12049187529188037, "314": -0.05922982328367318, "315": 0.04299216515912553, "316": 0.14265164512104125, "317": -0.10452159350479566, "318": -0.03195209655478255, "319": -0.00705740029810615, "32": -0.021522294243416274, "320": -0.028264146790096867, "321": 0.07212839055201185, "322": -0.04553758871238245, "323": -0.05837177415807199, "324": -0.11119391856036635, "325": 0.04029586609906475, "326": -0.05334962557137441, "327": -0.011230246257702099, "328": -0.0922806146188008, "329": -0.07820215021922357, "33": -0.0133495063941798, "330": 0.02211541392397659, "331": -0.05792304692279702, "332": -0.0550867638938782, "333": 0.07518429501285152, "334": -0.03347504587713061, "335": -0.04727916952761193, "336": -0.09149897235454128, "337": -0.0028513231134806743, "338": 0.06102495916039998, "339": 0.05945738263112038, "34": -0.03255687607626244, "340": -0.037243371404470545, "341": 0.04871617815149927, "342": 0.057597751611432796, "343": -0.03388432850767319, "344": -0.02498502948479412, "345": -0.06838722963328703, "346": -0.042148321275487316, "347": -0.04777947845454304, "348": -0.05533569459139819, "349": -0.07689294125223164, "35": -0.14635212096393183, "350": 0.051100342012811016, "351": -0.006319627647543283, "352": -0.035880853308635524, "353": -0.040095614139613114, "354": -0.014480257673474842, "355": -0.07508765585393606, "356": -0.038167572525181125, "357": -0.06814211508589062, "358": -0.08582530019740349, "359": -0.013115373947688112, "36": 0.0479030050167957, "360": -0.08471347915179069, "361": 0.008465449252005703, "362": -0.03538805316631518, "363": -0.04635698021179223, "364": -0.11630162551536052, "365": -0.15375175293465643, "366": -0.007976024851002562, "367": -0.04280890360748679, "368": -0.0557266664882416, "369": -0.05834252417163248, "37": 0.007208487624193179, "370": 0.010249810625304471, "371": -0.027536108764353945, "372": -0.03264020260871822, "373": 0.035936011041976246, "374": -0.07730508268406142, "375": 0.03239260807569442, "376": -0.0596893758701498, "377": -0.09122043697845401, "378": -0.04351810910476237, "379": -0.08492063577742917, "38": 0.03413196042722283, "380": -0.051868537013573905, "381": 0.0011255774578023655, "382": -0.12556925571056074, "383": -0.08771780805120952, "384": -0.07718127049890372, "385": 0.029749907568831935, "386": -0.10152141988968312, "387": 0.0012907243966622257, "388": -0.051506738235182564, "389": -0.04862794156277639, "39": -0.025213935641778058, "390": -0.06678631041478873, "391": -0.028653730002626228, "392": -0.07533855125624608, "393": -0.04659710042684408, "394": -0.015131931099081853, "395": -0.0405342195463611, "396": -0.05458202845294467, "397": -0.06259932126606198, "398": -0.05261525134849493, "399": -0.052296597634187605, "4": 0.027968452562195087, "40": -0.041331651616758995, "41": 0.04372121517849182, "42": -0.08741012157440559, "43": -0.046377271600736285, "44": 0.041191360913474986, "45": 0.09447261935648557, "46": -0.15715880096814872, "47": 0.02577394446056446, "48": -0.03285352953680236, "49": -0.06924114228755449, "5": -0.013450389044354277, "50": 0.14250702090408912, "51": -0.10689844758540899, "52": 0.013346775936327805, "53": 0.11813670808688681, "54": -0.03749340040125175, "55": -0.03661817706528836, "56": 0.03269274554255184, "57": -0.10399150170867441, "58": 0.002651182027051839, "59": -0.025902442421304912, "6": 0.0038011542299559694, "60": -0.04148276706852835, "61": 0.042243200431068606, "62": 0.11223241635397097, "63": 0.03242311015744929, "64": 0.03751883610935033, "65": -0.1287249642378902, "66": 0.01712768999896947, "67": -0.060304340510144654, "68": -0.03400786186107245, "69": -0.0363403227077006, "7": -0.09597309747143347, "70": -0.009621371160938216, "71": -0.024072458635342027, "72": -0.04786188177086466, "73": -0.02934960094480575, "74": -0.029862059871086, "75": -0.016717463343606277, "76": 0.07441155345508349, "77": 0.1179751615366437, "78": 0.020086979681140205, "79": 0.04770755295453026, "8": 0.010090832533531515, "80": 0.05102265632214738, "81": 0.05290981961550911, "82": -0.00030609432318576615, "83": 0.022780593624177222, "84": 0.08480077419268527, "85": 0.044041082244216524, "86": 0.026712423183489164, "87": -0.019470009326079035, "88": -0.04723583897975019, "89": 0.01109683078987602, "9": -0.018619083130215323, "90": 0.03216366932246702, "91": 0.06952066520526916, "92": 0.10561632498374683, "93": -0.06698481472804747, "94": -0.051303917563645794, "95": -0.02132046081066629, "96": -0.06354980689840212, "97": -0.015258645494272936, "98": -0.04542650274757466, "99": -0.044807329232391634}}, {"depth": 16, "sx": 5, "sy": 5, "w": {"0": 0.001021287204015, "1": 0.017661544474267085, "10": -0.048890938107706304, "100": 0.07216996661114514, "101": 0.005218760909402813, "102": -0.04189504147524231, "103": -0.09085606981418337, "104": -0.08139642436065415, "105": -0.05872776273611605, "106": 0.024715799578906926, "107": 0.019479219036861565, "108": -0.062480102077241216, "109": -0.03485823038069823, "11": -0.004067331296448577, "110": 0.0050793366754618915, "111": -0.03217438581372442, "112": -0.06948838175878637, "113": -0.05491229717323266, "114": -0.014413420110637227, "115": -0.07983132452130304, "116": 0.03421286911302035, "117": -0.055775820909400975, "118": -0.08157624432856356, "119": 0.013246329013390297, "12": 0.01844828773080739, "120": 0.030523117426548327, "121": -0.001179035918450011, "122": 0.004229425794050387, "123": -0.051735271097461025, "124": -0.056079970538497836, "125": -0.02928845970299503, "126": 0.006309631058474858, "127": 0.020869956002123283, "128": -0.034402934002179836, "129": 0.02368640854371747, "13": -0.06537622395755625, "130": 0.0028270249884104395, "131": -0.02470452394034992, "132": 0.014459750353481791, "133": -0.006891251038211576, "134": 0.025867493771523947, "135": -0.008086958652359408, "136": -0.0016674279859053543, "137": -0.007853511426637538, "138": 0.04898917203736561, "139": 0.016888532335358253, "14": 0.035044933662995964, "140": 0.02674414274203538, "141": -0.019378800769347334, "142": -0.006148853168544773, "143": 0.031052700332628524, "144": -0.017484142416306466, "145": -0.008852103139503914, "146": -0.013481466504114066, "147": 0.04710397134109302, "148": -0.011929080309956734, "149": 0.03577412655811988, "15": -0.037824865554518715, "150": -0.013910895869471765, "151": -0.032011659532809676, "152": -0.06260060116871463, "153": -0.02366611645290416, "154": -0.0886562101734548, "155": -0.06537707821824942, "156": 0.0005814432679503081, "157": 0.022626726647958416, "158": 0.025276145355277082, "159": 0.039504399817615575, "16": 0.038604631009464596, "160": -0.024343499021379042, "161": 0.011785966259831356, "162": -0.023219397335597507, "163": -0.019340044180161886, "164": 0.0526647001210449, "165": 0.023315925828310748, "166": -0.049762867011560456, "167": 0.035107830398982943, "168": -0.013635610266786754, "169": 0.011399971478841826, "17": -0.04657963075193338, "170": -0.04856532435423558, "171": 0.001609450313172902, "172": -0.007641330390913412, "173": 0.00309040960939473, "174": 0.01084429096910715, "175": -0.037781086633804986, "176": -0.013486056223939256, "177": -0.030658285049486363, "178": -0.008852369565744506, "179": -0.04288475090909025, "18": 0.027096507947574903, "180": 0.017174074042239133, "181": 0.03319261702448558, "182": -0.07593360717418776, "183": -0.07348678710697554, "184": -0.09433273126497685, "185": -0.05124029234912686, "186": 0.02136600296649765, "187": -0.07750788987117896, "188": -0.039125471496053665, "189": 0.002030718278948747, "19": -0.11974831081436862, "190": 0.1336769770347743, "191": 0.04614203262717104, "192": -0.05775548251669093, "193": 0.026451219050008544, "194": -0.1876794358292564, "195": -0.07311228669995255, "196": -0.002273384793527225, "197": 0.0158157369302492, "198": -0.006189797850080187, "199": -0.12383581168186474, "2": 0.048042332035532556, "20": -0.0029743464847490813, "200": -0.06355274648107878, "201": 0.014335246827580556, "202": 0.052319838644716024, "203": -0.009570538403140382, "204": -0.007514098970114101, "205": -0.04812677164761575, "206": 0.00637505450172851, "207": -0.04358717938915721, "208": 0.02545700100677558, "209": 0.03618868823957142, "21": 0.005588719162333265, "210": 0.03544969324692455, "211": -0.0017449931403820985, "212": -0.008728028807033212, "213": 0.05538035387200229, "214": -0.12004488350238027, "215": 0.03368057394220541, "216": -0.0009489571022101095, "217": 0.0034671333951349593, "218": -0.09981329196663626, "219": 0.0773118671773354, "22": 0.09368743695270315, "220": 0.04324017092309057, "221": -0.03180563618840882, "222": -0.0022437496336784415, "223": 0.016183938160875332, "224": -0.04820878948716679, "225": -0.03579490389349189, "226": 0.014693873444751265, "227": 0.10559042411971385, "228": 0.05851696751373476, "229": -0.010472571861924124, "23": -0.056231482739576163, "230": -0.007739791363364165, "231": 0.0027944403873052504, "232": 0.007863037220086229, "233": -0.007423341354907782, "234": -0.07323189347981723, "235": -0.050101897355258156, "236": -0.03430167269462199, "237": -0.049204963259498066, "238": 0.025694857887335717, "239": 0.026496689315881918, "24": -0.07281023859177037, "240": -0.03933467408372324, "241": 0.018875290944550274, "242": 0.049920668339418516, "243": 0.04687699462352075, "244": -0.04421817785579585, "245": 0.008182341719792142, "246": -0.05597026309714763, "247": -0.04107868601798544, "248": 0.011302229187325014, "249": -0.0961611493950337, "25": 0.02804787865898058, "250": 0.08479973210192226, "251": 0.022788298945523717, "252": -0.031060279163560668, "253": -0.04942292506313, "254": -0.0678407648390482, "255": 0.07130864720247766, "256": -0.014359391167772986, "257": -0.10002168315312523, "258": 0.03376278577215769, "259": -0.025272172632926075, "26": -0.03758249905661884, "260": 0.07131262412723532, "261": -0.11253100511351134, "262": -0.10385890928529808, "263": -0.0554905972008296, "264": 0.001528128267374357, "265": -0.08605939860583704, "266": -0.08162108000482785, "267": -0.002331357018175819, "268": 0.010492731962452482, "269": 0.008120020903421633, "27": 0.02855472910305185, "270": -0.05304758690180149, "271": 0.04763125225129185, "272": -0.05720200076234278, "273": 0.008875226668371363, "274": -0.00045868367170876965, "275": -0.0006737230147377976, "276": -0.025095314581296012, "277": 0.036270166518031624, "278": 0.023577626923968604, "279": 0.006438319497437058, "28": 0.05817852407972058, "280": 0.018013880341624128, "281": -0.07652325046746195, "282": -0.02898481209162168, "283": 0.058176497647297376, "284": -0.0530758176164337, "285": 0.019063289171230985, "286": 0.02082426582954222, "287": -0.009621086721469534, "288": -0.02530468324223465, "289": -0.007721029816770564, "29": 0.05244622668961636, "290": -0.026352674772069977, "291": -0.0656011160098566, "292": 0.011936796524180207, "293": 0.003113895234160296, "294": -0.008891079617065402, "295": -0.0017432434327574876, "296": 0.012241683709875006, "297": 0.039702189265228886, "298": 0.0010326726342963929, "299": 0.023754419644346336, "3": -0.09163377846770075, "30": 0.07504712597951996, "300": 0.027502743680230732, "301": -0.0014245282930376933, "302": -0.033820609292714125, "303": -0.03372574483541313, "304": -0.08613476112516157, "305": -0.0037009440149775403, "306": -0.06045829054755028, "307": 0.03725565279193902, "308": -0.0597777443326393, "309": -0.1401126438373427, "31": 0.011983370653732957, "310": -0.026179771721236436, "311": 0.016739268681684395, "312": 0.03759604348079202, "313": 0.001203529539924693, "314": -0.09142064104375489, "315": -0.03524868548875908, "316": -0.025905825762379625, "317": -0.1342421730167315, "318": 0.016514173127217698, "319": 0.038267514909041865, "32": -0.007430003889786525, "320": 0.006683384228200184, "321": -0.040751139886614295, "322": 0.03537764271907341, "323": -0.008082427408842996, "324": 0.017450363396725985, "325": 0.08544030296711497, "326": -0.009314196036935804, "327": -0.04448263220709979, "328": -0.06250672313120123, "329": -0.02868785007815934, "33": -0.035581726163340016, "330": 0.009114304850267357, "331": -0.13008163578206478, "332": -0.08728151928521412, "333": 0.03759931876571927, "334": 0.017279351310188634, "335": -0.03575102985363206, "336": 0.04215646485850822, "337": -0.0008789053583867074, "338": 0.019280042083585015, "339": -0.08958708007547875, "34": 0.0025141023546902783, "340": -0.024208910233067153, "341": -0.0038715932015311624, "342": 0.040394411171516494, "343": 0.007807967848774861, "344": -0.013948159612037332, "345": -0.00041543155521514585, "346": 0.037950142553740546, "347": 0.03659838212566075, "348": -0.019271367706920617, "349": -0.016193228774013982, "35": -0.07149170815460104, "350": 0.029953062543263693, "351": -0.04097191997655665, "352": -0.013538330112093641, "353": -0.05115618042044919, "354": 0.019136738098919068, "355": -0.151798985868948, "356": -0.026018610552621616, "357": 0.02553367184018199, "358": -0.0011419321295107654, "359": -0.024349004912478003, "36": -0.02714739481790484, "360": -0.09143409140918474, "361": -0.013510700805675506, "362": 0.006967159390979619, "363": -0.02988984388454852, "364": 0.03962717452465285, "365": -0.005455442133277335, "366": -0.0074159083842431075, "367": 0.04630120067174594, "368": -0.09653995922843014, "369": -0.06839609180312022, "37": 0.006409899444952041, "370": -0.09965857229839928, "371": -0.014823940232941148, "372": -0.016376434248545083, "373": 0.025984632904610346, "374": 0.03321449873620943, "375": 0.014316096919506315, "376": -0.00800866616010738, "377": 0.05525982849664491, "378": 0.013742460793992788, "379": -0.019975163134933593, "38": -0.017429493097701695, "380": 0.06522823567801717, "381": -0.024935771788106253, "382": 0.005558799016971891, "383": -0.005903782117007996, "384": -0.10901894380547898, "385": 0.08876438110726917, "386": -0.0359966009344764, "387": -0.09504399278103616, "388": 0.05046461835542372, "389": -0.06552217845549159, "39": -0.05236263294264231, "390": -0.022810051703192738, "391": 0.01364892571320681, "392": -0.004090927071308286, "393": 0.009950773961167239, "394": -0.03423359615383563, "395": 0.09291766172963539, "396": 0.00973602164531592, "397": -0.06643617920026346, "398": 0.011068085978892644, "399": -0.10983196739808869, "4": -0.05258735111582054, "40": -0.04071465397279938, "41": -0.14819303582848045, "42": -0.060537679469489514, "43": -0.019687949534718547, "44": -0.024829246356342226, "45": -0.014958880520258636, "46": -0.02071151559176885, "47": 0.030473478148632178, "48": -0.03592039232789637, "49": -0.0009246057495143915, "5": 0.04325106460498219, "50": 0.01744816026378986, "51": -0.016213551365604085, "52": 0.06824350863183096, "53": 0.03146802401542138, "54": -0.02038997668511709, "55": 0.008941302398438043, "56": -0.023533821563544284, "57": -0.018053952489550246, "58": 0.03371985543718094, "59": -0.09476345431989379, "6": 0.032843428633473226, "60": 0.058504021370153154, "61": -0.09090113324093758, "62": -0.03983956802997929, "63": -0.011883993531307015, "64": -0.0589852713542897, "65": -0.13312320472849437, "66": -0.043324598216891864, "67": -0.0858409622461835, "68": 0.04316679675786854, "69": -0.07566383884171449, "7": 0.02727743594612712, "70": -0.03967615411110682, "71": -0.08993983192066594, "72": 0.06532644177274856, "73": 0.052573287476036644, "74": 0.041710562787116594, "75": -0.019281389886243377, "76": -0.07102660849571756, "77": -0.03336723583103345, "78": -0.07953850249746056, "79": 0.05270283362530923, "8": 0.005292236205376987, "80": -0.051507827320598006, "81": 0.016374821880094127, "82": 0.007959016421109853, "83": 0.01840400871502253, "84": -0.14590382226096366, "85": 0.09024068055659605, "86": -0.010306501069955296, "87": 0.0016211291832479362, "88": -0.027312632918622477, "89": 0.044552067540181865, "9": 0.061475072787008006, "90": -0.09013580542354302, "91": -0.0003572770381208602, "92": -0.026601601214573195, "93": -0.021516192736950712, "94": -0.01915249664724211, "95": -0.08262749739518607, "96": 0.022849418517383847, "97": -0.15447157233784164, "98": -0.14082260357122758, "99": -0.07587986972026513}}, {"depth": 16, "sx": 5, "sy": 5, "w": {"0": -0.09537803292986398, "1": -0.12327712210252205, "10": 0.07668088166021104, "100": -0.044275817736095756, "101": 0.02205451302735558, "102": 0.03462835754278356, "103": 0.04099955483984242, "104": 0.10195465193056441, "105": -0.016112991543791828, "106": -0.04884321066204008, "107": 0.11801489565375542, "108": -0.02008040168255966, "109": -0.08942983475346544, "11": 0.015029509031797509, "110": -0.05645605735363253, "111": -0.009059614143349874, "112": -0.03667276097040567, "113": -0.08047684558772285, "114": -0.02552767193273666, "115": 0.02205773541518913, "116": -0.12860412586502692, "117": -0.08217066033192141, "118": 0.08863489611668568, "119": 0.011015183075901127, "12": -0.057611779167831154, "120": 0.022572334868135428, "121": -0.001486825375880311, "122": -0.07183797807164381, "123": -0.0331320514718181, "124": -0.07849805197751897, "125": 0.040112595097812426, "126": -0.010944376243129944, "127": -0.04709074273598302, "128": -0.02615178389080563, "129": -0.007028867179959223, "13": 0.023172904848629515, "130": -0.05050787964699429, "131": 0.08908566685774208, "132": 0.024529922530636097, "133": -0.05041705587736994, "134": 0.05433635028913438, "135": 0.002732341563995052, "136": 0.03561781459902402, "137": -0.05918046302960868, "138": -0.006891476796447255, "139": -0.048230470472958725, "14": -0.10473420052800639, "140": 0.06878699977186069, "141": -0.04670264955196311, "142": 0.02308307604792733, "143": -0.08098321965152207, "144": 0.04696066437776338, "145": -0.021378635357343054, "146": -0.026306546028781234, "147": -0.06102261159521115, "148": -0.018854071058891995, "149": -0.06341625959803542, "15": 0.0202992540130085, "150": -0.05759686371045207, "151": -0.12179411743994047, "152": -0.04608473416714831, "153": 0.06424095376303515, "154": -0.08760581515117877, "155": -0.03184700787221281, "156": -0.08481397907069514, "157": 0.111487088495936, "158": 0.048406823912171215, "159": -0.038006828253092734, "16": -0.04613220680677549, "160": 0.01349937605041703, "161": -0.05176956596735396, "162": -0.011524099565078466, "163": 0.02335541702827354, "164": -0.11755455063279419, "165": 0.014075392493690197, "166": -0.08878678164461558, "167": -0.027915791654862458, "168": -0.015780115003182223, "169": -0.09652678851127643, "17": -0.052094273571112154, "170": -0.0038085992617028167, "171": 0.03710448951558542, "172": 0.02351874591960136, "173": -0.005719596006173019, "174": 0.04736912068021121, "175": 0.1054817739841931, "176": 0.013450385260420548, "177": -0.019101083657308997, "178": -0.11115570120108043, "179": -0.05446737771422661, "18": -0.05598674427762413, "180": 0.010841914210378821, "181": -0.044632537141199274, "182": -0.05469827306429879, "183": -0.022006929655259605, "184": -0.01985083574708214, "185": -0.11513119863167377, "186": -0.02819629559536581, "187": -0.021911463045735814, "188": -0.03662602336898239, "189": -0.06930483566490905, "19": 0.024504608281289544, "190": -0.013255755267611352, "191": 0.02642775061150891, "192": -0.08847583101893074, "193": 0.15942821774827184, "194": -0.04031835733673048, "195": 0.04541173107251822, "196": -0.05383028694594874, "197": 0.005999381405809178, "198": -0.013900809458180535, "199": -0.033126593830493434, "2": -0.14462256974789436, "20": -0.08294776638296755, "200": 0.11296140400000257, "201": 0.06408553705987334, "202": 0.013535679701853362, "203": -0.025715046776274345, "204": -0.0890436095111033, "205": -0.04240530163306594, "206": 0.0669561021847748, "207": -0.04169164497903776, "208": 0.09718836211103767, "209": 0.05616380746584409, "21": -0.03926075957808561, "210": -0.06552811341209287, "211": 0.013596002203593254, "212": -0.030668905755900963, "213": -0.04569387293343381, "214": -0.03331987833898541, "215": -0.06858936625344256, "216": 0.05352658696018252, "217": 0.029348279622795063, "218": -0.10698142094073006, "219": -0.09141888377469422, "22": -0.07746911276136914, "220": -0.004917666695028751, "221": -0.028778467147283094, "222": -0.048852396712452534, "223": -0.005650746227788691, "224": 0.05301939120469675, "225": 0.010932535584276702, "226": 0.011974285338018795, "227": -0.035304964321073454, "228": 0.03436339044114909, "229": -0.028431207108560855, "23": -0.1229960956002919, "230": 0.02597868538591019, "231": 0.011623863931791573, "232": -0.034890349292959005, "233": -0.04363870279475674, "234": -0.004064235355991451, "235": 0.07138631715172847, "236": 0.01054015430298381, "237": -0.03051452724760782, "238": -0.033028762002571314, "239": -0.012291850592583253, "24": 0.04511957932875301, "240": 0.0013346598526592355, "241": 0.0002170938742132891, "242": -0.04433225145072745, "243": -0.041970981530816784, "244": -0.09183729874705646, "245": -0.01192295170259581, "246": -0.053233634287606, "247": -0.10205704273576653, "248": -0.06463498221764727, "249": 0.057619699056739596, "25": 0.022226447617501612, "250": -0.06964558752211553, "251": -0.004362067059873017, "252": 0.018849517524494215, "253": -0.005302394259023001, "254": 0.021716747236358868, "255": -0.11914356906573027, "256": -0.030656622198607517, "257": -0.07098437917268421, "258": -0.04966224680005578, "259": 0.09083219522783356, "26": 0.05620888789055798, "260": 0.017416012038873593, "261": -0.07222672731395495, "262": -0.08076587307089249, "263": 0.03430370847868968, "264": -0.06343182917292747, "265": 0.010254826849046692, "266": -0.02689607804801814, "267": 0.004941051171123045, "268": 0.01587771559582677, "269": -0.041199316567768485, "27": 0.010339968517852766, "270": -0.0174206393093661, "271": -0.00010535803008264544, "272": 0.0099043388434551, "273": -0.11079502105691479, "274": 0.03909964132368652, "275": -0.07361593566013848, "276": -0.05035278403753829, "277": -0.015357172167636985, "278": 0.009397926491184988, "279": -0.04349150211963781, "28": -0.043701592838530375, "280": -0.05658090212975752, "281": 0.05709973619915833, "282": -0.06057143283296698, "283": 0.0166933478124707, "284": 0.007865527865804793, "285": 0.005669371467930326, "286": 0.021631798685656865, "287": 0.05023399050751977, "288": -0.037544835311970545, "289": -0.00638884817676021, "29": 0.0017835077020675466, "290": -0.04824428749852055, "291": 0.009722929247746854, "292": -0.0333541755484811, "293": -0.031906693203173866, "294": 0.022045384968898074, "295": -0.01924766720658412, "296": 0.018092584337758497, "297": 0.010469688831340893, "298": -0.00910587098272139, "299": -0.06190845537490827, "3": 0.046547259481514336, "30": 0.006456187114179284, "300": -0.0570874072066701, "301": 0.036744956580723645, "302": -0.024942031723655788, "303": -0.09543977619395691, "304": 0.03212454279117684, "305": -0.023225364185903694, "306": -0.04609313005908118, "307": -0.06277674373017467, "308": 0.02810817191169793, "309": -0.08512956801712876, "31": 0.08323075619916225, "310": 0.03040552732273032, "311": -0.04957891706058356, "312": 0.018007491238471337, "313": -0.02311674253052157, "314": -0.0047906023918606435, "315": -0.002955985990740846, "316": -0.15291792885909325, "317": -0.04548478636666825, "318": 0.0821233444826204, "319": 0.02075929101594236, "32": -0.04095771810760275, "320": -0.08043898325838458, "321": -0.08130426381695609, "322": -0.052944050125582974, "323": 0.008895713400330407, "324": 0.09491263361732367, "325": 0.042120572127782786, "326": -0.01475816943042874, "327": -0.09187704097309117, "328": -0.08413207837569307, "329": -0.07263700505934387, "33": 0.010178526309616964, "330": -0.017439890684935844, "331": -0.032799417072200965, "332": 0.021183000655529947, "333": -0.12500845723905352, "334": 0.04821628925700442, "335": -0.05618532561132396, "336": 0.06957562109106956, "337": -0.1629840643607885, "338": -0.008999824638963802, "339": -0.02304017984799273, "34": -0.0561524811360102, "340": 0.006712530483587557, "341": -0.09333078294329729, "342": -0.02415217240450874, "343": -0.046031280066427316, "344": 0.004496883505339922, "345": -0.03604436861246664, "346": -0.048454490183452305, "347": 0.0019263234683018085, "348": -0.06047066681428485, "349": 0.0481491868141768, "35": 0.05962221398699608, "350": -0.03882977738998929, "351": -0.058075553727271446, "352": 0.0011929110414256273, "353": -0.013761026588856142, "354": -0.032032092468605715, "355": -0.02755588611592574, "356": 0.010814968742035648, "357": 0.05004736056322782, "358": 0.023779159574450044, "359": -0.11984692126040156, "36": 0.0033885692103496966, "360": -0.10654385041122597, "361": -0.01914906779662153, "362": -0.0909583458861837, "363": -0.11505877130392585, "364": 0.018038371846599115, "365": -0.025580267258920736, "366": -0.049122253057500065, "367": -0.023092132629987657, "368": -0.03189131781181262, "369": 0.029799807307213832, "37": -0.013575660818779915, "370": 0.03780593590244893, "371": -0.024161508752291234, "372": 0.027953456545509202, "373": 0.04440396020228543, "374": 0.050948814009911254, "375": -0.012537357467578423, "376": 0.00245182076181544, "377": -0.0032030552509508324, "378": -0.031205362467600407, "379": -0.062351858218232255, "38": 0.0205543059029019, "380": -0.129438391306924, "381": -0.08539506724459726, "382": 0.10600988846582877, "383": -0.07666942820596323, "384": 0.006649593063752103, "385": 0.037038770266059465, "386": -0.021212898026405327, "387": -0.05976859360973883, "388": -0.016890696493232046, "389": -0.048411245953904176, "39": 0.014010891541254674, "390": -0.07332001369688212, "391": -0.047958779957948276, "392": -0.07093905802897561, "393": -0.036620143927299474, "394": -0.007326570591303362, "395": 0.04127422535446403, "396": -0.05830206516787781, "397": -0.048833176672480744, "398": 0.020216697230749304, "399": -0.03146871934509498, "4": 0.0831542301049508, "40": -0.016618390197721874, "41": 0.008804969782354725, "42": -0.01975106197282616, "43": -0.04070763938820742, "44": 0.06858531203063264, "45": 0.016031358449701504, "46": 0.02690031212131935, "47": -0.05286392916467208, "48": -0.08195782876874938, "49": -0.061412577409600086, "5": 0.00661323777116775, "50": -0.04916933999582321, "51": -0.0329970217960352, "52": -0.03038671379171085, "53": 0.00331877550072284, "54": -0.1102917122029251, "55": -0.0892675451032212, "56": 0.01129097744292031, "57": 0.0831152727771792, "58": -0.0802882116281145, "59": 0.032437606025120296, "6": -0.060912275666459896, "60": -0.040597286616960965, "61": 0.027562916609467962, "62": 0.012502566562868573, "63": -0.01015878028451609, "64": -0.049834389255395885, "65": -0.0009081613326898649, "66": 0.0429257130526066, "67": -0.045984260705997704, "68": -0.055394594203776, "69": 0.09329083044200953, "7": -0.022965567607046794, "70": -0.09971526053888342, "71": -0.014369615196326915, "72": -0.006049104868409074, "73": -0.044473449176527, "74": -0.018104301909542785, "75": -0.12402305901278331, "76": 0.027397871593233966, "77": -0.020143341558258816, "78": -0.06250521217321083, "79": -0.07139745549718907, "8": -0.06442445590500824, "80": -0.07262342465141165, "81": -0.06606361986801595, "82": -0.04812590855495572, "83": -0.06872409611383841, "84": -0.019486244084882635, "85": 0.027365802956417717, "86": -0.017185818837408315, "87": 0.027531476153272637, "88": -0.06173824229154467, "89": 0.018278388667423328, "9": -0.08269378082641923, "90": 0.03875241836016993, "91": -0.01779202916871941, "92": -0.004996236045061746, "93": 0.04096716152560787, "94": -0.05081081967857048, "95": 0.03957756826211673, "96": 0.01991126996429906, "97": 0.011535148957435364, "98": -0.024649977207044423, "99": -0.023673260258267787}}, {"depth": 16, "sx": 5, "sy": 5, "w": {"0": -0.024758599233895583, "1": -0.028687022559783247, "10": 0.029684702973937382, "100": -0.017900040804243265, "101": -0.07172348732264722, "102": -0.11905527869460236, "103": -0.0862890378777133, "104": -0.019371689919937814, "105": 0.09323762224723102, "106": -0.011175136243152261, "107": -0.025356097016615467, "108": 0.06341693834625199, "109": -0.035814216486608354, "11": -0.10383192813992699, "110": -0.05931561187600099, "111": -0.059811965949176656, "112": 0.05078667422046109, "113": 0.10688980531035985, "114": 0.01753248316085513, "115": -0.04895741144499551, "116": -0.18047404037974263, "117": -0.0496413446808826, "118": -0.05696408886045674, "119": -0.044578621527843136, "12": 0.032980770911151355, "120": 0.025072347620992353, "121": 0.027158469235479567, "122": -0.19079042164209079, "123": -0.04561401615336311, "124": 0.023582335759553093, "125": 0.15953297867256827, "126": -0.1279772446416769, "127": 0.022186143008471312, "128": -0.009882992764173825, "129": 0.024249934270393996, "13": -0.011926269485372037, "130": -0.0013542261831052831, "131": -0.05181159546693349, "132": -0.09896197488581542, "133": -0.005549848089073279, "134": -0.10215222812835743, "135": 0.04385164113496968, "136": -0.047662113111623536, "137": 0.08919910950545312, "138": -0.09420305491710636, "139": -0.1461757758271319, "14": -0.034241057792544265, "140": -0.04651858686378315, "141": 0.03964647660262039, "142": -0.11329959781709127, "143": 0.0465561498878842, "144": -0.05814313963981247, "145": -0.02132704022239521, "146": -0.00941792349075202, "147": -0.033593764230272896, "148": -0.021188474203276297, "149": -0.027260862809635546, "15": 0.022453843615914057, "150": -0.07008492216003755, "151": -0.08437212481128453, "152": 0.08064361627924077, "153": 0.12778615127364662, "154": -0.015700923878808788, "155": -0.1406938499690027, "156": -0.07320396410075296, "157": 0.028443380314973316, "158": -0.08388810438744934, "159": 0.03955213811986503, "16": -0.11371504198730789, "160": 0.038968557229616035, "161": 0.061825686568548296, "162": 0.09145623882283765, "163": -0.011006013847019349, "164": -0.038243392517641604, "165": -0.05647774547556118, "166": -0.12612353184688835, "167": 0.022483124143653666, "168": 0.042071610624528744, "169": 0.022647304497113965, "17": -0.05429830860748176, "170": -0.08966272386486461, "171": 0.02102607420448964, "172": 0.14026162504330225, "173": 0.05668547607072104, "174": -0.12649121628841742, "175": 0.06618740727402053, "176": -0.017981132683426847, "177": 0.02474076599093869, "178": 0.08426614404977582, "179": -0.04230476698236725, "18": -0.04476820729679096, "180": 0.008172682490608202, "181": -0.17117120349866968, "182": -0.031157161842602227, "183": -0.04331414010171718, "184": -0.051086637569957134, "185": -0.1075249860062077, "186": 0.045272950588643945, "187": -0.029857303756879415, "188": 0.04993777193914633, "189": 0.019096280700426634, "19": 0.05599875046300218, "190": -0.09120917291792532, "191": 0.01821235935064419, "192": 0.03247694720200373, "193": -0.023401556322670696, "194": -0.044884397248642, "195": -0.08523578594539374, "196": -0.05609408333251027, "197": -0.05977117658153618, "198": 0.016863706888748466, "199": 0.0397332977032956, "2": 0.043274157973275724, "20": -0.042751761764532756, "200": -0.04770498657743303, "201": 0.05900134121380887, "202": -0.1292830719498997, "203": -0.09091966416167722, "204": 0.008404005817933137, "205": 0.11611992679495596, "206": -0.004187575536465904, "207": -0.04868857166965708, "208": 0.017345214279228124, "209": -0.009767082434095915, "21": -0.11281626555663642, "210": 0.02172320052473052, "211": 0.05478715050525866, "212": -0.021447534070188526, "213": -0.025315775884404583, "214": 0.012101641197598047, "215": 0.0638740235557712, "216": -0.004311601861197805, "217": 0.05043830667073571, "218": -0.08216474005756816, "219": -0.046899094150465184, "22": -0.012953953399267783, "220": 0.08905368956792038, "221": 0.07545322684993222, "222": -0.12209981289295953, "223": 0.04271974065146183, "224": -0.021903412304822064, "225": -0.0031287892626516616, "226": 0.060327156701811414, "227": -0.0651170749768276, "228": -0.05494408352985902, "229": -0.10281492050808641, "23": -0.12982560276114302, "230": -0.021539835539626184, "231": -0.051549510224256065, "232": -0.022616832776105916, "233": 0.08824295324271145, "234": -0.08149790077001833, "235": -0.12011266329572409, "236": 0.005638718176779289, "237": 0.0013084629934910965, "238": -0.10267305220925246, "239": 0.04184649491226409, "24": -0.057492755480452636, "240": 0.07471859354215575, "241": 0.10023000944771256, "242": -0.025556277576057218, "243": 0.004472502308884818, "244": -0.1915649354635225, "245": -0.10423909149457725, "246": 0.015860741684113944, "247": -0.02154861452486378, "248": -0.03242729294138628, "249": -0.039872598637991336, "25": -0.04503734989563499, "250": -0.09849853630566446, "251": 0.07438530673680592, "252": -0.018190725793638708, "253": 0.05113190521203705, "254": -0.08003434534237194, "255": 0.031977790680267786, "256": 0.1280262249562002, "257": 0.06214766458212771, "258": 0.005358035002527998, "259": 0.06604336351747522, "26": -0.06303016164112381, "260": -0.15891771899068946, "261": -0.05974356873351254, "262": -0.03961905884945283, "263": 0.03252241158905451, "264": -0.034509884014385886, "265": -0.10615599573200254, "266": -0.0833234470963434, "267": 0.00942741565814232, "268": 0.08071096349268707, "269": 0.02706911427186429, "27": -0.12165975797822752, "270": -0.19328591692371452, "271": -0.03346727925452328, "272": 0.030787886623383574, "273": 0.11255105056240602, "274": 0.03163239859769841, "275": 0.03131701939057767, "276": -0.06921710635689649, "277": -0.12123586573682742, "278": 0.07596056419961832, "279": 0.015191052678984665, "28": -0.02295059946306083, "280": -0.04032855267887168, "281": -0.07484559590423036, "282": -0.03746318605484375, "283": -0.024975115129508854, "284": -0.008804805130088215, "285": -0.00918518046319634, "286": -0.07478714514930186, "287": 0.02698606891784581, "288": 0.18190852700899746, "289": 0.05151399597093617, "29": 0.0493690172072659, "290": 0.0402456025267655, "291": 0.04545436035443086, "292": -0.03374105913583973, "293": -0.10466625382309874, "294": -0.044856937796292254, "295": 0.052946937471933395, "296": -0.06417055683415908, "297": 0.02551502497727305, "298": -0.014506353201710181, "299": 0.04815458622583806, "3": -0.09589808557806245, "30": 0.006049269080854506, "300": 0.0433051630620257, "301": 0.07298912549354679, "302": -0.05091999242404513, "303": -0.021615461350694486, "304": 0.10946683609839027, "305": 0.10615655557358453, "306": 0.034503094842451586, "307": -0.07700290947237891, "308": -0.06516767583038334, "309": 0.024062436068222566, "31": 0.06694835876348292, "310": -0.01918847014822992, "311": 0.02144835125133078, "312": 0.009510124601318297, "313": -0.12927164728945947, "314": -0.06965788321301249, "315": -0.023072454891851907, "316": 0.052889175484011064, "317": 0.09511428677864087, "318": -0.09905584274448792, "319": 0.05730061641669691, "32": -0.028542429923645536, "320": 0.03336988557890507, "321": 0.08528731316811156, "322": -0.04322144068020092, "323": 0.08506083356697883, "324": -0.031652107315954615, "325": 0.1442803391721119, "326": 0.05891110172818878, "327": 0.03797602025143466, "328": -0.032446471148058764, "329": -0.15136420537680717, "33": -0.05092340420561166, "330": -0.08802864391376296, "331": 0.07531860366103002, "332": 0.07967885491897658, "333": -0.002900627731483746, "334": -0.031037839820848734, "335": 0.047537962828503255, "336": 0.13740304013786975, "337": 0.0163995977316257, "338": 0.0024473384954722035, "339": 0.03703444319523574, "34": 0.014554477564647936, "340": -0.02305778720974994, "341": 0.10497876169555184, "342": 0.030169542643627367, "343": 0.05164458505639536, "344": -0.05348565525617492, "345": -0.0930962366313657, "346": -0.14427894515828524, "347": 0.10405222925319137, "348": 0.04918067689745323, "349": -0.021459537530369877, "35": -0.023580296117072186, "350": -0.06997883589408514, "351": 0.0594110273149223, "352": 0.11538656009545421, "353": 0.10651767700512745, "354": -0.058371776708126204, "355": 0.031017869353472078, "356": 0.017627667788638442, "357": 0.07778190547504082, "358": 0.015259154646815425, "359": -0.060317817828083764, "36": -0.007771109810636408, "360": 0.035251586368642986, "361": -0.045605104476913835, "362": -0.06947970430623099, "363": 0.06856478800885542, "364": -0.07046469645550675, "365": -0.003181749510569504, "366": 0.07638219602503743, "367": 0.011453466818661199, "368": 0.14935080137510245, "369": 0.10174357560705422, "37": -0.15700202007704572, "370": -0.04369607586453953, "371": 0.04390631224743687, "372": -0.07145961235258057, "373": -0.04904323514553401, "374": 0.034701977419643384, "375": -0.01815623808186708, "376": -0.05113442697659888, "377": -0.09732130339841587, "378": -0.05114357722967022, "379": -0.10098153517220777, "38": -0.02248811036752597, "380": -0.005417352910485676, "381": -0.008151346770636253, "382": -0.030828961484768606, "383": 0.06436743238602068, "384": 0.12260419607323526, "385": 0.09885890549979587, "386": -0.035747845080346674, "387": 0.005465793027815088, "388": -0.0500024802278885, "389": 0.06184737088080666, "39": -0.046245211006261444, "390": -0.00530163759123356, "391": -0.01656277916792321, "392": -0.008520169577757246, "393": -0.09341507057553322, "394": -0.09908246677835537, "395": 0.07263642467810762, "396": -0.004061286779291411, "397": -0.02997009198039404, "398": -0.06771908016959524, "399": -0.11882526213639268, "4": -0.1545245678971486, "40": 0.03440896720645397, "41": 0.16541223668855515, "42": -0.033773331108370365, "43": -0.06604040603544588, "44": 0.014772690304734215, "45": 0.04037070473230234, "46": 0.031361006896076536, "47": 0.07629609014259273, "48": -0.0518038546143887, "49": -0.030928131014946292, "5": -0.14064038740590684, "50": -0.02840497694314281, "51": 0.08032983558498294, "52": 0.041647920115637754, "53": -0.015733116394324537, "54": -0.013502183707239141, "55": -0.045437958153519475, "56": 0.037297864996534646, "57": 0.12257881362667285, "58": 0.0018946398841296723, "59": -0.08243676782123784, "6": 0.04001003680647405, "60": 0.016227514686384337, "61": -0.09750749762684803, "62": -0.023015657703679367, "63": -0.01619120069596064, "64": -0.10100532522620279, "65": -0.02737478305439648, "66": -0.029827896137088663, "67": 0.05830892432474927, "68": -0.06614203446817278, "69": -0.07404516213980868, "7": -0.030622223628350074, "70": -0.016608616173320743, "71": -0.05622867248462898, "72": 0.010023952921348559, "73": 0.06072993471261943, "74": -0.028474592901330708, "75": -0.028592272291626843, "76": 0.020228694289281347, "77": -0.08359540719493834, "78": -0.004939890800548298, "79": 0.00902195220798562, "8": -0.002138811058859966, "80": -0.08267531745267326, "81": 0.01072234845131268, "82": -0.0004651401974446272, "83": -0.028176729852438326, "84": -0.17282154237463587, "85": -0.11032353382920088, "86": -0.03626735689217872, "87": 0.08316910064554547, "88": -0.021609612278517758, "89": 0.018506795293866406, "9": 0.10168339245995853, "90": -0.020639580168041828, "91": -0.11181733441682565, "92": 0.05566610184746964, "93": 0.017160995469168414, "94": -0.03125535146604869, "95": -0.010956505307215966, "96": -0.06877938668454003, "97": 0.11465202627984919, "98": -0.0023625777722153995, "99": -0.04101674719175943}}, {"depth": 16, "sx": 5, "sy": 5, "w": {"0": 0.0069548306041247, "1": -0.07915440388279095, "10": -0.07606815282917696, "100": 0.0025778589350345985, "101": -0.06382245609466032, "102": -0.03126382794659543, "103": 0.1189894454984607, "104": 0.0004212256399572374, "105": -0.1001333264763044, "106": -0.056975664717974064, "107": 0.09030642614406631, "108": -0.04540219536001614, "109": 0.029005837493689474, "11": 0.0367981650948826, "110": 0.02148120827346621, "111": -0.10095329689770353, "112": -0.004371109669176084, "113": 0.02767221779535861, "114": -0.08817860486010838, "115": -0.044501011758425454, "116": -0.058515542277930495, "117": -0.0390915684754496, "118": -0.07117769471566118, "119": 0.10571270368264613, "12": -0.13381068357266818, "120": 0.04630828259755874, "121": -0.1254222880765674, "122": 0.027457557664573865, "123": 0.04374516304529255, "124": -0.11139014958773978, "125": -0.0940467085601159, "126": -0.026204901491488148, "127": -0.09325677297111509, "128": 0.02728133868095741, "129": -0.01341854641236065, "13": -0.05772859698872535, "130": -0.07317597554820371, "131": -0.020981260153213943, "132": -0.05571248828661153, "133": -0.018071325205154518, "134": 0.0891340575884107, "135": -0.029274047547246208, "136": 0.027296968705435423, "137": -0.055476659069543646, "138": 0.051674892899665995, "139": -0.025132218452268068, "14": -0.005729798245332034, "140": 0.004381864746218304, "141": -0.030722319180967968, "142": 0.06805451521035645, "143": -0.09999738640710587, "144": 0.009888454034522248, "145": -0.11713832715068928, "146": 0.024866604613253834, "147": -0.020577943032307682, "148": -0.05631926684310828, "149": -0.014406376791772636, "15": -0.024868309690728244, "150": 0.10137744244159887, "151": 0.06503518764648697, "152": 0.05454455656619002, "153": -0.06488313961640436, "154": 0.08341386909226499, "155": -0.002809822828890141, "156": 0.0014374490969556477, "157": -0.017491476566942617, "158": -0.04667865404142808, "159": -0.02244517980606596, "16": -0.006626761176718402, "160": -0.0950535467134821, "161": -0.06419469321837579, "162": -0.040797791089695175, "163": -0.010646288178597516, "164": -0.05362824463768553, "165": 0.03193740422515384, "166": 0.04824732859066289, "167": 0.0035502148380607453, "168": -0.009820052456522592, "169": -0.07811608040078592, "17": 0.03182247844829206, "170": -0.002284650627661913, "171": -0.016545946778926648, "172": -0.010553009851303384, "173": -0.060665868703067706, "174": -0.06310906416427228, "175": -0.053454758341671564, "176": -0.04818050268485756, "177": -0.07314692834638677, "178": -0.01778303568626796, "179": -0.11918773931666896, "18": -0.07039208314965155, "180": -0.018955332797378675, "181": 0.029826677933628053, "182": -0.01832538953293574, "183": 0.020265342140640234, "184": 0.03468922434672167, "185": 0.006460336158010247, "186": -0.15419951607168583, "187": 0.02098499956870303, "188": -0.15180244411478946, "189": -0.005062962711276011, "19": 0.01147030762301604, "190": -0.05839240981627576, "191": -0.055925128341886926, "192": -0.028340559889019585, "193": 0.0005149085266210405, "194": -0.046163294601787266, "195": -0.03347645168832346, "196": -0.017777937024009274, "197": -0.1901506797683108, "198": 0.051196243476676145, "199": -0.07396892033602896, "2": -0.03806449596210567, "20": 0.008063124020828562, "200": -0.04375463119260975, "201": -0.15806589996490678, "202": 0.09783263078588932, "203": 0.023054309982381577, "204": -0.018676333546338998, "205": -0.12763719478353092, "206": 0.01503028657132213, "207": -0.05760990079859289, "208": -0.06006842736130084, "209": 0.05842169166498205, "21": 0.03529689221928663, "210": -0.11215182265242934, "211": -0.07950457858639948, "212": -0.012238382393699872, "213": -0.04038099268208092, "214": 0.047901911480808565, "215": 0.09004663699186174, "216": -0.05777028279431474, "217": 0.032601984986310846, "218": -0.04692793438805853, "219": 0.03848677858881033, "22": 0.028938470012469953, "220": -0.09148538703907949, "221": -0.004761045953231358, "222": -0.08823216052247689, "223": -0.09037233935182314, "224": -0.04918170517131318, "225": -0.17373896399108915, "226": 0.016685559722285668, "227": -0.08541029095362239, "228": 0.04412164465947387, "229": 0.04878841714030048, "23": 0.023051652541574513, "230": 0.06299939211049378, "231": -0.028858194043879515, "232": -0.0486349042009743, "233": -0.20456252007643502, "234": 0.006393754543889169, "235": -0.012788917570632823, "236": -0.12048048509597542, "237": -0.03648984288679129, "238": -0.007871603058825132, "239": -0.03185300547177682, "24": -0.051813506943774984, "240": -0.03140683129627115, "241": -0.0236671702560266, "242": -0.07341626023725442, "243": 0.09802538097689627, "244": -0.039797507995504466, "245": 0.0008875479826318034, "246": -0.07068305084201382, "247": 0.0510361549751817, "248": -0.16339905684247844, "249": -0.1179611400579996, "25": -0.20872106893767062, "250": -0.02175007047186993, "251": -0.05231279585568378, "252": -0.08614097369093877, "253": -0.006849336680492777, "254": -0.04343240281030536, "255": -0.10785030907764913, "256": -0.09629953240481313, "257": -0.04766302069838413, "258": -0.07476657563417377, "259": 0.0207964556286857, "26": 0.15172495248473267, "260": -0.027295974619934563, "261": 0.0392147984728457, "262": -0.04563433450298086, "263": -0.008267317343728896, "264": -0.04623979448456255, "265": -0.020938794917109087, "266": -0.10108945132065625, "267": -0.05035576628290782, "268": -0.041028798141783285, "269": -0.0021527109871284805, "27": -0.00277607158171403, "270": -0.08593936723212998, "271": -0.12956097509786696, "272": -0.03610801972771509, "273": -0.13091951657769885, "274": -0.08127717908550397, "275": 0.05074677633173528, "276": 0.07090792246247035, "277": -0.04794326797542702, "278": 0.11128951827630067, "279": 0.007701464336646325, "28": -0.07973327344656168, "280": 0.025573726298092035, "281": -0.04190568486671702, "282": -0.019460620192528786, "283": -0.06114412771054334, "284": -0.057354048019134185, "285": -0.015592001032776715, "286": 0.017437699211211497, "287": 0.006533637839336932, "288": -0.07365267475956157, "289": -0.10625657512886731, "29": -0.12805648268165998, "290": -0.17005301826581612, "291": 0.03441434593692557, "292": -0.01140797341177941, "293": -0.03906271156440944, "294": -0.019635912743034774, "295": -0.047820174460938676, "296": -0.030096215647844884, "297": -0.07396221795583703, "298": 0.06185806991707032, "299": 0.09190366464521418, "3": 0.07111272212474548, "30": 0.03861246611150842, "300": -0.06654091529593585, "301": -0.04343385566617813, "302": -0.0010245444448997807, "303": -0.06771664795387383, "304": -0.13750360790973062, "305": -0.08511112727056523, "306": 0.00016272643486057157, "307": -0.14905489093899124, "308": 0.04311164341712252, "309": 0.025822597380707045, "31": -0.03910637290038482, "310": -0.04356338018767687, "311": 0.06840397327169238, "312": 0.04616393184823723, "313": -0.04609354478291112, "314": 0.055186918534622965, "315": -0.008606762187327255, "316": -0.06375243938292245, "317": -0.05290139220968473, "318": 0.1336560101177944, "319": 0.00130763589699774, "32": -0.053635842859687304, "320": -0.05380334571120487, "321": 0.01632645360520288, "322": -0.08170788527551628, "323": 0.0039325280803297, "324": 0.06963139881957593, "325": -0.04920890966614764, "326": 0.06441778299994448, "327": 0.10374648512094457, "328": 0.059963798281661665, "329": -0.049027927992238415, "33": 0.009868058577800194, "330": 0.08181555049218288, "331": 0.1272057599094523, "332": -0.12229129883031228, "333": -0.00028007184449804117, "334": 0.006402858607044499, "335": -0.03028231675908481, "336": -0.09368730692029625, "337": 0.0044214401697078845, "338": -0.10129895312001362, "339": -0.004446571662445687, "34": -0.15733388466968462, "340": 0.12278993659286735, "341": -0.03592408881606907, "342": -0.0240318691909255, "343": 0.01845303091488864, "344": -0.02739802051537608, "345": 0.008123439651541825, "346": 0.11177895088686295, "347": -0.059307310313902205, "348": -0.08413403394046826, "349": -0.034394656727283826, "35": 0.001135333788566514, "350": 0.11694081962804259, "351": -0.20449629102084013, "352": -0.12357176738077494, "353": -0.17379907152119534, "354": -0.04114020745668414, "355": -0.1391255069758622, "356": 0.005141519470960859, "357": 0.05273493178587226, "358": -0.041529650152309354, "359": -0.05018364287800088, "36": -0.02351364335501068, "360": -0.015018300124309396, "361": -0.013771800951252681, "362": 0.05189430721727067, "363": -0.07454950628451977, "364": -0.033833243071085754, "365": -0.00867262479554784, "366": 0.04835022319135122, "367": -0.058143075689136174, "368": -0.08327511605651058, "369": -0.10758920007394583, "37": 0.023633795777799435, "370": 0.007068165761891682, "371": -0.038696826380803406, "372": 0.052876997564807356, "373": -0.09176786852149119, "374": 0.029341055945491006, "375": 0.037791510003623796, "376": -0.025050236677688482, "377": -0.017361185985309353, "378": 0.06237195507295561, "379": 0.06597011223434264, "38": 0.051767638143870365, "380": -0.07898837843627383, "381": -0.053804717587742204, "382": 0.08412319833340692, "383": -0.10504598285197839, "384": -0.2752587346864841, "385": -0.049846817747574323, "386": -0.01735482327251499, "387": -0.000901318509397539, "388": 0.07678654771366326, "389": 0.019271848473412123, "39": -0.004935797909072322, "390": -0.017217991406492765, "391": -0.09824123910146602, "392": -0.013694631691173513, "393": -0.02140572897238515, "394": -0.05019942629746112, "395": 0.010722626934324624, "396": -0.032427898176827945, "397": 0.024839658841247742, "398": 0.046006025559841096, "399": -0.09206526758348021, "4": -0.05879347527422581, "40": 0.002923995942623409, "41": -0.06127919420465056, "42": 0.0190517236670881, "43": 0.0708043187283019, "44": -0.09174980080076617, "45": -0.03244740884083066, "46": 0.025272676915312802, "47": -0.03337988455387152, "48": 0.09954541029781752, "49": -0.030423394809142027, "5": -0.029540561278184746, "50": -0.17361687889685662, "51": -0.01738626239646171, "52": 0.05801636799812665, "53": -0.08050798443314583, "54": 0.0535692821497194, "55": -0.03717890469751202, "56": 0.036858356110386445, "57": -0.1320144114869074, "58": -0.012085496360380404, "59": 0.04584218608079781, "6": -0.08181233398964387, "60": -0.02933153562661867, "61": -0.018501035819832937, "62": 0.033944329202217516, "63": -0.04856908916291815, "64": 0.06643644174217725, "65": -0.012219208428653119, "66": -0.10421020815935413, "67": 0.04243944149714408, "68": -0.057007280798266904, "69": -0.08689679828350938, "7": 0.13143550410969998, "70": 0.08481265978410789, "71": -0.034844923787316, "72": -0.04549201525731163, "73": -0.1744551128237257, "74": 0.11872400781168688, "75": -0.07295241071773426, "76": 0.0048893648578482805, "77": -0.07748491390140311, "78": 0.013414329800284145, "79": -0.040759496638170294, "8": -0.03528951706640401, "80": -0.07608347416488949, "81": -0.04505639923803283, "82": -0.12317885893453502, "83": -0.02745307402607756, "84": 0.024148825330464307, "85": 0.03347502488787041, "86": -0.08700615473124984, "87": 0.05461440598256685, "88": -0.06470884432781764, "89": -0.057480261890154025, "9": -0.043880853120563695, "90": -0.015441155932999318, "91": 0.005672213157986272, "92": -0.04475410248428272, "93": -0.06512119794349303, "94": 2.4501607444604397e-05, "95": -0.1007024181374886, "96": -0.05066921343217031, "97": -0.057706930689490725, "98": -0.07003834991517884, "99": -0.1357400328053455}}, {"depth": 16, "sx": 5, "sy": 5, "w": {"0": -0.013556837370555288, "1": 0.0847086623324612, "10": -0.015703014134754577, "100": -0.07665212265512873, "101": -0.12749022755425782, "102": -0.013837215374542631, "103": -0.058589209751021346, "104": -0.05932282768825225, "105": -0.07750060333942832, "106": -0.01454934779854306, "107": 0.041212656704211065, "108": 0.014001650163286326, "109": -0.08942821801779925, "11": -0.0886525980071034, "110": -0.012940819013081382, "111": 0.017854681138250297, "112": 0.04609291004387909, "113": 0.05833650598458897, "114": -0.0036451003081576917, "115": -0.10926337276764951, "116": -0.10383799133750321, "117": 0.02868400461963943, "118": 0.017099463728711642, "119": -0.12156441532358885, "12": 0.041556963687636846, "120": 0.013724665688993212, "121": -0.08595253281295885, "122": 0.03352005771547875, "123": -0.012358727087896905, "124": 0.0005362382662801857, "125": -0.0428114698408731, "126": -0.07500464486417632, "127": -0.01849649270332347, "128": 0.04815870898398903, "129": 0.07791268698859635, "13": -0.012440358542196779, "130": 0.11536735547528318, "131": -0.017973761476155488, "132": -0.04926106890051148, "133": 0.06114901204335288, "134": -0.07079897647014637, "135": -0.020596677268951185, "136": -0.039155287443077995, "137": 0.07632533068841363, "138": -0.1521452475307898, "139": -0.050676118269584805, "14": -0.02711819722427823, "140": -0.0779112459114601, "141": -0.055082045504594356, "142": -0.05945973288375802, "143": -0.05342325501668609, "144": -0.010238088461231877, "145": 0.08008192852168398, "146": 0.08125995183768822, "147": -0.019045212078354672, "148": -0.09116892838781424, "149": -0.01665340470823367, "15": 0.06853084131994865, "150": 0.07035949167644849, "151": -0.07602375435712698, "152": -0.002840674903175696, "153": 0.04950447673979936, "154": 0.003903742426478069, "155": -0.009506076602475252, "156": 0.05573974312407031, "157": 0.023631335826793703, "158": -0.005918999041172552, "159": 0.057976702859647775, "16": 0.07310958153499397, "160": 0.02905605444925459, "161": 0.04855453938805512, "162": 0.042293051497502794, "163": -0.013706399690488686, "164": -0.03871116994325379, "165": -0.10648549478846361, "166": -0.01826124247580697, "167": 0.040175968397614205, "168": -0.04420271697327921, "169": 0.0022374469883695443, "17": 0.05489733002362613, "170": -0.04924796305527584, "171": -0.010071534241170276, "172": -0.0006487222527068518, "173": -0.03221965061624172, "174": -0.04992456622525511, "175": 0.004763680120266504, "176": 0.026086984505922704, "177": -0.012649523455509, "178": -0.07857293701147876, "179": 0.016005622878423893, "18": 0.14982660782627744, "180": -0.1598095913180997, "181": -0.00605775264820386, "182": -0.032816938617509804, "183": 0.04404641006150588, "184": -0.027632049312364196, "185": -0.04734858801001861, "186": -0.08971963070396327, "187": 0.09447918348371585, "188": -0.04047765527318611, "189": 0.00290186780858055, "19": -0.11106597589953807, "190": -0.07070250926573332, "191": 0.024955605122537763, "192": 0.04456406969936002, "193": -0.028209191182278978, "194": -0.011309708990503174, "195": -0.03005639972296791, "196": -0.07481628268719698, "197": 0.01202956841651038, "198": -0.025040398330323295, "199": -0.05638506821373979, "2": 0.10518804293854885, "20": 0.04897853235509117, "200": -0.07752083459510739, "201": -0.036542510218180974, "202": -0.08154055527927709, "203": -0.009308498327942638, "204": -0.051193261555883274, "205": 0.025856806767050083, "206": -0.05107193494883448, "207": -0.05235337394436319, "208": -0.040003432777975224, "209": 0.07961376514484024, "21": 0.0027251580122085307, "210": -0.051528045546356344, "211": -0.05895302006542832, "212": -0.03976979432189267, "213": 0.1079726722586304, "214": 0.08587859073841629, "215": -0.046452060257718884, "216": 0.06820783915502136, "217": -0.14953879135145107, "218": -0.059484132290747, "219": 0.009829809498368083, "22": 0.0144280139633293, "220": -0.10497752851457137, "221": 0.09165344779372374, "222": -0.07980990766886459, "223": -0.010370417403309342, "224": 0.0770775860003992, "225": 0.05661735064885073, "226": -0.08304822425819927, "227": 0.007592403503824019, "228": -0.091939618966948, "229": -0.03797629639719897, "23": 0.011169659542053356, "230": 0.017115364344198632, "231": -0.01647734569309715, "232": -0.11726216083109901, "233": -0.11579635593931602, "234": -0.03718179449684684, "235": -0.00765733441330573, "236": -0.016226881792714937, "237": -0.01667521810099915, "238": -0.0962045551132819, "239": 0.011453767231034038, "24": -0.12343971296654287, "240": -0.007705414168398973, "241": -0.0149829842964618, "242": -0.06560042763922463, "243": -0.07802191631770482, "244": -0.010106620710243038, "245": -0.05689826157166131, "246": -0.06573992908245177, "247": -0.09339912790332233, "248": -0.10600065492565297, "249": -0.09726259796197517, "25": -0.0352312654875552, "250": -0.06206730384989446, "251": -0.02257018145304362, "252": -0.0758785169995264, "253": -0.08668928036788993, "254": -0.06754835857243636, "255": -0.05919283362115506, "256": 0.0398228060978674, "257": 0.05134095462948551, "258": -0.02752546368258128, "259": 0.12011715139948254, "26": -0.017832326792448717, "260": -0.018630714925999475, "261": -0.008920485637988295, "262": -0.052671080349883104, "263": -0.10301114588983336, "264": -0.10113809973624142, "265": -0.08700729753884945, "266": -0.1393157665932169, "267": -0.03633692478154031, "268": 0.052185304604485776, "269": -0.06916298829780378, "27": -0.06357574767806877, "270": -0.06003732104312558, "271": 0.02860295368029405, "272": -0.06039073922726841, "273": 0.018488960687416102, "274": 0.01079979054776505, "275": 0.011890738086425785, "276": -0.06422960676568125, "277": -0.022101723297444885, "278": -0.07928184549903386, "279": -0.0639418982205645, "28": 0.15373700286512373, "280": 0.0880842650890913, "281": -0.03883181099599446, "282": 0.015318397959518188, "283": 0.008718609346685561, "284": -0.027309953962203, "285": -0.005854688802626676, "286": -0.09828314485661878, "287": -0.0575429170349606, "288": -0.04503520122165614, "289": -0.00257441212623105, "29": -0.035412940123521655, "290": 0.014810358013633515, "291": -0.07933859426278268, "292": -0.0921302425473432, "293": -0.00610760267450962, "294": -0.06708543787527144, "295": 0.0038983505546772105, "296": -0.0018979596733441834, "297": 0.017039645062317622, "298": 0.08721822532083152, "299": -0.0682209671541032, "3": 0.020508085927005183, "30": 0.02744911685718968, "300": -0.03961898768710554, "301": 0.03860048746106153, "302": -0.0038516974288420507, "303": -0.0019565742783140593, "304": 0.041541440814957246, "305": 0.046944205417296964, "306": -0.0119955656106925, "307": 0.036105675166969026, "308": 0.018349318935824244, "309": -0.030512324661943917, "31": -0.021677249604626258, "310": -0.002221558531044703, "311": -0.048507093287554134, "312": -0.013651153237997139, "313": -0.045228480579462146, "314": -0.06585958360677098, "315": -0.04392550444102604, "316": 0.05691511773774725, "317": 0.0033708229113557277, "318": 0.11126287979419458, "319": -0.018112433856547237, "32": -0.01625349995471482, "320": -0.025808879185737633, "321": -0.008292342185120904, "322": 0.044939349505752534, "323": 0.061638200265865015, "324": 0.050856294528224905, "325": -0.02786352939796374, 