{"data": {"layers": [{"layer_type": "input", "out_depth": 3, "out_sx": 32, "out_sy": 32}, {"biases": {"depth": 16, "sx": 1, "sy": 1, "w": {"0": 0.07450726567125511, "1": 0.03492452771386812, "10": 0.13347086687674828, "11": 0.01568968226084261, "12": 0.11001928249101568, "13": 0.03220051451392177, "14": 0.08569433151731295, "15": -0.00015012024527608406, "2": 0.03658990651295453, "3": 0.09168847918506294, "4": 0.04726041980940256, "5": 0.06557401953486688, "6": 0.05764426220318894, "7": -0.040744194325866734, "8": 0.07187779560326794, "9": 0.033211226508647274}}, "filters": [{"depth": 3, "sx": 5, "sy": 5, "w": {"0": -0.1232345807324386, "1": -0.05446865484215015, "10": -0.07909848132369832, "11": 0.015439922842454719, "12": 0.1823061889178145, "13": -0.19423151847879663, "14": -0.09466195566562007, "15": -0.09274354332958164, "16": 0.09129749773708326, "17": 0.053768853559751244, "18": -0.01652599445602389, "19": 0.04177096377716401, "2": 0.12102187154889182, "20": 0.1120338158911049, "21": 0.05781838501357888, "22": -0.2500385615333751, "23": -0.009936143387082468, "24": 0.056987097895670184, "25": -0.002257340195736186, "26": 0.10791960322788129, "27": 0.07219742169693186, "28": 0.08837518731944019, "29": 0.05249583151979329, "3": -0.0077271679962000114, "30": -0.12467862975875293, "31": 0.18032616077866326, "32": -0.028612625967854344, "33": -0.1364059079872299, "34": 0.132531969251144, "35": -0.061207101233868175, "36": 0.11616386738810325, "37": 0.11322762696852581, "38": -0.02564478585652187, "39": 0.09502426176241983, "4": -0.14072468016010486, "40": -0.15075907400948002, "41": -0.0768919430899037, "42": 0.0024575566489798643, "43": -0.21743228591330926, "44": 0.23961157040389267, "45": 0.05107624634410237, "46": -0.07834662925769957, "47": 0.1331364553190436, "48": -0.01654414910297326, "49": 0.09566268274208194, "5": 0.06703798918015687, "50": 0.026139045735507543, "51": -0.15146437171814225, "52": -0.19259563909280208, "53": 0.06150106719706024, "54": 0.11167608025714029, "55": -0.02299890866162617, "56": -0.14908804018724822, "57": -0.33565338236330305, "58": -0.13199902979844014, "59": -0.06574873782333926, "6": -0.13205263366459724, "60": -0.001304426848747636, "61": 0.050440858031400616, "62": 0.1093357074908947, "63": 0.0017138296815366505, "64": 0.016186070644077226, "65": -0.08685870090255744, "66": 0.03381270837640347, "67": -0.07552939505013541, "68": 0.12551584226533968, "69": -0.16111609610184527, "7": 0.012457009367275222, "70": 0.08057963802988306, "71": 0.03563261062269151, "72": -0.1641240925409534, "73": -0.08227592727188957, "74": 0.08545566538440703, "8": -0.032427535509581794, "9": -0.018322163564605514}}, {"depth": 3, "sx": 5, "sy": 5, "w": {"0": 0.050646380976501676, "1": -0.037467803307050476, "10": 0.1105694417842658, "11": -0.0015082796517022197, "12": -0.017703164367324595, "13": -0.006872138070557282, "14": 0.12472143693340026, "15": -0.13084538907474474, "16": 0.02024326479370146, "17": 0.15471569388681622, "18": 0.09744852729712727, "19": -0.028893706050831258, "2": 0.01497133455738806, "20": -0.1446326058516046, "21": 0.007628088553395425, "22": 0.2706138964373691, "23": 0.008231005243746883, "24": -0.1705812858257942, "25": -0.09066770055099993, "26": 0.06458629218896968, "27": -0.05577104323461403, "28": -0.21239798401878132, "29": 0.09101301660632698, "3": 0.041901243759718744, "30": -0.13308916744308816, "31": 0.07638469220261551, "32": 0.0012638862733534313, "33": -0.01976020435235853, "34": -0.09707092109585401, "35": -0.08511756924824913, "36": -0.24349784686890913, "37": 0.09426709712767598, "38": 0.019586012737196064, "39": 0.11037110889461944, "4": -0.07785511116801506, "40": 0.13765696006077013, "41": 0.1993911890918919, "42": 0.0862224082962341, "43": -0.08649006044898087, "44": -0.16716027490156282, "45": 0.13483717632118222, "46": -0.16921028520894502, "47": 0.07819572861985, "48": -0.10944628465208349, "49": 0.22486799583528425, "5": -0.0997909436920041, "50": 0.06984682885098512, "51": -0.03704143963547965, "52": 0.04825744598905028, "53": 0.157243782104998, "54": -0.09711485241657207, "55": 0.0557999783893537, "56": 0.14277255885679413, "57": -0.15133629292763146, "58": -0.018002709290698592, "59": -0.05933042189545698, "6": 0.2781299707574645, "60": 0.051686273906267455, "61": -0.12236340669999964, "62": -0.0271342083779629, "63": -0.04248257928836722, "64": -0.08384610785928817, "65": -0.13691513952325782, "66": -0.07259545223900772, "67": -0.19913003750738265, "68": 0.010179179726752677, "69": 0.05537978819268059, "7": -0.0788727062814035, "70": 0.0202580790085964, "71": 0.040979355631670204, "72": -0.06876506056856702, "73": -0.1873431886101261, "74": -0.07715745930443539, "8": 0.011433610490968266, "9": 0.0574655619762708}}, {"depth": 3, "sx": 5, "sy": 5, "w": {"0": -0.09300390990449724, "1": 0.010281411278156443, "10": -0.21619338616859965, "11": -0.09338578562776081, "12": 0.0819029677735266, "13": -0.09511776616675527, "14": -0.09588919903005269, "15": 0.06541418229575528, "16": 0.1354331537160138, "17": 0.11697699434778484, "18": 0.07241260044005426, "19": 0.10948729327739673, "2": -0.053123584801205166, "20": -0.22253273491511374, "21": 0.09730641983684489, "22": -0.045191802761077565, "23": -0.2042880852013835, "24": 0.046154046825075415, "25": 0.055728845034765016, "26": 0.045024119178133794, "27": -0.20441354087126135, "28": 0.13542449726299974, "29": -0.07946550255358703, "3": -0.07145590674549987, "30": 0.07086253854942755, "31": -0.05959519534044171, "32": 0.010586992007998869, "33": -0.12477314288263015, "34": 0.0036612085331686763, "35": -0.20089508564765327, "36": 0.32770782414245003, "37": 0.12614511919925864, "38": -0.2078888327054711, "39": -0.024168731210715638, "4": -0.06643395463333471, "40": -0.05000896567796381, "41": -0.011167836137699873, "42": 0.11324234437042159, "43": 0.06833688548076096, "44": -0.009443543415043115, "45": -0.0053029696580617625, "46": 0.040107604805945656, "47": 0.045950374152276874, "48": 0.08324981657347098, "49": -0.1284098703778369, "5": 0.02451887181877044, "50": -0.02833867713209977, "51": -0.14969422568463434, "52": -0.06213303821449451, "53": 0.15642981673572287, "54": 0.22672922527600403, "55": -0.2180376404666994, "56": -0.19232630638247308, "57": -0.05828947970824239, "58": -0.04126684538190527, "59": -0.18961006258304663, "6": -0.023265964881841062, "60": -0.03626061649546157, "61": 0.030959591114172673, "62": 0.08650588932378801, "63": -0.0028560481911171554, "64": -0.01892576644673776, "65": -0.08591308000897024, "66": 0.08012344929234592, "67": -0.16230691348802384, "68": -0.2594789924518017, "69": 0.13576937840788175, "7": 0.07494488496837343, "70": 0.18127985693270968, "71": -0.006958478533294792, "72": -0.00990435001905507, "73": 0.06851910702971088, "74": -0.05994769939606793, "8": -0.05805523519908338, "9": 0.01237094868540704}}, {"depth": 3, "sx": 5, "sy": 5, "w": {"0": -0.2342671470334371, "1": -0.03575761345622382, "10": -0.008265704440343944, "11": -0.0872824113749338, "12": -0.14260600180426913, "13": 0.03865307308661007, "14": 0.025841510642682215, "15": 0.17686056749299295, "16": -0.14579639069415334, "17": 0.11336687693907936, "18": 0.050234222180020056, "19": 0.05580805795120084, "2": 0.07947576238269337, "20": -0.061224000755401145, "21": 0.11615701287599442, "22": 0.01819678918888275, "23": 0.06801630939093699, "24": -0.09800465674876212, "25": 0.030467282939922322, "26": 0.0031506545975536703, "27": 0.06709808360040044, "28": 0.09478683960734749, "29": 0.03006481049308552, "3": -0.08398813399937509, "30": -0.08753330668760402, "31": -0.12924914291379444, "32": 0.16737399130356378, "33": -0.060753950776666565, "34": 0.23622325459274943, "35": 0.06792754930683559, "36": -0.12915132405431928, "37": -0.14211655826102063, "38": 0.1777937649770843, "39": -0.04023658175712233, "4": -0.13886885509486754, "40": -0.1276665868177026, "41": -0.07373103413738817, "42": -0.08616841006556167, "43": -0.1645204416063223, "44": 0.2792383941179718, "45": 0.060036350893976034, "46": 0.010032679036157746, "47": 0.02105308622257385, "48": -0.09077073985067269, "49": 0.07540998848915392, "5": -0.0971664511143579, "50": 0.0059848142070530125, "51": -0.09240198605993304, "52": 0.0199308679573629, "53": 0.2102163149893528, "54": -0.19583170970328354, "55": 0.08506043420447545, "56": 0.1159344610551155, "57": 0.029311738393306436, "58": -0.07770610382405753, "59": 0.16967731173513925, "6": -0.07068732734767962, "60": -0.24058372298450625, "61": 0.06446930510360818, "62": 0.33774726436167096, "63": -0.10476142278884384, "64": -0.14430762473524317, "65": 0.2357587219233348, "66": -0.10433645543527809, "67": -0.005973308589442628, "68": 0.16066470816019443, "69": -0.10178348688792337, "7": -0.1338637983853297, "70": 0.0575698070119271, "71": 0.0625499508068925, "72": 0.011905923410031695, "73": 0.019824080857605793, "74": 0.026928344362381215, "8": -0.13783902199350967, "9": 0.2062148371726556}}, {"depth": 3, "sx": 5, "sy": 5, "w": {"0": -0.010182159697354726, "1": -0.19503046093429913, "10": 0.1964558393927797, "11": 0.07062490093131886, "12": -0.12936687844773245, "13": -0.21063712691488576, "14": -0.27309986988974555, "15": -0.2279179961922646, "16": -0.06847245341226765, "17": -0.15121098651609685, "18": 0.11937992849641255, "19": 0.23423101421798398, "2": 0.019794565701506697, "20": -0.0037519666782614065, "21": 0.026324291537691818, "22": 0.05731364324677206, "23": -0.08449130765291271, "24": 0.27559347863835837, "25": -0.08186637281996902, "26": -0.08953701182171174, "27": -0.0392052978648428, "28": -0.2867264219546746, "29": -0.15096752989094842, "3": -0.05730305091075071, "30": -0.09787559255290708, "31": -0.048349569845060086, "32": -0.052462444726455955, "33": 0.07631017224802268, "34": 0.05166002610874379, "35": -0.05615826535187438, "36": -0.1364658310029139, "37": 0.0835052937319677, "38": -0.01838040174155084, "39": 0.23985929895234948, "4": -0.0051846368555705565, "40": -0.15065317571617387, "41": -0.09663037447696231, "42": 0.03227230807937003, "43": -0.12945748960163345, "44": 0.023889465816594086, "45": 0.07746369465091398, "46": 0.05687338488695504, "47": 0.050194636471114384, "48": -0.07270878172225381, "49": -0.01328457184465261, "5": -0.05096462740268452, "50": -0.14492489155976396, "51": 0.24633394625751195, "52": 0.08864480591566878, "53": -0.07118418886618347, "54": 0.1114744092926542, "55": -0.24246816828691103, "56": -0.1144765026001421, "57": 0.08932409844728068, "58": -0.14768553961985814, "59": -0.08358832152956336, "6": 0.031792355694523045, "60": -0.05561416511118517, "61": -0.024013764247168296, "62": -0.1374047184894321, "63": -0.040027808213693235, "64": 0.1399283599754761, "65": -0.19042166882897663, "66": 0.04595661683798982, "67": 0.19028238877945564, "68": -0.1931257960797841, "69": 0.049561695233592135, "7": 0.11698059816123789, "70": -0.11249151318607, "71": -0.14629890377588076, "72": -0.026555426318592864, "73": 0.08415656229344784, "74": -0.004588715998469093, "8": 0.017941755206653854, "9": 0.01512888297891072}}, {"depth": 3, "sx": 5, "sy": 5, "w": {"0": 0.02436397056299292, "1": -0.08849379062187776, "10": -0.1552189885996648, "11": -0.046660869873106296, "12": 0.11390692265100197, "13": -0.005388079386039147, "14": 0.1259468305017839, "15": -0.04044078034615525, "16": -0.029066099789574543, "17": 0.2430060970021934, "18": 0.026970408467467483, "19": -0.16259752481096917, "2": 0.05360219284445967, "20": 0.038957202920299694, "21": -0.140080591174596, "22": -0.13808505272448293, "23": 0.14700069538467322, "24": -0.23091492675007708, "25": -0.13156688473646488, "26": 0.011701506700570663, "27": 0.061986311802380165, "28": -0.11816436330037067, "29": 0.08011696322115208, "3": -0.013098778052006724, "30": -0.11513133279657588, "31": 0.11430610914917398, "32": -0.05770204295080078, "33": -0.18367339563976212, "34": -0.07718134129728088, "35": -0.17130904478251827, "36": 0.015381797982258444, "37": -0.21551308532289556, "38": -0.02180860209997099, "39": -0.052498245702115455, "4": 0.025483933863193513, "40": -0.09577666682657004, "41": 0.11835040042113285, "42": 0.07484927785833619, "43": -0.0016367352271166248, "44": -0.11981763424150346, "45": -0.11227612659013714, "46": 0.046513204722195195, "47": -0.16425712554045394, "48": -0.09835442674760446, "49": -0.08671081668877181, "5": -0.06432252571996616, "50": 0.12920292884207427, "51": -0.075130086492588, "52": -0.1374040206821486, "53": 0.1442933191083603, "54": 0.10840392478283377, "55": -0.05125383748421164, "56": 0.038563010286642274, "57": -0.016223187828202076, "58": -0.15041017268196918, "59": 0.17166976183870838, "6": -0.09580452724374355, "60": -0.11638470042242664, "61": 0.0576608110473382, "62": -0.045553260984398464, "63": -0.052977319159136164, "64": -0.0021158627198301257, "65": 0.04972193421513708, "66": -0.06728396107680595, "67": -0.04811079746739414, "68": -0.14838587685627183, "69": -0.037571043870446096, "7": -0.11054424682423014, "70": 0.06705531837630017, "71": 0.1675828647300902, "72": -0.019843826067108564, "73": -0.01839902064205724, "74": -0.05816540550660348, "8": -0.019033025933902267, "9": 0.09625125105296437}}, {"depth": 3, "sx": 5, "sy": 5, "w": {"0": -0.0016636837870584102, "1": -0.1251878941147835, "10": 0.045132552918184916, "11": 0.1493885828352978, "12": 0.028350010032571007, "13": 0.0009895233961821426, "14": -0.11814018606112081, "15": -0.14971292268239592, "16": -0.17006462277392537, "17": 0.2067254308099996, "18": -0.12279929787579723, "19": -0.11658388109301672, "2": 0.15819676382353576, "20": -0.0070703292217889, "21": 0.01949390186816204, "22": -0.07803224628648846, "23": 0.07034109135993366, "24": -0.06207832088591197, "25": 0.005196090678665526, "26": 0.03226373116752599, "27": -0.005005335742099336, "28": -0.0708556770857159, "29": -0.03825949049411301, "3": 0.006145169917513472, "30": -0.059189210728682946, "31": -0.03134411531642615, "32": -0.06049389303555483, "33": -0.0734475972000855, "34": -0.32071005951569886, "35": 0.1993814891508863, "36": -0.1365520042668576, "37": 0.01414862658190147, "38": -0.01797073765139398, "39": -0.24223989762327278, "4": 0.19304636000056893, "40": 0.04918867601970016, "41": 0.026736806137412118, "42": -0.12963785761017538, "43": -0.06681426187446164, "44": 0.25594477582882064, "45": -0.031995172692869785, "46": -0.04215504019923856, "47": 0.04709138896598519, "48": -0.061682378506928655, "49": -0.08850298161050968, "5": 0.006840502206731462, "50": 0.008044323125291152, "51": 0.042781687415920186, "52": -0.06920188243721478, "53": -0.10786295793992844, "54": -0.1117278584098658, "55": 0.09758564200263238, "56": -0.09150837484253498, "57": -0.11093536113899784, "58": 0.09002266474429357, "59": -0.033439968594692955, "6": -0.03332452549743349, "60": 0.01975859065411388, "61": -0.16565268431963037, "62": 0.1206900959871307, "63": 0.12985905518520097, "64": -0.10944007444941586, "65": 0.14699936578663456, "66": 0.1648227588217954, "67": -0.002753600953286597, "68": -0.125255532990689, "69": -0.10335117623082091, "7": 0.12785664790244214, "70": -0.08899194699633343, "71": -0.14379181597777926, "72": -0.10791675464664112, "73": 0.01809649455064067, "74": 0.0840999427277592, "8": 0.0934077988208813, "9": 0.06368982932006875}}, {"depth": 3, "sx": 5, "sy": 5, "w": {"0": -0.08482904391792513, "1": -0.009409581929587163, "10": -0.01865395068892709, "11": 0.08395827199083587, "12": -0.057235548055874386, "13": -0.16897464308179136, "14": -0.1626808764957645, "15": 0.11436571134233003, "16": -0.036132531573927436, "17": -0.020711436111873333, "18": -0.15961731946023353, "19": -0.006363660043610655, "2": -0.04032556598844327, "20": -0.0175592114288648, "21": 0.09122056639151589, "22": -0.29385104836831316, "23": 0.03294530098539161, "24": 0.10644733111914835, "25": -0.043766062170281124, "26": 0.06633282677769978, "27": 0.02666147136034913, "28": 0.03532927662860813, "29": 0.1652712644329218, "3": 0.007409364585157847, "30": 0.04722845301645698, "31": -0.1539020835469725, "32": 0.24051237011509347, "33": -0.187725270414564, "34": 0.08273592690999738, "35": -0.2348339778076038, "36": 0.07996932719927351, "37": -0.10565890111165195, "38": 0.1082212188103262, "39": 0.12619415219906666, "4": 0.08127084430961111, "40": -0.052480617107660756, "41": -0.1615132991964357, "42": -0.1385279344064707, "43": -0.19483989896363862, "44": 0.1531430417357765, "45": 0.03722118071052332, "46": 0.18842010743637724, "47": -0.1119363804785223, "48": 0.09507321598724967, "49": -0.25080646611375007, "5": -0.011150551181864192, "50": -0.09104605524878275, "51": 0.06703855369884007, "52": -0.14606837541765447, "53": 0.008006487780653389, "54": 0.13234992815718824, "55": 0.15248780678560878, "56": -0.20711918287210476, "57": -0.07189684947873608, "58": -0.09707513581963051, "59": -0.01423571983690891, "6": -0.11496505261555032, "60": 0.16443117537240456, "61": -0.1497666306957478, "62": -0.09003879791823455, "63": 0.11629596289055508, "64": 0.20216066564512813, "65": -0.0674837658310219, "66": 0.01157236194616604, "67": -0.17837991846733708, "68": -0.10547699742443346, "69": 0.013537816273807651, "7": -0.03811261334088911, "70": 0.12486769148579917, "71": -0.05172019447249619, "72": -0.014967370532727493, "73": -0.09125096275860772, "74": -0.11336648913795161, "8": -0.044745002336346026, "9": 0.1482360192702676}}, {"depth": 3, "sx": 5, "sy": 5, "w": {"0": -0.002389790760521855, "1": -0.15643002025945946, "10": 0.0664032821569904, "11": 0.057176666716468386, "12": -0.06075096264632484, "13": 0.06503516701546648, "14": 0.16804869260658678, "15": -0.010069239765223276, "16": -0.20683421668652738, "17": 0.06821668624465353, "18": 0.02787977943798117, "19": -0.04518537462924195, "2": -0.05234456518119786, "20": 0.17277032083165117, "21": 0.0326883335557421, "22": 0.06606949643215354, "23": 0.09101302950552745, "24": 0.05048168547594253, "25": -0.06738847607130002, "26": 0.13313839935404936, "27": -0.1312116626509931, "28": -0.07794179763763529, "29": 0.09552796810727708, "3": 0.03882772906420371, "30": -0.23458571100186562, "31": -0.006406758688144819, "32": 0.1490489707615281, "33": -0.09143220877775692, "34": -0.041774838889788, "35": 0.07300610332970134, "36": 0.07949820688858186, "37": 0.01941873984105459, "38": -0.087215669914675, "39": -0.0869905437161055, "4": 0.049983040643498663, "40": -0.169137974996793, "41": 0.006447099015318594, "42": -0.2358409942420036, "43": 0.15736518736942062, "44": 0.07896071017335142, "45": -0.1387701431866257, "46": 0.13384332579741604, "47": 0.27100640450300084, "48": -0.07352283388241626, "49": -0.07232752472583204, "5": 0.05612933207229506, "50": -0.17593634605264205, "51": -0.08013815817957787, "52": 0.00910933451551145, "53": 0.1417932234450009, "54": -0.13662864675997616, "55": 0.060853795919291645, "56": -0.09534241982100167, "57": -0.08012572132051787, "58": -0.09627253446258646, "59": -0.04530004633324686, "6": -0.13830802134393377, "60": -0.18879533522225722, "61": 0.048071413958474564, "62": 0.11868262523382808, "63": -0.1225657081895814, "64": -0.05760404695378438, "65": 0.1741856779654426, "66": 0.007820234932994831, "67": -0.08388966693422169, "68": -0.05212319454409133, "69": 0.11288402093042957, "7": -0.039297560544973804, "70": -0.045406170715141414, "71": 0.05779686456975065, "72": 0.002041081558362418, "73": -0.05396474523434381, "74": 0.011337720319391426, "8": 0.028739642381007086, "9": -0.008725088459218518}}, {"depth": 3, "sx": 5, "sy": 5, "w": {"0": -0.08294205444442704, "1": 0.04943653074362421, "10": -0.005318007091987521, "11": 0.08350663940736124, "12": -0.04000860054572496, "13": -0.05189171415292949, "14": -0.20022069219239613, "15": 0.13093059629822149, "16": 0.17597422475465088, "17": 0.020624750209438988, "18": 0.018318602892562954, "19": 0.1620442670100433, "2": 0.12310798972462575, "20": -0.1793163422910972, "21": 0.07989535662690471, "22": 0.11195034977372706, "23": -0.24989953418052152, "24": 0.10394907462130262, "25": -0.055827490015242585, "26": 0.03354959355544742, "27": -0.0724506366130925, "28": -0.08216381588590821, "29": -0.10826773901599977, "3": 0.10761279596594099, "30": -0.04990948766854166, "31": 0.03596057095195257, "32": -0.18900975487674096, "33": -0.20636662142651213, "34": -0.0023748174839415036, "35": -0.027945128935549884, "36": 0.16735739599300947, "37": 0.051948649743399085, "38": -0.26277519155928697, "39": -0.16052130942075724, "4": 0.2114954201654023, "40": -0.09559221701349328, "41": -0.21157485329942488, "42": -0.09914723368911715, "43": 0.28040786091520076, "44": -0.20180793643012992, "45": -0.056123238902566784, "46": -0.07603346826796516, "47": -0.13846055581956243, "48": 0.08652490702644097, "49": -0.0076527466144232364, "5": 0.008308390711670468, "50": -0.16065271666333572, "51": 0.20503497003519913, "52": 0.20702209682616102, "53": 0.032499073966224326, "54": -0.003986118387850544, "55": 0.09764857375389953, "56": 0.07731838021996335, "57": 0.00013739525760802238, "58": -0.25696930152508857, "59": -0.02605669057028422, "6": -0.12247699394362374, "60": 0.1038221007657372, "61": 0.03206601082797775, "62": -0.13546414226795297, "63": 0.12451714553379534, "64": 0.0014121215223758142, "65": -0.033286752884870464, "66": 0.22235215107482856, "67": 0.12310082698813751, "68": -0.021447508682746887, "69": 0.08964793167582397, "7": -0.263410388085874, "70": 0.011920115955285585, "71": -0.21835183221748483, "72": -0.0626498572967427, "73": 0.07839749379333077, "74": -0.372657238012296, "8": -0.04590286534933783, "9": -0.1888675873105637}}, {"depth": 3, "sx": 5, "sy": 5, "w": {"0": 0.052441175450564, "1": -0.09665614903716518, "10": -0.17381587435675797, "11": 0.05501029803349083, "12": 0.08133431038148514, "13": 0.06035858565696803, "14": -0.08983427731334444, "15": 0.0654513687805222, "16": 0.1264239850282646, "17": 0.2610437822011487, "18": 0.07065319688808255, "19": 0.13526616486249804, "2": 0.18162543753870788, "20": 0.4052705940820625, "21": 0.07060883385527553, "22": -0.002075800640000507, "23": 0.23571273971970047, "24": -0.030460506265106522, "25": 0.0668596044492606, "26": 0.17249311788652447, "27": 0.0247458335846519, "28": 0.06583653364076017, "29": 0.07961727193850218, "3": 0.10668920011367737, "30": -0.21616984210347895, "31": 0.20925171664602354, "32": -0.22971607087822757, "33": -0.014447291137286284, "34": -0.07362160885311138, "35": 0.11926288320407036, "36": -0.006372533248956777, "37": -0.23725145740219916, "38": 0.25317235806233446, "39": 0.014125067401330146, "4": -0.06023174791376609, "40": -0.046313737811956926, "41": 0.14135754153108843, "42": -0.030893091743330513, "43": 0.19403610303084812, "44": 0.016115492037601563, "45": -0.3149599337966882, "46": 0.07436363211434592, "47": 0.013950124469793145, "48": -0.19771230922787314, "49": 0.03835979938503353, "5": 0.36488358065395293, "50": -0.06619684055664209, "51": -0.10526661770912214, "52": 0.006044083095618675, "53": 0.05910109371189575, "54": -0.18894835669202134, "55": 0.12626227924738362, "56": 0.07539838965642064, "57": -0.06408864247049374, "58": 0.044343274240022684, "59": 0.0789702210299234, "6": -0.06724028313532919, "60": -0.09413075233868082, "61": 0.05792752391239291, "62": 0.12244284954011128, "63": 0.2116326185149497, "64": -0.03400062014068899, "65": -0.07511245666787637, "66": -0.11546939223330444, "67": -0.05236368451417636, "68": -0.10649535376315562, "69": -0.08352260561396269, "7": 0.07909623353553574, "70": -0.1362981158575802, "71": 0.17782248835717165, "72": -0.05204584603899968, "73": -0.30044789546892614, "74": 0.09467138916157553, "8": -0.09316162088420653, "9": 0.14977699240947617}}, {"depth": 3, "sx": 5, "sy": 5, "w": {"0": -0.1762044779082974, "1": 0.17329337479461235, "10": 0.03532002470509527, "11": -0.2873658209102811, "12": 0.047443793663143906, "13": 0.06479787508370255, "14": -0.1760902111590866, "15": -0.016915752968111614, "16": -0.07846721367074377, "17": 0.12145942451002162, "18": 0.08060273094578765, "19": 0.1974014688206938, "2": -0.016861436334481165, "20": -0.03145528585918425, "21": -0.03628476524340895, "22": -0.11334532767093683, "23": -0.14072285282255528, "24": -0.019095413136921858, "25": -0.01913048910201361, "26": -0.05259046413623929, "27": 0.21391521368958819, "28": -0.08962517340148735, "29": -0.06663948051358398, "3": -0.16382025075719428, "30": -0.17100303382648432, "31": 0.05409205690377962, "32": -0.10781317138376548, "33": -0.11507466863141051, "34": 0.14686783095839331, "35": -0.03909028585118218, "36": 0.06023250287754804, "37": 0.0161101702373354, "38": -0.13634299029690392, "39": 0.04527754561348318, "4": -0.014641383468032516, "40": 0.12361725130939408, "41": -0.20439405630418203, "42": -0.0631864969808031, "43": 0.12686623147028542, "44": -0.08078366854453316, "45": -0.09294751120495083, "46": 0.135625043611682, "47": -0.172556245930633, "48": -0.01580488903126236, "49": 0.23154693165155923, "5": 0.1611933882511991, "50": -0.024391407293294295, "51": 0.1222251109963495, "52": 0.060274433671128405, "53": 0.1050665974107419, "54": -0.0799366598154789, "55": 0.01749744186191835, "56": 0.019976268485242282, "57": -0.17571188540524765, "58": -0.02310845111048002, "59": -0.04610377890708353, "6": 0.04058849406611658, "60": -0.2146607182187226, "61": 0.2615255409537114, "62": -0.020065645846519056, "63": 0.04990021912603267, "64": 0.04818190096025688, "65": -0.013688674800571126, "66": 0.02839674091196509, "67": -0.010648381948173379, "68": -0.13630978033198282, "69": -0.011049815837797482, "7": 0.06415240127608243, "70": 0.10178120722023898, "71": 0.0708955969848245, "72": -0.08291815661694067, "73": 0.055307013169929566, "74": -0.07236792805983311, "8": -0.016765990850180015, "9": -0.03327148671253273}}, {"depth": 3, "sx": 5, "sy": 5, "w": {"0": 0.15173344858413904, "1": 0.06569194477566657, "10": 0.0061968034915036475, "11": 0.034156489716888595, "12": 0.1678668179216965, "13": 0.07373899730569514, "14": 0.030451590361456254, "15": -0.164851532088514, "16": -0.11316593354445492, "17": 0.22354430757639943, "18": 0.04648197337434174, "19": 0.054082718295501944, "2": 0.08462376712955588, "20": 0.09799647214698633, "21": 0.08015392190564019, "22": 0.05039505572546874, "23": 0.12249568912173782, "24": 0.027380390363952144, "25": 0.20834399100387402, "26": 0.23159059942264218, "27": -0.2251192224167456, "28": -0.009288101040174468, "29": 0.19532316938704716, "3": 0.06202268506291604, "30": 0.04046781018330385, "31": -0.18758555724773562, "32": 0.04973640790709904, "33": -0.22995686022034048, "34": -0.2258331475421349, "35": -0.0861175784502974, "36": -0.09645163125997697, "37": -0.08279368135250832, "38": -0.05876912348794541, "39": 0.1829721456618627, "4": 0.18483272014901977, "40": -0.17812258308287185, "41": -0.12349522619374022, "42": 0.027486241587476215, "43": -0.16640071395238262, "44": -0.06925833985254885, "45": -0.2388386108962755, "46": -0.12266136116660972, "47": 0.047498088124255766, "48": -0.06078407907851097, "49": -0.1727742714044556, "5": 0.1259709525696945, "50": 0.06766468354067175, "51": -0.1252232134602701, "52": -0.10877175235593223, "53": 0.08349670564843592, "54": -0.03047933171871051, "55": -0.1635042465057923, "56": -0.029349120456375374, "57": -0.009949728238912157, "58": 0.017729437878317204, "59": -0.07326689830390876, "6": -0.06251597552741556, "60": 0.17199462914402347, "61": -0.07673534865216501, "62": 0.03686246840772092, "63": 0.07361568756009933, "64": -0.051030333702246286, "65": 0.09545418699782858, "66": 0.07150274749505815, "67": -0.07420447335941793, "68": 0.0778933214444179, "69": -0.10635404177686225, "7": 0.06106082493045803, "70": -0.15416483251786972, "71": -0.143570731340709, "72": -0.10523201109455568, "73": 0.1808140464439631, "74": -0.18869074964123733, "8": 0.05227734242475263, "9": -0.02972187912996501}}, {"depth": 3, "sx": 5, "sy": 5, "w": {"0": 0.0990431519238796, "1": -0.20486736658091326, "10": 0.02780733424028956, "11": -0.1456130450916273, "12": -0.023961526253648332, "13": 0.03873686201818014, "14": -0.10235573377477929, "15": -0.13187818533120726, "16": -0.06458494416273106, "17": -0.08943579668313129, "18": 0.21773312692690228, "19": 0.014319177872885622, "2": -0.02320991543435994, "20": 0.01684396937939058, "21": 0.07900008878975999, "22": 0.1448142563272275, "23": -0.1728786727423621, "24": 0.025450024672117585, "25": 0.11587850127307361, "26": 0.1736336248548963, "27": -0.11946408700482058, "28": -0.027752837337544932, "29": 0.14879637152826744, "3": 0.049635993324286115, "30": 0.061241747673380864, "31": 0.010802685726878668, "32": 0.020442170959524015, "33": -0.01427260669464774, "34": 0.2133731157347176, "35": 0.001022750937396547, "36": -0.049660290983825045, "37": 0.08859614839903104, "38": -0.022460360402862024, "39": 0.015880367517221296, "4": -0.2500706129132562, "40": -0.08579221581641136, "41": 0.057529909825795214, "42": 0.031081433903634857, "43": 0.10314104874603751, "44": -0.06914183178169153, "45": -0.06114816033312374, "46": -0.015952180865554454, "47": -0.03520995794976167, "48": -0.1690722424822767, "49": 0.07596440247908835, "5": -0.07461176287514001, "50": 0.12980075556681614, "51": -0.0746678044609498, "52": -0.06316208214848008, "53": 0.004932459394495781, "54": -0.038448179845380084, "55": -0.11886530130477148, "56": 0.168211901772401, "57": -0.028521856317570236, "58": 0.07806538721199612, "59": 0.08538244684510733, "6": 0.03763332559715317, "60": 0.026225542838649907, "61": -0.042574919012301225, "62": 0.18756554146139146, "63": -0.040520279481797955, "64": -0.015947663079430418, "65": 0.2046055779924759, "66": 0.0187046373259915, "67": 0.05412284525986986, "68": -0.0166314055202403, "69": -0.06280813231904586, "7": -0.0961493406399932, "70": -0.15097830271782445, "71": 0.0960501563467723, "72": 0.000921579498019066, "73": 0.010564988182389146, "74": 0.01685396250898498, "8": -0.030187761493150854, "9": 0.031690174575616195}}, {"depth": 3, "sx": 5, "sy": 5, "w": {"0": 0.116408418786615, "1": -0.11309646757085429, "10": 0.04251259344783295, "11": 0.10871676233726911, "12": -0.21849705533135436, "13": -0.10666528483200573, "14": 0.0853740059108799, "15": -0.14868256334021357, "16": 0.1775297709817331, "17": 0.10146234889071049, "18": 0.03281098394782501, "19": -0.11506157775720559, "2": -0.16728932984958517, "20": -0.028122544416620748, "21": -0.03671507541775607, "22": -0.12695426800840842, "23": 0.11177410531135748, "24": -0.14171708356609744, "25": -0.32486062638814656, "26": 0.08201280931648197, "27": 0.013548554199656048, "28": 0.08520229719050869, "29": 0.022965908384390853, "3": 0.21810946191398364, "30": 0.04565506855556708, "31": 0.04993999410552946, "32": 0.009232308006957317, "33": -0.08251326279227186, "34": -0.032879238129689015, "35": -0.1718249513935065, "36": -0.10086693050249963, "37": -0.01738242518083598, "38": 0.02838326222481642, "39": -0.26683045372802, "4": 0.04957820852778924, "40": -0.09064246552167149, "41": 0.1862267967316274, "42": -0.09665619159177544, "43": 0.14426662074638819, "44": 0.14193601906939465, "45": 0.05320996899211399, "46": -0.13909440472816054, "47": -0.05243744141788277, "48": -0.24796817547907046, "49": 0.09390037399929255, "5": 0.21881730651089112, "50": 0.08501461049922585, "51": -0.04757787975788577, "52": -0.05378619437926913, "53": -0.11593790767098315, "54": -0.13635979241616214, "55": -0.03623312295195718, "56": -0.018800830860919233, "57": -0.20117115419873877, "58": 0.07721712606121447, "59": 0.037389987797208105, "6": -0.015447340995819635, "60": -0.0843964927749378, "61": 0.1607997534767289, "62": 0.12016437002703592, "63": 0.012150372825223977, "64": 0.08176592795790288, "65": -0.04155085962154243, "66": 0.016315293253740207, "67": 0.08794287977756192, "68": 0.10206792868582061, "69": -0.2620021459902052, "7": 0.08508080129167915, "70": 0.060094378240586305, "71": 0.06082988205225422, "72": -0.15291494761658514, "73": -0.02681871078096362, "74": 0.092518944446949, "8": -0.04795365121776446, "9": 0.1101622519625182}}, {"depth": 3, "sx": 5, "sy": 5, "w": {"0": -0.1331154768359926, "1": 0.0018618086631146955, "10": -0.02983599173295975, "11": 0.24714905711119564, "12": 0.10248067949093852, "13": -0.06630298695825072, "14": 0.08869147993996394, "15": -0.12352567178585969, "16": -0.012737529247117782, "17": 0.027058286257949205, "18": 0.07131342373338222, "19": 0.03053155883499083, "2": 0.0990350375327851, "20": -0.010895846249464729, "21": 0.013946374932194057, "22": 0.12094363735505802, "23": -0.12870497824608448, "24": 0.036435895294390064, "25": 0.11447710276887987, "26": 0.16834961689896433, "27": 0.12593318026713757, "28": 0.12349439370127983, "29": -0.22308869518785845, "3": 0.05387523694355906, "30": -0.05268923956201277, "31": -0.004067410240109432, "32": -0.1052026894305976, "33": 0.11501187986990602, "34": 0.0535154109410032, "35": 0.14522440625936683, "36": 0.13212854949726405, "37": 0.04849047422987886, "38": 0.02189296503214822, "39": 0.04647836022003181, "4": 0.06339361497828394, "40": 0.04506118838787557, "41": -0.08665903397889073, "42": 0.0582278276716461, "43": -0.021644245273413833, "44": -0.047947176457567145, "45": -0.13040393639646675, "46": -0.17422761262816608, "47": -0.08960422184381349, "48": 0.07199449679910734, "49": -0.07647241075788236, "5": -0.13302188262681222, "50": 0.013421733882134263, "51": 0.07104946244952946, "52": -0.04443836753563429, "53": -0.12856704206523653, "54": 0.05653472195563449, "55": -0.0037654191879755022, "56": 0.126462428160553, "57": -0.19151175685114305, "58": 0.046839279236861105, "59": -0.03787242951053157, "6": 0.19728497757396207, "60": -0.08210480283707278, "61": -0.07276350633765982, "62": -0.19703969653562434, "63": -0.08821971683463922, "64": -0.1028515206924254, "65": 0.04824457073857524, "66": -0.03752308562438155, "67": -0.3184290063467367, "68": -0.047750138368410314, "69": -0.19297183029366569, "7": 0.028611205499723038, "70": -0.02485909516778942, "71": -0.12004522913975389, "72": 0.10153377138088632, "73": -0.0887965302670682, "74": -0.14637065585446665, "8": 0.1656744432391596, "9": 0.1256154555873137}}], "in_depth": 3, "l1_decay_mul": 0, "l2_decay_mul": 1, "layer_type": "conv", "out_depth": 16, "out_sx": 32, "out_sy": 32, "pad": 2, "stride": 1, "sx": 5, "sy": 5}, {"layer_type": "relu", "out_depth": 16, "out_sx": 32, "out_sy": 32}, {"in_depth": 16, "layer_type": "pool", "out_depth": 16, "out_sx": 16, "out_sy": 16, "pad": 0, "stride": 2, "sx": 2, "sy": 2}, {"biases": {"depth": 20, "sx": 1, "sy": 1, "w": {"0": 0.07482818386146477, "1": 0.12650342171699755, "10": 0.10725064441857338, "11": 0.10740814452090358, "12": 0.0666454584926288, "13": 0.14093385453696142, "14": 0.073126840354853, "15": 0.09296944383524, "16": 0.04465219131899976, "17": 0.08879535576855342, "18": 0.08382654059741065, "19": 0.07439881954119304, "2": 0.07144600726754145, "3": 0.0973331149391482, "4": 0.13612029750322185, "5": 0.07086637128815543, "6": 0.17727570400786152, "7": 0.1022094753026242, "8": 0.06792943991478079, "9": 0.07546215457091693}}, "filters": [{"depth": 16, "sx": 5, "sy": 5, "w": {"0": -0.007830162058810642, "1": -0.028786062129678887, "10": 0.05988323200030672, "100": -0.07410330567223838, "101": -0.03707024360690238, "102": -0.015507709374674368, "103": -0.03980137524968539, "104": -0.005098963159990437, "105": 0.04339818750997062, "106": 0.056847427562209674, "107": -0.02831269722368553, "108": 0.02524073652252185, "109": 0.025176508055675163, "11": -0.022225297357938063, "110": -0.14936602079030656, "111": 0.048783275042038256, "112": -0.11663952973077503, "113": 0.09574652761501215, "114": -0.00844901019419157, "115": -0.01580060667936185, "116": -0.10899491654718499, "117": 0.008711147726971786, "118": -0.06240709954815549, "119": 0.030857641543165726, "12": -0.08239351876917661, "120": 0.0038179368935466786, "121": -0.0019034166236908154, "122": -0.015286688514521666, "123": -0.04739589353493677, "124": -0.07760746952841963, "125": 0.07747394578591912, "126": 0.08217080926446765, "127": 0.03633812361789748, "128": -0.07688164836846938, "129": -0.01666436925319176, "13": -0.0004216752406040864, "130": -0.037561713049015115, "131": 0.0679688220423549, "132": -0.08728275881020105, "133": -0.04011978463804817, "134": -0.020733164948799253, "135": -0.06547430198396033, "136": 0.08027647968292219, "137": -0.06703498058617129, "138": 0.030861795230800047, "139": 0.01964092314369721, "14": 0.013417862653547654, "140": 0.05556590103246017, "141": 0.010825026225259608, "142": 0.03130350232908005, "143": -0.032095505461839896, "144": 0.12744174767599947, "145": 0.04834762535720283, "146": 0.02309015348350141, "147": 0.018382760421631734, "148": 0.1017493034701927, "149": 0.045173337127199606, "15": -0.038108238235367464, "150": -0.028390265572286227, "151": 0.00149050330865186, "152": -0.029821509151348475, "153": -0.01117287426067395, "154": 0.04423010766954128, "155": -0.04848117529068813, "156": 0.003994795914683276, "157": 0.023863821643878774, "158": -0.06398069157544345, "159": -0.03688862666656911, "16": 0.05499295650016836, "160": -0.03493932136429027, "161": -0.005114775019638939, "162": -0.08514609676424244, "163": -0.0030767057678168295, "164": -0.010592275111769552, "165": -0.042281086458774056, "166": 0.020594045154223486, "167": 0.09468593237760962, "168": 0.02559082629994378, "169": -0.1546814571557343, "17": 0.05827472337280669, "170": 0.09230372793939155, "171": -0.02410666615260494, "172": -0.04190575201638671, "173": -0.015243853948895804, "174": -0.0915787177507359, "175": -0.06286761870770609, "176": -0.003910624881822583, "177": -0.0759732654169127, "178": -0.0618508297554136, "179": 0.012094491489038968, "18": -0.07006516022972385, "180": 0.00991755348186317, "181": 0.006647060490211225, "182": 0.06308445814806224, "183": -0.019365940318088835, "184": -0.03592436712551504, "185": -0.02975440776283697, "186": 0.053800403500856006, "187": -0.03771281204139353, "188": 0.04586960407214211, "189": 0.004036407032278701, "19": 0.0987250630692012, "190": -0.07147970923289648, "191": -0.012610328157006839, "192": 0.006447179038652421, "193": 0.03180624572964611, "194": -0.11396547983165292, "195": -0.05434303628606185, "196": 0.06527357994760898, "197": 0.019511215838875284, "198": 0.07986240872601609, "199": -0.07908822688097097, "2": 0.014303671760332468, "20": 0.02340657937133257, "200": 0.032784283717508564, "201": -0.02046819294332202, "202": 0.0611704831119899, "203": -0.07371781613342192, "204": -0.008161709300355096, "205": 0.07812082100819068, "206": 0.03809700555089411, "207": 0.026180740951922882, "208": 0.04949204956825483, "209": 0.0433433526447449, "21": -0.09990718586818169, "210": 0.02115307045671786, "211": -0.002513132167470455, "212": -0.03760960297538419, "213": -0.05511997932984044, "214": 0.09054625675658108, "215": -0.004707438783195047, "216": -0.022740239456637362, "217": -0.019072717390082126, "218": 0.14811247861987484, "219": 0.06144581866414275, "22": -0.011092995462610465, "220": 0.06616379952221459, "221": 0.047640100467927694, "222": 0.029427240355718566, "223": 0.030839405154763314, "224": -0.05225847304361413, "225": -0.010906518213814966, "226": 0.010772123996051118, "227": -0.004962663959288473, "228": 0.08003563511050535, "229": -0.006608326295718706, "23": 0.02837049900741287, "230": 0.07400119770297986, "231": -0.023188016975599843, "232": -0.07144659134119194, "233": -0.06888377278123127, "234": 0.1404319429074816, "235": -0.0008338120274875307, "236": -0.027736637327547775, "237": -0.030229434283920123, "238": 0.0018302718724206113, "239": -0.04657427739659335, "24": -0.022235860651342185, "240": -0.05933556287890469, "241": -0.004297711531520379, "242": -0.07363657026536029, "243": -0.10925573861186098, "244": -0.015969962293421024, "245": -0.09122569349688188, "246": -0.12289928835229487, "247": -0.02561885387133532, "248": -0.04501863190862451, "249": -0.029601436614215, "25": -0.001582343587252315, "250": -0.17919448793596482, "251": 0.018004137146630246, "252": -0.02531030311129755, "253": -0.03102211818738264, "254": 0.027834611934504365, "255": -0.10291179785427844, "256": 0.038036985355760625, "257": -0.04314226035677011, "258": -0.025405457005741462, "259": -0.05184140996348341, "26": 0.06513191891790392, "260": -0.07358535989229092, "261": -0.056955600941353, "262": -0.003295617434732041, "263": 0.1020770542521396, "264": -0.0742939847892369, "265": 0.0020750496561306704, "266": -0.17332154927548174, "267": -0.00015443831238255465, "268": -0.037048737987249995, "269": -0.07173951431368276, "27": 0.03336093492390718, "270": -0.07186862547558122, "271": -0.009300263467717309, "272": -0.13934990108171516, "273": -0.015271376886730996, "274": -0.08936698420204622, "275": 4.506584529250291e-05, "276": -0.078706478151736, "277": 0.021261359917704763, "278": -0.04183829473103002, "279": -0.02342817394573662, "28": 0.02165459483802643, "280": -0.08003203465968432, "281": 0.06366745734484103, "282": -0.0980741503419855, "283": -0.007321559853014431, "284": -0.10189695896888477, "285": -0.08895751991982231, "286": -0.08197254266825142, "287": -0.0854872357817954, "288": -0.02063149907338847, "289": -0.10156500185254304, "29": 0.026987948522523005, "290": -0.05468050007210928, "291": -0.002149785243523764, "292": -0.026503564934462303, "293": 0.08119284472202472, "294": 0.0028298626649772094, "295": -0.06869988711993993, "296": -0.00467696374832674, "297": -0.1480946389674375, "298": -0.0931308518205853, "299": -0.032264216720255014, "3": 0.0783765678060831, "30": -0.043574520982634035, "300": -0.09898815008195638, "301": -0.0076412184047204455, "302": 0.0062407250994597025, "303": -0.068800363677321, "304": -0.06706368102529434, "305": -0.0011404273058775278, "306": -0.1251990220400582, "307": 0.010352631608359319, "308": -0.05149963816994206, "309": 0.06802237502193939, "31": -0.06455931754898328, "310": -0.0011323676109515613, "311": -0.07650820844386286, "312": -0.11365839443755249, "313": -0.08938241605287998, "314": -0.0055321052522986115, "315": -0.0357879642053766, "316": -0.05611057059453217, "317": 0.010024192271894763, "318": -0.009110596009870872, "319": 0.00487032272462685, "32": -0.02691117597780884, "320": -0.04410232931049087, "321": 0.044914250487350975, "322": -0.06142506687272076, "323": -0.050807776315804944, "324": -0.003231173127537143, "325": -0.04594603918438438, "326": -0.09994389387792159, "327": -0.00924168253401909, "328": 0.10609863996773453, "329": 0.02572419667932568, "33": 0.06427068901769165, "330": -0.08443092577115087, "331": 0.02707317052789711, "332": -0.0748943742443125, "333": 0.10204503440520162, "334": -0.0031511204974425493, "335": -0.03023232417269065, "336": 0.016781688330108034, "337": -0.06375253784888828, "338": -0.009621225627174827, "339": -0.06900791567644621, "34": -0.003323023970805247, "340": -0.07610375624043779, "341": -0.04620016472437442, "342": 6.094376702370794e-05, "343": -0.07816357496676656, "344": -0.058044553350609866, "345": -0.04727042896814146, "346": -0.11511340883855291, "347": -0.1192245661396094, "348": -0.12311852819353052, "349": -0.11585918879866143, "35": 0.05535425725694485, "350": -0.046180211657943025, "351": 0.030538064946073883, "352": -0.09648658889609797, "353": 0.01624723824233141, "354": -0.15315877428148858, "355": -0.07791595952784575, "356": -0.07434908687147702, "357": -0.015636783777934937, "358": -0.002304805006774494, "359": -0.03895109700013054, "36": -0.006867558848252978, "360": 0.0055123186602679605, "361": 0.03607240348455462, "362": -0.041164918566013446, "363": -0.048684235429892905, "364": -0.013178532039584342, "365": 0.07512482149050195, "366": -0.06056579130752733, "367": -0.05387730411544265, "368": -0.025420078538049614, "369": -0.0589700458059976, "37": -0.06117449243834015, "370": -0.03750443680267105, "371": -0.015850967790686597, "372": -0.06079505612102397, "373": 0.04832211167266122, "374": -0.11338478096232281, "375": -0.09953708384572924, "376": -0.10645639643372375, "377": -0.07348962006399043, "378": -0.032906103795164475, "379": -0.14775582792598158, "38": -0.030541196216148574, "380": -0.003111665988699255, "381": 0.009856104902468773, "382": -0.03519006016241797, "383": -0.011693512394270432, "384": -0.05220182361744403, "385": 0.00701008745080181, "386": -0.07849184056134227, "387": -0.059261677325720824, "388": -0.0305260087583854, "389": -0.08102123784650726, "39": -0.022041703106346143, "390": -0.011461885902774263, "391": -0.04389518687998338, "392": -0.06897455560539774, "393": -0.04860005999634895, "394": -0.07026907583980552, "395": -0.06748703029480867, "396": 0.02352459610035758, "397": -0.07465488565561444, "398": -0.07287073222285206, "399": 0.00906481959438521, "4": -0.014802663017499546, "40": 0.04202324231705953, "41": 0.04909054473139467, "42": 0.04001742236044762, "43": 0.028170867398336595, "44": -0.06206244570429258, "45": 0.030423290988370513, "46": 0.08533518842636856, "47": 0.02057770607569554, "48": 0.059291673585448845, "49": -0.07926858942843157, "5": -0.004968240236149968, "50": 0.061173014577683045, "51": 0.05203222302124874, "52": -0.01794914045788232, "53": 0.03633074427492778, "54": -0.06364545047518126, "55": 0.02696237348106295, "56": -0.10123441223052418, "57": 0.12073549225503429, "58": 0.01740073360749592, "59": 0.08743119737234793, "6": -0.09775165862661314, "60": 0.01123964459526891, "61": -0.0002781960464467606, "62": 0.012350213050057002, "63": 0.006648013410085302, "64": 0.06483525217070656, "65": -0.04068749140578831, "66": 0.042778336881671535, "67": 0.07620338959147499, "68": 0.030808073216987912, "69": 0.02194214175967329, "7": -0.03884582154497305, "70": -0.023356853411372672, "71": 0.04480972801746906, "72": -0.024603392483908335, "73": -0.054524480785816766, "74": 0.040833691645452065, "75": 0.04935802721153904, "76": 0.02994630950859853, "77": 0.043236789763675114, "78": -0.01141996912796072, "79": -0.006404314814791704, "8": -0.060935186641085645, "80": -0.06921461950806473, "81": -0.04558660429366558, "82": -0.06303867846931252, "83": -0.01019922944644295, "84": -0.09943943148386764, "85": 0.0021216140505824098, "86": -0.16288966017657538, "87": 0.027041253337684694, "88": 0.061224621397504675, "89": -0.05444277034441612, "9": -0.07053056985209284, "90": 0.12864583759396078, "91": -0.06041877993574051, "92": -0.08644835371503556, "93": -0.03797275115827255, "94": -0.009009981808967138, "95": -0.07054709058321512, "96": -0.06764444561983862, "97": -0.10816996592727829, "98": 0.018809137208675976, "99": -0.01195296702561412}}, {"depth": 16, "sx": 5, "sy": 5, "w": {"0": -0.044614011831316525, "1": 0.08914229852307043, "10": 0.07936891024400884, "100": -0.052359742720552625, "101": 0.013204529998958901, "102": -0.06553252033749342, "103": -0.025712148162991513, "104": 0.059377220345669786, "105": -0.026707595087722674, "106": 0.05596921153675517, "107": 0.03573786473021654, "108": 0.0633991903807832, "109": 0.011010436168836174, "11": -0.004721969540533014, "110": 0.001466582824498284, "111": 0.0726782771721986, "112": -0.04502429072482397, "113": -0.012204932343702688, "114": -0.1044154236799329, "115": 0.001760632061276642, "116": 0.04514400040729177, "117": -0.073533526385906, "118": -0.020930825922086806, "119": -0.022404465772188634, "12": -0.07226994961945225, "120": 0.047585524829747206, "121": 0.04473374369702039, "122": -0.0027556326231147395, "123": 0.05429621688139551, "124": -0.038531399971105065, "125": 0.030336361423693115, "126": -0.0457750747311221, "127": -0.07685581247779566, "128": -0.03126287640387613, "129": -0.10090559227325659, "13": -0.008320347689234675, "130": -0.015952667982662136, "131": 0.03288687252756972, "132": 0.031134001026829845, "133": -0.037989669792629785, "134": -0.044346942117499843, "135": -0.017335435169171506, "136": 0.034922826092805385, "137": 0.013052346896538574, "138": 0.10410701392793686, "139": -0.039374744220783464, "14": -0.0730708893848589, "140": -0.0923281249688031, "141": 0.03277244259864497, "142": -0.011372718363729219, "143": 0.010211902224640836, "144": -0.12798039024656535, "145": -0.043988666200239494, "146": -0.08400770630491311, "147": 0.11141153178406808, "148": -0.003911303523125734, "149": -0.0605751121470964, "15": -0.05390543771118222, "150": -0.009069518097395481, "151": 0.014701811371447621, "152": -0.06604606233560806, "153": 0.04046503536425843, "154": 0.09735661880588022, "155": -0.006756832924309688, "156": -0.0012620135439236058, "157": -0.10310518794046018, "158": -0.0536787342446406, "159": 0.010395058125239543, "16": -0.020469286319671053, "160": -0.007722353661855241, "161": 0.033013433604389006, "162": -0.06206338889197088, "163": 0.029524447619234725, "164": -0.047481716855504216, "165": -0.07808470046639826, "166": 0.03646865078040371, "167": -0.1257917969061501, "168": -0.035762668426538156, "169": -0.07668872080114464, "17": 0.016527970677693557, "170": 0.02061364690499311, "171": -0.08432010083745071, "172": -0.04683237947703531, "173": 0.05947788581645585, "174": -0.0631645976337817, "175": 0.05707892707144521, "176": -0.03401280162568445, "177": 0.02185353880299627, "178": 0.04120026296343054, "179": -0.09741888632369837, "18": 0.005105369168215277, "180": -0.004082535266930406, "181": 0.0037713904556269284, "182": -0.04225452274127811, "183": 0.049565613978331216, "184": -0.018781268495836223, "185": -0.21854993626670977, "186": 0.0366046194982337, "187": -0.08105475680221992, "188": 0.017996700808708126, "189": -0.04704072508829489, "19": -0.009346787389801114, "190": -0.029810896990286547, "191": 0.0593725203418261, "192": -0.009071376859456661, "193": -0.03964332432073276, "194": -0.015776508609895795, "195": -0.07570356483577262, "196": 0.0015637088066232034, "197": -0.0539875067674536, "198": -0.020320139980147305, "199": -0.0005481005497657382, "2": -0.04228705258525457, "20": 0.030214338091992667, "200": -0.0281155521331373, "201": -0.05061764064631759, "202": 0.057252194794502845, "203": 0.039616737650688655, "204": -0.044015924407892856, "205": 0.022351275096464982, "206": -0.002748837191263208, "207": 0.12639222003005435, "208": -0.09811138769775235, "209": -0.06900408496161416, "21": -0.0824551475734147, "210": -0.07785039340540026, "211": -0.04711804538450513, "212": -0.05566675503902989, "213": -0.07488258222318835, "214": -0.050181392718691535, "215": -0.04784828304244542, "216": -0.011304028589848813, "217": -0.09334280856049557, "218": -0.07916468819608131, "219": -0.049823489826100936, "22": -0.06534086932674582, "220": -0.05108442940324197, "221": -0.10544834639625249, "222": -0.01605118599176115, "223": 0.029878028104050672, "224": 0.15185702272051063, "225": -0.018064504601863384, "226": 0.060985967206476775, "227": 0.11780492690547163, "228": -0.045363036910818416, "229": -0.026086504572336456, "23": -0.14434741346111163, "230": -0.045897949407782655, "231": -0.03321797407076917, "232": -0.01586709092658619, "233": -0.08096317874896325, "234": -0.07726501305465878, "235": -0.09654379832209527, "236": 0.004036802199883836, "237": -0.01740483300122939, "238": -0.025312222444541354, "239": 0.009618663578714923, "24": -0.031504710047001325, "240": 0.025557568250282138, "241": -0.04466300293469753, "242": -0.08127589360531003, "243": -0.05490177419099062, "244": 0.05328558799193891, "245": -0.06568997949454809, "246": -0.05215763924653692, "247": 0.014629710637345309, "248": 0.02324821150843062, "249": -0.08598630861885316, "25": 0.019785144287545662, "250": -0.08049383536225325, "251": 0.06357438442575716, "252": -0.004206430676700927, "253": 0.030111178392837844, "254": -0.0775341098869661, "255": -0.03954681298916567, "256": 0.017374749284636556, "257": -0.08273828745872712, "258": 0.0392414272437716, "259": -0.0618350174384065, "26": 0.08140528770422366, "260": 0.03046026323131339, "261": 0.025039178963512154, "262": 0.018212795408339758, "263": 0.013841219556695653, "264": -0.1052323564201236, "265": -0.0021021322465828753, "266": 0.07926624966587814, "267": -0.022315127511868992, "268": -0.060792711513777936, "269": -0.11584104494563269, "27": 0.09115484531888426, "270": -0.07167314776472311, "271": -0.015193189573235942, "272": 0.029571083626602854, "273": 0.0055286144594517165, "274": -0.01854701583245152, "275": 0.005165131995242539, "276": -0.08160026860088185, "277": 0.0339558345463075, "278": 0.008666490023034119, "279": -0.02743068506854523, "28": -0.04815528927509077, "280": -0.03514736137487485, "281": 0.012803036032276614, "282": -0.11418689048177211, "283": 0.040074583673142344, "284": -0.06258451008808903, "285": -0.08376679822136182, "286": -0.03203516140175166, "287": 0.037063516980130974, "288": 0.029252066746974805, "289": 0.08309836771136563, "29": -0.05318299103325928, "290": 0.0011007080509668594, "291": 0.004318380752658497, "292": -0.08703369348330023, "293": -0.04722877381969842, "294": -0.02947264857316813, "295": -0.0605964094833801, "296": 0.015313542033809456, "297": -0.06212449376491553, "298": -0.03513940937512164, "299": 0.0029397053052792562, "3": 0.008262468614217701, "30": 0.032475331330413894, "300": -0.027665837858506077, "301": -0.024393530224719087, "302": -0.00753532063538341, "303": 0.04471445470930232, "304": -0.08392662762052515, "305": 0.017194490992339388, "306": -0.07025199201703201, "307": -0.01470232974238599, "308": 0.05203318253309555, "309": -0.1418853446027915, "31": 0.0359500341279453, "310": 0.01602760877567861, "311": -0.059790552270432666, "312": -0.019767124823491463, "313": 0.009598502472642913, "314": -0.03256583901990944, "315": -0.027348290983720016, "316": -0.05074947632712007, "317": -0.06988746851263769, "318": -0.08377485190045428, "319": -0.05649657217561145, "32": 0.07915334638223913, "320": -0.03621433551913691, "321": 0.09040155740847881, "322": -0.1287572194208179, "323": 0.03165629669741474, "324": -0.09710480623176802, "325": -0.026258437720400585, "326": -0.055722942950673635, "327": 0.043236563323985434, "328": -0.050661938233963276, "329": 0.004959894585451633, "33": -0.04146072865412457, "330": 0.004994714637078027, "331": 0.0029834873239164613, "332": 0.03841116642795581, "333": 0.026014651671322424, "334": -0.023131266480034756, "335": -0.03103994118220953, "336": 0.017375637078024586, "337": -0.04039560580185525, "338": -0.02755474819499008, "339": -0.098896381908498, "34": 0.026509188768250133, "340": 0.07848097781966439, "341": -0.14568381152767507, "342": 0.021846069568154766, "343": -0.13244557551154396, "344": -0.05432501051786447, "345": -0.024132232660667843, "346": -0.020425704463857768, "347": -0.05190043436637245, "348": -0.09638643476220501, "349": -0.010569173215633726, "35": 0.058809836868314, "350": -0.057431676341250244, "351": 0.024506323704348555, "352": -0.06388451883080058, "353": -0.06522146485485515, "354": -0.1075732486711872, "355": -0.005542698855056808, "356": -0.05151534462654712, "357": -0.0775799351131986, "358": 0.04185855473824608, "359": 0.06443870358410446, "36": -0.02430076992330877, "360": -0.023213426502328775, "361": 0.010713283196374204, "362": -0.0011966395937235692, "363": 0.003752182387191709, "364": -0.0511448835303798, "365": 0.009088062779418836, "366": -0.0019256067569774712, "367": -0.10082285398933465, "368": -0.005546757946435445, "369": -0.10703954720963768, "37": -0.029232382550458832, "370": -0.07578426418537529, "371": -0.07469519298984185, "372": 0.051440808097001633, "373": -0.016008010800825923, "374": 0.02329964398172206, "375": -0.10131481023677366, "376": -0.09000959203604442, "377": -0.008644513660707977, "378": -0.07864726210062646, "379": 0.00277813867209682, "38": -0.057366066359921135, "380": -0.08232048877480581, "381": -0.08057329319970485, "382": 0.003291493068973567, "383": -0.020607669744337826, "384": -0.07783858791154136, "385": -0.06063264289165893, "386": -0.015453136424550986, "387": -0.07592302976454605, "388": 0.022346075697823303, "389": -0.03155353985502862, "39": 0.03350331679406465, "390": 0.01754648582860394, "391": 0.0165180363922048, "392": 0.0640523218524529, "393": -0.07992545176569313, "394": -0.04046583057729665, "395": -0.006497035675522846, "396": -0.14289053869379345, "397": -0.05301257264662787, "398": 0.039710775967529845, "399": -0.09746489843426862, "4": -0.0625577342108244, "40": -0.03862011702799, "41": 0.06924831078959603, "42": 0.03870720088168766, "43": -0.019369020234799295, "44": 0.0066518190760768625, "45": 0.044429141316556744, "46": -0.1040676612814544, "47": 0.010297303591127, "48": 0.017746191025352277, "49": 0.07612083144331537, "5": -0.055398070347629606, "50": -0.04664741881148048, "51": 0.0037475485525817996, "52": 0.11174780012028301, "53": 0.07371280223842196, "54": 0.021613827348314848, "55": 0.04879055229585723, "56": 0.0515875528154744, "57": -0.08442639536898518, "58": -0.013748300043108674, "59": 0.06812856506849238, "6": 0.035390636839274035, "60": -0.05555090351207487, "61": 0.01884938908668231, "62": -0.005670824654454822, "63": -0.08695939957968316, "64": -0.024491038276597144, "65": -0.013968466724928227, "66": 0.033087091671156414, "67": -0.04419050889528654, "68": 0.05592937798674515, "69": 0.07101225571953575, "7": -0.06503392286220301, "70": -0.04213732469648608, "71": -0.008591941953549238, "72": -0.08819129021696455, "73": 0.06259449540754215, "74": -0.04766169583150844, "75": -0.014882284728023314, "76": -0.035482380135318084, "77": 0.05836069604527043, "78": 0.03248140943641779, "79": -0.07027327153554765, "8": -0.03685408224895753, "80": -0.0286578754008132, "81": -0.13484400453750883, "82": -0.0626349309665764, "83": 0.017523708481770026, "84": 0.039139817978041204, "85": -0.008684034471784044, "86": -0.0644368044278714, "87": 0.04850871192241783, "88": 0.02259804665350609, "89": 0.004466630472845658, "9": -0.09579237803930842, "90": 0.15778276369351946, "91": -0.040180828371943735, "92": 0.015577076388876013, "93": -0.040889037705485035, "94": -0.021601006010701192, "95": -0.0690081174724095, "96": -0.07525498068501271, "97": -0.04808723907411305, "98": 0.05701719519410914, "99": -0.0003779191950490689}}, {"depth": 16, "sx": 5, "sy": 5, "w": {"0": -0.06109887207071241, "1": 0.026021921874314038, "10": -0.040105357575966415, "100": -0.07858630950354378, "101": 0.03195011096071049, "102": -0.016391469755428014, "103": -0.029333078052665176, "104": -0.06132826974062955, "105": 0.04357365364014285, "106": 0.07560868240607505, "107": -0.06777965111571092, "108": 0.07045539465936253, "109": -0.0983045983919498, "11": 0.003360446662537089, "110": -0.05680489814883524, "111": -0.02142200028831414, "112": -0.08164710665767419, "113": -0.02162924244487566, "114": -0.03924549549074763, "115": 0.0025629713059651276, "116": 0.014618048435642572, "117": -0.05151863804029152, "118": -0.11440678622086732, "119": -0.012176235180739325, "12": -0.06675349118503919, "120": 0.03445076387452666, "121": 0.07191358562495351, "122": -0.10193120926157039, "123": -0.10625668931671367, "124": -0.04977502765518293, "125": 0.044548196476415974, "126": -0.03655775753500499, "127": -0.05638005922096274, "128": 0.044736386950356505, "129": -0.11468490919356328, "13": 0.00878270398399166, "130": -0.010432283756943196, "131": -0.08136281283159161, "132": 0.07762029910706263, "133": -0.013080622667057977, "134": -0.07077264453987431, "135": -0.0144871666280618, "136": -0.032762814852191686, "137": 0.03905473058243357, "138": -0.03398765362634561, "139": 0.03316345000584835, "14": -0.03317520144602057, "140": -0.04807676861567055, "141": 0.07560950935710058, "142": -0.05822773922271781, "143": -0.045584816533161696, "144": 0.0005901658347390822, "145": -0.04937426225834181, "146": 0.05733026788921203, "147": -0.05995019403036161, "148": -0.049427994336220235, "149": -0.05000950172799048, "15": -0.04017945657632883, "150": -0.05264780195804436, "151": 0.019863674595201466, "152": -0.0026505986312733007, "153": 0.03342434841308174, "154": -0.0018961950821023922, "155": 0.030987938098251223, "156": 0.0034629641954833598, "157": -0.011496260769325315, "158": -0.11642188112250264, "159": -0.040314221239997776, "16": 0.0015028253915852353, "160": 0.029105833198328268, "161": -0.14710811954988326, "162": -0.14947115776890363, "163": -0.01730824681640821, "164": -0.04651345609663894, "165": -0.0720166166602086, "166": -0.023726575248302132, "167": -0.027882466639867112, "168": 0.04048612048715298, "169": -0.023169490044369242, "17": 0.028262191573908316, "170": -0.07495368303835304, "171": -0.011371255617875959, "172": -0.05799631216129884, "173": -0.01771632254041965, "174": -0.061005361254817266, "175": -0.033689540342260994, "176": -0.05783959028131517, "177": 0.04459575335275747, "178": -0.03653171063099755, "179": -0.09318040736179647, "18": 0.035215971697271156, "180": -0.10347369716121847, "181": -0.0021245006874150143, "182": -0.07873511502145997, "183": -0.007473455553336948, "184": -0.035986381557075973, "185": 0.015080411294326955, "186": -0.012044500989580204, "187": -0.052180653025712925, "188": -0.013207506867576173, "189": 0.1340502723368519, "19": -0.02135644631889701, "190": -0.07905879051914412, "191": -0.07957330380053457, "192": -0.03732436698293721, "193": 0.0011435878299350627, "194": -0.03730545776637227, "195": -0.11389857394778, "196": 0.004995090178585921, "197": 0.008546233687127768, "198": -0.0050436078374878806, "199": -0.06126553671703338, "2": -0.04676913676324724, "20": 0.009723914790563193, "200": 0.043124023323732955, "201": -0.06713777237932218, "202": -0.056263390329403806, "203": -0.0054788522781438745, "204": -0.07044682772508709, "205": -0.0007543347610435217, "206": -0.08057058818254578, "207": -0.06540840297816342, "208": -0.1420319373451635, "209": 0.0299527122178366, "21": 0.014292275452727925, "210": 0.03080117344352961, "211": -0.020310459510642406, "212": -0.04356768932672239, "213": -0.023196259448728513, "214": 0.003748312957423964, "215": -0.061161783255061775, "216": -0.0325096504123419, "217": 0.10376607160553034, "218": 0.01307539794557582, "219": 0.038983221931470954, "22": 0.09456165661106519, "220": -0.06707305083033968, "221": -0.029216136867286704, "222": -0.10066403438064907, "223": -0.09463727722110682, "224": -0.06344214705291074, "225": -0.011075615856399233, "226": -0.04978476430971693, "227": -0.08378302874781185, "228": 0.013989402444350447, "229": -0.09670322391980865, "23": -0.023148811278042324, "230": 0.07534804373522892, "231": 0.023231939795739273, "232": -0.07221301983533172, "233": 0.011641727051341684, "234": -0.10303916738662885, "235": -0.034240978622609115, "236": -0.08222953666510499, "237": 0.02880333933312493, "238": -0.02154700433102481, "239": 0.07701228226402287, "24": -0.09088615710631634, "240": -0.039998909203211926, "241": -0.04753790661570597, "242": 0.029459361039694838, "243": 0.0014863970480470357, "244": 0.0002477277104950282, "245": 0.021158365418319856, "246": 0.0846475889541151, "247": 0.025888557798459007, "248": 0.018106545939494664, "249": 0.027443039376330598, "25": -0.11753857190169321, "250": -0.017111573958709762, "251": 0.03984558279098749, "252": 0.05254808830457504, "253": -0.03090063345538256, "254": -0.036201763298982094, "255": -0.06264410689385942, "256": -0.011405268096839442, "257": 0.018779472821353657, "258": 0.044333083568037404, "259": 0.029673189200515867, "26": -0.0557361601049655, "260": -0.0031562597934075634, "261": -0.07737321203097394, "262": -0.05761642796295483, "263": -0.06733904530425017, "264": -0.04911134014251921, "265": -0.04524126665348033, "266": 0.005819842071729257, "267": -0.05572289747195663, "268": -0.021518257360715384, "269": -0.042964234276676984, "27": 0.009507857398779988, "270": -0.052405001313415536, "271": 0.028060719014969537, "272": -0.08516493203256767, "273": -0.026452298041004223, "274": 0.038830265706151744, "275": -0.015131418962272616, "276": -0.1141688244775117, "277": -0.008243618516668567, "278": 0.0004193267762317094, "279": 0.0017567000557770279, "28": 0.0051824887556537625, "280": 0.020609639349700493, "281": 0.038811820019536605, "282": -0.06036063267543876, "283": 0.06007307365442041, "284": -0.01663684446469486, "285": 0.010223270521186436, "286": 0.08031769425054991, "287": 0.08347865976745984, "288": -0.0558724333503501, "289": -0.038998454561144924, "29": -0.030951075159091235, "290": 0.02603422922028067, "291": 0.07096783633724375, "292": -0.04946171400501528, "293": -0.05023876340051266, "294": -0.11238743563252615, "295": -0.10941843020211686, "296": -0.055854974931662894, "297": -0.06204437689303088, "298": 0.00521065935523406, "299": 0.010966801773129446, "3": -0.009620060919451027, "30": -0.01909860658361978, "300": -0.028552169517739312, "301": 0.07482067971551518, "302": -0.035687709762434676, "303": -0.12412327073330978, "304": -0.048346292994095125, "305": -0.025972969367165564, "306": 0.04076192640763264, "307": 0.011419458250149953, "308": -0.0020023808346666928, "309": -0.001985427361998544, "31": 0.052256204604692824, "310": -0.09923794800893981, "311": -0.03107090935258189, "312": -0.07413274151904957, "313": 0.029240709757989144, "314": 0.007323412257880256, "315": -0.04655439848667618, "316": -0.03563670939290288, "317": 0.04296125077511187, "318": -0.005229710885481094, "319": 0.035390548950229354, "32": -0.05128846312508056, "320": -0.04504719841736929, "321": -0.03869969372267044, "322": -0.050018030443884885, "323": -0.09528778681845249, "324": 0.0030329878094053323, "325": -0.027958525687793896, "326": -0.027519482090750284, "327": 0.049249060769034375, "328": -0.027763091466056242, "329": 0.03464930610141095, "33": 0.03646932167462084, "330": 0.019495148439959847, "331": 0.012439357481526013, "332": -0.03233824618861459, "333": 0.0065522947582928506, "334": -0.02242173456842473, "335": 0.010826261090754173, "336": 0.10445867727414816, "337": -0.12407171785577532, "338": 0.02102425961891173, "339": -0.037878594419578006, "34": 0.04447140554418205, "340": -0.03963112232726349, "341": -0.049157766300923285, "342": -0.0736156388722168, "343": -0.022157334411102746, "344": -0.011980488852109304, "345": -0.03701525002098918, "346": -0.027030444154287073, "347": -0.015950134921944678, "348": 0.04987401422991004, "349": 0.060600149469535146, "35": 0.04413768720923768, "350": -0.06379785612467041, "351": 0.04467075048722949, "352": -0.12442113048379344, "353": 0.07301029086367139, "354": 0.028094810501884844, "355": 0.017391740420176494, "356": 0.04848414196109017, "357": -0.04189296191363572, "358": -0.03367240064249075, "359": 0.11468125025093268, "36": -0.05749984072782552, "360": 0.09740886338392789, "361": 0.00991040329261433, "362": -0.04681623748463818, "363": -0.06007371908253422, "364": 0.1361794840281941, "365": 0.03428785803240663, "366": -0.026927708843610548, "367": -0.05475080548217364, "368": -0.014454423362947388, "369": 0.011352792925906336, "37": -0.03950492359313245, "370": 0.03137230200997094, "371": -0.06230172446689065, "372": 0.030521425055876683, "373": -0.08053015085715816, "374": -0.021374533869998612, "375": -0.07253937918271598, "376": -0.1428804493342078, "377": -0.006882162654592389, "378": -0.059701659374035335, "379": -0.032642597637620376, "38": 0.024692325354242952, "380": -0.022698539447769225, "381": -0.11878868139160345, "382": -0.01886246386976006, "383": -0.02557756646213873, "384": -0.06259506320276273, "385": -0.01796360869982375, "386": -0.02458722020995495, "387": -0.010375235341593868, "388": 0.07508515583098994, "389": -0.04602938855737784, "39": 0.004679051574725524, "390": -0.037630383276377515, "391": 0.010986320739743396, "392": -0.02884597172141214, "393": 0.11171055054074158, "394": -0.08485493139581175, "395": 0.041883321808601486, "396": -0.022242534670470077, "397": -0.0646192557216761, "398": -0.004699798053192989, "399": 0.050516694676556013, "4": 0.03734163306861365, "40": -0.05286549213410328, "41": 0.021808806102372097, "42": -0.017010303393767585, "43": -0.02359159174830454, "44": 0.013552496974753433, "45": -0.059996118450063744, "46": -0.001970363861020927, "47": -0.057121759462434515, "48": -0.045733221115053645, "49": 0.019770437929961675, "5": 0.04430198869770859, "50": 0.0103884061923791, "51": -0.10972469146297971, "52": 0.00170698261826393, "53": -0.0671013103095828, "54": -0.013076127095294186, "55": -0.0021733795135217755, "56": 0.01785576274705548, "57": 0.017890387753015977, "58": 0.01213821602723953, "59": 0.0834836755346964, "6": -0.054957017567274384, "60": -0.0079744139472631, "61": 0.05078283976513059, "62": 2.156884922367793e-05, "63": -0.02120344980972988, "64": -0.011151625791979113, "65": -0.044411143813005156, "66": 0.006461297320423278, "67": -0.01146193662576183, "68": -0.010387295318439188, "69": -0.022404452152556462, "7": 0.023836609306014236, "70": -0.06282418491676181, "71": -0.05706980956698809, "72": 0.09956868486346294, "73": 0.06321492256726755, "74": -0.037222553221381786, "75": 0.06914739080807332, "76": -0.06839031984111237, "77": -0.07170445887382125, "78": -0.00505921467598222, "79": -0.09118224468690218, "8": -0.0334483285059219, "80": -0.07059577791656274, "81": -0.07297692027300877, "82": -0.09808705378844666, "83": -0.13455006392727054, "84": -0.11084031616449426, "85": -0.060778685872662976, "86": -0.021000981610210783, "87": -0.0360834304776863, "88": -0.11730202017181465, "89": -0.024948802999417666, "9": -0.054661882082603995, "90": -0.03917081601297631, "91": -0.08779774596876952, "92": 0.0796400803729945, "93": 0.017475068705112416, "94": 0.022349924920096614, "95": -0.01503792658184428, "96": -0.03571821814849173, "97": -0.1527351369035352, "98": -0.03363468139445965, "99": -0.035714992750242515}}, {"depth": 16, "sx": 5, "sy": 5, "w": {"0": -0.1055423742418606, "1": -0.15354664662850703, "10": -0.05386208095080953, "100": -0.058025133061801105, "101": -0.1032519852610958, "102": -0.0017499671691972383, "103": -0.13235725262936077, "104": -0.020836882498985403, "105": -0.0802530597553355, "106": -0.06371892882430423, "107": -0.14160633154835295, "108": -0.03103399389473225, "109": -0.09250485808004318, "11": -0.0895863929534189, "110": -0.11870464667988374, "111": -0.0838091185900768, "112": -0.1284872395538943, "113": -0.0889064161166814, "114": 0.0322498602224357, "115": -0.13071685866985036, "116": -0.036669818954579894, "117": -0.03264357189646474, "118": 0.020252950632869474, "119": -0.11277805275833697, "12": -0.011616157700431225, "120": 0.07625170358006984, "121": -0.01221182740255481, "122": -0.07771005979163646, "123": 0.012570134673446672, "124": 0.012115982900460454, "125": -0.17241109970439353, "126": -0.1586580282432366, "127": -0.01468656978061188, "128": -0.014729953805247607, "129": -0.11873892543403368, "13": -0.06890523122092608, "130": -0.06656000585795128, "131": -0.04478271362688341, "132": -0.02807147627610973, "133": -0.10718433536179298, "134": 0.02616874981223253, "135": -0.04771141692352867, "136": -0.10002119368394438, "137": 0.017218731706250497, "138": 0.04717067831364901, "139": -0.007266430850707457, "14": -0.04385693840482297, "140": -0.056475349489823655, "141": -0.02887735057809072, "142": 0.008684909531659287, "143": 0.02532820529165246, "144": -0.022834050822208116, "145": -0.08117325627410668, "146": -0.030924751026074296, "147": -0.013298249601574153, "148": -0.0679192118178341, "149": -0.1769245063576717, "15": -0.031244826419834167, "150": -0.051673870606732994, "151": 0.05410278014016426, "152": -0.09574214394156509, "153": -0.08432753800795259, "154": -0.06351380145181458, "155": -0.009238187184702191, "156": -0.06677267445337927, "157": -0.1142019964526727, "158": -0.05267137182016064, "159": 0.04408141984065973, "16": -0.12152716018297315, "160": 0.007826223210741685, "161": -0.03290995342314581, "162": -0.04417249572128605, "163": -0.09027671649368708, "164": -0.039593761923057295, "165": 0.04231608334605576, "166": 0.09664254331110114, "167": -0.01706588723728416, "168": -0.1407226790305936, "169": -0.07360362887384923, "17": -0.012305495056782495, "170": -0.014298454988678188, "171": -0.0027341129380879336, "172": 0.08647190902270738, "173": -0.04167102884039401, "174": -0.07784161764130842, "175": 0.042325691701402074, "176": -0.027853152088600508, "177": -0.10862297127004625, "178": 0.09603607204070563, "179": 0.02618610792960558, "18": -0.023303068695456498, "180": 0.002387917957261481, "181": 0.00367080285452799, "182": -0.055931060647563535, "183": -0.008867675626197613, "184": -0.12686518742025205, "185": 0.030070843162385133, "186": 0.008931701196977105, "187": -0.05973315499359391, "188": 0.016921337255954468, "189": -0.05339296509158472, "19": -0.12144983297402888, "190": -0.09800158737229814, "191": -0.02123852667154463, "192": -0.06332375594941791, "193": -0.023562860657015353, "194": 0.0509612338425198, "195": -0.11802224446343329, "196": 0.12109742824457254, "197": 0.04960775231027307, "198": 0.0597348438599973, "199": 0.049402067823134596, "2": -0.054156211615593475, "20": -0.034341504536959166, "200": -0.022040569938080297, "201": -0.027300439484718244, "202": -0.01720970520840732, "203": -0.04367497337761896, "204": 0.11235815589251817, "205": -0.05201677726218176, "206": -0.06358096610920738, "207": -0.06250656559196432, "208": 0.016584968963599376, "209": 0.029356580725881275, "21": 0.030196121349364526, "210": 0.04863786693073227, "211": -0.10899408129499444, "212": 0.09900441627583044, "213": -0.06638364161808928, "214": 0.027646387612042144, "215": -9.399884528005675e-05, "216": -0.06419778545966535, "217": 0.1444750345150802, "218": -0.0692037352312272, "219": -0.06099405438474977, "22": -0.04226466151747731, "220": 0.04214183212765831, "221": -0.012302098326813409, "222": -0.060131668008116694, "223": 0.0034887790181328928, "224": 0.04209354549579973, "225": 0.031093374748521446, "226": 0.06454587717526068, "227": -0.08552418999057247, "228": 0.04944097618455378, "229": 0.003386743559698406, "23": -0.1165500156007585, "230": -0.07039414026650778, "231": -0.018360693299801598, "232": -0.05898308479025861, "233": 0.10501583409682246, "234": -0.03408118289831525, "235": -0.001539123619214027, "236": 0.06953935043010295, "237": -0.0576695431612186, "238": 0.02639008821175417, "239": 0.06449106075968974, "24": 0.012068193320441848, "240": -0.10401489259184811, "241": -0.035651132552608225, "242": -0.022458949444923996, "243": -0.015635596339874276, "244": -0.04577778215189996, "245": -0.009734669382657426, "246": 0.03812690028201253, "247": 0.028819674298520465, "248": 0.02922504598526512, "249": -0.13815150509092206, "25": -0.02167624811733344, "250": -0.09043411978711591, "251": -0.02137312327914993, "252": -0.08787033194701672, "253": -0.0028198631406058322, "254": -0.16875193199869784, "255": -0.017031631803791143, "256": -0.11415786459050137, "257": 0.042243186982581164, "258": 0.018416570154364105, "259": 0.18557453421845427, "26": -0.044259832374549016, "260": 0.037628611082254675, "261": 0.033084034437920046, "262": -0.07541156375582114, "263": 0.05663579153750434, "264": -0.0665777043599158, "265": 0.031624965392571945, "266": -0.0017018510399089617, "267": -0.062306951946333324, "268": -0.03212281296866931, "269": 0.09226400165765206, "27": -0.11749358412156546, "270": -0.06510494198728999, "271": 0.03437947823241365, "272": -0.029853970616258992, "273": -0.1756035375882234, "274": 0.07503527707417161, "275": 0.06075215025765219, "276": 0.031234442398564106, "277": -0.009798172012973314, "278": -0.00707581228274024, "279": 0.055776311216157955, "28": -0.006003216936966855, "280": -0.006248706868453478, "281": -0.011005143739696409, "282": 0.02782435758479957, "283": -0.04704431956488702, "284": -0.008019151796687695, "285": 0.07604180222965966, "286": -0.060221483723434346, "287": -0.0690221771027362, "288": 0.08683429953759829, "289": 0.07428736028969461, "29": -0.11255111651730366, "290": 0.0606987763829674, "291": 0.02178319542876748, "292": 0.039320744847755, "293": -0.01151303250870387, "294": -0.05687066680329978, "295": -0.047995600997850205, "296": -0.038261524285100254, "297": 0.015198983096166411, "298": -0.05057842260253607, "299": 0.010954241957235848, "3": -0.03745406818753043, "30": 0.004696823892522464, "300": -0.078876361341915, "301": -0.08811563162224609, "302": -0.04284609430415848, "303": 0.04408302652260994, "304": -0.0075580864992693, "305": 0.017904144439919143, "306": 0.016576490742648366, "307": -0.023781347453792786, "308": 0.03993128669872851, "309": -0.04946122072323749, "31": -0.12438378299329819, "310": -0.03138664002774768, "311": 0.04837850855049773, "312": -0.006844263310819571, "313": 0.029642905729954785, "314": 0.003999892620735586, "315": -0.00798404225071083, "316": -0.0701247983886788, "317": 0.08284336635236457, "318": -0.05820174808720157, "319": 0.0008725194476888571, "32": -0.0752238481327004, "320": -0.03742800697069448, "321": -0.023019734460828573, "322": 0.011089902899045594, "323": -0.05821261723859765, "324": -0.006980594763333227, "325": 0.03082872203561232, "326": 0.04408833121858754, "327": -0.020864345431333045, "328": 0.021709261290626503, "329": 0.009139959139798499, "33": -0.06807768943070286, "330": -0.02465380617285922, "331": -0.07195875870059211, "332": -0.07875343225631588, "333": 0.04620109478150253, "334": -0.10332101000975898, "335": 0.009172474611690531, "336": -0.026756343703327586, "337": -0.03611903902858224, "338": 0.030023617324815444, "339": -0.030456402058712664, "34": -0.0050058855997197746, "340": -0.054136415293814334, "341": -0.054959821779566397, "342": 0.01867166720767751, "343": 0.041700412997603666, "344": -0.05791030387463135, "345": -0.002953907288364466, "346": -0.0459930226962024, "347": -0.028954644320119394, "348": -0.05600364916417904, "349": 0.10886935807286245, "35": -0.04591354660800632, "350": -0.0960466453633258, "351": -0.1593580565942614, "352": 0.03287203806581274, "353": -0.09939159473664427, "354": 0.08306482565270676, "355": 0.0579035906862118, "356": 0.00658798531932812, "357": -0.08698514884734967, "358": -0.11740098519557844, "359": -0.07880288152789815, "36": -0.019779609255243864, "360": 0.01288735761837622, "361": 0.05486855305803053, "362": -0.05146268251981044, "363": 0.028483898199418056, "364": -0.005485339089235642, "365": -0.03959968175560539, "366": -0.02054928322094146, "367": 0.09332818269794826, "368": -0.016797751336065037, "369": 0.018433850284435234, "37": -0.008361362091026732, "370": 0.007091455274621184, "371": -0.004169629992794183, "372": 0.08709160881137216, "373": 0.014144997609948707, "374": -0.013946023404664871, "375": -0.08229256832778456, "376": -0.013935197959745798, "377": 0.07233664979994155, "378": 0.004246057037920649, "379": -0.0653734243456686, "38": -0.09733022860557099, "380": 0.07141955988044407, "381": -0.04448289792272827, "382": -0.053995139904624845, "383": 0.047328929927230465, "384": 0.05490936418496645, "385": 0.07086591573224825, "386": 0.03487166433802292, "387": 0.07878756069747925, "388": 0.06227946627981244, "389": 0.03764951137521882, "39": 0.05838355042775131, "390": -0.12790417997953474, "391": 0.036261328502607, "392": -0.019726598988539838, "393": 0.011530301485964817, "394": 0.06861361456769921, "395": -0.056009055680642426, "396": -0.06618372553160078, "397": 0.06495609216637227, "398": 0.039582465513155925, "399": 0.026898926193635986, "4": -0.08149425936575269, "40": -0.090223909725619, "41": -0.0810320052983524, "42": -0.05397649912002198, "43": 0.029631417771711206, "44": 0.03818310192734405, "45": 0.0037573443664640684, "46": -0.11691844322401009, "47": -0.01575181192659746, "48": -0.024364623759666568, "49": -0.049781771740425584, "5": -0.03932003751417871, "50": -0.002978184512583444, "51": 0.00489892401051548, "52": 0.050408183850614886, "53": -0.13733960045434854, "54": 0.03660429565516401, "55": 0.01811435825999987, "56": -0.005611485170382497, "57": -0.059216557332661096, "58": -0.007490547289342921, "59": -0.06307843468168278, "6": 0.028117002826583488, "60": -0.10419396464294463, "61": -0.003830771109712277, "62": -0.06507493503267696, "63": 0.017591471854345224, "64": -0.19582521886218512, "65": -0.10962275497900328, "66": 0.012512286868556096, "67": 0.04015284996366835, "68": -0.06019035576694349, "69": -0.07534120005619725, "7": -0.09095812072956024, "70": -0.04118160739243566, "71": -0.04561636224040164, "72": -0.03193834050929837, "73": -0.09554353836945091, "74": -0.1039629631860774, "75": -0.008186293654837593, "76": -0.11868448307487864, "77": -0.07691631725262334, "78": -0.04929014248873409, "79": -0.04142759975936708, "8": -0.09853776066264758, "80": -0.0512855316236721, "81": -0.04519229461138474, "82": -0.12612885335231916, "83": -0.02372306395731343, "84": -0.08163739059937943, "85": -0.05051564232317925, "86": -0.08635263923808893, "87": 0.029762250710498313, "88": 0.008952404028017627, "89": -0.061592234500971545, "9": -0.06928720015118713, "90": -0.07338516551444997, "91": -0.11595202417479927, "92": -0.05766586707790436, "93": -0.1682031880311484, "94": -0.08414754594012859, "95": -0.04292522397701271, "96": -0.1091227755280501, "97": -0.10052047268608283, "98": 0.037109730660713124, "99": -0.0033590252447403763}}, {"depth": 16, "sx": 5, "sy": 5, "w": {"0": -0.006696994033753344, "1": -0.011728896879494022, "10": 0.008615929913912124, "100": -0.12118590723907498, "101": -0.09464936914944369, "102": -0.1221271948094293, "103": -0.008067010141035707, "104": 0.012947608774140366, "105": -0.02793671378459777, "106": 0.04542589207515186, "107": 0.041450837320607996, "108": 0.01069511930734451, "109": 0.021472182099768772, "11": -0.03562010711016014, "110": -0.11292649336321997, "111": -0.03641791917600026, "112": -0.0654712280379942, "113": -0.07579331622655903, "114": -0.024127560649257404, "115": -0.0101674288461083, "116": -0.03629013433132438, "117": -0.021625817917927163, "118": -0.07579510318748503, "119": 0.006425085232221226, "12": 0.001600866355599994, "120": 0.01205413969834297, "121": -0.02655363366363489, "122": 0.046908775819751065, "123": 0.012138379537403413, "124": -0.02050191958006809, "125": -0.02836261374265435, "126": 0.03583370237109782, "127": -0.06889309498491748, "128": 0.040590375373613354, "129": 0.0781743834501566, "13": -0.03560705694325636, "130": -0.06588335239854114, "131": 0.043706949628094176, "132": -0.06367534365093391, "133": -0.05117382686748459, "134": 0.042761784233535924, "135": -0.0030628695061187218, "136": 0.06385282455367577, "137": 0.1248356038582865, "138": 0.07454591779442343, "139": 0.015074917366369605, "14": -0.048732469848745595, "140": -0.07771752776760994, "141": 0.058100105544592905, "142": -0.009768669457335084, "143": 0.05583408283395824, "144": -0.050055444086849116, "145": 0.0018007994780264687, "146": -0.08081316110396639, "147": -0.004420122724344547, "148": -0.040576216475247846, "149": -0.0678244474907997, "15": -0.0227139292090632, "150": -0.029530289516633845, "151": -0.04807865727860719, "152": -0.008795861871038787, "153": 0.07074157367101755, "154": -0.01586826813078236, "155": 0.02032535815989271, "156": -0.012796432061284802, "157": 0.049441513556252675, "158": -0.08129414054175647, "159": 0.03723156630916777, "16": 0.016210984763291962, "160": 0.020567597917856995, "161": -0.024627354466802674, "162": -0.08745613619237472, "163": 0.013701391797932524, "164": -0.06519302897310716, "165": -0.053878956069139845, "166": -0.027128228181753648, "167": -0.039779920955333475, "168": -0.0478274143064258, "169": -0.10869969160574727, "17": -0.04495713318128031, "170": 0.08306114402228261, "171": -0.038090775710661356, "172": 0.02161778710535582, "173": -0.040245396112840656, "174": -0.007170272793412636, "175": 0.028515189132643677, "176": -0.0642110288979855, "177": -0.012133202681343502, "178": -0.03152658925736002, "179": 0.06795380572163895, "18": -0.06476549027197044, "180": -0.07518079933029248, "181": -0.032372886504998206, "182": 0.044274823099895916, "183": -0.09045763355716754, "184": -0.016714315574928706, "185": 0.05530891585878736, "186": -0.07427045163094412, "187": 0.034969524484395206, "188": -0.06934621927079841, "189": -0.06552283324121497, "19": 0.0886338794898968, "190": -0.12601185164756953, "191": -0.08246265288118061, "192": -0.055540234308038214, "193": 0.11508449546435759, "194": -0.11791936664137861, "195": 0.017722192378322774, "196": 0.020898486735331505, "197": 0.11872118636976096, "198": -0.047507942667422275, "199": -0.11432200224199432, "2": -0.05081916375373505, "20": 0.08200270051390121, "200": -0.02917626023629272, "201": -0.037749532998874374, "202": -0.0006377719991198492, "203": -0.019874527975543933, "204": 0.034090076040765305, "205": 0.039592973109274295, "206": -0.04658132888047338, "207": -0.022878718899937436, "208": -0.05726517984459455, "209": 0.11303427795419911, "21": -0.08729568372598136, "210": -0.06287746331258696, "211": 0.03759814725581583, "212": -0.09226791788148489, "213": 0.023129240834327887, "214": 0.048652148003264055, "215": -0.0051250325551547545, "216": 0.09293690049441326, "217": -0.04540458809104904, "218": -0.04193472415693697, "219": 0.024268284290771002, "22": -0.07781454529618524, "220": 0.01081111809621101, "221": -0.09165194520711493, "222": 0.051073177190743974, "223": 0.056688761502638914, "224": -0.043721542842221545, "225": 0.05246230397775889, "226": -0.0034672514765088304, "227": -0.011997834541471106, "228": -0.10754079892686792, "229": -0.0078588147220281, "23": -0.032879024448338866, "230": -0.0019803798775191684, "231": 0.01973031833358458, "232": -0.007843450693679276, "233": -0.09793715373357949, "234": -0.02549223103664344, "235": -0.012746364989539669, "236": -0.018116892403631013, "237": 0.0006459669221613756, "238": 0.0762200445124321, "239": 0.015769181883681788, "24": -0.03199715371835638, "240": -0.030327075775368115, "241": 0.021413776680202744, "242": -0.02399031602690869, "243": -0.016353636835167877, "244": -0.019976868629281535, "245": -0.06109939499003561, "246": 0.03638586579479509, "247": 0.008475717400507706, "248": -0.09186418151146977, "249": -0.05992993509980085, "25": -0.08608047254511954, "250": -0.07888169501961953, "251": -0.11621241409971501, "252": -0.02643123918004813, "253": -3.691357383822614e-05, "254": -0.0795055463010894, "255": 0.06893678817100427, "256": -0.04834394534069091, "257": -0.05486110486124683, "258": -0.03734875375318704, "259": 0.03532660874124457, "26": -0.05679563157838262, "260": -0.05052890305262489, "261": -0.001256357815491836, "262": -0.07169422345324454, "263": -0.015986388367205107, "264": -0.03742191566997443, "265": -0.010901586128454557, "266": -0.032703689904319835, "267": -0.01578785768553108, "268": -0.026487523023461697, "269": 0.05680073666813493, "27": 0.017070997868282055, "270": -0.008005374471406371, "271": 0.09781086227742183, "272": -0.0031154556903325113, "273": -0.013839026239163691, "274": -0.06737163769299949, "275": -0.04165181972690629, "276": -0.004160421623749257, "277": 0.021355777134906814, "278": 0.030824546366733284, "279": 0.08361144968590936, "28": -0.06704505771242324, "280": 0.02419964181975331, "281": 0.039947308880155755, "282": 0.009016085537123224, "283": -0.016722834375800785, "284": -0.04947960444476715, "285": -0.03039979257735299, "286": -0.025262362298766793, "287": 0.00044114272628219785, "288": 0.041478217371536646, "289": 0.06608170226789965, "29": -0.1410658478880282, "290": -0.06486295079905723, "291": 0.0033641206958913593, "292": -0.0538411642020295, "293": -0.002318487703103917, "294": 0.05462954139638868, "295": -0.03603414762858668, "296": -0.06799074179720045, "297": -0.028331376145518058, "298": 0.06217006938936821, "299": -0.1420399455091267, "3": -0.019867595794246146, "30": -0.009481389310308702, "300": -0.026404388814880213, "301": 0.03127713136942302, "302": -0.09841087422625344, "303": -0.05366747304426085, "304": 0.04013603184724387, "305": 0.042322203517954085, "306": 0.001151318870324121, "307": 0.08518361183178755, "308": -0.05516495750276398, "309": 0.07469739744274226, "31": -0.011138594501737249, "310": -0.07080177742473863, "311": -0.05518788630149011, "312": -0.05507737570416545, "313": -0.02845988242500045, "314": -0.037072108992178325, "315": -0.06608582340652983, "316": -0.021298525179581872, "317": 0.021241502478019418, "318": -0.044519257683115515, "319": 0.008571491623790548, "32": -0.07668382588025234, "320": 0.04864556141886225, "321": 0.017099626318924498, "322": 0.008959940826560897, "323": 0.06297273551148241, "324": -0.07699514940573397, "325": -0.003569931844616884, "326": -0.04167955180417503, "327": -0.009218416183451358, "328": -0.031198425434257264, "329": -0.007769633995331411, "33": 0.03553054267891923, "330": -0.08677969197323582, "331": -0.07648454854265446, "332": 0.010314002305916706, "333": -0.008852096784176379, "334": -0.11379777450274166, "335": -0.10091792850435963, "336": -0.12238519035750312, "337": -0.08815587142677654, "338": -0.08666547218807011, "339": -0.03662766805648443, "34": -0.012434704860446502, "340": 0.013164462265922845, "341": -0.06766732963859687, "342": -0.02655009374222583, "343": 0.04326849912589258, "344": -0.012543246042214386, "345": -0.06982914217320495, "346": -0.07844824675546862, "347": -0.005290770865287271, "348": -0.12617990644118512, "349": -0.08051315596436151, "35": 0.057633746377450085, "350": -0.07801479815743931, "351": -0.12076279905401434, "352": 0.03001063216723668, "353": 0.02022583298334581, "354": 0.03453370293762135, "355": 0.023884835113925026, "356": 0.011507027545648233, "357": -0.07831979859568293, "358": -0.012234974994907319, "359": 0.011012739609154965, "36": -0.024601359535914472, "360": -0.030248598267314453, "361": -0.13001763221859822, "362": -0.011729551907444825, "363": -0.04068668397426087, "364": -0.016128400013130557, "365": 0.11059255799313958, "366": 0.04693805283576905, "367": -0.023767318204888095, "368": 0.01353917005919464, "369": -0.027738156018005604, "37": 0.14019708172789072, "370": -0.09124240893090065, "371": 0.0018277827301031863, "372": -0.07471204521603103, "373": 0.02369897105303284, "374": -0.08654140790826788, "375": -0.023690202433446453, "376": -0.044871166781821015, "377": -0.09013982561403139, "378": 0.04430249112079981, "379": -0.05490063664869893, "38": -0.07795734794936324, "380": -0.01093890000615024, "381": -0.09119529620453608, "382": -0.0026223706864974584, "383": 0.01313008038750754, "384": -0.09970393201966452, "385": 0.057475876678718625, "386": -0.050272614498350625, "387": -0.006578823305811261, "388": -0.10238766859793734, "389": -0.09993290876720501, "39": -0.06756083615658408, "390": 0.035775179637224444, "391": 0.0075902174762562755, "392": 0.026499603657299475, "393": -0.033548884058532985, "394": 0.0007507599669669164, "395": 0.038028556143134024, "396": -0.09422064030617856, "397": -0.037136396812413784, "398": -0.00979016264928201, "399": -0.013811104701935997, "4": -0.04802401752253104, "40": -0.017152999789696918, "41": -0.07953986570028057, "42": 0.07204822991223186, "43": -0.08756889340588155, "44": 0.005893983537003358, "45": 0.08290511824602943, "46": 0.05305027047047926, "47": -0.07911863932824852, "48": -0.049906835929891154, "49": -0.021273074064022967, "5": 0.02104157981918742, "50": -0.048616505887636476, "51": 0.09474582691692664, "52": -0.05016032263839712, "53": 0.05688286661749068, "54": -0.024251866921804015, "55": -0.0691714399474631, "56": 0.0011475856237432365, "57": 0.0018236926649217008, "58": 0.03386510457208768, "59": 0.05819433474676299, "6": -0.041483104436666536, "60": -0.06963938654937796, "61": 0.04611792632625531, "62": 0.08678732542558229, "63": -0.010678664564413347, "64": -0.0042638612676302355, "65": 0.08286499248095837, "66": -0.04307762489858784, "67": 0.08750845169606417, "68": -0.12730459765042043, "69": -0.029422436935524137, "7": 0.0019335858193165257, "70": -0.010198216578795887, "71": -0.03120112486645862, "72": -0.005644919171318969, "73": -0.02713507149416393, "74": 0.0608451311576151, "75": -0.021718037976645985, "76": -0.03213978954169813, "77": -0.03828508202554784, "78": -0.01196506161060469, "79": -0.005569181747081866, "8": -0.06374435355653577, "80": -0.048394150707786486, "81": -0.010064357968788447, "82": -0.020604554254303208, "83": -0.025774470871086422, "84": -0.07883230570975162, "85": -0.0822893029560219, "86": -0.11496291405732952, "87": -0.01971834175778532, "88": -0.02165117013107708, "89": -0.10605226170470092, "9": -0.02674742117728228, "90": -0.014353565690006917, "91": 0.05307313183494869, "92": -0.04868345315662538, "93": -0.07347719918515211, "94": -0.03028602067418566, "95": 0.09632227156739552, "96": -0.07238370216379854, "97": 0.03450093794923712, "98": -0.02535840359970695, "99": -0.004103591110655261}}, {"depth": 16, "sx": 5, "sy": 5, "w": {"0": -0.046311850969891676, "1": -0.057837762552389434, "10": -0.03346432085479598, "100": 0.0654806463321386, "101": -0.01610037980248637, "102": -0.05485546954196295, "103": 0.025397508138511545, "104": -0.11499716259868548, "105": -0.04711453758580407, "106": -0.08275332229192915, "107": 0.012755251610395263, "108": 0.03297533277887044, "109": 0.008350978281187856, "11": -0.02398014840293986, "110": -0.06434024218014213, "111": -0.04254359886431474, "112": -0.06339072832297547, "113": -0.05688867332223323, "114": -0.006129026222166153, "115": -0.042213164619752254, "116": 0.012226885077603455, "117": -0.023065014920876262, "118": -0.012199136139156665, "119": -0.01658658156591757, "12": -0.1121046111915754, "120": -0.05483344071287085, "121": 0.0032731346843929417, "122": -0.062362484901696325, "123": 0.036068904389222396, "124": -0.036855112197393874, "125": 0.014535455760058059, "126": -0.06576231588487201, "127": -0.04159294405890806, "128": -0.03871727859722357, "129": 0.04696773817899798, "13": 0.011033201835749228, "130": -0.03345948001011871, "131": 0.08077104901035372, "132": 0.035117205236502136, "133": 0.026663319464794076, "134": -0.02040605773507858, "135": 0.05656528213430121, "136": 0.05169239181446441, "137": 0.007816525039427574, "138": -0.03373364422445413, "139": -0.0067402870079188385, "14": -0.02754590531852331, "140": -0.020250685253779453, "141": 0.008823866037112351, "142": 0.07034619676087381, "143": -0.008025327116335645, "144": -0.0018989274638456723, "145": 0.05491694245118899, "146": -0.029404778323407578, "147": -0.030008845029250004, "148": -0.03272342217002682, "149": -0.010437479177645096, "15": -0.037441886571810544, "150": 0.02197782529156175, "151": 0.07367162718004766, "152": -0.033621036218482676, "153": 0.02443950116699943, "154": -0.012583164933041492, "155": -0.026894119364040382, "156": 0.044188562631448006, "157": 0.08996118442626398, "158": 0.024676273029230197, "159": -0.07671540460104825, "16": -0.08984075107370472, "160": 0.017059010489595638, "161": 0.1004652057661201, "162": -0.014701859785647326, "163": -0.027646107197357085, "164": 0.0030926139101101965, "165": -0.006949111369055675, "166": -0.031813997390673164, "167": 0.02038920548092073, "168": 0.030135747644119748, "169": -0.006244337971099963, "17": 0.026096033184332457, "170": -0.011688603135343286, "171": -0.10724981168279624, "172": -0.009556123905214816, "173": -0.01279703177973097, "174": 0.03896768585466628, "175": -0.01992770575386466, "176": -0.016147076175666755, "177": -0.01170211625922603, "178": -0.04082409554595448, "179": -0.023708347456800477, "18": 0.011959727985465601, "180": -0.04376433980978098, "181": 0.048869459491759, "182": -0.0032932217979247383, "183": 0.04354783052577334, "184": -0.01701893606129575, "185": 0.014136532520091293, "186": -0.018252624877709473, "187": 0.0010330484719100665, "188": -0.08529664254727252, "189": -0.03666184654652691, "19": -0.03749160256717401, "190": -0.023339292283122922, "191": 0.03837099849929868, "192": -0.027264320446022672, "193": -0.09495026388033555, "194": -0.0812025546285358, "195": -0.051306097498279045, "196": -0.009761540006250697, "197": 0.0003124674887153549, "198": -0.009886171847518641, "199": -0.06084283775265067, "2": -0.03260935232059029, "20": -0.01111882331826313, "200": 0.024421641111890796, "201": -0.046067947365413274, "202": -0.06326190364556071, "203": -0.019494476699956267, "204": 0.011604883478722818, "205": -0.021116175120068057, "206": -0.0122979646449374, "207": -0.06971096595134131, "208": -0.03227470718915067, "209": -0.027939098005196103, "21": -0.040008921730406655, "210": -0.054387294017585505, "211": -0.07156692328885399, "212": -0.0011555877149839633, "213": 0.028469163669020504, "214": -0.018148895294301037, "215": -0.064805671247105, "216": 0.03663028162119466, "217": -0.05432353221165556, "218": -0.08564416516952521, "219": -0.01968764794661509, "22": -0.03231224177949035, "220": 0.03405613926947584, "221": -0.07270971045392237, "222": -0.020490699248377018, "223": -0.09421277202159123, "224": -0.08427713427503071, "225": -0.09886024574344277, "226": 0.018055352003934454, "227": -0.010689914019414333, "228": -0.032304248431506116, "229": -0.012759995334955693, "23": -0.0408015984223595, "230": -0.00843653739934049, "231": -0.01329222278298592, "232": -0.004135876096508515, "233": -0.015286057902047366, "234": 0.008309944680778135, "235": -0.04953187276109149, "236": 0.09536824457493058, "237": -0.08956726256230238, "238": 0.01914261025936817, "239": -0.07848333799592044, "24": 0.057401723877572905, "240": 0.017146447646416957, "241": 0.024050282045884976, "242": -0.023472820957426865, "243": 0.057767816143219165, "244": -0.0036633992962334704, "245": -0.023063802229295157, "246": -0.0742186243376567, "247": -0.07127672614290123, "248": -0.08640129456921515, "249": -0.012840270526898841, "25": -0.05588997353841253, "250": -0.03622474276212849, "251": -0.035063425568678905, "252": -0.018379631045803233, "253": 0.002425019599031443, "254": -0.002662422899554445, "255": 0.03554238009883708, "256": -0.011539815174078386, "257": 0.029706610775341733, "258": 0.008635358510689918, "259": -0.02926735970878929, "26": -0.003912904323593226, "260": 0.05448406188707722, "261": 0.03872591010536812, "262": 0.08170208425936573, "263": -0.04073000397850732, "264": -0.023886573671402896, "265": 0.03461010250468178, "266": -0.025709535832169467, "267": -0.10701773840757205, "268": -0.09811922271376469, "269": -0.09346588426984317, "27": -0.05224499658037527, "270": 0.014929805716397335, "271": 0.013993262767231585, "272": -0.005275611526866692, "273": -0.017723845756479284, "274": 0.019864104424985443, "275": -0.010276348575602941, "276": -0.1064057422200168, "277": 0.006217376246970822, "278": 0.0700203683884459, "279": -0.1278958874844393, "28": 0.00557257100501701, "280": -0.042677960296377423, "281": -0.05140574412826308, "282": -0.01663462218136002, "283": 0.029833635835369965, "284": 0.051114835283833454, "285": -0.05485871209490561, "286": -0.10123475227959013, "287": -0.039044094426937744, "288": -0.03433124063426859, "289": -0.026271395810622617, "29": -0.041747490836735714, "290": -0.051854277487807056, "291": -0.10396985571853821, "292": 0.047281176466001475, "293": 0.01666105818725876, "294": 0.029442848632082907, "295": 0.01017313930429682, "296": 0.009763574461035868, "297": -0.05906259918727277, "298": -0.02664738105946062, "299": -0.04218403572446607, "3": -0.003305101032401529, "30": 0.013523411940466466, "300": 0.013352161617197721, "301": -0.11840961599427635, "302": 0.028005789726673627, "303": 0.023717571277090222, "304": -0.028292408264949394, "305": 0.03260332397651097, "306": -0.14102492812191164, "307": -0.025324275550292555, "308": -0.0010848525871919134, "309": -0.04986651278278415, "31": -0.008999326777744088, "310": -0.03119414838350142, "311": 0.028706254752401173, "312": 0.0007821118954329853, "313": -0.02116983654711649, "314": 0.0635822041571187, "315": -0.007075387444511613, "316": 0.042725343466984596, "317": 0.05855862984916176, "318": 0.016814803803206654, "319": -0.05477323827125488, "32": -0.0990141714102423, "320": -0.041316070032956426, "321": 0.021817865499304444, "322": 